{"learner":{"attributes":{"scikit_learn":"{\"_estimator_type\": \"classifier\"}"},"feature_names":[],"feature_types":[],"gradient_booster":{"model":{"gbtree_model_param":{"num_parallel_tree":"1","num_trees":"72"},"iteration_indptr":[0,1,2,3,4,5,6,7,8,9,10,11,12,13,14,15,16,17,18,19,20,21,22,23,24,25,26,27,28,29,30,31,32,33,34,35,36,37,38,39,40,41,42,43,44,45,46,47,48,49,50,51,52,53,54,55,56,57,58,59,60,61,62,63,64,65,66,67,68,69,70,71,72],"tree_info":[0,0,0,0,0,0,0,0,0,0,0,0,0,0,0,0,0,0,0,0,0,0,0,0,0,0,0,0,0,0,0,0,0,0,0,0,0,0,0,0,0,0,0,0,0,0,0,0,0,0,0,0,0,0,0,0,0,0,0,0,0,0,0,0,0,0,0,0,0,0,0,0],"trees":[{"base_weights":[2.0187255E-2,-1.3113849E0,4.227478E-1,1.1886172E-1,-1.882807E0,1.1014867E0,-2.863965E-3,-1.9198918E-1,3.7337456E-2,1.284848E-1,7.625664E-2,-9.2648044E-2,9.4916E-2],"categories":[],"categories_nodes":[],"categories_segments":[],"categories_sizes":[],"default_left":[0,0,0,0,0,0,0,0,0,0,0,0,0],"id":0,"left_children":[1,3,5,-1,7,9,11,-1,-1,-1,-1,-1,-1],"loss_changes":[1.9941289E2,1.2812236E2,8.412598E1,0E0,1.1671005E1,3.521698E0,1.6046802E2,0E0,0E0,0E0,0E0,0E0,0E0],"parents":[2147483647,0,0,1,1,2,2,4,4,5,5,6,6],"right_children":[2,4,6,-1,8,10,12,-1,-1,-1,-1,-1,-1],"split_conditions":[-2.786299E-2,-2.5081143E-1,-2.1029745E-1,1.1886172E-1,2.4926388E0,1.2037298E-1,2.7239883E-1,-1.9198918E-1,3.7337456E-2,1.284848E-1,7.625664E-2,-9.2648044E-2,9.4916E-2],"split_indices":[9,3,5,0,8,8,5,0,0,0,0,0,0],"split_type":[0,0,0,0,0,0,0,0,0,0,0,0,0],"sum_hessian":[3.7025E2,8.45E1,2.8575E2,1.5E1,6.95E1,1.1E2,1.7575E2,6.85E1,1E0,6.425E1,4.575E1,8.975E1,8.6E1],"tree_param":{"num_deleted":"0","num_feature":"10","num_nodes":"13","size_leaf_vector":"1"}},{"base_weights":[-1.5136188E-2,-1.2323319E0,3.4403184E-1,9.208473E-1,-1.7076983E0,-3.417811E-2,9.7610474E-1,1.0237087E-1,-0E0,3.0265175E-2,-1.7541419E-1,8.171647E-2,-6.704727E-2,1.4686053E-2,1.0224512E-1],"categories":[],"categories_nodes":[],"categories_segments":[],"categories_sizes":[],"default_left":[0,0,0,0,0,0,0,0,0,0,0,0,0,0,0],"id":1,"left_children":[1,3,5,7,9,11,13,-1,-1,-1,-1,-1,-1,-1,-1],"loss_changes":[1.6848048E2,9.345877E1,7.1617905E1,9.9646854E-1,1.1638519E1,1.0319422E2,3.7543945E0,0E0,0E0,0E0,0E0,0E0,0E0,0E0,0E0],"parents":[2147483647,0,0,1,1,2,2,3,3,4,4,5,5,6,6],"right_children":[2,4,6,8,10,12,14,-1,-1,-1,-1,-1,-1,-1,-1],"split_conditions":[-2.786299E-2,-4.3048587E-1,2.2846447E-1,1.7064795E0,-1.2743442E0,-4.2732623E-1,1.3041338E-2,1.0237087E-1,-0E0,3.0265175E-2,-1.7541419E-1,8.171647E-2,-6.704727E-2,1.4686053E-2,1.0224512E-1],"split_indices":[9,4,0,5,0,2,9,0,0,0,0,0,0,0,0],"split_type":[0,0,0,0,0,0,0,0,0,0,0,0,0,0,0],"sum_hessian":[3.8006805E2,8.629855E1,2.937695E2,1.4945736E1,7.135282E1,1.8380313E2,1.0996638E2,1.2454545E1,2.4911907E0,1.4956871E0,6.985713E1,7.77926E1,1.0601052E2,8.484004E0,1.0148237E2],"tree_param":{"num_deleted":"0","num_feature":"10","num_nodes":"15","size_leaf_vector":"1"}},{"base_weights":[-1.3281073E-2,1.0244619E0,-5.2315116E-1,1.0843599E0,2.0028885E-1,-1.0993004E0,7.261589E-1,1.1211926E-1,2.6277624E-2,-0E0,4.1833505E-2,-1.3462773E-1,6.4995535E-2,7.996302E-2,-0E0],"categories":[],"categories_nodes":[],"categories_segments":[],"categories_sizes":[],"default_left":[0,0,0,0,0,0,0,0,0,0,0,0,0,0,0],"id":2,"left_children":[1,3,5,7,9,11,13,-1,-1,-1,-1,-1,-1,-1,-1],"loss_changes":[2.0000023E2,4.493759E0,1.8503839E2,2.556961E0,8.954389E-1,8.223079E1,4.6915016E0,0E0,0E0,0E0,0E0,0E0,0E0,0E0,0E0],"parents":[2147483647,0,0,1,1,2,2,3,3,4,4,5,5,6,6],"right_children":[2,4,6,8,10,12,14,-1,-1,-1,-1,-1,-1,-1,-1],"split_conditions":[-1.1315952E-1,-2.4344972E-1,4.0906683E-1,1.9782872E0,1.815011E-2,2.714135E-1,1.33456E0,1.1211926E-1,2.6277624E-2,-0E0,4.1833505E-2,-1.3462773E-1,6.4995535E-2,7.996302E-2,-0E0],"split_indices":[6,6,6,2,9,0,4,0,0,0,0,0,0,0,0],"split_type":[0,0,0,0,0,0,0,0,0,0,0,0,0,0,0],"sum_hessian":[3.7555954E2,1.2253254E2,2.5302701E2,1.1261587E2,9.91667E0,1.7384789E2,7.917911E1,1.0469557E2,7.920295E0,3.9632893E0,5.95338E0,1.5225948E2,2.1588419E1,7.095397E1,8.225138E0],"tree_param":{"num_deleted":"0","num_feature":"10","num_nodes":"15","size_leaf_vector":"1"}},{"base_weights":[5.167186E-3,1.0299069E0,-4.7662628E-1,1.086589E0,1.8569744E-1,-9.730933E-1,6.402275E-1,1.5920093E-2,1.1133837E-1,4.750634E-2,-2.8274879E-2,-1.2045518E-1,5.4483786E-2,-5.060283E-3,7.03795E-2],"categories":[],"categories_nodes":[],"categories_segments":[],"categories_sizes":[],"default_left":[0,0,0,0,0,0,0,0,0,0,0,0,0,0,0],"id":3,"left_children":[1,3,5,7,9,11,13,-1,-1,-1,-1,-1,-1,-1,-1],"loss_changes":[1.8667015E2,4.2005157E0,1.4319681E2,2.3040314E0,1.9098637E0,6.776369E1,4.5568695E0,0E0,0E0,0E0,0E0,0E0,0E0,0E0,0E0],"parents":[2147483647,0,0,1,1,2,2,3,3,4,4,5,5,6,6],"right_children":[2,4,6,8,10,12,14,-1,-1,-1,-1,-1,-1,-1,-1],"split_conditions":[-2.2277975E-1,1.9099844E0,4.0906683E-1,-1.7831296E0,-8.512992E-1,2.8442958E-1,-3.945128E-1,1.5920093E-2,1.1133837E-1,4.750634E-2,-2.8274879E-2,-1.2045518E-1,5.4483786E-2,-5.060283E-3,7.03795E-2],"split_indices":[6,0,6,2,6,0,9,0,0,0,0,0,0,0,0],"split_type":[0,0,0,0,0,0,0,0,0,0,0,0,0,0,0],"sum_hessian":[3.736433E2,1.1954126E2,2.5410205E2,1.1046846E2,9.0728E0,1.7667128E2,7.743077E1,5.6604605E0,1.04808E2,6.865518E0,2.2072814E0,1.5322394E2,2.3447353E1,5.8829017E0,7.154787E1],"tree_param":{"num_deleted":"0","num_feature":"10","num_nodes":"15","size_leaf_vector":"1"}},{"base_weights":[1.9818675E-2,9.4425523E-1,-3.9938694E-1,9.8650986E-1,-0E0,-1.0140208E0,7.806723E-1,9.9430114E-2,-0E0,-2.9782506E-2,3.348761E-3,-1.1823798E-1,7.2525166E-2,8.334946E-2,1.7488534E-3],"categories":[],"categories_nodes":[],"categories_segments":[],"categories_sizes":[],"default_left":[0,0,0,0,0,0,0,0,0,0,0,0,0,0,0],"id":4,"left_children":[1,3,5,7,9,11,13,-1,-1,-1,-1,-1,-1,-1,-1],"loss_changes":[1.4131313E2,5.256653E0,1.8233295E2,2.0806427E0,2.6722404E-1,5.371727E1,3.0975037E0,0E0,0E0,0E0,0E0,0E0,0E0,0E0,0E0],"parents":[2147483647,0,0,1,1,2,2,3,3,4,4,5,5,6,6],"right_children":[2,4,6,8,10,12,14,-1,-1,-1,-1,-1,-1,-1,-1],"split_conditions":[-2.2277975E-1,2.3723402E0,2.7239883E-1,1.2352132E0,-1.8983558E0,6.7595273E-1,1.2428362E0,9.9430114E-2,-0E0,-2.9782506E-2,3.348761E-3,-1.1823798E-1,7.2525166E-2,8.334946E-2,1.7488534E-3],"split_indices":[6,1,5,5,5,1,1,0,0,0,0,0,0,0,0],"split_type":[0,0,0,0,0,0,0,0,0,0,0,0,0,0,0],"sum_hessian":[3.5995285E2,1.1238621E2,2.4756665E2,1.0822585E2,4.1603518E0,1.6348936E2,8.4077286E1,1.0654804E2,1.6778116E0,1.2232658E0,2.937086E0,1.4923795E2,1.4251415E1,7.651405E1,7.5632315E0],"tree_param":{"num_deleted":"0","num_feature":"10","num_nodes":"15","size_leaf_vector":"1"}},{"base_weights":[2.2838132E-2,8.6765367E-1,-3.26362E-1,1.0102736E0,6.021667E-1,-8.0395997E-1,5.581871E-1,-0E0,1.0163023E-1,4.6805693E-3,1.05820954E-1,-1.0071738E-1,4.5435596E-2,-1.2496235E-2,7.031531E-2],"categories":[],"categories_nodes":[],"categories_segments":[],"categories_sizes":[],"default_left":[0,0,0,0,0,0,0,0,0,0,0,0,0,0,0],"id":5,"left_children":[1,3,5,7,9,11,13,-1,-1,-1,-1,-1,-1,-1,-1],"loss_changes":[1.0640332E2,1.3867264E0,1.0794304E2,5.1904297E-1,1.0070206E1,4.5882225E1,9.967474E0,0E0,0E0,0E0,0E0,0E0,0E0,0E0,0E0],"parents":[2147483647,0,0,1,1,2,2,3,3,4,4,5,5,6,6],"right_children":[2,4,6,8,10,12,14,-1,-1,-1,-1,-1,-1,-1,-1],"split_conditions":[-2.7201638E-1,-2.75704E-1,4.126728E-1,-2.8947005E0,3.534219E-1,3.7692392E-1,1.2369529E-2,-0E0,1.0163023E-1,4.6805693E-3,1.05820954E-1,-1.0071738E-1,4.5435596E-2,-1.2496235E-2,7.031531E-2],"split_indices":[1,3,1,2,3,5,9,0,0,0,0,0,0,0,0],"split_type":[0,0,0,0,0,0,0,0,0,0,0,0,0,0,0],"sum_hessian":[3.5557538E2,1.0409462E2,2.5148076E2,6.223036E1,4.186426E1,1.6413345E2,8.7347305E1,1.4461967E0,6.078416E1,2.0924711E1,2.093955E1,1.414134E2,2.2720037E1,1.4709488E1,7.263782E1],"tree_param":{"num_deleted":"0","num_feature":"10","num_nodes":"15","size_leaf_vector":"1"}},{"base_weights":[2.9165775E-2,8.166631E-1,-3.8605362E-1,8.6151797E-1,1.5451775E-1,-9.374555E-1,5.287458E-1,5.2025855E-2,9.475737E-2,4.598003E-2,-2.4639847E-2,8.627224E-2,-1.1210963E-1,-2.0866435E-2,6.2113833E-2],"categories":[],"categories_nodes":[],"categories_segments":[],"categories_sizes":[],"default_left":[0,0,0,0,0,0,0,0,0,0,0,0,0,0,0],"id":6,"left_children":[1,3,5,7,9,11,13,-1,-1,-1,-1,-1,-1,-1,-1],"loss_changes":[1.1540414E2,2.3986664E0,1.1699508E2,1.2912979E0,1.8051145E0,5.266829E1,6.935446E0,0E0,0E0,0E0,0E0,0E0,0E0,0E0,0E0],"parents":[2147483647,0,0,1,1,2,2,3,3,4,4,5,5,6,6],"right_children":[2,4,6,8,10,12,14,-1,-1,-1,-1,-1,-1,-1,-1],"split_conditions":[-1.05635576E-1,1.9099844E0,3.4263802E-1,-9.147341E-1,-8.512992E-1,-5.56253E-1,-2.6065814E-1,5.2025855E-2,9.475737E-2,4.598003E-2,-2.4639847E-2,8.627224E-2,-1.1210963E-1,-2.0866435E-2,6.2113833E-2],"split_indices":[6,0,6,1,6,4,9,0,0,0,0,0,0,0,0],"split_type":[0,0,0,0,0,0,0,0,0,0,0,0,0,0,0],"sum_hessian":[3.4833942E2,1.2052453E2,2.278149E2,1.11002815E2,9.521708E0,1.4278998E2,8.502491E1,2.9168602E1,8.183421E1,6.634159E0,2.887549E0,1.2792128E1,1.2999785E2,8.568291E0,7.645663E1],"tree_param":{"num_deleted":"0","num_feature":"10","num_nodes":"15","size_leaf_vector":"1"}},{"base_weights":[2.5239473E-2,6.910411E-1,-3.3282474E-1,9.422298E-1,5.138779E-1,-8.923344E-1,6.023601E-1,9.602266E-2,-0E0,8.4126554E-2,2.417204E-2,-1.1113913E-1,5.2678045E-2,-0E0,6.42849E-2],"categories":[],"categories_nodes":[],"categories_segments":[],"categories_sizes":[],"default_left":[0,0,0,0,0,0,0,0,0,0,0,0,0,0,0],"id":7,"left_children":[1,3,5,7,9,11,13,-1,-1,-1,-1,-1,-1,-1,-1],"loss_changes":[8.246121E1,3.147026E0,1.1790849E2,1.292408E0,5.554285E0,4.766194E1,2.2274132E0,0E0,0E0,0E0,0E0,0E0,0E0,0E0,0E0],"parents":[2147483647,0,0,1,1,2,2,3,3,4,4,5,5,6,6],"right_children":[2,4,6,8,10,12,14,-1,-1,-1,-1,-1,-1,-1,-1],"split_conditions":[-1.05635576E-1,-1.1209255E0,2.7239883E-1,-3.8116598E-1,-4.9292478E-1,2.8442958E-1,3.7692392E-1,9.602266E-2,-0E0,8.4126554E-2,2.417204E-2,-1.1113913E-1,5.2678045E-2,-0E0,6.42849E-2],"split_indices":[6,5,5,6,3,0,5,0,0,0,0,0,0,0,0],"split_type":[0,0,0,0,0,0,0,0,0,0,0,0,0,0,0],"sum_hessian":[3.4111414E2,1.19717834E2,2.2139629E2,4.420783E1,7.551001E1,1.3923251E2,8.2163765E1,4.3051598E1,1.1562307E0,3.0425797E1,4.508421E1,1.2080607E2,1.8426447E1,6.3187876E0,7.584498E1],"tree_param":{"num_deleted":"0","num_feature":"10","num_nodes":"15","size_leaf_vector":"1"}},{"base_weights":[-1.3168056E-2,6.946052E-1,-3.134034E-1,7.5600827E-1,2.3124841E-1,-7.865713E-1,3.6003837E-1,5.391242E-2,1.0076155E-1,-5.477222E-3,5.4825947E-2,6.181145E-2,-1.0228813E-1,-5.6260686E-2,4.8940945E-2],"categories":[],"categories_nodes":[],"categories_segments":[],"categories_sizes":[],"default_left":[0,0,0,0,0,0,0,0,0,0,0,0,0,0,0],"id":8,"left_children":[1,3,5,7,9,11,13,-1,-1,-1,-1,-1,-1,-1,-1],"loss_changes":[7.167624E1,1.573761E0,7.706114E1,2.263504E0,2.0232406E0,5.0686127E1,1.2699356E1,0E0,0E0,0E0,0E0,0E0,0E0,0E0,0E0],"parents":[2147483647,0,0,1,1,2,2,3,3,4,4,5,5,6,6],"right_children":[2,4,6,8,10,12,14,-1,-1,-1,-1,-1,-1,-1,-1],"split_conditions":[-2.878315E-1,1.3248482E0,2.856541E-1,-5.5190682E-2,1.7937257E0,-3.8803053E-1,-1.20863356E-1,5.391242E-2,1.0076155E-1,-5.477222E-3,5.4825947E-2,6.181145E-2,-1.0228813E-1,-5.6260686E-2,4.8940945E-2],"split_indices":[1,5,1,5,5,7,9,0,0,0,0,0,0,0,0],"split_type":[0,0,0,0,0,0,0,0,0,0,0,0,0,0,0],"sum_hessian":[3.3569138E2,9.8346504E1,2.3734486E2,8.401474E1,1.4331765E1,1.401003E2,9.7244576E1,5.134631E1,3.266843E1,6.690873E0,7.6408916E0,1.9826382E1,1.2027391E2,1.0653704E1,8.659087E1],"tree_param":{"num_deleted":"0","num_feature":"10","num_nodes":"15","size_leaf_vector":"1"}},{"base_weights":[1.1538767E-2,6.291093E-1,-3.33486E-1,7.407704E-1,1.575008E-1,-7.680624E-1,4.8012483E-1,7.361446E-3,8.232801E-2,7.058535E-2,-9.789113E-3,6.577815E-2,-9.713291E-2,5.768238E-2,-1.076149E-2],"categories":[],"categories_nodes":[],"categories_segments":[],"categories_sizes":[],"default_left":[0,0,0,0,0,0,0,0,0,0,0,0,0,0,0],"id":9,"left_children":[1,3,5,7,9,11,13,-1,-1,-1,-1,-1,-1,-1,-1],"loss_changes":[7.004127E1,5.145878E0,7.4805954E1,4.62986E0,4.494642E0,4.3303368E1,4.9679203E0,0E0,0E0,0E0,0E0,0E0,0E0,0E0,0E0],"parents":[2147483647,0,0,1,1,2,2,3,3,4,4,5,5,6,6],"right_children":[2,4,6,8,10,12,14,-1,-1,-1,-1,-1,-1,-1,-1],"split_conditions":[-1.05635576E-1,-3.4050262E-1,4.2979658E-1,-1.1188565E0,-3.915056E-1,-4.807397E-1,9.7407687E-1,7.361446E-3,8.232801E-2,7.058535E-2,-9.789113E-3,6.577815E-2,-9.713291E-2,5.768238E-2,-1.076149E-2],"split_indices":[6,6,6,2,0,4,8,0,0,0,0,0,0,0,0],"split_type":[0,0,0,0,0,0,0,0,0,0,0,0,0,0,0],"sum_hessian":[3.240136E2,1.1667295E2,2.0734065E2,9.186376E1,2.4809187E1,1.3600743E2,7.133322E1,1.2640216E1,7.922355E1,8.118195E0,1.669099E1,1.6510624E1,1.194968E2,6.2235207E1,9.098016E0],"tree_param":{"num_deleted":"0","num_feature":"10","num_nodes":"15","size_leaf_vector":"1"}},{"base_weights":[-2.190766E-2,5.873961E-1,-3.1138322E-1,8.576008E-1,3.7283644E-1,-7.53745E-1,4.9310538E-1,-0E0,9.516276E-2,5.0345644E-2,-4.1292477E-2,4.18961E-2,-8.926284E-2,5.2497506E-2,-2.5481043E-2],"categories":[],"categories_nodes":[],"categories_segments":[],"categories_sizes":[],"default_left":[0,0,0,0,0,0,0,0,0,0,0,0,0,0,0],"id":10,"left_children":[1,3,5,7,9,11,13,-1,-1,-1,-1,-1,-1,-1,-1],"loss_changes":[5.710982E1,4.256279E0,7.9735275E1,3.6507912E0,7.1617403E0,2.6156265E1,2.678957E0,0E0,0E0,0E0,0E0,0E0,0E0,0E0,0E0],"parents":[2147483647,0,0,1,1,2,2,3,3,4,4,5,5,6,6],"right_children":[2,4,6,8,10,12,14,-1,-1,-1,-1,-1,-1,-1,-1],"split_conditions":[-2.4344972E-1,-1.1209255E0,3.0328304E-1,-1.4913417E0,1.4501747E0,-3.5789993E-1,1.7301667E0,-0E0,9.516276E-2,5.0345644E-2,-4.1292477E-2,4.18961E-2,-8.926284E-2,5.2497506E-2,-2.5481043E-2],"split_indices":[6,5,5,1,2,1,1,0,0,0,0,0,0,0,0],"split_type":[0,0,0,0,0,0,0,0,0,0,0,0,0,0,0],"sum_hessian":[3.2193213E2,1.0202806E2,2.1990407E2,4.089073E1,6.113733E1,1.427494E2,7.7154655E1,4.687895E0,3.6202835E1,5.377038E1,7.366949E0,1.4790276E1,1.2795913E2,7.527086E1,1.8838001E0],"tree_param":{"num_deleted":"0","num_feature":"10","num_nodes":"15","size_leaf_vector":"1"}},{"base_weights":[4.756914E-3,5.2746004E-1,-2.9169977E-1,5.6058764E-1,-7.685963E-2,-7.114638E-1,4.608415E-1,2.0454813E-2,6.567639E-2,-4.623263E-2,2.7833246E-2,-8.6527586E-2,6.553593E-2,6.103144E-2,1.6651196E-2],"categories":[],"categories_nodes":[],"categories_segments":[],"categories_sizes":[],"default_left":[0,0,0,0,0,0,0,0,0,0,0,0,0,0,0],"id":11,"left_children":[1,3,5,7,9,11,13,-1,-1,-1,-1,-1,-1,-1,-1],"loss_changes":[4.9372807E1,2.8735962E0,6.433989E1,2.959179E0,1.2330025E0,3.0241158E1,2.3304873E0,0E0,0E0,0E0,0E0,0E0,0E0,0E0,0E0],"parents":[2147483647,0,0,1,1,2,2,3,3,4,4,5,5,6,6],"right_children":[2,4,6,8,10,12,14,-1,-1,-1,-1,-1,-1,-1,-1],"split_conditions":[-1.05635576E-1,2.3723402E0,3.4164742E-1,-9.147341E-1,-2.7840245E-1,7.402046E-1,1.4246274E0,2.0454813E-2,6.567639E-2,-4.623263E-2,2.7833246E-2,-8.6527586E-2,6.553593E-2,6.103144E-2,1.6651196E-2],"split_indices":[6,1,5,1,7,1,5,0,0,0,0,0,0,0,0],"split_type":[0,0,0,0,0,0,0,0,0,0,0,0,0,0,0],"sum_hessian":[3.1377237E2,1.14293846E2,1.9947853E2,1.1002497E2,4.268875E0,1.2895657E2,7.052195E1,2.7989767E1,8.20352E1,3.1257067E0,1.1431684E0,1.1653573E2,1.2420849E1,4.265814E1,2.7863813E1],"tree_param":{"num_deleted":"0","num_feature":"10","num_nodes":"15","size_leaf_vector":"1"}},{"base_weights":[7.102891E-3,6.165206E-1,-2.2455776E-1,6.558434E-1,-1.1628006E-1,-5.0333333E-1,4.2426622E-1,2.5702946E-2,7.531797E-2,-0E0,-4.404777E-2,3.9072406E-2,-9.53625E-2,6.810705E-2,9.111791E-3],"categories":[],"categories_nodes":[],"categories_segments":[],"categories_sizes":[],"default_left":[0,0,0,0,0,0,0,0,0,0,0,0,0,0,0],"id":12,"left_children":[1,3,5,7,9,11,13,-1,-1,-1,-1,-1,-1,-1,-1],"loss_changes":[4.4655617E1,3.1853294E0,4.1322887E1,2.162754E0,4.9297926E-1,6.716148E1,5.050002E0,0E0,0E0,0E0,0E0,0E0,0E0,0E0,0E0],"parents":[2147483647,0,0,1,1,2,2,3,3,4,4,5,5,6,6],"right_children":[2,4,6,8,10,12,14,-1,-1,-1,-1,-1,-1,-1,-1],"split_conditions":[-3.9775485E-1,2.3723402E0,2.4295244E-1,-9.147341E-1,5.319334E-1,-2.7201638E-1,6.058777E-2,2.5702946E-2,7.531797E-2,-0E0,-4.404777E-2,3.9072406E-2,-9.53625E-2,6.810705E-2,9.111791E-3],"split_indices":[7,1,0,1,8,1,8,0,0,0,0,0,0,0,0],"split_type":[0,0,0,0,0,0,0,0,0,0,0,0,0,0,0],"sum_hessian":[3.102363E2,8.5862274E1,2.2437404E2,8.294097E1,2.9213026E0,1.5827386E2,6.610018E1,2.0500969E1,6.244E1,1.7884251E0,1.1328776E0,5.292117E1,1.0535269E2,3.421511E1,3.188507E1],"tree_param":{"num_deleted":"0","num_feature":"10","num_nodes":"15","size_leaf_vector":"1"}},{"base_weights":[3.80501E-2,5.792532E-1,-1.5398864E-1,6.458229E-1,-8.6493455E-2,-5.1724225E-1,5.091431E-1,-0E0,6.634421E-2,2.9910862E-2,-6.784886E-2,-7.2641306E-2,5.4272227E-2,-3.6659643E-2,5.7940062E-2],"categories":[],"categories_nodes":[],"categories_segments":[],"categories_sizes":[],"default_left":[0,0,0,0,0,0,0,0,0,0,0,0,0,0,0],"id":13,"left_children":[1,3,5,7,9,11,13,-1,-1,-1,-1,-1,-1,-1,-1],"loss_changes":[3.1892769E1,4.221874E0,5.4023705E1,1.6786137E0,2.4585812E0,3.4340893E1,5.810791E0,0E0,0E0,0E0,0E0,0E0,0E0,0E0,0E0],"parents":[2147483647,0,0,1,1,2,2,3,3,4,4,5,5,6,6],"right_children":[2,4,6,8,10,12,14,-1,-1,-1,-1,-1,-1,-1,-1],"split_conditions":[-4.3868122E-1,-1.3509314E-1,3.8507432E-1,-2.2160287E0,-6.655053E-1,4.459211E-1,1.5447241E-1,-0E0,6.634421E-2,2.9910862E-2,-6.784886E-2,-7.2641306E-2,5.4272227E-2,-3.6659643E-2,5.7940062E-2],"split_indices":[4,8,4,0,2,0,3,0,0,0,0,0,0,0,0],"split_type":[0,0,0,0,0,0,0,0,0,0,0,0,0,0,0],"sum_hessian":[2.9969162E2,7.895869E1,2.2073293E2,7.318109E1,5.7775955E0,1.4381653E2,7.691638E1,1.5101521E0,7.167094E1,3.001579E0,2.7760167E0,1.2076969E2,2.3046839E1,4.5474334E0,7.236895E1],"tree_param":{"num_deleted":"0","num_feature":"10","num_nodes":"15","size_leaf_vector":"1"}},{"base_weights":[-5.4996804E-4,4.3259943E-1,-2.11202E-1,2.0359147E-2,5.576556E-1,5.462598E-1,-4.0884557E-1,-2.5295082E-2,7.4383914E-2,6.366839E-2,-0E0,8.375745E-3,6.6579744E-2,-9.233498E-2,1.931588E-2],"categories":[],"categories_nodes":[],"categories_segments":[],"categories_sizes":[],"default_left":[0,0,0,0,0,0,0,0,0,0,0,0,0,0,0],"id":14,"left_children":[1,3,5,7,9,11,13,-1,-1,-1,-1,-1,-1,-1,-1],"loss_changes":[2.6977844E1,4.3562717E0,3.0490906E1,6.034694E0,3.786621E0,1.565753E0,5.2306183E1,0E0,0E0,0E0,0E0,0E0,0E0,0E0,0E0],"parents":[2147483647,0,0,1,1,2,2,3,3,4,4,5,5,6,6],"right_children":[2,4,6,8,10,12,14,-1,-1,-1,-1,-1,-1,-1,-1],"split_conditions":[-2.4344972E-1,-9.147341E-1,-3.83941E-1,-4.7949937E-1,1.9099844E0,-3.3805382E-1,4.111214E-2,-2.5295082E-2,7.4383914E-2,6.366839E-2,-0E0,8.375745E-3,6.6579744E-2,-9.233498E-2,1.931588E-2],"split_indices":[6,1,1,6,0,7,0,0,0,0,0,0,0,0,0],"split_type":[0,0,0,0,0,0,0,0,0,0,0,0,0,0,0],"sum_hessian":[2.9472287E2,9.431545E1,2.0040741E2,2.4251251E1,7.00642E1,3.9821327E1,1.6058609E2,1.7411604E1,6.839647E0,6.1495167E1,8.569033E0,1.0818013E1,2.9003315E1,8.642422E1,7.416187E1],"tree_param":{"num_deleted":"0","num_feature":"10","num_nodes":"15","size_leaf_vector":"1"}},{"base_weights":[3.5744992E-3,6.4126647E-1,-1.6553165E-1,7.2048813E-1,-0E0,4.1832384E-1,-3.6427462E-1,-0E0,7.679727E-2,1.4741812E-2,-4.044021E-2,5.1005366E-3,6.447263E-2,-6.7154646E-2,3.1618055E-2],"categories":[],"categories_nodes":[],"categories_segments":[],"categories_sizes":[],"default_left":[0,0,0,0,0,0,0,0,0,0,0,0,0,0,0],"id":15,"left_children":[1,3,5,7,9,11,13,-1,-1,-1,-1,-1,-1,-1,-1],"loss_changes":[3.1490898E1,3.7259579E0,2.6443798E1,1.7779636E0,7.6043427E-1,4.1045914E0,3.735054E1,0E0,0E0,0E0,0E0,0E0,0E0,0E0,0E0],"parents":[2147483647,0,0,1,1,2,2,3,3,4,4,5,5,6,6],"right_children":[2,4,6,8,10,12,14,-1,-1,-1,-1,-1,-1,-1,-1],"split_conditions":[-6.26798E-1,1.6738243E0,-5.103644E-1,-1.3188626E0,-9.67828E-1,-6.8509614E-1,4.1809726E-1,-0E0,7.679727E-2,1.4741812E-2,-4.044021E-2,5.1005366E-3,6.447263E-2,-6.7154646E-2,3.1618055E-2],"split_indices":[7,0,3,4,6,0,0,0,0,0,0,0,0,0,0],"split_type":[0,0,0,0,0,0,0,0,0,0,0,0,0,0,0],"sum_hessian":[2.8432266E2,5.9843803E1,2.2447885E2,5.4236664E1,5.6071405E0,5.5269733E1,1.6920912E2,4.664434E0,4.957223E1,3.3924649E0,2.2146757E0,2.389093E1,3.1378803E1,1.1698642E2,5.22227E1],"tree_param":{"num_deleted":"0","num_feature":"10","num_nodes":"15","size_leaf_vector":"1"}},{"base_weights":[-1.8149097E-2,4.6387848E-1,-2.043953E-1,5.4317516E-1,-0E0,-4.8708254E-1,3.4985068E-1,5.8062006E-2,-3.390875E-2,-7.104895E-2,5.29188E-2,-7.133159E-2,2.4515739E-2,-2.1597827E-2,4.5154523E-2],"categories":[],"categories_nodes":[],"categories_segments":[],"categories_sizes":[],"default_left":[0,0,0,0,0,0,0,0,0,0,0,0,0,0,0],"id":16,"left_children":[1,3,5,7,9,11,13,-1,-1,-1,-1,-1,-1,-1,-1],"loss_changes":[2.5255066E1,2.9713993E0,3.275209E1,3.1178398E0,5.5238934E0,2.4479816E1,4.5845823E0,0E0,0E0,0E0,0E0,0E0,0E0,0E0,0E0],"parents":[2147483647,0,0,1,1,2,2,3,3,4,4,5,5,6,6],"right_children":[2,4,6,8,10,12,14,-1,-1,-1,-1,-1,-1,-1,-1],"split_conditions":[-5.3171784E-1,-4.3868122E-1,3.983553E-1,2.847023E0,-7.102432E-1,4.1809726E-1,-7.157591E-1,5.8062006E-2,-3.390875E-2,-7.104895E-2,5.29188E-2,-7.133159E-2,2.4515739E-2,-2.1597827E-2,4.5154523E-2],"split_indices":[3,4,4,7,0,0,2,0,0,0,0,0,0,0,0],"split_type":[0,0,0,0,0,0,0,0,0,0,0,0,0,0,0],"sum_hessian":[2.8073615E2,7.60605E1,2.0467564E2,6.509172E1,1.09687805E1,1.3686276E2,6.781289E1,6.3687916E1,1.4038068E0,4.6021333E0,6.3666472E0,1.0495371E2,3.1909042E1,8.915268E0,5.8897617E1],"tree_param":{"num_deleted":"0","num_feature":"10","num_nodes":"15","size_leaf_vector":"1"}},{"base_weights":[1.625863E-2,4.984697E-1,-2.2036786E-1,5.6254834E-1,-0E0,-8.944186E-1,-0E0,3.524526E-2,8.122054E-2,2.6730454E-2,-7.447889E-2,4.4806182E-2,-1.0922593E-1,-3.2091945E-2,3.019438E-2],"categories":[],"categories_nodes":[],"categories_segments":[],"categories_sizes":[],"default_left":[0,0,0,0,0,0,0,0,0,0,0,0,0,0,0],"id":17,"left_children":[1,3,5,7,9,11,13,-1,-1,-1,-1,-1,-1,-1,-1],"loss_changes":[3.2103073E1,2.9330978E0,2.6920235E1,2.7315445E0,2.8236659E0,1.4079636E1,1.4257519E1,0E0,0E0,0E0,0E0,0E0,0E0,0E0,0E0],"parents":[2147483647,0,0,1,1,2,2,3,3,4,4,5,5,6,6],"right_children":[2,4,6,8,10,12,14,-1,-1,-1,-1,-1,-1,-1,-1],"split_conditions":[-2.6091972E-1,1.632407E-1,-8.154753E-3,-6.655053E-1,-1.3093106E0,-1.7868736E0,3.1091002E-1,3.524526E-2,8.122054E-2,2.6730454E-2,-7.447889E-2,4.4806182E-2,-1.0922593E-1,-3.2091945E-2,3.019438E-2],"split_indices":[1,9,9,2,3,4,2,0,0,0,0,0,0,0,0],"split_type":[0,0,0,0,0,0,0,0,0,0,0,0,0,0,0],"sum_hessian":[2.7564517E2,9.150651E1,1.8413866E2,8.0755875E1,1.0750636E1,4.3255833E1,1.4088283E2,4.91322E1,3.1623676E1,8.7765465E0,1.9740896E0,4.891531E0,3.83643E1,6.9454056E1,7.142877E1],"tree_param":{"num_deleted":"0","num_feature":"10","num_nodes":"15","size_leaf_vector":"1"}},{"base_weights":[-0E0,4.138533E-1,-1.9484895E-1,2.3271802E-1,6.5537614E-1,-5.205214E-1,1.9297244E-1,4.409429E-2,-1.2105265E-2,-0E0,6.869349E-2,3.0211728E-2,-7.635835E-2,5.6119643E-2,8.163855E-3],"categories":[],"categories_nodes":[],"categories_segments":[],"categories_sizes":[],"default_left":[0,0,0,0,0,0,0,0,0,0,0,0,0,0,0],"id":18,"left_children":[1,3,5,7,9,11,13,-1,-1,-1,-1,-1,-1,-1,-1],"loss_changes":[2.1873873E1,2.643592E0,2.4031887E1,4.506316E0,1.211874E0,2.2169489E1,2.7844467E0,0E0,0E0,0E0,0E0,0E0,0E0,0E0,0E0],"parents":[2147483647,0,0,1,1,2,2,3,3,4,4,5,5,6,6],"right_children":[2,4,6,8,10,12,14,-1,-1,-1,-1,-1,-1,-1,-1],"split_conditions":[-2.7201638E-1,-8.2312346E-1,2.856541E-1,-2.75704E-1,-2.0530174E0,-1.05635576E-1,-4.6875876E-1,4.409429E-2,-1.2105265E-2,-0E0,6.869349E-2,3.0211728E-2,-7.635835E-2,5.6119643E-2,8.163855E-3],"split_indices":[1,1,1,3,3,6,3,0,0,0,0,0,0,0,0],"split_type":[0,0,0,0,0,0,0,0,0,0,0,0,0,0,0],"sum_hessian":[2.694192E2,8.472582E1,1.8469336E2,5.26413E1,3.2084522E1,1.0146923E2,8.322414E1,3.441396E1,1.822734E1,1.0864145E0,3.0998106E1,2.2602335E1,7.88669E1,1.5379888E1,6.7844246E1],"tree_param":{"num_deleted":"0","num_feature":"10","num_nodes":"15","size_leaf_vector":"1"}},{"base_weights":[2.0144109E-2,-5.417015E-1,1.5224987E-1,4.8965776E-1,-9.414154E-1,2.6357582E-1,-3.9260197E-1,6.476981E-2,-0E0,-1.080254E-1,1.2329067E-2,5.4293923E-2,1.3130869E-2,2.446524E-2,-1.137584E-1],"categories":[],"categories_nodes":[],"categories_segments":[],"categories_sizes":[],"default_left":[0,0,0,0,0,0,0,0,0,0,0,0,0,0,0],"id":19,"left_children":[1,3,5,7,9,11,13,-1,-1,-1,-1,-1,-1,-1,-1],"loss_changes":[1.933646E1,2.1489826E1,1.3169346E1,6.972754E-1,7.018379E0,5.9942484E0,1.8708084E1,0E0,0E0,0E0,0E0,0E0,0E0,0E0,0E0],"parents":[2147483647,0,0,1,1,2,2,3,3,4,4,5,5,6,6],"right_children":[2,4,6,8,10,12,14,-1,-1,-1,-1,-1,-1,-1,-1],"split_conditions":[-1.3407516E-2,-2.2042896E-1,1.5521367E-1,5.358438E-1,4.8145157E-1,-2.7180165E-1,-9.0820974E-1,6.476981E-2,-0E0,-1.080254E-1,1.2329067E-2,5.4293923E-2,1.3130869E-2,2.446524E-2,-1.137584E-1],"split_indices":[9,3,9,6,4,3,3,0,0,0,0,0,0,0,0],"split_type":[0,0,0,0,0,0,0,0,0,0,0,0,0,0,0],"sum_hessian":[2.6218716E2,4.7494164E1,2.14693E2,1.2467281E1,3.5026882E1,1.8049799E2,3.4195004E1,7.887403E0,4.579879E0,3.1510715E1,3.5161674E0,5.2842686E1,1.27655304E2,1.84213E1,1.5773704E1],"tree_param":{"num_deleted":"0","num_feature":"10","num_nodes":"15","size_leaf_vector":"1"}},{"base_weights":[2.8422982E-2,-5.2986854E-1,1.4210184E-1,5.05371E-1,-1.0251957E-1,2.2909856E-1,-4.1235688E-1,7.0588015E-2,3.1278685E-3,5.44645E-2,9.477653E-3,6.4964155E-3,-9.887142E-2],"categories":[],"categories_nodes":[],"categories_segments":[],"categories_sizes":[],"default_left":[0,0,0,0,0,0,0,0,0,0,0,0,0],"id":20,"left_children":[1,3,5,7,-1,9,11,-1,-1,-1,-1,-1,-1],"loss_changes":[1.6465677E1,2.4123695E1,1.0671909E1,6.70485E-1,0E0,7.5852394E0,9.187935E0,0E0,0E0,0E0,0E0,0E0,0E0],"parents":[2147483647,0,0,1,1,2,2,3,3,5,5,6,6],"right_children":[2,4,6,8,-1,10,12,-1,-1,-1,-1,-1,-1],"split_conditions":[-3.2544505E-2,-2.2042896E-1,1.7429453E-1,-1.0318615E0,-1.0251957E-1,-3.201387E-1,-1.0536089E0,7.0588015E-2,3.1278685E-3,5.44645E-2,9.477653E-3,6.4964155E-3,-9.887142E-2],"split_indices":[9,3,9,2,0,3,8,0,0,0,0,0,0],"split_type":[0,0,0,0,0,0,0,0,0,0,0,0,0],"sum_hessian":[2.6183987E2,4.1782825E1,2.2005705E2,1.3056395E1,2.872643E1,1.9260773E2,2.744932E1,7.039954E0,6.0164404E0,5.2866047E1,1.3974168E2,1.5002258E1,1.2447061E1],"tree_param":{"num_deleted":"0","num_feature":"10","num_nodes":"13","size_leaf_vector":"1"}},{"base_weights":[3.0129476E-2,3.9961758E-1,-1.3885912E-1,5.807645E-1,1.4150847E-1,4.2511475E-1,-3.3535406E-1,3.3296343E-2,1.0008504E-1,-2.2542909E-2,6.4540006E-2,5.0988667E-2,-2.3566198E-2,-5.4538555E-2,1.562585E-2],"categories":[],"categories_nodes":[],"categories_segments":[],"categories_sizes":[],"default_left":[0,0,0,0,0,0,0,0,0,0,0,0,0,0,0],"id":21,"left_children":[1,3,5,7,9,11,13,-1,-1,-1,-1,-1,-1,-1,-1],"loss_changes":[1.6369831E1,3.0165749E0,1.9590813E1,2.913989E0,7.9370813E0,3.1394138E0,1.4579614E1,0E0,0E0,0E0,0E0,0E0,0E0,0E0,0E0],"parents":[2147483647,0,0,1,1,2,2,3,3,4,4,5,5,6,6],"right_children":[2,4,6,8,10,12,14,-1,-1,-1,-1,-1,-1,-1,-1],"split_conditions":[-2.7201638E-1,-2.75704E-1,-3.4050262E-1,-6.328336E-1,3.534219E-1,7.88327E-1,4.2979658E-1,3.3296343E-2,1.0008504E-1,-2.2542909E-2,6.4540006E-2,5.0988667E-2,-2.3566198E-2,-5.4538555E-2,1.562585E-2],"split_indices":[1,3,6,3,3,7,6,0,0,0,0,0,0,0,0],"split_type":[0,0,0,0,0,0,0,0,0,0,0,0,0,0,0],"sum_hessian":[2.5486688E2,8.110887E1,1.7375803E2,4.417183E1,3.6937042E1,4.308901E1,1.30669E2,3.1517675E1,1.2654153E1,2.083934E1,1.60977E1,3.960611E1,3.4829006E0,9.223078E1,3.8438225E1],"tree_param":{"num_deleted":"0","num_feature":"10","num_nodes":"15","size_leaf_vector":"1"}},{"base_weights":[-2.8902562E-2,2.9521286E-1,-1.9121018E-1,1.8908286E-1,6.147584E-1,-7.8036475E-1,8.606467E-2,3.9720066E-2,-2.1166643E-2,7.9473406E-2,-2.819821E-4,-8.978836E-2,1.3714599E-2,-5.369468E-2,2.4824966E-2],"categories":[],"categories_nodes":[],"categories_segments":[],"categories_sizes":[],"default_left":[0,0,0,0,0,0,0,0,0,0,0,0,0,0,0],"id":22,"left_children":[1,3,5,7,9,11,13,-1,-1,-1,-1,-1,-1,-1,-1],"loss_changes":[1.2877791E1,1.7331862E0,2.7963858E1,5.882486E0,2.7611036E0,7.2866745E0,1.16616E1,0E0,0E0,0E0,0E0,0E0,0E0,0E0,0E0],"parents":[2147483647,0,0,1,1,2,2,3,3,4,4,5,5,6,6],"right_children":[2,4,6,8,10,12,14,-1,-1,-1,-1,-1,-1,-1,-1],"split_conditions":[-2.7201638E-1,3.534219E-1,-8.520831E-2,1.2037298E-1,2.8143547E0,1.3670422E0,1.3041338E-2,3.9720066E-2,-2.1166643E-2,7.9473406E-2,-2.819821E-4,-8.978836E-2,1.3714599E-2,-5.369468E-2,2.4824966E-2],"split_indices":[1,3,0,8,8,3,9,0,0,0,0,0,0,0,0],"split_type":[0,0,0,0,0,0,0,0,0,0,0,0,0,0,0],"sum_hessian":[2.4328445E2,7.868149E1,1.6460297E2,6.3395596E1,1.5285889E1,5.284865E1,1.1175432E2,4.315947E1,2.0236128E1,1.2573351E1,2.7125382E0,4.744216E1,5.4064875E0,2.1149683E1,9.060464E1],"tree_param":{"num_deleted":"0","num_feature":"10","num_nodes":"15","size_leaf_vector":"1"}},{"base_weights":[1.4034346E-2,3.4571624E-1,-1.277434E-1,4.6167538E-1,-0E0,3.122412E-1,-2.849879E-1,6.8653976E-3,5.443874E-2,-4.4557337E-2,2.1010637E-2,4.3223888E-2,-1.5305465E-2,-4.044631E-2,3.9084073E-2],"categories":[],"categories_nodes":[],"categories_segments":[],"categories_sizes":[],"default_left":[0,0,0,0,0,0,0,0,0,0,0,0,0,0,0],"id":23,"left_children":[1,3,5,7,9,11,13,-1,-1,-1,-1,-1,-1,-1,-1],"loss_changes":[1.1966936E1,2.9788857E0,1.2096619E1,1.2913656E0,2.1553776E0,2.982266E0,1.1181424E1,0E0,0E0,0E0,0E0,0E0,0E0,0E0,0E0],"parents":[2147483647,0,0,1,1,2,2,3,3,4,4,5,5,6,6],"right_children":[2,4,6,8,10,12,14,-1,-1,-1,-1,-1,-1,-1,-1],"split_conditions":[-3.9775485E-1,7.4150205E-1,-5.103644E-1,-9.147341E-1,1.2963296E0,1.4451714E0,9.802232E-1,6.8653976E-3,5.443874E-2,-4.4557337E-2,2.1010637E-2,4.3223888E-2,-1.5305465E-2,-4.044631E-2,3.9084073E-2],"split_indices":[7,8,3,1,8,5,3,0,0,0,0,0,0,0,0],"split_type":[0,0,0,0,0,0,0,0,0,0,0,0,0,0,0],"sum_hessian":[2.4663481E2,7.522851E1,1.714063E2,5.54244E1,1.9804111E1,4.3034187E1,1.2837212E2,1.2755972E1,4.2668427E1,5.4040427E0,1.4400068E1,3.5759995E1,7.274194E0,1.1045541E2,1.7916704E1],"tree_param":{"num_deleted":"0","num_feature":"10","num_nodes":"15","size_leaf_vector":"1"}},{"base_weights":[-2.1957322E-3,-5.3252596E-1,7.676693E-2,4.4115937E-1,-9.38554E-1,2.7407503E-1,-9.6925355E-2,-0E0,5.783049E-2,-0E0,-9.995395E-2,4.84719E-2,1.5461326E-2,-5.4910414E-2,1.5076523E-2],"categories":[],"categories_nodes":[],"categories_segments":[],"categories_sizes":[],"default_left":[0,0,0,0,0,0,0,0,0,0,0,0,0,0,0],"id":24,"left_children":[1,3,5,7,9,11,13,-1,-1,-1,-1,-1,-1,-1,-1],"loss_changes":[1.0889047E1,1.4599586E1,7.6003227E0,9.6772385E-1,2.3911285E0,1.8715625E0,1.3426666E1,0E0,0E0,0E0,0E0,0E0,0E0,0E0,0E0],"parents":[2147483647,0,0,1,1,2,2,3,3,4,4,5,5,6,6],"right_children":[2,4,6,8,10,12,14,-1,-1,-1,-1,-1,-1,-1,-1],"split_conditions":[-4.4007327E-2,-1.4582689E0,-6.749127E-3,-2.5808506E0,-6.784869E-1,-1.1736004E0,2.6830953E-1,-0E0,5.783049E-2,-0E0,-9.995395E-2,4.84719E-2,1.5461326E-2,-5.4910414E-2,1.5076523E-2],"split_indices":[9,4,6,4,5,5,6,0,0,0,0,0,0,0,0],"split_type":[0,0,0,0,0,0,0,0,0,0,0,0,0,0,0],"sum_hessian":[2.4592459E2,3.2252407E1,2.1367218E2,8.729847E0,2.352256E1,1.0225587E2,1.1141631E2,1.6238127E0,7.1060343E0,1.0487853E0,2.2473774E1,3.1363602E1,7.0892265E1,3.9966515E1,7.14498E1],"tree_param":{"num_deleted":"0","num_feature":"10","num_nodes":"15","size_leaf_vector":"1"}},{"base_weights":[3.1159472E-2,4.218148E-1,-9.427799E-2,-0E0,5.029638E-1,-4.047739E-1,2.6336068E-1,1.7874636E-2,-4.619781E-2,6.4339586E-2,-0E0,9.187514E-3,-5.7423655E-2,7.707171E-2,1.5119526E-2],"categories":[],"categories_nodes":[],"categories_segments":[],"categories_sizes":[],"default_left":[0,0,0,0,0,0,0,0,0,0,0,0,0,0,0],"id":25,"left_children":[1,3,5,7,9,11,13,-1,-1,-1,-1,-1,-1,-1,-1],"loss_changes":[1.2090717E1,2.2436447E0,2.0325321E1,1.1426867E0,3.6594267E0,9.152403E0,3.6228118E0,0E0,0E0,0E0,0E0,0E0,0E0,0E0,0E0],"parents":[2147483647,0,0,1,1,2,2,3,3,4,4,5,5,6,6],"right_children":[2,4,6,8,10,12,14,-1,-1,-1,-1,-1,-1,-1,-1],"split_conditions":[-5.6343234E-1,-1.1559427E0,2.3401682E-1,-4.2853567E-1,-3.4050262E-1,-2.878315E-1,-6.26798E-1,1.7874636E-2,-4.619781E-2,6.4339586E-2,-0E0,9.187514E-3,-5.7423655E-2,7.707171E-2,1.5119526E-2],"split_indices":[5,2,5,7,6,1,7,0,0,0,0,0,0,0,0],"split_type":[0,0,0,0,0,0,0,0,0,0,0,0,0,0,0],"sum_hessian":[2.3707181E2,5.858098E1,1.7849083E2,9.00584E0,4.9575134E1,9.6908844E1,8.1581985E1,6.6770267E0,2.328814E0,3.7731953E1,1.18431835E1,2.3938175E1,7.297067E1,1.1071262E1,7.051073E1],"tree_param":{"num_deleted":"0","num_feature":"10","num_nodes":"15","size_leaf_vector":"1"}},{"base_weights":[4.8717096E-2,3.6025408E-1,-5.688308E-2,1.7323224E-1,6.1066127E-1,-2.9011276E-1,3.1061187E-1,2.9797284E-2,-2.0135388E-2,8.933815E-2,6.7901067E-3,6.8762586E-2,-4.158344E-2,5.0888874E-2,4.125464E-4],"categories":[],"categories_nodes":[],"categories_segments":[],"categories_sizes":[],"default_left":[0,0,0,0,0,0,0,0,0,0,0,0,0,0,0],"id":26,"left_children":[1,3,5,7,9,11,13,-1,-1,-1,-1,-1,-1,-1,-1],"loss_changes":[8.050618E0,1.947792E0,1.506313E1,2.124408E0,2.6545038E0,1.4140337E1,3.6404934E0,0E0,0E0,0E0,0E0,0E0,0E0,0E0,0E0],"parents":[2147483647,0,0,1,1,2,2,3,3,4,4,5,5,6,6],"right_children":[2,4,6,8,10,12,14,-1,-1,-1,-1,-1,-1,-1,-1],"split_conditions":[-5.418408E-1,-1.303023E-1,3.983553E-1,1.0390729E0,-9.3937165E-1,-1.1209255E0,4.7931436E-1,2.9797284E-2,-2.0135388E-2,8.933815E-2,6.7901067E-3,6.8762586E-2,-4.158344E-2,5.0888874E-2,4.125464E-4],"split_indices":[3,1,4,5,3,5,1,0,0,0,0,0,0,0,0],"split_type":[0,0,0,0,0,0,0,0,0,0,0,0,0,0,0],"sum_hessian":[2.328476E2,6.0301876E1,1.7254573E2,3.8409283E1,2.1892595E1,1.0742215E2,6.512357E1,3.0907698E1,7.501584E0,1.2328883E1,9.563711E0,1.0765886E1,9.6656265E1,3.6537296E1,2.8586277E1],"tree_param":{"num_deleted":"0","num_feature":"10","num_nodes":"15","size_leaf_vector":"1"}},{"base_weights":[-1.5621789E-2,-1.4625292E-1,2.6607975E-1,1.4249314E-1,-4.861942E-1,4.9806356E-1,8.413793E-3,3.656268E-2,-0E0,1.4021721E-2,-6.334787E-2,-0E0,6.713828E-2,3.005518E-2,-3.1874705E-2],"categories":[],"categories_nodes":[],"categories_segments":[],"categories_sizes":[],"default_left":[0,0,0,0,0,0,0,0,0,0,0,0,0,0,0],"id":27,"left_children":[1,3,5,7,9,11,13,-1,-1,-1,-1,-1,-1,-1,-1],"loss_changes":[8.500141E0,1.6386948E1,3.784224E0,2.5241756E0,8.007097E0,3.708724E0,3.823298E0,0E0,0E0,0E0,0E0,0E0,0E0,0E0,0E0],"parents":[2147483647,0,0,1,1,2,2,3,3,4,4,5,5,6,6],"right_children":[2,4,6,8,10,12,14,-1,-1,-1,-1,-1,-1,-1,-1],"split_conditions":[3.7692392E-1,-1.725618E-1,8.505122E-1,-2.9834422E-1,-3.0441254E-1,-8.624288E-1,2.32641E-1,3.656268E-2,-0E0,1.4021721E-2,-6.334787E-2,-0E0,6.713828E-2,3.005518E-2,-3.1874705E-2],"split_indices":[5,5,6,3,1,1,1,0,0,0,0,0,0,0,0],"split_type":[0,0,0,0,0,0,0,0,0,0,0,0,0,0,0],"sum_hessian":[2.3077257E2,1.606171E2,7.0155464E1,8.579651E1,7.4820595E1,3.406972E1,3.608574E1,2.9889816E1,5.5906693E1,1.3441134E1,6.137946E1,8.367909E0,2.570181E1,2.0716873E1,1.5368867E1],"tree_param":{"num_deleted":"0","num_feature":"10","num_nodes":"15","size_leaf_vector":"1"}},{"base_weights":[2.992169E-3,-1.0835944E-1,2.7135465E-1,2.3126169E-1,-3.485145E-1,4.1020757E-1,-1.8500645E-1,4.849015E-2,-0E0,-4.5721397E-2,4.515204E-2,4.699035E-2,-6.257273E-2,1.2636616E-2,-5.9859835E-2],"categories":[],"categories_nodes":[],"categories_segments":[],"categories_sizes":[],"default_left":[0,0,0,0,0,0,0,0,0,0,0,0,0,0,0],"id":28,"left_children":[1,3,5,7,9,11,13,-1,-1,-1,-1,-1,-1,-1,-1],"loss_changes":[7.121429E0,1.3466254E1,4.8435664E0,3.884313E0,9.204024E0,4.1262035E0,2.7026138E0,0E0,0E0,0E0,0E0,0E0,0E0,0E0,0E0],"parents":[2147483647,0,0,1,1,2,2,3,3,4,4,5,5,6,6],"right_children":[2,4,6,8,10,12,14,-1,-1,-1,-1,-1,-1,-1,-1],"split_conditions":[3.7692392E-1,-3.2543793E-1,7.4402714E-1,-1.1209255E0,4.9332544E-1,2.847023E0,2.0194115E-1,4.849015E-2,-0E0,-4.5721397E-2,4.515204E-2,4.699035E-2,-6.257273E-2,1.2636616E-2,-5.9859835E-2],"split_indices":[5,6,3,5,7,7,7,0,0,0,0,0,0,0,0],"split_type":[0,0,0,0,0,0,0,0,0,0,0,0,0,0,0],"sum_hessian":[2.2958101E2,1.6034964E2,6.923137E1,6.473499E1,9.561465E1,5.4877163E1,1.4354206E1,2.9357965E1,3.537703E1,8.5539276E1,1.0075367E1,5.3449768E1,1.4273965E0,7.535788E0,6.8184175E0],"tree_param":{"num_deleted":"0","num_feature":"10","num_nodes":"15","size_leaf_vector":"1"}},{"base_weights":[3.1690314E-2,-9.571062E-2,3.7042952E-1,1.1804167E-1,-4.6166286E-1,5.4073024E-1,-2.0980636E-2,2.0055704E-2,-5.5219144E-2,-7.473789E-2,1.4408281E-2,-4.4072505E-2,6.0434286E-2,-2.2514628E-2,3.5459276E-2],"categories":[],"categories_nodes":[],"categories_segments":[],"categories_sizes":[],"default_left":[0,0,0,0,0,0,0,0,0,0,0,0,0,0,0],"id":29,"left_children":[1,3,5,7,9,11,13,-1,-1,-1,-1,-1,-1,-1,-1],"loss_changes":[1.0154727E1,1.3308257E1,4.845996E0,5.7410307E0,1.1942742E1,3.82444E0,1.5277057E0,0E0,0E0,0E0,0E0,0E0,0E0,0E0,0E0],"parents":[2147483647,0,0,1,1,2,2,3,3,4,4,5,5,6,6],"right_children":[2,4,6,8,10,12,14,-1,-1,-1,-1,-1,-1,-1,-1],"split_conditions":[3.8507432E-1,-1.2764777E-1,7.942182E-1,3.3391282E-2,4.5933238E-1,-7.1555905E-2,1.7937257E0,2.0055704E-2,-5.5219144E-2,-7.473789E-2,1.4408281E-2,-4.4072505E-2,6.0434286E-2,-2.2514628E-2,3.5459276E-2],"split_indices":[4,3,6,4,1,3,5,0,0,0,0,0,0,0,0],"split_type":[0,0,0,0,0,0,0,0,0,0,0,0,0,0,0],"sum_hessian":[2.2594006E2,1.6293358E2,6.3006477E1,1.0186087E2,6.107271E1,4.522465E1,1.7781828E1,9.289231E1,8.968564E0,4.20289E1,1.9043806E1,1.4367877E0,4.378786E1,1.3642304E1,4.1395245E0],"tree_param":{"num_deleted":"0","num_feature":"10","num_nodes":"15","size_leaf_vector":"1"}},{"base_weights":[2.96069E-2,-5.898735E-2,2.60299E-1,1.40404E-1,-4.1899487E-1,5.0311965E-1,-1.3314564E-3,2.2038067E-2,-4.1012872E-2,-7.3850326E-2,2.0013865E-2,6.604388E-2,2.7714425E-3,2.4699286E-2,-5.706855E-2],"categories":[],"categories_nodes":[],"categories_segments":[],"categories_sizes":[],"default_left":[0,0,0,0,0,0,0,0,0,0,0,0,0,0,0],"id":30,"left_children":[1,3,5,7,9,11,13,-1,-1,-1,-1,-1,-1,-1,-1],"loss_changes":[4.7948165E0,1.1845473E1,4.656983E0,4.620125E0,1.278629E1,2.0716133E0,5.0614233E0,0E0,0E0,0E0,0E0,0E0,0E0,0E0,0E0],"parents":[2147483647,0,0,1,1,2,2,3,3,4,4,5,5,6,6],"right_children":[2,4,6,8,10,12,14,-1,-1,-1,-1,-1,-1,-1,-1],"split_conditions":[3.8507432E-1,-1.2764777E-1,4.5764723E-1,2.7486926E-3,3.73947E-1,7.942182E-1,3.2968166E-1,2.2038067E-2,-4.1012872E-2,-7.3850326E-2,2.0013865E-2,6.604388E-2,2.7714425E-3,2.4699286E-2,-5.706855E-2],"split_indices":[4,3,1,4,1,6,7,0,0,0,0,0,0,0,0],"split_type":[0,0,0,0,0,0,0,0,0,0,0,0,0,0,0],"sum_hessian":[2.219006E2,1.5812265E2,6.377796E1,1.00645966E2,5.7476677E1,3.4242584E1,2.9535378E1,9.010027E1,1.0545694E1,3.849715E1,1.8979527E1,2.3417133E1,1.082545E1,2.002474E1,9.510638E0],"tree_param":{"num_deleted":"0","num_feature":"10","num_nodes":"15","size_leaf_vector":"1"}},{"base_weights":[-1.4901085E-2,4.918238E-2,-4.9281743E-1,-4.4652125E-1,1.5392242E-1,-0E0,-1.0216126E-1,5.2869063E-2,-8.3022036E-2,2.668582E-2,-0E0,4.476545E-2,-1.4340678E-2],"categories":[],"categories_nodes":[],"categories_segments":[],"categories_sizes":[],"default_left":[0,0,0,0,0,0,0,0,0,0,0,0,0],"id":31,"left_children":[1,3,5,7,9,11,-1,-1,-1,-1,-1,-1,-1],"loss_changes":[7.2283487E0,9.895592E0,7.789874E0,1.3569265E1,2.939163E0,1.2595613E0,0E0,0E0,0E0,0E0,0E0,0E0,0E0],"parents":[2147483647,0,0,1,1,2,2,3,3,4,4,5,5],"right_children":[2,4,6,8,10,12,-1,-1,-1,-1,-1,-1,-1],"split_conditions":[1.6012616E-1,-1.3407516E-2,-1.010319E0,-1.4582689E0,1.680482E-1,-1.5553977E0,-1.0216126E-1,5.2869063E-2,-8.3022036E-2,2.668582E-2,-0E0,4.476545E-2,-1.4340678E-2],"split_indices":[9,9,8,4,8,8,0,0,0,0,0,0,0],"split_type":[0,0,0,0,0,0,0,0,0,0,0,0,0],"sum_hessian":[2.1864845E2,1.922912E2,2.6357265E1,3.0937721E1,1.6135347E2,1.4307182E1,1.2050083E1,7.934684E0,2.3003038E1,9.204638E1,6.930709E1,3.1790848E0,1.1128098E1],"tree_param":{"num_deleted":"0","num_feature":"10","num_nodes":"13","size_leaf_vector":"1"}},{"base_weights":[7.97683E-3,-1.048836E-1,2.0524266E-1,1.765239E-1,-4.001645E-1,4.037979E-1,-7.471945E-2,-1.00798365E-2,3.3135246E-2,1.5430273E-2,-6.2487658E-2,4.6800807E-2,-3.8208019E-3,4.739726E-3,-7.3162064E-2],"categories":[],"categories_nodes":[],"categories_segments":[],"categories_sizes":[],"default_left":[0,0,0,0,0,0,0,0,0,0,0,0,0,0,0],"id":32,"left_children":[1,3,5,7,9,11,13,-1,-1,-1,-1,-1,-1,-1,-1],"loss_changes":[5.1047373E0,1.1963478E1,5.1013412E0,3.4120367E0,9.674519E0,2.0420017E0,3.5600588E0,0E0,0E0,0E0,0E0,0E0,0E0,0E0,0E0],"parents":[2147483647,0,0,1,1,2,2,3,3,4,4,5,5,6,6],"right_children":[2,4,6,8,10,12,14,-1,-1,-1,-1,-1,-1,-1,-1],"split_conditions":[2.4295244E-1,-2.878315E-1,1.680482E-1,-4.7949937E-1,-4.7557652E-2,1.5460857E0,1.8298353E0,-1.00798365E-2,3.3135246E-2,1.5430273E-2,-6.2487658E-2,4.6800807E-2,-3.8208019E-3,4.739726E-3,-7.3162064E-2],"split_indices":[0,1,8,6,6,6,1,0,0,0,0,0,0,0,0],"split_type":[0,0,0,0,0,0,0,0,0,0,0,0,0,0,0],"sum_hessian":[2.2152226E2,1.38207E2,8.331526E1,6.939086E1,6.881613E1,5.0383957E1,3.2931305E1,2.3070053E1,4.632081E1,1.9077448E1,4.9738686E1,4.545705E1,4.926905E0,2.7849346E1,5.0819592E0],"tree_param":{"num_deleted":"0","num_feature":"10","num_nodes":"15","size_leaf_vector":"1"}},{"base_weights":[1.7315287E-2,-1.0619652E-1,2.1373159E-1,2.2671512E-1,-2.5771603E-1,3.8438186E-1,-1.2119269E-2,-7.545201E-3,6.168028E-2,1.5726542E-2,-5.150393E-2,4.955645E-2,-0E0,9.208307E-3,-8.344291E-2],"categories":[],"categories_nodes":[],"categories_segments":[],"categories_sizes":[],"default_left":[0,0,0,0,0,0,0,0,0,0,0,0,0,0,0],"id":33,"left_children":[1,3,5,7,9,11,13,-1,-1,-1,-1,-1,-1,-1,-1],"loss_changes":[5.388902E0,6.7231493E0,3.7344272E0,5.386661E0,1.0617203E1,2.3080525E0,4.068595E0,0E0,0E0,0E0,0E0,0E0,0E0,0E0,0E0],"parents":[2147483647,0,0,1,1,2,2,3,3,4,4,5,5,6,6],"right_children":[2,4,6,8,10,12,14,-1,-1,-1,-1,-1,-1,-1,-1],"split_conditions":[1.6218954E-1,-4.1804665E-1,1.8096167E-1,-6.2330455E-1,-5.3615665E-1,1.3612012E0,4.212041E-2,-7.545201E-3,6.168028E-2,1.5726542E-2,-5.150393E-2,4.955645E-2,-0E0,9.208307E-3,-8.344291E-2],"split_indices":[0,7,8,2,2,2,9,0,0,0,0,0,0,0,0],"split_type":[0,0,0,0,0,0,0,0,0,0,0,0,0,0,0],"sum_hessian":[2.1449556E2,1.2905916E2,8.543642E1,3.8059464E1,9.099969E1,5.049737E1,3.4939045E1,2.0910961E1,1.71485E1,3.3952194E1,5.7047497E1,3.8347214E1,1.215016E1,3.1273468E1,3.665576E0],"tree_param":{"num_deleted":"0","num_feature":"10","num_nodes":"15","size_leaf_vector":"1"}},{"base_weights":[1.7480778E-2,-6.980938E-2,2.3377067E-1,1.0644253E-1,-4.2758963E-1,5.2378225E-1,-1.5905254E-2,2.3579914E-2,-5.0579432E-2,2.1093518E-2,-5.9478786E-2,-0E0,7.942883E-2,1.7964002E-2,-5.9709515E-2],"categories":[],"categories_nodes":[],"categories_segments":[],"categories_sizes":[],"default_left":[0,0,0,0,0,0,0,0,0,0,0,0,0,0,0],"id":34,"left_children":[1,3,5,7,9,11,13,-1,-1,-1,-1,-1,-1,-1,-1],"loss_changes":[4.1995926E0,9.8115425E0,5.2038374E0,8.015179E0,6.2977495E0,4.8642807E0,4.6022873E0,0E0,0E0,0E0,0E0,0E0,0E0,0E0,0E0],"parents":[2147483647,0,0,1,1,2,2,3,3,4,4,5,5,6,6],"right_children":[2,4,6,8,10,12,14,-1,-1,-1,-1,-1,-1,-1,-1],"split_conditions":[3.8507432E-1,-9.9316895E-2,3.615318E-1,2.7486926E-3,-1.0918295E0,-5.664963E-1,5.9577227E-1,2.3579914E-2,-5.0579432E-2,2.1093518E-2,-5.9478786E-2,-0E0,7.942883E-2,1.7964002E-2,-5.9709515E-2],"split_indices":[4,8,1,4,1,1,7,0,0,0,0,0,0,0,0],"split_type":[0,0,0,0,0,0,0,0,0,0,0,0,0,0,0],"sum_hessian":[2.107004E2,1.4765729E2,6.3043102E1,9.785535E1,4.980194E1,3.0152954E1,3.289015E1,8.2826836E1,1.5028509E1,9.281402E0,4.052054E1,1.0680895E1,1.947206E1,2.4217428E1,8.672718E0],"tree_param":{"num_deleted":"0","num_feature":"10","num_nodes":"15","size_leaf_vector":"1"}},{"base_weights":[-0E0,-7.260576E-2,2.648817E-1,1.3029402E-1,-2.3518269E-1,8.19249E-1,7.864818E-2,-4.9840896E-3,4.3911334E-2,-0E0,-4.633987E-2,-0E0,9.732799E-2,-7.483438E-4,8.129429E-2],"categories":[],"categories_nodes":[],"categories_segments":[],"categories_sizes":[],"default_left":[0,0,0,0,0,0,0,0,0,0,0,0,0,0,0],"id":35,"left_children":[1,3,5,7,9,11,13,-1,-1,-1,-1,-1,-1,-1,-1],"loss_changes":[4.2951527E0,5.619169E0,4.0368557E0,4.499746E0,5.224656E0,1.9046063E0,3.3562405E0,0E0,0E0,0E0,0E0,0E0,0E0,0E0,0E0],"parents":[2147483647,0,0,1,1,2,2,3,3,4,4,5,5,6,6],"right_children":[2,4,6,8,10,12,14,-1,-1,-1,-1,-1,-1,-1,-1],"split_conditions":[6.839136E-1,-2.7201638E-1,8.693259E-1,-8.2312346E-1,-1.2764777E-1,-8.581324E-3,2.6010318E0,-4.9840896E-3,4.3911334E-2,-0E0,-4.633987E-2,-0E0,9.732799E-2,-7.483438E-4,8.129429E-2],"split_indices":[2,1,2,1,3,1,2,0,0,0,0,0,0,0,0],"split_type":[0,0,0,0,0,0,0,0,0,0,0,0,0,0,0],"sum_hessian":[2.1105946E2,1.6396172E2,4.7097744E1,7.0369995E1,9.359173E1,9.072682E0,3.8025063E1,4.3503372E1,2.6866623E1,4.7313732E1,4.6277996E1,1.3023174E0,7.7703648E0,3.4354855E1,3.6702068E0],"tree_param":{"num_deleted":"0","num_feature":"10","num_nodes":"15","size_leaf_vector":"1"}},{"base_weights":[-0E0,2.746272E-1,-8.184786E-2,-0E0,5.623424E-1,-1.9694589E-1,1.6982868E-1,3.3660468E-2,-4.6209097E-2,-1.4000448E-2,6.691688E-2,-3.3316378E-2,1.003597E-2,4.9064264E-2,-3.1945123E-3],"categories":[],"categories_nodes":[],"categories_segments":[],"categories_sizes":[],"default_left":[0,0,0,0,0,0,0,0,0,0,0,0,0,0,0],"id":36,"left_children":[1,3,5,7,9,11,13,-1,-1,-1,-1,-1,-1,-1,-1],"loss_changes":[4.72269E0,4.2809687E0,4.8726373E0,4.281952E0,2.6784382E0,5.1516676E0,3.7800841E0,0E0,0E0,0E0,0E0,0E0,0E0,0E0,0E0],"parents":[2147483647,0,0,1,1,2,2,3,3,4,4,5,5,6,6],"right_children":[2,4,6,8,10,12,14,-1,-1,-1,-1,-1,-1,-1,-1],"split_conditions":[-6.26798E-1,-6.5204144E-1,4.0414923E-1,-1.0913463E0,-1.0987895E0,3.7692392E-1,2.1407077E-1,3.3660468E-2,-4.6209097E-2,-1.4000448E-2,6.691688E-2,-3.3316378E-2,1.003597E-2,4.9064264E-2,-3.1945123E-3],"split_indices":[7,6,7,7,3,5,5,0,0,0,0,0,0,0,0],"split_type":[0,0,0,0,0,0,0,0,0,0,0,0,0,0,0],"sum_hessian":[2.0993083E2,4.6256977E1,1.6367384E2,2.2962458E1,2.329452E1,1.1526531E2,4.840854E1,1.2459389E1,1.0503069E1,1.9557848E0,2.1338736E1,8.067541E1,3.458991E1,1.9491985E1,2.8916552E1],"tree_param":{"num_deleted":"0","num_feature":"10","num_nodes":"15","size_leaf_vector":"1"}},{"base_weights":[4.3373187E-3,6.86647E-2,-4.0296325E-1,-3.425127E-1,1.5526527E-1,4.5218136E-2,-9.401976E-2,2.597471E-2,-7.615684E-2,-3.1728288E-3,2.545223E-2,3.805702E-2,-8.527238E-3],"categories":[],"categories_nodes":[],"categories_segments":[],"categories_sizes":[],"default_left":[0,0,0,0,0,0,0,0,0,0,0,0,0],"id":37,"left_children":[1,3,5,7,9,11,-1,-1,-1,-1,-1,-1,-1],"loss_changes":[5.1583443E0,6.4182715E0,7.4500027E0,8.666724E0,3.174801E0,1.025124E0,0E0,0E0,0E0,0E0,0E0,0E0,0E0],"parents":[2147483647,0,0,1,1,2,2,3,3,4,4,5,5],"right_children":[2,4,6,8,10,12,-1,-1,-1,-1,-1,-1,-1],"split_conditions":[1.5521367E-1,-1.3407516E-2,-1.0291089E0,-2.2042896E-1,-2.7238253E-1,-5.155758E-1,-9.401976E-2,2.597471E-2,-7.615684E-2,-3.1728288E-3,2.545223E-2,3.805702E-2,-8.527238E-3],"split_indices":[9,9,8,3,0,0,0,0,0,0,0,0,0],"split_type":[0,0,0,0,0,0,0,0,0,0,0,0,0],"sum_hessian":[2.0609123E2,1.8128703E2,2.480419E1,2.8685753E1,1.5260129E2,1.3470448E1,1.1333743E1,1.1165096E1,1.7520657E1,5.066475E1,1.0193654E2,4.9695897E0,8.500858E0],"tree_param":{"num_deleted":"0","num_feature":"10","num_nodes":"13","size_leaf_vector":"1"}},{"base_weights":[-1.9954814E-2,3.671485E-2,-5.011551E-1,3.1630936E-1,-7.225417E-2,3.058135E-2,-6.7193073E-1,-1.018455E-2,4.7306173E-2,-7.885486E-2,6.3989277E-4,-9.073452E-2,-0E0],"categories":[],"categories_nodes":[],"categories_segments":[],"categories_sizes":[],"default_left":[0,0,0,0,0,0,0,0,0,0,0,0,0],"id":38,"left_children":[1,3,5,7,9,-1,11,-1,-1,-1,-1,-1,-1],"loss_changes":[6.177453E0,5.95511E0,4.016906E0,4.1776295E0,8.359659E0,0E0,3.6821623E0,0E0,0E0,0E0,0E0,0E0,0E0],"parents":[2147483647,0,0,1,1,2,2,3,3,4,4,6,6],"right_children":[2,4,6,8,10,-1,12,-1,-1,-1,-1,-1,-1],"split_conditions":[1.632407E-1,-3.201387E-1,-1.6154168E0,-4.3658504E-1,-3.2544505E-2,3.058135E-2,1.3516194E-1,-1.018455E-2,4.7306173E-2,-7.885486E-2,6.3989277E-4,-9.073452E-2,-0E0],"split_indices":[9,3,3,6,9,0,0,0,0,0,0,0,0],"split_type":[0,0,0,0,0,0,0,0,0,0,0,0,0],"sum_hessian":[2.0683626E2,1.8458395E2,2.2252302E1,5.3423878E1,1.3116006E2,2.628134E0,1.9624168E1,1.3302692E1,4.0121185E1,1.260396E1,1.18556114E2,1.4175672E1,5.4484963E0],"tree_param":{"num_deleted":"0","num_feature":"10","num_nodes":"13","size_leaf_vector":"1"}},{"base_weights":[-0E0,5.1945705E-2,-3.965911E-1,2.9013857E-1,-4.216544E-2,3.7081435E-2,-5.760835E-1,6.791403E-4,4.0464286E-2,-7.626546E-2,3.3896833E-3,-8.046162E-2,-0E0],"categories":[],"categories_nodes":[],"categories_segments":[],"categories_sizes":[],"default_left":[0,0,0,0,0,0,0,0,0,0,0,0,0],"id":39,"left_children":[1,3,5,7,9,-1,11,-1,-1,-1,-1,-1,-1],"loss_changes":[4.3365273E0,4.3068824E0,3.9485486E0,1.4019413E0,7.8709416E0,0E0,3.0027142E0,0E0,0E0,0E0,0E0,0E0,0E0],"parents":[2147483647,0,0,1,1,2,2,3,3,4,4,6,6],"right_children":[2,4,6,8,10,-1,12,-1,-1,-1,-1,-1,-1],"split_conditions":[1.632407E-1,-2.7180165E-1,-1.6154168E0,-6.709497E-1,-3.2544505E-2,3.7081435E-2,1.3516194E-1,6.791403E-4,4.0464286E-2,-7.626546E-2,3.3896833E-3,-8.046162E-2,-0E0],"split_indices":[9,3,3,0,9,0,0,0,0,0,0,0,0],"split_type":[0,0,0,0,0,0,0,0,0,0,0,0,0],"sum_hessian":[2.0137288E2,1.7856853E2,2.2804346E1,5.256895E1,1.2599958E2,2.919804E0,1.9884542E1,1.8482235E1,3.4086716E1,1.1758004E1,1.1424158E2,1.3721007E1,6.1635356E0],"tree_param":{"num_deleted":"0","num_feature":"10","num_nodes":"13","size_leaf_vector":"1"}},{"base_weights":[1.2376712E-2,6.455205E-2,-3.402401E-1,-2.4428225E-1,1.2283906E-1,4.17513E-2,-8.3808476E-1,2.8306209E-2,-5.6041874E-2,1.6913183E-2,-2.3092194E-2,-1.26690585E-2,3.845138E-2,-0E0,-9.2642404E-2],"categories":[],"categories_nodes":[],"categories_segments":[],"categories_sizes":[],"default_left":[0,0,0,0,0,0,0,0,0,0,0,0,0,0,0],"id":40,"left_children":[1,3,5,7,9,11,13,-1,-1,-1,-1,-1,-1,-1,-1],"loss_changes":[3.5273488E0,3.207367E0,5.4481716E0,5.1090894E0,2.6814272E0,1.1730884E0,9.432373E-1,0E0,0E0,0E0,0E0,0E0,0E0,0E0,0E0],"parents":[2147483647,0,0,1,1,2,2,3,3,4,4,5,5,6,6],"right_children":[2,4,6,8,10,12,14,-1,-1,-1,-1,-1,-1,-1,-1],"split_conditions":[1.6012616E-1,-1.3407516E-2,-9.4399846E-1,-1.1176974E0,1.6931694E0,3.3212566E-1,-1.010319E0,2.8306209E-2,-5.6041874E-2,1.6913183E-2,-2.3092194E-2,-1.26690585E-2,3.845138E-2,-0E0,-9.2642404E-2],"split_indices":[9,9,4,0,2,9,8,0,0,0,0,0,0,0,0],"split_type":[0,0,0,0,0,0,0,0,0,0,0,0,0,0,0],"sum_hessian":[2.029146E2,1.8040213E2,2.2512459E1,2.5091879E1,1.5531026E2,1.2479194E1,1.0033266E1,8.37823E0,1.6713648E1,1.4011339E2,1.5196875E1,7.1640306E0,5.315163E0,1.2275048E0,8.805761E0],"tree_param":{"num_deleted":"0","num_feature":"10","num_nodes":"15","size_leaf_vector":"1"}},{"base_weights":[2.1296435E-3,3.8748786E-1,-6.894653E-2,5.880738E-1,-0E0,-5.4932773E-1,-0E0,7.060229E-2,-0E0,-4.8093807E-2,2.1000348E-2,-7.73057E-2,2.497371E-4,-4.5248317E-3,4.022922E-2],"categories":[],"categories_nodes":[],"categories_segments":[],"categories_sizes":[],"default_left":[0,0,0,0,0,0,0,0,0,0,0,0,0,0,0],"id":41,"left_children":[1,3,5,7,9,11,13,-1,-1,-1,-1,-1,-1,-1,-1],"loss_changes":[5.847513E0,2.2548804E0,5.528074E0,1.7952399E0,1.4650705E0,3.449154E0,2.7646563E0,0E0,0E0,0E0,0E0,0E0,0E0,0E0,0E0],"parents":[2147483647,0,0,1,1,2,2,3,3,4,4,5,5,6,6],"right_children":[2,4,6,8,10,12,14,-1,-1,-1,-1,-1,-1,-1,-1],"split_conditions":[-8.9944947E-1,-3.6931455E-2,-5.581229E-1,5.0770986E-1,-5.440773E-1,7.086986E-1,1.1925466E0,7.060229E-2,-0E0,-4.8093807E-2,2.1000348E-2,-7.73057E-2,2.497371E-4,-4.5248317E-3,4.022922E-2],"split_indices":[0,7,0,6,6,5,7,0,0,0,0,0,0,0,0],"split_type":[0,0,0,0,0,0,0,0,0,0,0,0,0,0,0],"sum_hessian":[1.9864905E2,3.1945877E1,1.6670317E2,1.9442314E1,1.2503564E1,1.9297176E1,1.4740599E2,1.6235495E1,3.2068195E0,2.2702246E0,1.0233339E1,1.4379714E1,4.917463E0,1.3403487E2,1.337113E1],"tree_param":{"num_deleted":"0","num_feature":"10","num_nodes":"15","size_leaf_vector":"1"}},{"base_weights":[-1.7276403E-2,-8.402917E-2,1.8331286E-1,6.684698E-2,-2.3552415E-1,5.199938E-1,-0E0,1.5609306E-2,-5.5482537E-2,-3.7080966E-2,8.588508E-3,-0E0,6.548783E-2,-2.3515124E-2,3.3299215E-2],"categories":[],"categories_nodes":[],"categories_segments":[],"categories_sizes":[],"default_left":[0,0,0,0,0,0,0,0,0,0,0,0,0,0,0],"id":42,"left_children":[1,3,5,7,9,11,13,-1,-1,-1,-1,-1,-1,-1,-1],"loss_changes":[2.6028118E0,3.7314959E0,2.8501692E0,4.0473337E0,3.9573565E0,8.733306E-1,2.6963475E0,0E0,0E0,0E0,0E0,0E0,0E0,0E0,0E0],"parents":[2147483647,0,0,1,1,2,2,3,3,4,4,5,5,6,6],"right_children":[2,4,6,8,10,12,14,-1,-1,-1,-1,-1,-1,-1,-1],"split_conditions":[4.0414923E-1,-2.7411905E-1,-5.171889E-1,1.6931694E0,3.610987E-1,-1.3638927E0,5.8661824E-1,1.5609306E-2,-5.5482537E-2,-3.7080966E-2,8.588508E-3,-0E0,6.548783E-2,-2.3515124E-2,3.3299215E-2],"split_indices":[7,7,2,2,2,8,2,0,0,0,0,0,0,0,0],"split_type":[0,0,0,0,0,0,0,0,0,0,0,0,0,0,0],"sum_hessian":[1.981397E2,1.5310632E2,4.5033367E1,7.389838E1,7.9207954E1,1.4670885E1,3.0362484E1,6.7033325E1,6.86505E0,5.7321934E1,2.1886017E1,4.234825E0,1.043606E1,1.797487E1,1.2387612E1],"tree_param":{"num_deleted":"0","num_feature":"10","num_nodes":"15","size_leaf_vector":"1"}},{"base_weights":[-0E0,1.733309E-1,-8.576963E-2,-5.1284214E-3,4.7172925E-1,-3.682385E-1,-0E0,7.247961E-3,-5.253348E-2,5.860152E-2,-6.8952986E-3,-6.446727E-2,-0E0,1.39929075E-2,-2.63797E-2],"categories":[],"categories_nodes":[],"categories_segments":[],"categories_sizes":[],"default_left":[0,0,0,0,0,0,0,0,0,0,0,0,0,0,0],"id":43,"left_children":[1,3,5,7,9,11,13,-1,-1,-1,-1,-1,-1,-1,-1],"loss_changes":[3.037016E0,4.16753E0,3.298412E0,2.289232E0,2.4102235E0,3.604002E0,3.7427764E0,0E0,0E0,0E0,0E0,0E0,0E0,0E0,0E0],"parents":[2147483647,0,0,1,1,2,2,3,3,4,4,5,5,6,6],"right_children":[2,4,6,8,10,12,14,-1,-1,-1,-1,-1,-1,-1,-1],"split_conditions":[-2.7201638E-1,-6.96212E-1,1.3041338E-2,9.7770736E-2,7.006128E-2,1.1836772E0,8.14195E-2,7.247961E-3,-5.253348E-2,5.860152E-2,-6.8952986E-3,-6.446727E-2,-0E0,1.39929075E-2,-2.63797E-2],"split_indices":[1,2,9,3,9,3,9,0,0,0,0,0,0,0,0],"split_type":[0,0,0,0,0,0,0,0,0,0,0,0,0,0,0],"sum_hessian":[1.9517105E2,6.7819016E1,1.27352036E2,4.1388336E1,2.6430681E1,2.964983E1,9.77022E1,3.5629482E1,5.7588544E0,2.3012405E1,3.418275E0,1.6863361E1,1.2786469E1,6.550205E1,3.220015E1],"tree_param":{"num_deleted":"0","num_feature":"10","num_nodes":"15","size_leaf_vector":"1"}},{"base_weights":[7.1018836E-3,-5.5591796E-2,1.6264957E-1,4.994998E-2,-3.0109265E-1,4.0923566E-1,-4.3144487E-2,1.4145288E-2,-4.9857672E-2,-5.4333054E-2,1.5581829E-2,7.390814E-2,-0E0,2.164101E-2,-4.413374E-2],"categories":[],"categories_nodes":[],"categories_segments":[],"categories_sizes":[],"default_left":[0,0,0,0,0,0,0,0,0,0,0,0,0,0,0],"id":44,"left_children":[1,3,5,7,9,11,13,-1,-1,-1,-1,-1,-1,-1,-1],"loss_changes":[2.0177553E0,3.7801723E0,3.4798508E0,4.552309E0,5.4933786E0,4.8325152E0,3.8076859E0,0E0,0E0,0E0,0E0,0E0,0E0,0E0,0E0],"parents":[2147483647,0,0,1,1,2,2,3,3,4,4,5,5,6,6],"right_children":[2,4,6,8,10,12,14,-1,-1,-1,-1,-1,-1,-1,-1],"split_conditions":[3.983553E-1,-7.50183E-2,7.5864625E-1,1.2037298E-1,2.7239883E-1,2.841356E-1,2.32641E-1,1.4145288E-2,-4.9857672E-2,-5.4333054E-2,1.5581829E-2,7.390814E-2,-0E0,2.164101E-2,-4.413374E-2],"split_indices":[4,4,8,8,5,7,1,0,0,0,0,0,0,0,0],"split_type":[0,0,0,0,0,0,0,0,0,0,0,0,0,0,0],"sum_hessian":[1.9279358E2,1.3363243E2,5.9161148E1,9.1562935E1,4.2069496E1,2.835266E1,3.0808489E1,8.100423E1,1.0558709E1,2.8514418E1,1.3555078E1,1.6040058E1,1.2312602E1,1.7640224E1,1.3168263E1],"tree_param":{"num_deleted":"0","num_feature":"10","num_nodes":"15","size_leaf_vector":"1"}},{"base_weights":[3.4499966E-2,2.6965156E-1,-2.0364966E-2,-5.249858E-3,4.17017E-1,-1.4777192E-1,1.422259E-1,2.8219173E-2,-5.2691184E-2,-3.8723173E-3,6.310225E-2,3.117895E-3,-4.1153163E-2,3.3332966E-2,-9.177718E-4],"categories":[],"categories_nodes":[],"categories_segments":[],"categories_sizes":[],"default_left":[0,0,0,0,0,0,0,0,0,0,0,0,0,0,0],"id":45,"left_children":[1,3,5,7,9,11,13,-1,-1,-1,-1,-1,-1,-1,-1],"loss_changes":[2.7952123E0,2.0634704E0,3.3072693E0,2.5663223E0,3.5354967E0,4.8481197E0,2.2931514E0,0E0,0E0,0E0,0E0,0E0,0E0,0E0,0E0],"parents":[2147483647,0,0,1,1,2,2,3,3,4,4,5,5,6,6],"right_children":[2,4,6,8,10,12,14,-1,-1,-1,-1,-1,-1,-1,-1],"split_conditions":[-8.359095E-1,-7.157591E-1,3.1602022E-1,-8.557709E-1,-1.5546217E0,7.833689E-3,8.7931603E-1,2.8219173E-2,-5.2691184E-2,-3.8723173E-3,6.310225E-2,3.117895E-3,-4.1153163E-2,3.3332966E-2,-9.177718E-4],"split_indices":[6,2,6,0,5,6,5,0,0,0,0,0,0,0,0],"split_type":[0,0,0,0,0,0,0,0,0,0,0,0,0,0,0],"sum_hessian":[1.9510425E2,3.9089325E1,1.5601492E2,1.1856359E1,2.7232965E1,9.0977516E1,6.5037415E1,6.9264126E0,4.9299464E0,7.8425336E0,1.939043E1,5.3154507E1,3.7823006E1,3.0467777E1,3.4569637E1],"tree_param":{"num_deleted":"0","num_feature":"10","num_nodes":"15","size_leaf_vector":"1"}},{"base_weights":[-2.6510622E-2,1.2563694E-1,-1.1892568E-1,-0E0,3.6503544E-1,-5.8988494E-1,2.759406E-2,1.1652766E-2,-1.1165236E-1,-1.2784976E-2,4.476563E-2,-0E0,-7.122634E-2,-4.1679617E-2,1.0977809E-2],"categories":[],"categories_nodes":[],"categories_segments":[],"categories_sizes":[],"default_left":[0,0,0,0,0,0,0,0,0,0,0,0,0,0,0],"id":46,"left_children":[1,3,5,7,9,11,13,-1,-1,-1,-1,-1,-1,-1,-1],"loss_changes":[2.7540238E0,2.396882E0,9.2765465E0,7.056433E0,1.5473738E0,1.9105167E0,3.355226E0,0E0,0E0,0E0,0E0,0E0,0E0,0E0,0E0],"parents":[2147483647,0,0,1,1,2,2,3,3,4,4,5,5,6,6],"right_children":[2,4,6,8,10,12,14,-1,-1,-1,-1,-1,-1,-1,-1],"split_conditions":[-2.7201638E-1,3.3637488E-1,-8.520831E-2,2.1135731E-1,-1.9636453E0,-2.2218534E-1,-2.5773069E-2,1.1652766E-2,-1.1165236E-1,-1.2784976E-2,4.476563E-2,-0E0,-7.122634E-2,-4.1679617E-2,1.0977809E-2],"split_indices":[1,8,0,8,5,5,1,0,0,0,0,0,0,0,0],"split_type":[0,0,0,0,0,0,0,0,0,0,0,0,0,0,0],"sum_hessian":[1.9288562E2,6.860427E1,1.2428136E2,4.396608E1,2.463819E1,2.9894218E1,9.438714E1,4.054626E1,3.4198167E0,1.8553832E0,2.2782806E1,6.626583E0,2.3267635E1,1.1848635E1,8.2538506E1],"tree_param":{"num_deleted":"0","num_feature":"10","num_nodes":"15","size_leaf_vector":"1"}},{"base_weights":[-0E0,-1.5193854E-1,6.58551E-2,2.5014904E-1,-3.7968692E-1,-1.5733507E-1,1.8582517E-1,-6.9264886E-3,4.365112E-2,1.6344694E-2,-4.9556516E-2,3.8944609E-3,-3.4545705E-2,4.4606153E-2,2.2155396E-3],"categories":[],"categories_nodes":[],"categories_segments":[],"categories_sizes":[],"default_left":[0,0,0,0,0,0,0,0,0,0,0,0,0,0,0],"id":47,"left_children":[1,3,5,7,9,11,13,-1,-1,-1,-1,-1,-1,-1,-1],"loss_changes":[1.9402881E0,5.5035896E0,3.938218E0,1.6407679E0,3.0063195E0,2.1526756E0,3.7268422E0,0E0,0E0,0E0,0E0,0E0,0E0,0E0,0E0],"parents":[2147483647,0,0,1,1,2,2,3,3,4,4,5,5,6,6],"right_children":[2,4,6,8,10,12,14,-1,-1,-1,-1,-1,-1,-1,-1],"split_conditions":[1.3041338E-2,-8.557709E-1,-1.9686408E-1,-1.9144019E0,-1.8011845E0,-7.258061E-1,4.1693326E-2,-6.9264886E-3,4.365112E-2,1.6344694E-2,-4.9556516E-2,3.8944609E-3,-3.4545705E-2,4.4606153E-2,2.2155396E-3],"split_indices":[9,0,0,2,3,2,9,0,0,0,0,0,0,0,0],"split_type":[0,0,0,0,0,0,0,0,0,0,0,0,0,0,0],"sum_hessian":[1.9780565E2,5.5284805E1,1.4252084E2,1.8356604E1,3.69282E1,4.6753082E1,9.576775E1,5.30219E0,1.3054414E1,5.0909095E0,3.1837292E1,2.1160955E1,2.5592125E1,3.3140335E1,6.2627422E1],"tree_param":{"num_deleted":"0","num_feature":"10","num_nodes":"15","size_leaf_vector":"1"}},{"base_weights":[-5.8868746E-3,1.3731425E-1,-1.0562072E-1,2.4371867E-1,-1.1207551E-1,-7.095643E-2,-4.0842514E-2,3.24388E-2,-7.6751513E-3,2.7346822E-2,-5.3335194E-2,5.458731E-3,-2.6352411E-2],"categories":[],"categories_nodes":[],"categories_segments":[],"categories_sizes":[],"default_left":[0,0,0,0,0,0,0,0,0,0,0,0,0],"id":48,"left_children":[1,3,5,7,9,-1,11,-1,-1,-1,-1,-1,-1],"loss_changes":[2.733708E0,2.1779747E0,3.8740602E0,1.8019688E0,3.9707127E0,0E0,2.6118803E0,0E0,0E0,0E0,0E0,0E0,0E0],"parents":[2147483647,0,0,1,1,2,2,3,3,4,4,6,6],"right_children":[2,4,6,8,10,-1,12,-1,-1,-1,-1,-1,-1],"split_conditions":[-2.3613395E-1,1.6012616E-1,-4.4007327E-2,1.2631704E0,-1.3093106E0,-7.095643E-2,4.212041E-2,3.24388E-2,-7.6751513E-3,2.7346822E-2,-5.3335194E-2,5.458731E-3,-2.6352411E-2],"split_indices":[3,9,9,5,3,0,9,0,0,0,0,0,0],"split_type":[0,0,0,0,0,0,0,0,0,0,0,0,0],"sum_hessian":[1.9023515E2,7.375672E1,1.16478424E2,5.4513344E1,1.924338E1,8.086746E0,1.0839168E2,4.5662285E1,8.851058E0,9.164192E0,1.0079187E1,7.3804726E1,3.4586952E1],"tree_param":{"num_deleted":"0","num_feature":"10","num_nodes":"13","size_leaf_vector":"1"}},{"base_weights":[-0E0,-3.1775884E-2,3.990028E-1,-0E0,-5.1973027E-1,5.364981E-1,-1.6666932E-3,7.674463E-3,-2.3179203E-2,-7.070059E-2,-0E0,-0E0,7.549306E-2],"categories":[],"categories_nodes":[],"categories_segments":[],"categories_sizes":[],"default_left":[0,0,0,0,0,0,0,0,0,0,0,0,0],"id":49,"left_children":[1,3,5,7,9,11,-1,-1,-1,-1,-1,-1,-1],"loss_changes":[2.3014784E0,2.8302593E0,1.2920737E0,3.0937212E0,1.6677079E0,1.5931661E0,0E0,0E0,0E0,0E0,0E0,0E0,0E0],"parents":[2147483647,0,0,1,1,2,2,3,3,4,4,5,5],"right_children":[2,4,6,8,10,12,-1,-1,-1,-1,-1,-1,-1],"split_conditions":[1.9088659E0,1.4451714E0,1.0925692E0,8.14195E-2,7.420754E-2,2.1133259E-2,-1.6666932E-3,7.674463E-3,-2.3179203E-2,-7.070059E-2,-0E0,-0E0,7.549306E-2],"split_indices":[5,5,0,9,9,9,0,0,0,0,0,0,0],"split_type":[0,0,0,0,0,0,0,0,0,0,0,0,0],"sum_hessian":[1.892597E2,1.7761523E2,1.1644474E1,1.6814189E2,9.473336E0,1.017828E1,1.4661939E0,1.27471214E2,4.0670677E1,7.5105977E0,1.9627384E0,3.2359176E0,6.942363E0],"tree_param":{"num_deleted":"0","num_feature":"10","num_nodes":"13","size_leaf_vector":"1"}},{"base_weights":[-2.759925E-2,-1.8737069E-1,6.866256E-2,-1.8939944E-2,-6.222073E-1,2.2498862E-1,-1.3897595E-1,-2.2710327E-2,2.2346424E-2,2.4980286E-3,-8.296102E-2,-9.4826665E-4,4.1651934E-2,4.048127E-3,-5.4422427E-2],"categories":[],"categories_nodes":[],"categories_segments":[],"categories_sizes":[],"default_left":[0,0,0,0,0,0,0,0,0,0,0,0,0,0,0],"id":50,"left_children":[1,3,5,7,9,11,13,-1,-1,-1,-1,-1,-1,-1,-1],"loss_changes":[3.1118596E0,4.9830723E0,3.9666162E0,3.1177022E0,3.6006217E0,3.6543806E0,4.156908E0,0E0,0E0,0E0,0E0,0E0,0E0,0E0,0E0],"parents":[2147483647,0,0,1,1,2,2,3,3,4,4,5,5,6,6],"right_children":[2,4,6,8,10,12,14,-1,-1,-1,-1,-1,-1,-1,-1],"split_conditions":[-1.9686408E-1,-1.08305685E-1,1.680482E-1,1.5209725E-1,-4.7557652E-2,-4.1797945E-1,1.0644257E0,-2.2710327E-2,2.2346424E-2,2.4980286E-3,-8.296102E-2,-9.4826665E-4,4.1651934E-2,4.048127E-3,-5.4422427E-2],"split_indices":[0,1,8,6,6,8,0,0,0,0,0,0,0,0,0],"split_type":[0,0,0,0,0,0,0,0,0,0,0,0,0,0,0],"sum_hessian":[1.9160196E2,7.531537E1,1.1628659E2,5.7191326E1,1.812404E1,6.898578E1,4.7300808E1,3.2983E1,2.4208323E1,3.74205E0,1.4381991E1,2.9776628E1,3.9209152E1,3.2257233E1,1.5043574E1],"tree_param":{"num_deleted":"0","num_feature":"10","num_nodes":"15","size_leaf_vector":"1"}},{"base_weights":[1.0647262E-2,3.0780452E-1,-3.8324308E-2,-0E0,6.9813526E-1,-3.091831E-1,-0E0,2.0184802E-2,-3.216492E-2,7.640244E-2,-0E0,-0E0,-5.0824072E-2,2.8577823E-2,-7.871809E-3],"categories":[],"categories_nodes":[],"categories_segments":[],"categories_sizes":[],"default_left":[0,0,0,0,0,0,0,0,0,0,0,0,0,0,0],"id":51,"left_children":[1,3,5,7,9,11,13,-1,-1,-1,-1,-1,-1,-1,-1],"loss_changes":[3.0686584E0,4.2541676E0,1.9666346E0,1.358831E0,9.0273046E-1,1.427635E0,3.4659908E0,0E0,0E0,0E0,0E0,0E0,0E0,0E0,0E0],"parents":[2147483647,0,0,1,1,2,2,3,3,4,4,5,5,6,6],"right_children":[2,4,6,8,10,12,14,-1,-1,-1,-1,-1,-1,-1,-1],"split_conditions":[-1.1209255E0,-1.5181104E0,-6.788049E-1,5.319334E-1,-2.4344972E-1,-1.108779E0,-3.8803053E-1,2.0184802E-2,-3.216492E-2,7.640244E-2,-0E0,-0E0,-5.0824072E-2,2.8577823E-2,-7.871809E-3],"split_indices":[5,5,6,8,6,6,7,0,0,0,0,0,0,0,0],"split_type":[0,0,0,0,0,0,0,0,0,0,0,0,0,0,0],"sum_hessian":[1.8947206E2,2.8420488E1,1.6105157E2,1.5516573E1,1.2903915E1,2.1398293E1,1.3965329E2,8.186739E0,7.3298335E0,1.17872305E1,1.1166848E0,9.270898E0,1.2127395E1,3.1647596E1,1.08005684E2],"tree_param":{"num_deleted":"0","num_feature":"10","num_nodes":"15","size_leaf_vector":"1"}},{"base_weights":[4.4665806E-2,1.9493619E-1,-3.6767133E-2,4.6459097E-1,-0E0,5.0230104E-1,-8.539104E-2,9.410507E-3,7.3592424E-2,7.94817E-3,-4.55437E-2,-0E0,7.224567E-2,3.4278184E-2,-1.4865935E-2],"categories":[],"categories_nodes":[],"categories_segments":[],"categories_sizes":[],"default_left":[0,0,0,0,0,0,0,0,0,0,0,0,0,0,0],"id":52,"left_children":[1,3,5,7,9,11,13,-1,-1,-1,-1,-1,-1,-1,-1],"loss_changes":[2.5260022E0,3.802349E0,2.8575182E0,2.1711884E0,1.6735148E0,1.0801439E0,3.1037745E0,0E0,0E0,0E0,0E0,0E0,0E0,0E0,0E0],"parents":[2147483647,0,0,1,1,2,2,3,3,4,4,5,5,6,6],"right_children":[2,4,6,8,10,12,14,-1,-1,-1,-1,-1,-1,-1,-1],"split_conditions":[-2.7411905E-1,-1.6105677E-1,-1.1500944E0,-6.9990253E-1,1.8298353E0,-1.5181104E0,-1.3687309E0,9.410507E-3,7.3592424E-2,7.94817E-3,-4.55437E-2,-0E0,7.224567E-2,3.4278184E-2,-1.4865935E-2],"split_indices":[7,4,5,4,1,5,4,0,0,0,0,0,0,0,0],"split_type":[0,0,0,0,0,0,0,0,0,0,0,0,0,0,0],"sum_hessian":[1.909482E2,7.05698E1,1.20378395E2,2.8660324E1,4.1909477E1,6.979257E0,1.1339914E2,1.4807414E1,1.3852909E1,3.6840214E1,5.0692625E0,2.5183392E0,4.460918E0,1.18355255E1,1.01563614E2],"tree_param":{"num_deleted":"0","num_feature":"10","num_nodes":"15","size_leaf_vector":"1"}},{"base_weights":[2.157283E-2,8.3521284E-2,-1.6974519E-1,-0E0,3.8377175E-1,-6.189303E-1,8.429291E-3,-1.3466265E-2,3.1165594E-2,5.30629E-2,-3.5964612E-2,-8.5035846E-2,-0E0,-1.7218929E-2,2.3562325E-2],"categories":[],"categories_nodes":[],"categories_segments":[],"categories_sizes":[],"default_left":[0,0,0,0,0,0,0,0,0,0,0,0,0,0,0],"id":53,"left_children":[1,3,5,7,9,11,13,-1,-1,-1,-1,-1,-1,-1,-1],"loss_changes":[2.1936195E0,3.7798698E0,4.070331E0,5.085333E0,4.2078586E0,2.7791977E0,1.4286027E0,0E0,0E0,0E0,0E0,0E0,0E0,0E0,0E0],"parents":[2147483647,0,0,1,1,2,2,3,3,4,4,5,5,6,6],"right_children":[2,4,6,8,10,12,14,-1,-1,-1,-1,-1,-1,-1,-1],"split_conditions":[6.0978085E-1,7.6267934E-1,1.010027E0,2.6614654E-1,1.1636221E0,1.2673671E0,-2.5725573E-1,-1.3466265E-2,3.1165594E-2,5.30629E-2,-3.5964612E-2,-8.5035846E-2,-0E0,-1.7218929E-2,2.3562325E-2],"split_indices":[3,6,3,1,1,2,7,0,0,0,0,0,0,0,0],"split_type":[0,0,0,0,0,0,0,0,0,0,0,0,0,0,0],"sum_hessian":[1.886246E2,1.4711647E2,4.1508133E1,1.160794E2,3.1037071E1,1.219307E1,2.9315062E1,8.200119E1,3.4078213E1,2.7288422E1,3.7486506E0,9.305619E0,2.8874514E0,1.4154183E1,1.5160878E1],"tree_param":{"num_deleted":"0","num_feature":"10","num_nodes":"15","size_leaf_vector":"1"}},{"base_weights":[-5.75807E-3,2.3169555E-1,-5.4656614E-2,-7.643852E-2,3.3472106E-1,-3.5736656E-1,-0E0,-4.802749E-2,2.0654794E-2,4.659676E-2,-2.53863E-3,1.8376976E-2,-5.9534337E-2,-8.7910155E-3,1.53814545E-2],"categories":[],"categories_nodes":[],"categories_segments":[],"categories_sizes":[],"default_left":[0,0,0,0,0,0,0,0,0,0,0,0,0,0,0],"id":54,"left_children":[1,3,5,7,9,11,13,-1,-1,-1,-1,-1,-1,-1,-1],"loss_changes":[2.0456164E0,1.2263545E0,2.775608E0,1.1730961E0,1.6647851E0,3.9744234E0,1.9439133E0,0E0,0E0,0E0,0E0,0E0,0E0,0E0,0E0],"parents":[2147483647,0,0,1,1,2,2,3,3,4,4,5,5,6,6],"right_children":[2,4,6,8,10,12,14,-1,-1,-1,-1,-1,-1,-1,-1],"split_conditions":[-1.1349815E0,-2.0501907E0,-5.3927326E-1,1.7412974E0,2.4967529E-1,-6.26798E-1,3.0895382E-1,-4.802749E-2,2.0654794E-2,4.659676E-2,-2.53863E-3,1.8376976E-2,-5.9534337E-2,-8.7910155E-3,1.53814545E-2],"split_indices":[1,0,0,8,4,7,4,0,0,0,0,0,0,0,0],"split_type":[0,0,0,0,0,0,0,0,0,0,0,0,0,0,0],"sum_hessian":[1.8779927E2,2.7536467E1,1.602628E2,4.595834E0,2.2940634E1,2.3846838E1,1.3641595E2,2.8365123E0,1.7593217E0,1.8293884E1,4.64675E0,6.249554E0,1.7597284E1,8.615623E1,5.025973E1],"tree_param":{"num_deleted":"0","num_feature":"10","num_nodes":"15","size_leaf_vector":"1"}},{"base_weights":[-9.673359E-3,-2.5943533E-1,3.418995E-2,1.8010908E-1,-5.612182E-1,-3.3444654E-2,1.7898472E-1,4.1389424E-2,-4.842099E-3,-0E0,-7.671286E-2,2.377172E-2,-1.1336784E-2,6.418343E-2,8.575958E-4],"categories":[],"categories_nodes":[],"categories_segments":[],"categories_sizes":[],"default_left":[0,0,0,0,0,0,0,0,0,0,0,0,0,0,0],"id":55,"left_children":[1,3,5,7,9,11,13,-1,-1,-1,-1,-1,-1,-1,-1],"loss_changes":[2.3113024E0,4.7708235E0,1.7120712E0,1.1019043E0,3.1995354E0,2.2504666E0,3.7784142E0,0E0,0E0,0E0,0E0,0E0,0E0,0E0,0E0],"parents":[2147483647,0,0,1,1,2,2,3,3,4,4,5,5,6,6],"right_children":[2,4,6,8,10,12,14,-1,-1,-1,-1,-1,-1,-1,-1],"split_conditions":[-4.431016E-3,-2.2042896E-1,3.1602022E-1,5.358438E-1,-8.3626187E-1,-1.1736004E0,1.9100071E-1,4.1389424E-2,-4.842099E-3,-0E0,-7.671286E-2,2.377172E-2,-1.1336784E-2,6.418343E-2,8.575958E-4],"split_indices":[9,3,6,6,7,5,5,0,0,0,0,0,0,0,0],"split_type":[0,0,0,0,0,0,0,0,0,0,0,0,0,0,0],"sum_hessian":[1.8755061E2,3.016581E1,1.573848E2,1.1216942E1,1.8948868E1,1.03484314E2,5.3900494E1,6.951218E0,4.265723E0,4.457372E0,1.4491496E1,2.0100916E1,8.338339E1,1.15584345E1,4.2342056E1],"tree_param":{"num_deleted":"0","num_feature":"10","num_nodes":"15","size_leaf_vector":"1"}},{"base_weights":[-5.0880667E-3,-6.337507E-2,1.4187618E-1,1.0814038E-2,-3.584543E-1,3.3185944E-1,-1.4604001E-1,-4.9567735E-3,2.8490672E-2,1.4828234E-2,-6.021857E-2,-3.5488613E-2,4.758522E-2,-3.3523552E-2,9.64428E-3],"categories":[],"categories_nodes":[],"categories_segments":[],"categories_sizes":[],"default_left":[0,0,0,0,0,0,0,0,0,0,0,0,0,0,0],"id":56,"left_children":[1,3,5,7,9,11,13,-1,-1,-1,-1,-1,-1,-1,-1],"loss_changes":[1.5524067E0,3.4380677E0,2.958382E0,2.139762E0,4.544465E0,3.7144341E0,1.1679828E0,0E0,0E0,0E0,0E0,0E0,0E0,0E0,0E0],"parents":[2147483647,0,0,1,1,2,2,3,3,4,4,5,5,6,6],"right_children":[2,4,6,8,10,12,14,-1,-1,-1,-1,-1,-1,-1,-1],"split_conditions":[6.459618E-1,1.680482E-1,6.172386E-1,7.6267934E-1,-9.258496E-1,-1.6561573E0,1.65056E0,-4.9567735E-3,2.8490672E-2,1.4828234E-2,-6.021857E-2,-3.5488613E-2,4.758522E-2,-3.3523552E-2,9.64428E-3],"split_indices":[4,8,5,6,0,5,4,0,0,0,0,0,0,0,0],"split_type":[0,0,0,0,0,0,0,0,0,0,0,0,0,0,0],"sum_hessian":[1.8688379E2,1.3932718E2,4.7556602E1,1.09938324E2,2.9388863E1,3.0572514E1,1.6984087E1,8.8312065E1,2.1626259E1,8.588151E0,2.0800713E1,3.8125942E0,2.675992E1,1.1397126E1,5.5869603E0],"tree_param":{"num_deleted":"0","num_feature":"10","num_nodes":"15","size_leaf_vector":"1"}},{"base_weights":[-0E0,3.619074E-2,-3.24854E-1,9.5639355E-2,-2.3133999E-1,1.45913E-1,-6.101455E-1,-6.1656917E-3,2.1924894E-2,-3.5175577E-2,2.2286931E-2,-0E0,4.02195E-2,-0E0,-8.0838926E-2],"categories":[],"categories_nodes":[],"categories_segments":[],"categories_sizes":[],"default_left":[0,0,0,0,0,0,0,0,0,0,0,0,0,0,0],"id":57,"left_children":[1,3,5,7,9,11,13,-1,-1,-1,-1,-1,-1,-1,-1],"loss_changes":[2.3320296E0,2.5266817E0,3.3024263E0,2.9436467E0,1.8133776E0,5.9688085E-1,2.3711386E0,0E0,0E0,0E0,0E0,0E0,0E0,0E0,0E0],"parents":[2147483647,0,0,1,1,2,2,3,3,4,4,5,5,6,6],"right_children":[2,4,6,8,10,12,14,-1,-1,-1,-1,-1,-1,-1,-1],"split_conditions":[1.632407E-1,1.1342202E0,-1.523641E0,2.0185903E-2,2.6010318E0,6.720536E-2,-4.8362312E-1,-6.1656917E-3,2.1924894E-2,-3.5175577E-2,2.2286931E-2,-0E0,4.02195E-2,-0E0,-8.0838926E-2],"split_indices":[9,2,4,9,2,6,7,0,0,0,0,0,0,0,0],"split_type":[0,0,0,0,0,0,0,0,0,0,0,0,0,0,0],"sum_hessian":[1.8170177E2,1.6332607E2,1.8375706E1,1.3754526E2,2.5780796E1,5.9307337E0,1.2444972E1,5.7843166E1,7.9702095E1,2.2282671E1,3.4981248E0,3.0023906E0,2.9283433E0,2.6663759E0,9.778597E0],"tree_param":{"num_deleted":"0","num_feature":"10","num_nodes":"15","size_leaf_vector":"1"}},{"base_weights":[2.1342209E-2,1.0807942E-1,-9.782881E-2,-4.8574027E-2,2.5515458E-1,-6.345813E-1,-0E0,1.4180888E-2,-5.298798E-2,-0E0,3.5748914E-2,-8.820718E-2,-2.5687388E-3,1.1791253E-2,-3.9206438E-2],"categories":[],"categories_nodes":[],"categories_segments":[],"categories_sizes":[],"default_left":[0,0,0,0,0,0,0,0,0,0,0,0,0,0,0],"id":58,"left_children":[1,3,5,7,9,11,13,-1,-1,-1,-1,-1,-1,-1,-1],"loss_changes":[1.9511305E0,2.8360305E0,3.4887846E0,5.4592443E0,1.488111E0,6.771722E-1,3.3564906E0,0E0,0E0,0E0,0E0,0E0,0E0,0E0,0E0],"parents":[2147483647,0,0,1,1,2,2,3,3,4,4,5,5,6,6],"right_children":[2,4,6,8,10,12,14,-1,-1,-1,-1,-1,-1,-1,-1],"split_conditions":[1.8096167E-1,-5.8683418E-2,2.6114732E-1,-3.6106753E-1,-3.7997258E-1,6.9490455E-2,9.2192256E-1,1.4180888E-2,-5.298798E-2,-0E0,3.5748914E-2,-8.820718E-2,-2.5687388E-3,1.1791253E-2,-3.9206438E-2],"split_indices":[8,0,8,3,7,3,0,0,0,0,0,0,0,0,0],"split_type":[0,0,0,0,0,0,0,0,0,0,0,0,0,0,0],"sum_hessian":[1.8438882E2,1.1162372E2,7.2765114E1,5.1329277E1,6.029444E1,8.758117E0,6.4006996E1,3.62003E1,1.5128979E1,1.956602E1,4.072842E1,4.4728007E0,4.2853165E0,4.882239E1,1.51846075E1],"tree_param":{"num_deleted":"0","num_feature":"10","num_nodes":"15","size_leaf_vector":"1"}},{"base_weights":[-0E0,3.851142E-2,-2.6443785E-1,2.0396176E-1,-2.6958933E-2,3.525926E-2,-4.4382408E-1,2.8094688E-2,-2.1360107E-2,-4.5687642E-2,1.7972514E-3,3.6535193E-3,-6.6664726E-2],"categories":[],"categories_nodes":[],"categories_segments":[],"categories_sizes":[],"default_left":[0,0,0,0,0,0,0,0,0,0,0,0,0],"id":59,"left_children":[1,3,5,7,9,-1,11,-1,-1,-1,-1,-1,-1],"loss_changes":[1.7902391E0,2.0343962E0,2.797804E0,1.9380035E0,2.7945302E0,0E0,2.7693791E0,0E0,0E0,0E0,0E0,0E0,0E0],"parents":[2147483647,0,0,1,1,2,2,3,3,4,4,6,6],"right_children":[2,4,6,8,10,-1,12,-1,-1,-1,-1,-1,-1],"split_conditions":[1.632407E-1,-2.7180165E-1,-1.5553977E0,2.594307E-1,-1.3407516E-2,3.525926E-2,-4.0689328E-1,2.8094688E-2,-2.1360107E-2,-4.5687642E-2,1.7972514E-3,3.6535193E-3,-6.6664726E-2],"split_indices":[9,3,8,2,9,0,7,0,0,0,0,0,0],"split_type":[0,0,0,0,0,0,0,0,0,0,0,0,0],"sum_hessian":[1.8938469E2,1.6907957E2,2.0305128E1,5.1228138E1,1.1785143E2,2.944513E0,1.7360615E1,4.54975E1,5.7306366E0,1.1703849E1,1.0614758E2,4.6607018E0,1.2699912E1],"tree_param":{"num_deleted":"0","num_feature":"10","num_nodes":"13","size_leaf_vector":"1"}},{"base_weights":[1.969477E-3,3.1586666E-2,-3.5322174E-1,-3.322694E-2,2.0366439E-1,-5.563167E-1,1.4243246E-2,2.1052202E-2,-1.02821E-2,3.8598694E-2,-0E0,-0E0,-6.756037E-2],"categories":[],"categories_nodes":[],"categories_segments":[],"categories_sizes":[],"default_left":[0,0,0,0,0,0,0,0,0,0,0,0,0],"id":60,"left_children":[1,3,5,7,9,11,-1,-1,-1,-1,-1,-1,-1],"loss_changes":[1.6530657E0,2.1378589E0,1.7394304E0,2.0925233E0,2.2381365E0,6.794119E-1,0E0,0E0,0E0,0E0,0E0,0E0,0E0],"parents":[2147483647,0,0,1,1,2,2,3,3,4,4,5,5],"right_children":[2,4,6,8,10,12,-1,-1,-1,-1,-1,-1,-1],"split_conditions":[2.1220143E0,3.8507432E-1,2.7762387E0,-8.359095E-1,5.8544433E-1,-6.5385175E-1,1.4243246E-2,2.1052202E-2,-1.02821E-2,3.8598694E-2,-0E0,-0E0,-6.756037E-2],"split_indices":[3,4,2,6,0,0,0,0,0,0,0,0,0],"split_type":[0,0,0,0,0,0,0,0,0,0,0,0,0],"sum_hessian":[1.8401382E2,1.7383685E2,1.0176972E1,1.2306957E2,5.0767277E1,8.499574E0,1.6773984E0,2.3569702E1,9.949987E1,2.7393063E1,2.3374216E1,1.9442856E0,6.5552883E0],"tree_param":{"num_deleted":"0","num_feature":"10","num_nodes":"13","size_leaf_vector":"1"}},{"base_weights":[-1.8510949E-3,1.2376175E-1,-8.132299E-2,-0E0,5.3680855E-1,-4.1861343E-1,1.3082294E-2,-1.2672056E-2,1.8385012E-2,6.991814E-2,-2.4204185E-2,8.672817E-3,-5.9057396E-2,1.3891646E-2,-1.6309343E-2],"categories":[],"categories_nodes":[],"categories_segments":[],"categories_sizes":[],"default_left":[0,0,0,0,0,0,0,0,0,0,0,0,0,0,0],"id":61,"left_children":[1,3,5,7,9,11,13,-1,-1,-1,-1,-1,-1,-1,-1],"loss_changes":[1.8447168E0,3.003489E0,4.250875E0,1.4231315E0,2.6027822E0,3.1730428E0,2.1282504E0,0E0,0E0,0E0,0E0,0E0,0E0,0E0,0E0],"parents":[2147483647,0,0,1,1,2,2,3,3,4,4,5,5,6,6],"right_children":[2,4,6,8,10,12,14,-1,-1,-1,-1,-1,-1,-1,-1],"split_conditions":[-2.7201638E-1,-4.9086556E-1,-6.692648E-2,-1.7312518E-1,1.606064E0,-4.1804665E-1,1.0644257E0,-1.2672056E-2,1.8385012E-2,6.991814E-2,-2.4204185E-2,8.672817E-3,-5.9057396E-2,1.3891646E-2,-1.6309343E-2],"split_indices":[1,1,0,7,5,7,0,0,0,0,0,0,0,0,0],"split_type":[0,0,0,0,0,0,0,0,0,0,0,0,0,0,0],"sum_hessian":[1.8564511E2,6.674088E1,1.1890423E2,5.4356125E1,1.2384756E1,2.7042456E1,9.186177E1,2.9551079E1,2.4805046E1,1.1358374E1,1.0263829E0,5.793006E0,2.124945E1,5.700878E1,3.4852993E1],"tree_param":{"num_deleted":"0","num_feature":"10","num_nodes":"15","size_leaf_vector":"1"}},{"base_weights":[2.2127975E-2,-1.1595939E-1,1.3983202E-1,7.721418E-2,-2.4982838E-1,6.284092E-1,9.45828E-2,-9.171859E-3,4.4979293E-2,-4.4806644E-2,3.6676116E-3,-0E0,7.839138E-2,-1.6141627E-2,1.6479189E-2],"categories":[],"categories_nodes":[],"categories_segments":[],"categories_sizes":[],"default_left":[0,0,0,0,0,0,0,0,0,0,0,0,0,0,0],"id":62,"left_children":[1,3,5,7,9,11,13,-1,-1,-1,-1,-1,-1,-1,-1],"loss_changes":[3.0567067E0,2.3276014E0,1.4930444E0,2.468232E0,3.4572527E0,8.71809E-1,1.8870214E0,0E0,0E0,0E0,0E0,0E0,0E0,0E0,0E0],"parents":[2147483647,0,0,1,1,2,2,3,3,4,4,5,5,6,6],"right_children":[2,4,6,8,10,12,14,-1,-1,-1,-1,-1,-1,-1,-1],"split_conditions":[-8.520831E-2,-4.3048587E-1,-3.745743E-2,-7.2262543E-1,1.5447241E-1,-2.6886489E-3,1.439042E-1,-9.171859E-3,4.4979293E-2,-4.4806644E-2,3.6676116E-3,-0E0,7.839138E-2,-1.6141627E-2,1.6479189E-2],"split_indices":[0,4,0,4,3,9,0,0,0,0,0,0,0,0,0],"split_type":[0,0,0,0,0,0,0,0,0,0,0,0,0,0,0],"sum_hessian":[1.8326303E2,8.0463455E1,1.0279958E2,3.0193552E1,5.02699E1,5.026256E0,9.777332E1,1.9871155E1,1.0322397E1,3.0928478E1,1.9341425E1,1.0834271E0,3.942829E0,1.7834806E1,7.9938515E1],"tree_param":{"num_deleted":"0","num_feature":"10","num_nodes":"15","size_leaf_vector":"1"}},{"base_weights":[-2.2212712E-2,1.3811028E-2,-2.978875E-1,5.9655588E-2,-2.9903856E-1,-6.571301E-1,3.3898603E-2,2.9859027E-2,-2.379985E-3,1.8939145E-2,-5.89246E-2,-7.233487E-2,-0E0,2.8127708E-2,-3.0639991E-2],"categories":[],"categories_nodes":[],"categories_segments":[],"categories_sizes":[],"default_left":[0,0,0,0,0,0,0,0,0,0,0,0,0,0,0],"id":63,"left_children":[1,3,5,7,9,11,13,-1,-1,-1,-1,-1,-1,-1,-1],"loss_changes":[2.1011522E0,2.0848954E0,3.5577435E0,3.1919608E0,3.192666E0,5.4665613E-1,1.2217791E0,0E0,0E0,0E0,0E0,0E0,0E0,0E0,0E0],"parents":[2147483647,0,0,1,1,2,2,3,3,4,4,5,5,6,6],"right_children":[2,4,6,8,10,12,14,-1,-1,-1,-1,-1,-1,-1,-1],"split_conditions":[1.3248482E0,1.632407E-1,1.9088659E0,-2.9834422E-1,-6.384966E-1,7.420754E-2,6.6915825E-2,2.9859027E-2,-2.379985E-3,1.8939145E-2,-5.89246E-2,-7.233487E-2,-0E0,2.8127708E-2,-3.0639991E-2],"split_indices":[5,9,5,3,6,9,9,0,0,0,0,0,0,0,0],"split_type":[0,0,0,0,0,0,0,0,0,0,0,0,0,0,0],"sum_hessian":[1.8083745E2,1.5816241E2,2.2675026E1,1.4189505E2,1.6267376E1,1.1533937E1,1.1141088E1,3.8411636E1,1.03483406E2,5.0828934E0,1.1184482E1,1.0047192E1,1.4867461E0,8.284433E0,2.8566544E0],"tree_param":{"num_deleted":"0","num_feature":"10","num_nodes":"15","size_leaf_vector":"1"}},{"base_weights":[-5.895183E-3,2.5149488E-1,-5.9263926E-2,-0E0,4.2994773E-1,-8.595093E-3,-6.270865E-1,3.4033082E-2,-3.288693E-2,-0E0,7.9048954E-2,1.9815488E-2,-6.5897424E-3,-0E0,-8.415605E-2],"categories":[],"categories_nodes":[],"categories_segments":[],"categories_sizes":[],"default_left":[0,0,0,0,0,0,0,0,0,0,0,0,0,0,0],"id":64,"left_children":[1,3,5,7,9,11,13,-1,-1,-1,-1,-1,-1,-1,-1],"loss_changes":[2.340688E0,1.1643307E0,3.8393178E0,1.8023471E0,3.0759833E0,1.6570626E0,1.2963219E0,0E0,0E0,0E0,0E0,0E0,0E0,0E0,0E0],"parents":[2147483647,0,0,1,1,2,2,3,3,4,4,5,5,6,6],"right_children":[2,4,6,8,10,12,14,-1,-1,-1,-1,-1,-1,-1,-1],"split_conditions":[-9.4399846E-1,6.720536E-2,1.3128574E-1,-8.226182E-1,-7.964647E-1,-8.230764E-1,-6.749127E-3,3.4033082E-2,-3.288693E-2,-0E0,7.9048954E-2,1.9815488E-2,-6.5897424E-3,-0E0,-8.415605E-2],"split_indices":[4,6,9,6,0,7,6,0,0,0,0,0,0,0,0],"split_type":[0,0,0,0,0,0,0,0,0,0,0,0,0,0,0],"sum_hessian":[1.8078662E2,2.67883E1,1.5399832E2,1.2425505E1,1.4362795E1,1.4454668E2,9.4516325E0,6.467003E0,5.9585013E0,6.55171E0,7.8110847E0,2.6798819E1,1.1774786E2,3.2681644E0,6.1834674E0],"tree_param":{"num_deleted":"0","num_feature":"10","num_nodes":"15","size_leaf_vector":"1"}},{"base_weights":[1.2844951E-2,8.207347E-2,-6.561143E-2,-5.9592E-2,2.1017922E-1,-4.3092892E-1,4.9755476E-2,1.3210656E-2,-6.331367E-2,-2.364856E-2,2.9938525E-2,-7.9009525E-2,-0E0,1.8605921E-2,-2.437082E-2],"categories":[],"categories_nodes":[],"categories_segments":[],"categories_sizes":[],"default_left":[0,0,0,0,0,0,0,0,0,0,0,0,0,0,0],"id":65,"left_children":[1,3,5,7,9,11,13,-1,-1,-1,-1,-1,-1,-1,-1],"loss_changes":[1.0166737E0,2.065383E0,3.7759724E0,5.924324E0,2.61696E0,3.6690843E0,2.4725869E0,0E0,0E0,0E0,0E0,0E0,0E0,0E0,0E0],"parents":[2147483647,0,0,1,1,2,2,3,3,4,4,5,5,6,6],"right_children":[2,4,6,8,10,12,14,-1,-1,-1,-1,-1,-1,-1,-1],"split_conditions":[1.2037298E-1,-2.4194E-2,3.3637488E-1,-2.7201638E-1,-1.9686408E-1,3.1840716E-2,8.050334E-1,1.3210656E-2,-6.331367E-2,-2.364856E-2,2.9938525E-2,-7.9009525E-2,-0E0,1.8605921E-2,-2.437082E-2],"split_indices":[8,1,8,1,0,9,0,0,0,0,0,0,0,0,0],"split_type":[0,0,0,0,0,0,0,0,0,0,0,0,0,0,0],"sum_hessian":[1.8084259E2,1.0274618E2,7.8096405E1,4.5539516E1,5.720666E1,1.970762E1,5.8388783E1,3.384828E1,1.1691238E1,7.4467897E0,4.9759872E1,1.0334311E1,9.373311E0,4.2509605E1,1.5879179E1],"tree_param":{"num_deleted":"0","num_feature":"10","num_nodes":"15","size_leaf_vector":"1"}},{"base_weights":[1.1768406E-2,2.5856447E-1,-2.6408419E-2,-4.4843334E-1,4.8754954E-1,-3.17342E-1,1.9794138E-2,-0E0,-8.165562E-2,6.788707E-2,-1.328611E-2,-1.2138833E-3,-9.958257E-2,4.2571284E-2,-3.585762E-3],"categories":[],"categories_nodes":[],"categories_segments":[],"categories_sizes":[],"default_left":[0,0,0,0,0,0,0,0,0,0,0,0,0,0,0],"id":66,"left_children":[1,3,5,7,9,11,13,-1,-1,-1,-1,-1,-1,-1,-1],"loss_changes":[1.926786E0,4.8723984E0,2.3612726E0,1.8386241E0,3.492381E0,4.006938E0,3.414409E0,0E0,0E0,0E0,0E0,0E0,0E0,0E0,0E0],"parents":[2147483647,0,0,1,1,2,2,3,3,4,4,5,5,6,6],"right_children":[2,4,6,8,10,12,14,-1,-1,-1,-1,-1,-1,-1,-1],"split_conditions":[-1.1209255E0,-1.1188565E0,-6.788049E-1,-1.8967663E0,1.9056745E0,-8.359095E-1,-1.1349815E0,-0E0,-8.165562E-2,6.788707E-2,-1.328611E-2,-1.2138833E-3,-9.958257E-2,4.2571284E-2,-3.585762E-3],"split_indices":[5,2,6,1,1,6,1,0,0,0,0,0,0,0,0],"split_type":[0,0,0,0,0,0,0,0,0,0,0,0,0,0,0],"sum_hessian":[1.7717313E2,2.5920698E1,1.5125243E2,4.8890753E0,2.1031622E1,2.2323463E1,1.2892896E2,1.9153812E0,2.9736943E0,1.7035982E1,3.9956393E0,1.7644718E1,4.6787453E0,1.627831E1,1.1265065E2],"tree_param":{"num_deleted":"0","num_feature":"10","num_nodes":"15","size_leaf_vector":"1"}},{"base_weights":[-4.394314E-3,3.0390096E-1,-3.8432945E-2,-0E0,4.9966797E-1,-8.89954E-2,1.7233156E-1,-1.820294E-2,2.9427757E-2,6.2009454E-2,-0E0,-4.052081E-3,-7.271394E-2,4.8325628E-2,-1.9223263E-2],"categories":[],"categories_nodes":[],"categories_segments":[],"categories_sizes":[],"default_left":[0,0,0,0,0,0,0,0,0,0,0,0,0,0,0],"id":67,"left_children":[1,3,5,7,9,11,13,-1,-1,-1,-1,-1,-1,-1,-1],"loss_changes":[1.6489211E0,7.806642E-1,1.7206702E0,5.64155E-1,3.5650802E-1,3.5063558E0,3.8081543E0,0E0,0E0,0E0,0E0,0E0,0E0,0E0,0E0],"parents":[2147483647,0,0,1,1,2,2,3,3,4,4,5,5,6,6],"right_children":[2,4,6,8,10,12,14,-1,-1,-1,-1,-1,-1,-1,-1],"split_conditions":[-1.5897148E0,-6.8509614E-1,1.2557997E0,-1.8334291E0,7.0670503E-1,1.0644257E0,6.650978E-1,-1.820294E-2,2.9427757E-2,6.2009454E-2,-0E0,-4.052081E-3,-7.271394E-2,4.8325628E-2,-1.9223263E-2],"split_indices":[4,0,0,4,7,0,3,0,0,0,0,0,0,0,0],"split_type":[0,0,0,0,0,0,0,0,0,0,0,0,0,0,0],"sum_hessian":[1.7868349E2,1.354921E1,1.6513428E2,6.465531E0,7.0836787E0,1.3775934E2,2.7374947E1,3.8687348E0,2.596796E0,4.81537E0,2.2683086E0,1.3129002E2,6.46932E0,1.5864883E1,1.1510063E1],"tree_param":{"num_deleted":"0","num_feature":"10","num_nodes":"15","size_leaf_vector":"1"}},{"base_weights":[-0E0,4.812431E-1,-2.3071848E-2,-0E0,6.475507E-1,7.967846E-3,-3.1364453E-1,7.118749E-2,-0E0,1.16415145E-2,-1.0006555E-2,1.4444472E-2,-7.0665084E-2],"categories":[],"categories_nodes":[],"categories_segments":[],"categories_sizes":[],"default_left":[0,0,0,0,0,0,0,0,0,0,0,0,0],"id":68,"left_children":[1,3,5,-1,7,9,11,-1,-1,-1,-1,-1,-1],"loss_changes":[1.9032549E0,1.0039201E0,1.8779298E0,0E0,1.3324738E-1,1.8973556E0,4.397704E0,0E0,0E0,0E0,0E0,0E0,0E0],"parents":[2147483647,0,0,1,1,2,2,4,4,5,5,6,6],"right_children":[2,4,6,-1,8,10,12,-1,-1,-1,-1,-1,-1],"split_conditions":[-1.4345155E0,-1.7961999E0,1.6012616E-1,-0E0,2.3220968E0,1.2037298E-1,-1.4329574E0,7.118749E-2,-0E0,1.16415145E-2,-1.0006555E-2,1.4444472E-2,-7.0665084E-2],"split_indices":[7,1,9,0,4,8,4,0,0,0,0,0,0],"split_type":[0,0,0,0,0,0,0,0,0,0,0,0,0],"sum_hessian":[1.786015E2,6.1431446E0,1.7245836E2,1.1058133E0,5.037331E0,1.5420143E2,1.8256922E1,4.0330925E0,1.0042384E0,8.137308E1,7.2828354E1,7.8342156E0,1.0422706E1],"tree_param":{"num_deleted":"0","num_feature":"10","num_nodes":"13","size_leaf_vector":"1"}},{"base_weights":[-1.4633516E-2,-3.3959217E-2,4.8810005E-2,-1.9810111E-3,-7.6605695E-1,-5.7288525E-3,1.5511031E-2,-9.527101E-2,-0E0],"categories":[],"categories_nodes":[],"categories_segments":[],"categories_sizes":[],"default_left":[0,0,0,0,0,0,0,0,0],"id":69,"left_children":[1,3,-1,5,7,-1,-1,-1,-1],"loss_changes":[1.3500435E0,3.4036767E0,0E0,1.4543054E0,8.535888E-1,0E0,0E0,0E0,0E0],"parents":[2147483647,0,0,1,1,3,3,4,4],"right_children":[2,4,-1,6,8,-1,-1,-1,-1],"split_conditions":[2.4290037E0,2.0411654E0,4.8810005E-2,5.9820324E-1,1.8046477E0,-5.7288525E-3,1.5511031E-2,-9.527101E-2,-0E0],"split_indices":[0,0,0,2,2,0,0,0,0],"split_type":[0,0,0,0,0,0,0,0,0],"sum_hessian":[1.7956029E2,1.7636023E2,3.2000585E0,1.7188622E2,4.474025E0,1.3252547E2,3.9360744E1,3.1490715E0,1.3249534E0],"tree_param":{"num_deleted":"0","num_feature":"10","num_nodes":"9","size_leaf_vector":"1"}},{"base_weights":[-0E0,-2.61469E-2,2.5436306E-1,5.0772335E-2,-9.5535785E-2,-0E0,5.978163E-1,1.623089E-2,-5.531121E-2,-2.0539049E-2,1.9466992E-2,-2.8373787E-2,3.210554E-2,7.599416E-2,-0E0],"categories":[],"categories_nodes":[],"categories_segments":[],"categories_sizes":[],"default_left":[0,0,0,0,0,0,0,0,0,0,0,0,0,0,0],"id":70,"left_children":[1,3,5,7,9,11,13,-1,-1,-1,-1,-1,-1,-1,-1],"loss_changes":[1.4048806E0,8.9603233E-1,1.6349562E0,4.533086E0,3.0324135E0,1.4174352E0,5.7273984E-1,0E0,0E0,0E0,0E0,0E0,0E0,0E0,0E0],"parents":[2147483647,0,0,1,1,2,2,3,3,4,4,5,5,6,6],"right_children":[2,4,6,8,10,12,14,-1,-1,-1,-1,-1,-1,-1,-1],"split_conditions":[1.1487949E0,-2.7411905E-1,4.9679637E-2,1.6931694E0,6.473676E-1,5.101488E-1,1.8887456E-1,1.623089E-2,-5.531121E-2,-2.0539049E-2,1.9466992E-2,-2.8373787E-2,3.210554E-2,7.599416E-2,-0E0],"split_indices":[7,7,9,2,2,8,9,0,0,0,0,0,0,0,0],"split_type":[0,0,0,0,0,0,0,0,0,0,0,0,0,0,0],"sum_hessian":[1.7473376E2,1.5636478E2,1.8368992E1,6.759223E1,8.8772545E1,1.1840175E1,6.5288167E0,5.941508E1,8.177149E0,6.700367E1,2.176888E1,6.070635E0,5.76954E0,4.279965E0,2.2488515E0],"tree_param":{"num_deleted":"0","num_feature":"10","num_nodes":"15","size_leaf_vector":"1"}},{"base_weights":[-2.1906227E-2,-5.69076E-2,2.3294182E-1,3.3609068E-1,-8.203795E-2,-2.0721993E-1,3.9798418E-1,5.332769E-2,-0E0,-2.7577287E-2,-2.96039E-3,1.5675016E-2,-6.9890216E-2,-0E0,7.44924E-2],"categories":[],"categories_nodes":[],"categories_segments":[],"categories_sizes":[],"default_left":[0,0,0,0,0,0,0,0,0,0,0,0,0,0,0],"id":71,"left_children":[1,3,5,7,9,11,13,-1,-1,-1,-1,-1,-1,-1,-1],"loss_changes":[1.4414005E0,1.3928282E0,1.6700461E0,7.5576645E-1,1.2763561E0,1.5498672E0,1.9260061E0,0E0,0E0,0E0,0E0,0E0,0E0,0E0,0E0],"parents":[2147483647,0,0,1,1,2,2,3,3,4,4,5,5,6,6],"right_children":[2,4,6,8,10,12,14,-1,-1,-1,-1,-1,-1,-1,-1],"split_conditions":[1.1487949E0,-1.4345155E0,1.0796098E-2,8.1798536E-1,-7.7628076E-1,-5.4124063E-1,1.0505052E-1,5.332769E-2,-0E0,-2.7577287E-2,-2.96039E-3,1.5675016E-2,-6.9890216E-2,-0E0,7.44924E-2],"split_indices":[7,7,9,4,7,1,2,0,0,0,0,0,0,0,0],"split_type":[0,0,0,0,0,0,0,0,0,0,0,0,0,0,0],"sum_hessian":[1.7700215E2,1.6019351E2,1.6808641E1,6.010365E0,1.5418315E2,2.828208E0,1.3980434E1,3.9283738E0,2.081991E0,2.6841465E1,1.2734168E2,1.1426768E0,1.685531E0,7.864519E0,6.115915E0],"tree_param":{"num_deleted":"0","num_feature":"10","num_nodes":"15","size_leaf_vector":"1"}}]},"name":"gbtree"},"learner_model_param":{"base_score":"5E-1","boost_from_average":"1","num_class":"0","num_feature":"10","num_target":"1"},"objective":{"name":"binary:logistic","reg_loss_param":{"scale_pos_weight":"1"}}},"version":[3,0,5]}