tree
version=v4
num_class=1
num_tree_per_iteration=1
label_index=0
max_feature_idx=9
objective=binary sigmoid:1
feature_names=Column_0 Column_1 Column_2 Column_3 Column_4 Column_5 Column_6 Column_7 Column_8 Column_9
feature_infos=[-3.9359079514800746:9.9560818125527852] [-4.3150812796253009:9.5533206589939912] [-3.5534615566905718:11.790897115517122] [-2.6773232729761034:7.1239056242337471] [-3.104039250992725:5.3361098446941266] [-2.7089601089235655:4.5553372941822854] [-2.6670409787274578:6.5103627379094959] [-2.0487538971895605:6.9606095616078676] [-6.7607272448081188:6.6387183815166093] [-32.830501095316471:18.404074946047125]
tree_sizes=771 881 782 880 878 779 879 882 881 881 786 883 882 884 881 881 866 881 883 785 889 884 888 883 784 787 894 889 891 861 787 783 886 793 789 889 866 884 888 886 889 886 890 894 887 896 890 883 891 887 890 885 891 887 887 888 866 863 894 899 895 884 870 891 892 891 894 891 892 887 890 893 891 893 892 897 789 884 894 894 881 887 884 896 881 883 677 785 880 880 891 762 782 785 688 685 892 891 580 683 876 881 777 888 894 687 789 788 872 875 687 685 779 883 898 889 788 680 890 886 896 901 578 891 580 683 894 866 789 789 897 896 890 681 751 788 580 686 576

Tree=0
num_leaves=7
num_cat=0
split_feature=6 5 0 5 8 5
split_gain=309.124 342.818 126.21 5.2674 5.04952 3.32625
threshold=-0.15398396485214319 0.2849791550613886 0.27797220097264991 -1.1708922153293166 0.1246963613253952 -1.5178756772883457
decision_type=2 2 2 2 2 2
left_child=3 2 -2 5 -5 -1
right_child=1 -3 -4 4 -6 -7
leaf_value=0.052207491867127302 -0.071919954991429419 0.042898230525774357 0.039169125046911564 0.054098303674748348 0.029754105192122161 0.079463548473621845
leaf_weight=27.25 168.75 92.25 21.5 56.5 28.5 24
leaf_count=109 675 369 86 226 114 96
internal_value=0.000142738 -0.0258532 -0.0592501 0.0539555 0.046276 0.0658779
internal_weight=418.75 282.5 190.25 136.25 85 51.25
internal_count=1675 1130 761 545 340 205
is_linear=0
shrinkage=0.043602


Tree=1
num_leaves=7
num_cat=0
split_feature=6 5 0 5 2 7
split_gain=283.334 314.026 115.759 4.85295 4.94791 3.18258
threshold=-0.15398396485214319 0.2849791550613886 0.27797220097264991 -1.1708922153293166 1.434258372685729 -0.61105862164017688
decision_type=2 2 2 2 2 2
left_child=3 2 -2 -1 -5 -3
right_child=1 5 -4 4 -6 -7
leaf_value=0.063148780521294801 -0.068885635395689648 0.064870885090942826 0.037523486247668596 0.048352485114486539 0.014802103326550324 0.037383304437757066
leaf_weight=51.193592920899391 168.53197664022446 10.745055973529814 21.491756111383438 74.208833679556847 10.743541076779364 81.462517380714417
leaf_count=205 675 43 86 297 43 326
internal_value=0.000153301 -0.0247474 -0.0567385 0.0516909 0.0443127 0.0410593
internal_weight=418.377 282.231 190.024 136.146 84.9524 92.2076
internal_count=1675 1130 761 545 340 369
is_linear=0
shrinkage=0.043602


Tree=2
num_leaves=6
num_cat=0
split_feature=9 3 5 5 5
split_gain=206.981 112.282 83.4635 161.382 6.055
threshold=-0.029174829311731439 -0.36600063909864644 -0.20215053815519723 0.2849791550613886 -1.1708922153293166
decision_type=2 2 2 2 2
left_child=1 -1 4 -4 -2
right_child=2 -3 3 -5 -6
leaf_value=0.049733023561279809 0.056195049138396368 -0.078754499596447633 -0.039774762441113345 0.038765547210054589 0.035104598570956477
leaf_weight=14.963443487882612 50.294568732380867 78.364277899265289 102.0638080984354 95.825805678963661 70.584382638335228
leaf_count=60 202 315 410 384 283
internal_value=-0.00100143 -0.0579019 0.0157206 -0.00171229 0.0441681
internal_weight=412.096 93.3277 318.769 197.89 120.879
internal_count=1654 375 1279 794 485
is_linear=0
shrinkage=0.043602


Tree=3
num_leaves=7
num_cat=0
split_feature=6 5 6 8 2 2
split_gain=234.951 261.762 69.3458 3.37451 2.84843 2.82192
threshold=-0.24369895956904258 0.2849791550613886 0.50358303845247743 0.22719486091937319 1.9445704453415069 -1.1176954561648897
decision_type=2 2 2 2 2 2
left_child=4 2 -2 -3 5 -1
right_child=1 3 -4 -5 -6 -7
leaf_value=0.031216665234767373 -0.059704826544781139 0.042672543798582249 0.038933047902897859 0.024119378598144666 0.022956454837158923 0.053661722622847817
leaf_weight=16.910442873835564 176.4148254096508 60.514558672904968 14.185702219605444 34.122521758079529 9.9514880031347257 98.701178848743439
leaf_count=68 712 243 57 137 40 397
internal_value=-0.000956287 -0.0228432 -0.0522318 0.0362423 0.0485871 0.050611
internal_weight=410.801 285.238 190.601 94.6371 125.563 115.612
internal_count=1654 1149 769 380 505 465
is_linear=0
shrinkage=0.043602


Tree=4
num_leaves=7
num_cat=0
split_feature=6 5 0 4 2 5
split_gain=212.628 254.12 103.268 3.49912 3.35142 3.62448
threshold=-0.22962109699855007 0.2849791550613886 0.27797220097264991 0.87710898605163712 -1.1176954561648897 -1.1708922153293166
decision_type=2 2 2 2 2 2
left_child=4 2 -2 -3 -1 -6
right_child=1 3 -4 -5 5 -7
leaf_value=0.027496803351588477 -0.061063972452650675 0.043431055886557067 0.035806915609415728 0.021095193528276077 0.0622390389603244 0.043661293110158844
leaf_weight=16.871133461594582 164.40853552520275 73.506451860070229 23.468281030654907 19.890825003385544 41.417704775929451 69.258142650127411
leaf_count=68 668 296 94 80 168 279
internal_value=0.00148523 -0.0196739 -0.0488559 0.0389042 0.0480589 0.0509723
internal_weight=408.821 281.274 187.877 93.3973 127.547 110.676
internal_count=1653 1138 762 376 515 447
is_linear=0
shrinkage=0.043602


Tree=5
num_leaves=6
num_cat=0
split_feature=9 3 0 1 3
split_gain=171.456 103.089 69.3511 166.272 8.95343
threshold=-0.029174829311731439 -0.2224904666185509 0.23450687282234903 -0.28152938057549121 0.59066916999076968
decision_type=2 2 2 2 2
left_child=1 -1 3 -2 -4
right_child=2 -3 4 -5 -6
leaf_value=0.045132977437819286 0.041001579353162121 -0.072978639129315209 0.051031308777065978 -0.039086901218754147 0.024378991816444102
leaf_weight=16.779706463217735 97.298458456993103 74.35771781206131 81.514500349760056 98.591511845588684 37.895839974284172
leaf_count=68 394 306 330 402 153
internal_value=0.00144086 -0.0510137 0.016691 0.000668672 0.0427893
internal_weight=406.438 91.1374 315.3 195.89 119.41
internal_count=1653 374 1279 796 483
is_linear=0
shrinkage=0.043602


Tree=6
num_leaves=7
num_cat=0
split_feature=6 5 0 7 0 4
split_gain=193.774 194.452 93.417 4.0367 3.44705 2.57268
threshold=-0.15398396485214319 0.2849791550613886 0.27797220097264991 -0.62868138331094003 1.9259936250161867 0.75626271539774537
decision_type=2 2 2 2 2 2
left_child=4 2 -2 -3 5 -1
right_child=1 3 -4 -5 -6 -7
leaf_value=0.040159961095211472 -0.058058217663158836 0.056517797491086541 0.037796487942497202 0.02670749971633429 0.016074088112671133 0.057130729922085823
leaf_weight=93.760387167334557 164.30172143876553 10.326169580221174 21.391392469406128 81.416129693388939 10.29620225727558 29.706885665655136
leaf_count=382 679 42 86 330 42 121
internal_value=-0.000489278 -0.0212788 -0.0468969 0.0304808 0.0424874 0.0445538
internal_weight=411.199 277.435 185.693 91.7423 133.763 123.467
internal_count=1682 1137 765 372 545 503
is_linear=0
shrinkage=0.043602


Tree=7
num_leaves=7
num_cat=0
split_feature=6 6 0 1 0 2
split_gain=178.591 180.262 82.3646 5.39523 3.18766 3.58996
threshold=-0.15398396485214319 0.408095017298781 0.27797220097264991 -0.40506947458301396 1.9259936250161867 -1.1176954561648897
decision_type=2 2 2 2 2 2
left_child=4 2 -2 -3 5 -1
right_child=1 3 -4 -5 -6 -7
leaf_value=0.022486644757372984 -0.055213986356754161 0.046894000005699106 0.031617705206840208 0.023005299968899572 0.015446460589978525 0.046020763007916229
leaf_weight=17.163457855582237 165.27967512607574 28.981785073876381 23.244930535554886 57.728360563516617 10.273174747824667 105.54145494103432
leaf_count=70 690 118 94 235 42 433
internal_value=-0.000459028 -0.0205115 -0.0444096 0.0313304 0.0409059 0.0429039
internal_weight=408.213 275.235 188.525 86.7101 132.978 122.705
internal_count=1682 1137 784 353 545 503
is_linear=0
shrinkage=0.043602


Tree=8
num_leaves=7
num_cat=0
split_feature=1 0 7 8 8 3
split_gain=132.109 239.275 51.2417 9.29876 7.76547 14.5952
threshold=-0.28152938057549121 0.23450687282234903 -0.57145053845567872 0.18676225041914968 0.11977218021097098 0.51182568650825655
decision_type=2 2 2 2 2 2
left_child=4 2 -2 -3 -1 -6
right_child=1 3 -4 -5 5 -7
leaf_value=0.049104994681047773 0.03236806948629152 0.04229722454581801 -0.054869733015941044 0.015648070361501107 0.0040538644220745323 0.053368059061163479
leaf_weight=65.929601386189461 13.412343248724936 73.065232694149017 161.93077708780766 40.40221431851387 27.514292001724243 19.345767959952354
leaf_count=271 55 300 683 165 113 80
internal_value=-0.000560088 -0.0162028 -0.0480744 0.0329939 0.0393152 0.0249619
internal_weight=401.6 288.811 175.343 113.467 112.79 46.8601
internal_count=1667 1203 738 465 464 193
is_linear=0
shrinkage=0.043602


Tree=9
num_leaves=7
num_cat=0
split_feature=6 6 0 8 8 3
split_gain=151.718 150.515 73.3168 4.95219 3.43862 5.71535
threshold=-0.15398396485214319 0.408095017298781 0.32421209384640221 0.16616568430215214 0.1246963613253952 0.15596374927878168
decision_type=2 2 2 2 2 2
left_child=4 2 -2 -3 -1 -6
right_child=1 3 -4 -5 5 -7
leaf_value=0.044260430846655152 -0.051332210778761503 0.037969512606078275 0.030915804912898009 0.015472951081045811 0.0013268125420661267 0.036259507067642534
leaf_weight=77.689191669225693 162.63886865973473 50.284874990582466 23.072981730103493 33.100833237171173 11.908569991588591 39.81470413506031
leaf_count=323 694 207 94 135 49 165
internal_value=-0.000528928 -0.0191928 -0.0410148 0.0292859 0.0381438 0.0284339
internal_weight=398.51 269.098 185.712 83.3857 129.412 51.7233
internal_count=1667 1130 788 342 537 214
is_linear=0
shrinkage=0.043602


Tree=10
num_leaves=6
num_cat=0
split_feature=9 3 1 0 3
split_gain=122.196 81.6212 48.9013 122.585 4.41182
threshold=-0.029174829311731439 -0.2224904666185509 -0.28152938057549121 0.23450687282234903 -0.27157156325591941
decision_type=2 2 2 2 2
left_child=1 -1 4 -4 -2
right_child=2 -3 3 -5 -6
leaf_value=0.039562318413821483 0.045818971982880326 -0.065908090743224304 -0.034296470419676518 0.03254208329415189 0.026351050744140854
leaf_weight=16.882215231657028 58.632775366306305 69.759633079171181 98.085657581686974 110.00751775503159 44.280945912003517
leaf_count=70 244 307 416 456 184
internal_value=0.000432753 -0.0451581 0.0132162 0.00100255 0.0377046
internal_weight=397.649 86.6418 311.007 208.093 102.914
internal_count=1677 377 1300 872 428
is_linear=0
shrinkage=0.043602


Tree=11
num_leaves=7
num_cat=0
split_feature=6 5 1 9 6 3
split_gain=136.978 148.301 55.6669 6.41337 5.88697 2.15583
threshold=-0.11298325772625821 0.23486676533241838 0.73151256141172716 0.16666552416370864 -0.24369895956904258 1.2828941848167636
decision_type=2 2 2 2 2 2
left_child=4 2 -2 -3 5 -1
right_child=1 3 -4 -5 -6 -7
leaf_value=0.0410808020853341 -0.051075661759673263 0.029132847455435547 0.043051079824160184 -0.0044674171216504133 0.0097535132873988756 0.021391238829208244
leaf_weight=105.94386403262615 149.51962912082672 82.717503547668457 12.448642104864119 11.911482229828833 16.124638125300407 15.583550989627836
leaf_count=447 654 342 51 50 68 65
internal_value=0.000417694 -0.0183828 -0.0436701 0.0248437 0.0354288 0.0387231
internal_weight=394.249 256.597 161.968 94.629 137.652 121.527
internal_count=1677 1097 705 392 580 512
is_linear=0
shrinkage=0.043602


Tree=12
num_leaves=7
num_cat=0
split_feature=1 0 7 8 3 3
split_gain=102.919 184.264 47.6116 8.64144 4.47846 12.9672
threshold=-0.28152938057549121 0.23450687282234903 -0.57145053845567872 0.18676225041914968 -0.27157156325591941 0.37482945935616879
decision_type=2 2 2 2 2 2
left_child=4 2 -2 -3 -1 -6
right_child=1 3 -4 -5 5 -7
leaf_value=0.042193788655868529 0.034345176227757887 0.037754175995174527 -0.0502625997731075 0.011825201488273006 0.00037565750004974521 0.046550041345604844
leaf_weight=66.516907393932343 13.263737455010412 72.236804470419884 153.89673168957233 39.018501147627831 23.47883078455925 22.658182948827744
leaf_count=281 55 305 682 162 98 96
internal_value=-0.000284104 -0.0145267 -0.0434137 0.0288264 0.034753 0.0234883
internal_weight=391.07 278.416 167.16 111.255 112.654 46.137
internal_count=1679 1204 737 467 475 194
is_linear=0
shrinkage=0.043602


Tree=13
num_leaves=7
num_cat=0
split_feature=6 5 0 6 1 1
split_gain=114.371 136.804 62.1194 5.48036 6.4619 4.31078
threshold=-0.10258242157812528 0.25475625814345082 0.27797220097264991 -0.33068376264683769 -0.13212700243255754 -0.91132057000772959
decision_type=2 2 2 2 2 2
left_child=3 2 -2 5 -5 -1
right_child=1 -3 -4 4 -6 -7
leaf_value=0.019426345553908646 -0.051912193521417911 0.024698919586290211 0.030736396117395769 0.039569127283139285 -0.0032183087232329185 0.041228081972815626
leaf_weight=25.29696498811245 141.04846023023129 91.65292090177536 19.188961178064346 10.340861335396768 16.545825690031052 83.288678377866745
leaf_count=108 637 383 79 44 71 357
internal_value=-0.00026476 -0.017644 -0.0418997 0.0319416 0.0135592 0.0363393
internal_weight=387.363 251.89 160.237 135.472 26.8867 108.586
internal_count=1679 1099 716 580 115 465
is_linear=0
shrinkage=0.043602


Tree=14
num_leaves=7
num_cat=0
split_feature=6 5 0 2 5 7
split_gain=109.038 127.054 54.2403 3.43645 4.78112 3.17524
threshold=-0.22962109699855007 0.2849791550613886 0.34608810517660493 1.9445704453415069 -0.20215053815519723 -0.61105862164017688
decision_type=2 2 2 2 2 2
left_child=3 2 -2 4 -1 -3
right_child=1 5 -4 -5 -6 -7
leaf_value=0.042116899648685223 -0.046602559721641908 0.048222446291118631 0.02665399253157472 0.008316563403059021 0.018472135490982346 0.022854144091864249
leaf_weight=85.427733138203621 149.96221242845058 11.489390328526495 21.514103069901466 9.3689199388027173 22.994656011462212 78.545395016670227
leaf_count=371 686 49 89 40 98 329
internal_value=0.000345868 -0.0153267 -0.0373162 0.0350853 0.037287 0.0264612
internal_weight=379.302 261.511 171.476 117.791 108.422 90.0348
internal_count=1662 1153 775 509 469 378
is_linear=0
shrinkage=0.043602


Tree=15
num_leaves=7
num_cat=0
split_feature=6 5 4 2 5 7
split_gain=100.879 117.915 46.8836 3.21125 4.50194 3.00693
threshold=-0.22962109699855007 0.2849791550613886 -0.52977769808924646 1.9445704453415069 -0.20215053815519723 -0.61105862164017688
decision_type=2 2 2 2 2 2
left_child=3 2 -2 4 -1 -3
right_child=1 5 -4 -5 -6 -7
leaf_value=0.040786878542795717 0.038921365270619471 0.046780140942918706 -0.04314146959707596 0.0079924095122295268 0.017767887597143841 0.021968979698481845
leaf_weight=84.410143077373505 13.916731446981428 11.34950043261051 155.05440863966942 9.3494959622621518 22.890714272856712 78.180652529001236
leaf_count=371 58 49 717 40 98 329
internal_value=0.000342838 -0.0148284 -0.036232 0.0339104 0.0360582 0.0254767
internal_weight=375.152 258.501 168.971 116.65 107.301 89.5302
internal_count=1662 1153 775 509 469 378
is_linear=0
shrinkage=0.043602


Tree=16
num_leaves=7
num_cat=0
split_feature=6 6 4 9 8 4
split_gain=86.9074 104.347 54.9473 4.04616 2.16636 7.489
threshold=-0.22962109699855007 0.408095017298781 -0.54839483035840264 -0.0044001403174749902 0.18676225041914968 0.75626271539774537
decision_type=2 2 2 2 2 2
left_child=4 2 -2 -3 -1 -6
right_child=1 3 -4 -5 5 -7
leaf_value=0.03617380873043536 0.036041843341028064 0 -0.042257200529791844 0.028934653631962005 -8.5022501826965182e-05 0.036384652397309876
leaf_weight=70.602149173617363 18.589174062013626 10.883067682385443 154.42652714252472 73.327933639287949 16.798100620508194 27.48201759159565
leaf_count=313 78 47 723 311 72 121
internal_value=-0.000270148 -0.0143641 -0.0337137 0.0252811 0.0311462 0.0226165
internal_weight=372.109 257.227 173.016 84.211 114.882 44.2801
internal_count=1665 1159 801 358 506 193
is_linear=0
shrinkage=0.043602


Tree=17
num_leaves=7
num_cat=0
split_feature=6 5 0 7 2 5
split_gain=80.3596 98.3881 49.6943 4.7622 3.13573 4.21304
threshold=-0.22962109699855007 0.23486676533241838 0.27797220097264991 -0.62868138331094003 -1.1176954561648897 -1.1708922153293166
decision_type=2 2 2 2 2 2
left_child=4 2 -2 -3 -1 -6
right_child=1 3 -4 -5 5 -7
leaf_value=0.010572573143031828 -0.044101677824410809 0.048622569580401877 0.027411529018666822 0.017389771728771274 0.045403521321132886 0.025571941498607118
leaf_weight=15.217487573623655 139.10332638025284 10.460838034749029 20.760281026363373 84.370877206325531 35.312645554542542 63.252060160040855
leaf_count=66 668 46 86 359 161 279
internal_value=-0.00025321 -0.0138749 -0.03471 0.0211875 0.0300993 0.032973
internal_weight=368.478 254.695 159.864 94.8317 113.782 98.5647
internal_count=1665 1159 754 405 506 440
is_linear=0
shrinkage=0.043602


Tree=18
num_leaves=7
num_cat=0
split_feature=6 5 1 4 0 1
split_gain=76.2575 94.7185 46.8277 3.7502 3.46065 4.33778
threshold=-0.24369895956904258 0.2849791550613886 -0.36911977594953421 1.3106390243233046 1.9259936250161867 -0.91132057000772959
decision_type=2 2 2 2 2 2
left_child=4 2 -2 -3 5 -1
right_child=1 3 -4 -5 -6 -7
leaf_value=0.017040950212702247 0.041099697831887327 0.026176393692583025 -0.040011971924839122 -0.0017874807836541591 0.0030499818733169329 0.037782750444053395
leaf_weight=29.409226357936859 14.308236613869665 78.893505990505219 149.2529826015234 9.7968964576721174 9.0232246220111829 74.721444740891457
leaf_count=131 60 339 720 41 40 338
internal_value=0.000214692 -0.0131086 -0.0327538 0.0230345 0.029874 0.0321136
internal_weight=365.406 252.252 163.561 88.6904 113.154 104.131
internal_count=1669 1160 780 380 509 469
is_linear=0
shrinkage=0.043602


Tree=19
num_leaves=6
num_cat=0
split_feature=9 3 6 6 4
split_gain=71.975 57.4442 33.7098 69.0609 3.49433
threshold=-0.029174829311731439 -0.2224904666185509 -0.043333693939654215 0.3134842285580835 -0.14242023888957125
decision_type=2 2 2 2 2
left_child=1 -1 4 -4 -2
right_child=2 -3 3 -5 -6
leaf_value=0.033819873185242572 0.035280724270239858 -0.057808672972693508 -0.032856960352912336 0.024404540114285528 0.020022098959623376
leaf_weight=16.154268696904182 54.865659922361374 58.394351661205292 76.822167798876762 82.251481384038925 73.316174373030663
leaf_count=71 249 304 360 355 330
internal_value=0.00021303 -0.037764 0.0101484 -0.00323458 0.0267351
internal_weight=361.804 74.5486 287.255 159.074 128.182
internal_count=1669 375 1294 715 579
is_linear=0
shrinkage=0.043602


Tree=20
num_leaves=7
num_cat=0
split_feature=9 3 6 6 4 4
split_gain=71.5144 49.7648 28.4084 65.7248 6.46059 4.42259
threshold=-0.013445106821750905 -0.2224904666185509 -0.016526221155501983 0.27007969155481165 0.25831201204202414 -0.14242023888957125
decision_type=2 2 2 2 2 2
left_child=1 -1 5 -4 -3 -2
right_child=2 4 3 -5 -6 -7
leaf_value=0.032124984770933285 0.035623682364417125 -0.057935260666395171 -0.034802700445928002 0.023437163124699324 -0.014733205029413752 0.01853245830628996
leaf_weight=15.990299388766287 54.970522075891495 56.177394688129425 64.626506701111794 83.954562291502953 8.4230569005012494 70.61962679028511
leaf_count=71 252 300 309 364 40 319
internal_value=0.000342792 -0.035589 0.0109815 -0.00189706 -0.0525815 0.0261958
internal_weight=354.762 80.5908 274.171 148.581 64.6005 125.59
internal_count=1655 411 1244 673 340 571
is_linear=0
shrinkage=0.043602


Tree=21
num_leaves=7
num_cat=0
split_feature=9 3 4 9 4 3
split_gain=66.7603 46.8617 26.9023 57.5405 7.15683 2.334
threshold=-0.013445106821750905 -0.2224904666185509 -0.52977769808924646 0.11685880278463927 0.26353544793802791 -0.50911090267884485
decision_type=2 2 2 2 2 2
left_child=1 -1 5 -4 -3 -2
right_child=2 4 3 -5 -6 -7
leaf_value=0.0310314871923398 0.038488647239794775 -0.057102584657759713 0.012079573517223352 -0.054013420965191163 -0.010317614147863606 0.013852265995619154
leaf_weight=15.856898590922354 55.004676818847656 55.295928716659546 178.30949680507183 28.48744235932827 7.675680384039878 10.361096218228338
leaf_count=71 249 304 806 142 36 47
internal_value=0.000326913 -0.0348306 0.0105864 0.00281351 -0.0516438 0.0348349
internal_weight=350.991 78.8285 272.163 206.797 62.9716 65.3658
internal_count=1655 411 1244 948 340 296
is_linear=0
shrinkage=0.043602


Tree=22
num_leaves=7
num_cat=0
split_feature=6 6 0 0 4 1
split_gain=62.5149 79.9448 45.3192 3.36015 2.93961 2.78046
threshold=-0.11298325772625821 0.42769421073082364 0.27797220097264991 1.9259936250161867 0.64664173779762579 -0.092345304543697923
decision_type=2 2 2 2 2 2
left_child=3 2 -2 4 -1 -3
right_child=1 5 -4 -5 -6 -7
leaf_value=0.021965771976247783 -0.042868172011907797 0.030954641001511837 0.023169762707041849 -0.00059138296938399885 0.03910647989621549 0.013730047795012653
leaf_weight=88.429013833403587 126.44684131443501 34.454012617468834 22.868195191025734 9.1054918169975263 27.654452368617058 43.717559471726418
leaf_count=412 659 152 96 41 127 191
internal_value=-0.00036829 -0.0139923 -0.0326631 0.0242913 0.0262833 0.0215765
internal_weight=352.676 227.487 149.315 125.189 116.083 78.1716
internal_count=1678 1098 755 580 539 343
is_linear=0
shrinkage=0.043602


Tree=23
num_leaves=7
num_cat=0
split_feature=6 6 4 9 5 5
split_gain=57.7892 74.8741 44.6431 8.44145 4.72618 4.77428
threshold=-0.11298325772625821 0.3134842285580835 -0.54839483035840264 -0.0044001403174749902 -1.1189525788773127 -1.5480454306043454
decision_type=2 2 2 2 2 2
left_child=4 2 -2 -3 5 -1
right_child=1 3 -4 -5 -6 -7
leaf_value=0.018747550715414049 0.040675664651709575 -0.012348358439762123 -0.04316711272069193 0.022066629522780244 0.016795206068114396 0.048878474337993846
leaf_weight=20.951567530632019 12.879669949412344 15.740272566676138 118.32826247811317 77.731749132275581 80.381420120596886 22.887305811047554
leaf_count=99 55 76 625 342 370 111
internal_value=-0.000350214 -0.0135509 -0.0347418 0.0161691 0.0234304 0.0350666
internal_weight=348.9 224.68 131.208 93.472 124.22 43.8389
internal_count=1678 1098 680 418 580 210
is_linear=0
shrinkage=0.043602


Tree=24
num_leaves=6
num_cat=0
split_feature=9 3 6 6 5
split_gain=57.1446 44.0714 23.5287 55.087 4.41499
threshold=-0.029174829311731439 -0.2224904666185509 -0.043333693939654215 0.27007969155481165 -1.1708922153293166
decision_type=2 2 2 2 2
left_child=1 -1 4 -4 -2
right_child=2 -3 3 -5 -6
leaf_value=0.029075656010772326 0.036008965196248723 -0.053701642825420649 -0.030974237295111076 0.021878600644448451 0.01785193002996242
leaf_weight=15.370362430810927 40.32415360212326 52.288052752614021 66.986795231699944 83.507924020290375 81.73549947142601
leaf_count=70 197 310 334 369 376
internal_value=0.000939918 -0.0347219 0.00987173 -0.00164074 0.0240477
internal_weight=340.213 67.6584 272.554 150.495 122.06
internal_count=1656 380 1276 703 573
is_linear=0
shrinkage=0.043602


Tree=25
num_leaves=6
num_cat=0
split_feature=9 3 6 6 2
split_gain=53.4792 41.7362 21.7475 50.8439 2.47637
threshold=-0.029174829311731439 -0.2224904666185509 -0.043333693939654215 0.27007969155481165 -1.1176954561648897
decision_type=2 2 2 2 2
left_child=1 -1 4 -4 -2
right_child=2 -3 3 -5 -6
leaf_value=0.028090676793862943 0.0051401798481291771 -0.05300228909960393 -0.029934556756677857 0.021034152780740962 0.025464793906313177
leaf_weight=15.240361526608465 13.933105260133742 50.711074829101562 66.327584743499756 83.107185438275337 107.11707229912281
leaf_count=70 64 310 334 369 509
internal_value=0.000907238 -0.0340923 0.00952015 -0.00158201 0.0232092
internal_weight=336.436 65.9514 270.485 149.435 121.05
internal_count=1656 380 1276 703 573
is_linear=0
shrinkage=0.043602


Tree=26
num_leaves=7
num_cat=0
split_feature=4 4 6 9 1 8
split_gain=51.6386 60.8094 33.5486 5.92141 4.15629 3.99344
threshold=-0.43934708333199046 0.38499157343553619 -0.069450740817908099 0.055081328081601287 0.24735807107564137 -0.52499187571115413
decision_type=2 2 2 2 2 2
left_child=3 2 -2 -1 -3 -5
right_child=1 4 -4 5 -6 -7
leaf_value=0.043968293899407401 0.0078211400146246148 0.031404020882020767 -0.036573355413885657 0.025329422666431352 0.011216430453820869 -0.0029853099438998079
leaf_weight=31.199628964066505 43.222535744309425 37.371850892901421 123.77687458693981 46.908605545759201 44.347781494259834 11.249295577406881
leaf_count=148 207 171 683 218 199 53
internal_value=0.000205193 -0.00999668 -0.0250638 0.0285357 0.0206834 0.0197847
internal_weight=338.077 248.719 166.999 89.3575 81.7196 58.1579
internal_count=1679 1260 890 419 370 271
is_linear=0
shrinkage=0.043602


Tree=27
num_leaves=7
num_cat=0
split_feature=1 1 6 8 3 3
split_gain=48.1256 58.2183 43.0036 7.81616 6.29527 13.0745
threshold=-0.28152938057549121 0.37835205850455778 -0.11298325772625821 0.18676225041914968 -0.27157156325591941 0.37482945935616879
decision_type=2 2 2 2 2 2
left_child=4 2 -2 -3 -1 -6
right_child=1 3 -4 -5 5 -7
leaf_value=0.034286362538620524 0.019809180824661467 0.02655765171225339 -0.039858746309447426 0.00021044912588917216 -0.010984849061779482 0.037134076669521551
leaf_weight=59.738436639308929 28.139528498053551 55.726515308022499 114.51895527541637 35.224487245082855 22.093231290578842 19.663938015699387
leaf_count=284 132 258 647 164 100 94
internal_value=0.000204914 -0.0106688 -0.0280156 0.0164849 0.0251995 0.0117566
internal_weight=335.105 233.609 142.658 90.951 101.496 41.7572
internal_count=1679 1201 779 422 478 194
is_linear=0
shrinkage=0.043602


Tree=28
num_leaves=7
num_cat=0
split_feature=1 0 6 9 6 1
split_gain=42.5182 83.9546 32.4148 6.4103 3.64905 8.14017
threshold=-0.28152938057549121 0.16457418075336824 -0.11298325772625821 0.013023802698194288 -0.47840755515753791 -0.56891866797112212
decision_type=2 2 2 2 2 2
left_child=4 2 -2 -3 5 -1
right_child=1 3 -4 -5 -6 -7
leaf_value=-0.00098309704870988427 0.014827059317213476 -0.0091265011250164785 -0.044591079082634925 0.022009015165828625 0.029983195461372875 0.043370556265815728
leaf_weight=26.140535056591034 20.488721191883087 13.905080109834669 103.70140443742275 92.768384262919426 63.060032770037651 10.475549116730688
leaf_count=127 94 68 609 429 292 55
internal_value=-0.000122489 -0.0104131 -0.0347189 0.0178694 0.0235736 0.0120697
internal_weight=330.54 230.864 124.19 106.673 99.6761 36.6161
internal_count=1674 1200 703 497 474 182
is_linear=0
shrinkage=0.043602


Tree=29
num_leaves=7
num_cat=0
split_feature=1 0 4 8 3 4
split_gain=39.3119 78.182 23.8829 9.81389 3.628 11.1906
threshold=-0.28152938057549121 0.16457418075336824 0.37462979760332166 0.17174434690374085 -0.27157156325591941 0.10204848002221738
decision_type=2 2 2 2 2 2
left_child=4 2 -2 -3 -1 -6
right_child=1 3 -4 -5 5 -7
leaf_value=0.029967917172367346 -0.041182302566752552 0.027446513940732751 0.016084435231593804 0 -0.024204026459622212 0.025819690842278607
leaf_weight=56.882581144571304 106.47784735262394 66.029174149036407 15.413740739226339 39.971124187111855 10.953748717904089 31.162111535668373
leaf_count=276 633 312 70 185 51 147
internal_value=-0.000116484 -0.0100977 -0.0338505 0.0172023 0.0227239 0.0125166
internal_weight=326.89 227.892 121.892 106 98.9984 42.1159
internal_count=1674 1200 703 497 474 198
is_linear=0
shrinkage=0.043602


Tree=30
num_leaves=6
num_cat=0
split_feature=9 3 6 6 1
split_gain=39.4101 33.8066 18.052 27.1238 4.03242
threshold=-0.029174829311731439 -0.2224904666185509 -0.33068376264683769 0.3134842285580835 -0.91132057000772959
decision_type=2 2 2 2 2
left_child=1 -1 4 -4 -2
right_child=2 -3 3 -5 -6
leaf_value=0.02465825485029589 0.005440222277958027 -0.050883115697161162 -0.016726928698216483 0.017663483049228219 0.027767776999551415
leaf_weight=14.428946435451506 21.089096799492836 44.937547639012337 97.059007301926613 78.090413585305214 68.333062425255775
leaf_count=69 103 310 498 354 344
internal_value=-0.000434989 -0.0323652 0.00676795 -0.00135418 0.0226376
internal_weight=323.938 59.3665 264.572 175.149 89.4222
internal_count=1678 379 1299 852 447
is_linear=0
shrinkage=0.043602


Tree=31
num_leaves=6
num_cat=0
split_feature=9 3 5 5 2
split_gain=36.9717 32.117 17.0202 33.5484 3.17657
threshold=-0.029174829311731439 -0.2224904666185509 -0.21127735424420332 0.36595375655070767 1.6858492039557162
decision_type=2 2 2 2 2
left_child=1 -1 4 -4 -2
right_child=2 -3 3 -5 -6
leaf_value=0.023821485226249533 0.023602946610890164 -0.050327229979973777 -0.020807168698139047 0.018775772673715746 0.00072044098026428493
leaf_weight=14.309100136160849 86.963893041014671 43.49168698489666 86.103306114673615 76.04477433860302 13.90779562294483
leaf_count=69 431 310 452 349 67
internal_value=-0.000420256 -0.031818 0.00651742 -0.00220856 0.0205264
internal_weight=320.821 57.8008 263.02 162.148 100.872
internal_count=1678 379 1299 801 498
is_linear=0
shrinkage=0.043602


Tree=32
num_leaves=7
num_cat=0
split_feature=1 1 7 8 5 7
split_gain=38.0396 42.7528 30.7713 9.86608 3.66578 3.56002
threshold=-0.28152938057549121 0.30470577809442145 -0.41756303060794681 0.18676225041914968 1.2983953483929729 0.65943506017990272
decision_type=2 2 2 2 2 2
left_child=4 2 -2 -3 5 -1
right_child=1 3 -4 -5 -6 -7
leaf_value=0.021482755987485204 0.024839769139865658 0.022769557716806631 -0.035968902548598851 -0.0052947305145241291 0.0012410477743640266 0.046181335830509512
leaf_weight=68.452201351523399 18.017443150281906 58.336782112717628 105.83671706914902 39.169360220432281 13.631886735558508 14.277972862124441
leaf_count=335 91 280 645 190 66 71
internal_value=-7.0869e-05 -0.0100408 -0.0269984 0.0114772 0.0226922 0.0261246
internal_weight=317.722 221.36 123.854 97.5061 96.3621 82.7302
internal_count=1678 1206 736 470 472 406
is_linear=0
shrinkage=0.043602


Tree=33
num_leaves=6
num_cat=0
split_feature=9 3 7 1 8
split_gain=35.9415 29.0293 17.1381 15.8895 4.05848
threshold=-0.029174829311731439 -0.2224904666185509 -0.39766676647374827 -0.29405772018904247 0.74332191564110295
decision_type=2 2 2 2 2
left_child=1 -1 4 -4 -2
right_child=2 -3 3 -5 -6
leaf_value=0.021699596390694745 0.028936798658956354 -0.049584867151145059 0.019490959882216125 -0.0092965976027222057 0.0068385083931368287
leaf_weight=14.053987771272658 60.294088423252106 41.941480830311775 50.706305891275406 125.00185978412628 22.934093713760376
leaf_count=69 301 315 246 639 108
internal_value=-6.03571e-05 -0.0315539 0.00678811 -0.000918132 0.0230095
internal_weight=314.932 55.9955 258.936 175.708 83.2282
internal_count=1678 384 1294 885 409
is_linear=0
shrinkage=0.043602


Tree=34
num_leaves=6
num_cat=0
split_feature=9 3 9 3 3
split_gain=32.0185 30.0552 15.2664 32.4898 13.4275
threshold=-0.029174829311731439 -0.2224904666185509 0.14661116453483708 -0.91438133646471675 -0.46781619214233389
decision_type=2 2 2 2 2
left_child=1 -1 4 -4 -2
right_child=2 -3 3 -5 -6
leaf_value=0.023386006474061177 0.034246760642790738 -0.049011948389928527 0.018478409313115618 -0.055949422551654207 0.0067498434007319365
leaf_weight=14.452986657619475 41.90710474550724 39.277316212654114 23.623068541288376 20.010824143886566 170.56967206299305
leaf_count=71 210 305 116 121 839
internal_value=0.000992584 -0.0293908 0.00744416 -0.0158361 0.0122832
internal_weight=309.841 53.7303 256.111 43.6339 212.477
internal_count=1662 376 1286 237 1049
is_linear=0
shrinkage=0.043602


Tree=35
num_leaves=7
num_cat=0
split_feature=9 4 9 4 4 8
split_gain=29.9911 27.3726 14.1111 29.4267 9.75343 2.68407
threshold=-0.029174829311731439 -1.2391411756273583 0.14661116453483708 -0.57085023504149357 -0.39922294665544905 0.47227540655570749
decision_type=2 2 2 2 2 2
left_child=1 -1 4 -4 -2 -3
right_child=2 5 3 -5 -6 -7
leaf_value=0.026286310165454154 0.030035647047651281 -0.05076804913953744 0.016799259406584829 -0.0547429499984897 0.0069233573932252178 -0.013075087915542662
leaf_weight=12.451637119054793 43.733655706048012 34.819813907146454 23.701707229018211 19.213340893387794 167.99719360470772 5.0328878611326209
leaf_count=62 222 281 117 120 827 33
internal_value=0.000952121 -0.0289004 0.00716102 -0.0154278 0.0117974 -0.0464189
internal_weight=306.95 52.3043 254.646 42.915 211.731 39.8527
internal_count=1662 376 1286 237 1049 314
is_linear=0
shrinkage=0.043602


Tree=36
num_leaves=7
num_cat=0
split_feature=1 0 6 8 1 4
split_gain=25.3227 59.8852 26.729 8.58946 2.642 5.6995
threshold=-0.28152938057549121 0.16457418075336824 -0.11298325772625821 0.16616568430215214 -0.64009141554875648 -0.13679965480236658
decision_type=2 2 2 2 2 2
left_child=4 2 -2 -3 5 -1
right_child=1 3 -4 -5 -6 -7
leaf_value=0.023335776928519649 0.014419092948756937 0.026008098679443169 -0.040738726616403244 0 0.03051282324447643 -0.0029388676242673864
leaf_weight=43.022891074419022 20.040660291910172 61.733768180012703 88.707031831145287 40.068781964480877 27.64983631670475 23.769024252891541
leaf_count=222 95 304 604 188 142 112
internal_value=0.000330228 -0.00806447 -0.0304991 0.0158862 0.0190342 0.0139624
internal_weight=304.992 210.55 108.748 101.803 94.4418 66.7919
internal_count=1667 1191 699 492 476 334
is_linear=0
shrinkage=0.043602


Tree=37
num_leaves=7
num_cat=0
split_feature=9 4 9 4 8 4
split_gain=28.5836 23.636 13.37 21.9545 8.98069 8.26635
threshold=-0.013445106821750905 -0.37481467256280437 0.16302933109725717 -0.58879571822569898 1.2060888003069057 -0.43063904691910737
decision_type=2 2 2 2 2 2
left_child=1 -1 5 -4 -3 -2
right_child=2 4 3 -5 -6 -7
leaf_value=0.021372252755420929 0.027442671888315725 -0.050473367181633109 0.012506582268365374 -0.054191120801128936 0.0091480466323137413 0.0064157389318140893
leaf_weight=13.757069721817968 45.550864860415459 37.82413774728775 20.55519787967205 16.218436047434807 5.1151503771543494 162.67876860499382
leaf_count=70 237 319 103 106 23 809
internal_value=0.000322276 -0.0273843 0.00680955 -0.0171732 -0.0432145 0.01111
internal_weight=301.7 56.6964 245.003 36.7736 42.9393 208.23
internal_count=1667 412 1255 209 342 1046
is_linear=0
shrinkage=0.043602


Tree=38
num_leaves=7
num_cat=0
split_feature=9 3 5 5 8 0
split_gain=26.2724 22.995 15.0915 21.6587 7.24737 4.37741
threshold=-0.013445106821750905 -0.2224904666185509 -0.21127735424420332 0.36595375655070767 1.2060888003069057 1.9259936250161867
decision_type=2 2 2 2 2 2
left_child=1 -1 5 -4 -3 -2
right_child=2 4 3 -5 -6 -7
leaf_value=0.019356076462099196 0.023416494670662272 -0.049973535316610432 -0.017681767726701603 0.015351713989597057 0.0058129638556211225 -0.0085518342496887032
leaf_weight=14.673077911138533 84.135413601994514 35.783289909362793 78.462835431098938 71.483280450105667 4.7025668919086447 8.4253421425819379
leaf_count=75 437 314 432 340 21 41
internal_value=0.000414478 -0.0265541 0.0066236 -0.00189866 -0.043369 0.0204094
internal_weight=297.666 55.1589 242.507 149.946 40.4859 92.5608
internal_count=1660 410 1250 772 335 478
is_linear=0
shrinkage=0.043602


Tree=39
num_leaves=7
num_cat=0
split_feature=6 5 3 7 2 6
split_gain=25.8711 32.7325 23.3294 6.08969 3.81796 6.62548
threshold=-0.24369895956904258 0.23486676533241838 -0.48540101114398532 -0.61105862164017688 -1.1176954561648897 -0.83882476777278125
decision_type=2 2 2 2 2 2
left_child=4 2 -2 -3 -1 -6
right_child=1 3 -4 -5 5 -7
leaf_value=-0.0017121230350024964 0.024124661985164532 0.043252343095066703 -0.031514180044896582 0.0074615989433373057 0.033654235742209014 0.0081259531621721299
leaf_weight=13.696882635354994 16.148754432797432 9.8600138872861844 98.996431268751621 75.225146919488907 45.55705463886261 35.285615786910057
leaf_count=69 76 49 672 357 249 188
internal_value=0.000396013 -0.00845828 -0.0235754 0.0119576 0.01914 0.022727
internal_weight=294.77 200.23 115.145 85.0852 94.5396 80.8427
internal_count=1660 1154 748 406 506 437
is_linear=0
shrinkage=0.043602


Tree=40
num_leaves=7
num_cat=0
split_feature=9 3 9 8 3 4
split_gain=23.3087 20.8987 12.083 22.5564 10.3797 7.90018
threshold=-0.013445106821750905 -0.2224904666185509 0.16302933109725717 -1.0455476313771273 -0.46781619214233389 0.42388090458042532
decision_type=2 2 2 2 2 2
left_child=1 -1 4 -4 -2 -3
right_child=2 5 3 -5 -6 -7
leaf_value=0.018483966031678834 0.028744714112456986 -0.049591456032810274 0.01670415930758138 -0.050888102768474816 0.0048306766512989782 0.0070626755520496126
leaf_weight=14.292214989662169 43.412191137671471 34.064550206065178 18.201850593090057 18.092134833335876 165.40113899111748 5.0497764721512786
leaf_count=74 229 317 93 120 838 24
internal_value=0.000122103 -0.025789 0.00584141 -0.0171294 0.00989946 -0.0421417
internal_weight=298.514 53.4065 245.107 36.294 208.813 39.1143
internal_count=1695 415 1280 213 1067 341
is_linear=0
shrinkage=0.043602


Tree=41
num_leaves=7
num_cat=0
split_feature=7 0 1 3 0 2
split_gain=20.6065 25.5366 37.5535 5.06702 4.25942 3.73446
threshold=-0.39766676647374827 0.23450687282234903 -0.27122425633204522 0.59066916999076968 1.6834071704894356 -0.69916412464158084
decision_type=2 2 2 2 2 2
left_child=4 2 -2 -3 5 -1
right_child=1 3 -4 -5 -6 -7
leaf_value=0.0074620692155768992 0.01177797824067116 0.022445037621699186 -0.034571136453377643 -0.0027819112407333614 -0.011700205475684983 0.02814572733374748
leaf_weight=26.546815261244774 51.675599113106728 47.200499922037125 90.543460562825203 21.424491100013256 7.6305898278951636 50.926042690873146
leaf_count=140 260 238 652 99 39 267
internal_value=0.000112445 -0.00717914 -0.0177133 0.014535 0.018163 0.0212451
internal_weight=295.947 210.844 142.219 68.625 85.1034 77.4729
internal_count=1695 1249 912 337 446 407
is_linear=0
shrinkage=0.043602


Tree=42
num_leaves=7
num_cat=0
split_feature=9 3 9 8 3 8
split_gain=19.8562 20.0501 12.2987 19.8295 9.95313 7.44317
threshold=-0.013445106821750905 -0.2224904666185509 0.16302933109725717 -1.0455476313771273 -0.46781619214233389 1.2060888003069057
decision_type=2 2 2 2 2 2
left_child=1 -1 4 -4 -2 -3
right_child=2 5 3 -5 -6 -7
leaf_value=0.018331817256584476 0.027858159570207174 -0.048953813924532505 0.013863467001183875 -0.051067328350718207 0.0041620999492948006 0.0070451897350899744
leaf_weight=14.318036764860151 42.495044961571693 32.155309207737446 17.321513742208481 17.210322201251984 159.62173792719841 4.8691938519477835
leaf_count=75 226 318 90 120 815 22
internal_value=-0.000220421 -0.02465 0.0051071 -0.0186707 0.00924171 -0.0414473
internal_weight=287.991 51.3425 236.649 34.5318 202.117 37.0245
internal_count=1666 415 1251 210 1041 340
is_linear=0
shrinkage=0.043602


Tree=43
num_leaves=7
num_cat=0
split_feature=1 0 7 1 3 8
split_gain=18.5069 42.0577 13.7612 10.9089 3.95564 7.16216
threshold=-0.28152938057549121 -0.070689124793372402 -0.41756303060794681 -0.025889752520437109 0.51182568650825655 0.11977218021097098
decision_type=2 2 2 2 2 2
left_child=4 2 -2 -3 5 -1
right_child=1 3 -4 -5 -6 -7
leaf_value=0.020993343161711198 0.013524344328012569 -0.021342362888802251 -0.043247061421632767 0.012561841741812563 0.036132544922412059 -0.0072555998865090872
leaf_weight=50.461766228079796 8.9547570645809156 21.00314025580883 58.293542258441448 106.80098417401314 15.15190753340721 24.872078329324722
leaf_count=275 50 134 458 548 82 119
internal_value=-0.000216751 -0.00779336 -0.0355511 0.00687054 0.0159964 0.0116107
internal_weight=285.538 195.052 67.2483 127.804 90.4858 75.3338
internal_count=1666 1190 508 682 476 394
is_linear=0
shrinkage=0.043602


Tree=44
num_leaves=7
num_cat=0
split_feature=7 0 2 6 0 5
split_gain=19.305 20.2635 27.8832 6.52159 3.89734 2.73967
threshold=-0.39766676647374827 0.23450687282234903 -0.60721561262741675 -0.96461357224605104 1.6834071704894356 0.70543839675299835
decision_type=2 2 2 2 2 2
left_child=4 2 -2 -3 5 -1
right_child=1 3 -4 -5 -6 -7
leaf_value=0.016740409515413914 0.014036534379020095 0.041876800811503613 -0.029411708819440493 0.0056845457863076657 -0.010607296936910324 0.041077588859064262
leaf_weight=61.831922180950642 38.564511701464653 11.051399931311606 98.413545563817024 54.626607194542885 7.7794178277254096 10.757818445563315
leaf_count=334 196 65 718 262 40 56
internal_value=-0.000401355 -0.00759171 -0.0171309 0.0121938 0.0175802 0.0207412
internal_weight=283.025 202.656 136.978 65.678 80.3692 72.5897
internal_count=1671 1241 914 327 430 390
is_linear=0
shrinkage=0.043602


Tree=45
num_leaves=7
num_cat=0
split_feature=1 0 6 1 5 6
split_gain=19.0554 39.4924 15.7083 11.5395 2.94273 3.30097
threshold=-0.28152938057549121 -0.070689124793372402 -0.092649245034713848 -0.025889752520437109 1.2983953483929729 -0.47840755515753791
decision_type=2 2 2 2 2 2
left_child=4 2 -2 -3 5 -1
right_child=1 3 -4 -5 -6 -7
leaf_value=0.0081891710489638368 0.018754069181162316 -0.02361382519285404 -0.043461887409907876 0.011877409942224805 -0.0027249727090197496 0.027212644772382975
leaf_weight=31.045589491724968 8.4076605364680272 20.113750971853733 57.385172009468079 106.81309372931719 12.522030636668203 44.388691574335098
leaf_count=177 42 132 475 552 66 227
internal_value=-0.000376464 -0.00806766 -0.0353267 0.00612203 0.0163513 0.0195872
internal_weight=280.676 192.72 65.7928 126.927 87.9563 75.4343
internal_count=1671 1201 517 684 470 404
is_linear=0
shrinkage=0.043602


Tree=46
num_leaves=7
num_cat=0
split_feature=9 3 9 8 4 3
split_gain=16.9372 19.1505 11.7758 15.4946 9.02892 8.03007
threshold=-0.013445106821750905 -0.2224904666185509 0.16302933109725717 -1.0455476313771273 0.48075327145936975 -0.46781619214233389
decision_type=2 2 2 2 2 2
left_child=1 -1 5 -4 -3 -2
right_child=2 4 3 -5 -6 -7
leaf_value=0.017999133814063154 0.026095801822441853 -0.049659754328432719 0.010665611420451729 -0.048156514286545972 0.017132927343177708 0.0045438951728176231
leaf_weight=14.331053435802458 41.514596685767174 29.194862887263298 16.498992264270782 16.323848992586136 3.97166983783245 155.85891775041819
leaf_count=77 229 316 87 124 19 813
internal_value=0.000199079 -0.0233121 0.00512402 -0.0187743 -0.0413292 0.00917275
internal_weight=277.694 47.4976 230.196 32.8228 33.1665 197.374
internal_count=1665 412 1253 211 335 1042
is_linear=0
shrinkage=0.043602


Tree=47
num_leaves=7
num_cat=0
split_feature=7 7 5 5 2 2
split_gain=15.9759 16.4047 18.6923 5.47559 3.00046 5.35941
threshold=-0.39766676647374827 0.40003722895892957 0.39381186714367145 1.4405401571002494 1.434258372685729 -0.69916412464158084
decision_type=2 2 2 2 2 2
left_child=4 2 -2 -3 5 -1
right_child=1 3 -4 -5 -6 -7
leaf_value=0.0038052341416297437 -0.023562114048071046 0.020425823007292943 0.013976293832824366 -0.011238792543427677 -0.0022554431981237745 0.029446144595886879
leaf_weight=25.342266485095024 105.51914670318365 43.633232891559601 32.420866847038269 12.876784652471541 13.069883733987806 42.527165502309799
leaf_count=139 780 224 158 64 68 232
internal_value=0.000187097 -0.0065684 -0.0146761 0.0130697 0.0164109 0.0200743
internal_weight=275.389 194.45 137.94 56.51 80.9393 67.8694
internal_count=1665 1226 938 288 439 371
is_linear=0
shrinkage=0.043602


Tree=48
num_leaves=7
num_cat=0
split_feature=9 3 9 4 3 4
split_gain=15.9324 15.9411 9.24675 14.385 8.08564 5.83863
threshold=-0.013445106821750905 -0.2224904666185509 0.16302933109725717 -0.58879571822569898 -0.46781619214233389 0.42388090458042532
decision_type=2 2 2 2 2 2
left_child=1 -1 4 -4 -2 -3
right_child=2 5 3 -5 -6 -7
leaf_value=0.015173238951360954 0.025507660755525196 -0.048088538841189361 0.0077371983473087241 -0.050554587571207066 0.0035915616887875275 0.0044670106106022098
leaf_weight=13.459646359086035 39.954812541604042 26.852094642817978 18.467922270298008 13.284512922167776 157.14723930507898 4.3678671121597281
leaf_count=73 223 310 97 112 823 22
internal_value=-6.10652e-05 -0.0237111 0.00458376 -0.0169823 0.0081285 -0.040618
internal_weight=273.534 44.6796 228.854 31.7524 197.102 31.22
internal_count=1660 405 1255 209 1046 332
is_linear=0
shrinkage=0.043602


Tree=49
num_leaves=7
num_cat=0
split_feature=9 3 9 8 3 4
split_gain=14.9171 15.17 8.57313 14.0421 7.53478 5.7056
threshold=-0.013445106821750905 -0.2224904666185509 0.16302933109725717 -1.0455476313771273 -0.46781619214233389 0.42388090458042532
decision_type=2 2 2 2 2 2
left_child=1 -1 4 -4 -2 -3
right_child=2 5 3 -5 -6 -7
leaf_value=0.014634497364257438 0.02469123414997992 -0.047815150424241379 0.010688214073453323 -0.046718462085750929 0.0034380727988289634 0.0043011005997648224
leaf_weight=13.371551826596258 39.506866216659546 25.853674463927749 16.537418872118 14.707475960254667 157.03537043184042 4.3626685887575141
leaf_count=73 223 310 88 121 823 22
internal_value=-6.41035e-05 -0.0232668 0.00440283 -0.0165445 0.00780269 -0.0401758
internal_weight=271.375 43.5879 227.787 31.2449 196.542 30.2163
internal_count=1660 405 1255 209 1046 332
is_linear=0
shrinkage=0.043602


Tree=50
num_leaves=7
num_cat=0
split_feature=3 4 0 2 0 1
split_gain=14.1783 25.3547 21.8157 4.34603 3.92817 4.01391
threshold=-0.52030057010789954 0.38499157343553619 0.77127873698342186 -0.69916412464158084 -0.73860002219680088 -0.96047565038954985
decision_type=2 2 2 2 2 2
left_child=4 2 -2 -3 5 -1
right_child=1 3 -4 -5 -6 -7
leaf_value=0.013101770911053827 -0.02729225044281414 -0.012537780649558152 0.018308360558153224 0.017808868012022888 0.024218268303475902 -0.024151024454486476
leaf_weight=19.215646088123325 99.834037438035011 9.7171605676412565 24.268192306160927 65.103456974029541 44.637296214699745 6.9500427320599547
leaf_count=109 771 47 128 322 251 42
internal_value=-0.000225208 -0.00621196 -0.0182838 0.0137233 0.0164248 0.0026689
internal_weight=269.726 198.923 124.102 74.8206 70.803 26.1657
internal_count=1670 1268 899 369 402 151
is_linear=0
shrinkage=0.043602


Tree=51
num_leaves=7
num_cat=0
split_feature=3 4 1 9 1 3
split_gain=13.0826 23.3731 16.9867 5.19789 4.12876 3.04963
threshold=-0.52030057010789954 0.38499157343553619 0.54692747358374927 0.25306127143466078 1.10665721666768 -0.63715227280691067
decision_type=2 2 2 2 2 2
left_child=3 2 -2 5 -3 -1
right_child=1 4 -4 -5 -6 -7
leaf_value=0.015919752545311177 -0.025738657808681533 0.018853974384330549 0.014298270337822034 -0.0085769471605759429 -0.0049322404526893132 0.04181690270558245
leaf_weight=46.194846242666245 98.395217552781105 56.944699108600616 24.66858272254467 12.858367480337618 17.539675876498222 11.166230849921702
leaf_count=260 763 285 136 75 84 67
internal_value=-0.000214064 -0.0059829 -0.0176368 0.0158472 0.0131845 0.0214511
internal_weight=267.768 197.548 123.064 70.2194 74.4844 57.3611
internal_count=1670 1268 899 402 369 327
is_linear=0
shrinkage=0.043602


Tree=52
num_leaves=7
num_cat=0
split_feature=9 3 9 8 3 8
split_gain=13.2428 14.7278 7.72373 10.8833 8.09204 4.2558
threshold=-0.013445106821750905 -0.2224904666185509 0.16302933109725717 -1.0455476313771273 -0.3241763955630893 1.2060888003069057
decision_type=2 2 2 2 2 2
left_child=1 -1 4 -4 -2 -3
right_child=2 5 3 -5 -6 -7
leaf_value=0.014192178654191251 0.021860198137854375 -0.047143428476207699 0.0071468370150881699 -0.044368139600450086 0.0016935465435949384 0.0005071386768333465
leaf_weight=13.335132256150244 51.285597585141659 24.162727393209938 16.560298591852192 13.63163650035858 142.56757166236639 3.8786759525537482
leaf_count=74 294 314 90 117 754 18
internal_value=-0.000294314 -0.0227862 0.00388639 -0.0163583 0.00711016 -0.0404911
internal_weight=265.422 41.3765 224.045 30.1919 193.853 28.0414
internal_count=1661 406 1255 207 1048 332
is_linear=0
shrinkage=0.043602


Tree=53
num_leaves=7
num_cat=0
split_feature=9 3 9 4 3 4
split_gain=12.4041 14.0251 7.14994 12.4252 7.71664 5.63516
threshold=-0.013445106821750905 -0.2224904666185509 0.1567933687716426 -0.58879571822569898 -0.3241763955630893 0.44514207011290557
decision_type=2 2 2 2 2 2
left_child=1 -1 4 -4 -2 -3
right_child=2 5 3 -5 -6 -7
leaf_value=0.013685668596943286 0.021693940637810976 -0.047215733349015562 0.005914122958734354 -0.04929090423966543 0.0017042245212903527 0.011266415875318257
leaf_weight=13.250639364123343 49.266336515545845 23.952817186713222 19.695258066058162 11.8887393027544 142.28940562158823 3.1773582696914664
leaf_count=74 284 316 107 112 752 16
internal_value=-0.000288344 -0.0223539 0.00373104 -0.0152445 0.0069278 -0.0400679
internal_weight=263.521 40.3808 223.14 31.584 191.556 27.1302
internal_count=1661 406 1255 219 1036 332
is_linear=0
shrinkage=0.043602


Tree=54
num_leaves=7
num_cat=0
split_feature=0 1 4 3 6 4
split_gain=12.4175 29.1054 14.3906 4.9265 4.80119 4.42947
threshold=0.23450687282234903 -0.28152938057549121 0.37462979760332166 0.59066916999076968 -0.49888408487887065 0.54924809642012329
decision_type=2 2 2 2 2 2
left_child=1 4 -3 5 -1 -2
right_child=3 2 -4 -5 -6 -7
leaf_value=-0.0033033151723848827 0.015139950474207605 -0.032263084335322392 0.014112886336157903 -0.00072915508209877937 0.019268938224140813 0.049086182165467576
leaf_weight=25.52946974337101 54.092006750404835 71.329156316816807 14.894930474460123 31.466198034584522 55.414488293230534 8.3638196140527707
leaf_count=147 293 647 73 152 299 49
internal_value=0.000523656 -0.00657642 -0.0241443 0.0131796 0.0121109 0.0202129
internal_weight=261.09 167.168 86.2241 93.922 80.944 62.4558
internal_count=1660 1166 720 494 446 342
is_linear=0
shrinkage=0.043602


Tree=55
num_leaves=7
num_cat=0
split_feature=0 1 4 3 4 0
split_gain=11.4687 26.9769 13.4543 4.59424 4.26431 3.69316
threshold=0.23450687282234903 -0.28152938057549121 0.37462979760332166 0.59066916999076968 0.54924809642012329 0.80895011361031099
decision_type=2 2 2 2 2 2
left_child=1 -1 -3 4 -2 -5
right_child=3 2 -4 5 -6 -7
leaf_value=0.011638913663421542 0.014590143286257974 -0.031383576824081036 0.013537962902628001 0.023434287146929585 0.048240886335312518 -0.0096788674480893806
leaf_weight=80.582104377448559 53.714945405721664 70.174225397408009 14.877263128757475 8.097829185426237 8.1548341214656812 23.376857116818428
leaf_count=446 293 647 73 41 49 111
internal_value=0.000510197 -0.00635045 -0.0234199 0.0127044 0.0195502 -0.00069779
internal_weight=258.978 165.634 85.0515 93.3445 61.8698 31.4747
internal_count=1660 1166 720 494 342 152
is_linear=0
shrinkage=0.043602


Tree=56
num_leaves=7
num_cat=0
split_feature=7 7 1 2 2 4
split_gain=11.9219 10.8877 12.384 3.63401 4.5996 4.56522
threshold=-0.39766676647374827 0.40003722895892957 0.37835205850455778 -0.69916412464158084 1.434258372685729 -0.13679965480236658
decision_type=2 2 2 2 2 2
left_child=3 2 -2 5 -5 -1
right_child=1 -3 -4 4 -6 -7
leaf_value=0.016132823959602971 -0.020794931684097035 0.009980921597572091 0.01100962476343002 0.027237831689126829 -0.0023122833265918808 -0.020853086362878786
leaf_weight=14.060951694846155 96.459905464202166 54.474431313574314 29.928472839295864 41.591144032776356 12.567404896020888 10.548790007829664
leaf_count=88 776 287 164 238 67 52
internal_value=0 -0.00617938 -0.013203 0.0140784 0.0203312 0
internal_weight=259.631 180.863 126.388 78.7683 54.1585 24.6097
internal_count=1672 1227 940 445 305 140
is_linear=0
shrinkage=0.043602


Tree=57
num_leaves=7
num_cat=0
split_feature=7 9 3 6 2 2
split_gain=10.9722 10.3012 10.0766 8.36203 3.3719 4.29663
threshold=-0.39766676647374827 -0.0095638794069638558 -1.9306398909102749 -1.0951132187510486 -0.69916412464158084 1.434258372685729
decision_type=2 2 2 2 2 2
left_child=4 2 -2 -3 -1 -6
right_child=1 3 -4 -5 5 -7
leaf_value=0 0.018648275922504547 0.032865710424525858 -0.039359102583393681 -0.0040878810813344347 0.026359763978554548 -0.0022140732540880631
leaf_weight=24.570239566266537 6.640944927930831 12.108175545930861 26.788924016058445 134.58495752513409 41.133727341890335 12.579892680048941
leaf_count=140 36 74 338 779 238 67
internal_value=0 -0.00593217 -0.0275429 -0.000874195 0.0135556 0.0196169
internal_weight=258.407 180.123 33.4299 146.693 78.2839 53.7136
internal_count=1672 1227 374 853 445 305
is_linear=0
shrinkage=0.043602


Tree=58
num_leaves=7
num_cat=0
split_feature=1 0 6 9 2 4
split_gain=10.6697 22.7961 15.3538 8.34234 3.56597 7.91303
threshold=-0.28152938057549121 -0.070689124793372402 -0.047602920710802223 0.013023802698194288 -0.66859167232243999 -0.13679965480236658
decision_type=2 2 2 2 2 2
left_child=4 2 -2 -3 5 -1
right_child=1 3 -4 -5 -6 -7
leaf_value=0.017272994080417062 0.017810221894798244 -0.020449093090275483 -0.040825709611148342 0.009596955782144815 0.024270616397742504 -0.017838387544067739
leaf_weight=35.570085793733597 9.9674910530447942 20.69174250215292 43.865101803094149 98.075559817254543 30.552469901740551 17.710883870720863
leaf_count=214 62 166 453 517 176 85
internal_value=-0.000196227 -0.00641214 -0.0297876 0.00423662 0.0124887 0.00542779
internal_weight=256.433 172.6 53.8326 118.767 83.8334 53.281
internal_count=1673 1198 515 683 475 299
is_linear=0
shrinkage=0.043602


Tree=59
num_leaves=7
num_cat=0
split_feature=1 0 6 1 1 6
split_gain=9.84987 21.3458 14.5132 5.60195 3.30915 6.06613
threshold=-0.28152938057549121 -0.070689124793372402 -0.047602920710802223 -0.025889752520437109 -0.64009141554875648 -0.47840755515753791
decision_type=2 2 2 2 2 2
left_child=4 2 -2 -3 5 -1
right_child=1 3 -4 -5 -6 -7
leaf_value=-0.011998746776673985 0.017134779775425532 -0.018013883104289682 -0.040079468553773791 0.008100388236333014 0.025232245092592406 0.016747396975756459
leaf_weight=21.412227980792522 9.9339454993605596 17.771791189908981 42.769588068127632 100.62565833330154 24.870420783758163 37.047198139131069
leaf_count=121 62 129 453 554 146 208
internal_value=-0.000190714 -0.0061954 -0.0291173 0.00406034 0.0120272 0.00610912
internal_weight=254.431 171.101 52.7035 118.397 83.3298 58.4594
internal_count=1673 1198 515 683 475 329
is_linear=0
shrinkage=0.043602


Tree=60
num_leaves=7
num_cat=0
split_feature=1 0 6 9 2 4
split_gain=9.21664 20.8556 11.6814 5.88788 3.51096 6.33632
threshold=-0.28152938057549121 -0.070689124793372402 -0.047602920710802223 0.013023802698194288 -0.68626272266572219 0.48075327145936975
decision_type=2 2 2 2 2 2
left_child=4 2 -2 -3 -1 -6
right_child=1 3 -4 -5 5 -7
leaf_value=0.0054198854591856766 0.013712274684749424 -0.016476003216053667 -0.038464634652962446 0.0091830274717322156 0.0085494392414313912 0.050851773067789388
leaf_weight=53.019630663096905 9.609405715018509 19.845345303416252 41.337375778704882 97.773566491901875 19.211992196738723 10.388640344142912
leaf_count=299 60 160 450 517 108 65
internal_value=0.000492393 -0.00532996 -0.028469 0.00474292 0.0123891 0.0243202
internal_weight=251.186 168.566 50.9468 117.619 82.6203 29.6006
internal_count=1659 1187 510 677 472 173
is_linear=0
shrinkage=0.043602


Tree=61
num_leaves=7
num_cat=0
split_feature=7 7 5 5 2 2
split_gain=9.29673 9.77735 11.5002 4.13064 2.98507 3.87394
threshold=-0.39766676647374827 0.40003722895892957 0.25475625814345082 1.4025588423665705 1.1460983257714605 -0.71796516774404451
decision_type=2 2 2 2 2 2
left_child=4 2 -2 -3 5 -1
right_child=1 3 -4 -5 -6 -7
leaf_value=0.0032395149126071558 -0.021123362969096171 0.016696372438811932 0.008069866673881881 -0.010863981034250403 -0.0038471952179868867 0.026093983763443206
leaf_weight=23.721574075520039 82.161382906138897 41.81789368763566 36.44573225826025 12.934653803706167 15.002196773886679 37.27889159321785
leaf_count=136 738 228 187 66 82 222
internal_value=0.000478102 -0.00507339 -0.012111 0.0100366 0.0131516 0.0174188
internal_weight=249.362 173.36 118.607 54.7525 76.0027 61.0005
internal_count=1659 1219 925 294 440 358
is_linear=0
shrinkage=0.043602


Tree=62
num_leaves=7
num_cat=0
split_feature=5 3 4 5 8 0
split_gain=8.0391 11.2725 20.4559 5.56029 5.77086 3.18715
threshold=-1.0660955699409338 -0.50911090267884485 0.38499157343553619 -1.5480454306043454 0.52909933421414312 -0.73860002219680088
decision_type=2 2 2 2 2 2
left_child=3 5 -3 4 -1 -2
right_child=1 2 -4 -5 -6 -7
leaf_value=0.023494736071044194 0 -0.021602803584557847 0.011211208057665574 0.033935959185894031 -0.024801077308485329 0.020808813894604879
leaf_weight=9.317091144621374 22.480029724538326 94.701610639691353 57.408854894340038 20.344216227531433 8.2991075366735441 37.142825059592724
leaf_count=59 140 807 281 129 43 217
internal_value=0.000431951 -0.00287303 -0.00918677 0.0187591 0.000368499 0.0130712
internal_weight=249.694 211.733 152.11 37.9604 17.6162 59.6229
internal_count=1676 1445 1088 231 102 357
is_linear=0
shrinkage=0.043602


Tree=63
num_leaves=7
num_cat=0
split_feature=1 0 6 1 3 8
split_gain=8.23992 19.7808 11.3319 7.10118 3.35797 5.09498
threshold=-0.28152938057549121 -0.070689124793372402 -0.047602920710802223 -0.025889752520437109 0.37482945935616879 0.11977218021097098
decision_type=2 2 2 2 2 2
left_child=4 2 -2 -3 5 -1
right_child=1 3 -4 -5 -6 -7
leaf_value=0.015531248356597162 0.012767986150400255 -0.019837697649438765 -0.038003900703956137 0.0094450277337541824 0.029783536223665863 -0.0098583710535648725
leaf_weight=45.046222575008869 9.98094319924712 18.05354556068778 40.352303143590689 97.881234403699636 15.396092176437376 21.608769990503788
leaf_count=276 62 134 460 545 92 107
internal_value=0.000422918 -0.00513138 -0.0277942 0.004756 0.0116991 0.0072028
internal_weight=248.319 166.268 50.3332 115.935 82.0511 66.655
internal_count=1676 1201 522 679 475 383
is_linear=0
shrinkage=0.043602


Tree=64
num_leaves=7
num_cat=0
split_feature=9 3 9 8 4 3
split_gain=8.05275 11.0354 5.42046 9.67301 4.52064 3.21149
threshold=-0.013445106821750905 -0.2224904666185509 0.16302933109725717 -1.5389160708918073 0.5130581242328951 -0.38233312557424409
decision_type=2 2 2 2 2 2
left_child=1 -1 5 -4 -3 -2
right_child=2 4 3 -5 -6 -7
leaf_value=0.012018858645152449 0.015785840522838074 -0.046028050929843085 0.04106073512483837 -0.027183795103988797 0.0077710484234959146 0.0019496033207519437
leaf_weight=12.471323244273661 40.998795665800571 19.057990133762363 4.1327170282602337 22.508988156914711 3.1032313853502265 143.01844271272421
leaf_count=72 252 319 23 182 15 797
internal_value=-0.000788247 -0.0200947 0.00240934 -0.0156991 -0.0382448 0.00510511
internal_weight=245.291 34.6325 210.659 26.6417 22.1612 184.017
internal_count=1660 406 1254 205 334 1049
is_linear=0
shrinkage=0.043602


Tree=65
num_leaves=7
num_cat=0
split_feature=9 3 9 4 4 5
split_gain=7.54206 10.5004 5.12453 10.8225 4.39439 3.23276
threshold=-0.013445106821750905 -0.2224904666185509 0.11048944066180526 -0.57085023504149357 0.5130581242328951 -1.1708922153293166
decision_type=2 2 2 2 2 2
left_child=1 -1 5 -4 -3 -2
right_child=2 4 3 -5 -6 -7
leaf_value=0.011581137914994266 0.019623463088912701 -0.045732230896435244 0.0052131462989230331 -0.039972148857353777 0.0075058859524027594 0.0030592522131004164
leaf_weight=12.403405345976351 26.405665531754494 18.36425202339888 27.315092705190182 15.085782103240488 3.094932720065116 141.38603512942791
leaf_count=72 167 319 156 154 15 777
internal_value=-0.000755212 -0.019674 0.00231542 -0.0110799 -0.0378079 0.00576174
internal_weight=244.055 33.8626 210.193 42.4009 21.4592 167.792
internal_count=1660 406 1254 310 334 944
is_linear=0
shrinkage=0.043602


Tree=66
num_leaves=7
num_cat=0
split_feature=2 3 4 9 2 6
split_gain=7.13164 10.4894 12.1611 7.46108 7.41094 3.37812
threshold=0.69183782484155509 -0.27847961277500027 0.38499157343553619 0.16302933109725717 0.87496336197243541 -0.83882476777278125
decision_type=2 2 2 2 2 2
left_child=1 3 -3 -1 -2 -6
right_child=4 2 -4 -5 5 -7
leaf_value=0.015170552605449064 0.045099678535196662 -0.025047376642561764 0.0048276007834960446 -0.014707504152832606 0.020547335089518799 -0.0041430266572642215
leaf_weight=61.693709462881088 10.840966176241634 63.778768330812454 42.592356644570827 20.608470633625984 16.408978015184402 26.535375498235226
leaf_count=379 61 624 225 146 97 132
internal_value=-2.40453e-05 -0.00404547 -0.0130747 0.00756805 0.0138658 0.00532256
internal_weight=242.459 188.673 106.371 82.3022 53.7853 42.9444
internal_count=1664 1374 849 525 290 229
is_linear=0
shrinkage=0.043602


Tree=67
num_leaves=7
num_cat=0
split_feature=7 0 3 2 3 5
split_gain=6.78964 8.06309 13.801 4.97014 4.6062 4.47804
threshold=-0.62868138331094003 0.4463113460650231 -0.38233312557424409 -1.3602788753423625 0.59066916999076968 -0.0050664519899435564
decision_type=2 2 2 2 2 2
left_child=3 2 -2 -1 -3 -5
right_child=1 4 -4 5 -6 -7
leaf_value=-0.018270183901886949 0.0092626282493481447 0.018153576791583227 -0.020687434285036589 0.01047828819312778 -0.0067753993664297759 0.041840004986169174
leaf_weight=7.4412466287612906 44.296966593712568 38.11453802883625 82.789906278252602 35.749465771019459 21.330390527844429 11.479104429483412
leaf_count=40 275 217 741 220 104 67
internal_value=-1.59301e-05 -0.00400472 -0.0102105 0.0133854 0.0091386 0.0186615
internal_weight=241.202 186.532 127.087 54.6698 59.4449 47.2286
internal_count=1664 1337 1016 327 321 287
is_linear=0
shrinkage=0.043602


Tree=68
num_leaves=7
num_cat=0
split_feature=9 4 0 6 6 5
split_gain=6.11441 9.83434 6.91955 4.5575 11.1189 4.02922
threshold=-0.013445106821750905 -1.4232819093748683 -1.1673426497259933 0.3134842285580835 0.0081501866477968702 0.19230923951176729
decision_type=2 2 2 2 2 2
left_child=1 -1 -3 4 -2 -5
right_child=3 2 -4 5 -6 -7
leaf_value=0.017663902019858468 0.0058537563511949628 0.0095713518126631543 -0.045389807660804825 0.030650799910209005 -0.020770319289771251 0.0055245250404358237
leaf_weight=9.9321573898196203 100.74714999645948 5.2291565537452689 18.027409430593256 15.835706815123556 41.573963034898043 50.905255369842052
leaf_count=59 592 26 329 77 322 269
internal_value=-0.000312179 -0.0175381 -0.0328725 0.00243993 -0.00194126 0.0117965
internal_weight=242.251 33.1887 23.2566 209.062 142.321 66.741
internal_count=1674 414 355 1260 914 346
is_linear=0
shrinkage=0.043602


Tree=69
num_leaves=7
num_cat=0
split_feature=9 3 8 9 8 6
split_gain=5.71543 8.72597 6.65136 4.39911 9.7513 4.58504
threshold=-0.013445106821750905 -0.2224904666185509 2.4611109019584672 0.1567933687716426 -1.0032861164458577 0.3134842285580835
decision_type=2 2 2 2 2 2
left_child=1 -1 -3 5 -5 -2
right_child=3 2 -4 4 -6 -7
leaf_value=0.010980911088297539 3.1426535536285416e-05 -0.044361688069197922 0.023995446724926081 0.0064480799723508845 -0.045447962732386091 0.014914974909435148
leaf_weight=12.385117597877978 122.74108523130417 17.422777798026804 2.6653351038694373 17.286979317665104 10.523551579564808 57.824960358440876
leaf_count=74 745 327 13 99 121 295
internal_value=-0.000298447 -0.0171536 -0.034576 0.00234495 -0.0135591 0.0048632
internal_weight=240.85 32.4732 20.0881 208.377 27.8105 180.566
internal_count=1674 414 340 1260 220 1040
is_linear=0
shrinkage=0.043602


Tree=70
num_leaves=7
num_cat=0
split_feature=5 1 0 5 8 3
split_gain=6.4852 7.18331 9.26287 4.90374 4.27976 3.20763
threshold=-1.1708922153293166 -1.1348604999576797 -0.085262955380611377 -1.5480454306043454 0.52909933421414312 -0.77207970113291713
decision_type=2 2 2 2 2 2
left_child=3 5 -3 4 -1 -2
right_child=1 2 -4 -5 -6 -7
leaf_value=0.019803952007247317 0.00011682907827047952 -0.017811548393597946 0.0023159849771058629 0.035440195389456565 -0.023069379246056003 0.031140371936753918
leaf_weight=9.7782846763730067 11.316245950758459 72.60789991542697 105.68629526719451 15.395727992057799 7.0599799305200568 14.918318517506121
leaf_count=65 68 658 646 108 37 85
internal_value=0.000146174 -0.00271106 -0.00588313 0.0181525 0.00132907 0.0182774
internal_weight=236.763 204.529 178.294 32.234 16.8383 26.2346
internal_count=1667 1457 1304 210 102 153
is_linear=0
shrinkage=0.043602


Tree=71
num_leaves=7
num_cat=0
split_feature=5 3 9 5 8 9
split_gain=6.01213 6.68292 11.5581 4.65457 3.94301 3.34643
threshold=-1.1708922153293166 -0.50911090267884485 0.087061968080250809 -1.5480454306043454 0.52909933421414312 0.16302933109725717
decision_type=2 2 2 2 2 2
left_child=3 5 -3 4 -1 -2
right_child=1 2 -4 -5 -6 -7
leaf_value=0.019202896383476664 0.016811198955597944 -0.0031385063532862862 -0.041864074082195751 0.034699226907405886 -0.021930485470472157 -0.0055303906110533421
leaf_weight=9.6666285917162948 39.983177661895752 130.44886523112655 15.974694602191446 15.059641689062117 7.1334165036678305 17.747996106743813
leaf_count=65 248 937 163 108 37 109
internal_value=0.000149612 -0.00259153 -0.00756033 0.0175986 0.00125984 0.00986212
internal_weight=236.014 204.155 146.424 31.8597 16.8 57.7312
internal_count=1667 1457 1100 210 102 357
is_linear=0
shrinkage=0.043602


Tree=72
num_leaves=7
num_cat=0
split_feature=4 3 0 4 3 0
split_gain=7.08881 15.0218 18.6703 6.90203 5.96919 6.81296
threshold=0.37462979760332166 -0.12821626288184773 0.68199225492678595 0.034027880131212558 0.59066916999076968 -0.46536833819846418
decision_type=2 2 2 2 2 2
left_child=1 3 -3 -1 5 -2
right_child=4 2 -4 -5 -6 -7
leaf_value=0.0078413268696301275 -0.0043767109767978716 -0.038992773150056732 0.015757112075810653 -0.030165520995924591 0.0023705462972312685 0.046275337417624594
leaf_weight=95.833651378750801 7.1287408359348801 40.740427371114492 16.021672755479813 9.3759257905185205 49.402703672647476 14.561362788081167
leaf_count=616 40 486 94 81 248 86
internal_value=-0.00041709 -0.00547554 -0.0234392 0.00424454 0.0109779 0.0297215
internal_weight=233.064 161.972 56.7621 105.21 71.0928 21.6901
internal_count=1651 1277 580 697 374 126
is_linear=0
shrinkage=0.043602


Tree=73
num_leaves=7
num_cat=0
split_feature=9 2 9 8 0 2
split_gain=4.90833 8.46256 3.9447 13.2734 3.69267 3.19736
threshold=-0.013445106821750905 -0.3483602275962327 0.080931348280387158 -0.52499187571115413 0.20159700721073814 -1.0930954404224311
decision_type=2 2 2 2 2 2
left_child=1 -1 5 -4 -3 -2
right_child=2 4 3 -5 -6 -7
leaf_value=0.0078251789984732974 -0.015972198341763787 -0.045585185606068078 0.0062054976942899033 -0.038924296617755275 0.010558588799742823 0.0078075400177814083
leaf_weight=13.962618891149761 10.973643839359282 14.017996922135355 39.869950640946627 17.181487713009119 2.2019575573503962 133.38465070724487
leaf_count=81 61 309 247 175 18 760
internal_value=-0.000400477 -0.0166319 0.00204818 -0.00756279 -0.0375258 0.00590089
internal_weight=231.592 30.1826 201.41 57.0514 16.22 144.358
internal_count=1651 408 1243 422 327 821
is_linear=0
shrinkage=0.043602


Tree=74
num_leaves=7
num_cat=0
split_feature=1 2 3 2 6 5
split_gain=6.10166 10.0398 10.4378 5.91953 5.56031 8.48994
threshold=-0.28152938057549121 0.61550691383445499 -0.12821626288184773 0.87496336197243541 -0.49888408487887065 -0.7673343709402688
decision_type=2 2 2 2 2 2
left_child=4 2 -2 -3 5 -1
right_child=1 3 -4 -5 -6 -7
leaf_value=0.013981301647531559 0.0016661399900057422 0.034304183235313583 -0.026236665692115486 0.0020167091051758205 0.018959457116883821 -0.036195962222999631
leaf_weight=15.695125170052053 49.738936148583889 14.016211118549107 50.763593837618828 43.094307415187359 51.525975733995438 9.8912502080202085
leaf_count=108 362 82 533 234 300 58
internal_value=0.000736852 -0.00415418 -0.0124474 0.010321 0.0107584 -0.00560353
internal_weight=234.725 157.613 100.503 57.1105 77.1124 25.5864
internal_count=1677 1211 895 316 466 166
is_linear=0
shrinkage=0.043602


Tree=75
num_leaves=7
num_cat=0
split_feature=1 0 6 1 6 2
split_gain=5.60191 12.9735 9.19948 5.23007 5.14827 5.72657
threshold=-0.28152938057549121 -0.085262955380611377 -0.19265446589555982 -0.025889752520437109 -0.4936472748657364 -0.66859167232243999
decision_type=2 2 2 2 2 2
left_child=4 2 -2 -3 5 -1
right_child=1 3 -4 -5 -6 -7
leaf_value=-0.019520977946228559 0.019351389767921303 -0.018033135925541125 -0.033667432859211172 0.0075265209244024262 0.018498633190686925 0.021893921363745756
leaf_weight=17.463242717087272 6.9708426669239989 17.311359878629446 34.966081500053406 97.885026257485151 50.20455339550972 9.1028093025088292
leaf_count=101 38 140 459 574 294 71
internal_value=0.000711596 -0.00397872 -0.0245703 0.00356142 0.0103381 -0.00495016
internal_weight=233.904 157.133 41.9369 115.196 76.7706 26.5661
internal_count=1677 1211 497 714 466 172
is_linear=0
shrinkage=0.043602


Tree=76
num_leaves=6
num_cat=0
split_feature=7 6 6 1 2
split_gain=4.34214 6.66333 7.1004 4.17271 4.05964
threshold=-0.39766676647374827 -1.0951132187510486 0.3134842285580835 1.6308947228566051 -0.62052296962338127
decision_type=2 2 2 2 2
left_child=3 -2 -3 4 -1
right_child=1 2 -4 -5 -6
leaf_value=-0.0012474104223327378 0.027361530420311326 -0.014614770551385039 0.0048281157329992542 -0.020840191748925763 0.021028615068290187
leaf_weight=24.857591859996319 11.027049548923967 88.485116522759199 58.622562151402235 7.4546987712383261 38.745570663362741
leaf_count=149 75 813 333 42 242
internal_value=-0.000279446 -0.00432372 -0.00684154 0.00860294 0.0123086
internal_weight=229.193 158.135 147.108 71.0579 63.6032
internal_count=1654 1221 1146 433 391
is_linear=0
shrinkage=0.043602


Tree=77
num_leaves=7
num_cat=0
split_feature=4 3 7 3 6 5
split_gain=4.4061 9.04187 10.0772 5.37212 5.28693 2.35744
threshold=0.56508378986387864 -0.3241763955630893 -1.2140538379395813 0.59066916999076968 0.94816796704994988 1.1736334575233167
decision_type=2 2 2 2 2 2
left_child=1 5 -3 -2 -5 -1
right_child=3 2 -4 4 -6 -7
leaf_value=0.010367985828727121 0.034968025204024117 0.043338879523298061 -0.01671544851039309 0.010952551306890611 -0.023753627583716772 -0.0092313161373399812
leaf_weight=65.56316152587533 12.249594330787657 5.0218568965792647 86.75776232779026 35.383892871439457 10.202168658375738 13.362508267164229
leaf_count=438 76 29 800 182 49 80
internal_value=-0.000263836 -0.00381341 -0.0130999 0.0100472 0.00285018 0.00693382
internal_weight=228.541 170.705 91.7796 57.8357 45.5861 78.9257
internal_count=1654 1347 829 307 231 518
is_linear=0
shrinkage=0.043602


Tree=78
num_leaves=7
num_cat=0
split_feature=2 1 3 2 1 6
split_gain=4.73735 8.83144 8.87575 6.12303 3.32065 2.89676
threshold=0.65133160261579304 -0.25672802407892331 -0.12821626288184773 0.87496336197243541 -0.64009141554875648 -0.83882476777278125
decision_type=2 2 2 2 2 2
left_child=1 4 -3 -2 -1 -5
right_child=3 2 -4 5 -6 -7
leaf_value=0.0020504693859633382 0.037638668313502911 0.0016167914631279616 -0.02433225872814378 0.017894757533018404 0.022066918494615746 -0.0054229553290880686
leaf_weight=54.095325000584126 12.550159469246863 48.518064733594656 50.239431671798229 15.546161644160746 22.144759271293879 26.101923055946827
leaf_count=322 73 358 536 96 145 131
internal_value=0.000468774 -0.00300028 -0.0115978 0.0116779 0.00806809 0.00328506
internal_weight=229.196 174.998 98.7575 54.1982 76.2401 41.6481
internal_count=1661 1361 894 300 467 227
is_linear=0
shrinkage=0.043602


Tree=79
num_leaves=7
num_cat=0
split_feature=2 1 3 2 1 6
split_gain=4.36953 8.11474 8.18191 5.73123 3.08326 2.68356
threshold=0.65133160261579304 -0.25672802407892331 -0.12821626288184773 0.87496336197243541 -0.64009141554875648 -0.83882476777278125
decision_type=2 2 2 2 2 2
left_child=1 4 -3 -2 -1 -5
right_child=3 2 -4 5 -6 -7
leaf_value=0.0019640371541212874 0.036576876565735994 0.0015472739994970737 -0.023390541561375683 0.017320419424239054 0.021317436381558461 -0.005182015486349994
leaf_weight=54.042047247290611 12.373393688350914 48.515403959900141 50.013541139662266 15.385586075484751 21.950084991753101 26.152297928929329
leaf_count=322 73 358 536 96 145 131
internal_value=0.000458865 -0.00287305 -0.0111226 0.0112563 0.00775422 0.00315396
internal_weight=228.432 174.521 98.5289 53.9113 75.9921 41.5379
internal_count=1661 1361 894 300 467 227
is_linear=0
shrinkage=0.043602


Tree=80
num_leaves=7
num_cat=0
split_feature=4 3 7 3 5 9
split_gain=5.04477 8.0376 11.1904 5.81597 6.11093 3.89906
threshold=0.56508378986387864 -0.3241763955630893 -1.0878392698463848 0.59066916999076968 0.91985499218142897 0.14661116453483708
decision_type=2 2 2 2 2 2
left_child=1 5 -3 -2 -5 -1
right_child=3 2 -4 4 -6 -7
leaf_value=0.011994452579315501 0.036700931255468 0.043019083049116287 -0.017701027172872252 0.011548231472315594 -0.025356892999100624 -0.0085920588781964752
leaf_weight=53.20585723221302 11.669582352042196 5.5530738458037368 85.211616646498442 35.244910843670368 10.537047669291495 25.074032224714756
leaf_count=342 75 34 797 180 52 179
internal_value=-0.0010365 -0.00485247 -0.013658 0.0100278 0.00270879 0.00531434
internal_weight=226.496 169.045 90.7647 57.4515 45.782 78.2799
internal_count=1659 1352 831 307 232 521
is_linear=0
shrinkage=0.043602


Tree=81
num_leaves=7
num_cat=0
split_feature=4 3 7 4 3 5
split_gain=4.63745 7.38739 10.08 7.1168 5.46978 5.59922
threshold=0.56508378986387864 -0.12821626288184773 -1.0878392698463848 0.002571382617256431 0.59066916999076968 0.75760213837884727
decision_type=2 2 2 2 2 2
left_child=1 3 -3 -1 -2 -6
right_child=4 2 -4 -5 5 -7
leaf_value=0.0065672976947977607 0.035762312770992517 0.04743776785479862 -0.020510498280645311 -0.030186907973486964 0.012603789920916184 -0.020081566088687761
leaf_weight=92.508049428462982 11.474378451704977 3.8209152445197097 61.592585060745478 10.577854279428719 32.072874292731285 13.661773100495337
leaf_count=609 75 24 626 93 166 66
internal_value=-0.000984619 -0.00464887 -0.0160482 0.00258401 0.00964591 0.00258208
internal_weight=225.708 168.499 65.4135 103.086 57.209 45.7346
internal_count=1659 1352 650 702 307 232
is_linear=0
shrinkage=0.043602


Tree=82
num_leaves=7
num_cat=0
split_feature=5 5 4 7 5 7
split_gain=5.97413 5.10274 8.81825 4.282 2.72264 3.05229
threshold=-1.1708922153293166 0.23486676533241838 0.5130581242328951 0.5933521134712566 -1.5178756772883457 -0.7575039628265362
decision_type=2 2 2 2 2 2
left_child=4 2 -2 -3 5 -1
right_child=1 3 -4 -5 -6 -7
leaf_value=0.020211349689913463 -0.013914642789793654 0.013031173758717852 0.01548917353353399 -0.0078318263767116723 0.03379517751775192 -0.015939549958610435
leaf_weight=11.381166532635691 91.611976651474833 57.329395238310099 23.840159885585308 26.76712753623724 12.714348994195459 6.3350655287504223
leaf_count=72 894 319 121 143 100 38
internal_value=0.000947844 -0.00178994 -0.00774472 0.00631651 0.0187556 0.0068799
internal_weight=229.979 199.549 115.452 84.0965 30.4306 17.7162
internal_count=1687 1477 1015 462 210 110
is_linear=0
shrinkage=0.043602


Tree=83
num_leaves=7
num_cat=0
split_feature=7 9 0 0 2 0
split_gain=5.57733 6.47135 9.64723 5.54456 4.20861 2.92246
threshold=-0.62868138331094003 -0.00086926675212054742 -1.3753889351372577 -0.43891752699381464 -1.3602788753423625 1.0000000180025095e-35
decision_type=2 2 2 2 2 2
left_child=4 2 -2 -3 -1 -6
right_child=1 3 -4 -5 5 -7
leaf_value=-0.016418588685925838 0.032621645065027398 -0.01342424964814253 -0.032234132289802674 0.0058803412399550982 0.029925896764303597 0.0071331389535619523
leaf_weight=7.0516974851489058 4.6641926914453533 37.230558723211288 24.614017179235816 110.8606455847621 21.404911357909441 23.360215730965137
leaf_count=38 27 284 392 657 143 146
internal_value=0.000916629 -0.00274204 -0.0212532 0.000953994 0.01343 0.0184146
internal_weight=229.186 177.369 29.2782 148.091 51.8168 44.7651
internal_count=1687 1360 419 941 327 289
is_linear=0
shrinkage=0.043602


Tree=84
num_leaves=7
num_cat=0
split_feature=4 4 5 6 5 9
split_gain=3.72023 7.09675 8.90358 4.46591 4.98919 2.87168
threshold=0.54924809642012329 -0.43063904691910737 0.2849791550613886 0.90182036060895487 -1.6555494981758707 0.067701282810007077
decision_type=2 2 2 2 2 2
left_child=1 5 -3 4 -2 -1
right_child=3 2 -4 -5 -6 -7
leaf_value=0.0190818898042922 -0.021479302046744152 -0.018756451541205841 0.0093923367629699314 -0.011437299099109701 0.021673833588234784 0.00033797900451325487
leaf_weight=25.390735149383545 5.2109262943267813 72.056019572541118 29.513467989861965 13.988218098878859 39.017626397311687 40.196545876562595
leaf_count=171 29 780 150 69 220 251
internal_value=0 -0.00329806 -0.0105155 0.00944394 0.0162387 0.00778909
internal_weight=225.374 167.157 101.569 58.2168 44.2286 65.5873
internal_count=1670 1352 930 318 249 422
is_linear=0
shrinkage=0.043602


Tree=85
num_leaves=7
num_cat=0
split_feature=6 6 0 1 0 1
split_gain=3.60617 8.213 10.1304 3.62623 2.46367 2.95735
threshold=-0.043333693939654215 0.18904867043028087 0.23450687282234903 -0.092345304543697923 1.9259936250161867 -0.91132057000772959
decision_type=2 2 2 2 2 2
left_child=4 2 -2 -3 5 -1
right_child=1 3 -4 -5 -6 -7
leaf_value=-0.0045052355616227646 -0.03493347363442522 0.013178316645176151 0.013312133765178317 -0.0048240481090196822 -0.016819110991269572 0.012931112523332807
leaf_weight=24.483625248074532 28.253141861408949 35.644730504602194 11.012750968337057 50.380585638806224 7.4198824390768996 67.315235935151577
leaf_count=149 414 204 52 352 42 457
internal_value=0 -0.00489533 -0.0212667 0.00261235 0.00620043 0.00822168
internal_weight=224.51 125.291 39.2659 86.0253 99.2187 91.7989
internal_count=1670 1022 466 556 648 606
is_linear=0
shrinkage=0.043602


Tree=86
num_leaves=5
num_cat=0
split_feature=8 3 2 5
split_gain=3.79106 4.98834 4.41513 1.0337
threshold=-1.5389160708918073 -1.4553266949142409 0.61550691383445499 0.87437163860304856
decision_type=2 2 2 2
left_child=3 -2 -3 -1
right_child=1 2 -4 -5
leaf_value=0.032042632791055854 -0.042481955450664001 -0.0037802330945759413 0.010665817205219181 0.0063975021617308
leaf_weight=7.8668449446558935 4.7560845687985411 150.71272095292807 54.154753442853689 6.172913059592247
leaf_count=50 27 1247 308 38
internal_value=0.000442125 -0.00102885 3.2194e-05 0.0218949
internal_weight=223.663 209.624 204.867 14.0398
internal_count=1670 1582 1555 88
is_linear=0
shrinkage=0.043602


Tree=87
num_leaves=6
num_cat=0
split_feature=8 9 9 2 6
split_gain=3.53616 8.26562 8.3677 2.4703 0.990232
threshold=-1.5389160708918073 -0.032727226495859192 0.25306127143466078 -0.36887933683500385 0.30238117419699578
decision_type=2 2 2 2 2
left_child=4 3 -3 -2 -1
right_child=1 2 -4 -5 -6
leaf_value=0.032640111070851838 0.011403585408795788 0.0033332256560266037 -0.035992989364584276 -0.042539269847533291 0.0075715715320485051
leaf_weight=6.8909029662609083 1.4404304325580586 187.37935929745436 10.250829093158243 10.475150795653461 6.9905929639935493
leaf_count=46 9 1178 89 306 42
internal_value=0.000424748 -0.000988237 0.00115895 -0.035334 0.0212641
internal_weight=223.427 209.546 197.63 11.9156 13.8815
internal_count=1670 1582 1267 315 88
is_linear=0
shrinkage=0.043602


Tree=88
num_leaves=7
num_cat=0
split_feature=6 6 4 8 5 5
split_gain=3.05444 8.18674 7.14262 2.31002 2.28036 3.12068
threshold=0.3134842285580835 0.0081501866477968702 -0.54839483035840264 0.11977218021097098 0.19230923951176729 0.65095489430929065
decision_type=2 2 2 2 2 2
left_child=1 3 -3 -1 -2 -6
right_child=4 2 -4 -5 5 -7
leaf_value=0.0084884404623848646 0.020993794703008474 0.019879428885023073 -0.026214454392644547 -0.0043765055368269919 -0.01747244390700526 0.0080563553113459484
leaf_weight=62.543919585645199 17.189657844603062 7.0214205086231223 38.583873635157943 44.625807741656899 10.734428182244299 44.24230345338583
leaf_count=413 110 37 496 319 60 245
internal_value=0 -0.0034689 -0.0188259 0.00308568 0.0073769 0.00283237
internal_weight=224.941 152.775 45.6053 107.17 72.1664 54.9767
internal_count=1680 1265 533 732 415 305
is_linear=0
shrinkage=0.043602


Tree=89
num_leaves=7
num_cat=0
split_feature=6 6 2 0 0 6
split_gain=2.80391 7.57714 6.33316 3.17474 2.75808 5.72953
threshold=0.3134842285580835 0.0081501866477968702 0.36728584066774478 1.9259936250161867 -0.52447588105938703 0.8753373386337534
decision_type=2 2 2 2 2 2
left_child=1 3 -3 -1 -2 -6
right_child=4 2 -4 -5 5 -7
leaf_value=0.0052460247562565801 -0.0065477387733972152 -0.02799208497020934 0.0081563632568184205 -0.021600154286326067 0.02970098927245101 0.00031124239432678497
leaf_weight=98.531971424818039 19.609458355233073 33.015727587044239 12.073691405355929 8.4796119257807714 20.803316676989198 31.630267813801765
leaf_count=685 118 445 88 47 131 166
internal_value=0 -0.00333236 -0.018212 0.00295471 0.00707246 0.0122877
internal_weight=224.144 152.101 45.0894 107.012 72.043 52.4336
internal_count=1680 1265 533 732 415 297
is_linear=0
shrinkage=0.043602


Tree=90
num_leaves=7
num_cat=0
split_feature=9 0 4 0 1 9
split_gain=4.67395 6.7929 3.95441 3.10083 8.64161 3.06972
threshold=-0.013445106821750905 -1.1673426497259933 -1.6435528246639211 -0.26413596228309416 -0.10903450013863232 0.14661116453483708
decision_type=2 2 2 2 2 2
left_child=1 -1 -3 4 -2 -5
right_child=3 2 -4 5 -6 -7
leaf_value=0.014689208705215572 0.0040637620394103346 0.001207432669801107 -0.043850567838720031 0.0089257567569821471 -0.030720078147020106 -0.013406222247692617
leaf_weight=8.1969362646341342 53.089547365903854 4.7228315919637707 12.953197052702306 114.53734698146582 17.494056545197964 12.288737796247004
leaf_count=47 324 30 340 676 195 81
internal_value=0.000255748 -0.0169163 -0.0318769 0.00258041 -0.00467256 0.00666356
internal_weight=223.283 25.873 17.676 197.41 70.5836 126.826
internal_count=1693 417 370 1276 519 757
is_linear=0
shrinkage=0.043602


Tree=91
num_leaves=6
num_cat=0
split_feature=9 0 4 2 1
split_gain=4.34745 6.38924 3.85335 3.517 3.80161
threshold=-0.013445106821750905 -1.1673426497259933 -1.2391411756273583 -1.7342121335603407 -1.1664598804626751
decision_type=2 2 2 2 2
left_child=1 -1 -3 -2 -5
right_child=3 2 -4 4 -6
leaf_value=0.014179602032256926 -0.028554029998903954 0 -0.04438529677236789 0.022262386917356512 0.0015099766494964984
leaf_weight=8.1448115482926386 6.0583112761378279 5.3280698880553272 11.958102487027643 18.094227403402328 172.657036986202
leaf_count=47 33 35 335 112 1131
internal_value=0.000236638 -0.0164774 -0.0312225 0.00246954 0.00357342
internal_weight=222.241 25.431 17.2862 196.81 190.751
internal_count=1693 417 370 1276 1243
is_linear=0
shrinkage=0.043602


Tree=92
num_leaves=6
num_cat=0
split_feature=9 0 4 2 6
split_gain=3.46354 5.3453 5.09023 3.42431 3.7186
threshold=-0.013445106821750905 -1.1131379228269898 -1.6435528246639211 -1.7342121335603407 1.9515421449891637
decision_type=2 2 2 2 2
left_child=1 -1 -3 -2 -5
right_child=3 2 -4 4 -6
leaf_value=0.013587107828744662 -0.028709318397852939 0.006882690025838494 -0.042798467423377735 0.0026449092924892086 0.029970725960502223
leaf_weight=8.3887711092829722 5.5761733949184409 5.2301283329725292 11.874502722173927 176.34797721356153 9.4654970169067365
leaf_count=49 30 33 330 1168 50
internal_value=0.00103848 -0.0138247 -0.0275862 0.00308551 0.00416198
internal_weight=216.883 25.4934 17.1046 191.39 185.813
internal_count=1660 412 363 1248 1218
is_linear=0
shrinkage=0.043602


Tree=93
num_leaves=6
num_cat=0
split_feature=9 4 8 2 1
split_gain=3.21345 5.08302 6.58777 3.13062 3.25135
threshold=-0.013445106821750905 -1.4232819093748683 2.4611109019584672 -1.7342121335603407 -1.1664598804626751
decision_type=2 2 2 2 2
left_child=1 -1 -3 -2 -5
right_child=3 2 -4 4 -6
leaf_value=0.01190603913242742 -0.027259797695634774 -0.040965205352753886 0.025747613334295399 0.021920837724818558 0.0020921088122327759
leaf_weight=8.9770785272121447 5.6480412781238547 13.138110851868989 2.9743360728025428 16.874950803816319 168.69336074590683
leaf_count=59 30 338 15 106 1112
internal_value=0.000993856 -0.013446 -0.0278197 0.00295485 0.00399224
internal_weight=216.306 25.0895 16.1124 191.216 185.568
internal_count=1660 412 353 1248 1218
is_linear=0
shrinkage=0.043602


Tree=94
num_leaves=5
num_cat=0
split_feature=7 3 9 3
split_gain=3.97883 3.99312 7.21109 3.15341
threshold=-1.4364335383099929 -0.52030057010789954 0.080931348280387158 -0.63715227280691067
decision_type=2 2 2 2
left_child=-1 3 -3 -2
right_child=1 2 -4 -5
leaf_value=0.028979721009594641 0.0025954087476689975 -0.0024820823975557813 -0.031324095488896371 0.029894080813645828
leaf_weight=7.3737028241157523 51.290217313915491 133.07830847240984 18.317066840827465 9.1011365503072721
leaf_count=48 332 1021 196 72
internal_value=-0.00116893 -0.00232648 -0.00612197 0.00706303
internal_weight=219.16 211.787 151.395 60.3914
internal_count=1669 1621 1217 404
is_linear=0
shrinkage=0.043602


Tree=95
num_leaves=5
num_cat=0
split_feature=7 1 0 6
split_gain=3.71689 3.06452 11.3587 3.88519
threshold=-1.4364335383099929 -0.28152938057549121 -0.085262955380611377 -0.4936472748657364
decision_type=2 2 2 2
left_child=-1 3 -3 -2
right_child=1 2 -4 -5
leaf_value=0.028258218630449732 -0.0093184146980328647 -0.02778408576996292 0.0010203617856148783 0.011991791406128539
leaf_weight=7.2508814409375182 23.415510885417461 33.767409417778254 105.515240624547 48.847214616835117
leaf_count=48 160 485 679 297
internal_value=-0.0011138 -0.00222656 -0.00601579 0.00498994
internal_weight=218.796 211.545 139.283 72.2627
internal_count=1669 1621 1164 457
is_linear=0
shrinkage=0.043602


Tree=96
num_leaves=7
num_cat=0
split_feature=4 3 1 4 2 1
split_gain=2.7555 8.17753 8.67422 4.23101 4.20879 8.9149
threshold=0.38499157343553619 -0.12821626288184773 0.22465739404063667 0.034027880131212558 -0.69916412464158084 0.24735807107564137
decision_type=2 2 2 2 2 2
left_child=1 3 -3 -1 -2 -6
right_child=4 2 -4 -5 5 -7
leaf_value=0.0071465930724631871 -0.017883818893010304 -0.032504174629051301 0.0031501457883244231 -0.024830389228607447 0.035279096475535676 -3.128910357581585e-05
leaf_weight=92.954116294160485 9.665993854403494 28.660203935578465 22.64035184122622 7.9233720935881129 20.124805901199579 38.515890207141638
leaf_count=632 48 414 189 78 125 203
internal_value=0.000514153 -0.00272516 -0.0168129 0.00444361 0.00777078 0.0122364
internal_weight=220.485 152.178 51.3006 100.877 68.3067 58.6407
internal_count=1689 1313 603 710 376 328
is_linear=0
shrinkage=0.043602


Tree=97
num_leaves=7
num_cat=0
split_feature=4 3 0 4 2 3
split_gain=2.53542 7.54097 11.026 3.90728 3.87258 5.91486
threshold=0.38499157343553619 -0.12821626288184773 0.68199225492678595 0.034027880131212558 -0.69916412464158084 0.57723303917913527
decision_type=2 2 2 2 2 2
left_child=1 3 -3 -1 -2 -6
right_child=4 2 -4 -5 5 -7
leaf_value=0.006855461936882315 -0.017044945599377141 -0.030158808982633404 0.012497783410903603 -0.023937700726766202 0.034640292129427937 0.0032292273401192486
leaf_weight=92.708487125113606 9.7286832779645902 34.380084753036499 16.529754169285297 7.8845666423439971 15.184388116002081 43.165689066052437
leaf_count=632 48 505 98 78 105 223
internal_value=0.000487938 -0.00262628 -0.0162175 0.00425484 0.00746005 0.0117764
internal_weight=219.582 151.503 50.9098 100.593 68.0788 58.3501
internal_count=1689 1313 603 710 376 328
is_linear=0
shrinkage=0.043602


Tree=98
num_leaves=4
num_cat=0
split_feature=2 0 5
split_gain=3.59946 5.8676 4.15595
threshold=2.4295895030627399 2.0372936773315233 -0.29898118026391368
decision_type=2 2 2
left_child=1 2 -1
right_child=-2 -3 -4
leaf_value=0.0091537566565210032 0.033528345599071994 -0.042202707805488016 -0.0040483101169975239
leaf_weight=66.723015921190381 5.2736334204673758 5.7556113973259917 137.90774117968976
leaf_count=442 27 32 1174
internal_value=-4.75788e-05 -0.00101182 0.000244118
internal_weight=215.66 210.386 204.631
internal_count=1675 1648 1616
is_linear=0
shrinkage=0.043602


Tree=99
num_leaves=5
num_cat=0
split_feature=2 1 6 1
split_gain=3.366 3.29334 6.64133 5.22442
threshold=2.4295895030627399 -1.1348604999576797 -0.67583829208120749 -0.88125314272136734
decision_type=2 2 2 2
left_child=1 2 -1 -3
right_child=-2 3 -4 -5
leaf_value=-0.015028473730969031 0.032631129042818376 -0.029647638554361588 0.025990193866641819 -0.0011605546313706787
leaf_weight=10.83642962574959 5.201094113290309 12.650178842246531 20.904021993279457 165.89662967994809
leaf_count=62 27 78 132 1376
internal_value=-4.38029e-05 -0.000972085 0.0117952 -0.00330573
internal_weight=215.488 210.287 31.7405 178.547
internal_count=1675 1648 194 1454
is_linear=0
shrinkage=0.043602


Tree=100
num_leaves=7
num_cat=0
split_feature=5 5 5 4 7 7
split_gain=4.73856 5.20637 4.78971 7.501 4.77838 2.85317
threshold=-1.1298468490315587 -1.5480454306043454 0.36595375655070767 0.64664173779762579 0.5933521134712566 -1.029793744547467
decision_type=2 2 2 2 2 2
left_child=1 5 3 -2 -4 -1
right_child=2 -3 4 -5 -6 -7
leaf_value=0.0189027424779026 -0.012762308399885692 0.035913763873828386 0.015342973465969793 0.01547235042820151 -0.008399122883846713 -0.016314996243131631
leaf_weight=7.5088582336902645 91.148770468309522 13.774604067206381 46.155721426010132 21.505050405859947 23.768753096461296 8.8416621536016482
leaf_count=50 940 111 261 111 129 54
internal_value=0.000939079 0.0167928 -0.00169464 -0.00726816 0.00719109 0
internal_weight=212.703 30.1251 182.578 112.654 69.9245 16.3505
internal_count=1656 215 1441 1051 390 104
is_linear=0
shrinkage=0.043602


Tree=101
num_leaves=7
num_cat=0
split_feature=5 5 5 4 6 8
split_gain=4.39966 4.94061 4.38885 6.88657 4.07895 2.82476
threshold=-1.1298468490315587 -1.5480454306043454 0.36595375655070767 0.64664173779762579 0.55726823610714471 0.52909933421414312
decision_type=2 2 2 2 2 2
left_child=1 5 3 -2 -4 -1
right_child=2 -3 4 -5 -6 -7
leaf_value=0.016665585359311001 -0.012211881617388964 0.035207699191415379 0.020335490667245128 0.014895248441038993 -0.0011798607823039309 -0.018321899771740771
leaf_weight=8.5709841623902374 91.132136095315218 13.457729443907736 26.079633064568043 21.390928216278553 43.612326793372631 7.7696413174271575
leaf_count=63 940 111 145 111 245 41
internal_value=0.00090938 0.0162776 -0.00162035 -0.00695621 0.0069013 0
internal_weight=212.013 29.7984 182.215 112.523 69.692 16.3406
internal_count=1656 215 1441 1051 390 104
is_linear=0
shrinkage=0.043602


Tree=102
num_leaves=6
num_cat=0
split_feature=2 2 4 3 8
split_gain=3.04632 7.89873 3.88983 6.27308 1.78749
threshold=0.69183782484155509 0.92087706512451717 2.0217537060420088 -0.12821626288184773 0.81359055720905527
decision_type=2 2 2 2 2
left_child=2 -2 3 -1 -3
right_child=1 4 -4 -5 -6
leaf_value=0.0032168891203728477 0.040419508667325098 0.0047570848567014094 0.029573859288370592 -0.014396011062464759 -0.018109983796816911
leaf_weight=93.707454221323133 11.497660998255013 31.135098125785589 6.2325939536094657 63.95752671174705 7.5482862815260878
leaf_count=677 71 179 47 657 41
internal_value=0.000349304 0.0097037 -0.00250693 -0.00392134 0
internal_weight=214.079 50.181 163.898 157.665 38.6834
internal_count=1672 291 1381 1334 220
is_linear=0
shrinkage=0.043602


Tree=103
num_leaves=7
num_cat=0
split_feature=5 5 1 1 3 8
split_gain=2.70295 5.824 3.07818 9.5285 2.99193 1.95139
threshold=-1.1708922153293166 -1.5178756772883457 -1.1348604999576797 -0.94092130775612903 -0.76393949633454217 0.52909933421414312
decision_type=2 2 2 2 2 2
left_child=1 5 4 -4 -2 -1
right_child=2 -3 3 -5 -6 -7
leaf_value=0.01083501597304908 -0.0016759560816824329 0.037094331878048059 -0.051658448047290757 -0.0013959476228003014 0.028023334622910304 -0.017264298330990496
leaf_weight=8.9439668878912979 12.754525862634184 10.75739949941635 6.9187346473336211 154.18562904186547 11.657327145338057 8.4863855019211751
leaf_count=66 87 95 38 1274 67 45
internal_value=0.00034278 0.0127911 -0.00155529 -0.00377914 0.0126287 -0.00266225
internal_weight=213.704 28.1878 185.516 161.104 24.4119 17.4304
internal_count=1672 206 1466 1312 154 111
is_linear=0
shrinkage=0.043602


Tree=104
num_leaves=7
num_cat=0
split_feature=9 3 1 3 9 5
split_gain=2.43166 10.2758 5.70081 3.27555 5.59007 5.2455
threshold=0.14661116453483708 -0.91438133646471675 -0.099682591168732945 -0.29973224027817563 -0.058770488935193009 1.1736334575233167
decision_type=2 2 2 2 2 2
left_child=3 2 -2 5 -5 -1
right_child=1 -3 -4 4 -6 -7
leaf_value=0.018626572939847024 -0.01338823544964491 -0.05227589757256948 0.033929809468021287 -0.038348379850494295 0.00074731004118296302 -0.014801902400800164
leaf_weight=40.898911066353321 11.292597226798536 7.6678380928933612 7.4765402972698238 6.7195574939250937 127.60257252492011 10.679756030440329
leaf_count=283 66 125 44 260 814 69
internal_value=0.000428327 -0.0117555 0.00565843 0.00222413 -0.00133514 0.0115049
internal_weight=212.338 26.437 18.7691 185.901 134.322 51.5787
internal_count=1661 235 110 1426 1074 352
is_linear=0
shrinkage=0.043602


Tree=105
num_leaves=5
num_cat=0
split_feature=8 0 1 3
split_gain=2.42285 2.62199 5.35817 3.97428
threshold=2.3700687732457526 0.15476852096819183 -0.28152938057549121 0.59066916999076968
decision_type=2 2 2 2
left_child=1 2 -1 -3
right_child=-2 3 -4 -5
leaf_value=0.0035736584807087028 0.023914703286680879 0.011785519487006908 -0.015029362779191818 -0.0077802012042868986
leaf_weight=64.642238724976778 7.4030892476439467 57.899633377790451 52.624326517805457 28.916404988616705
leaf_count=406 39 377 685 154
internal_value=0.000399721 -0.000496278 -0.00476283 0.00519626
internal_weight=211.486 204.083 117.267 86.816
internal_count=1661 1622 1091 531
is_linear=0
shrinkage=0.043602


Tree=106
num_leaves=6
num_cat=0
split_feature=8 9 9 9 5
split_gain=2.56686 6.2766 4.63615 2.31917 0.955144
threshold=-1.5389160708918073 0.25306127143466078 -0.044544305326979804 0.32857803381218387 0.83838072207441205
decision_type=2 2 2 2 2
left_child=4 2 -2 -3 -1
right_child=1 3 -4 -5 -6
leaf_value=0.027697317034039798 -0.032214230425007623 -0.05869602094352519 0.00072240017140889077 -0.013709260040224519 0.0025236776855456816
leaf_weight=6.8159869536757451 7.8740199562162152 4.1278051622211915 181.66441461257637 5.7611311227083206 5.7429693266749382
leaf_count=46 300 45 1200 50 37
internal_value=-0.00132023 -0.00256862 -0.000717633 -0.0353769 0.0172687
internal_weight=211.986 199.427 189.538 9.88894 12.559
internal_count=1678 1595 1500 95 83
is_linear=0
shrinkage=0.043602


Tree=107
num_leaves=6
num_cat=0
split_feature=8 9 9 7 7
split_gain=2.3906 5.80683 4.3749 2.24257 0.748713
threshold=-1.5389160708918073 0.25306127143466078 -0.044544305326979804 0.034952202263348976 0.32015186945924018
decision_type=2 2 2 2 2
left_child=4 2 -2 -3 -1
right_child=1 3 -4 -5 -6
leaf_value=0.025802680781593451 -0.031666135211001943 -0.00415228220178531 0.00069116205748764761 -0.048929263067979845 0.0029670186111370859
leaf_weight=6.9391568973660451 7.6762156318873158 3.6838775519281608 181.62506115995347 6.2126255929470062 5.5049803927540779
leaf_count=51 300 34 1200 61 32
internal_value=-0.00127333 -0.00247544 -0.000691156 -0.0340195 0.016747
internal_weight=211.642 199.198 189.301 9.8965 12.4441
internal_count=1678 1595 1500 95 83
is_linear=0
shrinkage=0.043602


Tree=108
num_leaves=7
num_cat=0
split_feature=5 1 1 3 5 8
split_gain=2.37983 3.5153 4.26674 3.5513 3.21732 1.62837
threshold=-1.1708922153293166 -1.1348604999576797 -0.94092130775612903 -0.76393949633454217 -1.5178756772883457 0.52909933421414312
decision_type=2 2 2 2 2 2
left_child=4 3 -3 -2 5 -1
right_child=1 2 -4 -5 -6 -7
leaf_value=0.013073633356867143 -0.0022032084162447816 -0.035645035080133496 -0.002529581781094835 0.030403473244294939 0.029517436725431827 -0.012704334096784368
leaf_weight=8.4398438483476692 12.623423881828787 7.2089994475245467 152.05529093183577 11.449204511940478 10.898947075009344 8.9623760506510717
leaf_count=63 87 39 1267 67 100 47
internal_value=0 -0.00181054 -0.00419603 0.0134556 0.0116438 0
internal_weight=211.638 183.337 159.264 24.0726 28.3012 17.4022
internal_count=1670 1460 1306 154 210 110
is_linear=0
shrinkage=0.043602


Tree=109
num_leaves=7
num_cat=0
split_feature=5 1 0 3 5 8
split_gain=2.20505 3.23764 6.53643 3.32029 3.0391 1.50062
threshold=-1.1708922153293166 -1.1348604999576797 -0.59779485368100582 -0.76393949633454217 -1.5178756772883457 0.52909933421414312
decision_type=2 2 2 2 2 2
left_child=4 3 -3 -2 5 -1
right_child=1 2 -4 -5 -6 -7
leaf_value=0.012639824906443825 -0.0021089931535554934 -0.025923403685277752 -0.00042861425263720642 0.029493544974050708 0.028870972523742565 -0.012124864985264411
leaf_weight=8.3717636466026359 12.639763191342356 21.673415221273899 137.75942788273096 11.310131825506685 10.676038093864916 9.0098881125450117
leaf_count=63 87 183 1123 67 100 47
internal_value=0 -0.00173298 -0.00401629 0.0129583 0.0112651 0
internal_weight=211.44 183.383 159.433 23.9499 28.0577 17.3817
internal_count=1670 1460 1306 154 210 110
is_linear=0
shrinkage=0.043602


Tree=110
num_leaves=5
num_cat=0
split_feature=7 4 8 0
split_gain=2.99591 2.75972 7.17086 4.13918
threshold=-1.4364335383099929 0.54924809642012329 0.16134813931385236 0.93088163903828514
decision_type=2 2 2 2
left_child=-1 2 -2 -3
right_child=1 3 -4 -5
leaf_value=0.026584950734484303 0.00014216696209954743 0.01623359628790836 -0.02376347065491051 -0.0083941842631995982
leaf_weight=6.8758547753095618 120.65564586780965 33.581090793013573 28.972946841269732 20.08102735131979
leaf_count=48 1004 178 315 121
internal_value=-0.000446742 -0.00146651 -0.00452906 0.00692489
internal_weight=210.167 203.291 149.629 53.6621
internal_count=1666 1618 1319 299
is_linear=0
shrinkage=0.043602


Tree=111
num_leaves=5
num_cat=0
split_feature=7 5 7 7
split_gain=2.7999 2.44546 5.54345 3.90073
threshold=-1.4364335383099929 0.25475625814345082 0.4908546316444371 0.5933521134712566
decision_type=2 2 2 2
left_child=-1 2 -2 -3
right_child=1 3 -4 -5
leaf_value=0.025905868593647519 -0.0086964534615622431 0.011657379666792582 0.017910655224681042 -0.0090257128844915043
leaf_weight=6.7671713903546324 110.4016917552799 50.946240980178118 16.493638195097446 25.287879787385464
leaf_count=48 1081 293 105 139
internal_value=-0.000423516 -0.00140427 -0.00512415 0.00470689
internal_weight=209.897 203.129 126.895 76.2341
internal_count=1666 1618 1186 432
is_linear=0
shrinkage=0.043602


Tree=112
num_leaves=6
num_cat=0
split_feature=4 2 5 8 1
split_gain=2.28179 4.74621 2.8273 3.86687 2.29282
threshold=2.0217537060420088 1.0093618007466649 -1.1708922153293166 1.6737217174191612 -1.2650595742773356
decision_type=2 2 2 2 2
left_child=2 -2 4 -4 -1
right_child=1 -3 3 -5 -6
leaf_value=-0.0087458789194930549 0.037527790725451357 -0.01086362326164401 -0.0024317772064434652 -0.035327802752367882 0.020394904286314564
leaf_weight=6.51964043080807 7.8454829975962621 6.4191629216074944 165.4194207880646 6.5127395093441001 17.000653974711895
leaf_count=37 56 34 1374 32 133
internal_value=-0.00058547 0.015835 -0.00185858 -0.00383284 0.0120705
internal_weight=209.717 14.2646 195.452 171.932 23.5203
internal_count=1666 90 1576 1406 170
is_linear=0
shrinkage=0.043602


Tree=113
num_leaves=7
num_cat=0
split_feature=5 5 5 1 7 7
split_gain=2.02783 4.40378 3.13187 5.31014 4.47403 1.82333
threshold=-1.1708922153293166 -1.5480454306043454 0.23486676533241838 -1.4236489930793483 0.5933521134712566 -1.029793744547467
decision_type=2 2 2 2 2 2
left_child=1 5 3 -2 -4 -1
right_child=2 -3 4 -5 -6 -7
leaf_value=0.010630477782067318 0.02528237167357613 0.030379115633530181 0.01142444021117316 -0.010350438455464824 -0.010297778952780862 -0.016904957391314271
leaf_weight=7.9243218973279026 8.0153631269931775 11.393632285296915 53.142486717551947 93.769815936684608 26.327532961964607 9.0065535232424754
leaf_count=54 50 106 311 948 142 55
internal_value=-0.000560061 0.0101257 -0.00228931 -0.0073538 0.00413482 -0.0037815
internal_weight=209.58 28.3245 181.255 101.785 79.47 16.9309
internal_count=1666 215 1451 998 453 109
is_linear=0
shrinkage=0.043602


Tree=114
num_leaves=7
num_cat=0
split_feature=2 2 7 2 2 7
split_gain=2.43747 7.12075 3.94303 5.70024 3.53473 2.27189
threshold=0.69183782484155509 0.87496336197243541 -0.19890516791359483 -0.54824285356183233 -0.86847481270365801 -0.21288035536538227
decision_type=2 2 2 2 2 2
left_child=2 -2 4 -4 -1 -3
right_child=1 5 3 -5 -6 -7
leaf_value=-0.0091982079269806259 0.041806288156763183 -0.010133296316838944 0.0070488936433911855 -0.016188944932276572 0.011779030249202072 0.010238168103131927
leaf_weight=21.210205584764481 9.3121210895478708 19.144404113292694 29.417227126657963 59.019475563429296 49.162798238918185 21.300534680485725
leaf_count=127 61 117 193 670 385 114
internal_value=0.000340676 0.00872298 -0.00227462 -0.00840172 0.00535329 0.000453046
internal_weight=208.567 49.7571 158.81 88.4367 70.373 40.4449
internal_count=1667 292 1375 863 512 231
is_linear=0
shrinkage=0.043602


Tree=115
num_leaves=7
num_cat=0
split_feature=4 8 8 6 3 4
split_gain=2.17417 6.02329 4.973 3.53542 4.48219 3.4297
threshold=0.39773108046321687 0.11977218021097098 0.33857547520145448 0.8753373386337534 1.5980046136609276 0.002571382617256431
decision_type=2 2 2 2 2 2
left_child=1 5 -3 4 -2 -1
right_child=3 2 -4 -5 -6 -7
leaf_value=0.0053230066966175977 0.023003575028146529 -0.037060813039831532 -0.00057945584678008798 -0.0090975598339964013 -0.0051073606028386072 -0.01419942966784077
leaf_weight=95.332453591749072 30.479869704693556 15.035410758107902 13.61598435975611 17.821383334696293 15.774066500365732 20.127416264265776
leaf_count=700 189 206 132 90 83 267
