{"learner":{"attributes":{"scikit_learn":"{\"_estimator_type\": \"classifier\"}"},"feature_names":[],"feature_types":[],"gradient_booster":{"model":{"gbtree_model_param":{"num_parallel_tree":"1","num_trees":"285"},"iteration_indptr":[0,1,2,3,4,5,6,7,8,9,10,11,12,13,14,15,16,17,18,19,20,21,22,23,24,25,26,27,28,29,30,31,32,33,34,35,36,37,38,39,40,41,42,43,44,45,46,47,48,49,50,51,52,53,54,55,56,57,58,59,60,61,62,63,64,65,66,67,68,69,70,71,72,73,74,75,76,77,78,79,80,81,82,83,84,85,86,87,88,89,90,91,92,93,94,95,96,97,98,99,100,101,102,103,104,105,106,107,108,109,110,111,112,113,114,115,116,117,118,119,120,121,122,123,124,125,126,127,128,129,130,131,132,133,134,135,136,137,138,139,140,141,142,143,144,145,146,147,148,149,150,151,152,153,154,155,156,157,158,159,160,161,162,163,164,165,166,167,168,169,170,171,172,173,174,175,176,177,178,179,180,181,182,183,184,185,186,187,188,189,190,191,192,193,194,195,196,197,198,199,200,201,202,203,204,205,206,207,208,209,210,211,212,213,214,215,216,217,218,219,220,221,222,223,224,225,226,227,228,229,230,231,232,233,234,235,236,237,238,239,240,241,242,243,244,245,246,247,248,249,250,251,252,253,254,255,256,257,258,259,260,261,262,263,264,265,266,267,268,269,270,271,272,273,274,275,276,277,278,279,280,281,282,283,284,285],"tree_info":[0,0,0,0,0,0,0,0,0,0,0,0,0,0,0,0,0,0,0,0,0,0,0,0,0,0,0,0,0,0,0,0,0,0,0,0,0,0,0,0,0,0,0,0,0,0,0,0,0,0,0,0,0,0,0,0,0,0,0,0,0,0,0,0,0,0,0,0,0,0,0,0,0,0,0,0,0,0,0,0,0,0,0,0,0,0,0,0,0,0,0,0,0,0,0,0,0,0,0,0,0,0,0,0,0,0,0,0,0,0,0,0,0,0,0,0,0,0,0,0,0,0,0,0,0,0,0,0,0,0,0,0,0,0,0,0,0,0,0,0,0,0,0,0,0,0,0,0,0,0,0,0,0,0,0,0,0,0,0,0,0,0,0,0,0,0,0,0,0,0,0,0,0,0,0,0,0,0,0,0,0,0,0,0,0,0,0,0,0,0,0,0,0,0,0,0,0,0,0,0,0,0,0,0,0,0,0,0,0,0,0,0,0,0,0,0,0,0,0,0,0,0,0,0,0,0,0,0,0,0,0,0,0,0,0,0,0,0,0,0,0,0,0,0,0,0,0,0,0,0,0,0,0,0,0,0,0,0,0,0,0,0,0,0,0,0,0,0,0,0,0,0,0,0,0,0,0,0,0,0,0,0,0,0,0],"trees":[{"base_weights":[1.8081164E-2,1.2868017E0,-8.7683165E-1,1.3849577E0,7.5983095E-1,-1.6556504E0,7.627405E-1,1.6598705E-2,1.663297E-1,-0E0,9.1043615E-1,-1.8194829E0,7.711597E-1,6.1894417E-1,1.1906744E0,-5.656338E-3,1.1513158E-2,-8.532275E-3,3.4999898E-1,1.1591501E0,3.0763623E-1,7.069586E-1,-1.8962877E0,-0E0,8.8597065E-1,8.497354E-1,3.012474E-2,1.9411314E-2,-0E0,-0E0,6.4061736E-3,-0E0,1.4385508E-2,-0E0,8.176852E-3,1.1491639E-2,-0E0,-0E0,-2.2545129E-2,-0E0,1.1532577E-2,5.017882E-3,1.2328858E-2,-8.6484104E-4,9.554921E-3,-6.4061736E-3,6.0709077E-3],"categories":[],"categories_nodes":[],"categories_segments":[],"categories_sizes":[],"default_left":[0,0,0,0,0,0,0,0,0,0,0,0,0,0,0,0,0,0,0,0,0,0,0,0,0,0,0,0,0,0,0,0,0,0,0,0,0,0,0,0,0,0,0,0,0,0,0],"id":0,"left_children":[1,3,5,7,9,11,13,-1,15,17,19,21,23,25,27,-1,-1,-1,29,31,33,35,37,-1,39,41,43,-1,45,-1,-1,-1,-1,-1,-1,-1,-1,-1,-1,-1,-1,-1,-1,-1,-1,-1,-1],"loss_changes":[3.4352252E2,3.4853516E0,2.2749678E2,4.4558105E0,3.0834112E0,5.0002014E1,1.0787048E0,0E0,3.9864066E0,1.4030932E0,1.161583E0,2.4226105E1,6.832247E-1,5.305193E0,5.124161E0,0E0,0E0,0E0,1.9385335E-1,6.0066605E-1,9.786874E-1,7.023989E-1,1.2087524E1,0E0,1.6271067E-1,9.4693947E-1,2.0821915E0,0E0,1.5506333E0,0E0,0E0,0E0,0E0,0E0,0E0,0E0,0E0,0E0,0E0,0E0,0E0,0E0,0E0,0E0,0E0,0E0,0E0],"parents":[2147483647,0,0,1,1,2,2,3,3,4,4,5,5,6,6,8,8,9,9,10,10,11,11,12,12,13,13,14,14,18,18,19,19,20,20,21,21,22,22,24,24,25,25,26,26,28,28],"right_children":[2,4,6,8,10,12,14,-1,16,18,20,22,24,26,28,-1,-1,-1,30,32,34,36,38,-1,40,42,44,-1,46,-1,-1,-1,-1,-1,-1,-1,-1,-1,-1,-1,-1,-1,-1,-1,-1,-1,-1],"split_conditions":[-7.9606056E-2,-3.9465362E-1,2.7128318E-1,2.260602E0,-3.6124784E-1,2.1451347E-1,7.614716E-1,1.6598705E-2,-8.979188E-1,-4.5329675E-1,-3.9203886E-2,-1.1392848E0,-2.9644376E-2,2.7337244E-2,1.3054097E0,-5.656338E-3,1.1513158E-2,-8.532275E-3,2.4857582E-1,-1.0375155E0,1.9772269E-1,-4.997623E-1,-4.3595096E-1,-0E0,4.5378643E-1,1.1717865E0,-3.9306853E-2,1.9411314E-2,1.6394674E0,-0E0,6.4061736E-3,-0E0,1.4385508E-2,-0E0,8.176852E-3,1.1491639E-2,-0E0,-0E0,-2.2545129E-2,-0E0,1.1532577E-2,5.017882E-3,1.2328858E-2,-8.6484104E-4,9.554921E-3,-6.4061736E-3,6.0709077E-3],"split_indices":[1,1,1,2,1,4,4,0,1,2,6,4,1,4,1,0,0,0,4,2,2,6,2,0,4,1,2,0,1,0,0,0,0,0,0,0,0,0,0,0,0,0,0,0,0,0,0],"split_type":[0,0,0,0,0,0,0,0,0,0,0,0,0,0,0,0,0,0,0,0,0,0,0,0,0,0,0,0,0,0,0,0,0,0,0,0,0,0,0,0,0,0,0,0,0,0,0],"sum_hessian":[3.0075E2,1.2475E2,1.76E2,1.025E2,2.225E1,1.1975E2,5.625E1,9.75E1,5E0,3.25E0,1.9E1,1.1275E2,7E0,4.525E1,1.1E1,2.25E0,2.75E0,1.25E0,2E0,1.175E1,7.25E0,2.75E0,1.1E2,1E0,6E0,3.1E1,1.425E1,7E0,4E0,1E0,1E0,1.25E0,1.05E1,4.5E0,2.75E0,1.75E0,1E0,2.75E0,1.0725E2,1.25E0,4.75E0,1.3E1,1.8E1,1.2E1,2.25E0,1E0,3E0],"tree_param":{"num_deleted":"0","num_feature":"7","num_nodes":"47","size_leaf_vector":"1"}},{"base_weights":[-7.25815E-3,1.2265933E0,-8.336671E-1,1.3170162E0,4.2433763E-1,-1.4221241E0,6.569733E-1,1.3352073E0,-0E0,1.1870896E-2,-0E0,-1.6874715E0,5.8615726E-1,7.729735E-1,-2.7098632E-1,1.3444891E0,-0E0,2.8530335E-1,-9.586655E-3,-1.8353823E0,6.806028E-1,-0E0,1.0478455E0,5.743959E-1,1.065714E0,-5.306151E-1,-0E0,1.5778653E-2,2.8177823E-3,-0E0,5.988561E-3,4.152908E-3,-2.2106128E-2,1.0478953E-2,-0E0,8.452566E-3,-2.6366108E-3,-0E0,1.3333231E-2,8.3602825E-3,-4.249827E-3,-0E0,1.2957805E-2,-0E0,-8.581232E-3],"categories":[],"categories_nodes":[],"categories_segments":[],"categories_sizes":[],"default_left":[0,0,0,0,0,0,0,0,0,0,0,0,0,0,0,0,0,0,0,0,0,0,0,0,0,0,0,0,0,0,0,0,0,0,0,0,0,0,0,0,0,0,0,0,0],"id":1,"left_children":[1,3,5,7,9,11,13,15,-1,-1,17,19,21,23,25,27,-1,29,-1,31,33,35,37,39,41,43,-1,-1,-1,-1,-1,-1,-1,-1,-1,-1,-1,-1,-1,-1,-1,-1,-1,-1,-1],"loss_changes":[3.2043768E2,6.891754E0,1.6721565E2,2.7035675E0,4.380205E0,7.4445404E1,6.4319763E0,2.36969E-2,0E0,0E0,2.5848384E0,4.447226E1,4.359377E0,6.724491E-1,6.4499867E-1,4.2836E-1,0E0,4.4963276E-1,0E0,2.1178589E1,1.5547018E0,1.3863951E0,4.093523E-1,5.136531E0,4.2635155E-1,3.6158085E-2,0E0,0E0,0E0,0E0,0E0,0E0,0E0,0E0,0E0,0E0,0E0,0E0,0E0,0E0,0E0,0E0,0E0,0E0,0E0],"parents":[2147483647,0,0,1,1,2,2,3,3,4,4,5,5,6,6,7,7,10,10,11,11,12,12,13,13,14,14,15,15,17,17,19,19,20,20,21,21,22,22,23,23,24,24,25,25],"right_children":[2,4,6,8,10,12,14,16,-1,-1,18,20,22,24,26,28,-1,30,-1,32,34,36,38,40,42,44,-1,-1,-1,-1,-1,-1,-1,-1,-1,-1,-1,-1,-1,-1,-1,-1,-1,-1,-1],"split_conditions":[-2.4886917E-1,1.8799789E0,2.499237E-1,1.571872E0,-1.2244028E0,4.40078E-1,1.0500666E0,-2.5822583E-1,-0E0,1.1870896E-2,-8.710158E-1,2.3559518E-1,-1.2665482E-1,6.8759257E-1,4.785792E-1,1.4392233E0,-0E0,-8.348152E-1,-9.586655E-3,-4.0646133E-1,-9.554232E-3,1.187864E-2,5.222108E-1,5.9432375E-1,-8.207559E-2,3.3729514E-1,-0E0,1.5778653E-2,2.8177823E-3,-0E0,5.988561E-3,4.152908E-3,-2.2106128E-2,1.0478953E-2,-0E0,8.452566E-3,-2.6366108E-3,-0E0,1.3333231E-2,8.3602825E-3,-4.249827E-3,-0E0,1.2957805E-2,-0E0,-8.581232E-3],"split_indices":[5,2,0,0,3,5,0,5,0,0,0,2,4,0,3,3,0,5,0,2,0,3,5,0,5,4,0,0,0,0,0,0,0,0,0,0,0,0,0,0,0,0,0,0,0],"split_type":[0,0,0,0,0,0,0,0,0,0,0,0,0,0,0,0,0,0,0,0,0,0,0,0,0,0,0,0,0,0,0,0,0,0,0,0,0,0,0,0,0,0,0,0,0],"sum_hessian":[3.132262E2,1.2499243E2,1.8823376E2,1.1074287E2,1.4249569E1,1.3548528E2,5.2748478E1,1.09242966E2,1.4998966E0,5.999809E0,8.24976E0,1.2023583E2,1.5249447E1,4.799867E1,4.7498097E0,1.0774309E2,1.4998765E0,5.999794E0,2.249966E0,1.137361E2,6.4997354E0,6.999708E0,8.249739E0,3.199929E1,1.5999378E1,2.9998639E0,1.7499459E0,1.0474328E2,2.9998105E0,2.9999337E0,2.9998603E0,3.2498965E0,1.104862E2,5.24981E0,1.249925E0,1.2499604E0,5.7497478E0,1.2499516E0,6.999787E0,2.8749323E1,3.2499678E0,1.2499396E0,1.4749439E1,1.7498984E0,1.2499655E0],"tree_param":{"num_deleted":"0","num_feature":"7","num_nodes":"45","size_leaf_vector":"1"}},{"base_weights":[-2.3145774E-2,1.2060279E0,-9.195849E-1,1.2560915E0,-0E0,-1.6871699E0,5.8429265E-1,-0E0,1.2728107E0,-1.3857916E-1,3.5257566E-1,-1.7924453E0,3.0160263E-1,3.069144E-1,1.3344412E-2,1.5737565E0,1.071522E0,-0E0,-5.0574355E-3,1.00179E-2,-0E0,5.185188E-1,-1.8664263E0,-8.270872E-5,1.2450647E-2,6.9302624E-1,-0E0,1.8557914E-2,-0E0,-0E0,1.2754102E-2,-0E0,1.1447337E-2,1.3579646E-3,-2.2279235E-2,1.6402047E-3,-8.646197E-3,-2.7285034E-3,9.569174E-3,3.2173777E-3,-2.4863228E-3],"categories":[],"categories_nodes":[],"categories_segments":[],"categories_sizes":[],"default_left":[0,0,0,0,0,0,0,0,0,0,0,0,0,0,0,0,0,0,0,0,0,0,0,0,0,0,0,0,0,0,0,0,0,0,0,0,0,0,0,0,0],"id":2,"left_children":[1,3,5,7,9,11,13,-1,15,17,19,21,23,25,-1,27,29,-1,-1,-1,-1,31,33,35,-1,37,39,-1,-1,-1,-1,-1,-1,-1,-1,-1,-1,-1,-1,-1,-1],"loss_changes":[3.463525E2,6.828171E0,2.12426E2,3.3107452E0,5.5964696E-1,2.7371735E1,7.961067E0,0E0,3.5845642E0,3.572503E-1,1.1698027E0,2.1925323E1,2.5825083E0,4.991087E0,0E0,6.765976E-1,3.2414856E0,0E0,0E0,0E0,0E0,1.4170239E0,1.5455872E1,1.1586727E0,0E0,3.126563E0,1.5827732E0,0E0,0E0,0E0,0E0,0E0,0E0,0E0,0E0,0E0,0E0,0E0,0E0,0E0,0E0],"parents":[2147483647,0,0,1,1,2,2,3,3,4,4,5,5,6,6,8,8,9,9,10,10,11,11,12,12,13,13,15,15,16,16,21,21,22,22,23,23,25,25,26,26],"right_children":[2,4,6,8,10,12,14,-1,16,18,20,22,24,26,-1,28,30,-1,-1,-1,-1,32,34,36,-1,38,40,-1,-1,-1,-1,-1,-1,-1,-1,-1,-1,-1,-1,-1,-1],"split_conditions":[-7.9606056E-2,6.2238604E-2,2.1609104E-1,-1.2842638E0,2.1001399E-1,2.1451347E-1,3.723846E-1,-0E0,-8.4053224E-1,-7.3705965E-1,1.1550045E0,-4.3595096E-1,-4.3595096E-1,-9.256529E-1,1.3344412E-2,3.2352912E0,-1.0130217E0,-0E0,-5.0574355E-3,1.00179E-2,-0E0,-1.9123706E-1,-7.1856934E-1,-7.994025E-1,1.2450647E-2,3.075938E-1,2.7337244E-2,1.8557914E-2,-0E0,-0E0,1.2754102E-2,-0E0,1.1447337E-2,1.3579646E-3,-2.2279235E-2,1.6402047E-3,-8.646197E-3,-2.7285034E-3,9.569174E-3,3.2173777E-3,-2.4863228E-3],"split_indices":[1,6,1,1,6,4,2,0,5,2,2,2,2,2,0,2,4,0,0,0,0,6,5,2,0,1,4,0,0,0,0,0,0,0,0,0,0,0,0,0,0],"split_type":[0,0,0,0,0,0,0,0,0,0,0,0,0,0,0,0,0,0,0,0,0,0,0,0,0,0,0,0,0,0,0,0,0,0,0,0,0,0,0,0,0],"sum_hessian":[3.131634E2,1.3147308E2,1.816903E2,1.2547353E2,5.999552E0,1.2069656E2,6.0993748E1,1.249787E0,1.2422375E2,2.7498372E0,3.2497144E0,1.15196915E2,5.499647E0,4.299585E1,1.79979E1,4.5739487E1,7.848426E1,1.2499071E0,1.49993E0,1.4998369E0,1.7498775E0,2.999913E0,1.1219701E2,3.4997854E0,1.9998616E0,1.8248322E1,2.4747526E1,4.4239635E1,1.4998504E0,1.7497122E0,7.673454E1,1.2499366E0,1.7499764E0,2.7496865E0,1.0944732E2,2.2498708E0,1.2499146E0,1.2499464E0,1.6998375E1,1.124896E1,1.3498567E1],"tree_param":{"num_deleted":"0","num_feature":"7","num_nodes":"41","size_leaf_vector":"1"}},{"base_weights":[3.5817258E-2,1.2292967E0,-8.2196724E-1,1.7726123E-2,9.864728E-1,-1.6552073E0,7.3184377E-1,1.045238E0,-0E0,3.3951077E-1,-1.7768592E0,8.628245E-1,1.8244876E-1,1.5558715E-1,1.1189402E0,-5.7199835E-3,6.8162894E-3,6.1849964E-1,-0E0,-2.1921903E-2,1.4608704E-1,9.295163E-1,-0E0,-1.0928015E-2,1.05796335E-2,1.0419266E-2,-4.6283104E-3,1.036387E-2,1.6426343E-2,-0E0,9.926149E-3,8.386383E-3,-0E0,-0E0,1.1575431E-2,4.565988E-3,-2.3519103E-3,-2.7575025E-3,3.2588684E-3],"categories":[],"categories_nodes":[],"categories_segments":[],"categories_sizes":[],"default_left":[0,0,0,0,0,0,0,0,0,0,0,0,0,0,0,0,0,0,0,0,0,0,0,0,0,0,0,0,0,0,0,0,0,0,0,0,0,0,0],"id":3,"left_children":[1,3,5,-1,7,9,11,13,15,17,19,21,23,25,27,-1,-1,29,-1,-1,31,33,35,37,-1,-1,-1,-1,-1,-1,-1,-1,-1,-1,-1,-1,-1,-1,-1],"loss_changes":[3.2212613E2,5.9876556E0,2.3790878E2,0E0,4.02684E0,3.0901733E1,3.3747902E0,3.287796E0,1.8426328E0,1.2881494E0,2.7800293E1,2.054615E0,3.038995E0,3.8748105E0,1.0689316E0,0E0,0E0,8.302598E-1,0E0,0E0,8.905801E-1,2.4652557E0,6.4215064E-1,7.4942243E-1,0E0,0E0,0E0,0E0,0E0,0E0,0E0,0E0,0E0,0E0,0E0,0E0,0E0,0E0,0E0],"parents":[2147483647,0,0,1,1,2,2,4,4,5,5,6,6,7,7,8,8,9,9,10,10,11,11,12,12,13,13,14,14,17,17,20,20,21,21,22,22,23,23],"right_children":[2,4,6,-1,8,10,12,14,16,18,20,22,24,26,28,-1,-1,30,-1,-1,32,34,36,38,-1,-1,-1,-1,-1,-1,-1,-1,-1,-1,-1,-1,-1,-1,-1],"split_conditions":[-7.9606056E-2,-7.824093E-1,2.1609104E-1,1.7726123E-2,7.1908765E-2,-4.3595096E-1,1.8731418E0,-6.570954E-1,-1.609537E-1,1.8773843E-1,1.3673754E-1,1.9188552E0,-1.9472285E-1,-6.3837394E-2,3.7068036E-1,-5.7199835E-3,6.8162894E-3,-3.9181677E-3,-0E0,-2.1921903E-2,-4.997623E-1,2.7128318E-1,-3.8039887E-1,3.1970313E0,1.05796335E-2,1.0419266E-2,-4.6283104E-3,1.036387E-2,1.6426343E-2,-0E0,9.926149E-3,8.386383E-3,-0E0,-0E0,1.1575431E-2,4.565988E-3,-2.3519103E-3,-2.7575025E-3,3.2588684E-3],"split_indices":[1,5,1,0,6,2,5,3,2,1,2,6,2,2,3,0,0,6,0,0,6,1,3,6,0,0,0,0,0,0,0,0,0,0,0,0,0,0,0],"split_type":[0,0,0,0,0,0,0,0,0,0,0,0,0,0,0,0,0,0,0,0,0,0,0,0,0,0,0,0,0,0,0,0,0,0,0,0,0,0,0],"sum_hessian":[3.1281198E2,1.3119136E2,1.8162062E2,5.4720203E1,7.647116E1,1.1863197E2,6.298865E1,7.172167E1,4.749495E0,6.249627E0,1.1238235E2,4.899037E1,1.3998279E1,6.7467675E0,6.49749E1,2.2498686E0,2.4996262E0,4.749682E0,1.499945E0,1.0638372E2,5.9986258E0,4.449141E1,4.498961E0,1.0498986E1,3.4992924E0,3.4982948E0,3.2484727E0,4.0983295E1,2.3991604E1,1.4998913E0,3.2497907E0,1.2498009E0,4.748825E0,3.7489648E0,4.0742447E1,2.7493494E0,1.7496116E0,7.9992237E0,2.4997625E0],"tree_param":{"num_deleted":"0","num_feature":"7","num_nodes":"39","size_leaf_vector":"1"}},{"base_weights":[2.7162038E-2,1.2039202E0,-8.2647246E-1,1.2437335E0,1.0880054E-1,-1.6344907E0,6.691081E-1,1.3490454E0,7.557162E-1,4.8169747E-1,-1.9963581E-2,-1.7704011E0,6.7605644E-1,5.386488E-1,1.526869E-2,-0E0,1.3719718E0,1.1388519E0,1.7563456E-1,-0E0,9.768375E-3,-2.9969052E-3,-0E0,-1.8574072E0,4.5920897E-1,-0E0,1.0306665E0,8.5649323E-1,1.17671534E-1,1.6229311E-2,2.278695E-3,-0E0,1.5147221E-2,-2.375295E-4,1.1145422E-2,-0E0,-2.1786712E-2,9.468441E-3,-0E0,-0E0,1.4639023E-2,4.898151E-3,1.2715454E-2,-1.1160804E-2,3.1338308E-3],"categories":[],"categories_nodes":[],"categories_segments":[],"categories_sizes":[],"default_left":[0,0,0,0,0,0,0,0,0,0,0,0,0,0,0,0,0,0,0,0,0,0,0,0,0,0,0,0,0,0,0,0,0,0,0,0,0,0,0,0,0,0,0,0,0],"id":4,"left_children":[1,3,5,7,9,11,13,15,17,19,21,23,25,27,-1,-1,29,31,33,-1,-1,-1,-1,35,37,-1,39,41,43,-1,-1,-1,-1,-1,-1,-1,-1,-1,-1,-1,-1,-1,-1,-1,-1],"loss_changes":[3.058796E2,4.080826E0,2.1418242E2,3.3758392E0,7.8963137E-1,3.8045868E1,2.7803345E0,3.7853088E0,4.0796957E0,7.185135E-1,1.3069606E-1,2.3226624E1,2.0547392E0,6.1248913E0,0E0,0E0,1.6826935E0,1.5511761E0,2.8528235E0,0E0,0E0,0E0,0E0,4.149414E0,1.0988033E0,0E0,5.42912E-1,1.1402016E0,3.684365E0,0E0,0E0,0E0,0E0,0E0,0E0,0E0,0E0,0E0,0E0,0E0,0E0,0E0,0E0,0E0,0E0],"parents":[2147483647,0,0,1,1,2,2,3,3,4,4,5,5,6,6,7,7,8,8,9,9,10,10,11,11,12,12,13,13,16,16,17,17,18,18,23,23,24,24,26,26,27,27,28,28],"right_children":[2,4,6,8,10,12,14,16,18,20,22,24,26,28,-1,-1,30,32,34,-1,-1,-1,-1,36,38,-1,40,42,44,-1,-1,-1,-1,-1,-1,-1,-1,-1,-1,-1,-1,-1,-1,-1,-1],"split_conditions":[-7.9606056E-2,1.488895E0,2.1609104E-1,-4.447623E-1,6.438568E-1,2.625598E-1,1.0855743E0,-1.2842638E0,3.1271458E-1,-7.736615E-1,1.571872E0,6.230548E-1,4.238618E-2,-9.096836E-2,1.526869E-2,-0E0,2.656186E0,-3.8303423E-1,-1.609537E-1,-0E0,9.768375E-3,-2.9969052E-3,-0E0,-4.9322897E-1,3.1283414E-1,-0E0,-1.1887364E-2,1.1717865E0,-2.573496E-1,1.6229311E-2,2.278695E-3,-0E0,1.5147221E-2,-2.375295E-4,1.1145422E-2,-0E0,-2.1786712E-2,9.468441E-3,-0E0,-0E0,1.4639023E-2,4.898151E-3,1.2715454E-2,-1.1160804E-2,3.1338308E-3],"split_indices":[1,0,1,1,4,0,4,1,4,2,0,2,4,4,0,0,2,1,2,0,0,0,0,2,6,0,1,1,6,0,0,0,0,0,0,0,0,0,0,0,0,0,0,0,0],"split_type":[0,0,0,0,0,0,0,0,0,0,0,0,0,0,0,0,0,0,0,0,0,0,0,0,0,0,0,0,0,0,0,0,0,0,0,0,0,0,0,0,0,0,0,0,0],"sum_hessian":[3.0268185E2,1.2764906E2,1.7503279E2,1.22152885E2,5.4961786E0,1.140499E2,6.09829E1,9.7663216E1,2.448967E1,2.9977698E0,2.4984086E0,1.0830106E2,5.7488317E0,5.323593E1,7.7469654E0,1.2495201E0,9.64137E1,1.3243494E1,1.1246176E1,1.4988587E0,1.4989113E0,1.2490137E0,1.249395E0,1.0480159E2,3.4994738E0,1.749442E0,3.9993896E0,2.8491066E1,2.4744867E1,9.291504E1,3.4986546E0,2.4986835E0,1.0744811E1,8.497404E0,2.7487721E0,1.74986E0,1.0305173E2,2.2495608E0,1.249913E0,1.2498384E0,2.7495513E0,1.2496849E1,1.5994216E1,1.7492181E0,2.299565E1],"tree_param":{"num_deleted":"0","num_feature":"7","num_nodes":"45","size_leaf_vector":"1"}},{"base_weights":[6.690666E-3,1.1298128E0,-5.676606E-1,1.3231544E0,6.141095E-1,-1.1159945E0,7.331804E-1,1.5694989E-2,-0E0,1.1160402E0,-4.772192E-2,-1.542017E0,7.5453526E-1,8.128181E-1,-2.4544327E-2,-0E0,2.2668142E-3,3.243882E-2,1.3560226E0,-7.474024E-1,6.295404E-1,-1.7138197E0,5.8509773E-1,3.0999336E-1,1.2247221E0,3.9391834E-1,1.3745238E-2,-0E0,-3.7546838E-3,-2.0926488E-3,9.592886E-3,1.745954E-2,-0E0,1.67518E-3,-1.3911901E-2,-2.1710998E-4,1.2023032E-2,4.0877373E-3,-2.0977601E-2,-2.1116254E-7,1.04526775E-2,-3.548814E-3,7.4264565E-3,-0E0,1.6960468E-2,6.881317E-3,-6.580359E-3],"categories":[],"categories_nodes":[],"categories_segments":[],"categories_sizes":[],"default_left":[0,0,0,0,0,0,0,0,0,0,0,0,0,0,0,0,0,0,0,0,0,0,0,0,0,0,0,0,0,0,0,0,0,0,0,0,0,0,0,0,0,0,0,0,0,0,0],"id":5,"left_children":[1,3,5,7,9,11,13,-1,15,17,19,21,23,25,27,-1,-1,29,31,33,35,37,39,41,43,45,-1,-1,-1,-1,-1,-1,-1,-1,-1,-1,-1,-1,-1,-1,-1,-1,-1,-1,-1,-1,-1],"loss_changes":[2.011547E2,7.9360046E0,1.4728957E2,2.1844025E0,1.1680151E1,1.1731891E2,4.5032578E0,0E0,7.5510725E-2,3.4377384E0,6.8325043E0,4.5356598E1,3.750433E0,6.8443108E0,3.3571658E-1,0E0,0E0,1.6315446E0,2.4823074E0,4.3647933E0,2.8016648E0,2.4838318E1,2.6193218E0,3.7618454E0,2.2435303E0,5.874388E0,0E0,0E0,0E0,0E0,0E0,0E0,0E0,0E0,0E0,0E0,0E0,0E0,0E0,0E0,0E0,0E0,0E0,0E0,0E0,0E0,0E0],"parents":[2147483647,0,0,1,1,2,2,3,3,4,4,5,5,6,6,8,8,9,9,10,10,11,11,12,12,13,13,14,14,17,17,18,18,19,19,20,20,21,21,22,22,23,23,24,24,25,25],"right_children":[2,4,6,8,10,12,14,-1,16,18,20,22,24,26,28,-1,-1,30,32,34,36,38,40,42,44,46,-1,-1,-1,-1,-1,-1,-1,-1,-1,-1,-1,-1,-1,-1,-1,-1,-1,-1,-1,-1,-1],"split_conditions":[-4.6119666E-1,1.1672607E-1,2.499237E-1,1.488895E0,-4.602786E-1,2.3559518E-1,1.1328145E0,1.5694989E-2,1.5373335E0,3.7068036E-1,1.4011206E-2,6.6345096E-1,-2.298439E-1,5.243673E-1,-7.917331E-1,-0E0,2.2668142E-3,-8.690669E-1,1.035272E0,-8.3032507E-1,-8.633813E-1,-4.3595096E-1,-5.694322E-1,8.615604E-1,-2.9591528E-1,1.9188552E0,1.3745238E-2,-0E0,-3.7546838E-3,-2.0926488E-3,9.592886E-3,1.745954E-2,-0E0,1.67518E-3,-1.3911901E-2,-2.1710998E-4,1.2023032E-2,4.0877373E-3,-2.0977601E-2,-2.1116254E-7,1.04526775E-2,-3.548814E-3,7.4264565E-3,-0E0,1.6960468E-2,6.881317E-3,-6.580359E-3],"split_indices":[6,3,0,0,2,2,0,0,0,3,2,3,4,0,2,0,0,2,0,6,6,2,2,2,6,6,0,0,0,0,0,0,0,0,0,0,0,0,0,0,0,0,0,0,0,0,0],"split_type":[0,0,0,0,0,0,0,0,0,0,0,0,0,0,0,0,0,0,0,0,0,0,0,0,0,0,0,0,0,0,0,0,0,0,0,0,0,0,0,0,0,0,0,0,0,0,0],"sum_hessian":[3.0949182E2,1.051021E2,2.0438972E2,7.4147064E1,3.0955029E1,1.4442126E2,5.9968456E1,7.164912E1,2.497952E0,1.8225864E1,1.2729163E1,1.1818972E2,2.6231548E1,5.547087E1,4.4975877E0,1.2488341E0,1.249118E0,4.24475E0,1.3981115E1,6.9863734E0,5.7427897E0,1.09942375E2,8.247339E0,1.5241761E1,1.0989787E1,2.8237726E1,2.7233145E1,1.9988198E0,2.4987676E0,2.746935E0,1.4978153E0,1.2233213E1,1.7479018E0,1.7475591E0,5.2388144E0,1.4982433E0,4.2445464E0,4.498792E0,1.0544359E2,1.9995253E0,6.2478137E0,4.2475986E0,1.0994163E1,2.4971187E0,8.492668E0,2.4488356E1,3.7493703E0],"tree_param":{"num_deleted":"0","num_feature":"7","num_nodes":"47","size_leaf_vector":"1"}},{"base_weights":[7.6221935E-3,1.179616E0,-7.804631E-1,1.2358268E0,-0E0,-1.6049628E0,8.4917504E-1,1.2451767E0,-0E0,-5.7326807E-3,3.2284996E-1,3.309123E-1,-1.7423577E0,-0E0,9.1118145E-1,1.5170365E-2,7.8067124E-1,9.705129E-3,-0E0,-0E0,5.574879E-1,-1.8386884E0,-0E0,-7.851346E-3,6.7218933E-3,1.1377335E0,6.372323E-1,-1.7088251E-3,1.2202887E-2,-0E0,9.287249E-3,-2.1464443E-2,-0E0,8.422055E-3,-1.0734542E-3,-0E0,1.4617088E-2,1.9307133E-3,1.1294915E-2],"categories":[],"categories_nodes":[],"categories_segments":[],"categories_sizes":[],"default_left":[0,0,0,0,0,0,0,0,0,0,0,0,0,0,0,0,0,0,0,0,0,0,0,0,0,0,0,0,0,0,0,0,0,0,0,0,0,0,0],"id":6,"left_children":[1,3,5,7,9,11,13,15,-1,-1,17,19,21,23,25,-1,27,-1,-1,-1,29,31,33,-1,-1,35,37,-1,-1,-1,-1,-1,-1,-1,-1,-1,-1,-1,-1],"loss_changes":[2.8463123E2,8.474426E0,2.4827304E2,8.178406E-1,1.1420043E0,3.447644E1,3.6207466E0,6.9699097E-1,0E0,0E0,1.1465626E0,1.1873338E0,2.1088043E1,2.0840068E0,1.2134819E0,0E0,5.763214E0,0E0,0E0,0E0,9.53079E-1,2.6199036E0,1.0854472E0,0E0,0E0,3.1012878E0,3.46247E0,0E0,0E0,0E0,0E0,0E0,0E0,0E0,0E0,0E0,0E0,0E0,0E0],"parents":[2147483647,0,0,1,1,2,2,3,3,4,4,5,5,6,6,7,7,10,10,11,11,12,12,13,13,14,14,16,16,20,20,21,21,22,22,25,25,26,26],"right_children":[2,4,6,8,10,12,14,16,-1,-1,18,20,22,24,26,-1,28,-1,-1,-1,30,32,34,-1,-1,36,38,-1,-1,-1,-1,-1,-1,-1,-1,-1,-1,-1,-1],"split_conditions":[-7.9606056E-2,6.2238604E-2,2.1609104E-1,3.6471188E0,-1.609537E-1,-3.6637306E-1,2.7128318E-1,-3.9465362E-1,-0E0,-5.7326807E-3,1.1550045E0,-2.9644376E-2,1.3673754E-1,-3.9203886E-2,1.0541402E0,1.5170365E-2,-3.6124784E-1,9.705129E-3,-0E0,-0E0,-9.757762E-2,2.2419788E-1,-2.454431E-2,-7.851346E-3,6.7218933E-3,-2.230224E0,-5.4841316E-1,-1.7088251E-3,1.2202887E-2,-0E0,9.287249E-3,-2.1464443E-2,-0E0,8.422055E-3,-1.0734542E-3,-0E0,1.4617088E-2,1.9307133E-3,1.1294915E-2],"split_indices":[1,6,1,2,2,2,1,1,0,0,2,1,2,6,1,0,1,0,0,0,6,0,1,0,0,4,2,0,0,0,0,0,0,0,0,0,0,0,0],"split_type":[0,0,0,0,0,0,0,0,0,0,0,0,0,0,0,0,0,0,0,0,0,0,0,0,0,0,0,0,0,0,0,0,0,0,0,0,0,0,0],"sum_hessian":[3.0628085E2,1.23537834E2,1.8274301E2,1.18040344E2,5.4974847E0,1.21782814E2,6.0960205E1,1.1679105E2,1.2492924E0,2.2499068E0,3.247578E0,7.4975753E0,1.1428523E2,3.7476585E0,5.7212547E1,9.905854E1,1.7732517E1,1.4985772E0,1.7490008E0,1.4998175E0,5.997758E0,1.0878841E2,5.496826E0,1.9981129E0,1.7495456E0,2.7982061E1,2.9230488E1,3.2482495E0,1.4484268E1,1.9996592E0,3.9980989E0,1.0754085E2,1.2475592E0,1.2497635E0,4.2470627E0,3.4971318E0,2.4484928E1,1.3994516E1,1.5235971E1],"tree_param":{"num_deleted":"0","num_feature":"7","num_nodes":"39","size_leaf_vector":"1"}},{"base_weights":[1.274109E-2,1.1431718E0,-7.884662E-1,1.2014946E0,-2.0993213E-1,-1.5919256E0,6.710691E-1,1.6095651E-2,9.012987E-1,3.640936E-3,-1.0784684E-2,7.4199516E-1,-1.698711E0,1.0007131E0,4.2840502E-1,4.7329387E-1,1.4153426E-2,1.2353446E-2,-0E0,-1.7698315E0,8.099334E-2,1.6929664E-1,1.251075E-2,-1.1935795E-2,5.9418046E-1,9.1801E-3,-1.1892327E-3,2.5004242E-3,-0E0,-0E0,-2.0761017E-2,-2.5198008E-3,6.6157314E-3,-0E0,7.888962E-3,8.607669E-3,-1.2109184E-3],"categories":[],"categories_nodes":[],"categories_segments":[],"categories_sizes":[],"default_left":[0,0,0,0,0,0,0,0,0,0,0,0,0,0,0,0,0,0,0,0,0,0,0,0,0,0,0,0,0,0,0,0,0,0,0,0,0],"id":7,"left_children":[1,3,5,7,9,11,13,-1,15,-1,-1,17,19,21,23,25,-1,-1,27,29,31,33,-1,-1,35,-1,-1,-1,-1,-1,-1,-1,-1,-1,-1,-1,-1],"loss_changes":[2.817869E2,1.1434265E1,2.14336E2,3.8246613E0,2.8352814E0,3.1217896E1,3.345644E0,0E0,5.063843E0,0E0,0E0,2.2737288E-1,1.619101E1,2.3485374E-1,9.708799E0,5.429361E0,0E0,0E0,9.189989E-2,5.7789307E0,1.1159989E0,7.930909E-1,0E0,0E0,4.626006E0,0E0,0E0,0E0,0E0,0E0,0E0,0E0,0E0,0E0,0E0,0E0,0E0],"parents":[2147483647,0,0,1,1,2,2,3,3,4,4,5,5,6,6,8,8,11,11,12,12,13,13,14,14,15,15,18,18,19,19,20,20,21,21,24,24],"right_children":[2,4,6,8,10,12,14,-1,16,-1,-1,18,20,22,24,26,-1,-1,28,30,32,34,-1,-1,36,-1,-1,-1,-1,-1,-1,-1,-1,-1,-1,-1,-1],"split_conditions":[-7.9606056E-2,7.1908765E-2,2.1609104E-1,-5.9809414E-4,-1.19961455E-1,-4.8505738E-1,1.21324226E-1,1.6095651E-2,3.7068036E-1,3.640936E-3,-1.0784684E-2,1.0113973E-1,2.3679475E-1,-2.4072454E0,-7.06518E-2,-4.447623E-1,1.4153426E-2,1.2353446E-2,-1.885025E0,-7.1420246E-1,4.238618E-2,9.866024E-1,1.251075E-2,-1.1935795E-2,2.6343784E0,9.1801E-3,-1.1892327E-3,2.5004242E-3,-0E0,-0E0,-2.0761017E-2,-2.5198008E-3,6.6157314E-3,-0E0,7.888962E-3,8.607669E-3,-1.2109184E-3],"split_indices":[1,6,1,3,4,3,0,0,3,0,0,1,0,4,6,1,0,0,4,0,4,1,0,0,1,0,0,0,0,0,0,0,0,0,0,0,0],"split_type":[0,0,0,0,0,0,0,0,0,0,0,0,0,0,0,0,0,0,0,0,0,0,0,0,0,0,0,0,0,0,0,0,0,0,0,0,0],"sum_hessian":[3.092819E2,1.2870056E2,1.8058131E2,1.24202736E2,4.497835E0,1.1688892E2,6.3692383E1,7.2309105E1,5.189363E1,1.9986669E0,2.4991686E0,4.497711E0,1.1239121E2,2.4223608E1,3.9468773E1,2.4452898E1,2.7440731E1,1.9991829E0,2.4985282E0,1.086431E2,3.7481196E0,3.4957016E0,2.0727907E1,2.996662E0,3.647211E1,1.6710003E1,7.7428956E0,1.2496196E0,1.2489086E0,1.2477305E0,1.0739536E2,1.249548E0,2.4985716E0,2.2481802E0,1.2475214E0,3.1224E1,5.2481093E0],"tree_param":{"num_deleted":"0","num_feature":"7","num_nodes":"37","size_leaf_vector":"1"}},{"base_weights":[-5.2998774E-2,1.1242585E0,-8.508835E-1,1.2078571E0,5.131662E-1,-1.3418331E0,4.5166346E-1,1.4087468E-2,-0E0,-0E0,1.5717521E-2,2.4843965E-1,-1.6336349E0,-9.0946825E-3,5.428962E-1,2.2910695E-1,-9.448693E-3,-3.6654744E-1,6.692293E-1,-1.7031507E0,4.845192E-1,6.5332377E-1,4.3459203E-2,4.784461E-3,-4.287635E-4,-6.1356365E-3,-0E0,-0E0,1.0595065E-2,-2.0153208E-2,-0E0,1.1089347E-2,-0E0,8.289325E-3,-0E0,-2.978365E-3,3.9320057E-3],"categories":[],"categories_nodes":[],"categories_segments":[],"categories_sizes":[],"default_left":[0,0,0,0,0,0,0,0,0,0,0,0,0,0,0,0,0,0,0,0,0,0,0,0,0,0,0,0,0,0,0,0,0,0,0,0,0],"id":8,"left_children":[1,3,5,7,9,11,13,-1,-1,15,-1,17,19,-1,21,23,-1,25,27,29,31,33,35,-1,-1,-1,-1,-1,-1,-1,-1,-1,-1,-1,-1,-1,-1],"loss_changes":[2.8944604E2,4.0892334E0,1.19258804E2,7.777252E-1,6.7992206E0,6.4229294E1,5.744752E0,0E0,0E0,2.0380101E0,0E0,5.91269E0,1.8719055E1,0E0,1.9052086E0,9.320025E-1,0E0,6.7841434E-1,2.4268131E0,7.493622E0,1.3943334E0,1.3457851E0,1.1495672E0,0E0,0E0,0E0,0E0,0E0,0E0,0E0,0E0,0E0,0E0,0E0,0E0,0E0,0E0],"parents":[2147483647,0,0,1,1,2,2,3,3,4,4,5,5,6,6,9,9,11,11,12,12,14,14,15,15,17,17,18,18,19,19,20,20,21,21,22,22],"right_children":[2,4,6,8,10,12,14,-1,-1,16,-1,18,20,-1,22,24,-1,26,28,30,32,34,36,-1,-1,-1,-1,-1,-1,-1,-1,-1,-1,-1,-1,-1,-1],"split_conditions":[-2.459632E-1,-6.1104037E-2,2.1609104E-1,3.7948743E-1,1.1717865E0,-7.9606056E-2,-1.4716204E-1,1.4087468E-2,-0E0,7.3650286E-2,1.5717521E-2,-3.2057995E-1,2.6039627E-1,-9.0946825E-3,2.3547866E0,7.1790385E-1,-9.448693E-3,-8.207559E-2,-9.7856954E-2,6.855293E-1,8.25277E-2,1.774475E0,2.906708E0,4.784461E-3,-4.287635E-4,-6.1356365E-3,-0E0,-0E0,1.0595065E-2,-2.0153208E-2,-0E0,1.1089347E-2,-0E0,8.289325E-3,-0E0,-2.978365E-3,3.9320057E-3],"split_indices":[5,1,1,6,1,1,6,0,0,3,0,1,4,0,1,1,0,5,3,3,1,3,1,0,0,0,0,0,0,0,0,0,0,0,0,0,0],"split_type":[0,0,0,0,0,0,0,0,0,0,0,0,0,0,0,0,0,0,0,0,0,0,0,0,0,0,0,0,0,0,0,0,0,0,0,0,0],"sum_hessian":[3.0700427E2,1.2336882E2,1.8363545E2,1.0639677E2,1.6972057E1,1.3393655E2,4.9698887E1,1.0514761E2,1.2491474E0,1.1484407E1,5.4876494E0,2.0224962E1,1.137116E2,2.2470615E0,4.7451824E1,9.98942E0,1.494987E0,7.2411404E0,1.2983821E1,1.1071381E2,2.9977832E0,3.6958637E1,1.0493187E1,7.9923515E0,1.9970688E0,5.4935E0,1.7476401E0,3.4959896E0,9.487832E0,1.0821639E2,2.4974205E0,1.7486982E0,1.249085E0,3.3211742E1,3.746894E0,3.4981542E0,6.995033E0],"tree_param":{"num_deleted":"0","num_feature":"7","num_nodes":"37","size_leaf_vector":"1"}},{"base_weights":[1.4537093E-2,1.1790458E0,-7.833386E-1,1.2312152E0,-0E0,-1.2654761E0,6.416661E-1,1.5731988E-2,8.211581E-1,-5.2461247E-3,1.6879393E-1,-1.6206475E0,6.1248845E-1,7.3460305E-1,-0E0,-8.859102E-3,9.7922283E-1,1.0817346E-2,-2.5522287E-3,3.7817318E-2,-1.7187201E0,-4.6008294E-3,7.849187E-1,-0E0,7.4792653E-1,-5.484537E-1,6.2322244E-3,1.18686035E-2,-0E0,-1.3153425E-3,9.699754E-3,-7.8541914E-4,-2.0163061E-2,9.879334E-3,-0E0,1.06822625E-2,5.36647E-3,-1.0329892E-2,-0E0],"categories":[],"categories_nodes":[],"categories_segments":[],"categories_sizes":[],"default_left":[0,0,0,0,0,0,0,0,0,0,0,0,0,0,0,0,0,0,0,0,0,0,0,0,0,0,0,0,0,0,0,0,0,0,0,0,0,0,0],"id":9,"left_children":[1,3,5,7,9,11,13,-1,15,-1,17,19,21,23,25,-1,27,-1,-1,29,31,-1,33,-1,35,37,-1,-1,-1,-1,-1,-1,-1,-1,-1,-1,-1,-1,-1],"loss_changes":[2.813923E2,7.9576263E0,1.2416768E2,3.1763763E0,5.757944E-1,9.147006E1,3.2146912E0,0E0,8.814793E0,0E0,2.1547809E0,2.0313324E1,4.364748E0,1.0028267E-1,1.8332133E0,0E0,9.939995E-1,0E0,0E0,1.6123066E0,2.3926392E0,0E0,1.1134329E0,0E0,1.9046402E-1,6.5031946E-1,0E0,0E0,0E0,0E0,0E0,0E0,0E0,0E0,0E0,0E0,0E0,0E0,0E0],"parents":[2147483647,0,0,1,1,2,2,3,3,4,4,5,5,6,6,8,8,10,10,11,11,12,12,13,13,14,14,16,16,19,19,20,20,22,22,24,24,25,25],"right_children":[2,4,6,8,10,12,14,-1,16,-1,18,20,22,24,26,-1,28,-1,-1,30,32,-1,34,-1,36,38,-1,-1,-1,-1,-1,-1,-1,-1,-1,-1,-1,-1,-1],"split_conditions":[-2.4886917E-1,3.3983982E-1,2.7128318E-1,-5.88031E-1,6.682261E-1,2.499237E-1,3.1689973E0,1.5731988E-2,-7.9175943E-1,-5.2461247E-3,1.0814296E0,-6.1104037E-2,-1.8539678E-1,-7.5490713E-1,2.4557004E0,-8.859102E-3,-6.499018E-2,1.0817346E-2,-2.5522287E-3,3.4429476E-1,-3.5968393E-1,-4.6008294E-3,1.1328145E0,-0E0,4.0439948E-1,3.5826879E0,6.2322244E-3,1.18686035E-2,-0E0,-1.3153425E-3,9.699754E-3,-7.8541914E-4,-2.0163061E-2,9.879334E-3,-0E0,1.06822625E-2,5.36647E-3,-1.0329892E-2,-0E0],"split_indices":[5,6,1,5,6,0,5,0,6,0,6,1,5,3,3,0,6,0,0,3,3,0,0,0,0,6,0,0,0,0,0,0,0,0,0,0,0,0,0],"split_type":[0,0,0,0,0,0,0,0,0,0,0,0,0,0,0,0,0,0,0,0,0,0,0,0,0,0,0,0,0,0,0,0,0,0,0,0,0,0,0],"sum_hessian":[3.0097855E2,1.227687E2,1.7820984E2,1.1777515E2,4.9935565E0,1.3376735E2,4.4442493E1,8.638929E1,3.1385855E1,1.4987737E0,3.4947827E0,1.1304457E2,2.0722776E1,3.9695892E1,4.7466025E0,1.9918723E0,2.9393982E1,1.7466506E0,1.7481322E0,5.738919E0,1.0730565E2,1.997614E0,1.8725163E1,1.2477179E0,3.8448174E1,2.9990413E0,1.7475611E0,2.764737E1,1.7466123E0,4.2412386E0,1.4976803E0,2.2380881E0,1.0506756E2,1.7227268E1,1.4978945E0,2.047395E1,1.7974224E1,1.4998118E0,1.4992296E0],"tree_param":{"num_deleted":"0","num_feature":"7","num_nodes":"39","size_leaf_vector":"1"}},{"base_weights":[-3.8826276E-2,1.1063527E0,-8.018417E-1,1.3313333E-2,4.5584843E-1,4.9360073E-1,-1.3212382E0,-5.54842E-3,7.59798E-1,8.1746006E-1,6.449604E-3,-1.6194501E0,9.899115E-1,-0E0,1.2016988E-2,9.6490884E-1,-0E0,-2.0890777E-1,5.088551E-1,-1.7304838E0,6.3657796E-1,-0E0,1.2790444E-2,2.1696293E-3,-4.3725202E-4,1.1983794E-2,-0E0,-1.7927433E-3,2.3165809E-3,1.5114585E-3,-7.491322E-3,-2.9339243E-3,1.454238E-2,-2.0557014E-2,1.3359662E-3,1.0836698E-2,-0E0],"categories":[],"categories_nodes":[],"categories_segments":[],"categories_sizes":[],"default_left":[0,0,0,0,0,0,0,0,0,0,0,0,0,0,0,0,0,0,0,0,0,0,0,0,0,0,0,0,0,0,0,0,0,0,0,0,0],"id":10,"left_children":[1,3,5,-1,7,9,11,-1,13,15,17,19,21,23,-1,25,27,29,31,33,35,-1,-1,-1,-1,-1,-1,-1,-1,-1,-1,-1,-1,-1,-1,-1,-1],"loss_changes":[2.72089E2,1.5470123E0,1.2757873E2,0E0,3.5910153E0,7.5946693E0,9.464691E1,0E0,1.6520691E0,3.9399605E0,2.926622E0,3.1991669E1,1.9200687E0,7.221482E-2,0E0,2.4243279E0,1.7409858E-1,2.9053447E0,6.2479835E0,1.1834442E1,1.6027975E0,0E0,0E0,0E0,0E0,0E0,0E0,0E0,0E0,0E0,0E0,0E0,0E0,0E0,0E0,0E0,0E0],"parents":[2147483647,0,0,1,1,2,2,4,4,5,5,6,6,8,8,9,9,10,10,11,11,12,12,13,13,15,15,16,16,17,17,18,18,19,19,20,20],"right_children":[2,4,6,-1,8,10,12,-1,14,16,18,20,22,24,-1,26,28,30,32,34,36,-1,-1,-1,-1,-1,-1,-1,-1,-1,-1,-1,-1,-1,-1,-1,-1],"split_conditions":[-2.4886917E-1,-3.6316192E-1,-3.5129142E-1,1.3313333E-2,-3.3934104E-1,-8.690669E-1,2.3559518E-1,-5.54842E-3,2.2419788E-1,1.774475E0,-5.4841316E-1,8.367617E-1,-1.6515756E0,-2.1872996E-1,1.2016988E-2,1.0211546E0,3.4796216E0,-7.3183465E-1,5.751958E-1,4.7238457E-1,2.179506E0,-0E0,1.2790444E-2,2.1696293E-3,-4.3725202E-4,1.1983794E-2,-0E0,-1.7927433E-3,2.3165809E-3,1.5114585E-3,-7.491322E-3,-2.9339243E-3,1.454238E-2,-2.0557014E-2,1.3359662E-3,1.0836698E-2,-0E0],"split_indices":[5,5,2,0,5,2,2,0,0,3,2,3,0,0,0,0,5,2,3,4,3,0,0,0,0,0,0,0,0,0,0,0,0,0,0,0,0],"split_type":[0,0,0,0,0,0,0,0,0,0,0,0,0,0,0,0,0,0,0,0,0,0,0,0,0,0,0,0,0,0,0,0,0,0,0,0,0],"sum_hessian":[3.1031088E2,1.2340291E2,1.8690796E2,1.13443474E2,9.959437E0,5.292409E1,1.3398387E2,1.4941894E0,8.465248E0,3.0204472E1,2.271962E1,1.19263535E2,1.4720331E1,2.7410467E0,5.7242017E0,2.5708042E1,4.4964294E0,1.47342615E1,7.985358E0,1.14271515E2,4.9920235E0,1.4969437E0,1.3223388E1,1.245665E0,1.4953817E0,2.445974E1,1.2483032E0,3.247245E0,1.2491845E0,7.2418585E0,7.4924035E0,3.4959087E0,4.4894495E0,1.1202368E2,2.24783E0,3.7444384E0,1.2475852E0],"tree_param":{"num_deleted":"0","num_feature":"7","num_nodes":"37","size_leaf_vector":"1"}},{"base_weights":[-2.0360045E-2,1.0931777E0,-7.948489E-1,1.296651E0,7.049829E-1,-1.5221416E0,5.742558E-1,1.55421635E-2,4.673951E-1,3.988748E-1,1.2298958E0,-1.6238747E0,2.4658263E-1,-6.7854784E-2,6.317463E-1,-0E0,1.1702635E-2,5.377646E-1,-1.6437413E-1,-0E0,1.5951872E-2,5.076993E-1,-1.707392E0,1.105081E-2,-0E0,-7.64215E-3,2.0576469E-3,7.642664E-1,4.600147E-2,1.5580794E-3,-5.9371013E-3,7.657067E-3,-1.8789273E-3,-0E0,-7.2552417E-3,9.523447E-3,-0E0,-0E0,-1.9916639E-2,-5.2232044E-3,1.0008591E-3,9.41843E-3,-0E0,-3.089403E-3,5.6588957E-3],"categories":[],"categories_nodes":[],"categories_segments":[],"categories_sizes":[],"default_left":[0,0,0,0,0,0,0,0,0,0,0,0,0,0,0,0,0,0,0,0,0,0,0,0,0,0,0,0,0,0,0,0,0,0,0,0,0,0,0,0,0,0,0,0,0],"id":11,"left_children":[1,3,5,7,9,11,13,-1,15,17,19,21,23,25,27,29,-1,31,33,-1,-1,35,37,-1,39,-1,-1,41,43,-1,-1,-1,-1,-1,-1,-1,-1,-1,-1,-1,-1,-1,-1,-1,-1],"loss_changes":[2.71021E2,7.395447E0,1.8693143E2,8.403778E-1,5.578018E0,2.3726898E1,3.0064507E0,0E0,2.5826035E0,2.9858742E0,3.8261604E0,2.2573975E1,1.842486E0,1.2398915E0,3.8477497E0,6.1811805E-1,0E0,3.0036912E0,8.2262266E-1,0E0,0E0,3.508588E-1,1.9157104E0,0E0,4.777573E-1,0E0,0E0,2.309023E0,2.193343E0,0E0,0E0,0E0,0E0,0E0,0E0,0E0,0E0,0E0,0E0,0E0,0E0,0E0,0E0,0E0,0E0],"parents":[2147483647,0,0,1,1,2,2,3,3,4,4,5,5,6,6,8,8,9,9,10,10,11,11,12,12,13,13,14,14,15,15,17,17,18,18,21,21,22,22,24,24,27,27,28,28],"right_children":[2,4,6,8,10,12,14,-1,16,18,20,22,24,26,28,30,-1,32,34,-1,-1,36,38,-1,40,-1,-1,42,44,-1,-1,-1,-1,-1,-1,-1,-1,-1,-1,-1,-1,-1,-1,-1,-1],"split_conditions":[-7.9606056E-2,-5.651629E-1,2.1609104E-1,-3.289296E-1,5.751958E-1,2.3679475E-1,2.7128318E-1,1.55421635E-2,-3.9181677E-3,1.0939779E0,-7.9175943E-1,-7.478783E-1,3.9041728E-1,-3.289296E-1,2.1722867E0,-8.2147557E-1,1.1702635E-2,5.6685004E-2,-1.3630384E-1,-0E0,1.5951872E-2,-2.867473E0,-4.8505738E-1,1.105081E-2,5.1394176E-1,-7.64215E-3,2.0576469E-3,2.731646E0,3.0042028E0,1.5580794E-3,-5.9371013E-3,7.657067E-3,-1.8789273E-3,-0E0,-7.2552417E-3,9.523447E-3,-0E0,-0E0,-1.9916639E-2,-5.2232044E-3,1.0008591E-3,9.41843E-3,-0E0,-3.089403E-3,5.6588957E-3],"split_indices":[1,5,1,6,3,0,1,0,6,0,6,0,0,6,6,5,0,6,6,0,0,0,3,0,0,0,0,5,6,0,0,0,0,0,0,0,0,0,0,0,0,0,0,0,0],"split_type":[0,0,0,0,0,0,0,0,0,0,0,0,0,0,0,0,0,0,0,0,0,0,0,0,0,0,0,0,0,0,0,0,0,0,0,0,0,0,0,0,0,0,0,0,0],"sum_hessian":[3.131794E2,1.2779291E2,1.853865E2,8.097149E1,4.6821415E1,1.2151942E2,6.386709E1,7.500156E1,5.969933E0,3.1633919E1,1.5187498E1,1.1552644E2,5.992974E0,3.7381163E0,6.012897E1,2.7370458E0,3.2328873E0,2.6896631E1,4.7372875E0,1.2450571E0,1.3942441E1,3.7448912E0,1.11781555E2,1.7485048E0,4.2444687E0,1.991759E0,1.7463574E0,4.7396366E1,1.2732606E1,1.2429042E0,1.4941417E0,2.4148785E1,2.7478466E0,2.988905E0,1.7483824E0,1.4970567E0,2.2478344E0,1.2497874E0,1.1053176E2,1.4987923E0,2.7456768E0,4.514734E1,2.2490287E0,6.2416515E0,6.4909544E0],"tree_param":{"num_deleted":"0","num_feature":"7","num_nodes":"45","size_leaf_vector":"1"}},{"base_weights":[-0E0,1.099916E0,-7.593896E-1,1.1308875E0,-0E0,-1.3084271E0,5.348432E-1,1.1440934E0,-0E0,3.8062711E-3,-7.1130544E-2,-1.5669111E0,6.1296326E-1,-6.7173876E-2,6.439296E-1,1.1877599E0,6.118614E-1,-3.3845638E-3,-0E0,3.4682494E-1,-1.6908869E0,7.439369E-1,-0E0,8.554529E-2,-8.753221E-3,7.609825E-1,-1.0866005E-1,1.385077E-2,-0E0,4.684121E-4,1.5652081E-2,-0E0,1.15098795E-2,-1.9730983E-2,-1.2112223E-3,-0E0,9.830389E-3,1.9538999E-3,-3.1153555E-3,-0E0,4.8575005E-3,1.0350803E-2,3.8061777E-4,-1.5017295E-2,1.008806E-2],"categories":[],"categories_nodes":[],"categories_segments":[],"categories_sizes":[],"default_left":[0,0,0,0,0,0,0,0,0,0,0,0,0,0,0,0,0,0,0,0,0,0,0,0,0,0,0,0,0,0,0,0,0,0,0,0,0,0,0,0,0,0,0,0,0],"id":12,"left_children":[1,3,5,7,9,11,13,15,-1,-1,17,19,21,23,25,27,29,-1,-1,31,33,35,37,39,-1,41,43,-1,-1,-1,-1,-1,-1,-1,-1,-1,-1,-1,-1,-1,-1,-1,-1,-1,-1],"loss_changes":[2.6423276E2,3.842331E0,1.3408934E2,1.4807892E0,2.5539088E-1,6.723483E1,4.28722E0,4.638672E-1,0E0,0E0,1.518623E-1,2.9591675E1,1.4061146E0,1.561833E0,5.0259E0,8.089905E-1,3.8667107E0,0E0,0E0,1.8160775E0,6.0647583E-1,1.1461415E0,1.9862232E-1,4.8059678E-1,0E0,3.234024E0,8.218209E0,0E0,0E0,0E0,0E0,0E0,0E0,0E0,0E0,0E0,0E0,0E0,0E0,0E0,0E0,0E0,0E0,0E0,0E0],"parents":[2147483647,0,0,1,1,2,2,3,3,4,4,5,5,6,6,7,7,10,10,11,11,12,12,13,13,14,14,15,15,16,16,19,19,20,20,21,21,22,22,23,23,25,25,26,26],"right_children":[2,4,6,8,10,12,14,16,-1,-1,18,20,22,24,26,28,30,-1,-1,32,34,36,38,40,-1,42,44,-1,-1,-1,-1,-1,-1,-1,-1,-1,-1,-1,-1,-1,-1,-1,-1,-1,-1],"split_conditions":[-2.4886917E-1,1.488895E0,2.0357716E-1,1.0814296E0,-8.449053E-1,2.7128318E-1,-3.1404403E-1,2.4890704E-2,-0E0,3.8062711E-3,-1.4677928E-1,-6.1104037E-2,1.21324226E-1,-2.4633086E-1,2.6343784E0,3.7948743E-1,1.3598757E0,-3.3845638E-3,-0E0,3.7068036E-1,4.6104035E-1,-1.4840158E0,3.7931293E-1,-3.895747E-1,-8.753221E-3,8.6646044E-1,5.243673E-1,1.385077E-2,-0E0,4.684121E-4,1.5652081E-2,-0E0,1.15098795E-2,-1.9730983E-2,-1.2112223E-3,-0E0,9.830389E-3,1.9538999E-3,-3.1153555E-3,-0E0,4.8575005E-3,1.0350803E-2,3.8061777E-4,-1.5017295E-2,1.008806E-2],"split_indices":[5,0,0,6,1,1,1,1,0,0,3,1,0,6,1,6,1,0,0,3,5,0,3,6,0,0,0,0,0,0,0,0,0,0,0,0,0,0,0,0,0,0,0,0,0],"split_type":[0,0,0,0,0,0,0,0,0,0,0,0,0,0,0,0,0,0,0,0,0,0,0,0,0,0,0,0,0,0,0,0,0,0,0,0,0,0,0,0,0,0,0,0,0],"sum_hessian":[3.1476257E2,1.2862393E2,1.8613863E2,1.2464087E2,3.9830685E0,1.3125893E2,5.4879707E1,1.2289491E2,1.7459588E0,1.4915833E0,2.4914854E0,1.16292404E2,1.4966517E1,6.985681E0,4.7894024E1,1.10939E2,1.1955909E1,1.2462764E0,1.2452089E0,6.482064E0,1.0981034E2,1.2471059E1,2.4954586E0,4.9876776E0,1.9980037E0,4.264702E1,5.247006E0,1.09691E2,1.2479987E0,7.978335E0,3.9775739E0,4.4905057E0,1.9915578E0,1.08071106E2,1.7392409E0,1.4972968E0,1.0973762E1,1.2469006E0,1.248558E0,2.7429461E0,2.2447314E0,3.4665016E1,7.9820046E0,2.749558E0,2.4974482E0],"tree_param":{"num_deleted":"0","num_feature":"7","num_nodes":"45","size_leaf_vector":"1"}},{"base_weights":[3.4157656E-2,1.1649181E0,-7.0893E-1,1.2010046E0,8.776042E-2,-1.2800256E0,6.527936E-1,1.2333589E0,2.2305994E-1,-2.5765446E-3,5.3039765E-1,-1.5020719E0,9.009658E-1,1.0061518E0,2.6170743E-1,1.2560716E0,2.9414308E-1,5.90222E-3,-0E0,1.1614732E-2,-0E0,-1.628327E0,4.2799702E-1,-0E0,9.700416E-1,1.077093E0,-0E0,1.9943355E-2,1.0846341E0,1.5491985E-2,9.611807E-3,9.27792E-3,-7.2218524E-4,1.7585716E-3,-1.9805174E-2,9.192087E-3,-1.4053669E-3,3.854871E-3,1.647505E-2,1.4951929E-2,3.6035208E-3,3.1884317E-3,-5.1678806E-3,1.5260459E-2,-0E0],"categories":[],"categories_nodes":[],"categories_segments":[],"categories_sizes":[],"default_left":[0,0,0,0,0,0,0,0,0,0,0,0,0,0,0,0,0,0,0,0,0,0,0,0,0,0,0,0,0,0,0,0,0,0,0,0,0,0,0,0,0,0,0,0,0],"id":13,"left_children":[1,3,5,7,9,11,13,15,17,-1,19,21,23,25,27,29,31,-1,-1,-1,-1,33,35,-1,37,39,-1,41,43,-1,-1,-1,-1,-1,-1,-1,-1,-1,-1,-1,-1,-1,-1,-1,-1],"loss_changes":[2.5994675E2,3.353775E0,1.4575064E2,2.0091095E0,1.1913216E0,6.53745E1,6.0584564E0,5.202942E-1,7.4584746E-1,0E0,1.6193583E0,3.1055359E1,4.0141296E-1,2.563282E0,4.4768105E0,7.887268E-1,1.6625925E0,0E0,0E0,0E0,0E0,1.879779E1,2.2746515E0,0E0,9.789362E-1,2.302845E0,0E0,2.7339752E0,9.0696764E-1,0E0,0E0,0E0,0E0,0E0,0E0,0E0,0E0,0E0,0E0,0E0,0E0,0E0,0E0,0E0,0E0],"parents":[2147483647,0,0,1,1,2,2,3,3,4,4,5,5,6,6,7,7,8,8,10,10,11,11,12,12,13,13,14,14,15,15,16,16,21,21,22,22,24,24,25,25,27,27,28,28],"right_children":[2,4,6,8,10,12,14,16,18,-1,20,22,24,26,28,30,32,-1,-1,-1,-1,34,36,-1,38,40,-1,42,44,-1,-1,-1,-1,-1,-1,-1,-1,-1,-1,-1,-1,-1,-1,-1,-1],"split_conditions":[-2.4886917E-1,3.3983982E-1,2.0357716E-1,1.488895E0,6.682261E-1,1.9772269E-1,-9.201669E-1,2.780716E0,-8.108317E-1,-2.5765446E-3,1.0814296E0,7.385562E-1,-7.5490713E-1,1.035272E0,-3.3538904E-2,-4.6119666E-1,-1.009184E0,5.90222E-3,-0E0,1.1614732E-2,-0E0,-4.3595096E-1,9.66893E-2,-0E0,1.015317E0,1.7025844E0,-0E0,-4.7790727E-1,1.6874613E0,1.5491985E-2,9.611807E-3,9.27792E-3,-7.2218524E-4,1.7585716E-3,-1.9805174E-2,9.192087E-3,-1.4053669E-3,3.854871E-3,1.647505E-2,1.4951929E-2,3.6035208E-3,3.1884317E-3,-5.1678806E-3,1.5260459E-2,-0E0],"split_indices":[5,6,0,0,6,2,2,2,2,0,6,3,3,0,2,6,5,0,0,0,0,2,0,0,6,5,0,2,6,0,0,0,0,0,0,0,0,0,0,0,0,0,0,0,0],"split_type":[0,0,0,0,0,0,0,0,0,0,0,0,0,0,0,0,0,0,0,0,0,0,0,0,0,0,0,0,0,0,0,0,0,0,0,0,0,0,0,0,0,0,0,0,0],"sum_hessian":[3.0737622E2,1.2229072E2,1.8508548E2,1.1730444E2,4.986278E0,1.3097084E2,5.4114643E1,1.1232819E2,4.976247E0,1.746747E0,3.239531E0,1.1950793E2,1.1462918E1,2.6427082E1,2.7687561E1,1.0834919E2,3.9790092E0,3.2351975E0,1.7410492E0,1.9928049E0,1.246726E0,1.12785706E2,6.722223E0,1.2462602E0,1.0216658E1,2.5178726E1,1.2483547E0,2.2953253E1,4.734309E0,8.7234276E1,2.111491E1,2.48509E0,1.4939191E0,4.492679E0,1.0829302E2,4.984756E0,1.737467E0,5.7333794E0,4.4832783E0,1.8190859E1,6.9878683E0,1.6470535E1,6.482717E0,3.4880476E0,1.2462616E0],"tree_param":{"num_deleted":"0","num_feature":"7","num_nodes":"45","size_leaf_vector":"1"}},{"base_weights":[-9.42552E-3,1.0758892E0,-7.608914E-1,1.161617E0,4.1500008E-1,-1.2821658E0,4.615474E-1,1.211379E0,-0E0,7.750959E-1,-4.313612E-1,-1.5693414E0,7.207769E-1,1.0945594E-1,7.233682E-1,-0E0,1.2325137E0,3.5560864E-3,-7.767236E-2,1.1307088E-2,-0E0,4.127327E-3,-1.3936563E-2,2.7645865E-1,-1.6955609E0,-0E0,1.2868492E-2,3.9117017E-1,-3.4583732E-1,1.0755911E-2,-1.3060123E-1,1.4596067E-2,4.362636E-3,-0E0,-3.6367616E-3,-5.8422796E-3,8.2356E-3,5.8865934E-3,-0E0,-1.9797279E-2,-0E0,-3.3980047E-3,4.6282792E-3,1.0464241E-2,-0E0,-0E0,-5.7671806E-3,-0E0,-6.0588107E-3],"categories":[],"categories_nodes":[],"categories_segments":[],"categories_sizes":[],"default_left":[0,0,0,0,0,0,0,0,0,0,0,0,0,0,0,0,0,0,0,0,0,0,0,0,0,0,0,0,0,0,0,0,0,0,0,0,0,0,0,0,0,0,0,0,0,0,0,0,0],"id":14,"left_children":[1,3,5,7,9,11,13,15,17,19,21,23,25,27,29,-1,31,-1,33,-1,35,-1,-1,37,39,41,-1,43,45,-1,47,-1,-1,-1,-1,-1,-1,-1,-1,-1,-1,-1,-1,-1,-1,-1,-1,-1,-1],"loss_changes":[2.5459601E2,5.2134094E0,1.19336365E2,5.425705E0,5.8235846E0,7.6860535E1,4.1680117E0,3.5715332E0,3.45723E-1,1.1007633E0,4.0675364E0,2.860907E1,4.695449E0,3.4974332E0,6.1972456E0,0E0,5.686493E-1,0E0,1.745421E-1,0E0,2.061462E0,0E0,0E0,9.7330934E-1,2.281433E0,8.37073E-1,0E0,3.3546433E0,5.970968E-1,0E0,7.2039443E-1,0E0,0E0,0E0,0E0,0E0,0E0,0E0,0E0,0E0,0E0,0E0,0E0,0E0,0E0,0E0,0E0,0E0,0E0],"parents":[2147483647,0,0,1,1,2,2,3,3,4,4,5,5,6,6,7,7,8,8,9,9,10,10,11,11,12,12,13,13,14,14,16,16,18,18,20,20,23,23,24,24,25,25,27,27,28,28,30,30],"right_children":[2,4,6,8,10,12,14,16,18,20,22,24,26,28,30,-1,32,-1,34,-1,36,-1,-1,38,40,42,-1,44,46,-1,48,-1,-1,-1,-1,-1,-1,-1,-1,-1,-1,-1,-1,-1,-1,-1,-1,-1,-1],"split_conditions":[-2.4886917E-1,-2.0293353E-1,2.0357716E-1,1.488895E0,-1.6515756E0,2.7128318E-1,5.243673E-1,-1.2842638E0,-8.108317E-1,1.8799789E0,-1.7527345E0,-6.1104037E-2,-5.507075E-1,4.4624996E-1,1.0500666E0,-0E0,2.260602E0,3.5560864E-3,6.438568E-1,1.1307088E-2,2.260602E0,4.127327E-3,-1.3936563E-2,5.8714736E-2,1.3673754E-1,7.0676833E-1,1.2868492E-2,-7.994025E-1,-1.1024555E0,1.0755911E-2,3.3729514E-1,1.4596067E-2,4.362636E-3,-0E0,-3.6367616E-3,-5.8422796E-3,8.2356E-3,5.8865934E-3,-0E0,-1.9797279E-2,-0E0,-3.3980047E-3,4.6282792E-3,1.0464241E-2,-0E0,-0E0,-5.7671806E-3,-0E0,-6.0588107E-3],"split_indices":[5,1,0,0,0,1,0,1,2,2,4,1,4,0,0,0,2,0,4,0,2,0,0,5,2,2,0,2,2,0,4,0,0,0,0,0,0,0,0,0,0,0,0,0,0,0,0,0,0],"split_type":[0,0,0,0,0,0,0,0,0,0,0,0,0,0,0,0,0,0,0,0,0,0,0,0,0,0,0,0,0,0,0,0,0,0,0,0,0,0,0,0,0,0,0,0,0,0,0,0,0],"sum_hessian":[3.1113574E2,1.2659444E2,1.8454129E2,1.1017275E2,1.6421684E1,1.299507E2,5.4590595E1,1.04946846E2,5.2259116E0,1.2432178E1,3.9895065E0,1.1424899E2,1.5701698E1,2.5424168E1,2.9166428E1,1.2415779E0,1.0370527E2,2.7359178E0,2.4899936E0,8.700819E0,3.731358E0,1.4955732E0,2.4939334E0,6.7259097E0,1.0752309E2,5.73457E0,9.967128E0,1.719188E1,8.232288E0,2.4423292E1,4.7431355E0,9.873925E1,4.966016E0,1.2456423E0,1.2443513E0,1.4953539E0,2.236004E0,5.236861E0,1.4890482E0,1.0627731E2,1.2457734E0,3.4926808E0,2.2418892E0,6.729458E0,1.0462421E1,2.2424057E0,5.9898825E0,2.4952276E0,2.2479079E0],"tree_param":{"num_deleted":"0","num_feature":"7","num_nodes":"49","size_leaf_vector":"1"}},{"base_weights":[-1.7542755E-2,1.0042897E0,-5.8864343E-1,1.2306856E0,4.3442273E-1,5.2059317E-1,-1.0473557E0,1.4482424E-2,4.7078062E-4,-3.4754094E-1,9.249389E-1,6.8696773E-1,-0E0,-1.5288417E0,7.313616E-1,8.5274583E-1,-1.0406976E0,2.382547E-1,1.1372744E0,7.88628E-1,-0E0,8.881943E-3,-2.3223366E-1,-1.6489414E0,2.1889222E-1,3.0209053E-1,1.0289245E0,1.2736242E-2,-0E0,1.2063369E-3,-1.5906146E-2,-1.5625266E-3,7.874109E-3,3.8704895E-3,1.5378528E-2,-0E0,1.0086992E-2,2.7430258E-3,-4.3111793E-3,-6.620807E-3,7.6222275E-3,-1.9753467E-2,7.2309314E-3,-1.871901E-3,8.264189E-3,7.155146E-3,-0E0,-0E0,1.3991338E-2],"categories":[],"categories_nodes":[],"categories_segments":[],"categories_sizes":[],"default_left":[0,0,0,0,0,0,0,0,0,0,0,0,0,0,0,0,0,0,0,0,0,0,0,0,0,0,0,0,0,0,0,0,0,0,0,0,0,0,0,0,0,0,0,0,0,0,0,0,0],"id":15,"left_children":[1,3,5,7,9,11,13,-1,-1,15,17,19,21,23,25,27,29,31,33,35,37,-1,39,41,43,45,47,-1,-1,-1,-1,-1,-1,-1,-1,-1,-1,-1,-1,-1,-1,-1,-1,-1,-1,-1,-1,-1,-1],"loss_changes":[1.7765512E2,1.1901337E1,1.0088011E2,5.496979E-1,1.3627257E1,5.2635345E0,1.2141394E2,0E0,0E0,1.1275946E1,1.499445E0,3.0407848E0,2.3782203E0,2.5007416E1,2.1890535E0,6.508615E-1,4.8196583E0,1.8205199E0,2.6224327E-1,2.659006E0,6.2755173E-1,0E0,3.7263489E0,1.5872803E1,2.0199645E0,1.2213391E0,3.8754387E0,0E0,0E0,0E0,0E0,0E0,0E0,0E0,0E0,0E0,0E0,0E0,0E0,0E0,0E0,0E0,0E0,0E0,0E0,0E0,0E0,0E0,0E0],"parents":[2147483647,0,0,1,1,2,2,3,3,4,4,5,5,6,6,9,9,10,10,11,11,12,12,13,13,14,14,15,15,16,16,17,17,18,18,19,19,20,20,22,22,23,23,24,24,25,25,26,26],"right_children":[2,4,6,8,10,12,14,-1,-1,16,18,20,22,24,26,28,30,32,34,36,38,-1,40,42,44,46,48,-1,-1,-1,-1,-1,-1,-1,-1,-1,-1,-1,-1,-1,-1,-1,-1,-1,-1,-1,-1,-1,-1],"split_conditions":[-3.6346653E-1,1.1672607E-1,-3.250665E-1,1.488895E0,2.7700967E-1,1.3403704E0,2.3559518E-1,1.4482424E-2,4.7078062E-4,1.21324226E-1,4.2142317E-1,1.0623611E0,2.625598E-1,1.987311E-1,-4.0173402E-1,5.311383E-1,-8.5787195E-1,6.8764764E-1,5.243673E-1,1.496416E-1,-7.917331E-1,8.881943E-3,1.2717807E0,9.420695E-1,1.6485478E-1,-1.3628535E0,-2.2429334E-1,1.2736242E-2,-0E0,1.2063369E-3,-1.5906146E-2,-1.5625266E-3,7.874109E-3,3.8704895E-3,1.5378528E-2,-0E0,1.0086992E-2,2.7430258E-3,-4.3111793E-3,-6.620807E-3,7.6222275E-3,-1.9753467E-2,7.2309314E-3,-1.871901E-3,8.264189E-3,7.155146E-3,-0E0,-0E0,1.3991338E-2],"split_indices":[6,3,2,0,0,6,2,0,0,0,3,0,0,4,4,2,6,4,0,0,2,0,4,3,3,4,6,0,0,0,0,0,0,0,0,0,0,0,0,0,0,0,0,0,0,0,0,0,0],"split_type":[0,0,0,0,0,0,0,0,0,0,0,0,0,0,0,0,0,0,0,0,0,0,0,0,0,0,0,0,0,0,0,0,0,0,0,0,0,0,0,0,0,0,0,0,0,0,0,0,0],"sum_hessian":[3.037329E2,1.08041214E2,1.956917E2,7.541019E1,3.2631023E1,5.6553307E1,1.3913838E2,7.317255E1,2.2376435E0,1.1834685E1,2.0796339E1,4.3325672E1,1.3227636E1,1.10041466E2,2.909692E1,3.7179723E0,8.116713E0,6.4380164E0,1.4358323E1,3.759194E1,5.73373E0,2.2462647E0,1.0981372E1,1.0356551E2,6.4759536E0,1.3946943E1,1.5149977E1,2.479555E0,1.2384175E0,1.2376517E0,6.879061E0,2.476161E0,3.9618554E0,4.209577E0,1.01487465E1,3.486787E0,3.4105152E1,3.7363293E0,1.9974006E0,8.985224E0,1.9961481E0,1.015739E2,1.9916122E0,2.7382958E0,3.7376578E0,5.971395E0,7.975548E0,1.738892E0,1.3411085E1],"tree_param":{"num_deleted":"0","num_feature":"7","num_nodes":"49","size_leaf_vector":"1"}},{"base_weights":[-3.6767933E-3,1.0531536E0,-8.0642945E-1,1.4334051E-2,7.240685E-1,-1.2871585E0,4.4519392E-1,8.6879486E-1,-3.0318975E-1,-1.5693926E0,3.6860064E-1,9.081142E-1,2.1926254E-1,9.1703135E-1,-0E0,2.9239126E-3,-8.616511E-1,9.550427E-2,-1.9255728E-2,-4.3755987E-1,6.185404E-1,-0E0,1.2382683E0,-7.1911055E-1,3.5087776E-1,-0E0,1.119447E-2,-0E0,-1.2004537E-2,-5.1005194E-3,1.0595672E-2,-0E0,-8.991772E-3,-4.254099E-4,9.873495E-3,4.8195133E-3,-7.5298245E-4,4.1183904E-3,1.7498653E-2,-1.0415768E-2,-0E0,8.591883E-3,-0E0],"categories":[],"categories_nodes":[],"categories_segments":[],"categories_sizes":[],"default_left":[0,0,0,0,0,0,0,0,0,0,0,0,0,0,0,0,0,0,0,0,0,0,0,0,0,0,0,0,0,0,0,0,0,0,0,0,0,0,0,0,0,0,0],"id":16,"left_children":[1,3,5,-1,7,9,11,13,15,17,19,21,23,25,-1,-1,27,29,-1,31,33,35,37,39,41,-1,-1,-1,-1,-1,-1,-1,-1,-1,-1,-1,-1,-1,-1,-1,-1,-1,-1],"loss_changes":[2.6844046E2,5.637985E0,1.099361E2,0E0,8.6549015E0,6.3006714E1,3.9073505E0,2.6250572E0,2.7123234E0,1.9683533E1,4.242951E0,3.1263952E0,4.2519026E0,1.3766022E0,0E0,0E0,5.6406498E-2,3.5163164E0,0E0,8.8133705E-1,3.3308086E0,5.2753806E-1,5.727768E-2,7.7349186E-2,4.290002E0,0E0,0E0,0E0,0E0,0E0,0E0,0E0,0E0,0E0,0E0,0E0,0E0,0E0,0E0,0E0,0E0,0E0,0E0],"parents":[2147483647,0,0,1,1,2,2,4,4,5,5,6,6,7,7,8,8,9,9,10,10,11,11,12,12,13,13,16,16,17,17,19,19,20,20,21,21,22,22,23,23,24,24],"right_children":[2,4,6,-1,8,10,12,14,16,18,20,22,24,26,-1,-1,28,30,-1,32,34,36,38,40,42,-1,-1,-1,-1,-1,-1,-1,-1,-1,-1,-1,-1,-1,-1,-1,-1,-1,-1],"split_conditions":[-1.668779E-1,-6.985598E-1,2.1609104E-1,1.4334051E-2,-2.9661494E-1,2.499237E-1,1.21324226E-1,1.5373335E0,-1.6515756E0,-6.1104037E-2,-3.1404403E-1,-5.507075E-1,1.408731E-1,-6.5949357E-1,-0E0,2.9239126E-3,-3.540191E-1,2.2957422E-1,-1.9255728E-2,3.3729514E-1,-9.7856954E-2,2.6258385E-1,1.3120446E-1,6.855293E-1,6.855293E-1,-0E0,1.119447E-2,-0E0,-1.2004537E-2,-5.1005194E-3,1.0595672E-2,-0E0,-8.991772E-3,-4.254099E-4,9.873495E-3,4.8195133E-3,-7.5298245E-4,4.1183904E-3,1.7498653E-2,-1.0415768E-2,-0E0,8.591883E-3,-0E0],"split_indices":[5,5,1,0,1,0,0,0,0,1,1,4,0,5,0,0,3,3,0,4,3,5,3,3,3,0,0,0,0,0,0,0,0,0,0,0,0,0,0,0,0,0,0],"split_type":[0,0,0,0,0,0,0,0,0,0,0,0,0,0,0,0,0,0,0,0,0,0,0,0,0,0,0,0,0,0,0,0,0,0,0,0,0,0,0,0,0,0,0],"sum_hessian":[3.1528854E2,1.354444E2,1.7984416E2,8.320746E1,5.223694E1,1.3052818E2,4.931598E1,4.677838E1,5.458558E0,1.12092384E2,1.8435799E1,1.3941932E1,3.5374046E1,4.5034786E1,1.7435942E0,1.9905441E0,3.4680142E0,5.480649E0,1.0661173E2,3.242332E0,1.5193466E1,4.7357154E0,9.206216E0,2.977162E0,3.2396885E1,3.2094738E0,4.1825314E1,1.2481974E0,2.2198167E0,2.7414076E0,2.7392414E0,1.2466509E0,1.995681E0,2.9930825E0,1.2200384E1,2.2431884E0,2.492527E0,3.4832895E0,5.7229266E0,1.7340995E0,1.2430625E0,1.4445583E1,1.7951302E1],"tree_param":{"num_deleted":"0","num_feature":"7","num_nodes":"43","size_leaf_vector":"1"}},{"base_weights":[-9.753915E-3,9.995496E-1,-7.165016E-1,1.3038851E0,7.7523714E-1,-1.4239285E0,7.103077E-1,1.6145324E-2,3.0253667E-1,-1.5862285E-3,8.145841E-1,-1.5373845E0,7.384854E-3,-0E0,7.7343506E-1,-1.3782647E-1,1.2414212E-2,1.113582E0,6.3130134E-1,2.5783458E-1,-1.66635E0,-4.5562977E-1,5.664723E-3,8.4851253E-1,3.381388E-3,-0E0,-3.6524758E-3,1.3658412E-2,-0E0,-3.8897383E-3,8.007225E-3,-0E0,1.049896E-2,-1.9539708E-2,-0E0,-1.0011239E-2,-0E0,1.4366254E-2,7.0794914E-3,-8.639102E-3,5.152226E-3],"categories":[],"categories_nodes":[],"categories_segments":[],"categories_sizes":[],"default_left":[0,0,0,0,0,0,0,0,0,0,0,0,0,0,0,0,0,0,0,0,0,0,0,0,0,0,0,0,0,0,0,0,0,0,0,0,0,0,0,0,0],"id":17,"left_children":[1,3,5,7,9,11,13,-1,15,-1,17,19,-1,21,23,25,-1,27,29,31,33,35,-1,37,39,-1,-1,-1,-1,-1,-1,-1,-1,-1,-1,-1,-1,-1,-1,-1,-1],"loss_changes":[2.2106354E2,5.77742E0,1.863118E2,2.608612E0,3.5542526E0,3.0463959E1,3.0067673E0,0E0,3.178769E0,0E0,1.775631E0,2.8972137E1,0E0,1.3060467E0,2.35392E0,1.743432E-1,0E0,1.1569424E0,3.5105247E0,1.498543E0,4.95813E0,9.3714285E-1,0E0,2.1598587E0,2.2289329E0,0E0,0E0,0E0,0E0,0E0,0E0,0E0,0E0,0E0,0E0,0E0,0E0,0E0,0E0,0E0,0E0],"parents":[2147483647,0,0,1,1,2,2,3,3,4,4,5,5,6,6,8,8,10,10,11,11,13,13,14,14,15,15,17,17,18,18,19,19,20,20,21,21,23,23,24,24],"right_children":[2,4,6,8,10,12,14,-1,16,-1,18,20,-1,22,24,26,-1,28,30,32,34,36,-1,38,40,-1,-1,-1,-1,-1,-1,-1,-1,-1,-1,-1,-1,-1,-1,-1,-1],"split_conditions":[-7.9606056E-2,-7.824093E-1,2.4521028E-1,2.260602E0,-7.6525825E-1,2.3559518E-1,3.075938E-1,1.6145324E-2,-8.979188E-1,-1.5862285E-3,-7.359735E-1,-5.041114E-1,7.384854E-3,4.5378643E-1,3.1689973E0,-1.4011942E0,1.2414212E-2,1.2019267E0,-7.199968E-1,6.3244396E-1,2.1451347E-1,-8.649185E-2,5.664723E-3,-8.5553825E-1,3.4796216E0,-0E0,-3.6524758E-3,1.3658412E-2,-0E0,-3.8897383E-3,8.007225E-3,-0E0,1.049896E-2,-1.9539708E-2,-0E0,-1.0011239E-2,-0E0,1.4366254E-2,7.0794914E-3,-8.639102E-3,5.152226E-3],"split_indices":[1,5,1,2,5,2,1,0,1,0,1,2,0,4,5,0,0,0,1,0,4,2,0,2,5,0,0,0,0,0,0,0,0,0,0,0,0,0,0,0,0],"split_type":[0,0,0,0,0,0,0,0,0,0,0,0,0,0,0,0,0,0,0,0,0,0,0,0,0,0,0,0,0,0,0,0,0,0,0,0,0,0,0,0,0],"sum_hessian":[3.0888654E2,1.2647981E2,1.8240672E2,5.0218773E1,7.626103E1,1.2243762E2,5.99691E1,4.477424E1,5.444534E0,1.97684E0,7.4284195E1,1.1670849E2,5.729131E0,4.475678E0,5.5493423E1,2.9732988E0,2.4712353E0,2.467248E1,4.9611717E1,7.2289677E0,1.0947952E2,2.7351391E0,1.7405387E0,4.9255726E1,6.237698E0,1.2388572E0,1.7344415E0,2.2690502E1,1.9819772E0,1.7299621E0,4.7881752E1,5.4859734E0,1.7429942E0,1.0823353E2,1.2459958E0,1.4906148E0,1.2445244E0,1.5675441E1,3.3580284E1,1.2494977E0,4.9882E0],"tree_param":{"num_deleted":"0","num_feature":"7","num_nodes":"41","size_leaf_vector":"1"}},{"base_weights":[-2.5157718E-2,1.0127563E0,-7.102355E-1,1.0347295E0,-5.2727497E-4,-1.1697369E0,6.0211015E-1,1.0728654E0,3.8411E-1,-1.4236315E0,4.5161462E-1,7.184483E-1,-0E0,1.44977765E-2,8.974865E-1,-2.319218E-3,1.3745872E-2,7.7143383E-1,-1.5310787E0,3.345082E-2,9.8461324E-1,-0E0,7.863189E-1,-1.7512919E-1,9.42602E-3,1.3822415E-2,8.018265E-3,-5.222098E-3,6.8690954E-3,1.1878296E-2,-0E0,-1.8846227E-2,2.7740984E-3,-1.428109E-3,8.208875E-3,-0E0,1.3150877E-2,2.2938405E-3,-6.133771E-4,1.2577031E-2,6.3287807E-3,-6.59167E-3,7.573576E-3],"categories":[],"categories_nodes":[],"categories_segments":[],"categories_sizes":[],"default_left":[0,0,0,0,0,0,0,0,0,0,0,0,0,0,0,0,0,0,0,0,0,0,0,0,0,0,0,0,0,0,0,0,0,0,0,0,0,0,0,0,0,0,0],"id":18,"left_children":[1,3,5,7,-1,9,11,13,15,17,19,21,23,-1,25,27,-1,29,31,33,35,37,39,41,-1,-1,-1,-1,-1,-1,-1,-1,-1,-1,-1,-1,-1,-1,-1,-1,-1,-1,-1],"loss_changes":[2.2026868E2,3.9260254E0,1.1414937E2,1.184555E0,0E0,5.8983658E1,3.0715885E0,5.0375366E-1,4.1535845E0,3.0301575E1,3.1201935E0,1.7801838E0,1.705528E0,0E0,1.2299347E0,1.6904181E0,0E0,7.7816653E-1,2.2032166E1,1.9974582E0,7.151871E-1,8.590174E-2,4.7105408E-1,2.7031016E0,0E0,0E0,0E0,0E0,0E0,0E0,0E0,0E0,0E0,0E0,0E0,0E0,0E0,0E0,0E0,0E0,0E0,0E0,0E0],"parents":[2147483647,0,0,1,1,2,2,3,3,5,5,6,6,7,7,8,8,9,9,10,10,11,11,12,12,14,14,15,15,17,17,18,18,19,19,20,20,21,21,22,22,23,23],"right_children":[2,4,6,8,-1,10,12,14,16,18,20,22,24,-1,26,28,-1,30,32,34,36,38,40,42,-1,-1,-1,-1,-1,-1,-1,-1,-1,-1,-1,-1,-1,-1,-1,-1,-1,-1,-1],"split_conditions":[-2.459632E-1,1.0814296E0,4.6104035E-1,8.367617E-1,-5.2727497E-4,2.6039627E-1,2.8974395E0,-8.300485E-2,8.199329E-1,-8.244539E-1,6.3494635E-1,5.896731E-1,1.2118044E0,1.44977765E-2,-1.089266E0,-6.870812E-1,1.3745872E-2,-6.336936E-2,2.3559518E-1,3.1639436E-1,-9.201669E-1,1.4961304E-1,6.682261E-1,-3.9564016E-1,9.42602E-3,1.3822415E-2,8.018265E-3,-5.222098E-3,6.8690954E-3,1.1878296E-2,-0E0,-1.8846227E-2,2.7740984E-3,-1.428109E-3,8.208875E-3,-0E0,1.3150877E-2,2.2938405E-3,-6.133771E-4,1.2577031E-2,6.3287807E-3,-6.59167E-3,7.573576E-3],"split_indices":[5,6,5,3,0,4,5,2,4,2,3,5,4,0,6,6,0,4,2,6,2,3,6,2,0,0,0,0,0,0,0,0,0,0,0,0,0,0,0,0,0,0,0],"split_type":[0,0,0,0,0,0,0,0,0,0,0,0,0,0,0,0,0,0,0,0,0,0,0,0,0,0,0,0,0,0,0,0,0,0,0,0,0,0,0,0,0,0,0],"sum_hessian":[3.0878314E2,1.2202987E2,1.8675327E2,1.2053464E2,1.4952313E0,1.3897148E2,4.778179E1,1.1189806E2,8.636574E0,1.2079079E2,1.8180693E1,3.9297516E1,8.484275E0,5.001175E1,6.1886314E1,5.4355426E0,3.201031E0,4.974377E0,1.1581641E2,1.1717697E1,6.462995E0,3.7303302E0,3.556719E1,6.988949E0,1.4953257E0,2.1681694E1,4.020462E1,4.2028365E0,1.2327057E0,3.2322857E0,1.7420917E0,1.10339035E2,5.477373E0,8.727217E0,2.990481E0,1.2424111E0,5.220584E0,1.237776E0,2.4925542E0,1.2677301E1,2.2889885E1,5.744923E0,1.244026E0],"tree_param":{"num_deleted":"0","num_feature":"7","num_nodes":"43","size_leaf_vector":"1"}},{"base_weights":[1.2859847E-2,1.0564581E0,-6.878722E-1,1.0834208E0,-6.640561E-4,6.5066236E-1,-1.228696E0,1.0937542E0,5.03917E-4,-1.1173498E-2,7.5328636E-1,-1.5246114E0,5.788979E-1,1.2914367E-2,3.985261E-1,1.0658129E-1,-6.1203125E-3,8.074153E-1,-2.9380135E-3,-1.6240426E0,-0E0,-2.9232306E-2,7.6338047E-1,-0E0,1.0072573E-2,-0E0,4.4063544E-3,-0E0,1.0406852E-2,-1.9023798E-2,-0E0,1.0412355E-2,-5.7842284E-3,1.1363358E-3,-8.261238E-3,-0E0,1.0410171E-2],"categories":[],"categories_nodes":[],"categories_segments":[],"categories_sizes":[],"default_left":[0,0,0,0,0,0,0,0,0,0,0,0,0,0,0,0,0,0,0,0,0,0,0,0,0,0,0,0,0,0,0,0,0,0,0,0,0],"id":19,"left_children":[1,3,5,7,-1,9,11,13,-1,15,17,19,21,-1,23,25,-1,27,-1,29,31,33,35,-1,-1,-1,-1,-1,-1,-1,-1,-1,-1,-1,-1,-1,-1],"loss_changes":[2.2645744E2,4.868698E0,1.3464014E2,9.208679E-2,0E0,4.3819275E0,7.229155E1,2.746582E-3,0E0,8.768065E-1,3.3031387E0,1.876535E1,2.8736172E0,0E0,1.5909444E0,3.810627E-1,0E0,3.4251404E0,0E0,2.5774536E0,3.9035506E0,1.0194414E0,1.137042E0,0E0,0E0,0E0,0E0,0E0,0E0,0E0,0E0,0E0,0E0,0E0,0E0,0E0,0E0],"parents":[2147483647,0,0,1,1,2,2,3,3,5,5,6,6,7,7,9,9,10,10,11,11,12,12,14,14,15,15,17,17,19,19,20,20,21,21,22,22],"right_children":[2,4,6,8,-1,10,12,14,-1,16,18,20,22,-1,24,26,-1,28,-1,30,32,34,36,-1,-1,-1,-1,-1,-1,-1,-1,-1,-1,-1,-1,-1,-1],"split_conditions":[-2.4886917E-1,1.0814296E0,-3.5129142E-1,1.571872E0,-6.640561E-4,-7.167501E-2,1.3673754E-1,-3.1742582E-1,5.03917E-4,-2.4386787E-1,4.302871E0,6.6345096E-1,1.616657E-2,1.2914367E-2,-3.2306352E-1,-4.1712162E-1,-6.1203125E-3,-2.2985543E-1,-2.9380135E-3,8.3901685E-1,5.7451684E-2,-1.0859638E-1,-1.1178305E0,-0E0,1.0072573E-2,-0E0,4.4063544E-3,-0E0,1.0406852E-2,-1.9023798E-2,-0E0,1.0412355E-2,-5.7842284E-3,1.1363358E-3,-8.261238E-3,-0E0,1.0410171E-2],"split_indices":[5,6,2,0,0,5,2,5,0,6,5,3,6,0,6,6,0,6,0,6,0,6,0,0,0,0,0,0,0,0,0,0,0,0,0,0,0],"split_type":[0,0,0,0,0,0,0,0,0,0,0,0,0,0,0,0,0,0,0,0,0,0,0,0,0,0,0,0,0,0,0,0,0,0,0,0,0],"sum_hessian":[3.0771368E2,1.24069954E2,1.8364372E2,1.22076416E2,1.9935377E0,5.224711E1,1.313966E2,1.19839455E2,2.2369666E0,5.727217E0,4.651989E1,1.1350731E2,1.78893E1,1.141519E2,5.6875505E0,3.479967E0,2.2472503E0,4.527095E1,1.248943E0,1.0706362E2,6.4436893E0,2.9805405E0,1.4908758E1,2.9653661E0,2.7221842E0,1.2427148E0,2.2372522E0,4.7245483E0,4.0546402E1,1.0531705E2,1.7465774E0,2.7338295E0,3.7098596E0,1.7393181E0,1.2412224E0,2.9814322E0,1.1927326E1],"tree_param":{"num_deleted":"0","num_feature":"7","num_nodes":"37","size_leaf_vector":"1"}},{"base_weights":[4.6398886E-3,9.982691E-1,-6.584806E-1,1.0245821E0,-5.435812E-4,-1.1199075E0,5.982151E-1,1.2018116E0,7.8938115E-1,-1.3891109E0,4.6835008E-1,8.7446225E-1,1.5019019E-1,1.4196105E-2,1.262591E-4,-0E0,8.44569E-1,-1.5231113E0,7.069173E-1,-5.1327772E-2,8.66031E-1,1.087479E0,2.2406437E-1,-1.2162929E-1,8.988656E-1,7.427229E-4,-3.4862035E-3,1.0520834E-2,-0E0,-1.8303681E-2,2.185646E-3,1.035379E-2,-0E0,-1.3645073E-2,3.3880114E-3,-0E0,1.3339881E-2,-0E0,1.4187479E-2,-4.023574E-3,9.892066E-3,-5.3514238E-3,8.287227E-3,1.3506774E-2,-0E0],"categories":[],"categories_nodes":[],"categories_segments":[],"categories_sizes":[],"default_left":[0,0,0,0,0,0,0,0,0,0,0,0,0,0,0,0,0,0,0,0,0,0,0,0,0,0,0,0,0,0,0,0,0,0,0,0,0,0,0,0,0,0,0,0,0],"id":20,"left_children":[1,3,5,7,-1,9,11,13,15,17,19,21,23,-1,-1,25,27,29,31,33,35,37,39,41,43,-1,-1,-1,-1,-1,-1,-1,-1,-1,-1,-1,-1,-1,-1,-1,-1,-1,-1,-1,-1],"loss_changes":[2.0078207E2,4.4261703E0,1.0645021E2,2.2493057E0,0E0,5.8656387E1,4.856077E0,6.6210175E-1,2.9727402E0,3.3980103E1,4.8893795E0,2.4002914E0,5.143385E0,0E0,0E0,2.3026177E-1,3.0115433E0,1.2757141E1,8.951032E-1,4.258266E0,2.745304E0,3.481863E0,4.0499682E0,4.237003E0,1.3372765E0,0E0,0E0,0E0,0E0,0E0,0E0,0E0,0E0,0E0,0E0,0E0,0E0,0E0,0E0,0E0,0E0,0E0,0E0,0E0,0E0],"parents":[2147483647,0,0,1,1,2,2,3,3,5,5,6,6,7,7,8,8,9,9,10,10,11,11,12,12,15,15,16,16,17,17,18,18,19,19,20,20,21,21,22,22,23,23,24,24],"right_children":[2,4,6,8,-1,10,12,14,16,18,20,22,24,-1,-1,26,28,30,32,34,36,38,40,42,44,-1,-1,-1,-1,-1,-1,-1,-1,-1,-1,-1,-1,-1,-1,-1,-1,-1,-1,-1,-1],"split_conditions":[-2.4886917E-1,1.0814296E0,4.6104035E-1,-7.824093E-1,-5.435812E-4,2.499237E-1,1.3948187E0,3.2352912E0,-8.633813E-1,2.3559518E-1,-1.6919954E-1,-2.9994443E-1,-1.9472285E-1,1.4196105E-2,1.262591E-4,-6.6902196E-1,1.488895E0,8.367617E-1,-9.554232E-3,4.676732E-1,-9.7856954E-2,-1.2185792E0,1.7890611E-1,1.8687618E0,1.3875929E-1,7.427229E-4,-3.4862035E-3,1.0520834E-2,-0E0,-1.8303681E-2,2.185646E-3,1.035379E-2,-0E0,-1.3645073E-2,3.3880114E-3,-0E0,1.3339881E-2,-0E0,1.4187479E-2,-4.023574E-3,9.892066E-3,-5.3514238E-3,8.287227E-3,1.3506774E-2,-0E0],"split_indices":[5,6,5,5,0,0,5,2,6,2,6,2,2,0,0,5,0,3,0,0,3,2,2,3,0,0,0,0,0,0,0,0,0,0,0,0,0,0,0,0,0,0,0,0,0],"split_type":[0,0,0,0,0,0,0,0,0,0,0,0,0,0,0,0,0,0,0,0,0,0,0,0,0,0,0,0,0,0,0,0,0,0,0,0,0,0,0,0,0,0,0,0,0],"sum_hessian":[3.0275217E2,1.2166598E2,1.810862E2,1.196713E2,1.9946699E0,1.3312054E2,4.796565E1,6.402251E1,5.5648796E1,1.1446894E2,1.8651611E1,2.7800346E1,2.0165302E1,6.1793186E1,2.229321E0,2.9580631E0,5.2690735E1,1.0824521E2,6.223732E0,7.212576E0,1.1439035E1,1.9363659E1,8.436687E0,1.4206431E1,5.958871E0,1.2285928E0,1.7294705E0,4.8965244E1,3.7254903E0,1.0526038E2,2.9848258E0,4.728503E0,1.4952288E0,1.9917779E0,5.220798E0,3.2382011E0,8.200834E0,1.9833529E0,1.7380306E1,3.7228794E0,4.7138085E0,1.1215524E1,2.990908E0,4.2190027E0,1.7398679E0],"tree_param":{"num_deleted":"0","num_feature":"7","num_nodes":"45","size_leaf_vector":"1"}},{"base_weights":[1.5165804E-2,9.854322E-1,-6.7373455E-1,1.0319177E0,-0E0,-1.3638489E0,6.7877114E-1,1.1839564E0,7.227806E-1,3.7151822E-3,-4.291338E-1,-1.491908E0,6.794338E-1,7.879906E-1,1.0716521E-1,1.2118648E0,1.01126E-1,1.0484674E0,2.764877E-1,-8.7025E-3,-0E0,7.996793E-3,-1.5662308E0,-0E0,9.375116E-1,8.3931863E-1,-0E0,-0E0,1.043825E-2,1.4267903E-2,1.308106E-3,-0E0,5.2802344E-3,-0E0,1.29384E-2,-8.000096E-3,7.058769E-3,-0E0,-1.8267816E-2,1.2919874E-2,-0E0,1.0221472E-2,-0E0,-3.129622E-3,7.295871E-3,4.2300723E-3,-5.3313505E-3],"categories":[],"categories_nodes":[],"categories_segments":[],"categories_sizes":[],"default_left":[0,0,0,0,0,0,0,0,0,0,0,0,0,0,0,0,0,0,0,0,0,0,0,0,0,0,0,0,0,0,0,0,0,0,0,0,0,0,0,0,0,0,0,0,0,0,0],"id":21,"left_children":[1,3,5,7,9,11,13,15,17,-1,19,21,23,25,27,29,31,33,35,-1,-1,-1,37,-1,39,41,43,45,-1,-1,-1,-1,-1,-1,-1,-1,-1,-1,-1,-1,-1,-1,-1,-1,-1,-1,-1],"loss_changes":[2.0260612E2,6.805748E0,1.6598364E2,3.0991669E0,9.5634997E-1,3.232933E1,2.7178135E0,8.9424133E-1,4.8248596E0,0E0,8.0715936E-1,1.9753967E1,1.8002286E0,1.5893574E0,1.8650594E0,2.7937317E-1,4.7301805E-1,1.1724072E0,6.9956346E0,0E0,0E0,0E0,7.5772095E-1,0E0,5.449004E-1,1.8784351E0,9.9485046E-1,1.9268146E0,0E0,0E0,0E0,0E0,0E0,0E0,0E0,0E0,0E0,0E0,0E0,0E0,0E0,0E0,0E0,0E0,0E0,0E0,0E0],"parents":[2147483647,0,0,1,1,2,2,3,3,4,4,5,5,6,6,7,7,8,8,10,10,11,11,12,12,13,13,14,14,15,15,16,16,17,17,18,18,22,22,24,24,25,25,26,26,27,27],"right_children":[2,4,6,8,10,12,14,16,18,-1,20,22,24,26,28,30,32,34,36,-1,-1,-1,38,-1,40,42,44,46,-1,-1,-1,-1,-1,-1,-1,-1,-1,-1,-1,-1,-1,-1,-1,-1,-1,-1,-1],"split_conditions":[-7.9606056E-2,7.1908765E-2,2.4521028E-1,-4.997623E-1,-2.6005397E-2,2.625598E-1,2.1722867E0,1.488895E0,4.8268107E-1,3.7151822E-3,-2.2930418E-1,-7.478783E-1,-4.3893013E-2,8.6646044E-1,1.8687618E0,1.4392233E0,-2.992812E-1,-1.0940254E0,-4.0610287E-1,-8.7025E-3,-0E0,7.996793E-3,-4.8505738E-1,-0E0,1.4891164E0,2.3186424E0,7.738222E-1,2.1150503E-1,1.043825E-2,1.4267903E-2,1.308106E-3,-0E0,5.2802344E-3,-0E0,1.29384E-2,-8.000096E-3,7.058769E-3,-0E0,-1.8267816E-2,1.2919874E-2,-0E0,1.0221472E-2,-0E0,-3.129622E-3,7.295871E-3,4.2300723E-3,-5.3313505E-3],"split_indices":[1,6,1,6,0,0,6,0,4,0,3,0,1,0,3,3,3,4,6,0,0,0,3,0,3,3,1,0,0,0,0,0,0,0,0,0,0,0,0,0,0,0,0,0,0,0,0],"split_type":[0,0,0,0,0,0,0,0,0,0,0,0,0,0,0,0,0,0,0,0,0,0,0,0,0,0,0,0,0,0,0,0,0,0,0,0,0,0,0,0,0,0,0,0,0,0,0],"sum_hessian":[3.0119547E2,1.2556318E2,1.756323E2,1.2083344E2,4.729736E0,1.1680326E2,5.8829037E1,7.736296E1,4.347048E1,1.489394E0,3.2403421E0,1.1057974E2,6.2235107E0,4.7622776E1,1.1206262E1,7.4391335E1,2.9716268E0,2.32128E1,2.0257683E1,1.9962546E0,1.2440875E0,2.9797568E0,1.0759999E2,1.2469043E0,4.976607E0,4.4147358E1,3.4754174E0,9.4649935E0,1.7412676E0,7.192693E1,2.4643996E0,1.23779E0,1.7338369E0,1.9709474E0,2.1241852E1,4.190912E0,1.606677E1,1.496184E0,1.06103806E2,3.7303581E0,1.2462485E0,4.215631E1,1.9910458E0,2.23508E0,1.2403374E0,4.222326E0,5.242668E0],"tree_param":{"num_deleted":"0","num_feature":"7","num_nodes":"47","size_leaf_vector":"1"}},{"base_weights":[-0E0,9.78347E-1,-6.078176E-1,1.033577E0,-0E0,4.8769405E-1,-1.1279409E0,1.2042715E-2,-0E0,1.501762E-1,-5.750104E-3,-2.079062E-1,5.77972E-1,-1.4379258E0,7.265168E-1,-0E0,5.6463364E-3,2.2508656E-3,-7.107451E-1,6.664173E-1,-0E0,-1.5510181E0,9.162979E-2,-0E0,8.7019825E-1,-1.2669459E-2,-0E0,1.1374459E-2,3.705727E-3,-3.3378704E-3,7.8022783E-3,-1.8463816E-2,-0E0,3.6024181E-3,-6.258398E-4,-0E0,1.1449225E-2],"categories":[],"categories_nodes":[],"categories_segments":[],"categories_sizes":[],"default_left":[0,0,0,0,0,0,0,0,0,0,0,0,0,0,0,0,0,0,0,0,0,0,0,0,0,0,0,0,0,0,0,0,0,0,0,0,0],"id":22,"left_children":[1,3,5,7,9,11,13,-1,-1,15,-1,17,19,21,23,-1,-1,-1,25,27,29,31,33,-1,35,-1,-1,-1,-1,-1,-1,-1,-1,-1,-1,-1,-1],"loss_changes":[1.7591357E2,6.4971237E0,1.05001236E2,8.9645386E-2,6.578792E-1,4.152623E0,7.309302E1,0E0,0E0,6.5121794E-1,0E0,1.8390017E0,2.9917164E0,2.0217575E1,2.2102804E0,0E0,0E0,0E0,9.536836E-1,3.5485516E0,1.3897971E0,5.5405273E0,5.202721E-1,0E0,2.2080755E0,0E0,0E0,0E0,0E0,0E0,0E0,0E0,0E0,0E0,0E0,0E0,0E0],"parents":[2147483647,0,0,1,1,2,2,3,3,4,4,5,5,6,6,9,9,11,11,12,12,13,13,14,14,18,18,19,19,20,20,21,21,22,22,24,24],"right_children":[2,4,6,8,10,12,14,-1,-1,16,-1,18,20,22,24,-1,-1,-1,26,28,30,32,34,-1,36,-1,-1,-1,-1,-1,-1,-1,-1,-1,-1,-1,-1],"split_conditions":[-3.1742582E-1,6.2238604E-2,-3.250665E-1,1.571872E0,-1.7818357E-1,-3.3323675E-1,1.9772269E-1,1.2042715E-2,-0E0,-1.9943542E0,-5.750104E-3,-5.603655E-1,2.731646E0,5.55371E-1,-1.1178305E0,-0E0,5.6463364E-3,2.2508656E-3,-6.492456E-2,-9.201669E-1,1.0855743E0,1.987311E-1,4.0439948E-1,-0E0,-1.8539678E-1,-1.2669459E-2,-0E0,1.1374459E-2,3.705727E-3,-3.3378704E-3,7.8022783E-3,-1.8463816E-2,-0E0,3.6024181E-3,-6.258398E-4,-0E0,1.1449225E-2],"split_indices":[5,6,2,0,0,6,2,0,0,0,0,6,5,5,0,0,0,0,5,2,4,4,0,0,5,0,0,0,0,0,0,0,0,0,0,0,0],"split_type":[0,0,0,0,0,0,0,0,0,0,0,0,0,0,0,0,0,0,0,0,0,0,0,0,0,0,0,0,0,0,0,0,0,0,0,0,0],"sum_hessian":[2.943546E2,1.12665215E2,1.8168939E2,1.0695349E2,5.7117224E0,5.785651E1,1.23832886E2,1.0546628E2,1.4872156E0,4.2168794E0,1.4948431E0,5.2040153E0,5.2652493E1,1.06720566E2,1.7112324E1,1.7341552E0,2.4827242E0,1.9755712E0,3.228444E0,4.6162853E1,6.48964E0,1.0000243E2,6.718132E0,2.482741E0,1.4629582E1,1.7390382E0,1.4894059E0,2.182041E1,2.4342443E1,5.243008E0,1.2466321E0,9.6537E1,3.4654315E0,5.2231946E0,1.4949373E0,1.2332159E0,1.3396366E1],"tree_param":{"num_deleted":"0","num_feature":"7","num_nodes":"37","size_leaf_vector":"1"}},{"base_weights":[3.724954E-2,9.97158E-1,-6.7362267E-1,1.034796E0,-0E0,-1.3792605E0,6.2742543E-1,1.0669333E0,7.4074306E-2,4.2540357E-3,-4.053216E-3,-1.472575E0,4.066075E-1,1.0434922E0,4.1450986E-1,1.2440976E-2,-0E0,-0E0,3.1020236E-1,2.7572924E-1,-1.5500851E0,1.0505298E-2,-0E0,-0E0,1.1071216E0,-5.558279E-1,5.4799575E-1,8.71102E-3,-0E0,4.9791764E-3,-0E0,-0E0,-1.8180113E-2,9.015467E-4,-5.8369996E-4,-0E0,1.3539579E-2,-0E0,-1.1695475E-2,-7.2892006E-5,7.0939274E-3],"categories":[],"categories_nodes":[],"categories_segments":[],"categories_sizes":[],"default_left":[0,0,0,0,0,0,0,0,0,0,0,0,0,0,0,0,0,0,0,0,0,0,0,0,0,0,0,0,0,0,0,0,0,0,0,0,0,0,0,0,0],"id":23,"left_children":[1,3,5,7,9,11,13,15,17,-1,-1,19,21,23,25,-1,-1,-1,27,29,31,-1,33,-1,35,37,39,-1,-1,-1,-1,-1,-1,-1,-1,-1,-1,-1,-1,-1,-1],"loss_changes":[2.0950049E2,4.958893E0,1.6252902E2,2.645935E0,7.9342306E-1,2.0634048E1,3.6246357E0,8.229675E-1,3.7016037E-1,0E0,0E0,1.6489792E1,1.0881425E0,1.0597591E0,5.865207E0,0E0,0E0,0E0,8.461082E-1,9.671211E-2,2.8525238E0,0E0,2.0547938E-2,0E0,8.320732E-1,1.8318243E0,2.0770435E0,0E0,0E0,0E0,0E0,0E0,0E0,0E0,0E0,0E0,0E0,0E0,0E0,0E0,0E0],"parents":[2147483647,0,0,1,1,2,2,3,3,4,4,5,5,6,6,7,7,8,8,11,11,12,12,13,13,14,14,18,18,19,19,20,20,22,22,24,24,25,25,26,26],"right_children":[2,4,6,8,10,12,14,16,18,-1,-1,20,22,24,26,-1,-1,-1,28,30,32,-1,34,-1,36,38,40,-1,-1,-1,-1,-1,-1,-1,-1,-1,-1,-1,-1,-1,-1],"split_conditions":[-7.9606056E-2,1.0076004E-1,2.4521028E-1,1.488895E0,1.5805665E-1,2.625598E-1,2.4728747E-2,3.2847662E0,1.5373335E0,4.2540357E-3,-4.053216E-3,-8.2708764E-1,3.9041728E-1,-2.8773406E0,1.3120446E-1,1.2440976E-2,-0E0,-0E0,-3.1089136E-1,-2.8548703E0,-4.8505738E-1,1.0505298E-2,6.2238604E-2,-0E0,4.0490627E-1,-2.8746715E0,-2.5955684E-2,8.71102E-3,-0E0,4.9791764E-3,-0E0,-0E0,-1.8180113E-2,9.015467E-4,-5.8369996E-4,-0E0,1.3539579E-2,-0E0,-1.1695475E-2,-7.2892006E-5,7.0939274E-3],"split_indices":[1,6,1,0,0,0,3,3,0,0,0,0,0,0,3,0,0,0,3,0,3,0,6,0,1,0,6,0,0,0,0,0,0,0,0,0,0,0,0,0,0],"split_type":[0,0,0,0,0,0,0,0,0,0,0,0,0,0,0,0,0,0,0,0,0,0,0,0,0,0,0,0,0,0,0,0,0,0,0,0,0,0,0,0,0],"sum_hessian":[3.0509814E2,1.3031616E2,1.7478198E2,1.25588524E2,4.727638E0,1.1381593E2,6.096605E1,1.20390076E2,5.1984468E0,2.234095E0,2.493543E0,1.0884197E2,4.9739575E0,1.8023003E1,4.2943047E1,1.1915126E2,1.2388159E0,1.7311268E0,3.4673202E0,3.968174E0,1.048738E2,1.7427235E0,3.231234E0,1.2275534E0,1.6795448E1,3.9684176E0,3.897463E1,1.4846915E0,1.9826287E0,1.727017E0,2.2411568E0,1.7461653E0,1.0312763E2,1.7394457E0,1.4917884E0,1.2409031E0,1.5554546E1,1.4779799E0,2.490438E0,2.484673E0,3.6489956E1],"tree_param":{"num_deleted":"0","num_feature":"7","num_nodes":"41","size_leaf_vector":"1"}},{"base_weights":[2.9905224E-2,9.466796E-1,-6.442957E-1,1.0060658E0,-1.474911E-1,-1.3714695E0,6.199734E-1,1.0404875E0,-0E0,1.5468304E-3,-4.346082E-1,-1.4940237E0,4.3200472E-1,-0E0,6.9280016E-1,1.3982769E-2,7.6949114E-1,4.6261683E-1,-6.4526545E-3,-1.0644202E-2,-0E0,2.0589273E-2,-1.8075805E-2,1.2247417E-2,-0E0,-1.1347082E-2,7.8344715E-1,9.860912E-3,4.4549042E-1,3.9365077E-3,1.2374632E-2,-0E0,8.801471E-3,4.0391665E-3,-5.199245E-3,5.440144E-3,-3.42571E-5,-5.6586186E-3,3.5429555E-3,-0E0,1.1038148E-2,-2.4847523E-3,7.673652E-3],"categories":[],"categories_nodes":[],"categories_segments":[],"categories_sizes":[],"default_left":[0,0,0,0,0,0,0,0,0,0,0,0,0,0,0,0,0,0,0,0,0,0,0,0,0,0,0,0,0,0,0,0,0,0,0,0,0,0,0,0,0,0,0],"id":24,"left_children":[1,3,5,7,9,11,13,15,17,-1,19,21,23,25,27,-1,29,31,-1,-1,33,35,-1,-1,37,-1,39,-1,41,-1,-1,-1,-1,-1,-1,-1,-1,-1,-1,-1,-1,-1,-1],"loss_changes":[1.9009125E2,9.503723E0,1.6346188E2,3.714714E0,8.779048E-1,2.6477966E1,2.7134895E0,2.7500916E0,1.5278252E0,0E0,8.9210224E-1,1.2705017E1,1.9721462E0,6.5516973E0,6.2491417E-1,0E0,4.7673416E0,4.3421072E-1,0E0,0E0,7.170334E-1,5.406877E-1,0E0,0E0,8.5294783E-1,0E0,3.3664918E-1,0E0,4.3893323E0,0E0,0E0,0E0,0E0,0E0,0E0,0E0,0E0,0E0,0E0,0E0,0E0,0E0,0E0],"parents":[2147483647,0,0,1,1,2,2,3,3,4,4,5,5,6,6,7,7,8,8,10,10,11,11,12,12,13,13,14,14,16,16,17,17,20,20,21,21,24,24,26,26,28,28],"right_children":[2,4,6,8,10,12,14,16,18,-1,20,22,24,26,28,-1,30,32,-1,-1,34,36,-1,-1,38,-1,40,-1,42,-1,-1,-1,-1,-1,-1,-1,-1,-1,-1,-1,-1,-1,-1],"split_conditions":[-7.9606056E-2,7.1908765E-2,2.1609104E-1,1.488895E0,-1.7818357E-1,2.625598E-1,3.075938E-1,-5.9809414E-4,6.438568E-1,1.5468304E-3,4.3329316E-1,-3.5968393E-1,3.9041728E-1,-1.6746372E-2,2.7337244E-2,1.3982769E-2,3.7068036E-1,2.791139E-1,-6.4526545E-3,-1.0644202E-2,8.80984E-1,-7.478783E-1,-1.8075805E-2,1.2247417E-2,5.1394176E-1,-1.1347082E-2,3.5502398E-1,9.860912E-3,2.791139E-1,3.9365077E-3,1.2374632E-2,-0E0,8.801471E-3,4.0391665E-3,-5.199245E-3,5.440144E-3,-3.42571E-5,-5.6586186E-3,3.5429555E-3,-0E0,1.1038148E-2,-2.4847523E-3,7.673652E-3],"split_indices":[1,6,1,0,0,0,1,3,4,0,0,3,0,6,4,0,3,4,0,0,0,0,0,0,0,0,4,0,4,0,0,0,0,0,0,0,0,0,0,0,0,0,0],"split_type":[0,0,0,0,0,0,0,0,0,0,0,0,0,0,0,0,0,0,0,0,0,0,0,0,0,0,0,0,0,0,0,0,0,0,0,0,0,0,0,0,0,0,0],"sum_hessian":[3.0560883E2,1.3004323E2,1.7556558E2,1.243127E2,5.7305303E0,1.1194618E2,6.36194E1,1.19608246E2,4.704456E0,1.2424563E0,4.488074E0,1.05482864E2,6.463318E0,7.1616096E0,5.645779E1,6.9843636E1,4.9764603E1,3.2180507E0,1.4864051E0,1.497383E0,2.990691E0,3.941484E0,1.0154138E2,2.2371876E0,4.2261305E0,2.943007E0,4.2186027E0,3.0657162E1,2.5800629E1,2.255885E1,2.7205755E1,1.7307194E0,1.4873313E0,1.4921604E0,1.4985306E0,1.7360793E0,2.2054045E0,1.4952252E0,2.730905E0,1.2396752E0,2.9789279E0,5.210953E0,2.0589676E1],"tree_param":{"num_deleted":"0","num_feature":"7","num_nodes":"43","size_leaf_vector":"1"}},{"base_weights":[4.7912594E-2,1.0908495E0,-6.573865E-1,1.1287175E0,2.5116086E-1,-1.1309142E0,5.1144487E-1,1.158108E0,2.7771171E-2,8.291743E-3,-1.8992677E-2,-1.320824E0,9.01666E-1,5.7619214E-1,-6.2415354E-2,1.3578954E-2,-0E0,6.608478E-3,-1.5354635E-3,-3.774878E-3,-0E0,-1.4613652E0,1.7232665E-1,-0E0,1.5960407E-2,3.381824E-1,9.2935777E-1,-0E0,-5.477162E-3,-0E0,-1.7891727E-2,-1.3413739E-4,9.688539E-3,-5.69035E-3,2.960346E-3,6.82217E-3,-4.1461354E-3,-0E0,1.1367571E-2],"categories":[],"categories_nodes":[],"categories_segments":[],"categories_sizes":[],"default_left":[0,0,0,0,0,0,0,0,0,0,0,0,0,0,0,0,0,0,0,0,0,0,0,0,0,0,0,0,0,0,0,0,0,0,0,0,0,0,0],"id":25,"left_children":[1,3,5,7,9,11,13,15,17,-1,19,21,23,25,27,-1,-1,-1,-1,-1,-1,29,31,33,-1,35,37,-1,-1,-1,-1,-1,-1,-1,-1,-1,-1,-1,-1],"loss_changes":[2.2107501E2,2.2153168E0,9.9779724E1,2.4519653E0,1.6684986E0,5.0622726E1,2.4700975E0,1.7178497E0,9.203817E-1,0E0,2.592137E-1,2.6218887E1,5.2350283E0,2.4621887E0,4.7962427E-1,0E0,0E0,0E0,0E0,0E0,0E0,1.4767502E1,2.1118593E0,7.1235174E-1,0E0,5.908342E0,5.455122E-1,0E0,0E0,0E0,0E0,0E0,0E0,0E0,0E0,0E0,0E0,0E0,0E0],"parents":[2147483647,0,0,1,1,2,2,3,3,4,4,5,5,6,6,7,7,8,8,10,10,11,11,12,12,13,13,14,14,21,21,22,22,23,23,25,25,26,26],"right_children":[2,4,6,8,10,12,14,16,18,-1,20,22,24,26,28,-1,-1,-1,-1,-1,-1,30,32,34,-1,36,38,-1,-1,-1,-1,-1,-1,-1,-1,-1,-1,-1,-1],"split_conditions":[-2.5822583E-1,2.656186E0,2.499237E-1,-3.1742582E-1,-1.009184E0,2.9945108E-1,1.0623611E0,1.571872E0,3.2814884E-1,8.291743E-3,3.6471188E0,1.3673754E-1,2.2957422E-1,6.724251E-1,1.1663507E-2,1.3578954E-2,-0E0,6.608478E-3,-1.5354635E-3,-3.774878E-3,-0E0,-4.0646133E-1,8.615604E-1,5.651376E-1,1.5960407E-2,1.5224985E0,-1.0690718E-1,-0E0,-5.477162E-3,-0E0,-1.7891727E-2,-1.3413739E-4,9.688539E-3,-5.69035E-3,2.960346E-3,6.82217E-3,-4.1461354E-3,-0E0,1.1367571E-2],"split_indices":[5,2,0,5,5,4,0,0,3,0,2,2,3,0,5,0,0,0,0,0,0,2,2,4,0,5,3,0,0,0,0,0,0,0,0,0,0,0,0],"split_type":[0,0,0,0,0,0,0,0,0,0,0,0,0,0,0,0,0,0,0,0,0,0,0,0,0,0,0,0,0,0,0,0,0,0,0,0,0,0,0],"sum_hessian":[2.9851038E2,1.2087148E2,1.776389E2,1.1422409E2,6.647393E0,1.270771E2,5.0561806E1,1.1028969E2,3.9344015E0,3.4308815E0,3.2165117E0,1.16920074E2,1.0157026E1,4.7075657E1,3.4861493E0,1.08548004E2,1.7416804E0,1.9687486E0,1.965653E0,1.7300674E0,1.4864445E0,1.07517944E2,9.402126E0,3.4818633E0,6.6751637E0,3.0735682E1,1.6339975E1,1.9910954E0,1.4950538E0,5.4662147E0,1.02051735E2,6.6823015E0,2.719825E0,1.4943849E0,1.9874784E0,2.3766378E1,6.9693036E0,1.2405548E0,1.5099421E1],"tree_param":{"num_deleted":"0","num_feature":"7","num_nodes":"39","size_leaf_vector":"1"}},{"base_weights":[7.095056E-2,9.936517E-1,-5.6691235E-1,1.5504812E-2,8.506878E-1,5.451172E-1,-1.0761758E0,1.5903534E-1,9.621686E-1,-1.7868379E-1,6.782061E-1,-1.4482677E0,4.335187E-1,9.5620025E-3,-1.668044E-1,9.9686986E-1,-0E0,-5.783023E-1,5.268669E-3,8.8286525E-1,1.09889455E-1,-1.5352122E0,2.126985E-1,-0E0,1.0996479E-2,9.086256E-4,-5.343646E-3,1.1817246E-2,-0E0,-4.1694273E-3,6.8137264E-3,-0E0,-9.068987E-3,5.5673257E-3,1.4654269E-2,5.334426E-3,-5.7673734E-3,-0E0,-1.7928107E-2,-0E0,8.926877E-3,-2.848288E-3,1.1887647E-2],"categories":[],"categories_nodes":[],"categories_segments":[],"categories_sizes":[],"default_left":[0,0,0,0,0,0,0,0,0,0,0,0,0,0,0,0,0,0,0,0,0,0,0,0,0,0,0,0,0,0,0,0,0,0,0,0,0,0,0,0,0,0,0],"id":26,"left_children":[1,3,5,-1,7,9,11,13,15,17,19,21,23,-1,25,27,29,31,-1,33,35,37,39,41,-1,-1,-1,-1,-1,-1,-1,-1,-1,-1,-1,-1,-1,-1,-1,-1,-1,-1,-1],"loss_changes":[1.7670045E2,2.9860916E0,1.0089909E2,0E0,5.749481E0,5.9332047E0,6.999553E1,4.017621E0,2.308197E0,2.3259618E0,4.4768734E0,1.5849701E1,5.274351E0,0E0,1.1168981E0,2.4223785E0,9.9292696E-1,9.730022E-1,0E0,2.951542E0,3.3101745E0,1.3116913E0,1.0913213E0,3.8236275E0,0E0,0E0,0E0,0E0,0E0,0E0,0E0,0E0,0E0,0E0,0E0,0E0,0E0,0E0,0E0,0E0,0E0,0E0,0E0],"parents":[2147483647,0,0,1,1,2,2,4,4,5,5,6,6,7,7,8,8,9,9,10,10,11,11,12,12,14,14,15,15,16,16,17,17,19,19,20,20,21,21,22,22,23,23],"right_children":[2,4,6,-1,8,10,12,14,16,18,20,22,24,-1,26,28,30,32,-1,34,36,38,40,42,-1,-1,-1,-1,-1,-1,-1,-1,-1,-1,-1,-1,-1,-1,-1,-1,-1,-1,-1],"split_conditions":[-2.4886917E-1,-9.3935084E-1,-3.5129142E-1,1.5504812E-2,-6.570954E-1,-6.492456E-2,3.202205E-2,3.642153E-2,2.4152534E0,6.3494635E-1,1.2015613E0,7.794731E-1,7.285188E-1,9.5620025E-3,-7.3115623E-1,6.2238604E-2,-7.366656E-1,-1.0303818E0,5.268669E-3,5.896731E-1,-8.690669E-1,-1.5355109E-1,9.755712E-1,9.420695E-1,1.0996479E-2,9.086256E-4,-5.343646E-3,1.1817246E-2,-0E0,-4.1694273E-3,6.8137264E-3,-0E0,-9.068987E-3,5.5673257E-3,1.4654269E-2,5.334426E-3,-5.7673734E-3,-0E0,-1.7928107E-2,-0E0,8.926877E-3,-2.848288E-3,1.1887647E-2],"split_indices":[5,3,2,0,3,5,2,2,2,3,1,3,2,0,6,6,6,2,0,5,2,1,5,3,0,0,0,0,0,0,0,0,0,0,0,0,0,0,0,0,0,0,0],"split_type":[0,0,0,0,0,0,0,0,0,0,0,0,0,0,0,0,0,0,0,0,0,0,0,0,0,0,0,0,0,0,0,0,0,0,0,0,0,0,0,0,0,0,0],"sum_hessian":[2.9806317E2,1.2233881E2,1.7572437E2,3.1811743E1,9.052707E1,5.4533737E1,1.2119062E2,1.4113545E1,7.641352E1,7.207487E0,4.7326252E1,9.780811E1,2.338251E1,5.3233542E0,8.790192E0,7.345986E1,2.9536638E0,5.4750395E0,1.732448E0,3.3146835E1,1.4179414E1,9.3594734E1,4.213378E0,1.3253536E1,1.0128972E1,3.1467488E0,5.6434426E0,7.22186E1,1.2412606E0,1.7228463E0,1.2308174E0,1.2410092E0,4.2340302E0,1.8331316E1,1.481552E1,1.0192578E1,3.986836E0,1.2495435E0,9.234519E1,2.7236724E0,1.4897056E0,1.1024715E1,2.2288203E0],"tree_param":{"num_deleted":"0","num_feature":"7","num_nodes":"43","size_leaf_vector":"1"}},{"base_weights":[-1.4793489E-2,8.908387E-1,-6.300259E-1,9.523772E-1,-0E0,-1.1140189E0,5.722302E-1,9.8431957E-1,-0E0,9.24156E-2,-5.822511E-3,-1.3962011E0,3.1338343E-1,-8.174636E-1,7.0707184E-1,1.1829193E-2,1.0125854E-2,-0E0,2.2142038E-3,-3.226039E-1,1.1771257E-2,1.5254226E-1,-1.5067744E0,-6.2229324E-2,5.877925E-1,-0E0,-1.1886515E-2,7.9541445E-1,3.9690882E-2,6.4850105E-3,-3.6870628E-3,-0E0,-8.298187E-3,-2.0465637E-3,8.356001E-3,-0E0,-1.7915739E-2,-4.6952004E-3,6.9476804E-3,9.846252E-3,-0E0,-0E0,9.734604E-3,-5.3398022E-3,6.9032973E-3],"categories":[],"categories_nodes":[],"categories_segments":[],"categories_sizes":[],"default_left":[0,0,0,0,0,0,0,0,0,0,0,0,0,0,0,0,0,0,0,0,0,0,0,0,0,0,0,0,0,0,0,0,0,0,0,0,0,0,0,0,0,0,0,0,0],"id":27,"left_children":[1,3,5,7,9,11,13,15,17,19,-1,21,23,25,27,-1,29,-1,-1,31,-1,33,35,37,39,-1,-1,41,43,-1,-1,-1,-1,-1,-1,-1,-1,-1,-1,-1,-1,-1,-1,-1,-1],"loss_changes":[1.6554056E2,7.057472E0,1.04537315E2,2.8971863E0,6.14866E-1,5.2884705E1,9.838505E0,2.9627075E0,9.866156E-2,3.4269176E0,0E0,1.9971725E1,2.7471924E0,3.094561E-1,1.9005661E0,0E0,1.4447253E0,0E0,0E0,5.7385397E-1,0E0,2.0108821E0,7.6448364E0,1.7751027E0,2.1882195E0,0E0,0E0,1.4914417E0,2.4882689E0,0E0,0E0,0E0,0E0,0E0,0E0,0E0,0E0,0E0,0E0,0E0,0E0,0E0,0E0,0E0,0E0],"parents":[2147483647,0,0,1,1,2,2,3,3,4,4,5,5,6,6,7,7,8,8,9,9,11,11,12,12,13,13,14,14,16,16,19,19,21,21,22,22,23,23,24,24,27,27,28,28],"right_children":[2,4,6,8,10,12,14,16,18,20,-1,22,24,26,28,-1,30,-1,-1,32,-1,34,36,38,40,-1,-1,42,44,-1,-1,-1,-1,-1,-1,-1,-1,-1,-1,-1,-1,-1,-1,-1,-1],"split_conditions":[-2.4886917E-1,6.2238604E-2,2.1609104E-1,1.488895E0,1.1640702E0,2.499237E-1,-2.5955684E-2,2.656186E0,-6.650437E-1,6.682261E-1,-5.822511E-3,-7.9606056E-2,-3.1404403E-1,-4.021328E-1,2.8974395E0,1.1829193E-2,-1.3299025E0,-0E0,2.2142038E-3,-4.6797377E-1,1.1771257E-2,-2.5858326E-2,-4.3595096E-1,-1.609537E-1,6.2238604E-2,-0E0,-1.1886515E-2,-1.2185792E0,3.4796216E0,6.4850105E-3,-3.6870628E-3,-0E0,-8.298187E-3,-2.0465637E-3,8.356001E-3,-0E0,-1.7915739E-2,-4.6952004E-3,6.9476804E-3,9.846252E-3,-0E0,-0E0,9.734604E-3,-5.3398022E-3,6.9032973E-3],"split_indices":[5,6,1,0,6,0,6,2,6,6,0,1,1,6,5,0,0,0,0,5,0,5,2,2,6,0,0,2,5,0,0,0,0,0,0,0,0,0,0,0,0,0,0,0,0],"split_type":[0,0,0,0,0,0,0,0,0,0,0,0,0,0,0,0,0,0,0,0,0,0,0,0,0,0,0,0,0,0,0,0,0,0,0,0,0,0,0,0,0,0,0,0,0],"sum_hessian":[2.961596E2,1.1898516E2,1.7717445E2,1.11796616E2,7.1885476E0,1.2698091E2,5.0193546E1,1.07602936E2,4.193679E0,5.695123E0,1.4934244E0,1.0664833E2,2.0332579E1,3.4303968E0,4.6763153E1,1.0245039E2,5.152537E0,2.218323E0,1.9753559E0,3.4712603E0,2.2238626E0,6.456414E0,1.0019192E2,7.203452E0,1.3129127E1,1.2301679E0,2.200229E0,3.9786953E1,6.9761996E0,2.9309754E0,2.2215612E0,2.2264085E0,1.2448521E0,3.2378411E0,3.2185733E0,2.2363799E0,9.7955536E1,5.969052E0,1.2344003E0,8.90374E0,4.2253866E0,2.221469E0,3.7565483E1,2.745492E0,4.2307076E0],"tree_param":{"num_deleted":"0","num_feature":"7","num_nodes":"45","size_leaf_vector":"1"}},{"base_weights":[-2.3223866E-2,9.0751165E-1,-6.673343E-1,1.2834527E0,8.085818E-1,-1.3000659E0,4.458124E-1,1.562972E-2,-0E0,-2.7827537E-3,8.4627825E-1,3.4329626E-1,-1.4283952E0,7.648988E-1,1.8402727E-1,9.6835E-1,4.343039E-1,-3.009156E-3,6.2024164E-1,-1.5441571E0,4.2507222E-1,8.205057E-1,-0E0,-6.186958E-1,3.4441528E-1,-0E0,1.1700395E-2,1.4482086E-3,1.234346E-2,9.915394E-3,-0E0,-1.8043146E-2,-0E0,-0E0,6.4059803E-3,8.688614E-4,1.0331979E-2,-0E0,-9.953501E-3,6.961427E-3,-0E0],"categories":[],"categories_nodes":[],"categories_segments":[],"categories_sizes":[],"default_left":[0,0,0,0,0,0,0,0,0,0,0,0,0,0,0,0,0,0,0,0,0,0,0,0,0,0,0,0,0,0,0,0,0,0,0,0,0,0,0,0,0],"id":28,"left_children":[1,3,5,7,9,11,13,-1,-1,-1,15,17,19,21,23,25,27,-1,29,31,33,35,-1,37,39,-1,-1,-1,-1,-1,-1,-1,-1,-1,-1,-1,-1,-1,-1,-1,-1],"loss_changes":[1.8286731E2,1.6832352E0,1.2891779E2,1.787365E0,4.8364334E0,2.6016342E1,4.382717E0,0E0,0E0,0E0,3.26091E0,1.898901E0,2.4947174E1,1.4288254E0,4.858059E0,3.6835175E0,3.7676673E0,0E0,1.5973864E0,2.1056213E0,2.7877307E-1,3.489132E-1,0E0,1.0933874E0,3.0324965E0,0E0,0E0,0E0,0E0,0E0,0E0,0E0,0E0,0E0,0E0,0E0,0E0,0E0,0E0,0E0,0E0],"parents":[2147483647,0,0,1,1,2,2,3,3,4,4,5,5,6,6,10,10,11,11,12,12,13,13,14,14,15,15,16,16,18,18,19,19,20,20,21,21,23,23,24,24],"right_children":[2,4,6,8,10,12,14,-1,-1,-1,16,18,20,22,24,26,28,-1,30,32,34,36,-1,38,40,-1,-1,-1,-1,-1,-1,-1,-1,-1,-1,-1,-1,-1,-1,-1,-1],"split_conditions":[-7.9606056E-2,-6.803344E-1,2.1609104E-1,1.4605191E0,-1.0940254E0,-3.9564016E-1,1.14153616E-1,1.562972E-2,-0E0,-2.7827537E-3,-5.5950385E-1,-4.3893013E-2,2.3559518E-1,3.2352912E0,1.8569502E-1,-1.1989121E0,6.3494635E-1,-3.009156E-3,1.78328E-1,1.987311E-1,-1.1989121E0,-2.8773406E0,-0E0,-3.6392882E-1,1.2015613E0,-0E0,1.1700395E-2,1.4482086E-3,1.234346E-2,9.915394E-3,-0E0,-1.8043146E-2,-0E0,-0E0,6.4059803E-3,8.688614E-4,1.0331979E-2,-0E0,-9.953501E-3,6.961427E-3,-0E0],"split_indices":[1,0,1,4,4,2,0,0,0,0,1,1,2,2,0,3,3,0,1,4,3,0,0,4,1,0,0,0,0,0,0,0,0,0,0,0,0,0,0,0,0],"split_type":[0,0,0,0,0,0,0,0,0,0,0,0,0,0,0,0,0,0,0,0,0,0,0,0,0,0,0,0,0,0,0,0,0,0,0,0,0,0,0,0,0],"sum_hessian":[3.0401428E2,1.2355547E2,1.804588E2,2.1743069E1,1.018124E2,1.1558209E2,6.48767E1,2.0522444E1,1.2206254E0,2.4321208E0,9.938028E1,7.692852E0,1.07889244E2,2.6811443E1,3.8065254E1,7.395279E1,2.5427498E1,1.2419193E0,6.4509325E0,1.02192276E2,5.6969686E0,2.5328964E1,1.4824804E0,4.90865E0,3.3156605E1,2.6486862E0,7.13041E1,1.8774584E1,6.6529136E0,5.2088265E0,1.242106E0,1.0098001E2,1.2122602E0,1.7270579E0,3.9699109E0,3.665067E0,2.1663897E1,1.2413678E0,3.667282E0,1.8746462E1,1.4410143E1],"tree_param":{"num_deleted":"0","num_feature":"7","num_nodes":"41","size_leaf_vector":"1"}},{"base_weights":[5.2347328E-3,9.6867156E-1,-6.5190345E-1,1.0020036E0,-0E0,-1.0776986E0,3.632192E-1,1.1782859E-2,-0E0,3.388118E-3,-0E0,-1.3104601E0,5.3877586E-1,4.7767606E-1,-5.80823E-1,-0E0,-1.0708524E-3,-1.4094888E0,2.8352016E-1,-1.8616097E-2,9.312283E-1,1.690149E-1,7.7272594E-1,-0E0,-1.2233442E-2,-0E0,-1.7342545E-2,-2.8799823E-3,8.6049605E-3,-9.2055295E-3,4.150378E-3,1.4740706E-2,1.083519E-3,8.581943E-3,-6.19449E-4,1.2755205E-2,4.4079605E-3],"categories":[],"categories_nodes":[],"categories_segments":[],"categories_sizes":[],"default_left":[0,0,0,0,0,0,0,0,0,0,0,0,0,0,0,0,0,0,0,0,0,0,0,0,0,0,0,0,0,0,0,0,0,0,0,0,0],"id":29,"left_children":[1,3,5,7,9,11,13,-1,-1,-1,15,17,19,21,23,-1,-1,25,27,29,31,33,35,-1,-1,-1,-1,-1,-1,-1,-1,-1,-1,-1,-1,-1,-1],"loss_changes":[1.8887935E2,3.021637E0,7.727855E1,2.6473389E0,2.511846E-1,4.841719E1,5.70247E0,0E0,0E0,0E0,1.8885517E-2,1.886354E1,4.4037266E0,3.2628717E0,2.1984558E0,0E0,0E0,1.2595627E1,2.2270505E0,2.448225E0,1.44876E0,4.0625687E0,1.044097E0,0E0,0E0,0E0,0E0,0E0,0E0,0E0,0E0,0E0,0E0,0E0,0E0,0E0,0E0],"parents":[2147483647,0,0,1,1,2,2,3,3,4,4,5,5,6,6,10,10,11,11,12,12,13,13,14,14,17,17,18,18,19,19,20,20,21,21,22,22],"right_children":[2,4,6,8,10,12,14,-1,-1,-1,16,18,20,22,24,-1,-1,26,28,30,32,34,36,-1,-1,-1,-1,-1,-1,-1,-1,-1,-1,-1,-1,-1,-1],"split_conditions":[-2.4886917E-1,1.488895E0,2.499237E-1,1.1640702E0,-6.5568227E-1,6.186417E-1,1.0500666E0,1.1782859E-2,-0E0,3.388118E-3,-2.992812E-1,2.25309E-1,-4.263255E-1,5.243673E-1,-1.0859638E-1,-0E0,-1.0708524E-3,-5.0562245E-1,2.3911297E-1,9.4369507E-1,4.476122E-2,3.5427484E-1,1.9140066E-1,-0E0,-1.2233442E-2,-0E0,-1.7342545E-2,-2.8799823E-3,8.6049605E-3,-9.2055295E-3,4.150378E-3,1.4740706E-2,1.083519E-3,8.581943E-3,-6.19449E-4,1.2755205E-2,4.4079605E-3],"split_indices":[5,0,0,6,5,6,0,0,0,0,3,4,4,0,6,0,0,4,3,6,0,0,6,0,0,0,0,0,0,0,0,0,0,0,0,0,0],"split_type":[0,0,0,0,0,0,0,0,0,0,0,0,0,0,0,0,0,0,0,0,0,0,0,0,0,0,0,0,0,0,0,0,0,0,0,0,0],"sum_hessian":[2.9637863E2,1.2069021E2,1.7568842E2,1.15756805E2,4.933402E0,1.2446898E2,5.1219437E1,1.1451466E2,1.2421422E0,2.2104723E0,2.7229297E0,1.0948814E2,1.4980841E1,4.698797E1,4.231467E0,1.2365103E0,1.4864193E0,1.0378167E2,5.706465E0,5.3672957E0,9.613545E0,2.525307E1,2.1734898E1,1.4908602E0,2.7406068E0,6.555607E0,9.722607E1,1.7422348E0,3.9642298E0,2.4032338E0,2.964062E0,5.665333E0,3.9482121E0,7.9159446E0,1.7337128E1,9.634237E0,1.210066E1],"tree_param":{"num_deleted":"0","num_feature":"7","num_nodes":"37","size_leaf_vector":"1"}},{"base_weights":[1.621172E-2,9.0167934E-1,-6.2653416E-1,1.0449684E0,6.232589E-1,-1.2795112E0,5.3841287E-1,1.2610166E-2,3.9649072E-1,2.6699722E-2,7.571024E-1,-1.3946686E0,4.2235094E-1,9.653434E-1,3.7308726E-1,1.1484749E-2,-1.11160554E-1,5.4965997E-1,-5.787635E-1,7.983662E-1,-0E0,2.4478617E-1,-1.5209318E0,-0E0,1.0601519E-2,1.502525E-2,1.8133053E-1,1.06930256E-1,6.506765E-1,-7.2871116E-3,-0E0,9.545905E-3,-0E0,-1.030146E-2,-0E0,-0E0,9.475244E-3,1.0970905E-2,-1.6470324E-3,-1.7782126E-2,-0E0,4.435515E-3,-5.5918726E-4,-0E0,4.789202E-3,-2.0168063E-3,7.6513104E-3,-0E0,1.0992345E-2],"categories":[],"categories_nodes":[],"categories_segments":[],"categories_sizes":[],"default_left":[0,0,0,0,0,0,0,0,0,0,0,0,0,0,0,0,0,0,0,0,0,0,0,0,0,0,0,0,0,0,0,0,0,0,0,0,0,0,0,0,0,0,0,0,0,0,0,0,0],"id":30,"left_children":[1,3,5,7,9,11,13,-1,15,17,19,21,23,25,27,-1,29,31,33,35,-1,37,39,41,-1,-1,43,45,47,-1,-1,-1,-1,-1,-1,-1,-1,-1,-1,-1,-1,-1,-1,-1,-1,-1,-1,-1,-1],"loss_changes":[1.6760524E2,2.7430038E0,1.3033176E2,4.3684387E-1,2.8766708E0,2.2904663E1,2.6339226E0,0E0,3.3555617E0,3.5860353E0,1.4001064E0,2.299228E1,8.30858E-1,2.141983E0,2.6142597E0,0E0,8.1900644E-1,1.1683626E0,1.0271969E0,3.5330963E-1,0E0,2.9619298E0,2.0055847E0,3.3306667E-1,0E0,0E0,4.3104047E-1,4.7572575E0,3.5861235E0,0E0,0E0,0E0,0E0,0E0,0E0,0E0,0E0,0E0,0E0,0E0,0E0,0E0,0E0,0E0,0E0,0E0,0E0,0E0,0E0],"parents":[2147483647,0,0,1,1,2,2,3,3,4,4,5,5,6,6,8,8,9,9,10,10,11,11,12,12,13,13,14,14,16,16,17,17,18,18,19,19,21,21,22,22,23,23,26,26,27,27,28,28],"right_children":[2,4,6,8,10,12,14,-1,16,18,20,22,24,26,28,-1,30,32,34,36,-1,38,40,42,-1,-1,44,46,48,-1,-1,-1,-1,-1,-1,-1,-1,-1,-1,-1,-1,-1,-1,-1,-1,-1,-1,-1,-1],"split_conditions":[-7.9606056E-2,-5.4229486E-1,2.1609104E-1,2.260602E0,-4.527284E-1,1.3673754E-1,-9.850692E-1,1.2610166E-2,-1.885025E0,-3.5129142E-1,1.3900678E-1,-3.6637306E-1,-2.732741E-1,1.6092066E0,1.7890611E-1,1.1484749E-2,2.5395174E0,-6.8876964E-1,-6.088863E-1,-8.390816E-1,-0E0,8.996765E-2,2.0956637E-1,5.7385354E-3,1.0601519E-2,1.502525E-2,1.0320464E0,4.029889E-1,-6.7861795E-1,-7.2871116E-3,-0E0,9.545905E-3,-0E0,-1.030146E-2,-0E0,-0E0,9.475244E-3,1.0970905E-2,-1.6470324E-3,-1.7782126E-2,-0E0,4.435515E-3,-5.5918726E-4,-0E0,4.789202E-3,-2.0168063E-3,7.6513104E-3,-0E0,1.0992345E-2],"split_indices":[1,5,1,2,5,2,2,0,4,2,5,2,4,5,2,0,2,1,1,3,0,1,4,1,0,0,3,4,3,0,0,0,0,0,0,0,0,0,0,0,0,0,0,0,0,0,0,0,0],"split_type":[0,0,0,0,0,0,0,0,0,0,0,0,0,0,0,0,0,0,0,0,0,0,0,0,0,0,0,0,0,0,0,0,0,0,0,0,0,0,0,0,0,0,0,0,0,0,0,0,0],"sum_hessian":[2.9255792E2,1.2361096E2,1.6894698E2,7.781956E1,4.57914E1,1.0879513E2,6.0151848E1,7.077094E1,7.0486207E0,9.985017E0,3.580638E1,1.0259859E2,6.196544E0,1.4051476E1,4.6100372E1,3.875968E0,3.1726525E0,6.3227053E0,3.662312E0,3.4325153E1,1.4812312E0,6.694355E0,9.590423E1,4.4565225E0,1.7400218E0,8.58725E0,5.464226E0,2.5971144E1,2.0129227E1,1.4675887E0,1.7050638E0,4.120804E0,2.201901E0,2.427286E0,1.2350261E0,1.2345212E0,3.309063E1,2.9687853E0,3.7255697E0,9.469186E1,1.212371E0,1.4894562E0,2.9670663E0,2.4815602E0,2.9826655E0,1.6302078E1,9.669065E0,7.10426E0,1.3024967E1],"tree_param":{"num_deleted":"0","num_feature":"7","num_nodes":"49","size_leaf_vector":"1"}},{"base_weights":[1.4718578E-2,9.195386E-1,-6.068554E-1,9.6509963E-1,-0E0,-1.0745884E0,6.563803E-1,-0E0,9.836133E-1,4.0854564E-1,-1.8703474E-1,-1.3543022E0,2.5004506E-1,7.800198E-1,1.689128E-1,1.29246535E-2,6.4772063E-1,-0E0,6.7627677E-3,-6.033705E-3,-0E0,3.563929E-1,-1.4681165E0,-6.8702795E-2,7.625195E-1,-0E0,8.360185E-1,9.228488E-3,-1.6238591E-1,8.662496E-3,-1.3167276E-3,-3.1177443E-3,1.1827803E-2,-0E0,-1.7259404E-2,1.7057105E-3,-8.106388E-3,-0E0,1.1891803E-2,1.3159965E-2,6.1012325E-3,-9.1908015E-3,3.1613046E-3],"categories":[],"categories_nodes":[],"categories_segments":[],"categories_sizes":[],"default_left":[0,0,0,0,0,0,0,0,0,0,0,0,0,0,0,0,0,0,0,0,0,0,0,0,0,0,0,0,0,0,0,0,0,0,0,0,0,0,0,0,0,0,0],"id":31,"left_children":[1,3,5,7,9,11,13,-1,15,17,19,21,23,25,27,-1,29,-1,-1,-1,-1,31,33,35,37,-1,39,-1,41,-1,-1,-1,-1,-1,-1,-1,-1,-1,-1,-1,-1,-1,-1],"loss_changes":[1.6607053E2,4.6073074E0,1.0376259E2,2.9581146E0,6.847895E-1,4.8780075E1,1.7342949E0,0E0,2.722412E0,1.3605344E-1,6.489109E-1,2.2246582E1,4.3992195E0,1.9972267E0,3.2835462E0,0E0,3.5195436E0,0E0,0E0,0E0,0E0,3.754787E0,2.8530884E0,2.4462993E0,1.544837E0,0E0,9.6302414E-1,0E0,2.7511628E0,0E0,0E0,0E0,0E0,0E0,0E0,0E0,0E0,0E0,0E0,0E0,0E0,0E0,0E0],"parents":[2147483647,0,0,1,1,2,2,3,3,4,4,5,5,6,6,8,8,9,9,10,10,11,11,12,12,13,13,14,14,16,16,21,21,22,22,23,23,24,24,26,26,28,28],"right_children":[2,4,6,8,10,12,14,-1,16,18,20,22,24,26,28,-1,30,-1,-1,-1,-1,32,34,36,38,-1,40,-1,42,-1,-1,-1,-1,-1,-1,-1,-1,-1,-1,-1,-1,-1,-1],"split_conditions":[-2.4886917E-1,6.2238604E-2,2.4521028E-1,-1.2842638E0,-7.1856934E-1,2.499237E-1,2.1722867E0,-0E0,-5.9809414E-4,-1.8003556E0,7.8707464E-2,-6.1104037E-2,5.751958E-1,-2.5955684E-2,5.7451684E-2,1.29246535E-2,-3.4309253E-1,-0E0,6.7627677E-3,-6.033705E-3,-0E0,2.2957422E-1,-3.5968393E-1,8.886999E-1,4.5505536E-1,-0E0,7.4913096E-1,9.228488E-3,4.6267018E-1,8.662496E-3,-1.3167276E-3,-3.1177443E-3,1.1827803E-2,-0E0,-1.7259404E-2,1.7057105E-3,-8.106388E-3,-0E0,1.1891803E-2,1.3159965E-2,6.1012325E-3,-9.1908015E-3,3.1613046E-3],"split_indices":[5,6,1,1,5,0,6,0,3,0,1,1,3,6,0,0,1,0,0,0,0,3,3,0,0,0,1,0,0,0,0,0,0,0,0,0,0,0,0,0,0,0,0],"split_type":[0,0,0,0,0,0,0,0,0,0,0,0,0,0,0,0,0,0,0,0,0,0,0,0,0,0,0,0,0,0,0,0,0,0,0,0,0,0,0,0,0,0,0],"sum_hessian":[2.9327115E2,1.1997247E2,1.7329868E2,1.1379286E2,6.179609E0,1.2715505E2,4.6143623E1,1.212573E0,1.1258029E2,2.4551544E0,3.7244542E0,1.0562657E2,2.152848E1,3.474791E1,1.1395713E1,7.7078064E1,3.5502228E1,1.2253646E0,1.2297899E0,2.2386467E0,1.4858075E0,5.918745E0,9.9707825E1,1.2393499E1,9.134981E0,1.734357E0,3.3013554E1,4.675861E0,6.7198515E0,3.256341E1,2.9388154E0,2.4597294E0,3.4590158E0,1.9371425E0,9.777068E1,8.408196E0,3.985303E0,2.9715338E0,6.1634474E0,1.39960785E1,1.9017473E1,3.4830978E0,3.2367537E0],"tree_param":{"num_deleted":"0","num_feature":"7","num_nodes":"43","size_leaf_vector":"1"}},{"base_weights":[2.9168056E-2,9.685388E-1,-6.134336E-1,1.2914461E-2,5.172741E-1,-1.073713E0,3.9930743E-1,-0E0,7.434917E-1,-1.3493216E0,5.295253E-1,1.2948782E0,2.0620216E-1,-1.0358393E-2,3.293022E-1,1.0431247E-2,-0E0,3.121721E-1,-1.4677862E0,-1.5271713E-1,1.0003787E0,4.7876127E-4,1.6741555E-2,3.5531834E-1,-1.5626608E-1,7.5532026E-3,-2.6608852E-3,3.3817138E-3,-5.9620347E-3,-1.844189E-4,1.2192794E-2,-0E0,-1.7169388E-2,2.3455141E-4,-9.613072E-3,1.2609652E-2,-0E0,-5.2183224E-3,5.333326E-3,-4.702021E-3,4.484365E-3],"categories":[],"categories_nodes":[],"categories_segments":[],"categories_sizes":[],"default_left":[0,0,0,0,0,0,0,0,0,0,0,0,0,0,0,0,0,0,0,0,0,0,0,0,0,0,0,0,0,0,0,0,0,0,0,0,0,0,0,0,0],"id":32,"left_children":[1,3,5,-1,7,9,11,13,15,17,19,21,23,-1,25,-1,27,29,31,33,35,-1,-1,37,39,-1,-1,-1,-1,-1,-1,-1,-1,-1,-1,-1,-1,-1,-1,-1,-1],"loss_changes":[1.8382191E2,6.1617584E0,8.4834236E1,0E0,3.1889706E0,5.639949E1,7.9179516E0,3.2771008E0,3.1548252E0,2.2606613E1,6.8531117E0,8.438015E-2,2.836594E0,0E0,2.4332056E0,0E0,8.352715E-1,2.8358927E0,1.7844849E0,1.7023501E0,7.4137974E-1,0E0,0E0,3.247686E0,1.8212938E0,0E0,0E0,0E0,0E0,0E0,0E0,0E0,0E0,0E0,0E0,0E0,0E0,0E0,0E0,0E0,0E0],"parents":[2147483647,0,0,1,1,2,2,4,4,5,5,6,6,7,7,8,8,9,9,10,10,11,11,12,12,14,14,16,16,17,17,18,18,19,19,20,20,23,23,24,24],"right_children":[2,4,6,-1,8,10,12,14,16,18,20,22,24,-1,26,-1,28,30,32,34,36,-1,-1,38,40,-1,-1,-1,-1,-1,-1,-1,-1,-1,-1,-1,-1,-1,-1,-1,-1],"split_conditions":[-2.459632E-1,-5.76597E-1,2.0357716E-1,1.2914461E-2,-4.6130392E-1,2.7128318E-1,-2.9308745E-1,-2.1118204E-1,-3.5935085E-2,-6.1104037E-2,-4.0173402E-1,3.987246E-1,1.2015613E0,-1.0358393E-2,1.0157617E0,1.0431247E-2,-4.8505738E-1,3.4429476E-1,-3.5968393E-1,-6.6442555E-1,1.5509763E-1,4.7876127E-4,1.6741555E-2,-1.19961455E-1,1.8687618E0,7.5532026E-3,-2.6608852E-3,3.3817138E-3,-5.9620347E-3,-1.844189E-4,1.2192794E-2,-0E0,-1.7169388E-2,2.3455141E-4,-9.613072E-3,1.2609652E-2,-0E0,-5.2183224E-3,5.333326E-3,-4.702021E-3,4.484365E-3],"split_indices":[5,5,0,0,5,1,4,4,1,1,4,0,1,0,0,0,3,3,3,4,0,0,0,4,3,0,0,0,0,0,0,0,0,0,0,0,0,0,0,0,0],"split_type":[0,0,0,0,0,0,0,0,0,0,0,0,0,0,0,0,0,0,0,0,0,0,0,0,0,0,0,0,0,0,0,0,0,0,0,0,0,0,0,0,0],"sum_hessian":[3.0248236E2,1.23384674E2,1.7909767E2,9.0361984E1,3.3022694E1,1.2381702E2,5.5280655E1,1.1638948E1,2.1383745E1,1.0630952E2,1.7507498E1,8.116395E0,4.7164257E1,1.9641547E0,9.674793E0,1.8181812E1,3.2019336E0,6.4079814E0,9.9901535E1,6.436907E0,1.1070591E1,1.7257437E0,6.3906517E0,3.5477627E1,1.1686632E1,7.240057E0,2.4347367E0,1.4828084E0,1.7191253E0,3.949113E0,2.4588685E0,1.4351835E0,9.8466354E1,4.4508505E0,1.9860564E0,9.831832E0,1.2387594E0,2.6928174E0,3.278481E1,9.4491625E0,2.2374694E0],"tree_param":{"num_deleted":"0","num_feature":"7","num_nodes":"41","size_leaf_vector":"1"}},{"base_weights":[-0E0,9.267299E-1,-6.3819224E-1,9.402982E-1,-0E0,-1.0387526E0,4.7702375E-1,1.1547037E0,7.8697383E-1,-1.32541E0,3.6686143E-1,7.6058817E-1,1.609346E-1,1.3861941E-2,-0E0,4.915489E-1,1.0431755E0,-1.4373962E0,4.9522066E-1,-4.500235E-2,5.8467346E-1,-0E0,8.575469E-1,-0E0,6.480208E-1,7.0406925E-3,-3.5974507E-3,-0E0,1.2403185E-2,-0E0,-1.6959216E-2,-0E0,9.846389E-3,8.7911775E-4,-6.4724283E-3,9.21102E-3,-0E0,1.1486859E-2,-0E0,5.2043777E-3,-3.968012E-3,-0E0,1.1869718E-2],"categories":[],"categories_nodes":[],"categories_segments":[],"categories_sizes":[],"default_left":[0,0,0,0,0,0,0,0,0,0,0,0,0,0,0,0,0,0,0,0,0,0,0,0,0,0,0,0,0,0,0,0,0,0,0,0,0,0,0,0,0,0,0],"id":33,"left_children":[1,3,5,7,-1,9,11,13,15,17,19,21,23,-1,-1,25,27,29,31,33,35,-1,37,39,41,-1,-1,-1,-1,-1,-1,-1,-1,-1,-1,-1,-1,-1,-1,-1,-1,-1,-1],"loss_changes":[1.7165431E2,1.6841965E0,7.7566086E1,1.1589737E0,0E0,5.2572403E1,2.9901915E0,1.7690697E0,3.5734444E0,2.3183456E1,2.5114205E0,2.1475954E0,1.6529591E0,0E0,0E0,3.9578848E0,3.5895157E-1,4.253372E0,9.769815E-1,9.380738E-1,2.4097524E0,0E0,2.1413612E0,3.1273437E0,2.1307564E0,0E0,0E0,0E0,0E0,0E0,0E0,0E0,0E0,0E0,0E0,0E0,0E0,0E0,0E0,0E0,0E0,0E0,0E0],"parents":[2147483647,0,0,1,1,2,2,3,3,5,5,6,6,7,7,8,8,9,9,10,10,11,11,12,12,15,15,16,16,17,17,18,18,19,19,20,20,22,22,23,23,24,24],"right_children":[2,4,6,8,-1,10,12,14,16,18,20,22,24,-1,-1,26,28,30,32,34,36,-1,38,40,42,-1,-1,-1,-1,-1,-1,-1,-1,-1,-1,-1,-1,-1,-1,-1,-1,-1,-1],"split_conditions":[-2.459632E-1,1.0814296E0,3.075938E-1,-9.05325E-1,-0E0,2.499237E-1,1.1717865E0,-1.4716204E-1,5.596911E-1,2.1451347E-1,-3.1404403E-1,9.503552E-2,6.8759257E-1,1.3861941E-2,-0E0,4.676732E-1,-8.795985E-1,-6.1104037E-2,7.189442E-1,-2.4386787E-1,9.7521305E-1,-0E0,8.3126634E-1,1.5666252E-1,1.6394674E0,7.0406925E-3,-3.5974507E-3,-0E0,1.2403185E-2,-0E0,-1.6959216E-2,-0E0,9.846389E-3,8.7911775E-4,-6.4724283E-3,9.21102E-3,-0E0,1.1486859E-2,-0E0,5.2043777E-3,-3.968012E-3,-0E0,1.1869718E-2],"split_indices":[5,6,1,5,0,0,1,6,0,4,1,5,0,0,0,0,5,1,4,6,4,0,0,0,1,0,0,0,0,0,0,0,0,0,0,0,0,0,0,0,0,0,0],"split_type":[0,0,0,0,0,0,0,0,0,0,0,0,0,0,0,0,0,0,0,0,0,0,0,0,0,0,0,0,0,0,0,0,0,0,0,0,0,0,0,0,0,0,0],"sum_hessian":[2.886174E2,1.178104E2,1.70807E2,1.163193E2,1.4911067E0,1.263977E2,4.4409306E1,4.3694263E1,7.262503E1,1.0564085E2,2.0756853E1,2.1128134E1,2.328117E1,4.1740574E1,1.9536905E0,3.6604023E1,3.602101E1,1.0020444E2,5.4364047E0,5.7106037E0,1.5046248E1,1.7401774E0,1.9387957E1,1.8581573E1,4.699597E0,3.3232327E1,3.3716962E0,1.6603762E0,3.4360634E1,1.9570444E0,9.824739E1,2.722876E0,2.7135286E0,3.4673882E0,2.2432158E0,1.1579255E1,3.4669933E0,1.6444077E1,2.94388E0,8.385934E0,1.0195641E1,1.2334998E0,3.4660969E0],"tree_param":{"num_deleted":"0","num_feature":"7","num_nodes":"43","size_leaf_vector":"1"}},{"base_weights":[2.1833211E-2,9.138229E-1,-6.3828415E-1,9.5126396E-1,3.112548E-3,-1.2960101E0,4.908558E-1,1.5134473E-2,8.3882606E-1,3.0704552E-1,-9.956887E-4,-1.4069004E0,3.3602536E-1,3.2845944E-1,8.632245E-1,9.470435E-1,1.9211133E-1,-0E0,5.815232E-3,-1.4726734E0,1.4669144E-1,-3.794311E-4,6.360592E-1,6.943653E-1,-5.4635797E-2,9.7649604E-1,-0E0,1.4571217E-2,7.3744366E-3,-5.796054E-3,9.658833E-3,-1.822211E-4,-1.738229E-2,5.16252E-3,-0E0,8.915657E-3,-0E0,3.3155535E-3,1.35578215E-2,4.029238E-3,-4.1208947E-3,-0E0,1.2418552E-2],"categories":[],"categories_nodes":[],"categories_segments":[],"categories_sizes":[],"default_left":[0,0,0,0,0,0,0,0,0,0,0,0,0,0,0,0,0,0,0,0,0,0,0,0,0,0,0,0,0,0,0,0,0,0,0,0,0,0,0,0,0,0,0],"id":34,"left_children":[1,3,5,7,9,11,13,-1,15,17,-1,19,21,23,25,27,29,-1,-1,31,33,-1,35,37,39,41,-1,-1,-1,-1,-1,-1,-1,-1,-1,-1,-1,-1,-1,-1,-1,-1,-1],"loss_changes":[1.7616743E2,3.3511353E0,1.2829507E2,1.8429337E0,4.3697014E-1,2.115979E1,2.3486938E0,0E0,5.441086E0,2.61483E-1,0E0,1.2035706E1,1.4115641E0,7.272696E0,2.2943153E0,5.2980194E0,7.848214E0,0E0,0E0,2.7506866E0,4.9546626E-1,0E0,2.923839E-1,3.1849203E0,2.79307E0,5.3803635E-1,0E0,0E0,0E0,0E0,0E0,0E0,0E0,0E0,0E0,0E0,0E0,0E0,0E0,0E0,0E0,0E0,0E0],"parents":[2147483647,0,0,1,1,2,2,3,3,4,4,5,5,6,6,8,8,9,9,11,11,12,12,13,13,14,14,15,15,16,16,19,19,20,20,22,22,23,23,24,24,25,25],"right_children":[2,4,6,8,10,12,14,-1,16,18,-1,20,22,24,26,28,30,-1,-1,32,34,-1,36,38,40,42,-1,-1,-1,-1,-1,-1,-1,-1,-1,-1,-1,-1,-1,-1,-1,-1,-1],"split_conditions":[-7.9606056E-2,1.488895E0,2.1609104E-1,-8.969546E-1,-6.8876964E-1,2.625598E-1,5.243673E-1,1.5134473E-2,7.0676833E-1,-9.201669E-1,-9.956887E-4,1.9772269E-1,4.238618E-2,1.14153616E-1,1.0500666E0,-7.621171E-1,-8.296549E-1,-0E0,5.815232E-3,-4.3595096E-1,5.250903E-2,-3.794311E-4,1.2333829E0,2.1453589E-1,-9.201669E-1,-1.1911522E0,-0E0,1.4571217E-2,7.3744366E-3,-5.796054E-3,9.658833E-3,-1.822211E-4,-1.738229E-2,5.16252E-3,-0E0,8.915657E-3,-0E0,3.3155535E-3,1.35578215E-2,4.029238E-3,-4.1208947E-3,-0E0,1.2418552E-2],"split_indices":[1,0,1,3,1,0,0,0,2,2,0,2,4,0,0,1,1,0,0,2,1,0,4,3,2,2,0,0,0,0,0,0,0,0,0,0,0,0,0,0,0,0,0],"split_type":[0,0,0,0,0,0,0,0,0,0,0,0,0,0,0,0,0,0,0,0,0,0,0,0,0,0,0,0,0,0,0,0,0,0,0,0,0,0,0,0,0,0,0],"sum_hessian":[2.972706E2,1.2698916E2,1.7028145E2,1.2083739E2,6.151771E0,1.0812288E2,6.215856E1,2.4868628E1,9.596876E1,3.6672447E0,2.4845264E0,1.019383E2,6.1845846E0,4.618359E1,1.597497E1,8.053705E1,1.5431706E1,1.7145717E0,1.9526731E0,9.8481606E1,3.4566946E0,1.4920806E0,4.692504E0,2.4724571E1,2.145902E1,1.4733242E1,1.2417275E0,3.7273964E1,4.326309E1,6.716615E0,8.715091E0,2.7258723E0,9.575573E1,2.2209983E0,1.2356963E0,3.4583852E0,1.2341187E0,1.5144678E1,9.579892E0,7.6499386E0,1.3809083E1,2.203849E0,1.2529393E1],"tree_param":{"num_deleted":"0","num_feature":"7","num_nodes":"43","size_leaf_vector":"1"}},{"base_weights":[-3.4204982E-2,8.178558E-1,-5.1538897E-1,1.2094917E-2,2.5883445E-1,4.764572E-1,-9.4096684E-1,-0E0,9.5343196E-1,6.526745E-1,-0E0,-1.4010363E0,5.0528014E-1,1.1662759E-2,-2.2754458E-1,1.4597638E-2,-0E0,8.071913E-1,-1.3784164E-1,3.1086695E-1,-2.1791434E-1,-1.4707091E0,-0E0,-0E0,8.884646E-1,