tree
version=v4
num_class=1
num_tree_per_iteration=1
label_index=0
max_feature_idx=6
objective=binary sigmoid:1
feature_names=Column_0 Column_1 Column_2 Column_3 Column_4 Column_5 Column_6
feature_infos=[-2.8789994962612289:1.7697002809477123] [-1.4004578455653016:7.379450513528929] [-1.4472751122917438:6.32371178316723] [-2.6560018971782471:11.476570312394101] [-2.9843086036558768:2.9791608241814083] [-1.2569211262803699:8.4362691805060219] [-1.3922817534649861:9.4777236212703002]
tree_sizes=2525 2746 2406 2567 2799 3132 2392 2471 2447 2166 2288 2402 2926 2487 2779 2885 3035 3009 3195 2962 2964 2600 2717 2714 3672 3302 3531 2871 2957 2830 2392 2704 2694 3497 3208 3061 3434 3216 3622 3373 3556 3483 3836 3817 3566 4054 4154 4070 3941 4044 3473 3211 3570 3211 3988 3787 3926 3316 3872 3698 4003 4437 4318 4120 3836 4180 3541 4119 3691 4545 4248 3651 3810 4319 4025 4285 4291 4331 4717 4299 3674 4153 4449 4492 4385 4504 4349 4116 4267 4228 3941

Tree=0
num_leaves=25
num_cat=0
split_feature=1 1 2 2 6 1 6 5 2 2 2 5 6 1 6 5 6 6 5 2 5 5 1 1
split_gain=396.22 267.938 46.2906 36.7662 10.623 3.70815 8.37354 3.07407 2.84705 6.88655 2.57394 2.56103 2.3622 2.54799 0.990356 1.31832 0.98364 1.54135 0.853226 0.668232 0.415954 0.355657 0.191081 3.0791
threshold=-0.088918184976039302 0.21826967572676137 -0.34947909772639824 0.21715149778627652 0.063889163621481976 0.31267729249121551 -0.0070708701358200877 -0.91628261898889873 -0.98310267868164358 -0.18921845338937468 -0.79398824708776317 2.6701882661722123 2.1943241760599368 1.6376518831584967 -0.91021106401271157 -0.86006535484848812 -0.5025169952187879 -0.469460719370632 -0.56563934435040542 -0.78649869507060732 -0.85053700499418117 -0.52085610003516303 1.1365653018702402 0.71427276995847022
decision_type=2 2 2 2 2 2 2 2 2 2 2 2 2 2 2 2 2 2 2 2 2 2 2 2
left_child=4 2 10 -4 7 6 -3 -1 11 12 -2 -7 13 19 20 -16 18 -18 -17 -10 -9 -20 23 -11
right_child=1 5 3 -5 -6 8 -8 14 9 22 -12 -13 -14 -15 15 16 17 -19 21 -21 -22 -23 -24 -25
leaf_value=0.044814275261829559 0.01996416447730338 -0.027138457159675132 -0.054061607385036639 0.014213617572778897 0 0.039290475019789349 0.027138457159675139 0.018660470983380525 0.0095616665525781065 0.027334902746609789 -0.0041316274383143767 0.0045820580777377329 -0.011701537255337508 0.027138457159675139 0.007200566078064464 0.043602666210407426 0.0016616218125191174 0.028658730087152116 0.0051427179561914244 -0.0023127908488060514 0 0.029042553884811684 0.031084781806018945 0
leaf_weight=40 5.75 3.5 126.25 5.4999999999999991 5.7499999999999991 11.999999999999998 3.4999999999999991 3.25 4.2499999999999991 6.5000000000000053 4.2499999999999982 3.7499999999999991 4.4999999999999991 3.4999999999999991 3.9999999999999991 30.999999999999996 3.4999999999999991 37 3.2499999999999991 8.2499999999999982 3.2499999999999991 12.250000000000002 14.499999999999998 5.5
leaf_count=160 23 14 505 22 23 48 14 13 17 26 17 15 18 14 16 124 14 148 13 33 13 49 58 22
internal_value=-0.000835812 -0.0248775 -0.0466352 -0.0509858 0.0344571 0.019079 0 0.0359891 0.0211794 0.0163168 0.00831112 0.032905 0.00292661 0.00863013 0.0318106 0.0328591 0.0337266 0.0269003 0.0386606 0.000540277 0.0122762 0.0258007 0.025522 0.0156227
internal_weight=354.75 211.5 141.75 131.75 143.25 69.75 7 137.5 62.75 47 10 15.75 20.5 16 97.5 91 87 40.5 46.5 12.5 6.5 15.5 26.5 12
internal_count=1419 846 567 527 573 279 28 550 251 188 40 63 82 64 390 364 348 162 186 50 26 62 106 48
is_linear=0
shrinkage=0.0276189


Tree=1
num_leaves=26
num_cat=0
split_feature=1 1 2 2 6 1 6 5 2 2 4 4 2 5 5 4 6 5 5 5 6 4 4 1 1
split_gain=375.199 254.07 43.8599 34.9377 10.1171 3.53122 8.00558 2.81401 2.6808 6.53622 3.66621 4.93841 2.46267 2.38389 2.01113 1.16978 0.866599 1.20055 0.955568 3.28957 1.46396 0.425514 0.190024 0.138898 2.93102
threshold=-0.088918184976039302 0.21826967572676137 -0.34947909772639824 0.21715149778627652 0.063889163621481976 0.31267729249121551 -0.0070708701358200877 -0.91628261898889873 -0.98310267868164358 -0.18921845338937468 0.565113957351007 -0.014118610136866683 -0.79398824708776317 2.6701882661722123 1.8578964410925505 0.31086818581827763 -0.91021106401271157 -0.86006535484848812 -0.24665788532123237 -0.064966606607071084 -0.23798700936610692 0.58449025415317324 -0.32434182842911036 1.1365653018702402 0.71427276995847022
decision_type=2 2 2 2 2 2 2 2 2 2 2 2 2 2 2 2 2 2 2 2 2 2 2 2 2
left_child=4 2 12 -4 7 6 -3 -1 13 10 11 22 -2 -7 -12 -13 21 -18 -19 20 -20 -9 -10 24 -11
right_child=1 5 3 -5 -6 8 -8 16 9 23 14 15 -14 -15 -16 -17 17 18 19 -21 -22 -23 -24 -25 -26
leaf_value=0.043623556315545139 0.01948450174299789 -0.026537461000679854 -0.052616850422505912 0.013873481963083637 0 0.038289958200366167 0.026537461000679861 0 0 0.026670460545770065 0.032128952614004676 -0.032068563175365272 -0.0040362936336206905 0.0044786017301392238 0 -0.0016838126876267013 0.0070361613578280814 0.035388829242780466 0.016245867305601111 0.03258632750432678 -0.0020180176842099365 0.018440447916545227 0.014204057217737041 0.030280051626159436 0
leaf_weight=39.979922771453857 5.7494269609451294 3.4993555843830109 126.15779511630535 5.499722331762313 5.7499999999999991 11.995370149612425 3.49935558438301 3.249869465827941 3.2497428655624399 6.4987857937812858 3.2499688416719428 3.2499492317438099 4.249981760978697 3.7499803304672232 3.7497328668832779 3.4999171197414398 3.9999482631683341 68.228821530938148 4.4991232305765152 9.7480469048023206 4.4990762472152728 3.2498477101325989 3.4997828602790833 14.496497988700865 5.5
leaf_count=160 23 14 505 22 23 48 14 13 13 26 13 13 17 15 15 14 16 273 18 39 18 13 14 58 22
internal_value=-0.000774343 -0.0241783 -0.0453771 -0.0496152 0.0335721 0.0186201 0 0.0350679 0.0206698 0.015919 0.00284404 -0.00445967 0.00806375 0.0321004 0.0185075 -0.0209269 0.0310098 0.0320201 0.0328587 0.0214894 0.00564322 0.0120483 0.00980898 0.0248914 0.0152418
internal_weight=354.6 211.395 141.657 131.658 143.205 69.7384 6.99871 137.455 62.7397 46.9944 20.4991 13.4994 9.99941 15.7454 6.9997 6.74987 97.4747 90.975 86.9751 18.7462 8.9982 6.49972 6.74953 26.4953 11.9988
internal_count=1419 846 567 527 573 279 28 550 251 188 82 54 40 63 28 27 390 364 348 75 36 26 27 106 48
is_linear=0
shrinkage=0.0276189


Tree=2
num_leaves=22
num_cat=0
split_feature=1 1 2 2 6 4 1 6 5 5 2 2 2 4 6 6 4 6 6 4 4
split_gain=355.342 241.304 41.6427 33.2679 9.63868 3.38412 5.57611 6.80403 4.7843 2.6107 2.35679 2.21195 4.05223 1.92122 1.07357 0.749956 0.398306 0.396982 1.44437 0.41507 3.35558
threshold=-0.088918184976039302 0.21826967572676137 -0.34947909772639824 0.21715149778627652 0.063889163621481976 1.0747046173008983 0.42197226420698736 -0.0070708701358200877 3.0865771548054233 -0.91628261898889873 -0.79398824708776317 -0.95675484184160264 -0.18921845338937468 0.42635391897822977 0.73433865943304766 -0.91021106401271157 0.58449025415317324 -0.5025169952187879 -0.469460719370632 1.0167149911858924 0.50993348836395769
decision_type=2 2 2 2 2 2 2 2 2 2 2 2 2 2 2 2 2 2 2 2 2
left_child=4 2 10 -4 9 6 7 -3 11 -1 -2 -8 13 -13 -14 16 -11 -17 -19 20 -20
right_child=1 5 3 -5 -6 -7 8 -9 -10 15 -12 12 14 -15 -16 17 -18 18 19 -21 -22
leaf_value=0.042504606304716912 0.01901956477609543 -0.026322101165820594 -0.051282099081853834 0.013542633161035253 0 0.036852029800973844 0.034347017209822542 0.015937605983085218 -0.0014079418572887773 0 -0.0039431860803106518 -0.0035798615663116991 0.030776422783525704 0.018294333598968003 0.012023908025064459 0.03528011941936026 0.018037961365936991 0.00087094139842806687 0.027467955278097093 0.03645196745876042 0.0026370390337548582
leaf_weight=39.921889305114746 5.7477637082338333 4.4969682097434998 125.89148983359337 5.4989155530929557 5.7499999999999991 7.7448094785213462 11.235783353447912 5.246423199772833 5.9985151886939994 3.249869465827941 4.2499290704727155 8.998436674475661 11.49238085746766 3.2494513392448416 11.242344409227369 49.93791352212429 3.2492704391479492 3.4988774061202994 18.484437122941021 10.990036651492117 7.9940074980258933
leaf_count=160 23 18 505 22 23 31 45 21 24 13 17 36 46 13 45 200 13 14 74 44 32
internal_value=-0.000720628 -0.0235184 -0.0442082 -0.0483462 0.0327142 0.0181857 0.0150676 -0.00217637 0.0186536 0.0341757 0.00782321 0.0216699 0.0163215 0.00146174 0.023125 0.0302214 0.0118237 0.0311945 0.0251197 0.0267828 0.021029
internal_weight=354.17 211.093 141.388 131.39 143.076 69.7051 61.9603 9.74339 52.2169 137.326 9.99769 46.2184 34.9826 12.2479 22.7347 97.4044 6.49914 90.9053 40.9674 37.4685 26.4784
internal_count=1419 846 567 527 573 279 248 39 209 550 40 185 140 49 91 390 26 364 164 150 106
is_linear=0
shrinkage=0.0276189


Tree=3
num_leaves=24
num_cat=0
split_feature=5 1 1 4 2 5 5 5 6 6 6 6 4 2 3 6 5 6 6 1 2 2 2
split_gain=308.784 157.729 93.326 33.9501 12.0459 6.54554 6.41113 6.40134 3.89537 4.1154 3.80037 2.03134 1.8228 1.79899 1.44375 1.42553 0.583746 0.347027 0.344289 0.17235 0.073129 1.74224 0.580998
threshold=-0.24665788532123237 0.25238481694326903 -0.071125980278122933 0.214536119940059 -0.34947909772639824 3.0865771548054233 -0.064966606607071084 -0.56563934435040542 -0.60719520207128175 0.11267587078583843 -0.45844196075458005 -1.0000000180025095e-35 0.42635391897822977 2.6632989498501201 0.90439328471320857 -0.0070708701358200877 4.0408413927142579 -0.06465706552510643 2.3485867966846645 -0.33111003259869648 -1.172059054479464 -0.99416652752015255 0.21715149778627652
decision_type=2 2 2 2 2 2 2 2 2 2 2 2 2 2 2 2 2 2 2 2 2 2 2
left_child=7 2 6 4 -4 15 12 10 14 -10 13 -12 -2 -1 -9 -3 -7 -8 20 -14 -17 -22 -23
right_child=1 5 3 -5 -6 16 17 8 9 -11 11 -13 19 -15 -16 18 -18 -19 -20 -21 21 22 -24
leaf_value=0.038870062048027142 0.0091184448243516649 0 0 0.01203029416467514 -0.050494296855237188 -0.012511501625875547 0.031951390863005094 -0.0081544970909985248 0.028537254317275856 0 0.0011401206357641478 0.026663030236170598 -0.015524778003674862 0.0081810283465924422 0.011863779928779277 0.0071278249553581412 0 0.0094418517651743018 0.0068249314834790045 0 0.040988868301223599 0.01400558917103184 0.029786521911519263
leaf_weight=84.979342266917229 4.994233116507532 3.2455029785633078 3.248450279235839 6.490145966410636 117.27938579022884 3.2486713379621497 7.4863475412130356 3.9891067147254926 23.204161912202839 3.2486571520566931 6.2368568331003189 6.7404062747955305 3.4973170459270477 3.7380492985248557 4.73868528008461 4.2378040850162497 3.2494160532951355 4.9941473603248578 5.2446144223213187 3.2490271180868149 7.2280281037092164 20.734095215797431 7.7406800836324683
leaf_count=341 20 13 13 26 472 13 30 16 93 13 25 27 14 15 19 17 13 20 21 13 29 83 31
internal_value=-0.000318581 -0.0216969 -0.0362476 -0.0457093 -0.0490481 0.0179432 0.0124253 0.0316704 0.01934 0.0245437 0.0355444 0.0166862 -0.000765375 0.0378934 0.000666881 0.0214902 -0.00514529 0.0256356 0.0227601 -0.0109731 0.0241691 0.0254237 0.0197194
internal_weight=343.043 206.168 151.239 127.018 120.528 54.9288 24.2211 136.875 35.1806 26.4528 101.695 12.9773 11.7406 88.7174 8.72779 48.4307 6.49809 12.4805 45.1852 6.74634 39.9406 35.7028 28.4748
internal_count=1377 828 608 511 485 220 97 549 141 106 408 52 47 356 35 194 26 50 181 27 160 143 114
is_linear=0
shrinkage=0.0276189


Tree=4
num_leaves=26
num_cat=0
split_feature=5 5 0 2 2 5 5 4 0 5 6 6 6 6 6 6 2 2 3 3 2 2 4 4 5
split_gain=292.642 133.078 79.8923 33.4723 16.4732 6.07546 5.56031 5.1366 4.74031 4.15382 3.68937 3.93468 3.52991 2.49062 3.12851 1.91506 1.65486 1.65079 1.37848 1.23961 1.10597 1.52228 1.55074 1.00523 0.562172
threshold=-0.24665788532123237 0.44855050259910734 0.24675757794161732 0.34749846373635568 -0.40467894393780929 -0.56563934435040542 3.0865771548054233 0.20614704673051512 1.0601854895818981 0.64064974720484602 -0.60719520207128175 0.11267587078583843 -0.45844196075458005 -0.17327138998121874 0.063889163621481976 -1.0000000180025095e-35 -0.88256293469904012 2.6632989498501201 0.90439328471320857 0.53364554314761448 -1.0068338465721831 0.86446431521438216 -0.52778373194666983 0.088305091454874543 4.0408413927142579
decision_type=2 2 2 2 2 2 2 2 2 2 2 2 2 2 2 2 2 2 2 2 2 2 2 2 2
left_child=5 2 3 4 -2 12 9 -6 13 19 18 -12 17 16 -15 -14 -4 -1 -7 -3 -11 22 -22 -24 -8
right_child=1 6 8 -5 7 10 24 -9 -10 20 11 -13 15 14 -16 -17 -18 -19 -20 -21 21 -23 23 -25 -26
leaf_value=0.037899047605136335 0.0026651459179267245 -0.011264623928318566 0.015109223451377961 0.014517672406985462 -0.04889847270145168 -0.0079673036888089823 -0.012235374624851724 -0.0044791295178082877 -0.011709367851912891 0.033060375095829091 0.027814078078907355 0 0.001112397865796974 0.037359581279868499 0.00091721492786876713 0.02603273801858352 -0.0055063394788461605 0.0079994304821748973 0.011590184741159514 0.0096782212865360352 0 0.036948818474885445 0.024425908453884929 0.0076513566856116358 0
leaf_weight=84.77363021671772 4.2424942255020133 3.2331394851207724 4.4916660040616989 6.4903706014156333 115.26953200995922 3.9897095710039121 3.249104529619216 3.2355167269706717 3.7466051280498496 11.445625171065329 23.172118917107586 3.2486571520566931 6.236588254570961 6.7351575344800949 3.9963213503360748 6.7332757413387281 4.2404571622610128 3.7363330274820319 4.7363521009683609 3.7458101212978363 3.2458683401346233 3.2426916360855094 7.9905369877815309 13.733110398054121 3.2494160532951355
leaf_count=341 17 13 18 26 466 16 13 13 15 46 93 13 25 27 16 27 17 15 19 15 13 13 32 55 13
internal_value=-0.000278333 -0.0211279 -0.0342417 -0.0427089 -0.0459777 0.0308834 0.0160656 -0.0478966 0.0119012 0.0194661 0.018832 0.023902 0.0346698 0.0177469 0.0266008 0.0163216 0.00335829 0.036952 0.000598624 0 0.0228579 0.0171833 0.0127112 0.0154031 -0.00499193
internal_weight=342.21 205.583 152.448 129.238 122.748 136.627 53.1353 118.505 23.2102 46.6368 35.1468 26.4208 101.48 19.4636 10.7315 12.9699 8.73212 88.51 8.72606 6.97895 39.6578 28.2122 24.9695 21.7236 6.49852
internal_count=1377 828 615 522 496 549 213 479 93 187 141 106 408 78 43 52 35 356 35 28 159 113 100 87 26
is_linear=0
shrinkage=0.0276189


Tree=5
num_leaves=30
num_cat=0
split_feature=1 1 0 0 6 0 0 2 4 4 6 4 4 0 6 6 3 3 2 3 1 1 3 3 3 4 4 3 3
split_gain=279.038 222.915 32.4343 11.1528 7.70008 3.64494 3.60448 6.26719 5.30598 6.86097 4.0452 3.44698 3.65252 3.37427 2.28089 2.17977 1.80849 1.75479 1.60701 1.27665 0.9706 0.604905 0.232301 1.42279 2.98077 0.147976 4.3669 0.0230756 0.2235
threshold=-0.071125980278122933 0.25238481694326903 0.22648490689289699 -0.5823188795861628 -0.5025169952187879 1.0601854895818981 0.12097789759571936 -0.87078986883000176 -0.30655586803625773 0.31086818581827763 2.0868912795534293 0.3635084275501172 0.74057283157953402 -2.8773214421088951 -0.40885754698234611 0.51594569009516145 -0.12078827791636242 -0.7544520788864163 -0.55874208098061862 1.1904079171774564 0.088912553554668497 -0.41135650684848252 1.0000000180025095e-35 0.395325862404239 0.23223870636466656 -0.39253891078676761 -0.97377490413289147 1.21662652768873 1.7902034037041283
decision_type=2 2 2 2 2 2 2 2 2 2 2 2 2 2 2 2 2 2 2 2 2 2 2 2 2 2 2 2 2
left_child=4 2 3 -2 22 11 13 10 -9 -10 15 17 21 -3 -14 -8 -7 -6 -11 -17 -4 -13 -1 24 -24 26 -15 -25 -29
right_child=1 6 20 -5 5 16 7 8 9 18 -12 12 14 25 -16 19 -18 -19 -20 -21 -22 -23 23 27 -26 -27 -28 28 -30
leaf_value=0.037588485522487329 0 0 0.018120704821471389 -0.047380412865008367 0.0030824794108656761 0.012384213279344244 0.0037942974539440059 0.019595768861327401 -0.036738118688778784 -0.0057568680037557015 0 0.0055105667467890713 0 0.030388361886908809 0.025233617134866645 0.039624902433587232 -0.013245620756888572 0.034577940962809403 0.016995094300778033 0.0082887430111813817 0 -0.0075264410031634851 0.022334923238669591 0.039664732633497617 -0.0017910825839277005 0.039265288851332535 0 0.0022976689040747817 0.024321478645268811
leaf_weight=57.2361830919981 3.2331329733133307 3.2333452850580242 3.9873689115047446 119.61218309402466 3.2410674244165447 3.4891732037067413 4.4782727062702241 5.238235518336297 4.2465542256832087 3.2482087761163703 4.9960367530584326 3.4877641648054123 3.737860873341563 10.955514892935755 12.703657016158102 9.1941764205694181 3.2454066425561896 17.167308822274208 3.2444974482059488 3.735554262995719 3.4947884529829025 4.9912561923265475 12.903074011206629 11.674810215830805 3.2287995070219031 9.975939661264416 4.4930680096149453 3.2351914942264548 3.4837057143449783
leaf_count=231 13 13 16 486 13 14 18 21 17 13 20 14 15 44 51 37 13 69 13 15 14 20 52 47 13 40 18 13 14
internal_value=-0.000244464 -0.021589 -0.0425964 -0.0460156 0.0288603 0.0189076 0.0189712 0.0119891 -8.60155e-05 -0.0121718 0.021172 0.0216766 0.0126096 0.0270251 0.0199571 0.0272054 0 0.0308552 0.00346924 0.033108 0.01007 0 0.0340651 0.0268959 0.0164528 0.0303034 0.0215434 0.0338794 0.017847
internal_weight=341.192 197.367 130.327 122.845 143.825 52.0635 67.0394 38.3815 15.9775 10.7393 22.404 45.3289 24.9205 28.6579 16.4415 17.408 6.73458 20.4084 6.49271 12.9297 7.48216 8.47902 91.7618 34.5256 16.1319 25.4245 15.4486 18.3937 6.7189
internal_count=1377 798 529 499 579 209 269 154 64 43 90 182 100 115 66 70 27 82 26 52 30 34 370 139 65 102 62 74 27
is_linear=0
shrinkage=0.0276189


Tree=6
num_leaves=22
num_cat=0
split_feature=5 1 2 2 2 3 6 5 3 4 5 6 6 6 2 4 2 4 2 2 6
split_gain=273.882 142.87 85.4408 37.2388 6.46987 4.27154 3.32212 2.94092 2.53813 2.25651 2.2354 3.35352 1.87653 1.71386 1.64723 1.17271 0.958085 0.452645 0.402731 1.35355 2.1336
threshold=-0.24665788532123237 0.25238481694326903 -0.34947909772639824 0.15086782628824999 -0.77700065090389725 0.60305147600019093 0.063889163621481976 3.0865771548054233 0.5743184167606018 -1.8583782385037042 -0.31980791810928783 -0.32399636800721154 -0.21289426489719279 0.073435161982142921 -1.1624404370912564 0.47233495609485393 2.2357620942890661 0.55447661032449802 -0.95675484184160264 0.86446431521438216 0.66440318561709943
decision_type=2 2 2 2 2 2 2 2 2 2 2 2 2 2 2 2 2 2 2 2 2
left_child=6 2 4 8 12 -6 10 13 -4 -8 16 -12 -2 -3 -15 -5 -1 -9 -16 20 -20
right_child=1 7 3 15 5 -7 9 17 -10 -11 11 -13 -14 14 18 -17 -18 -19 19 -21 -22
leaf_value=0.033654470296370628 0.0018393044610858207 0 -0.04757660138793425 0 -0.022359437028266871 0.010733755061879202 0.022611470018977821 0.0076117091812090421 -0.014915830010866713 -0.0030150605173337262 -0.0031035835258780755 0.028618125975223643 0.029970428008433012 0.0002266296124793396 0.034081372315359286 0.025958309387913877 0.016204275265783451 -0.004531172363332993 0.026233677109385858 0.032343109996458876 0.0052663238910300447
leaf_weight=111.62061932682991 4.2365393638610831 3.7402587831020346 114.8621307015419 3.2374293804168692 4.4973631203174573 5.2329790741205215 3.2348467856645584 3.4980221390724173 4.6866604536771765 3.9921119064092627 3.969513863325119 3.2264615744352332 10.469074591994287 4.2188135832548133 9.661692917346949 3.4934377521276474 9.6757479012012464 3.7495843470096588 6.7340200245380499 6.7170677483081809 15.466505274176596
leaf_count=451 17 15 470 13 18 21 13 14 19 16 16 13 42 17 39 14 39 15 27 27 62
internal_value=5.00405e-05 -0.0200489 -0.0338387 -0.042978 0.0124429 -0.0031891 0.0304219 0.0181447 -0.0465783 0.00707942 0.0315227 0.0100768 0.0237146 0.0206627 0.022215 0.0163504 0.0325501 0 0.0240458 0.019143 0.0132339
internal_weight=340.221 204.502 150.716 126.28 24.436 9.73034 135.719 53.786 119.549 7.22696 128.492 7.19598 14.7056 46.5384 42.7981 6.73087 121.296 7.24761 38.5793 28.9176 22.2005
internal_count=1378 830 614 516 98 39 548 216 489 29 519 29 59 187 172 27 490 29 155 116 89
is_linear=0
shrinkage=0.0276189


Tree=7
num_leaves=23
num_cat=0
split_feature=1 1 2 2 6 0 6 0 2 0 2 3 6 2 2 1 1 1 2 2 6 4
split_gain=246.87 198.644 42.6222 28.8895 9.59185 3.25566 3.47026 4.77511 2.86253 2.98803 2.52017 2.41687 1.33058 1.30586 3.36691 3.14776 2.21602 1.92484 1.22176 0.926149 0.859616 0.651923
threshold=-0.071125980278122933 0.25238481694326903 -0.34947909772639824 0.58946195922805955 0.063889163621481976 0.12097789759571936 2.0868912795534293 0.5059466799840292 -0.45848207873221924 0.86456107691497053 -0.87078986883000176 1.504244974576135 -1.0038705122491531 0.70780939990760816 1.0103159290290467 -0.86669170462781109 -0.55877763148836068 -0.29588872942118866 -0.011744147126353235 1.57052359372388 0.24131696892884266 0.17945563185119981
decision_type=2 2 2 2 2 2 2 2 2 2 2 2 2 2 2 2 2 2 2 2 2 2
left_child=4 2 10 21 12 -3 8 -8 9 11 -2 -7 -1 16 -15 19 -14 -18 -10 -16 -6 -4
right_child=1 5 3 -5 20 6 7 -9 18 -11 -12 -13 13 14 15 -17 17 -19 -20 -21 -22 -23
leaf_value=0.039032621484015241 0.025888629308218895 0.027174337813332249 -0.04666948251298652 0.022581522309465765 -0.01211133407046972 0.03115606032818927 -0.016810322353875324 0.020291974471693463 -0.0089886890019082472 0 0 0 0.032320855400485682 -0.0027907685752389805 0.013541327512611102 0.03341746992974761 0.010226119355446886 0.030903228780282004 0.011607597572947293 -0.0029461772183398084 0.0042798494527493515 -0.015000747073439397
leaf_weight=25.0577292740345 4.7333168387413025 27.826395735144615 115.48277440667152 3.9890702813863745 3.2487063556909552 14.632178083062177 5.740281790494917 3.4974362701177597 3.4948006421327591 3.7183840423822394 5.493179038166998 3.4848206788301459 66.137231349945068 3.7132202833890942 3.1993604749441156 7.6750140637159321 16.651686251163486 7.6983164250850669 3.4833965003490475 3.2114108055830002 3.2475935518741608 3.4230160266160956
leaf_count=102 19 112 476 16 13 59 23 14 14 15 22 14 268 15 13 31 67 31 14 13 13 14
internal_value=7.33949e-05 -0.0195976 -0.038979 -0.0435095 0.0281613 0.0192589 0.0124856 -0.000218465 0.0171383 0.021919 0.0127928 0.026362 0.0297632 0.0271484 0.0157786 0.0219239 0.0289964 0.0183828 0 0.00307841 -0.00157965 -0.0460394
internal_weight=338.839 198.999 133.121 122.895 139.84 65.8777 38.0513 9.23772 28.8136 21.8354 10.2265 18.117 133.344 108.286 17.799 14.0858 90.4872 24.35 6.9782 6.41077 6.4963 118.906
internal_count=1378 812 547 506 566 265 153 37 116 88 41 73 540 438 72 57 366 98 28 26 26 490
is_linear=0
shrinkage=0.0276189


Tree=8
num_leaves=23
num_cat=0
split_feature=5 1 0 1 2 1 0 5 1 5 0 6 2 2 0 2 2 6 2 0 2 2
split_gain=247.292 130.225 81.863 26.6887 6.95501 3.67419 3.17519 3.14188 6.21472 2.74542 2.80166 1.64066 1.58287 1.18513 0.845768 0.89375 0.807054 0.423981 0.697485 0.203184 0.0988206 0.0451819
threshold=-0.24665788532123237 0.25238481694326903 0.26024073307668144 -0.071125980278122933 -0.34947909772639824 -0.31622267764737871 0.87553146094632117 -0.61042258866564769 -0.39029634618564274 3.0865771548054233 0.5059466799840292 0.073435161982142921 -1.1624404370912564 -0.34947909772639824 1.4872762249018743 2.0927696156911524 0.11954894432097406 2.5717166586597169 -0.95675484184160264 1.0601854895818981 0.15086782628824999 0.041642560299687638
decision_type=2 2 2 2 2 2 2 2 2 2 2 2 2 2 2 2 2 2 2 2 2 2
left_child=7 2 3 -2 -5 -4 -7 14 13 11 -11 -3 -13 19 15 -1 -15 18 -14 -9 -20 -6
right_child=1 9 5 4 21 6 -8 8 -10 10 -12 12 17 16 -16 -17 -18 -19 20 -21 -22 -23
leaf_value=0.034673766249501935 0.012815511768112027 0 -0.0009456931197879125 0 -0.045704792879275286 0.027081548809435051 0 0.031691744854588373 -0.0042676638241971885 -0.01301869782272066 0.017963568142838501 0 0.035159713276323994 0 0.0059688245271918641 0.018093793634274744 0.01680285231429304 0.0046044349863750738 0.01272557457097912 0.010880921815112002 0.02608645994723428 -0.016324467046740555
leaf_weight=79.975816234946251 5.7198605835437766 3.7371942698955527 6.2356779873371151 3.2473516762256613 113.25890180468559 12.916609585285189 3.9875557273626319 19.266333237290386 5.2153940796852103 3.9970833212137213 3.2478556334972382 4.2113936245441428 9.3565510809421486 3.9585594683885557 3.1877517253160468 11.375529155135153 6.9123941361904144 3.9784825444221488 16.69473214447499 4.9452249854803076 8.4296605288982374 3.4331544339656821
leaf_count=326 23 15 25 13 471 52 16 78 21 16 13 17 38 16 13 46 28 16 67 20 34 14
internal_value=9.34079e-05 -0.0191183 -0.0324201 -0.0412129 -0.0440294 0.0142492 0.0207854 0.0290295 0.0201839 0.0173291 0 0.0197656 0.0212838 0.0244019 0.0323759 0.0330135 0.0115882 0.0230711 0.0244644 0.0287613 0.0186907 -0.0451364
internal_weight=337.289 202.452 148.799 125.659 119.939 23.1398 16.9042 134.837 40.2979 53.653 7.24494 46.408 42.6708 35.0825 94.5391 91.3513 10.871 38.4594 34.4809 24.2116 25.1244 116.692
internal_count=1378 830 614 521 498 93 68 548 163 216 29 187 172 142 385 372 44 155 139 98 101 485
is_linear=0
shrinkage=0.0276189


Tree=9
num_leaves=20
num_cat=0
split_feature=1 1 0 0 6 1 5 0 3 4 5 4 1 4 4 0 4 0 4
split_gain=242.072 175.538 31.7465 19.4605 5.39541 3.15397 2.05464 3.90091 4.50933 2.00701 1.94014 3.03417 3.41837 2.67967 4.17926 0.955607 0.699999 0.413919 0.386265
threshold=-0.071125980278122933 0.21826967572676137 0.26024073307668144 -0.74696569458559481 0.098069912394811207 0.27200939603883528 -0.78574422598489435 1.0601854895818981 -0.73205433513426821 0.62356002873871164 1.3324079466275258 0.088305091454874543 2.755655929380628 0.565113957351007 0.088305091454874543 -2.8773214421088951 0.42635391897822977 0.45447985259655094 -0.55411088880517778
decision_type=2 2 2 2 2 2 2 2 2 2 2 2 2 2 2 2 2 2 2
left_child=4 2 3 -2 6 -3 -1 8 -8 -9 13 18 16 14 15 -7 -13 -16 -12
right_child=1 5 -4 -5 -6 10 7 9 -10 -11 11 12 -14 -15 17 -17 -18 -19 -20
leaf_value=0.033906206869568301 0.014065277742820362 -0.0017674964796603311 0.017319278847613067 -0.043497166302212308 0 0.0020154658622789719 0 0.016421308230059762 0.028219453447598363 -0.0038441939070596293 0.0024742215355551779 -0.016822539361832152 0.019451082697810554 0.039222973078160743 0.0029018377350152518 0.024397596059962171 0 -0.0083364906357802429 0.025049578627652561
leaf_weight=56.824868232011795 3.7328610867261878 4.6785230189561835 6.4646677523851386 120.32259199023247 4.9954857677221289 3.9467352181673077 4.4293572902679434 5.9223329722881299 65.49979268014431 5.1858082562685013 3.2332799881696701 3.4763953983783704 4.2411071807146064 7.411620005965232 3.2314981967210761 20.535773068666462 6.2012985497713089 3.2189785987138748 6.9299636185169238
leaf_count=233 15 19 26 504 20 16 18 24 266 21 13 14 17 30 13 83 25 13 28
internal_value=0 -0.0197299 -0.0383577 -0.0415191 0.0273387 0.0162269 0.0283548 0.0239062 0.0264175 0.00564463 0.0179037 0.00958434 0 0.0222915 0.0166664 0.0217815 -0.00808061 -0.000218093 0.0204576
internal_weight=340.483 197.625 130.52 124.055 142.858 67.1052 137.862 81.0373 69.9291 11.1081 62.4266 24.082 13.9188 38.3446 30.933 24.4825 9.67769 6.45048 10.1632
internal_count=1398 816 545 519 582 271 562 329 284 45 252 97 56 155 125 99 39 26 41
is_linear=0
shrinkage=0.0276189


Tree=10
num_leaves=21
num_cat=0
split_feature=1 1 0 0 6 1 5 3 2 5 2 2 2 2 6 0 6 6 0 0
split_gain=229.994 169.377 28.4943 16.4537 5.41325 3.03166 2.39077 5.05671 2.3445 1.83105 2.26391 3.43431 1.82963 1.49457 1.37581 0.892922 0.649476 1.4897 0.209546 0.604644
threshold=-0.058417262636754126 0.21826967572676137 0.26024073307668144 -0.74696569458559481 0.098069912394811207 0.27200939603883528 -0.24665788532123237 0.41678376523234256 2.7763265199888303 1.3324079466275258 -0.14437190471886271 -0.87078986883000176 -0.58548975395895864 0.10234804933134072 -0.17327138998121874 -2.8773214421088951 -1.0451908570593482 -0.9708142364009974 0.70456419380942348 0.44313890997297495
decision_type=2 2 2 2 2 2 2 2 2 2 2 2 2 2 2 2 2 2 2 2
left_child=4 2 3 -2 6 -3 8 14 16 15 11 18 -9 -5 -8 -7 -1 -18 19 -11
right_child=1 5 -4 13 -6 9 7 12 -10 10 -12 -13 -14 -15 -16 -17 17 -19 -20 -21
leaf_value=0.039119529829356313 0.011584687739894454 -0.0017261931006702436 0.015729593222694474 -0.043393813746386102 0 0.0019699140537258555 -0.0082493857238716984 0.0072366784513793808 0.0017899250812004287 0.011269313181338204 0.022835362933891185 -0.013327265018916691 0.040352013543250034 -0.010841982366644184 0.010206329157395805 0.023383244945792882 0.0042296774220604311 0.028377985339874519 0.018974990467849593 0
leaf_weight=21.957405984401703 3.4809754341840735 4.6781747937202445 6.2105273604392996 115.26035955548286 5.479834482073783 3.9458252340555182 4.9649563431739807 4.4525638222694397 3.9397792518138877 4.2096124142408389 6.4353248924016944 5.2410023361444482 5.2029452770948392 3.4519769251346579 5.448466435074808 34.316888555884361 4.3778102844953528 87.457648113369942 3.7146059274673471 4.4655348360538483
leaf_count=91 14 19 25 488 22 16 20 18 16 17 26 21 21 14 22 139 18 358 15 18
internal_value=0 -0.0194001 -0.0379379 -0.0409199 0.0265487 0.0158522 0.027613 0.0152436 0.029427 0.0175001 0.00936272 0.0025283 0.0288209 -0.0427005 0 0.0217865 0.0301857 0.0274957 0.0111974 0.00434535
internal_weight=338.692 195.411 128.404 122.193 143.281 67.007 137.802 20.0689 117.733 62.3288 24.0661 17.6308 9.65551 118.712 10.4134 38.2627 113.793 91.8355 12.3898 8.67515
internal_count=1398 812 541 516 586 271 564 81 483 252 97 71 39 502 42 155 467 376 50 35
is_linear=0
shrinkage=0.0276189


Tree=11
num_leaves=22
num_cat=0
split_feature=1 1 2 2 6 1 5 3 2 2 5 0 2 2 2 2 0 6 6 0 0
split_gain=218.9 162.021 27.6126 17.4046 5.18028 2.91041 2.23693 4.85471 2.20763 1.72449 1.70829 2.17421 2.43043 1.89248 1.31861 1.17037 0.819982 0.638215 1.38567 0.199156 0.307127
threshold=-0.058417262636754126 0.21826967572676137 -0.73481313070034093 0.21715149778627652 0.098069912394811207 0.27200939603883528 -0.24665788532123237 0.41678376523234256 2.7763265199888303 -0.58548975395895864 1.3324079466275258 -0.094933472719525666 -0.87078986883000176 -0.60139100029918346 -0.79398824708776317 -0.3212508435919173 -2.8773214421088951 -1.0451908570593482 -0.9708142364009974 0.53564129804254101 0.39461431096983191
decision_type=2 2 2 2 2 2 2 2 2 2 2 2 2 2 2 2 2 2 2 2 2
left_child=4 2 -2 15 6 -3 8 14 17 -9 16 -12 19 -14 -8 -4 -7 -1 -19 20 -13
right_child=1 5 3 -5 -6 10 7 9 -10 -11 11 12 13 -15 -16 -17 -18 18 -20 -21 -22
leaf_value=0.038364415104871617 0.021245251012820952 -0.0016858564482039469 -0.010563287920069315 0.0043760035800827247 0 0.001925388154327558 0.0099913418571185332 0.007072729652565374 0.0017494572617761837 0.039529569875100173 0.024745572771738104 0.0083713846276455492 -0.020905340180920825 0.0025095489846430567 -0.0080800924633871642 -0.042815867781548785 0.022808712458898799 0.0041340254503292664 0.027723799095608379 0.016086934652108961 0
leaf_weight=21.789995968341827 4.9586208015680304 4.6778279244899741 3.2217730432748786 5.4721660912036887 5.479834482073783 3.9449285119771949 5.445203885436058 4.4493811279535294 3.9389390796422949 5.1821905225515348 4.9371192157268551 3.2220358699560201 3.4952670633792877 3.2299392670392963 4.9652184247970599 113.53065632283688 34.231883734464645 4.3747879266738883 87.073951885104179 5.6911709904670715 3.4662634581327438
leaf_count=91 20 19 13 22 22 16 22 18 16 21 20 13 14 13 20 486 139 18 358 23 14
internal_value=1.72666e-05 -0.018983 -0.0372479 -0.039915 0.0259609 0.015472 0.0270064 0.0149241 0.0287795 0.0282489 0.0170909 0.00915563 0.00323426 -0.00792633 0 -0.0421809 0.0212616 0.0295211 0.0268642 0.0109599 0.00258118
internal_weight=336.779 194.08 127.183 122.225 142.7 66.8964 137.22 20.042 117.178 9.63157 62.2186 24.0418 19.1047 6.72521 10.4104 116.752 38.1768 113.239 91.4487 12.3795 6.6883
internal_count=1398 812 541 521 586 271 564 81 483 39 252 97 77 27 42 499 155 467 376 50 27
is_linear=0
shrinkage=0.0276189


Tree=12
num_leaves=27
num_cat=0
split_feature=1 1 0 2 0 6 0 2 1 5 5 6 0 2 0 2 1 1 0 2 6 6 5 1 2 6
split_gain=200.367 134.211 29.3456 19.8988 6.90434 4.25467 7.64151 3.83684 3.47622 2.29313 2.95316 2.19794 1.52107 1.35828 1.19652 2.93321 5.04677 2.32841 1.23526 0.81492 0.69961 0.604958 0.509738 0.297592 0.270458 0.103345
threshold=-0.088918184976039302 0.2077142417873237 0.26594744858434866 0.21715149778627652 1.4872762249018743 -0.026120749562322011 -0.834029471581481 -0.29543457637610421 0.71427276995847022 -0.24665788532123237 -0.064966606607071084 -0.06465706552510643 -2.8762650195800545 2.7763265199888303 0.12097789759571936 -0.92239315335047622 1.43467550711492 1.6376518831584967 -0.17940317567012479 -0.78649869507060732 -0.30615116090559996 -0.16791282589656001 1.1246899198036358 0.97788788446229213 -1.0637550777670726 0.21835488880566098
decision_type=2 2 2 2 2 2 2 2 2 2 2 2 2 2 2 2 2 2 2 2 2 2 2 2 2 2
left_child=4 2 3 7 9 6 12 -2 25 13 20 -12 -3 -1 18 16 -16 23 22 -6 -11 -22 -10 -17 -18 -7
right_child=1 5 -4 -5 19 8 -8 -9 14 10 11 -13 -14 -15 15 17 24 -19 -20 -21 21 -23 -24 -25 -26 -27
leaf_value=0.028887400089858347 -0.0067611257346356212 0 0.015617327524813126 0.01130311612020805 0.0057353946762048859 0.0089577470071951285 -0.030691617943387178 -0.042798071620789628 0 0.011167501364858322 0.033692106721154663 0.0026326796633618227 0.021989965289802155 0.0026133867542029632 0.03125929152351075 -0.001981173272972485 -0.0066118439209413554 0.0080924819376222562 0.030948458197181731 -0.011045474523778638 -0.010161676781424517 0.0028666872217256102 0.013988286455313182 -0.020414188332667432 0.0021769662373010853 0.029515645402358931
leaf_weight=106.12797632813454 4.0412684082984915 3.1997668743133545 6.9425756633281699 4.7136908024549475 3.1781492084264755 4.4371992051601437 3.9087302535772306 106.45794811844826 5.1601642519235593 3.4774695336818695 6.8714742362499237 4.4521392136812192 4.4227730631828308 3.4444764852523795 5.8730969876050931 4.724017947912218 3.4422729015350342 5.4761075973510742 3.7153166830539694 3.1773651689290991 3.4885049760341644 3.2370654791593569 3.2089557498693466 3.2385077476501465 3.2279473841190338 13.260665833950041
leaf_count=440 17 13 28 19 13 18 16 461 21 14 28 18 18 14 24 19 14 22 15 13 14 13 13 13 13 54
internal_value=-0.000282328 -0.0187291 -0.0359401 -0.0393129 0.0249544 0.0122704 -0.00138 -0.0417241 0.0154325 0.026318 0.014772 0.0241801 0.0127857 0.0282724 0.00949391 0.0047266 0.0142223 -0.00302046 0.0171945 -0.00012443 0.00144065 -0.00156796 0.00661421 -0.013026 0 0.0260995
internal_weight=326.906 189.451 122.155 115.213 137.455 67.2955 11.5313 110.499 55.7643 131.099 21.5267 11.3236 7.62254 109.572 38.0664 25.982 12.5433 13.4386 12.0844 6.35551 10.203 6.72557 8.36912 7.96253 6.67022 17.6979
internal_count=1365 798 525 497 567 273 47 478 226 541 87 46 31 454 154 105 51 54 49 26 41 27 34 32 27 72
is_linear=0
shrinkage=0.0276189


Tree=13
num_leaves=23
num_cat=0
split_feature=1 1 0 2 0 2 1 5 0 5 5 4 1 4 0 0 1 2 2 0 5 0
split_gain=190.648 128.761 28.2668 19.2352 6.60577 3.69551 3.01922 2.13323 3.13669 3.27388 1.40905 1.43738 3.57403 2.79798 6.15149 1.68015 5.36419 1.26532 0.779195 0.272043 0.177575 0.107748
threshold=-0.088918184976039302 0.2077142417873237 0.26594744858434866 0.21715149778627652 1.4872762249018743 -0.29543457637610421 0.25238481694326903 -0.24665788532123237 0.87553146094632117 -0.064966606607071084 3.0865771548054233 0.565113957351007 1.2422292114027638 0.088305091454874543 0.40249351940791073 0.32275566518904431 1.1365653018702402 2.7763265199888303 -0.78649869507060732 0.89335711782736782 -0.13543434842844967 0.77395835726735862
decision_type=2 2 2 2 2 2 2 2 2 2 2 2 2 2 2 2 2 2 2 2 2 2
left_child=4 2 3 5 7 -2 -3 17 9 20 11 13 -13 15 -15 16 -8 19 -6 21 -9 -1
right_child=1 6 -4 -5 18 -7 10 8 -10 -11 -12 12 -14 14 -16 -17 -18 -19 -20 -21 -22 -23
leaf_value=0.026255921712690467 -0.0066132268012376698 -0.0054881609430354637 0.015246409036068781 0.011043779721371534 0.0056137007015854661 -0.042139448542391086 -0.0037376388773330662 0.0061005706162701951 -0.0031572086143008731 0.029846986944959956 0 0.033608147365663608 0 0.018005427076782734 -0.017007344780588071 0.026744046639289372 0.022298295143049662 0.0025559774346524456 -0.010791895748508251 0.035135394447714484 0 0.011255997447863287
leaf_weight=71.249809548258781 4.0363104343414298 4.8557043373584738 6.9355093091726294 4.7108147889375678 3.1755324900150299 105.16665749251842 9.863569796085363 4.2214481830596924 3.9892916679382315 9.7943452447652817 5.7358167320489875 9.0312664806842786 3.9645082652568808 6.9233730733394605 6.6890585273504257 9.3152080476284009 10.798238128423689 3.443372130393981 3.1817947775125495 27.099293455481529 3.4861917048692748 7.197940155863761
leaf_count=297 17 20 28 19 13 461 40 17 16 40 23 37 16 28 27 38 44 14 13 113 14 30
internal_value=-0.000251377 -0.0183307 -0.0353284 -0.0386742 0.024403 -0.0410721 0.0120061 0.0257431 0.0144795 0.0195734 0.0137469 0.0150524 0.0246713 0.0113146 0 0.0159324 0.00925777 0.0276511 -5.95147e-05 0.0282514 0.00248544 0.0252703
internal_weight=324.865 188.026 120.849 113.914 136.839 109.203 67.1767 130.482 21.4913 17.502 62.321 56.5852 12.9958 43.5894 13.6124 29.977 20.6618 108.99 6.35733 105.547 7.70764 78.4477
internal_count=1365 798 525 497 567 478 273 541 87 71 253 230 53 177 55 122 84 454 26 440 31 327
is_linear=0
shrinkage=0.0276189


Tree=14
num_leaves=26
num_cat=0
split_feature=1 1 0 2 0 6 0 2 1 6 0 0 2 1 1 0 2 5 5 5 2 5 2 1 6
split_gain=181.551 123.496 27.2491 18.6105 6.32409 3.98871 7.24479 3.56619 3.23821 2.25136 1.46149 1.14405 2.78678 4.78035 2.24721 1.2126 0.965221 0.947846 5.5395 1.12112 0.745003 0.498658 0.274242 0.245553 0.0810934
threshold=-0.088918184976039302 0.2077142417873237 0.26594744858434866 0.21715149778627652 1.4872762249018743 -0.026120749562322011 -0.834029471581481 -0.29543457637610421 0.71427276995847022 0.11940967803608547 -2.8762650195800545 0.12097789759571936 -0.92239315335047622 1.43467550711492 1.6376518831584967 -0.17940317567012479 2.7763265199888303 -0.24665788532123237 -0.064966606607071084 -0.12928285181077812 -0.78649869507060732 1.1246899198036358 -1.0637550777670726 0.97788788446229213 0.21835488880566098
decision_type=2 2 2 2 2 2 2 2 2 2 2 2 2 2 2 2 2 2 2 2 2 2 2 2 2
left_child=4 2 3 7 9 6 10 -2 24 16 -3 15 13 -13 23 21 17 -1 19 -19 -6 -10 -15 -14 -7
right_child=1 5 -4 -5 20 8 -8 -9 11 -11 -12 12 14 22 -16 -17 -18 18 -20 -21 -22 -23 -24 -25 -26
leaf_value=0.027824070503267986 -0.0064685555139123996 0 0.014885570663199869 0.010790850890096487 0.00549459934489804 0.0084659942914954642 -0.030086561026179088 -0.041517246503292873 0 0 0.021352171882092694 0.030356066477779751 -0.0021355991639649538 -0.0066807010455241338 0.0077257557366779981 0.030108193017496138 0.0024998262601652493 0.0082041379765045164 0.029693002286582809 -0.0092685997025455484 -0.010544820822232055 0.01341535423441963 0.002126799271746757 -0.020069180601362483 0.028446029316905909
leaf_weight=103.46121196448803 4.0313848704099646 3.1958972364664078 6.9278173297643653 4.7077212184667578 3.1729241609573364 4.428429082036021 3.8905642926692945 103.82580114901066 5.1490360349416715 3.2431006431579581 4.4037676304578781 5.8303925395011884 4.7194210439920443 3.438951164484024 5.4698248505592346 3.6988992393016806 3.4422812759876242 5.7139070332050323 9.9994418621063215 3.9865056425333041 3.1859468817710868 3.198164775967598 3.2271190732717514 3.2385223209857941 13.171165525913237
leaf_count=434 17 13 28 19 13 18 16 461 21 13 18 24 19 14 22 15 14 23 41 16 13 13 13 13 54
internal_value=-0.000223913 -0.017954 -0.034746 -0.0380679 0.0238724 0.011726 -0.00147029 -0.0404549 0.0147979 0.02519 0.01229 0.00904067 0.00437652 0.0136847 -0.00314943 0.016558 0.0257713 0.0262359 0.0161074 0 0 0.00613556 0 -0.0129695 0.025138
internal_weight=322.758 186.553 119.493 112.565 136.205 67.0602 11.4902 107.857 55.5699 129.846 7.59966 37.9703 25.9242 12.4965 13.4278 12.0461 126.603 123.161 19.6999 9.70041 6.35887 8.3472 6.66607 7.95794 17.5996
internal_count=1365 798 525 497 567 273 47 478 226 541 31 154 105 51 54 49 528 514 80 39 26 34 27 32 72
is_linear=0
shrinkage=0.0276189


Tree=15
num_leaves=27
num_cat=0
split_feature=5 1 1 4 2 5 4 1 0 2 6 4 2 6 5 6 1 2 6 2 2 6 0 6 0 0
split_gain=175.215 101.108 52.9829 25.2248 9.94404 6.67098 6.6367 4.29996 4.19542 3.82532 3.62522 3.55188 3.28453 2.81348 2.29176 1.66985 1.5796 1.40581 1.34578 1.11585 1.00128 0.301781 0.29504 0.226021 0.0813134 0.0733075
threshold=-0.24884543951904581 0.25238481694326903 -0.071125980278122933 0.214536119940059 -0.40467894393780929 -0.56563934435040542 0.20614704673051512 -0.29588872942118866 0.70456419380942348 0.86446431521438216 -0.62029153706564344 -0.58337742297612116 2.7763265199888303 0.063889163621481976 3.0865771548054233 0.51594569009516145 0.38130436775460713 -0.47483035875536328 2.0868912795534293 -0.94069974963671965 -0.94069974963671965 -0.45844196075458005 0.11910866957337003 -1.0000000180025095e-35 1.0357085555081886 0.44313890997297495
decision_type=2 2 2 2 2 2 2 2 2 2 2 2 2 2 2 2 2 2 2 2 2 2 2 2 2 2
left_child=5 2 7 4 -4 12 8 17 22 11 -8 -3 21 -9 15 16 -13 20 19 -17 -2 -1 -7 -23 -12 -5
right_child=1 9 3 25 -6 6 10 13 -10 -11 24 14 -14 -15 -16 18 -18 -19 -20 -21 -22 23 -24 -25 -26 -27
leaf_value=0.030700813733985151 0 -0.0058779308445421913 0.0013830477682075344 0.018568256688058161 -0.040486906328092029 -0.0014435492042334855 0 0.025910715324973885 0.015332483725000632 0.036088526192749354 0.029057556079572156 -0.0077893701390589608 0.0032846084238543232 0 0 0.031833976313921576 0.01340600166496317 0.0055571998950809352 0 0.013353188028066225 -0.02110239127457442 0.0055368849101499569 -0.023310661653047651 0.022794428442624394 0.0068204074271699094 0.0007686722559110458
leaf_weight=86.484188124537468 3.2155219912528992 5.4352131485939017 3.4709161669015876 3.2085829228162757 108.12995000183582 3.1859444975852949 4.5959266275167456 9.4883533269166929 3.6243075132369995 6.5875677764415732 13.701751038432127 3.2141563147306424 5.9007270932197562 3.9832195937633506 5.9909911006689063 10.606428220868109 4.8797017782926559 4.2012820690870303 3.4678624570369712 13.560272142291074 3.2355649620294571 5.8375264406204224 3.8802314549684525 6.0583516955375654 3.3900141716003409 3.2088615447282791
leaf_count=366 13 22 14 13 485 13 19 39 15 27 57 13 24 16 24 44 20 17 14 55 13 24 16 25 14 13
internal_value=0.000583608 -0.0160737 -0.0282816 -0.0358951 -0.0390025 0.0245609 0.0119919 0.00810131 -0.00410866 0.0157795 0.0206925 0.0119375 0.0281428 0.0182884 0.0148081 0.0174074 0.00276196 -0.00339847 0.0207727 0.0230741 -0.0120005 0.0293878 -0.0172307 0.0168491 0.0263095 0.013597
internal_weight=332.543 195.884 142.142 118.018 111.601 136.659 32.3782 24.1239 10.6905 53.7422 21.6877 47.1546 104.281 13.4716 41.7194 35.7284 8.09386 10.6524 27.6346 24.1667 6.45109 98.3801 7.06618 11.8959 17.0918 6.41744
internal_count=1415 842 623 525 499 573 134 98 44 219 90 192 439 55 170 146 33 43 113 99 26 415 29 49 71 26
is_linear=0
shrinkage=0.0276189


Tree=16
num_leaves=28
num_cat=0
split_feature=5 5 0 2 2 5 4 0 0 6 2 6 4 3 3 2 4 4 5 3 2 2 3 6 6 6 0
split_gain=166.841 82.4323 48.1015 27.1841 16.6168 6.39464 6.35864 4.02842 3.60103 4.41687 3.52871 3.48379 3.22852 3.16472 7.65665 3.12544 3.00202 2.23896 2.23578 1.65573 1.47103 1.14221 1.11703 0.247932 0.199017 0.108053 0.0476108
threshold=-0.24884543951904581 0.44855050259910734 0.24675757794161732 0.21715149778627652 -0.40467894393780929 -0.56563934435040542 0.20614704673051512 0.70456419380942348 1.0601854895818981 -0.17327138998121874 0.86446431521438216 -0.62029153706564344 1.4550343634268275 0.041250564790054213 0.32542053741990956 2.7763265199888303 1.0256577580344437 1.0167149911858924 0.04420738130154727 0.65248210181290278 0.080092906107728637 -0.88256293469904012 -1.0000000180025095e-35 -0.45844196075458005 -1.0000000180025095e-35 1.3679172798560371 1.0357085555081886
decision_type=2 2 2 2 2 2 2 2 2 2 2 2 2 2 2 2 2 2 2 2 2 2 2 2 2 2 2
left_child=5 2 3 4 -2 15 7 22 9 21 12 -8 13 25 -15 23 -11 20 -5 -6 -16 -4 -7 -1 -25 -3 -13
right_child=1 10 8 18 19 6 11 -9 -10 16 -12 26 -14 14 17 -17 -18 -19 -20 -21 -22 -23 -24 24 -26 -27 -28
leaf_value=0.030080118106239832 0.0080204661436706886 0.032222405439747415 0.0074864581970620842 0.02976890422305465 -0.040146226284899444 -0.00038515060581546746 0 0.015021382828136995 -0.013561448572355285 0.031566140316475207 0.036496901499810878 0.028457388276482261 0.031660452229226567 -0.026780763074187634 0.013505421072699414 0.0032062943863825429 0 -0.0088389112493350627 0 -0.0070212291206963795 -0.00093548577351478305 -0.010699911267787722 -0.027905471361113671 0.0054074052340550962 0.022318197797603821 0.0061702790314752424 0.0066757929994935789
leaf_weight=85.856904670596123 4.9214707612991324 3.1454476863145819 3.9258287996053696 3.4478658139705649 103.71803040802479 3.9223038256168365 4.5959266275167456 3.6146522015333176 3.2380344271659842 8.5779984444379789 4.6175766587257376 13.623049646615987 4.5953564941883078 4.5527717471122733 25.560315817594532 5.898361235857009 3.4334377944469461 3.2069313675165168 3.1820064783096313 3.0857112854719153 3.4387661516666403 4.4427824318409002 3.1518525034189206 5.8323173224925995 6.0349036604166013 3.1750110536813736 3.3859675228595725
leaf_count=366 20 13 16 14 472 16 19 15 13 35 19 57 19 19 104 24 14 13 13 13 14 18 13 24 25 13 14
internal_value=0.000596356 -0.0157373 -0.0266629 -0.0338402 -0.0371248 0.0240449 0.0117053 -0.00401425 0.00839622 0.0132441 0.0134941 0.0202518 0.0102546 0.00694688 0.00295773 0.0275706 0.0234925 0.00835091 0.0167356 -0.0394408 0.0111306 -4.57053e-05 -0.0168812 0.0287943 0.0165172 0.0242381 0.0257813
internal_weight=330.182 194.265 141.973 118.355 111.725 135.916 32.2938 10.6888 23.6181 20.38 52.2922 21.6049 47.6746 43.0792 36.7588 103.622 12.0114 32.206 6.62987 106.804 28.9991 8.36861 7.07416 97.7241 11.8672 6.32046 17.009
internal_count=1415 842 628 532 505 573 134 44 96 83 214 90 195 176 150 439 49 131 27 485 118 34 29 415 49 26 71
is_linear=0
shrinkage=0.0276189


Tree=17
num_leaves=28
num_cat=0
split_feature=5 5 0 2 2 5 4 0 0 6 2 6 4 3 3 2 0 4 5 4 3 2 2 3 6 6 0
split_gain=158.939 79.0184 46.3019 26.2659 16.1248 6.13357 6.09709 3.87328 3.44843 4.217 3.39186 3.34939 3.1032 3.0819 7.28486 2.99557 5.10635 2.86425 2.14778 2.13841 1.5968 1.4122 1.08975 1.0476 0.725964 0.0842478 0.016643
threshold=-0.24884543951904581 0.44855050259910734 0.24675757794161732 0.21715149778627652 -0.40467894393780929 -0.56563934435040542 0.20614704673051512 0.70456419380942348 1.0601854895818981 -0.17327138998121874 0.86446431521438216 -0.62029153706564344 1.4550343634268275 0.041250564790054213 0.32542053741990956 2.0927696156911524 -1.6210906779425425 1.0256577580344437 0.04420738130154727 1.0167149911858924 0.65248210181290278 0.080092906107728637 -0.88256293469904012 -1.0000000180025095e-35 -0.51481730493440658 1.3679172798560371 1.0357085555081886
decision_type=2 2 2 2 2 2 2 2 2 2 2 2 2 2 2 2 2 2 2 2 2 2 2 2 2 2 2
left_child=5 2 3 4 -2 15 7 23 9 22 12 -8 13 25 -15 -1 -17 -11 -5 21 -6 -16 -4 -7 -18 -3 -13
right_child=1 10 8 18 20 6 11 -9 -10 17 -12 26 -14 14 19 16 24 -19 -20 -21 -22 -23 -24 -25 -26 -27 -28
leaf_value=0.028975838837231521 0.0078343573786655747 0.031664745514640401 0.0073215958863628566 0.029176832640407158 -0.039605568268515703 -0.00037637007887723802 0 0.014717410378677255 -0.013258947993540202 0.030880437916419302 0.035836015337918407 0.027877024706956324 0.031061414789969533 -0.026187526681529769 0.013162550069030297 0.028913496810797815 -0.012312352089701039 0 0 -0.0086404564905441274 -0.0068730315304802066 -0.0009146156038610481 -0.010443216059559163 -0.027274228240629042 0.0014176192167892393 0.0060393762043300858 0.0065342594736478151
leaf_weight=90.323347806930542 4.9191277772188178 3.1274182051420203 3.9222413599491119 3.4377826899290076 102.26189602911472 3.9224541783332825 4.5959266275167456 3.6048251241445541 3.2394972741603842 8.5453206747770292 4.5886728167533866 13.54113239049912 4.571079969406127 4.5463493317365637 25.524093061685566 5.5416399538516998 3.1574541330337524 3.4334377944469461 3.1820064783096313 3.2091588079929343 3.0832515656948081 3.4391703754663459 4.4467653930187261 3.1550427079200727 3.9215926975011808 3.1724019199609756 3.3819377720355979
leaf_count=387 20 13 16 14 472 16 19 15 13 35 19 57 19 19 104 23 13 14 13 13 13 14 18 13 16 13 14
internal_value=0.000604842 -0.0154147 -0.0262023 -0.0333212 -0.0365895 0.0235451 0.0114255 -0.0039319 0.00817142 0.0129356 0.0131973 0.0198242 0.0100117 0.00675987 0.00282001 0.0270169 0.0105507 0.02297 0.0163786 0.00809719 -0.0389015 0.0108272 0 -0.0165616 -0.0027812 0.0238412 0.0252699
internal_weight=327.795 192.65 140.471 116.884 110.264 135.145 32.2013 10.6823 23.5873 20.3478 52.1783 21.519 47.5897 43.0186 36.7188 102.944 12.6207 11.9788 6.61979 32.1724 105.345 28.9633 8.36901 7.0775 7.07905 6.29982 16.9231
internal_count=1415 842 628 532 505 573 134 44 96 83 214 90 195 176 150 439 52 49 27 131 485 118 34 29 29 26 71
is_linear=0
shrinkage=0.0276189


Tree=18
num_leaves=30
num_cat=0
split_feature=5 1 2 2 6 5 1 0 0 4 6 4 5 4 4 5 1 6 6 0 4 2 4 0 0 0 0 2 1
split_gain=145.179 97.279 49.7211 21.3175 6.28537 4.47366 6.92574 4.29799 4.60199 4.06994 2.95957 2.48494 2.47557 1.27779 4.47967 2.59117 1.24426 1.01685 0.7961 0.959357 0.783335 0.70589 0.618068 0.37979 0.237914 0.141511 2.38542 0.0824493 0.509412
threshold=-0.13543434842844967 0.25238481694326903 -0.3212508435919173 0.15086782628824999 1.9353833485827145 -0.78574422598489435 -0.39029634618564274 0.12097789759571936 0.5059466799840292 0.18617818803532413 0.17791312253471436 0.6673755658669247 -0.73238546680077576 0.54102935701511801 0.1090542908024676 1.3972007256368126 -0.1510093483095841 -0.44191382283050207 -0.62029153706564344 0.094548663053368329 0.31086818581827763 -0.37505483406141943 0.93056586091747795 0.57135845460788792 -0.13035839894902687 0.26024073307668144 0.54392644604472984 -0.87078986883000176 -0.1510093483095841
decision_type=2 2 2 2 2 2 2 2 2 2 2 2 2 2 2 2 2 2 2 2 2 2 2 2 2 2 2 2 2
left_child=5 2 11 9 13 17 12 -6 -9 -4 16 27 23 14 21 -15 -8 -1 25 24 -16 -3 -13 -7 -20 -14 -27 -2 -29
right_child=1 4 3 -5 7 6 10 8 -10 -11 -12 22 18 15 20 -17 -18 -19 19 -21 -22 -23 -24 -25 -26 26 -28 28 -30
leaf_value=0.028735118872278774 0.025158270267717456 0.030119455332056545 -0.039432869497086673 0.014313364355048279 0.015497383068703898 0.0079094994131798969 0 -0.029905206842220682 0.0058298244675006137 -0.00083164131247179523 0.010970262751965837 -0.0095842866366848793 0.022568099491785027 0.035824394330136393 -0.0075906445033169867 0.00016159295830151768 -0.023170822384665845 0.0080107479917595897 0.014093972786182395 0.028534576198857922 0.0064679162579186879 0.010180431343059399 0.0047471966870808206 -0.003521105783229559 0 -0.0062445103338723716 0.015098075826972803 0.014821820402188437 0
leaf_weight=61.426319614052773 5.3568817675113687 8.9539346545934659 102.04932618141174 5.1888165175914756 6.0848365426063529 3.0307831019163123 3.2078115791082382 4.732085704803465 3.481182798743248 3.2702612280845633 5.6600826680660248 3.1897604912519446 4.0443860888481167 10.286799445748327 4.678823381662367 3.1885106414556494 3.7158512473106367 5.5775927603244773 4.5207713395357132 27.046993553638458 5.8510545641183853 7.8274666070938173 3.6735577136278152 3.0173151344060898 3.3194597810506812 3.7841601967811576 11.305897682905195 3.4015109091997155 3.6990188211202621
leaf_count=265 22 37 479 21 25 13 13 19 14 14 23 13 17 43 19 13 16 23 19 114 24 32 15 13 14 16 48 14 15
internal_value=0.0004686 -0.0154918 -0.0285399 -0.0356932 0.0148631 0.0217128 0.0159094 0 -0.0133642 -0.0384426 -0.00119399 0.0111454 0.0197946 0.0202974 0.0143842 0.0293148 -0.0138794 0.0274309 0.0216668 0.0252932 0 0.0229026 0 0 0.010086 0.0132503 0.00841735 0.0181918 0.00826686
internal_weight=324.571 184.914 129.829 110.508 55.0847 139.657 72.6535 14.2981 8.21327 105.32 12.5837 19.3207 60.0698 40.7866 27.3113 13.4753 6.92366 67.0039 54.0217 34.8872 10.5299 16.7814 6.86332 6.0481 7.84023 19.1344 15.0901 12.4574 7.10053
internal_count=1413 819 593 514 226 594 306 58 33 493 52 79 254 168 112 56 29 288 228 147 43 69 28 26 33 81 64 51 29
is_linear=0
shrinkage=0.0276189


Tree=19
num_leaves=28
num_cat=0
split_feature=5 1 2 2 1 5 1 3 4 4 4 2 0 4 3 3 0 0 0 1 0 1 4 3 1 1 5
split_gain=138.309 93.4308 48.116 20.6641 4.34494 4.27402 6.63078 4.2275 3.94718 3.29524 3.26974 3.00317 2.9741 2.38839 2.18511 2.14745 1.97585 1.74732 1.84333 2.74106 1.42052 0.949122 0.590881 0.463685 0.308976 4.57261 0.183088
threshold=-0.13543434842844967 0.25238481694326903 -0.3212508435919173 0.15086782628824999 1.0290858612460922 -0.78574422598489435 -0.39029634618564274 -0.67675311066478272 0.18617818803532413 0.54102935701511801 0.069829211033409375 0.86446431521438216 1.0601854895818981 0.6673755658669247 0.2896716427903262 -0.36639217036537447 0.40249351940791073 0.16882174996603524 0.53564129804254101 2.5563106155202999 0.3460659488203352 -0.1510093483095841 0.93056586091747795 0.31978301692724098 0.12208969992349666 1.0290858612460922 -0.5332429548457619
decision_type=2 2 2 2 2 2 2 2 2 2 2 2 2 2 2 2 2 2 2 2 2 2 2 2 2 2 2
left_child=5 2 13 8 9 24 7 -7 -4 10 20 14 -9 23 -6 -8 -12 -16 19 -19 -3 -17 -15 -2 -1 -26 -14
right_child=1 4 3 -5 11 6 15 12 -10 -11 16 -13 26 22 17 21 -18 18 -20 -21 -22 -23 -24 -25 25 -27 -28
leaf_value=0.028748961458209342 0.0057472408077583574 0.0041744458244080771 -0.038952705829668539 0.013983991162619901 -0.012265502553996955 0 0.0093472736050189444 0.024535099691907182 -0.00081343392776215661 0.03543746966845697 0.01202200008161663 0.026481801017495952 0 -0.0093677863131545174 0.020137167371813491 0 -0.01195520145920941 0.0029426816188458152 0.011726573484789804 -0.024883209468409408 0.034585623460067244 -0.019603907873303242 0.0046427976147323906 0.024654044669466184 0 0.031576216908584781 0.0062842367677340459
leaf_weight=54.999401792883873 6.1116690933704394 4.182124808430677 100.48610474169254 5.1841105222702017 5.6627230793237748 5.6747219264507285 5.4099613726139069 46.015309184789658 3.2698470801115027 10.454701662063597 4.4023882597684842 3.5943763852119437 3.5282003283500671 3.1926331520080558 4.1704937517643001 3.216448500752449 4.4113937318325043 4.6492365300655347 5.8675625026226044 3.2459119409322739 4.2949779033660889 3.9356818348169309 3.6712595820426941 6.3180885016918182 6.0699314922094327 5.4538435935974121 4.6078032404184324
leaf_count=240 25 17 479 21 23 24 22 196 14 44 18 15 15 13 17 13 18 19 24 13 18 17 15 26 25 23 19
internal_value=0.000488931 -0.0151796 -0.0280902 -0.0352164 0.0145603 0.0212628 0.0155671 0.0193806 -0.037962 0.0223782 0.0120854 0.00542455 0.0217489 0.0109248 0.000584712 -0.00114672 0 0.0060957 0 -0.00744698 0.0234964 -0.0117875 0 0.0178448 0.0268874 0.0150071 0.00289769
internal_weight=322.081 183.17 128.234 108.94 54.9359 138.911 72.3881 59.826 103.756 27.7456 17.2909 27.1903 54.1513 19.2937 23.5959 12.5621 8.81378 17.9332 13.7627 7.89515 8.4771 7.15213 6.86389 12.4298 66.5232 11.5238 8.136
internal_count=1413 819 593 514 226 594 306 254 493 115 71 111 230 79 96 52 36 73 56 32 35 30 28 51 288 48 34
is_linear=0
shrinkage=0.0276189


Tree=20
num_leaves=28
num_cat=0
split_feature=5 1 2 2 1 5 1 3 4 4 4 2 0 4 3 3 0 0 0 1 0 1 4 3 1 1 5
split_gain=131.656 89.8354 46.5625 20.0432 4.15252 4.12162 6.32613 4.06614 3.83215 3.13663 3.15155 2.88173 2.83123 2.29061 2.08726 2.05343 1.88522 1.6685 1.75161 2.63091 1.35132 0.909721 0.56491 0.42562 0.280303 4.40741 0.176233
threshold=-0.13543434842844967 0.25238481694326903 -0.3212508435919173 0.15086782628824999 1.0290858612460922 -0.78574422598489435 -0.39029634618564274 -0.67675311066478272 0.18617818803532413 0.54102935701511801 0.069829211033409375 0.86446431521438216 1.0601854895818981 0.6673755658669247 0.2896716427903262 -0.36639217036537447 0.40249351940791073 0.16882174996603524 0.53564129804254101 2.5563106155202999 0.3460659488203352 -0.1510093483095841 0.93056586091747795 0.31978301692724098 0.12208969992349666 1.0290858612460922 -0.5332429548457619
decision_type=2 2 2 2 2 2 2 2 2 2 2 2 2 2 2 2 2 2 2 2 2 2 2 2 2 2 2
left_child=5 2 13 8 9 24 7 -7 -4 10 20 14 -9 23 -6 -8 -12 -16 19 -19 -3 -17 -15 -2 -1 -26 -14
right_child=1 4 3 -5 11 6 15 12 -10 -11 16 -13 26 22 17 21 -18 18 -20 -21 -22 -23 -24 -25 25 -27 -28
leaf_value=0.028200524332852528 0.005610624274787852 0.0040800694251019436 -0.03849593348585971 0.013663136266850584 -0.011958163146974283 0 0.0091315654381732871 0.024013309280493608 -0.00079562224690437515 0.034789677375364585 0.011756266792639686 0.026005776335779881 0 -0.0091566023642189603 0.019719168768190871 0 -0.011664791307547193 0.0028746953158774705 0.011457245867769092 -0.024346013815728769 0.033995522038215924 -0.019206413490898057 0.0045406942127578136 0.024131725115689319 0 0.031017517240137044 0.0061426553121920252
leaf_weight=54.543104588985443 6.1079939007759112 4.1800575703382545 98.902151077985764 5.17901886999607 5.6692451536655488 5.6747219264507285 5.4046403616666794 45.738728553056717 3.2694410681724539 10.371970593929289 4.3965457826852781 3.5746630430221549 3.5282003283500671 3.1953066140413275 4.1591577678918865 3.216448500752449 4.4170899093151093 4.6475500613450986 5.8594014048576355 3.2443790882825851 4.2637993991374969 3.9236619770526868 3.668974444270134 6.2949883043766022 6.0699314922094327 5.4143518507480621 4.6031537652015668
leaf_count=240 25 17 479 21 23 24 22 196 14 44 18 15 15 13 17 13 18 19 24 13 18 17 15 26 25 23 19
internal_value=0.000502844 -0.0148736 -0.0276584 -0.0347602 0.0142795 0.0208131 0.0152037 0.0189428 -0.037504 0.0219508 0.0118549 0.005322 0.0212778 0.010695 0.000566935 -0.00109353 0 0.00597704 0 -0.00723749 0.0230881 -0.0115385 0 0.0174833 0.0263655 0.0146705 0.00281005
internal_weight=319.519 181.402 126.618 107.351 54.7839 138.117 72.0896 59.5448 102.172 27.6295 17.2575 27.1544 53.8701 19.2673 23.5797 12.5448 8.81364 17.9105 13.7513 7.89193 8.44386 7.14011 6.86428 12.403 66.0274 11.4843 8.13135
internal_count=1413 819 593 514 226 594 306 254 493 115 71 111 230 79 96 52 36 73 56 32 35 30 28 51 288 48 34
is_linear=0
shrinkage=0.0276189


Tree=21
num_leaves=24
num_cat=0
split_feature=1 1 2 2 5 3 1 3 2 2 1 0 3 2 0 5 3 0 0 1 3 5 5
split_gain=144.724 113.294 22.5124 19.2325 3.96428 6.06516 3.30679 2.88721 2.80801 3.00141 8.76286 4.36843 3.34957 2.16129 4.4599 2.1305 1.96964 1.51642 2.5263 0.673162 0.462086 0.137631 0.123179
threshold=-0.088918184976039302 0.21826967572676137 -0.79398824708776317 0.34749846373635568 -0.24665788532123237 -0.11089472925082984 -0.30859744706255743 0.41678376523234256 1.2729751524937891 -0.73481313070034093 1.2422292114027638 0.12298439659036103 0.2896716427903262 2.2357620942890661 -1.6210906779425425 0.59110232796245021 0.60305147600019093 0.70456419380942348 0.40839822573464929 0.505123588203372 1.4145610891804365 1.1561334743228484 0.22869848513189447
decision_type=2 2 2 2 2 2 2 2 2 2 2 2 2 2 2 2 2 2 2 2 2 2 2
left_child=4 2 -2 16 13 -6 7 -7 9 10 19 12 22 -1 -15 -13 -4 18 -12 -3 21 -17 -11
right_child=1 8 3 -5 5 6 -8 -9 -10 11 17 15 -14 14 -16 20 -18 -19 -20 -21 -22 -23 -24
leaf_value=0.026029471048216003 0.020264345606174249 0.012011600560924677 -0.037681463180721346 0.0098542467381198522 -0.015041902085422651 -0.014534166476231573 0.027698751396745169 0.017252790230864182 0.02618234555705419 0.0025186753611653582 0.0049803079487152581 -0.023926409409272816 0.026028154198463029 0.029384212039507692 -0.0081106090507231422 0 -0.0078366120584111541 0.012930552626517029 -0.02132848502439607 0.038863348589537598 0.0072076937527318563 -0.0078335075250724265 -0.0041504294475379882
leaf_weight=104.29614356160164 5.137406349182128 4.7912785410881069 101.62505461275578 6.1347704678773871 4.4479219764471081 3.230456262826924 9.3908231705427134 3.6765686124563217 13.153285086154936 3.0885760635137576 3.6603842079639417 3.3127923458814612 7.034304067492485 3.029075413942337 4.5558630526065818 3.9120896458625776 4.0009241402149192 3.1748526096343994 4.2232015132904053 8.2604329437017423 3.1819467395544052 3.2167830914258957 3.1728735864162445
leaf_count=456 21 20 498 25 18 13 39 15 55 13 15 14 29 13 19 16 17 13 17 35 13 13 13
internal_value=0.000792418 -0.0151677 -0.0313302 -0.034016 0.0226949 0.00936578 0.0176274 0 0.0139798 0.0100694 0.0171689 0.00264968 0.014018 0.0248976 0.00587014 -0.00720239 -0.0368132 0 -0.00746606 0.0317928 0 -0.00424789 0
internal_weight=313.708 181.081 116.898 111.761 132.627 20.7458 16.2978 6.90702 64.1828 51.0295 24.1101 26.9194 13.2958 111.881 7.58494 13.6236 105.626 11.0584 7.88359 13.0517 10.3108 7.12887 6.26145
internal_count=1400 827 561 540 573 85 67 28 266 211 100 111 55 488 32 56 515 45 32 55 42 29 26
is_linear=0
shrinkage=0.0276189


Tree=22
num_leaves=25
num_cat=0
split_feature=1 1 2 2 5 3 4 2 2 1 0 5 3 3 2 0 2 4 1 2 4 1 4 5
split_gain=137.881 108.995 20.4252 19.3876 3.80856 5.79933 3.37365 2.94233 3.63957 8.6073 4.42824 4.19147 3.19132 2.68601 2.05816 4.29716 1.45324 0.934536 1.82214 0.498182 1.50918 0.335384 0.335015 0.117837
threshold=-0.088918184976039302 0.2077142417873237 -0.34947909772639824 0.34749846373635568 -0.24665788532123237 -0.11089472925082984 0.3635084275501172 1.2729751524937891 -0.73481313070034093 1.2422292114027638 0.081093521241933794 0.4834319746087824 0.26169872889379325 0.65248210181290278 2.2357620942890661 -1.6210906779425425 -0.87078986883000176 0.088305091454874543 2.6768618800041417 -0.55874208098061862 0.31086818581827763 0.505123588203372 -0.36965025083475339 0.22869848513189447
decision_type=2 2 2 2 2 2 2 2 2 2 2 2 2 2 2 2 2 2 2 2 2 2 2 2
left_child=4 2 16 -4 14 -6 -7 8 9 21 12 -12 23 -8 -1 -16 -2 -11 -19 -13 -21 -3 -14 -10
right_child=1 7 3 -5 5 6 13 -9 10 17 11 19 22 -15 15 -17 -18 18 -20 20 -22 -23 -24 -25
leaf_value=0.025509231547138148 0.020652304390366704 0.013180955290091079 -0.037348977934359033 0.0096234407650932982 -0.014680167623781397 0.030223144161913899 -0.008738093981593623 0.0256332204045027 0.0024649993493178857 0.0091444958013031617 -0.031717554411034847 -0.0073033051205871544 0.0060314527457768132 0.018455572389301154 0.028922008792724187 -0.007910987876208489 0 -0.018119041692498724 0.0043562205159119287 -0.0019261702223651955 0.01803957793744718 0.038206092003347653 0.033978425942390672 -0.004058000211473135
leaf_weight=103.51193585991859 3.4032004326581955 5.0219815075397518 99.867813259363174 6.1285514235496512 4.4521957933902767 7.477741792798045 4.6621722877025586 13.082898512482641 3.0869040638208407 3.614763066172598 3.2438766658306113 3.2223014235496494 3.1831459850072861 4.1043340414762497 3.0061706751585007 4.5628242790698996 4.458768591284751 4.1996078044176102 3.2371486574411392 5.4070658534765244 3.1325519233942032 8.1858902126550657 3.5747335404157639 3.174541100859642
leaf_count=456 14 21 498 25 18 31 19 55 13 15 14 13 13 17 13 19 18 17 13 22 13 35 15 13
internal_value=0.000791759 -0.0148822 -0.0311726 -0.0343879 0.0222227 0.00911928 0.0172367 0.0132197 0.00937455 0.0171324 0.00164997 -0.00756828 0.0135636 0.00236624 0.0243954 0.00571142 0.00896883 0 -0.00641691 0 0.00417636 0.0314959 0.0256166 0
internal_weight=311.003 179.226 113.858 105.996 131.777 20.6964 16.2442 65.3674 52.2845 24.2594 28.0251 15.0058 13.0193 8.76651 111.081 7.56899 7.86197 11.0515 7.43676 11.7619 8.53962 13.2079 6.75788 6.26145
internal_count=1400 827 555 523 573 85 67 272 217 101 116 62 54 36 488 32 32 45 30 48 35 56 28 26
is_linear=0
shrinkage=0.0276189


Tree=23
num_leaves=25
num_cat=0
split_feature=1 1 2 2 5 4 2 2 1 0 5 4 6 2 6 2 0 6 4 2 2 4 1 1
split_gain=131.36 104.928 19.8316 18.6322 3.65479 4.46894 2.78449 3.49427 8.26314 4.26783 4.02894 2.9918 2.53412 2.67022 2.1438 1.95994 4.14151 0.994538 2.35839 0.822828 0.47231 1.45255 0.306285 0.0676942
threshold=-0.088918184976039302 0.2077142417873237 -0.45848207873221924 0.34749846373635568 -0.24665788532123237 0.3635084275501172 1.2729751524937891 -0.73481313070034093 1.2422292114027638 0.081093521241933794 0.4834319746087824 -0.39253891078676761 -0.05737064742156793 -0.72249539267079232 -0.0367364935848273 2.2357620942890661 -1.6210906779425425 2.5717166586597169 0.088305091454874543 -0.87078986883000176 -0.55874208098061862 0.31086818581827763 0.505123588203372 -0.30859744706255743
decision_type=2 2 2 2 2 2 2 2 2 2 2 2 2 2 2 2 2 2 2 2 2 2 2 2
left_child=4 2 19 -4 15 23 7 8 22 11 -11 14 13 -7 -9 -1 -17 18 -10 -2 -12 -22 -3 -6
right_child=1 6 3 -5 5 12 -8 9 17 10 20 -13 -14 -15 -16 16 -18 -19 -20 -21 21 -23 -24 -25
leaf_value=0.025003085015489358 0.020248782554247911 0.012896571019629457 -0.036630822095254735 0.0093982472881310314 0.0056576885774920213 -0.0070884285360227079 0.025100601078765456 0.01402481447462325 0.0065894569378252077 -0.031199226786433019 -0.0071412430703578968 0.026372743110910132 -0.019394246151630139 0.021651468510015308 -0.013386120389719175 0.028473873625307955 -0.0077166819049060845 0.010271607518809931 -0.019178517497922869 0 -0.0018797634044001919 0.017692982913379236 0.037578778479053478 0.02656444890836545
leaf_weight=102.71866220235825 3.3919772654771805 5.0095780491828945 99.453475818037987 6.1222073584794989 3.6892230808734894 3.4288237988948822 13.010269179940222 3.5791658908128738 3.3628307133913022 3.2209016978740683 3.2233756780624363 5.97220027446747 3.7034707963466627 3.6198651641607285 3.4429141879081726 2.982639491558075 4.5694863796234122 3.2329544126987457 4.454254537820816 3.2165831774473181 5.4081615209579468 3.1222313940525055 8.1077276915311796 6.2096697241067904
leaf_count=456 14 21 503 25 15 14 55 15 14 14 13 25 15 15 14 13 19 13 18 13 22 13 35 26
internal_value=0.00079491 -0.0146015 -0.0307619 -0.0337169 0.0217642 0.00888804 0.0129551 0.00919049 0.0168107 0.00160051 -0.00744333 0.0133185 -0.00188083 0.00581307 0 0.0239068 0.00555669 0 -0.00616886 0.0121885 0 0.00404483 0.0309534 0.021722
internal_weight=308.253 177.331 112.184 105.576 130.922 20.6511 65.1466 52.1363 24.1673 27.969 14.9747 12.9943 10.7522 7.04869 7.02208 110.271 7.55213 11.05 7.81709 6.60856 11.7538 8.53039 13.1173 9.89889
internal_count=1400 827 555 528 573 85 272 217 101 116 62 54 44 29 29 488 32 45 32 27 48 35 56 41
is_linear=0
shrinkage=0.0276189


Tree=24
num_leaves=35
num_cat=0
split_feature=5 1 0 1 1 5 1 5 0 2 1 1 0 0 3 3 3 2 2 1 3 0 6 2 0 1 1 6 1 6 0 3 1 0
split_gain=123.764 66.2369 44.0554 13.2092 4.96827 4.39599 4.55063 4.75075 2.53682 1.80497 3.10928 3.26583 1.87739 2.63102 2.76193 1.76071 1.61351 1.60718 1.50377 1.37175 1.2257 1.13718 1.08022 1.95101 1.10691 0.793229 2.36459 1.0509 1.01428 0.728265 0.595028 0.487573 0.412014 0.23622
threshold=-0.24665788532123237 0.25238481694326903 0.24675757794161732 -0.071125980278122933 -0.31622267764737871 -0.56563934435040542 -0.028389060978430171 -0.4589218259821683 0.87553146094632117 0.86446431521438216 1.1906681284006388 0.45086270054326788 0.70456419380942348 0.27455223039404936 0.15011231827536395 0.053785386148933446 -0.41190110283025999 -1.0361993545974695 0.056205322970405751 -0.74105695308742214 1.096343892283884 1.4872762249018743 0.60529505109523707 -0.78649869507060732 0.61712371719176373 -0.54134853300876917 1.43467550711492 -1.3702442362328819 0.31267729249121551 0.25135685772277166 0.53564129804254101 0.90439328471320857 -1.2813590059547593 0.314539933395594
decision_type=2 2 2 2 2 2 2 2 2 2 2 2 2 2 2 2 2 2 2 2 2 2 2 2 2 2 2 2 2 2 2 2 2 2
left_child=5 2 3 -2 -4 21 7 15 17 10 11 30 13 14 -12 16 -7 -6 -5 -17 -15 25 -13 24 -24 32 27 28 -27 -29 -3 -19 -1 -25
right_child=1 9 4 18 8 6 -8 -9 -10 -11 12 22 -14 20 -16 19 -18 31 -20 -21 -22 -23 23 33 -26 26 -28 29 -30 -31 -32 -33 -34 -35
leaf_value=0.0034026337084093511 0.0036689457206814536 -0.009483303181449099 -0.010539233727708177 -0.036386829867028278 0 0 -0.012480426343630323 0.023181641133264957 -0.00085634771110656722 0.026449179534241803 -0.0090297324260418688 0.032380609111393649 0.015292722187399025 -0.02238546335954051 0.019078754207947694 0.00023250921114428515 0.0206154093222762 0.030907300114921311 -0.0057004932076730568 -0.01912978052807885 0 0 0.030661937022671889 0.0051415695417316469 0.00035158172993459964 0.020474967836253154 0.032824363165748584 -0.0071537194275222262 0 0.008288922226500111 0.004744238062655671 0.0047031476720267662 0.027151665626912146 -0.0037397660843106499
leaf_weight=2.8266913890838614 5.8239821046590796 3.1748292446136501 6.1874718517065075 94.341783672571182 3.3211943954229382 3.2982895970344543 4.0227364599704734 19.4134721159935 3.1941807568073264 5.585969239473342 3.2090369760990196 5.6843233108520534 4.1743585020303717 4.9452789127826673 4.8832211494445801 3.0132866650819778 4.1272656470537168 7.4831759035587293 3.1925447583198538 3.3004920184612274 4.4412024170160294 2.9855041652917853 3.8437077701091793 3.8593252152204469 3.0001462399959564 5.3911457359790838 4.6013682782649985 4.0626316815614709 3.1016858965158463 3.6001815646886826 3.3024517744779587 3.1292728930711746 68.569454818964005 3.1717787832021713
leaf_count=13 24 13 25 486 14 14 17 84 13 24 13 24 17 20 20 13 18 31 14 14 18 13 17 16 13 24 20 17 13 15 14 13 310 13
internal_value=0.000184003 -0.0146331 -0.0254985 -0.033224 0.00786863 0.0204542 0.0109372 0.0146164 0.0158359 0.0108189 0.00814315 0.0144222 0 -0.00376951 0.00584411 0.000477736 0.010313 0.0208764 -0.0356469 -0.00808766 -0.0138545 0.0238325 0.0199048 0.0118558 0.0215179 0.024404 0.0153539 0.00780599 0.0140325 0 0 0.0258715 0.0265443 0
internal_weight=312.263 179.949 126.674 103.358 23.3153 132.314 37.1755 33.1528 17.1278 53.2756 47.6897 26.0366 21.6531 17.4787 8.09226 13.7393 7.42556 13.9336 97.5343 6.31378 9.38648 95.1387 19.5593 13.875 6.84385 92.1532 20.757 16.1556 8.49283 7.66281 6.47728 10.6124 71.3961 7.0311
internal_count=1427 842 620 524 96 585 160 143 71 222 198 110 88 71 33 59 32 58 500 27 38 425 83 59 30 412 89 69 37 32 27 44 323 29
is_linear=0
shrinkage=0.0276189


Tree=25
num_leaves=31
num_cat=0
split_feature=5 1 0 1 1 5 1 5 0 3 3 3 3 0 0 5 3 4 4 0 4 3 0 1 1 6 1 6 1 4
split_gain=118.074 63.7882 42.6566 12.899 4.75305 4.25236 4.35821 4.54536 2.45414 1.66716 1.85249 1.70415 1.46518 1.36291 4.28659 4.90258 1.83687 1.81469 6.01768 1.48539 2.14218 1.1548 1.07526 0.729735 2.27489 1.00791 0.9729 0.695847 0.370658 0.294413
threshold=-0.24665788532123237 0.25238481694326903 0.24675757794161732 -0.071125980278122933 -0.31622267764737871 -0.56563934435040542 -0.028389060978430171 -0.4589218259821683 0.87553146094632117 0.017890719596815097 -0.41190110283025999 0.44080388323913583 1.1543700233708691 0.18320955707880868 0.53564129804254101 3.0865771548054233 0.26169872889379325 0.48201343615949899 -0.14184197928890513 0.47408301457907048 -0.21846834005923141 -0.41190110283025999 1.4872762249018743 -0.54134853300876917 1.43467550711492 -1.3702442362328819 0.31267729249121551 0.25135685772277166 -1.2813590059547593 -0.52778373194666983
decision_type=2 2 2 2 2 2 2 2 2 2 2 2 2 2 2 2 2 2 2 2 2 2 2 2 2 2 2 2 2 2
left_child=5 2 3 -2 -4 22 7 9 12 10 -7 -11 -6 16 15 19 21 18 -16 20 -15 -3 23 28 25 26 -25 -27 -1 -18
right_child=1 13 4 -5 8 6 -8 -9 -10 11 -12 -13 -14 14 17 -17 29 -19 -20 -21 -22 -23 -24 24 -26 27 -28 -29 -30 -31
leaf_value=0.0033332470671446693 0.00358167374578817 0.016052071206722775 -0.010276012353680187 -0.035264329560154767 0.025066105099133432 0 -0.012202655839098598 0.02270649462132629 -0.00083757203709298198 -0.020220862270586018 0.023230303677362889 0.0016013187239342359 0 -0.0048805836290671117 0.025026187140425916 -0.029767516183950144 0.0055381778748132869 0.025010876569245367 -0.016511118928428773 -0.0083039148973968035 0.016877551532796988 -0.0012719872673807445 0 0.02009446269173825 0.032316781774942044 -0.0069826547026265165 0 0.008113721360825216 0.026656180746834894 0.030819541715091107
leaf_weight=2.8232944011688224 5.8215315937995902 3.0654014497995377 6.1920527070760754 95.92163248360157 10.768796801567079 3.2982895970344543 4.0197527259588233 19.291522577404976 3.1943306475877753 3.2620051056146622 3.4257550090551359 3.7428148537874222 3.1247971802949897 3.1500955671071997 4.5270460247993469 3.2363399267196646 3.1755155920982361 8.5185528397560102 4.0892789512872714 3.3729200661182395 8.3083258569240588 5.078259229660036 2.9855041652917853 5.3578179776668584 4.5582939982414237 4.0676235407590875 3.1016858965158463 3.5944798588752747 67.939381316304207 6.6214495748281461
leaf_count=13 24 13 25 500 45 14 17 84 13 14 15 16 13 13 19 13 13 36 17 14 35 21 13 24 20 17 13 15 310 28
internal_value=0.000205012 -0.0143525 -0.0251256 -0.0328316 0.00767693 0.0200538 0.0106695 0.0142895 0.0154972 0.000435865 0.0108311 -0.00703027 0.020473 0.0106103 0.00623607 -0.00220674 0.0174461 0.0159628 0.00343648 0.00377229 0.00931045 0.00386346 0.0233945 0.0239562 0.0150737 0.00764123 0.0137558 0 0.0260606 0.0256249
internal_weight=309.635 178.166 125.023 101.743 23.28 131.468 37.0401 33.0204 17.0879 13.7289 6.72404 7.00482 13.8936 53.1432 35.2026 18.0677 17.9406 17.1349 8.61632 14.8313 11.4584 8.14366 94.4281 91.4426 20.6799 16.1216 8.4595 7.6621 70.7627 9.79697
internal_count=1427 842 620 524 96 585 160 143 71 59 29 30 58 222 147 75 75 72 36 62 48 34 425 412 89 69 37 32 323 41
is_linear=0
shrinkage=0.0276189


Tree=26
num_leaves=33
num_cat=0
split_feature=5 1 0 1 1 5 1 5 0 2 2 1 1 0 0 2 2 2 0 0 3 0 6 2 0 3 6 0 3 0 6 6
split_gain=112.743 61.3139 41.2166 12.5949 4.53356 4.11362 4.17489 4.3476 2.36658 2.03685 1.71151 2.93147 3.16039 1.73183 2.42689 1.6081 1.55749 1.16776 4.12722 1.24961 1.14885 2.21341 1.06322 1.91566 1.07511 1.03316 0.806787 0.569062 0.407789 0.212398 0.0279418 2.42155
threshold=-0.24665788532123237 0.25238481694326903 0.24675757794161732 -0.071125980278122933 -0.31622267764737871 -0.56563934435040542 -0.028389060978430171 -0.4589218259821683 0.87553146094632117 -0.25923921675875272 0.86446431521438216 1.1906681284006388 0.45086270054326788 0.70456419380942348 0.40839822573464929 0.056205322970405751 -1.0361993545974695 2.0927696156911524 -1.6210906779425425 1.4872762249018743 0.15011231827536395 0.20590545825102025 0.60529505109523707 -0.78649869507060732 0.61712371719176373 0.058130497740808064 -0.040843854560797567 0.53564129804254101 0.90439328471320857 0.314539933395594 -0.32050815648503173 -0.3978387883662941
decision_type=2 2 2 2 2 2 2 2 2 2 2 2 2 2 2 2 2 2 2 2 2 2 2 2 2 2 2 2 2 2 2 2
left_child=5 2 3 -2 -4 17 7 9 16 25 11 12 27 14 20 -5 -6 19 -19 -1 -13 -22 -14 24 -24 -7 -20 -3 -18 -25 31 -9
right_child=1 10 4 15 8 6 -8 30 -10 -11 -12 13 22 -15 -16 -17 28 18 26 -21 21 -23 23 29 -26 -27 -28 -29 -30 -31 -32 -33
leaf_value=0.025248169625823949 0.0034964702701561364 -0.0094690120908462374 -0.010019978260078506 -0.035651806300626754 0 0.015973346642863543 -0.011931580576255216 0.021687227558118655 -0.0008192095066539755 -0.012410873568125027 0.02567177851303936 -0.0057114302102261221 0.031646558996740286 0.014587102975529632 -0.016671480410787927 -0.0048377847588298674 0.029775266590876544 0.026403750642348147 -0.01075735693873202 0 0.022967229266365199 -0.0019249295534593323 0.030001793093445629 0.0046726056875269727 9.2022602404786543e-05 0 0.0047564967135729497 0.0042466787881925722 0.0044843379639444274 -0.003867373921393471 0.030069204507555951 -0.00053842495673195594
leaf_weight=77.83219039440155 5.8191048800945273 3.1766310483217266 6.1961971074342754 91.155527293682098 3.3064710497856167 5.2834164798259717 4.0165791213512412 8.4237053245305997 3.1944761723279944 4.2451388984918585 5.5208577066659918 3.9439547210931831 5.6339418441057232 4.1565452367067328 6.4408788830041876 3.1672807037830344 7.4127365350723249 5.9129262715578079 3.833355501294136 2.9855041652917853 3.8673341572284698 3.1927026957273483 3.7911212891340282 3.8421649783849672 2.9869684129953384 4.1914411038160324 3.1482313573360425 3.2821500897407532 3.1227812469005585 3.1667020469903946 7.3588510453701046 3.3857044875621787
leaf_count=357 24 13 25 486 14 23 17 37 13 18 24 16 24 17 26 14 31 26 16 13 16 13 17 16 13 18 13 14 13 13 32 15
internal_value=0.000218911 -0.0140909 -0.0247629 -0.0324404 0.00745912 0.0196639 0.0104101 0.0139722 0.0151299 0.000399736 0.0103704 0.00775518 0.0138734 0 -0.00376141 -0.0348832 0.0200383 0.022968 0.0107003 0.0245456 0.00271487 0.0101136 0.0193092 0.0113501 0.0209598 0.00866026 -0.00139005 -1.30571e-05 0.0249551 0 0.0222436 0.0140868
internal_weight=306.994 176.377 123.375 100.142 23.2327 130.617 36.9048 32.8883 17.0365 13.72 53.002 47.4811 25.8797 21.6014 17.4449 94.3228 13.842 93.7122 12.8945 80.8177 11.004 7.06004 19.4209 13.787 6.77809 9.47486 6.98159 6.45878 10.5355 7.00887 19.1683 11.8094
internal_count=1427 842 620 524 96 585 160 143 71 59 222 198 110 88 71 500 58 425 55 370 45 29 83 59 30 41 29 27 44 29 84 52
is_linear=0
shrinkage=0.0276189


Tree=27
num_leaves=27
num_cat=0
split_feature=1 1 2 2 3 2 0 0 0 2 5 0 5 1 6 0 6 2 2 6 5 5 5 2 0 0
split_gain=110.26 84.6233 23.6243 13.2924 4.51033 7.5095 5.33138 3.37938 2.35452 2.30055 1.89295 1.68181 1.40946 1.61137 3.46302 0.953156 1.03819 1.12999 2.59414 0.843196 0.747434 2.55958 1.37538 0.687117 0.528753 0.104716
threshold=-0.071125980278122933 0.25238481694326903 -0.34947909772639824 0.21715149778627652 -0.94064803253963569 0.70780939990760816 -0.21330595394102228 0.42702671297081923 1.4872762249018743 2.3711322872854912 -0.82195195543126054 -0.44932493692663067 3.0865771548054233 0.42197226420698736 0.42331025536810457 -2.8773214421088951 0.90788410763586647 1.7071049672105796 -0.86083831812606915 0.19342893218689219 -0.55420532452523708 -0.4589218259821683 -0.5008465653411186 -0.67675238374933233 0.35564323142049342 1.5536451189830307
decision_type=2 2 2 2 2 2 2 2 2 2 2 2 2 2 2 2 2 2 2 2 2 2 2 2 2 2
left_child=4 2 19 -4 10 8 9 -8 11 -7 -1 -6 13 14 -3 -15 -17 18 -18 -2 -13 22 -22 -14 -23 -10
right_child=1 12 3 -5 5 6 7 -9 25 -11 -12 20 23 15 -16 16 17 -19 -20 -21 21 24 -24 -25 -26 -27
leaf_value=0.034099118215985658 0.016793258546450685 -0.011626355222071422 -0.03561590553363967 0.0052435899031520071 0.00038666811550718976 0.022681526480143425 -0.028377763809470269 0.0015770614054209191 0 -0.00042837474640215468 0.0024166365237849393 0.026217406364116673 -0.0082990949890902384 0 0.021735870891279954 0.021791096601098365 0.015200409901131336 0.022798051132707779 -0.0026977720059725434 0 0.01030018411686868 0.028181107646736186 -0.010485364008779507 0.0075364676897273488 0.01406539810095165 0.0043981199627872048
leaf_weight=21.923258140683178 5.8142750114202482 5.3315175026655179 91.590233728289604 5.3663373440504065 4.9578527361154547 6.2034812122583407 5.0834395885467512 3.1558853536844254 3.097487971186637 3.0952215492725372 3.1964291185140601 38.297239139676094 3.466836005449295 3.0654733479022971 2.9903145134449005 18.643859386444092 9.8640807271003723 4.4253945499658576 10.690773487091068 3.1777309477329254 5.0594460517168045 10.890452444553377 3.0169347077608091 3.1735675334930411 21.022701680660248 3.2931260913610458
leaf_count=103 24 22 496 22 22 28 22 14 13 13 14 178 14 13 13 80 42 19 44 13 22 47 13 13 90 14
internal_value=0.000610597 -0.0141682 -0.0291094 -0.0331202 0.0194584 0.0163303 0 -0.0155669 0.0195369 0.0135743 0.0310618 0.0207861 0.0112276 0.0126609 0 0.0146366 0.0156638 0.00974218 0.00519557 0.0111977 0.0218022 0.0166235 0 0 0.0201024 0
internal_weight=299.893 167.6 105.949 96.9566 132.293 107.173 17.538 8.23932 89.6352 9.2987 25.1197 83.2446 61.6518 55.0114 8.32183 46.6896 43.6241 24.9802 20.5549 8.99201 78.2868 39.9895 8.07638 6.6404 31.9132 6.39061
internal_count=1408 815 555 518 593 476 77 36 399 41 117 372 260 233 35 198 185 105 86 37 350 172 35 27 137 27
is_linear=0
shrinkage=0.0276189


Tree=28
num_leaves=28
num_cat=0
split_feature=1 1 2 2 3 2 0 5 0 2 5 0 5 1 6 0 6 2 2 6 5 5 5 2 5 0 0
split_gain=105.278 81.5192 22.9409 12.9965 4.39218 7.20607 5.04132 3.3002 2.26159 2.2263 1.81723 1.59538 1.34769 1.53371 3.31976 0.913114 0.973805 1.08697 2.47856 0.806099 0.725993 2.45483 1.31404 0.657281 0.513451 0.100236 0.0140351
threshold=-0.071125980278122933 0.25238481694326903 -0.34947909772639824 0.21715149778627652 -0.94064803253963569 0.70780939990760816 -0.21330595394102228 -0.6213801909981006 1.4872762249018743 2.3711322872854912 -0.82195195543126054 -0.44932493692663067 3.0865771548054233 0.42197226420698736 0.42331025536810457 -2.8773214421088951 0.90788410763586647 1.7071049672105796 -0.86083831812606915 0.19342893218689219 -0.55420532452523708 -0.4589218259821683 -0.5008465653411186 -0.67675238374933233 -0.23217675923009481 1.5536451189830307 1.0766667220172674
decision_type=2 2 2 2 2 2 2 2 2 2 2 2 2 2 2 2 2 2 2 2 2 2 2 2 2 2 2
left_child=4 2 19 -4 10 8 9 -8 11 -7 -1 -6 13 14 -3 -15 -17 18 -18 -2 26 22 -22 -14 -23 -10 -13
right_child=1 12 3 -5 5 6 7 -9 25 -11 -12 20 23 15 -16 16 17 -19 -20 -21 21 24 -24 -25 -26 -27 -28
leaf_value=0.033622190730485307 0.016412922062060898 -0.011335463931010051 -0.035281919291722461 0.0051205861337133918 0.00037756638129162487 0.022272628665357227 -0.029910644172632252 0 0 -0.00041903130805334671 0.0023649586027046968 0.027474310497348765 -0.0081143048950264793 0 0.021366000450596265 0.021327116372145745 0.014856445575497668 0.022380418027407704 -0.0026278227047469519 0 0.010081251460140248 0.025301213663899452 -0.010236639258211028 0.0073762860767515506 0.012002621356949177 0.004304726362589946 0.010378671439606536
leaf_weight=21.636023536324505 5.8042242079973203 5.3386654108762723 89.93465168774128 5.3636004179716101 4.9573112726211539 6.1588695496320742 4.2945999801158905 3.9787706583738309 3.097487971186637 3.0954818725585938 3.194369599223136 32.332721322774887 3.4669012874364853 3.0654733479022971 2.972784087061882 18.542949736118317 9.8335093259811401 4.3994393050670615 10.694431990385059 3.1777309477329254 5.0449169129133224 15.70066839456558 3.025094121694563 3.1711254417896262 16.070201337337497 3.2898368388414383 5.5879640430212012
leaf_count=103 24 22 496 22 22 28 19 17 13 13 14 152 14 13 13 80 42 19 44 13 22 70 13 13 67 14 26
internal_value=0.000624942 -0.0139127 -0.0287551 -0.0327709 0.0190821 0.0159918 0 -0.0150849 0.0191492 0.0132538 0.0306044 0.0203806 0.0109808 0.012386 0 0.0143187 0.0153275 0.00952476 0.00504587 0.0109348 0.0213785 0.0162623 0 0 0.019681 0 0.0257601
internal_weight=297.23 165.765 104.28 95.2983 131.464 106.634 17.5277 8.27337 89.1062 9.25435 24.8304 82.7189 61.4853 54.8473 8.31145 46.5358 43.4703 24.9274 20.5279 8.98196 77.7616 39.8409 8.07001 6.63803 31.7709 6.38732 37.9207
internal_count=1408 815 555 518 593 476 77 36 399 41 117 372 260 233 35 198 185 105 86 37 350 172 35 27 137 27 178
is_linear=0
shrinkage=0.0276189


Tree=29
num_leaves=27
num_cat=0
split_feature=1 1 2 2 3 2 0 0 4 1 4 2 4 4 5 5 0 0 4 4 3 3 5 1 2 5
split_gain=100.559 78.6423 19.7228 9.84188 4.27516 6.93176 4.77358 3.1535 2.20071 2.15682 3.57978 2.15479 1.84462 1.76459 1.74556 1.66446 1.38308 1.10836 1.04851 6.39256 2.75687 2.11689 0.985997 0.787379 0.628755 0.270299
threshold=-0.071125980278122933 0.21826967572676137 -0.34947909772639824 0.15086782628824999 -0.94064803253963569 0.70780939990760816 -0.21330595394102228 0.42702671297081923 1.0256577580344437 0.42197226420698736 0.565113957351007 2.3711322872854912 0.94521604228142941 -0.14643990732304277 -0.82195195543126054 3.0865771548054233 1.4872762249018743 -0.44932493692663067 0.42635391897822977 0.16507153397874247 0.66498113568272232 0.39001850471689398 -0.51466267262986354 0.088912553554668497 -0.67675238374933233 1.6220697821984551
decision_type=2 2 2 2 2 2 2 2 2 2 2 2 2 2 2 2 2 2 2 2 2 2 2 2 2 2
left_child=4 2 23 -4 14 8 11 -8 12 10 13 -7 16 -3 -1 18 17 -6 19 20 21 -11 -19 -2 -17 -20
right_child=1 9 3 -5 5 6 7 -9 -10 15 -12 -13 -14 -15 -16 24 -18 22 25 -21 -22 -23 -24 -25 -26 -27
leaf_value=0.033161590740004028 0.015959647647906611 0 -0.035074587012148134 0 0 0.021873110105373291 -0.026977614439497578 0.0017620843157740305 0.02689327441730022 0.012436763709347815 0.021293816934388393 -0.00040989193875657129 0 -0.02039818578462417 0.0023143711979912974 -0.0079338410023432112 0 0.023863930161904471 0.027172974671883957 -0.012783868746372332 0.029628729793658992 -0.0078776807280851388 0.011996293925909908 0 0.0072195912681511428 0.0051721983738860994
leaf_weight=21.346333190798763 4.320273742079733 3.3491652905941001 85.517636343836784 5.7826643586158744 4.0704599171876898 6.1140585094690341 5.1435535103082639 3.16622494161129 25.710514634847641 17.200361937284477 2.9753640592098227 3.0957362800836563 4.2243454456329337 4.8076653629541388 3.1923474073410025 3.4668529182672501 5.688349023461341 24.534214779734608 8.1277501434087736 6.062434345483779 8.2386661320924741 3.0804637670516959 24.343228057026867 4.1642130464315414 3.1686542481183997 3.6704136431217185
leaf_count=103 18 14 483 24 18 28 22 14 118 74 13 13 19 21 14 14 24 115 36 25 35 13 105 17 13 15
internal_value=0.000640951 -0.013663 -0.0289611 -0.0327343 0.0187196 0.015667 0 -0.0146353 0.0187801 0.00988625 0 0.0129404 0.0148318 -0.0105573 0.0301616 0.0121858 0.0161017 0.0175015 0.014009 0.00998741 0.0157496 0.00819473 0.0186652 0.00874508 0 0.0227396
internal_weight=294.562 163.933 99.7848 91.3003 130.629 106.091 17.5196 8.30978 88.5711 64.1478 11.1322 9.20979 62.8606 8.15683 24.5387 53.0156 58.6363 52.9479 46.3801 34.5819 28.5195 20.2808 48.8774 8.48449 6.63551 11.7982
internal_count=1408 815 542 507 593 476 77 36 399 273 48 41 281 35 117 225 262 238 198 147 122 87 220 35 27 51
is_linear=0
shrinkage=0.0276189


Tree=30
num_leaves=22
num_cat=0
split_feature=5 2 2 3 6 1 3 3 6 4 2 3 3 3 3 2 3 5 6 4 3
split_gain=96.3373 61.3247 51.5017 16.582 3.89293 3.67393 2.96357 3.38351 2.37138 2.1743 2.05334 5.91379 2.49376 1.83714 1.10066 3.95378 2.13311 1.98181 0.9023 0.449269 0.208071
threshold=-0.31980791810928783 -0.34947909772639824 0.21715149778627652 0.84032752691387536 -0.32050815648503173 2.2752664025368872 0.041250564790054213 0.71429346609058242 0.34677228610731609 0.27162991470675452 -0.74993883986951337 0.33271072608991753 1.7902034037041283 1.0296327543136681 -0.94064803253963569 2.3711322872854912 -0.80704728263920555 -0.84529641257431243 3.1006170722302122 0.6673755658669247 -0.29843813969840199
decision_type=2 2 2 2 2 2 2 2 2 2 2 2 2 2 2 2 2 2 2 2 2
left_child=8 4 3 9 13 10 -4 -8 14 -3 12 -12 20 -2 17 16 -16 -1 -7 -13 -6
right_child=1 2 6 -5 5 18 7 -9 -10 -11 11 19 -14 -15 15 -17 -18 -19 -20 -21 -22
leaf_value=0.031033191689559935 -0.020398575943026871 -0.034897028404677823 0.033849625836118585 0.012261645977906481 0.0033618273445043629 -0.012052792993518243 -0.0058562933181672003 0.02190584235614379 0 -0.0023932353325901152 -0.017235532033401026 0.027892287551075614 0 0.0030070018185602123 0 -0.005945199083520974 0.021182334659511602 0.00011863431332898178 0.0041314503435505067 0.0022611608553048885 0.024157407379904058
leaf_weight=25.867650687694553 3.0870547890663138 88.912391528487206 6.5776958763599422 5.2176025360822669 3.0635470598936072 3.6974311619997016 5.2549801915884 5.1519618630409241 4.8075002133846274 3.1091575622558585 4.3609631657600385 3.5903616547584534 3.3373199552297583 3.7632593363523483 4.9926685243844977 3.1384522765874854 72.874522268772125 3.1155483573675147 3.2149741947650909 3.0392946898937225 26.750735089182857
leaf_count=123 13 507 28 22 13 15 22 22 20 13 18 15 14 16 23 13 337 14 13 13 115
internal_value=0.00124437 -0.0117312 -0.0234686 -0.0312736 0.011079 0.0138173 0.0194416 0.00667887 0.020821 -0.0340501 0.0167836 0.00360665 0.0203552 -0.00595666 0.0216481 0.0186841 0.0199888 0.0284911 -0.00225754 0.0204457 0.0228366
internal_weight=286.925 172.129 114.224 97.2392 57.9049 51.0546 16.9846 10.4069 114.796 92.0215 44.1422 10.9906 33.1516 6.85031 109.989 81.0056 77.8672 28.9832 6.91241 6.62966 29.8143
internal_count=1389 859 614 542 245 216 72 44 530 520 188 46 142 29 510 373 360 137 28 28 128
is_linear=0
shrinkage=0.0276189


Tree=31
num_leaves=25
num_cat=0
split_feature=5 0 1 1 3 6 6 0 0 1 5 6 0 2 3 1 2 3 2 2 2 3 3 2
split_gain=91.9245 60.0164 36.8484 19.2643 4.72262 4.24403 2.28052 3.86345 4.88772 2.67302 2.72089 2.27227 2.00115 5.23592 2.59074 1.79881 1.20651 1.00675 0.954785 1.91293 0.788219 0.470059 0.22029 0.117685
threshold=-0.31980791810928783 0.26594744858434866 0.25238481694326903 -0.088918184976039302 0.50288419733172518 1.2880312798896603 2.0868912795534293 0.87553146094632117 0.66463143288099802 -0.31622267764737871 0.35131672810166731 0.34677228610731609 -1.6210906779425425 2.0927696156911524 -1.1813505571209095 0.65399713771654955 -0.37505483406141943 0.61367885163825719 0.0040227048186825239 0.18310912279688954 -0.3133272853717643 0.65248210181290278 -0.90083082533404513 0.24755575582601078
decision_type=2 2 2 2 2 2 2 2 2 2 2 2 2 2 2 2 2 2 2 2 2 2 2 2
left_child=11 2 3 4 -2 16 7 8 9 -3 -11 12 -1 14 -14 -12 -4 -9 -16 -20 -5 -18 -21 -7
right_child=1 6 5 20 -6 23 -8 17 -10 10 15 -13 13 -15 18 -17 21 -19 19 22 -22 -23 -24 -25
leaf_value=0.030013682578197434 -0.0067051358410599744 -0.0051489237604420172 0.010279587026199025 -0.0068495489476466396 0.03044783793956048 0.0071057372449087573 -0.0020379755245998562 -0.0082984531630808482 0.037437892577468004 0.027307007853622264 -0.0018396792957372495 0 0 -0.0060492752947275494 0.024035796902519588 0.01360588348457837 -0.014282239970566558 0.0071067845778021799 -0.00022733253386397669 0.028095265261672237 -0.034321955955021508 0 0.011889782300379004 0.029712281914348108
leaf_weight=24.665103390812874 4.5476179420948011 4.2604709863662711 3.0725501626729965 3.1781207770109168 3.4632821083068848 3.8818503916263563 5.4490896314382544 5.6130299717187864 7.8169080317020407 8.8572871685028129 7.4069216251373318 4.8075002133846274 3.091059371829032 4.7627427875995627 50.505946710705757 10.441563516855238 3.4083846658468264 5.5752443820238113 3.602778151631358 4.072999536991122 84.788359597325325 3.0115931332111359 18.432408645749092 5.4679486304521561
leaf_count=116 19 18 13 14 15 16 22 23 34 38 31 20 15 20 236 45 14 24 17 20 496 13 86 24
internal_value=0.00123631 -0.0115199 -0.0229191 -0.0298708 0.0084094 0.0112184 0.0117234 0.0136346 0.0176857 0.0112044 0.0146316 0.0204185 0.0212345 0.0181625 0.0199105 0.00630818 -7.36451e-06 0 0.0209229 0.0135842 -0.0336331 -0.00836117 0.0165987 0.0236846
internal_weight=284.181 170.24 114.82 95.9774 8.0109 18.8423 55.4205 49.9714 38.7832 30.9662 26.7058 113.941 109.133 84.4679 79.7052 17.8485 9.49253 11.1883 76.6141 26.1082 87.9665 6.41998 22.5054 9.3498
internal_count=1389 859 624 544 34 80 235 213 166 132 114 530 510 394 374 76 40 47 359 123 510 27 106 40
is_linear=0
shrinkage=0.0276189


Tree=32
num_leaves=25
num_cat=0
split_feature=5 0 1 1 3 6 6 0 0 1 5 6 0 2 3 1 2 3 2 2 2 3 3 2
split_gain=87.7343 57.6646 35.7642 18.7486 4.55507 4.08926 2.19339 3.69694 4.72566 2.56711 2.61245 2.17735 1.93862 5.04366 2.50915 1.72268 1.15439 0.959103 0.897803 1.85521 0.780674 0.448355 0.218634 0.0978635
threshold=-0.31980791810928783 0.26594744858434866 0.25238481694326903 -0.088918184976039302 0.50288419733172518 1.2880312798896603 2.0868912795534293 0.87553146094632117 0.66463143288099802 -0.31622267764737871 0.35131672810166731 0.34677228610731609 -1.6210906779425425 2.0927696156911524 -1.1813505571209095 0.65399713771654955 -0.37505483406141943 0.61367885163825719 0.0040227048186825239 0.18310912279688954 -0.3133272853717643 0.65248210181290278 -0.90083082533404513 0.24755575582601078
decision_type=2 2 2 2 2 2 2 2 2 2 2 2 2 2 2 2 2 2 2 2 2 2 2 2
left_child=11 2 3 4 -2 16 7 8 9 -3 -11 12 -1 14 -14 -12 -4 -9 -16 -20 -5 -18 -21 -7
right_child=1 6 5 20 -6 23 -8 17 -10 10 15 -13 13 -15 18 -17 21 -19 19 22 -22 -23 -24 -25
leaf_value=0.02953154634791693 -0.0065428543861970256 -0.0050261117736003624 0.010072773485423852 -0.0067054449122541729 0.029974081960746381 0.0069496322199711124 -0.0019891146724878559 -0.0080932493451074464 0.036844546865202575 0.026786251846319824 -0.0017934969027931502 0 0 -0.0059012585298558237 0.023591463254823919 0.013296314359932336 -0.01394474894111448 0.0069453530191620509 -0.00022222071799814816 0.027731133233993521 -0.034037048073729155 0 0.011625166157201508 0.02922411551788294
leaf_weight=24.392905235290527 4.5523721426725379 4.2644090354442588 3.0662918239831924 3.1747775822877875 3.4344768524169922 3.8782610893249494 5.4492882639169684 5.617532402276991 7.7379866689443579 8.7971978187561088 7.4093112200498608 4.8075002133846274 3.091059371829032 4.7682602107524863 50.058046832680702 10.409491717815397 3.4146119207143801 5.566826730966568 3.6030911207199123 4.0241754651069668 83.166307106614113 3.0115931332111359 18.351481586694717 5.4203790426254272
leaf_count=116 19 18 13 14 15 16 22 23 34 38 31 20 15 20 236 45 14 24 17 20 496 13 86 24
internal_value=0.00122759 -0.0113147 -0.022617 -0.0295674 0.0081991 0.0110055 0.0114531 0.0133356 0.0173126 0.0109322 0.0143079 0.0200249 0.0208299 0.0177925 0.0195223 0.00612838 0 0 0.0205267 0.0133082 -0.0333402 -0.00816871 0.016296 0.0232882
internal_weight=281.468 168.371 113.119 94.3279 7.98685 18.7911 55.252 49.8028 38.6184 30.8804 26.616 113.097 108.289 83.8961 79.1279 17.8188 9.4925 11.1844 76.0368 25.9787 86.3411 6.42621 22.3757 9.29864
internal_count=1389 859 624 544 34 80 235 213 166 132 114 530 510 394 374 76 40 47 359 123 510 27 106 40
is_linear=0
shrinkage=0.0276189


Tree=33
num_leaves=33
num_cat=0
split_feature=5 1 0 1 1 0 0 1 0 3 0 2 2 6 2 1 5 5 0 2 0 3 2 2 0 6 5 5 3 3 0 2
split_gain=83.6779 44.1638 24.1505 12.0188 4.08596 3.84656 4.37779 3.11174 3.95568 3.07834 2.5344 1.75913 2.43651 1.67442 1.79015 1.35533 1.33476 1.23105 1.21772 0.9826 1.10269 0.979234 2.9174 0.972441 0.875683 0.691121 0.688956 0.48603 0.484598 2.03291 1.87796 0.413717
threshold=-0.24665788532123237 0.21826967572676137 0.26024073307668144 -0.088918184976039302 -0.31622267764737871 0.12097789759571936 0.31092504014731787 -0.028389060978430171 -0.834029471581481 -0.94064803253963569 0.81620856465872504 -0.86083831812606915 -0.24935288713722756 2.0868912795534293 -1.102077398542441 -0.26720333817352754 -0.79146123589747852 -1.0668305466869474 1.4872762249018743 1.8597301530630295 -2.7538322686315091 0.68635633589601464 0.90630619459443607 0.10234804933134072 0.48407939862253341 -0.014636472942147195 0.87599998860622608 0.59110232796245021 -0.15839177874607249 0.36767793606502369 0.14482993309797523 -0.3133272853717643
decision_type=2 2 2 2 2 2 2 2 2 2 2 2 2 2 2 2 2 2 2 2 2 2 2 2 2 2 2 2 2 2 2 2
left_child=7 2 3 15 -4 21 27 9 19 16 25 13 24 14 26 -2 -1 -11 28 20 -9 22 -3 31 -13 -6 -8 -7 -19 30 -30 -5
right_child=1 5 4 23 10 6 11 8 -10 17 -12 12 -14 -15 -16 -17 -18 18 -20 -21 -22 -23 -24 -25 -26 -27 -28 -29 29 -31 -32 -33
leaf_value=0.030761695008011524 -0.0042867099632071049 -0.0009687874229776499 -0.016471978043513621 -0.0090196680959121443 0.002974671167837852 -0.025088090298607424 -0.0026474436529584011 0.022911236837379154 -0.020597520656003364 0 -0.0027832911954359624 -0.019496522893871323 0.015395394281651775 0 0.025892020631922773 0.016515084698458759 0.0018237091991392231 0.020200386110912509 0 0 0 0.029557505475111382 0.027041914896458432 -0.0027230193104646611 0 0.024796127059437869 0.0099602682126470905 -0.0035900443829637186 -0.012093819304678484 0.018646590309087593 0.0084079643485747146 -0.034111726412186273
leaf_weight=21.012654721736912 3.1457098871469498 5.7971692979335767 4.712227255105975 3.4920307993888846 4.5794309228658676 2.8104817718267423 2.9863988459110242 5.0719028115272504 2.9270174652338019 3.3122763931751242 4.6310445666313163 3.4205466657876968 3.0203848928213137 4.2132708877325049 7.0598996877670315 3.0627722889184943 3.0321760624647132 35.514117866754532 5.4878112673759452 2.9837706536054602 3.0909184813499451 5.2604683935642234 3.0768363028764725 2.4286768883466712 3.8414013683795929 5.8838067352771741 5.1318556219339371 5.3102617859840393 2.9443512409925487 17.857351556420326 14.963773608207701 77.007441759109497
leaf_count=106 13 24 19 15 20 13 13 23 13 16 19 14 13 17 31 13 13 169 24 13 13 23 14 11 16 25 23 22 13 83 71 473
internal_value=-0.000894715 -0.0138978 -0.0238723 -0.0299737 0.00269909 0.00668786 0.00136873 0.0166048 0.0024559 0.0182878 0.010516 0.00679316 -0.00071307 0.0116475 0.0158465 0.00381989 0.0281169 0.0148242 0.0155318 0.0112282 0.0158481 0.0186762 0.00813351 -0.0327602 -0.0108316 0.0179792 0.00322858 -0.014957 0.0165068 0.0119037 0.00355894 -0.0333782
internal_weight=279.07 160.872 108.943 89.1366 19.8065 51.929 37.7945 118.198 14.0736 104.125 15.0943 29.6738 10.2823 19.3914 15.1782 6.20848 24.0448 80.0797 76.7674 11.1466 8.16282 14.1345 8.87401 82.9281 7.26195 10.4632 8.11825 8.12074 71.2796 35.7655 17.9081 80.4995
internal_count=1388 831 608 525 83 223 162 557 62 495 64 127 43 84 67 26 119 376 360 49 36 61 38 499 30 45 36 35 336 167 84 488
is_linear=0
shrinkage=0.0276189


Tree=34
num_leaves=30
num_cat=0
split_feature=5 1 0 1 1 0 0 4 4 0 6 3 0 1 0 4 0 3 1 1 3 3 0 0 6 5 1 0 0
split_gain=80.0377 42.5774 23.5176 11.74 3.9007 3.71461 4.20064 3.42935 7.08558 3.75138 3.01314 2.84291 2.44662 1.66925 1.62924 2.3678 1.6096 1.53418 1.3051 1.23854 0.936147 2.66103 0.704477 0.775022 0.645288 0.458555 0.326644 0.0810138 1.55868
threshold=-0.24665788532123237 0.21826967572676137 0.26024073307668144 -0.088918184976039302 -0.31622267764737871 0.12097789759571936 0.31092504014731787 -0.37855707902167562 0.54102935701511801 0.52464347245988108 0.34677228610731609 -0.94064803253963569 0.81620856465872504 -0.30859744706255743 0.40839822573464929 0.088305091454874543 -1.9067952414956932 -0.84019011523039711 -0.26720333817352754 0.12208969992349666 0.68635633589601464 0.041250564790054213 1.178325045898027 1.4378047220958026 -0.014636472942147195 0.59110232796245021 -1.2740968815882627 0.89335711782736782 0.76294244429410585
decision_type=2 2 2 2 2 2 2 2 2 2 2 2 2 2 2 2 2 2 2 2 2 2 2 2 2 2 2 2 2
left_child=10 2 3 18 -4 20 25 -8 14 -10 11 19 24 17 -9 -16 -15 -13 -2 26 21 -3 27 -24 -6 -7 -1 28 -19
right_child=1 5 4 -5 12 6 7 8 9 -11 -12 13 -14 16 15 -17 -18 22 -20 -21 -22 -23 23 -25 -26 -27 -28 -29 -30
leaf_value=0.0033801774541785358 -0.0041913470803867335 0.020276584364762609 -0.01607353846010981 -0.032493451832357918 0.0029071550496707213 -0.024650985470235736 0.027461049331609366 0 -0.0017579929900218628 0.026105232800646333 -0.0017602844074917582 0 -0.0027176558853531175 0.011610206886338971 0 -0.026231999525142123 -0.012879838927692412 0.016312971087689324 0.016203492949291579 0.0064770531852157455 0.029066119662759675 -0.0057549975962489907 -0.0025304714988119387 0.010153566042534897 0.024314049397854955 -0.0035028961440091598 0.030831532835086509 0.023857675093044366 0
leaf_weight=2.3104674667120042 3.1474276632070541 5.2253080010414106 4.7163352072238949 81.37316720187664 4.575841560959816 2.7963443845510465 4.323943316936492 3.3425451964140001 3.7856675237417212 8.6459588259458524 4.5676260441541663 3.0093870609998694 4.6320810914039603 3.6250327974557877 3.2227839678525907 6.2828028351068497 2.9398820698261252 45.557749375700951 3.0516894012689582 5.3061088472604743 5.2164097279310218 3.6204060763120651 2.7351206988096219 6.9327135384082794 5.8517691045999509 5.3128332197666168 20.451466366648674 13.443453043699263 6.5387852340936652
leaf_count=12 13 23 19 499 20 13 19 14 16 38 19 14 19 16 14 26 13 216 13 24 23 15 13 31 25 22 103 65 31
internal_value=-0.000868417 -0.0136724 -0.0235776 -0.0296913 0.00261119 0.00652498 0.00128886 0.00662286 0.00151173 0.0165058 0.0162847 0.0172023 0.0102848 0.0138716 -0.0116266 -0.0172927 0 0.0149836 0.00367972 0.025864 0.0183368 0.00793708 0.0157728 0.00470598 0.0176459 -0.0147004 0.0291286 0.0170179 0.0145182
internal_weight=276.541 159.123 107.348 87.5723 19.776 51.775 37.7129 29.6037 25.2798 12.4316 117.418 112.85 15.0597 84.7821 12.8481 9.50559 6.56491 78.2172 6.19912 28.068 14.0621 8.84571 75.2078 9.66783 10.4276 8.10918 22.7619 65.54 52.0965
internal_count=1388 831 608 525 83 223 162 127 108 54 557 538 64 399 54 40 29 370 26 139 61 38 356 44 45 35 115 312 247
is_linear=0
shrinkage=0.0276189


Tree=35
num_leaves=28
num_cat=0
split_feature=5 1 1 4 4 1 2 2 6 6 3 4 4 3 2 4 6 1 3 1 6 1 1 3 3 3 1
split_gain=76.4841 41.0274 20.1628 12.6757 4.33693 4.11542 3.2096 2.91667 2.91418 2.90711 2.77688 2.67762 2.69642 3.68348 3.72263 3.05052 5.59392 1.5975 1.48403 1.19432 1.16523 0.448492 0.297194 0.214953 1.92002 0.275598 0.020439
