tree
version=v4
num_class=1
num_tree_per_iteration=1
label_index=0
max_feature_idx=25
objective=binary sigmoid:1
feature_names=Column_0 Column_1 Column_2 Column_3 Column_4 Column_5 Column_6 Column_7 Column_8 Column_9 Column_10 Column_11 Column_12 Column_13 Column_14 Column_15 Column_16 Column_17 Column_18 Column_19 Column_20 Column_21 Column_22 Column_23 Column_24 Column_25
feature_infos=[-0.77025855821379963:11.281001962055058] [-0.4393809761221068:27.520834959304839] [-0.33972174230821506:26.59679550211478] [-0.26569521406414831:8.6962275461935974] [-0.50709022915134983:33.551210767312575] [-0.38678452281932052:23.122040889805771] [-0.62237922323790129:5.6964407824618428] [-0.83891671884748731:3.1006370008751798] [-0.263836666803204:41.833457638671597] [-0.30292032903383825:41.509290246215464] [-0.27259512166372202:25.540516273008073] [-0.32979443636847139:12.156970717632252] [-0.62084773840633944:4.8145452870189267] [-0.84069000708003894:2.6816641911403298] [-0.72974127034717517:3.435215055729735] [-1.0919921120883243:1.976962046173611] [-19.091352834933247:0.62658620031206969] [-13.698410462424851:29.245850826663681] [-0.34741513848372357:16.207324794681476] [-0.42657870670031933:12.23251689372926] [-3.7347019610642889:0.73187149743017432] [-11.009298880092762:0.50332404199346148] [-16.709866198988912:1.0797998750355313] [-23.209695082314017:0.62969897085831195] [-1.0845730423842308:6.0900189596840262] [-1.193481469189078:5.2961782389453438]
tree_sizes=1661 1560 1835 1399 1377 1182 1860 1383 1260 1173 1431 1940 1779 2359 1564 2096 2060 1982 2013 2212 2692 1828 2035 2226 2493 2207 2241 2291 2721 2415 1051 3004 2377 3098 1822 2070 2167 1497 2216 2502 2892 2755 1545 2084 2487 2908 2346 2715 2015 2404 1828 2335 2659 1539 2796 2551 2755 2284 2901 2073 1624 2037 2584 2621 2394 1988 2186 1232 1626 2160 1731 2196 2432 1270 2529 2349 1891 2002 1774 1758 2201 2197 2069 2318 1942 2445 2477 2213 2730 2261 2409 2395 2034 2548 2329 2520 2033 2440 2252 1667 2469 1872 2103 2132 2230 2277 2510 2200 2034 2062 1771 1581 2044 2013 2137 1397 2088 2106

Tree=0
num_leaves=16
num_cat=0
split_feature=3 4 15 11 1 22 3 24 22 18 24 9 12 21 21
split_gain=641.645 86.1884 84.6071 24.7608 11.4031 7.39688 8.78673 7.31231 6.55099 3.27836 1.96235 1.7229 6.62819 3.8858 2.22504
threshold=-0.18183905338060749 -0.2524137398768207 0.95114825301696759 -0.17730237904888571 -0.32143148170577795 0.21624382592920238 -0.21364571363648446 2.6381621950995755 0.69498490744326336 -0.11083273349277825 0.20695992558364482 -0.039475316381292563 -0.59526730307520037 0.32609677992054015 0.32821656233710511
decision_type=2 2 2 2 2 2 2 2 2 2 2 2 2 2 2
left_child=1 -1 3 -2 11 9 7 -7 -8 10 -6 13 -13 -3 -15
right_child=2 4 -4 -5 5 6 8 -9 -10 -11 -12 12 -14 14 -16
leaf_value=-0.35198186291545863 0 0.27969785893410559 0.12631032335802012 -0.38522453941333984 0.16869554622690069 0.20444595529424797 -0.15459765651609042 0 0.079784986192533977 0.045451317869120385 0.30860539874706422 0.24497414173588292 0 0.061412290288354904 0.23413509897584864
leaf_weight=10.249999999999998 7.2499999999999991 106.75 13.749999999999998 131.25 30.5 21.750000000000004 8.0000000000000018 8.2499999999999982 8.4999999999999982 8.7499999999999982 16.5 10.500000000000002 8.2499999999999982 12.750000000000002 9.7499999999999982
leaf_count=41 29 427 55 525 122 87 32 33 34 35 66 42 33 51 39
internal_value=-5.71495e-05 0.185743 -0.319401 -0.365819 0.209346 0.150863 0.0819012 0.145707 -0.0187877 0.202628 0.225593 0.247441 0.144444 0.259833 0.150704
internal_weight=412.75 260.5 152.25 138.5 250.25 102.25 46.5 30 16.5 55.75 47 148 18.75 129.25 22.5
internal_count=1651 1042 609 554 1001 409 186 120 66 223 188 592 75 517 90
is_linear=0
shrinkage=0.19569


Tree=1
num_leaves=14
num_cat=0
split_feature=3 23 4 22 1 15 4 11 0 2 22 13 3
split_gain=430.783 72.1892 58.4991 19.1946 7.29821 6.05591 5.38024 2.79942 2.3839 1.79175 1.63422 1.57169 1.34197
threshold=-0.18183905338060749 0.44529672325580638 -0.2524137398768207 -0.091065341215116571 -0.31399114635986319 -1.0919831560858253 0.63013109104703224 0.17183233089339453 0.033640861421987571 -0.31479731072630773 -1.6262359362371257 -0.81753148312592183 -0.21678698399999588
decision_type=2 2 2 2 2 2 2 2 2 2 2 2 2
left_child=2 3 -1 -2 10 8 7 -7 -6 -8 -4 -12 -13
right_child=1 -3 4 -5 5 6 9 -9 -10 -11 11 12 -14
leaf_value=-0.29487231988692481 0 0.15826795193875481 0.050399856659858334 -0.3268511882952988 0.083386532618880335 0.18320595542169948 -0.021984557756229282 0.015097334847899312 -0.071266107510985277 0.089470915572298651 0.23326733232161334 0.21252004096557822 0.10053414031482948
leaf_weight=9.9389708489179593 7.3724022954702368 12.937047258019446 7.3951290547847739 127.13449494540691 7.2011882066726667 61.622456684708595 7.7109635174274471 7.9302925020456305 7.2143430262804031 8.685189023613928 93.642162352800369 19.198170036077499 26.394831925630569
leaf_count=41 30 52 30 527 29 249 31 32 29 35 381 78 107
internal_value=0 -0.265965 0.153208 -0.309101 0.172756 0.123866 0.143496 0.168085 0 0.0216551 0.203976 0.21004 0.154929
internal_weight=404.378 147.444 256.934 134.507 246.995 100.364 85.9489 69.5527 14.4155 16.3962 146.63 139.235 45.593
internal_count=1651 609 1042 557 1001 405 347 281 58 66 596 566 185
is_linear=0
shrinkage=0.19569


Tree=2
num_leaves=17
num_cat=0
split_feature=3 23 4 22 1 13 4 1 11 24 24 4 20 4 24 6
split_gain=287.391 49.9469 37.7295 16.2001 5.31237 5.29466 5.75555 3.60511 2.81278 2.27732 2.50405 1.98119 1.8995 2.1097 1.02447 0.97483
threshold=-0.18183905338060749 0.39612232693668165 -0.2524137398768207 -0.083466935326427863 -0.31399114635986319 -0.73025499691470774 0.63013109104703224 -0.035108291074398078 -0.30266853537987953 -0.99694392597732284 -0.85954698617102177 -0.13012255476911044 0.73002498512632141 -0.19459137911097132 -0.062078129245312065 -0.62216722839478789
decision_type=2 2 2 2 2 2 2 2 2 2 2 2 2 2 2 2
left_child=2 3 -1 -2 9 7 11 8 -6 12 -11 -7 -4 -14 -3 -12
right_child=1 14 4 -5 5 6 -8 -9 -10 10 15 -13 13 -15 -16 -17
leaf_value=-0.25640014446647974 0 0.0045829016965521392 0.25369702142063427 -0.28866618493558049 0.14618892409538256 0.11370103899183744 0 -0.083044472352138882 0 0 0.026331488844350649 0.23460695642230203 0.020434118275637618 0.20762258394294344 0.16572692416755605 0.15618978989540078
leaf_weight=8.7972274124622327 7.0831111520528784 6.8953819274902344 31.971176072955132 115.23689338564873 8.3232848197221774 43.863939940929413 13.422901853919027 8.399350240826605 7.874292820692065 7.1490297466516486 7.7544873952865592 14.582738175988196 9.4466047137975711 6.6239678114652625 6.8793140947818738 76.434347480535507
leaf_count=39 29 28 135 520 34 181 54 34 32 30 33 60 40 28 28 320
internal_value=-0.00239571 -0.230666 0.12365 -0.271039 0.139359 0.0962568 0.12335 0.00561498 0.0687226 0.166916 0.137986 0.149778 0.214828 0.117014 0.106421 0.147593
internal_weight=380.738 136.095 244.643 122.32 235.846 96.4665 71.8696 24.5969 16.1976 139.38 91.3379 58.4467 48.0417 16.0706 13.7747 84.1888
internal_count=1625 605 1020 549 981 395 295 100 66 586 383 241 203 68 56 353
is_linear=0
shrinkage=0.19569


Tree=3
num_leaves=12
num_cat=0
split_feature=8 8 22 1 5 10 13 22 20 24 9
split_gain=210.661 46.3966 11.0884 8.04845 7.1117 6.22151 7.16523 4.70056 1.70883 2.41223 3.77532
threshold=-0.016285066137849028 0.009166092463605547 -0.016524689656807194 -0.31399114635986319 -0.13741450153815851 -0.22453241842098273 1.7148695582592752 -0.1468573810712154 0.73063534761595794 -0.99694392597732284 -0.039554525428569888
decision_type=2 2 2 2 2 2 2 2 2 2 2
left_child=-1 3 -3 8 -5 6 -6 -7 9 -2 -11
right_child=1 2 -4 4 5 7 -8 -9 -10 10 -12
leaf_value=-0.26662430009037313 0.20327581136372722 0.040778512512562017 -0.2211434288642419 -0.11317617410217469 0.26545577972294615 0.12304194860958804 0.026617677648286771 0.010726836644336976 0.039619284023115861 0.1489017948550056 0.032670965739217045
leaf_weight=86.918691217899323 41.660461887717247 6.2752910107374218 21.375068977475166 6.4210227578878394 13.707668438553812 22.578474894165993 11.727165415883062 55.453314408659935 12.690244629979132 60.077459365129471 21.217703282833099
leaf_count=437 187 28 105 30 58 94 50 230 55 261 90
internal_value=-0.00121641 0.0824948 -0.152324 0.110231 0.0658029 0.0798833 0.167806 0.0471068 0.143953 0.152378 0.122164
internal_weight=360.103 273.184 27.6504 245.534 109.888 103.467 25.4348 78.0318 135.646 122.956 81.2952
internal_count=1625 1188 133 1055 462 432 108 324 593 538 351
is_linear=0
shrinkage=0.19569


Tree=4
num_leaves=12
num_cat=0
split_feature=17 17 5 2 5 8 8 3 6 16 20
split_gain=165.779 68.9423 3.88581 4.53591 4.64262 5.61371 4.82606 2.24491 1.89268 1.41956 0.851033
threshold=-0.01216171464085466 -0.011971913411387909 -0.13677535641213392 -0.061440504881093774 -0.13657718269149824 -0.011420925911192963 -0.011675343477546165 -0.21089017252696937 -0.62227038030628457 -0.063021792818355335 0.64575115922503268
decision_type=2 2 2 2 2 2 2 2 2 2 2
left_child=-1 2 7 4 5 -4 -6 -2 -5 -3 -10
right_child=1 9 3 8 6 -7 -8 -9 10 -11 -12
leaf_value=-0.24352157400543289 0.20558940643878548 -0.23673351931172346 0.14052191489210406 0 -0.039605961578066035 -0.060816640255114768 0.10612555599957253 0.021805432356311025 0.23632633648876472 -0.029990308875421576 0.12910585452530754
leaf_weight=76.427813589572906 33.764736354351044 21.72103235125542 7.1454239487648037 5.7854845970869055 6.5625018775463095 17.562756031751633 91.539148703217506 6.5499816089868537 13.117389872670172 4.8261577486991873 53.528136715292931
leaf_count=431 153 121 31 26 29 75 399 29 55 25 244
internal_value=0.00846541 0.0832183 0.117708 0.102549 0.0744898 0 0.0935207 0.182846 0.145779 -0.210127 0.155458
internal_weight=338.531 262.103 235.556 195.241 122.81 24.7082 98.1017 40.3147 72.431 26.5472 66.6455
internal_count=1618 1187 1041 859 534 106 428 182 325 146 299
is_linear=0
shrinkage=0.19569


Tree=5
num_leaves=10
num_cat=0
split_feature=8 8 17 12 5 4 8 0 21
split_gain=125.069 28.4743 10.1558 3.94603 3.24679 3.68535 3.61229 1.33874 1.05796
threshold=-0.016285066137849028 0.02371285096096314 -0.01216171464085466 2.9215417973037825 -0.13677535641213392 -0.19459137911097132 -0.011331811772864554 0.17814206100329813 0.32477283802638662
decision_type=2 2 2 2 2 2 2 2 2
left_child=-1 2 -2 4 6 -6 -4 -5 -3
right_child=1 8 3 7 5 -7 -8 -9 -10
leaf_value=-0.23596297181802076 -0.11913189337280471 -0.20959790238497719 0.026610051534355084 -0.065225812860828417 0.04146101701217219 0.11020739561813624 0.20715163903839962 0.050983482462925521 -0.036604490377411238
leaf_weight=63.93852661550045 7.2909730523824683 11.134142339229586 9.6011999696493131 6.6501189321279508 61.214628756046295 117.61660531163216 25.900312170386314 7.8353875726461411 6.7344946414232245
leaf_count=421 41 69 46 28 274 543 126 34 36
internal_value=0.00689091 0.0693517 0.088181 0.0961512 0.102823 0.0883194 0.166647 0 -0.161312
internal_weight=317.916 253.978 236.109 228.818 214.333 178.831 35.5015 14.4855 17.8686
internal_count=1618 1197 1092 1051 989 817 172 62 105
is_linear=0
shrinkage=0.19569


Tree=6
num_leaves=17
num_cat=0
split_feature=8 8 15 13 19 6 12 4 19 8 12 8 14 10 14 11
split_gain=92.4033 18.3718 7.10912 4.59278 6.4674 8.05861 5.99106 9.00285 7.06156 5.32411 4.26754 3.21072 3.01572 2.2253 1.11255 0.45038
threshold=-0.016285066137849028 0.009166092463605547 1.1192427608747575 -0.81486234848369588 -0.092643843788623642 -0.61570526146474058 -0.55372813215531946 -0.1950700761710373 -0.3663247274807318 -0.0082068490645309296 -0.42420734589999803 -0.011637352966784361 -0.63124203824200154 -0.26189847164569713 -0.70189521333955607 0.029472579282062924
decision_type=2 2 2 2 2 2 2 2 2 2 2 2 2 2 2 2
left_child=-1 3 15 4 11 -6 7 14 13 -9 -10 -2 -13 -8 -5 -3
right_child=1 2 -4 6 5 -7 8 9 10 -11 -12 12 -14 -15 -16 -17
leaf_value=-0.22585692627145884 0 -0.03027196582995019 0.038998523952105235 0.13746288473563276 -0.14217109723073237 0.12822065673967739 0.025448596731587721 -0.17065182183846916 0.11363186949954623 0.0055882527650856833 -0.025693060516438236 0.14662919973514801 0 0.14517506890923754 0 -0.21221489881699862
leaf_weight=57.42057192325592 5.6573789268732062 4.6839629560709062 5.6448439210653296 7.658656045794487 8.3856829553842527 7.6128864437341681 14.587862774729727 15.417586773633955 10.54113633930683 6.4412532001733807 33.840436860918999 67.756178215146065 7.0391948521137229 35.129386067390442 6.2176547795534116 12.353359431028364
leaf_count=441 26 28 25 34 40 41 70 68 49 30 158 338 31 162 28 85
internal_value=-0.00209156 0.0486999 -0.113631 0.0663257 0.100542 0 0.0386147 -0.0240803 0.0652819 -0.107374 0.0020525 0.12318 0.13398 0.115893 0.0875598 -0.179445
internal_weight=306.388 248.967 22.6822 226.285 96.4513 15.9986 129.834 35.7352 94.0988 21.8588 44.3816 80.4528 74.7954 49.7172 13.8763 17.0373
internal_count=1654 1213 138 1075 476 81 599 160 439 98 207 395 369 232 62 113
is_linear=0
shrinkage=0.19569


Tree=7
num_leaves=12
num_cat=0
split_feature=8 8 15 15 16 16 19 8 6 8 24
split_gain=71.6355 13.7568 5.15288 3.76585 3.95822 8.6443 5.48138 4.38359 3.96547 2.82368 1.96749
threshold=-0.01185918519642465 0.02371285096096314 1.1192427608747575 1.9767253242875165 0.19284468409668568 -0.20300064260975281 -0.31825188341365096 -0.0068886119525071983 -0.62063167053749368 -0.0079612359094822036 0.47311793098669458
decision_type=2 2 2 2 2 2 2 2 2 2 2
left_child=-1 3 -3 4 5 10 -7 9 -9 -6 -2
right_child=1 2 -4 -5 7 6 -8 8 -10 -11 -12
leaf_value=-0.2145027312495828 0.029708520287021457 -0.19495238393510309 0.0099054601422548603 -0.071423808469294789 0.063404291875280711 0.03443678637188665 -0.15397594361174446 0 0.1675565017741196 -0.026112049677668052 0.18363906006852659
leaf_weight=50.034767925739288 17.145978838205341 11.75573769956827 3.8295301645994178 6.4573485702276221 127.71617107093334 6.4100554734468487 14.323544293642042 4.8894595950841895 30.004028975963593 10.343703374266623 6.8647398203611365
leaf_count=448 82 90 17 27 633 30 72 24 149 50 32
internal_value=-0.00155392 0.0420347 -0.128673 0.0553038 0.0604186 0.00201415 -0.0833707 0.0739334 0.140991 0.0546945 0.086962
internal_weight=289.775 239.74 15.5853 224.155 217.698 44.7443 20.7336 172.953 34.8935 138.06 24.0107
internal_count=1654 1206 107 1099 1072 216 102 856 173 683 114
is_linear=0
shrinkage=0.19569


Tree=8
num_leaves=11
num_cat=0
split_feature=8 9 9 5 5 8 12 8 23 5
split_gain=55.9281 9.76878 9.72591 4.06933 4.12084 6.57083 5.66885 3.20938 2.88 2.28388
threshold=-0.01185918519642465 -0.041024084103335606 0.047847250043066183 -0.13677535641213392 -0.13657718269149824 -0.011420925911192963 0.64831824164854968 -0.011331811772864554 0.32297619477937967 -0.13706645925249863
decision_type=2 2 2 2 2 2 2 2 2 2
left_child=-1 -2 3 7 5 -5 -6 -3 -4 -9
right_child=1 2 8 4 6 -7 -8 9 -10 -11
leaf_value=-0.20861438007719968 -0.18422611331270089 0 -0.18816607448783493 0.10980863348051167 0.076162000472732971 -0.065775505889620625 -0.014021570808719269 0.025440576331260931 0 0.20645100834152935
leaf_weight=42.337824858725071 6.7038894519209853 9.5345470458269101 7.8107375875115377 10.508822903037069 110.41374459862709 28.552491649985313 28.791898518800735 7.8223437666892996 3.4779745638370514 15.871636152267458
leaf_count=448 50 49 66 51 557 133 128 41 20 95
internal_value=-0.00207423 0.0351379 0.0432512 0.0536648 0.0394744 -0.0110903 0.0555882 0.120455 -0.124106 0.159251
internal_weight=271.826 229.488 222.784 211.495 178.267 39.0613 139.206 33.2285 11.2887 23.694
internal_count=1638 1190 1140 1054 869 184 685 185 86 136
is_linear=0
shrinkage=0.19569


Tree=9
num_leaves=10
num_cat=0
split_feature=8 9 9 21 7 3 19 22 1
split_gain=44.3632 8.62691 7.37753 13.2302 5.44566 2.80181 4.20268 3.45987 3.12005
threshold=-0.011770962675418091 -0.039742036305781332 -0.033914499960346275 0.32438142682070686 0.8241586505363544 -0.1237805533007869 -0.4087499416289192 0.89713767516896403 -0.31399114635986319
decision_type=2 2 2 2 2 2 2 2 2
left_child=4 -2 5 -4 -1 6 7 -3 -8
right_child=1 2 3 -5 -6 -7 8 -9 -10
leaf_value=-0.2074071237839924 -0.18209196679798739 0.10142559359847038 -0.21332925969779495 0.1328064997181016 0.0016992595285368723 0.16203344062842009 0.051309902633183822 0 -0.0099702508049055345
leaf_weight=38.675926730036736 6.1466341018676749 59.34147734194994 10.723781853914263 5.5488969683647147 2.5591511875390998 9.9086724966764432 57.089606076478958 9.8121864795684797 58.57262971997261
leaf_count=462 51 315 89 26 14 45 316 52 268
internal_value=-0.00196695 0.0323952 0.040237 -0.0787526 -0.188046 0.0516983 0.0440047 0.0832469 0.0180199
internal_weight=258.379 217.144 210.997 16.2727 41.2351 194.725 184.816 69.1537 115.662
internal_count=1638 1162 1111 115 476 996 951 367 584
is_linear=0
shrinkage=0.19569


Tree=10
num_leaves=13
num_cat=0
split_feature=17 17 18 13 23 5 5 5 9 5 6 6
split_gain=35.4799 11.3783 3.66281 3.21093 2.73275 2.4016 4.73481 5.77868 5.48114 2.43299 2.6544 0.658743
threshold=-0.01216171464085466 -0.011971913411387909 -0.26357179421352545 -0.84023113680402506 0.33328258077075235 -0.13677535641213392 -0.13658733676117754 -0.13621984613984389 -0.039729035453676877 -0.13727305760786815 -0.61653283767824296 -0.62167959661682881
decision_type=2 2 2 2 2 2 2 2 2 2 2 2
left_child=2 3 -1 11 -3 9 8 -8 -7 -5 -11 -2
right_child=1 4 -4 5 -6 6 7 -9 -10 10 -12 -13
leaf_value=0 0.19122827137740697 -0.18405597108149224 -0.20175123520737323 0 0 0.094272967720181927 0.12728787617970047 0.017022210819153484 -0.08774097492815848 0 0.15845550690964125 0.031829767532926372
leaf_weight=1.9220363348722447 7.9061542600393295 10.370726868510245 31.256715565919876 7.7355919331312206 2.3595092892646781 6.8556769639253607 24.502118170261383 101.89646206796169 25.264998078346252 4.427778065204623 16.749169357120991 7.0296729356050474
leaf_count=13 44 132 427 39 14 34 141 508 118 27 108 39
internal_value=0.0011082 0.0313303 -0.184913 0.0437275 -0.140705 0.0346374 0.0227198 0.0408439 -0.039939 0.08962 0.123433 0.136483
internal_weight=248.277 215.098 33.1788 202.368 12.7302 187.432 158.519 126.399 32.1207 28.9125 21.1769 14.9358
internal_count=1644 1204 440 1058 146 975 801 649 152 174 135 83
is_linear=0
shrinkage=0.19569


Tree=11
num_leaves=18
num_cat=0
split_feature=8 13 20 4 19 23 22 25 2 19 8 23 19 20 25 19 14
split_gain=28.1596 6.00821 4.23207 6.51026 6.21254 4.82271 5.18475 3.84583 3.7486 3.4294 6.7955 3.31599 2.98253 2.75709 2.55593 2.55205 1.59776
threshold=-0.016285066137849028 -0.8234562920720131 0.65204081233027067 -0.19228173479022401 -0.39758487901022271 0.59316067666221006 -0.5146143642460993 1.0909323738850061 -0.30531913845959441 -0.092643843788623642 -0.0082162833285494789 0.6087732519325092 -0.36864272557476563 0.73063534761595794 -0.38313334490034473 -0.27110626764862383 -0.63124203824200154
decision_type=2 2 2 2 2 2 2 2 2 2 2 2 2 2 2 2 2
left_child=-1 7 4 12 8 6 -6 9 14 13 -11 -10 -4 16 -3 -7 -2
right_child=1 2 3 -5 5 15 -8 -9 11 10 -12 -13 -14 -15 -16 -17 -18
leaf_value=-0.19443416581603951 0.13411209680801792 0.10408415233275144 -0.086280387304095429 -0.18800961492227117 0.045045491831740711 -0.011007071620384173 -0.10466796772582374 -0.05401893728450298 0.16814124430069149 -0.18747618781135394 0.10421605495646187 0 0.078851346822709181 0 -0.04603432975755653 0.092222067344594427 0
leaf_weight=24.499837104231119 43.809450089931481 6.3645356222987202 6.7972494140267399 10.302189543843268 9.3054669946432096 11.551296234130861 30.137701034545898 6.0846693515777579 18.196308426558975 4.6998902261257172 7.1392108350992185 5.5698001831769934 9.3954148739576357 9.7758148908615095 11.325342319905756 16.379279285669327 6.4241543561220231
leaf_count=435 268 33 35 50 45 51 225 31 99 23 48 27 48 53 63 80 30
internal_value=0.00137112 0.0254356 0 -0.0690928 0.017584 -0.0158479 -0.0624765 0.0685775 0.078019 0.0829267 0 0.128418 0 0.101979 0 0.0404209 0.120392
internal_weight=237.758 213.258 135.325 26.4949 108.83 67.3737 39.4432 77.9332 41.456 71.8485 11.8391 23.7661 16.1927 60.0094 17.6899 27.9306 50.2336
internal_count=1644 1209 756 133 623 401 270 453 222 422 71 126 83 351 96 131 298
is_linear=0
shrinkage=0.19569


Tree=12
num_leaves=16
num_cat=0
split_feature=17 17 15 15 23 4 9 23 15 5 5 24 3 3 16
split_gain=23.3586 5.09317 4.16118 2.64781 2.14443 4.12484 3.9208 3.58046 4.63987 3.53783 3.43399 4.59673 4.19404 2.63509 1.93974
threshold=-0.01216171464085466 -0.011971913411387909 1.2204463600734312 0.50109442411215299 0.43885001622880931 -0.19463668876795265 -0.039382829481870919 0.51838026602447096 1.9767253242875165 -0.13677691222657409 -0.13621984613984389 -0.71421373581737913 -0.2120361325751377 -0.21292526978954143 0.25167068562776834
decision_type=2 2 2 2 2 2 2 2 2 2 2 2 2 2 2
left_child=3 4 -3 -1 6 9 10 -7 -9 14 12 -12 -2 -11 -6
right_child=1 2 -4 -5 5 7 -8 8 -10 13 11 -13 -14 -15 -16
leaf_value=-0.19501819412257956 0.10167834725638271 -0.17407194639390194 0.050653428221293685 0 -0.0041473754864418469 -0.08932648283316301 0.15682877929740699 0.076964031359068319 -0.082870796524356444 -0.12099676595184593 0.09645073572249159 -0.054872831602419146 -0.060562517241753058 0 0.12310104595363076
leaf_weight=23.136384353041652 33.078864596784115 8.4109314195811731 2.3051927387714377 1.6601262092590321 5.5070908069610578 5.545362100005149 13.12753815948963 55.703338369727135 6.0500989258289328 18.481621280312538 10.046660654246805 26.163052767515182 4.9847234413027754 9.410383418202402 5.6771681606769562
leaf_count=436 207 138 11 10 30 29 66 305 25 88 57 135 27 49 37
internal_value=0 0.0222592 -0.101326 -0.177474 0.030669 0.00880401 0.0540523 0.0401061 0.056549 -0.0381317 0.0315646 -0.00494372 0.0730214 -0.0787279 0.0390286
internal_weight=229.289 204.492 10.7161 24.7965 193.776 106.375 87.4008 67.2988 61.7534 39.0763 74.2733 36.2097 38.0636 27.892 11.1843
internal_count=1650 1204 149 446 1055 563 492 359 330 204 426 192 234 137 67
is_linear=0
shrinkage=0.19569


Tree=13
num_leaves=22
num_cat=0
split_feature=17 18 9 22 10 18 2 6 2 12 20 9 16 21 7 22 6 4 2 0 13
split_gain=17.9338 3.58626 3.69243 3.93064 2.70566 2.50063 2.40091 5.17078 5.03938 3.35505 6.57677 2.92865 2.7408 2.96409 2.54313 2.45801 2.05534 1.39132 0.772798 0.360413 0.226017
threshold=-0.01216171464085466 -0.010154640830775949 -0.039209694949941566 -0.1468573810712154 1.3583917128093315 0.19116381802855495 -0.060647369103865457 -0.62205023014247562 -0.038583142777706421 -0.55372813215531946 0.69754487066527482 -0.039698082319738433 0.19452109971160456 0.20197560007976909 -0.83307047724586036 -0.091065341215116571 -0.56002264143839486 -0.19815515460690228 -0.078714502854651841 0.88485880944932804 -0.77110087524812621
decision_type=2 2 2 2 2 2 2 2 2 2 2 2 2 2 2 2 2 2 2 2 2
left_child=4 6 5 -4 -1 -3 9 11 15 10 16 -8 -11 -14 -12 -9 -2 18 -7 -5 -10
right_child=1 2 3 19 -6 17 7 8 20 12 14 -13 13 -15 -16 -17 -18 -19 -20 -21 -22
leaf_value=-0.19013144645335173 -0.19780580866649855 -0.070892816007394555 0 -0.20089064900305928 0 0.055083423888265037 0.049187688077663876 0 -0.013932935871075939 -0.032376901400872155 -0.021838711523581539 -0.12644495479510376 0.004675818814774183 0.11005044664442676 0.072343790204137337 0.2115199131901114 -0.013632922451086884 0.12537229034917818 -0.04682539574504721 0 0.03476350502011924
leaf_weight=19.667604908347133 8.0591935291886347 7.9710982628166702 3.7557604908943167 8.1575937829911691 1.479324236512183 5.795607171952728 5.5138401463627815 5.4588942900300017 6.0945423617959023 9.5397120304405671 17.604694060981274 6.0906084105372411 25.203165516257286 27.760839834809303 19.805529102683067 15.539276976138352 8.2840973734855634 6.4584826529026005 4.5701474770903587 2.190366879105567 5.7414026372134703
leaf_count=440 39 46 19 132 6 45 37 32 29 49 102 34 130 152 114 108 39 31 24 12 30
internal_value=0 0.0181175 -0.0316205 -0.111554 -0.169861 0.00412327 0.0318794 0.0720567 0.113138 0.0140227 -0.0182861 -0.0215588 0.0460434 0.0653584 0.0211066 0.17004 -0.123026 0.0561356 0 -0.175588 0
internal_weight=220.742 199.595 38.8991 14.1037 21.1469 24.7953 160.696 44.4386 32.8341 116.257 53.7535 11.6044 62.5037 52.964 37.4102 20.9982 16.3433 16.8242 10.3658 10.348 11.8359
internal_count=1650 1204 309 163 446 146 895 270 199 625 294 71 331 282 216 140 78 100 69 144 59
is_linear=0
shrinkage=0.19569


Tree=14
num_leaves=14
num_cat=0
split_feature=8 0 19 5 5 19 16 12 8 8 8 23 11
split_gain=16.2719 5.92823 2.8929 3.64915 3.35554 2.49202 2.79391 2.21372 1.76971 2.47618 2.31067 2.94458 0.637166
threshold=-0.011770962675418091 0.74797372659862205 -0.39758487901022271 -0.13741450153815851 -0.13683208511052639 -0.38855376391827678 -0.61484942685976429 -0.62039605087714866 -0.0076370247710494076 -0.0087164740410611719 -0.0099208755799240229 0.40852893463479562 0.046539405201548346
decision_type=2 2 2 2 2 2 2 2 2 2 2 2 2
left_child=1 7 8 12 -5 -6 -7 -1 9 10 11 -2 -4
right_child=2 -3 3 4 5 6 -8 -9 -10 -11 -12 -13 -14
leaf_value=0 0.062227975321979934 0.076624958671230786 -0.17767744129985663 0.13169979450367089 -0.11040170954349407 0.11673822191509221 0 -0.21975883490358064 0.11929354831988299 -0.077549760200163853 0.17102004171031956 -0.037429784185237312 0
leaf_weight=1.5610644370317519 30.484140440821648 1.7901732027530659 4.2642861455678931 8.0614292100071889 6.4916266351938239 8.3291351050138456 92.08417085558176 16.739876467734575 15.398466832935808 5.1275476664304724 5.6015741825103751 14.176614023745058 2.5340933538973331
leaf_count=8 185 12 48 62 32 41 543 446 100 29 33 77 25
internal_value=0.00375303 -0.160562 0.0225796 0.00190303 0.0124763 0.000534902 0.0107745 -0.1993 0.0541529 0.0305135 0.0473674 0.0245519 -0.130486
internal_weight=212.644 20.0911 192.553 121.765 114.966 106.905 100.413 18.3009 70.7883 55.3899 50.2623 44.6608 6.79838
internal_count=1641 466 1175 751 678 616 584 454 424 324 295 262 73
is_linear=0
shrinkage=0.19569


Tree=15
num_leaves=20
num_cat=0
split_feature=8 19 23 4 15 12 7 12 10 6 20 15 5 5 11 22 22 24 6
split_gain=11.9863 4.81433 2.53912 3.31173 3.91156 3.24004 4.16916 4.25881 6.63348 4.13128 4.03607 3.28805 3.95056 2.87977 2.40849 3.77378 2.0201 3.76642 0.266815
threshold=-0.011770962675418091 -0.41733802765079164 0.59316067666221006 -0.19436431042029337 1.9767253242875165 0.60012418895928643 0.94507898705769267 -0.41908190124916783 -0.21856389946604921 2.6319961323061167 0.65585068702777349 1.9365076268583115 -0.13508706188273797 -0.13677535641213392 -0.31470006788150623 0.80265301288346202 0.91422975087976155 -0.40685714792349886 0.73213383112150721
decision_type=2 2 2 2 2 2 2 2 2 2 2 2 2 2 2 2 2 2 2
left_child=1 -1 5 13 16 6 7 10 -9 11 -2 12 -7 -4 -15 -16 17 -5 -3
right_child=2 18 3 4 -6 9 -8 8 -10 -11 -12 -13 -14 14 15 -17 -18 -19 -20
leaf_value=0 0.086715717954616897 -0.207121734342611 0.10316988897233835 0.01783564456653812 -0.039376646684980719 0 0.14136701583834987 0.041391359326617076 -0.23545901610996037 0.025003684221020939 -0.0057857936930675617 0 -0.30622670400457808 0.019571738387498913 -0.21347835164810311 0 0 0.18058970012275005 0
leaf_weight=3.2148405909538296 23.281582567840815 13.352906957268711 6.2822376564145115 13.227206461131571 5.5585187077522269 2.7834065705537796 8.7742203027009946 3.5528665855526924 6.5645983405411226 6.0791721343994132 58.392583958804607 4.4695941358804694 5.2942942157387751 6.9227739050984427 5.6167957633733714 7.1647292748093605 5.9919873401522628 19.4966671615839 0.85744760558009225
leaf_count=19 138 437 44 76 23 16 48 28 83 29 365 21 67 35 27 35 37 103 10
internal_value=0.0030315 -0.148862 0.0186943 0.0481207 0.0806423 0 0.0151914 0 -0.114551 -0.0728165 0.0175724 -0.140431 -0.2122 0 -0.0442696 -0.0989218 0.104993 0.123918 -0.199194
internal_weight=206.878 17.4252 189.453 70.2609 44.2744 119.192 100.566 91.7916 10.1175 18.6265 81.6742 12.5473 8.0777 25.9865 19.7043 12.7815 38.7159 32.7239 14.2104
internal_count=1641 466 1175 380 239 795 662 614 111 133 503 104 83 141 97 62 216 179 447
is_linear=0
shrinkage=0.19569


Tree=16
num_leaves=19
num_cat=0
split_feature=8 0 19 22 14 16 16 10 15 3 1 18 18 21 6 1 10 0
split_gain=9.09771 3.88982 2.09572 3.3761 2.60628 4.94376 4.72703 5.0392 3.30918 2.35166 2.17015 2.30241 4.49188 1.96484 1.78835 1.69039 0.758577 0.349828
threshold=-0.011770962675418091 0.74797372659862205 -0.39881377516761174 0.85017443549920635 -0.69992628120632672 0.28708310885167893 -0.52516099013069373 -0.22977199678702381 0.95114825301696759 -0.20858078882029432 0.34106881230812675 -0.34643580256474199 -0.34517794160158294 0.32393056624121802 -0.61870962471977953 0.2324498933824615 -0.20822627013612052 -0.27677092616046467
decision_type=2 2 2 2 2 2 2 2 2 2 2 2 2 2 2 2 2 2
left_child=1 14 3 10 5 -4 17 -8 -9 15 11 16 -13 -5 -1 -7 -2 -6
right_child=2 -3 4 13 6 9 7 8 -10 -11 -12 12 -14 -15 -16 -17 -18 -19
leaf_value=0 0.15340776722981056 0.030039414199307127 0.19523737913013242 -0.12694030718429108 0 0.038324117245069275 0.049601881606508233 -0.15180460126281858 -0.027567278078904536 -0.12135176689470091 0.19437586397294829 -0.094360308045183749 0.05190937527328128 0 -0.20774655352310811 -0.059862439956219329 0 0.10973913812671958
leaf_weight=0.99066320061683555 7.6238553449511528 1.3721354380249966 5.2634475231170645 6.1512051299214345 5.1764141693711281 35.471623800694942 9.6190901920199376 20.465918460860848 24.957867138087749 4.933424584567546 4.6768769398331633 10.201095215976229 29.143499836325653 4.7450013011693954 12.591468522325156 6.2828666269779196 4.4667676612734777 5.4582523144781572
leaf_count=5 60 10 31 34 28 231 51 203 123 25 27 63 179 29 452 27 27 31
internal_value=-0.00412522 -0.149773 0.00649599 0.034798 -0.00739937 0.0222091 -0.0348991 -0.0607521 -0.0902319 0 0.0565848 0.0375114 0.00664993 -0.0515847 -0.187594 0.0167365 0.113028 0.071883
internal_weight=199.591 14.9543 184.637 67.0083 117.629 51.9514 65.6775 55.0429 45.4238 46.6879 56.1121 51.4352 39.3446 10.8962 13.5821 41.7545 12.0906 10.6347
internal_count=1636 467 1169 419 750 314 436 377 326 283 356 329 242 63 457 258 87 59
is_linear=0
shrinkage=0.19569


Tree=17
num_leaves=18
num_cat=0
split_feature=8 0 1 22 0 19 0 0 23 9 6 21 12 8 21 8 0
split_gain=6.56363 3.38319 1.7106 5.2659 3.29193 2.97461 4.67754 4.05215 2.7888 2.48275 4.10203 3.46634 1.70734 1.58405 2.92833 2.57692 1.14496
threshold=-0.011770962675418091 0.74797372659862205 -0.23496389719520763 -1.4998631236915758 -0.30225446325781086 0.15480644002737443 -0.43936449939304845 -0.60068077899573902 0.61987939122279367 -0.039684784157138754 -0.62205023014247562 0.32593361959533634 -0.62039605087714866 -0.011237334201314437 0.32232109377795426 -0.0089311436797004755 -0.45201967124895509
decision_type=2 2 2 2 2 2 2 2 2 2 2 2 2 2 2 2 2
left_child=1 12 5 -4 8 6 9 -7 16 11 -11 -2 -1 14 -6 -15 -5
right_child=2 -3 3 4 13 7 -8 -9 -10 10 -12 -13 -14 15 -16 -17 -18
leaf_value=0 0.092885796817695238 0.025886831285410711 0.1327965267206932 0 -0.13528924429437802 0.044922841510818053 0.17821870007029159 -0.13427455306352523 0 -0.17279296720958431 0.0093812478033346164 -0.031272625172869016 -0.20110742688799599 0.069616601769485253 0.0057331715989013595 -0.024953235147653192 -0.20993021885972596
leaf_weight=1.4441732466220845 28.699984483420842 1.3447915613651265 7.4555900394916526 3.4555834978818885 8.9997612684965116 6.2589545473456374 8.5641062892973405 9.406481519341467 3.7722010463476172 4.8286462649702946 37.461114741861834 8.0670340061187726 10.468010032549499 17.407571591436859 6.1035148948431006 24.352741567417983 7.6072358302772036
leaf_count=7 198 10 46 18 43 50 52 47 19 26 240 45 450 89 30 198 68
internal_value=-0.00208241 -0.134027 0.00628782 -0.0132098 -0.0327578 0.0238273 0.0396128 -0.0464885 -0.115045 0.0204182 -0.00644866 0.0583367 -0.174281 -0.00595299 -0.062126 0.00833499 -0.164106
internal_weight=195.697 13.257 182.441 79.1542 71.6986 103.286 87.6209 15.6654 14.835 79.0568 42.2898 36.767 11.9122 56.8636 15.1033 41.7603 11.0628
internal_count=1636 467 1169 511 465 658 561 97 105 509 266 243 457 360 73 287 86
is_linear=0
shrinkage=0.19569


Tree=18
num_leaves=19
num_cat=0
split_feature=17 17 20 20 9 21 23 1 19 20 11 1 12 3 3 11 4 23
split_gain=3.81927 3.22038 1.98026 3.12567 2.63791 2.4701 2.41886 2.15773 2.02753 1.99339 3.78501 2.83865 1.92457 1.4778 3.27548 2.41008 1.36418 0.148318
threshold=-0.01216171464085466 -1.2547176741258028 0.72110586764085938 0.72995256366345351 -0.039668494739818594 0.32593361959533634 -1.8202861481971233 -0.23254054104430119 0.15480644002737443 0.65204081233027067 -0.22173127756260078 -0.15195944058416683 -0.61675117121981438 -0.22149689841198075 -0.21355328111179242 -0.25119976661544413 -0.19373849185492958 -0.14739696938902633
decision_type=2 2 2 2 2 2 2 2 2 2 2 2 2 2 2 2 2 2
left_child=1 -1 6 7 5 16 -2 8 12 13 11 -11 -4 15 -15 -8 -5 -3
right_child=2 17 3 4 -6 -7 9 -9 -10 10 -12 -13 -14 14 -16 -17 -18 -19
leaf_value=0.054272763523415479 0.1002510309564678 0 0.17358450935130956 0.0022508855464357523 -0.095489416228789606 -0.048678327191875558 0 0 0 -0.16826039783874663 0.043312523576509353 0 0 0.066645257338536421 -0.017889104760190722 -0.14112243164317481 0.13952690331887518 -0.1723738156858152
leaf_weight=1.1116882115602482 7.0969742462038985 0.50351175107061763 14.277381949126726 11.451866611838343 8.2756307050585729 6.8866986930370322 17.614123024046425 4.4462055414915076 4.2258377969264975 11.523031510412697 6.1403449550271025 7.9358744472265252 4.3217709735035923 29.227726504206657 35.284897044301033 6.2172398418188086 7.4089317545294788 8.2711633583530766
leaf_count=5 48 7 112 78 48 37 97 22 34 60 33 38 30 163 305 28 57 434
internal_value=0.000828426 -0.113584 0.00873285 0.0377722 0 0.0290764 -0.00382181 0.0866657 0.111852 -0.0129771 -0.0606577 -0.107273 0.139238 0 0.0164162 -0.0401877 0.0718968 -0.165705
internal_weight=192.221 9.88636 182.335 61.2943 34.0231 25.7475 121.04 27.2712 22.825 113.943 25.5993 19.4589 18.5992 88.344 64.5126 23.8314 18.8608 8.77468
internal_count=1636 446 1190 418 220 172 772 198 176 724 131 98 142 593 468 125 135 441
is_linear=0
shrinkage=0.19569


Tree=19
num_leaves=21
num_cat=0
split_feature=8 19 7 7 19 8 24 23 22 7 6 19 24 24 4 1 13 23 6 22
split_gain=3.90308 3.22016 1.70973 3.28213 2.24034 2.49768 2.74665 2.37245 1.98082 2.56525 4.66282 2.73032 2.55889 4.09558 2.15377 1.99538 1.83893 0.950785 0.461464 0.211616
threshold=-0.011770962675418091 -0.41733802765079164 -0.81174748327790147 -0.83211601146792036 -0.092643843788623642 -0.01044376400592696 0.3714003766634395 0.62353739326832291 -1.4998631236915758 0.87415253255183489 0.86784178104327514 0.013130342674325392 -0.72564516357357167 0.19796654952787088 -0.1716317367149657 -0.11343195972939642 -0.69017706077663588 -0.38938145451412143 0.98582672117585946 0.3245352297245539
decision_type=2 2 2 2 2 2 2 2 2 2 2 2 2 2 2 2 2 2 2 2
left_child=1 -1 3 4 5 6 -2 -7 15 12 14 -12 16 -14 -11 -4 -10 -5 19 -3
right_child=2 18 8 17 -6 7 -8 -9 9 10 11 -13 13 -15 -16 -17 -18 -19 -20 -21
leaf_value=0 0.10592934324667094 -0.19564100023639022 0 0 -0.097124015556361951 -0.062792287682883169 -0.010123135160303453 0.071021571558741989 -0.018151246014553306 0 0.0098587748173099184 -0.11463804424611569 -0.11791235684353873 0 0.20453438908977531 0.15024465822363117 0.107407596299422 0.15343455825299382 0 0
leaf_weight=2.9411107450723639 19.661284923553467 7.0399582777172309 4.7859762385487556 4.526981584727765 5.794908493757247 16.001854740083225 6.4037792533636084 5.758296199142932 9.2967147678136808 5.954069048166275 21.115557439625267 8.011013135313986 25.370963534340262 18.312548058107495 6.0051070079207403 5.4807387217879278 5.6871787905693045 9.7528511732816661 0.66321842372417439 0.45556229352951039
leaf_count=17 143 447 28 33 27 109 41 36 44 36 104 43 186 154 34 38 34 76 4 2
internal_value=0.000519068 -0.108412 0.00904559 0.0338813 0.00596302 0.0247213 0.0674748 -0.0145784 -0.00390104 -0.0147008 0.0183149 -0.0162717 -0.0423624 -0.0675715 0.12233 0.072455 0.0134162 0.117426 -0.173903 -0.18717
internal_weight=189.02 11.0998 177.92 67.9 53.6201 47.8252 26.0651 21.7602 110.02 99.7532 41.0857 29.1266 58.6674 43.6835 11.9592 10.2667 14.9839 14.2798 8.15874 7.49552
internal_count=1636 470 1166 465 356 329 184 145 701 635 217 147 418 340 70 66 78 109 453 449
is_linear=0
shrinkage=0.19569


Tree=20
num_leaves=26
num_cat=0
split_feature=23 5 1 13 7 11 7 0 10 1 18 1 19 2 23 1 12 0 15 0 22 1 11 19 10
split_gain=2.72608 3.74583 4.66257 4.51676 4.05426 3.34465 4.66641 4.52715 2.2568 2.05271 3.61684 2.56858 2.18983 1.81106 1.28379 1.21404 1.36354 1.20205 2.69289 1.2713 1.18848 1.1858 0.660862 0.573319 0.0645118
threshold=0.59316067666221006 -0.1352555539222427 0.71193867867404748 -0.25246894800959191 1.6959512233450884 -0.30335273073214436 0.30768831718252948 -0.59542046548311589 -0.18703663927086808 0.13491910819094038 -0.25586787910522596 -0.37416590165718433 0.0059624551461574145 -0.052850248334392454 0.42534461704173793 0.20193181675695615 -0.61951996398930986 -0.54372348851448038 -0.58535870527352307 -0.5313619242019666 -1.4998631236915758 -0.38335434898611337 -0.31539824070082517 -0.42023762311859086 -0.10932959885248843
decision_type=2 2 2 2 2 2 2 2 2 2 2 2 2 2 2 2 2 2 2 2 2 2 2 2 2
left_child=1 5 3 8 20 14 7 -7 21 11 -11 17 23 -9 15 16 -1 18 -2 -19 -5 -3 -16 -13 -10
right_child=9 2 -4 4 -6 6 -8 13 24 10 -12 12 -14 -15 22 -17 -18 19 -20 -21 -22 -23 -24 -25 -26
leaf_value=0.011047514075047463 0.15407766681883303 0 0.090413278024900165 0 0 0.0021584301263540807 0.097003394163621179 -0.20479464140123388 0 -0.088178580403164758 0.083684383841717266 0 0 0 0.051121359258935531 0 0.13137404699085908 -0.099838330728594341 -0.0016602827327428181 0 -0.21742052621475202 -0.099116148529437065 -0.041587213176251497 0.14342689084858648 0.077434256736386639
leaf_weight=12.290356062352659 5.2668362930417061 5.5411775186657897 5.5569311827421179 1.4401867091655738 5.9286690801382056 6.2734583094716116 5.1901371479034415 9.2436933722347039 4.0490902485325933 11.302570879459383 6.6548916250467292 4.3429023772478166 5.7124890238046637 2.2780854720622274 4.3832848519086838 3.8116986751556388 14.331708058714868 6.0158644765615463 5.6061517372727412 5.5907070413231832 13.400803822092712 10.412316754460337 7.0540828406810743 17.46892087906599 4.6647680029273015
leaf_count=82 35 36 34 11 31 48 29 218 28 53 35 27 28 21 39 21 109 36 31 40 402 58 40 102 28
internal_value=0.00333027 -0.0132586 -0.0539783 -0.0781328 -0.145977 0.0147481 -0.0385228 -0.094104 -0.00888265 0.0354746 -0.00935328 0.0568796 0.0967808 -0.16759 0.0504634 0.0713246 0.0867586 0 0.052451 -0.0354598 -0.199522 -0.0609196 0 0.124725 0.0552699
internal_weight=183.812 115.85 50.9939 45.437 20.7697 64.8565 22.9854 17.7952 24.6674 67.9613 17.9575 50.0039 27.5243 11.5218 41.8711 30.4338 26.6221 22.4796 10.873 11.6066 14.841 15.9535 11.4374 21.8118 8.71386
internal_count=1622 1235 628 594 444 607 316 287 150 387 88 299 157 239 291 212 191 142 66 76 413 94 79 129 56
is_linear=0
shrinkage=0.19569


Tree=21
num_leaves=17
num_cat=0
split_feature=22 22 17 8 20 5 18 9 9 0 1 24 18 19 18 0
split_gain=2.17016 2.39702 1.92272 2.02533 3.76396 1.94624 3.33229 2.85372 1.44902 3.39456 2.24583 2.15454 1.83465 1.37484 1.08759 0.575132
threshold=0.62547536408732851 0.5548862124701226 -0.01216171464085466 -0.0034286494871540569 -0.52783686017683451 -0.13532922841873599 -0.29660005246130083 -0.039734252647875203 -0.039588624522399321 0.46822177793795744 -0.38754305800916472 1.5820353377012708 -0.34691192227216922 -0.18759541939900573 -0.28163239723239325 0.85780054287705576
decision_type=2 2 2 2 2 2 2 2 2 2 2 2 2 2 2 2
left_child=1 2 14 5 15 7 -7 -4 9 12 -10 -12 -2 -14 -1 -5
right_child=8 -3 3 4 -6 6 -8 -9 10 -11 11 -13 13 -15 -16 -17
leaf_value=0 0 -0.10698720075153952 0.13732981669184149 -0.074340186825085378 0.16481446131797975 -0.092679874045617186 0.0054090424701647224 0 -0.071125634936587689 -0.039104958207724215 0.11359880116076664 0 0.15843279739738572 0 -0.14442180030166674 0.0002734972661629936
leaf_weight=0.45777738653123368 4.4370532706379953 8.5252611488103849 6.4508537603542129 3.6260219737887383 7.820141986012457 20.907258033752441 23.115904458798475 44.736764300614595 9.5366171970963496 5.4632187336683264 8.7899653390049952 9.5992946624755842 14.564068485051399 4.8379809148609594 5.0443311678245655 2.2950651124119759
leaf_count=3 30 46 44 69 49 121 197 298 54 24 51 45 114 29 431 17
internal_value=0.00387229 -0.00906821 0 0.00441474 0.07467 -0.00315787 -0.0354909 0.019472 0.0362422 0.0664731 0 0.0436937 0.102048 0.127675 -0.110247 -0.00431384
internal_weight=180.208 122.979 114.454 108.952 13.7412 95.2108 44.0232 51.1876 57.2282 29.3023 27.9259 18.3893 23.8391 19.402 5.50211 5.92109
internal_count=1622 1275 1229 795 135 660 318 342 347 197 150 96 173 143 434 86
is_linear=0
shrinkage=0.19569


Tree=22
num_leaves=19
num_cat=0
split_feature=14 24 4 4 11 16 16 12 18 24 8 7 8 23 6 23 24 3
split_gain=1.82244 2.40367 3.29734 4.2615 2.61081 2.28713 3.94479 3.88559 3.11373 2.19149 2.73955 2.07576 1.83685 1.7295 1.68953 1.6497 1.57444 0.759453
threshold=3.3490045760554179 -0.92736444752474612 -0.19436431042029337 -0.19480206263448385 -0.312109907113787 -0.47744641098302965 0.19284468409668568 -0.39565296877200473 -0.32258018192975929 -0.39047816603437902 -0.010652323373456573 -0.83211601146792036 -0.0091466742472677536 0.25372451346902825 -0.62096090996890296 0.62384338583484211 -0.30928888048212733 -0.21273699059860784
decision_type=2 2 2 2 2 2 2 2 2 2 2 2 2 2 2 2 2 2
left_child=1 2 3 11 -4 12 7 16 -9 10 -8 17 -3 -13 -6 -11 -7 -1
right_child=-2 5 4 -5 14 6 9 8 -10 15 -12 13 -14 -15 -16 -17 -18 -19
leaf_value=0 0.077857199433967142 0 0.16089693906842323 -0.15797742465986844 -0.065521548727349749 -0.11225137492567257 -0.10587373835929459 0 -0.21256731257343281 0.022926719165509375 0 0 0.12532156752816667 0.15220647590066602 0.081818658104276618 -0.067891994261087274 0.050749335921903838 -0.079096384392372238
leaf_weight=4.582864411175251 9.0464610010385496 5.0162044800817966 9.4573229178786296 5.9279451966285697 4.6294770538806915 3.1281391382217407 17.582078825682402 1.8793096616864158 11.522898524068301 51.310030963271856 15.073495808988808 4.5457175001502037 5.9485099501907808 6.0369101613759995 6.0716021209955198 7.8867881670594207 5.8642771597951633 5.2349484264850652
leaf_count=31 40 29 86 30 29 14 110 11 568 324 91 36 40 42 39 48 54 26
internal_value=-0.00316756 -0.00916789 0.0259951 -0.0110174 0.086787 -0.0244111 -0.0341099 -0.108844 -0.174277 -0.0125886 -0.054029 0.0208073 0.0506087 0.0867162 0 0.00594003 0 -0.024353
internal_weight=180.745 171.699 46.4868 26.3284 20.1584 125.212 114.247 22.3946 13.4022 91.8524 32.6556 20.4004 10.9647 10.5826 10.7011 59.1968 8.99242 9.81781
internal_count=1648 1608 319 165 154 1289 1220 647 579 573 201 135 69 78 68 372 68 57
is_linear=0
shrinkage=0.19569


Tree=23
num_leaves=21
num_cat=0
split_feature=24 24 4 2 24 25 8 3 4 13 4 1 22 19 24 12 14 13 8 18
split_gain=1.58203 1.55156 2.85862 3.96281 2.56951 3.10913 4.73495 2.76898 2.68078 3.02425 2.50412 2.46213 1.68493 1.60238 1.4444 1.14252 1.70049 1.07183 0.713238 0.199818
threshold=3.5813372070071496 -0.75910712069955577 -0.19436431042029337 -0.037278182706202083 -0.39047816603437902 0.43152304771009636 -0.011770962675418091 -0.21353335966998327 -0.19297722097158476 -0.81636030102606427 -0.19487630694139427 -0.3978320873884677 -0.054847931086018396 -0.41733802765079164 0.6104075253934631 -0.61590737344558755 -0.71372856293584719 -0.82138138904935787 -0.010781005241138604 -0.33336739494003126
decision_type=2 2 2 2 2 2 2 2 2 2 2 2 2 2 2 2 2 2 2 2
left_child=1 2 10 12 8 6 13 -8 17 -10 15 -7 -4 -6 -13 18 -17 -3 -1 -19
right_child=-2 4 3 -5 5 11 7 -9 9 -11 -12 14 -14 -15 -16 16 -18 19 -20 -21
leaf_value=0 0.12510906564686916 -0.070925216017121276 0 -0.05736042416225999 0 -0.14214833938113786 0.13707988305838614 0.011167657558578358 0 -0.18553130342470767 -0.1056533761948838 -0.081086300756500182 0.14990004131649357 -0.1852389191262524 0.0027589827953667435 0.12932287985888205 0 0.055751084789771518 -0.071312999871751825 0
leaf_weight=6.2082851827144623 3.124084807932376 6.1202720403671291 5.6568081974983278 4.4063453525304785 0.54890890419482996 7.2646895721554747 13.334764076396821 24.303258774802089 5.8841948024928596 10.171895876526831 8.5112220868468267 8.5135774407535774 14.018772922456263 3.7984685129486033 30.508645257912576 6.1300712116062659 4.2599452510476112 4.7660580798983583 5.4944608733057994 5.4966119006276104
leaf_count=41 18 43 38 23 3 48 85 222 40 49 42 85 124 443 182 51 27 29 27 28
internal_value=-0.00198501 -0.00605021 0.018813 0.0709158 -0.0195668 0 0.0361844 0.0638022 -0.0664136 -0.122691 -0.0138419 -0.0369145 0.113645 -0.131722 -0.0092896 0.0107072 0.063745 0 -0.0145667 0.0280002
internal_weight=178.521 175.397 54.6859 24.0819 120.711 88.2723 41.9854 37.638 32.439 16.0561 30.604 46.2869 19.6756 4.34738 39.0222 22.0928 10.39 16.3829 11.7027 10.2627
internal_count=1648 1630 373 185 1257 1068 753 307 189 89 188 315 162 446 267 146 78 100 68 57
is_linear=0
shrinkage=0.19569


Tree=24
num_leaves=24
num_cat=0
split_feature=19 19 23 19 13 6 0 19 7 22 22 23 20 13 24 23 4 23 11 22 4 0 8
split_gain=1.77033 4.29284 1.81678 3.0099 1.81647 1.47043 1.7345 1.44899 1.96783 3.03681 2.19091 1.37948 1.2968 1.22587 1.54965 1.19707 0.881282 1.26508 0.847381 0.69224 0.586247 0.4961 0.311058
threshold=0.060125752647776358 0.33152692490935265 0.61898923102920789 -0.39473390887664012 -0.84023113680402506 0.64208097141709664 -0.42906668225232253 -0.42571943478950419 0.94507898705769267 -0.61919595168256703 -0.027698541020293645 0.62555416245691553 -0.66608750024284835 2.6491985337560902 0.76311038843761758 0.62826636929673418 -0.19917698045597618 -0.84739669162000009 -0.31556130561635021 0.89713767516896403 -0.19373849185492958 -0.58978464712207679 -0.0078727023998804418
decision_type=2 2 2 2 2 2 2 2 2 2 2 2 2 2 2 2 2 2 2 2 2 2 2
left_child=2 12 4 19 -1 6 21 18 9 -9 -10 -5 -2 14 -7 -13 -14 -18 20 -4 -6 22 -3
right_child=1 5 3 11 7 13 -8 8 10 -11 -12 15 16 -15 -16 -17 17 -19 -20 -21 -22 -23 -24
leaf_value=0.088689806434768245 0 0.071192649082765458 0.027281562802522467 0.18880487816747377 -0.037844275025306559 0 0.11910412214981253 0.028457833829948299 -0.0055054472300633452 -0.055946310144106226 0.099207531467406393 0 0 0 -0.20787294038722715 0.10749220074092375 0 -0.28964714987775686 0.13021290528131829 -0.060285928857223017 0.07109314307877096 -0.049401366352345606 0
leaf_weight=8.9862419143319112 1.4577865647152064 3.1332927495241192 5.0883862152695674 7.4054215401411083 3.2167920619249344 1.8089070878922928 6.4774702163413194 19.299635201692581 10.841259554028513 49.23480087518692 11.039998807013033 7.130024775862692 1.6789818927645681 2.2674309760332108 2.6712208166718483 4.9879612624645233 1.0743794888257974 3.446902424562722 4.3091621398925763 5.7935483455657959 3.0420837178826332 4.9876685142517081 3.4656433910131454
leaf_count=63 17 36 31 48 19 57 47 129 64 680 63 40 9 10 16 28 5 98 30 35 43 26 20
internal_value=0.0100148 -0.027576 0.0206785 0.0638845 0.0061074 0.00228533 0.0409058 0 -0.00963258 -0.028235 0.035994 0.110016 -0.153434 -0.0599033 -0.12215 0.0359893 -0.190535 -0.235846 0.0655642 0 0 0 0.0290678
internal_weight=172.845 32.4697 140.375 30.4053 109.97 24.8116 18.0641 100.984 90.4157 68.5344 21.8813 19.5234 7.65805 6.74756 4.48013 12.118 6.20026 4.52128 10.568 10.8819 6.25888 11.5866 6.59894
internal_count=1614 341 1273 182 1091 212 129 1028 936 809 127 116 129 83 73 68 112 103 92 66 62 82 56
is_linear=0
shrinkage=0.19569


Tree=25
num_leaves=21
num_cat=0
split_feature=1 1 7 3 3 6 21 4 8 9 6 20 21 11 6 0 13 10 1 9
split_gain=1.617 2.22373 3.93143 3.90202 3.0331 3.43996 2.57348 1.86833 1.84528 2.97202 2.85316 2.17667 1.7624 1.73491 1.63565 1.50339 1.36533 0.947487 0.363801 0.0656981
threshold=0.90259216332080594 -0.31399114635986319 0.94507898705769267 -0.2219112091391546 -0.21364571363648446 -0.57993967021213588 0.28000138442780093 -0.18453712977753425 -0.0068886119525071983 -0.039554525428569888 -0.52592634355103496 0.71848344237843331 0.32621828229037475 -0.31470006788150623 2.9939337677950202 -0.30767576724206724 -0.77606965080609358 -0.20071314370040083 -0.40572883910655377 -0.039663391629880029
decision_type=2 2 2 2 2 2 2 2 2 2 2 2 2 2 2 2 2 2 2 2
left_child=1 7 4 -4 6 15 -3 8 9 10 -1 -11 19 -7 -2 -6 18 -9 -10 -5
right_child=14 2 3 12 5 13 -8 17 16 11 -12 -13 -14 -15 -16 -17 -18 -19 -20 -21
leaf_value=-0.0019550621986833784 0.13268187219617961 -0.038043273915509705 -0.047326586217460734 0.011242119881194109 -0.062488038396988438 0 0.14384330647251722 0 0 -0.17274459057689834 0.12052528320147954 0 0 -0.17608015048880524 0 0.030422082866155199 0 0.12455819417289324 0.15479553297686213 0.1657076894641413
leaf_weight=39.35269604250788 7.4552135616540891 4.4831294757314009 10.168860986828806 4.501814745366576 14.313972301781179 1.4954648762941314 4.2909515788778663 4.0504375323653212 2.862431187182664 5.9669328555464727 7.6998878829181256 4.4124965891242027 4.9756171107292166 14.39587263623253 5.6364604830741882 7.6779761016368822 3.9013028517365447 9.7008786462247354 5.4748510234057894 7.7259509190917006
leaf_count=260 50 33 54 26 76 9 31 25 38 28 62 39 30 599 25 41 23 74 41 50
internal_value=0.00898842 0.00164207 -0.0210815 0.031425 -0.0576287 -0.0835687 0.0237038 0.0250324 0.00749359 -0.0029758 0.0132034 -0.0992801 0.0933423 -0.155151 0.0747647 -0.0180198 0.0766222 0.0921975 0.120399 0.132303
internal_weight=170.543 157.452 74.0296 27.3722 46.6574 37.8833 8.77408 83.4219 69.6706 57.432 47.0526 10.3794 17.2034 15.8913 13.0917 21.9919 12.2386 13.7513 8.33728 12.2278
internal_count=1614 1539 949 160 789 725 64 590 491 389 322 67 106 608 75 117 102 99 79 76
is_linear=0
shrinkage=0.19569


Tree=26
num_leaves=21
num_cat=0
split_feature=16 13 16 12 3 0 5 4 19 23 10 6 3 7 25 19 0 1 7 13
split_gain=1.25558 2.36248 5.19553 1.91178 1.25636 1.38485 1.57054 3.86269 2.80201 1.59986 1.38073 1.16604 1.08717 1.08128 1.60464 1.58677 0.825798 0.577183 0.563373 0.2503
threshold=0.19284468409668568 -0.3937798191040171 0.04068484485495976 -0.58971376493650929 -0.20013923892350038 0.82392663821754508 -0.13621984613984389 -0.19459137911097132 -0.4199081920304375 -0.32975463029687674 -0.22453241842098273 -0.62008279827224355 -0.2120361325751377 0.8241586505363544 0.82738274488744701 -0.42427319697149002 1.1211095470331689 0.90259216332080594 -0.8353615093577974 -0.33804745501525324
decision_type=2 2 2 2 2 2 2 2 2 2 2 2 2 2 2 2 2 2 2 2
left_child=1 3 13 18 5 6 7 12 10 -10 -8 -9 -2 14 15 -3 -7 -18 -1 -4
right_child=4 2 19 -5 -6 16 8 11 9 -11 -12 -13 -14 -15 -16 -17 17 -19 -20 -21
leaf_value=0.0055512384758039145 0.0055913356074983921 0 0 0.12576278685225775 0.091572656627251614 0.12262225525561485 0 0.16498914116336538 -0.066393894460059985 0.018667982883773717 -0.16887042804001831 0 -0.071163448316984623 0.03591126677943423 0 -0.17138989424610557 -0.0070136948287251848 0.053099264984531463 -0.053842190473828579 -0.2458215686056979
leaf_weight=4.5734342075884351 38.414492146577686 0.64092707633972246 0.58072292432188977 4.3191902465187004 6.8500943696126333 5.255204044282439 4.9847676232457161 7.282158337533474 11.094780214130877 30.270020734518766 6.8125946633517724 2.7851818576455099 7.6304764240048817 7.5826637446880341 1.552669398486614 4.8401181050576279 7.5710797309875471 7.5223151370882988 7.4315116405487069 5.0906987357884637
leaf_count=29 273 4 49 42 45 32 30 70 65 196 41 29 41 51 11 388 41 37 38 140
internal_value=4.20347e-06 -0.0302902 -0.0768501 0.0118486 0.0101653 0.00353157 -0.0029718 0.0169145 -0.028974 0 -0.111814 0.125263 -0.00179306 0 -0.0648055 -0.125681 0.0508907 0.00607062 -0.00994618 -0.230317
internal_weight=173.085 36.6119 20.2878 16.3241 136.473 129.623 109.274 56.1123 53.1622 41.3648 11.7974 10.0673 46.045 14.6164 7.03371 5.48105 20.3486 15.0934 12.0049 5.67142
internal_count=1652 752 643 109 900 855 745 413 332 261 71 99 314 454 403 392 110 78 67 189
is_linear=0
shrinkage=0.19569


Tree=27
num_leaves=22
num_cat=0
split_feature=14 5 5 20 5 6 4 19 4 5 9 18 6 21 9 2 21 20 23 19 24
split_gain=0.982722 2.987 3.10384 2.80063 2.55978 1.92071 1.72819 1.2875 1.75052 3.26836 1.63329 1.56026 1.0725 0.820692 0.761124 0.733873 0.695348 0.6509 1.28016 0.999354 0.528298
threshold=-0.69992628120632672 -0.13479295617199819 -0.13621984613984389 0.63767891672037413 -0.13643447449818233 -0.62147471026455603 -0.15371189058812754 5.0389597743927377 -0.13243973224103536 -0.12477121851311272 -0.033914499960346275 -0.19893118854397054 2.744986143999204 0.32477283802638662 -0.039684784157138754 -0.32940167357878575 0.32384508064529921 0.73002498512632141 -0.34686935089387777 -0.34558857645109142 -0.6565427922773982
decision_type=2 2 2 2 2 2 2 2 2 2 2 2 2 2 2 2 2 2 2 2 2
left_child=1 2 4 7 17 -3 -5 8 9 15 12 -11 -10 -12 -4 -2 -7 18 -1 -19 -16
right_child=3 5 14 6 -6 16 -8 -9 10 11 13 -13 -14 -15 20 -17 -18 19 -20 -21 -22
leaf_value=-0.02948490000853797 -0.031734212950208417 0 0 -0.17005979815278943 0.13406772035867312 0.18913816081300597 0 -0.11718903465476323 0.096262488559035506 -0.2056279701210095 -0.098140659940570071 0 0 0 -0.16080431336986714 0.025536211242963746 0.0066750344562607712 0 0.057596140554924187 -0.08030960225105456 0
leaf_weight=5.2946048565208903 8.7733042277395672 5.5630678981542614 5.1294245272874823 6.0176008120179167 6.509169351309537 6.3403385430574399 9.057381618767975 2.7650196552276602 17.999260822776712 4.0708809259813279 3.070499278837814 2.8517468369100234 6.2346468046307555 1.6491746194660661 5.1276867166161528 30.655590457143266 4.8875840678811073 9.8981501087546366 17.429179910570387 7.0936452858149996 5.2320802435278884
leaf_count=38 56 39 40 27 52 48 46 14 193 23 244 76 30 13 28 380 30 69 137 40 29
internal_value=0.000708865 0.0181868 0 -0.0111499 0.0235325 0.0904484 -0.0876929 0.000543056 0.00899959 -0.00998337 0.0483264 -0.132629 0.0724621 -0.018838 -0.0765733 0.00583108 0.135785 0 0.0254721 -0.0239145 -0.106666
internal_weight=171.65 78.5049 61.7139 93.1451 46.2247 16.791 15.075 78.0701 75.3051 46.3515 28.9536 6.92263 24.2339 4.71967 15.4892 39.4289 11.2279 39.7156 22.7238 16.9918 10.3598
internal_count=1652 550 433 1102 336 117 73 1029 1015 535 480 99 223 257 97 436 78 284 175 109 57
is_linear=0
shrinkage=0.19569


Tree=28
num_leaves=26
num_cat=0
split_feature=18 8 14 7 6 6 22 2 6 6 6 5 4 13 21 0 10 4 23 8 1 15 24 3 22
split_gain=1.09383 2.22443 1.3459 1.7163 3.07249 2.46131 1.95485 1.93034 1.86116 1.82815 1.22252 2.02652 1.28772 1.20993 2.54626 2.36211 1.42968 1.15901 1.14189 1.13849 0.911549 0.869776 0.813425 0.664644 0.373547
threshold=-0.3291432790220476 -0.0076370247710494076 -0.69992628120632672 0.94507898705769267 0.86784178104327514 -0.42783466192672565 0.7309354562052427 3.9447563182465069 -0.57993967021213588 2.3762227765138095 -0.62210896107229285 -0.13489406838648757 -0.19297722097158476 -0.84020170236595237 0.32203035596442414 -0.53249769875022424 -0.25540176998299219 -0.10861120717751195 -0.34686935089387777 -0.010553779464687654 -0.32143148170577795 1.9765159752051245 -0.85027456536857515 -0.21626571750486251 -0.1097213474283219
decision_type=2 2 2 2 2 2 2 2 2 2 2 2 2 2 2 2 2 2 2 2 2 2 2 2 2
left_child=1 13 10 5 -5 8 7 -7 17 -6 -2 12 18 -1 16 -16 24 -4 -12 -17 -10 -11 -3 -18 -15
right_child=2 22 3 4 9 6 -8 -9 20 21 11 -13 -14 14 15 19 23 -19 -20 -21 -22 -23 -24 -25 -26
leaf_value=0.087656178742887586 -0.069255898081424752 0 -0.12449438972287352 0.10781821231052457 -0.098475292400911879 -0.20616453154037856 0 0 0.11637199345411238 0.065874011572386412 -0.026215427907313439 0.10313727613316863 -0.069338496565785349 -0.046892489121038161 -0.14781780453669524 0.025778857800083696 0.13080891692167174 0 0.049147977209181584 -0.078927540192840998 0 -0.030633917693423503 0.15436508917523667 0 0.015795260538257722
leaf_weight=5.4919949918985358 4.3575608432292929 5.1410409472882748 5.8117013797163963 7.6301898695528534 9.3692200742661971 8.0937774458434397 1.7813443765044201 0.57199984788894731 3.6944598183035859 5.995387911796568 6.4043399542570105 9.8319689556956273 6.9129140228033092 5.6269638277590275 6.9910613745450965 10.269674144685267 5.9495980478823185 5.8501871638000029 21.69045677036047 5.4820321239531067 4.2016785889863986 5.6301406174898148 5.9696077629923803 5.4627054557204229 4.0090486481785792
leaf_count=40 23 55 28 56 52 563 12 4 24 33 41 80 46 38 41 68 42 36 145 35 57 25 40 35 28
internal_value=0.00173519 0.023992 -0.0082768 -0.0296896 0 -0.0622487 -0.139731 -0.17789 -0.00544665 -0.0338816 0.0118291 0.0261945 0 0.000263716 -0.00524619 -0.0552605 0.0362197 -0.065451 0.0223685 0 0.0494962 0 0.10226 0.0838237 0
internal_weight=168.221 60.3937 107.827 58.6301 28.6249 30.0051 10.4471 8.66578 19.558 20.9947 49.1972 44.8397 35.0077 49.2831 43.7911 22.7428 21.0483 11.6619 28.0948 15.7517 7.89614 11.6255 11.1106 11.4123 9.63601
internal_count=1647 422 1225 890 166 724 579 567 145 110 335 312 232 327 287 144 143 64 186 103 81 58 95 77 66
is_linear=0
shrinkage=0.19569


Tree=29
num_leaves=23
num_cat=0
split_feature=11 21 5 22 5 23 22 1 23 22 22 21 21 12 18 6 21 7 5 21 21 2
split_gain=0.965766 1.7145 2.74308 2.27695 1.40028 1.8687 1.89382 1.49485 1.07915 2.4711 1.55225 1.28933 2.43345 1.97264 1.23299 3.51849 2.83417 1.87397 1.80197 0.962245 0.140481 0.104344
threshold=-0.31479335502385425 0.32741811819248284 -0.042498228298194086 0.36961143479426745 -0.13129502800065132 -1.4737426122082675 0.82437990481688406 -0.40519153424987436 0.55653197557143408 0.62547536408732851 0.18467323041935968 0.28366468087829128 -0.57358053562500577 -0.62019640620008265 -0.31785505410758752 -0.51923369715028145 0.32323496517391942 -0.7582570798423679 -0.13407642281779097 0.32055106461169741 0.32270035474665065 -0.15784758323210515
decision_type=2 2 2 2 2 2 2 2 2 2 2 2 2 2 2 2 2 2 2 2 2 2
left_child=4 8 3 -3 5 -1 7 21 14 10 -10 12 -11 -13 15 19 17 -16 -18 -2 -12 -7
right_child=1 2 -4 -5 -6 6 -8 -9 9 11 20 13 -14 -15 16 -17 18 -19 -20 -21 -22 -23
leaf_value=-0.020947030961271797 0.045770821490255319 -0.20793544192535313 0.028580184121981808 0 -0.02072313341236794 0.031158882662400147 0 0.13748695989921375 0 0.016014728143650202 -0.017956974917838622 -0.0079363690587069581 -0.12683570941315295 0.09505737424893379 0 0.15681990075070246 0.11264754851163204 -0.094873264076643496 0 -0.066024952275527779 -0.16278017179976312 0
leaf_weight=5.8008340857923022 4.7926319688558596 5.61158639192581 2.3804323077201834 2.7387614399194717 9.5582252368330938 3.7352247312664986 6.4626332409679881 14.544199924916031 7.6247120574116733 8.5711028203368169 5.7447398602962476 6.6548721827566615 5.8755096867680541 12.520048892125489 12.484669547528027 8.0006044842302781 10.458701274124904 12.035922365961598 4.5685049640014759 5.5864393189549446 6.1410930007696152 4.0593740642070797
leaf_count=44 28 95 16 17 54 26 44 105 46 45 31 57 30 87 95 62 75 550 28 31 31 50
internal_value=0.00189569 -0.00530389 -0.0788562 -0.14031 0.0276873 0.0488556 0.072254 0.0994878 0 -0.0179129 -0.0743501 0.00736447 -0.025642 0.0460501 0.0203535 0.0616801 0 -0.0400775 0.0666953 0 -0.117517 0
internal_weight=165.951 121.79 10.7308 8.35035 44.1605 34.6023 28.8014 22.3388 111.06 53.1321 19.5105 33.6215 14.4466 19.1749 57.9275 18.3797 39.5478 24.5206 15.0272 10.3791 11.8858 7.7946
internal_count=1647 1324 128 112 323 269 225 181 1196 327 108 219 75 144 869 121 748 645 103 59 62 76
is_linear=0
shrinkage=0.19569


Tree=30
num_leaves=9
num_cat=0
split_feature=15 1 16 23 23 0 23 9
split_gain=0.876926 1.46142 1.28797 1.22034 0.912711 1.028 1.55647 1.31561
threshold=1.9767253242875165 0.87016767910010995 0.21974068088253343 0.62837068494443293 0.62754311413944575 -0.54826086058533585 -0.67240371543876909 -0.039622456123210567
decision_type=2 2 2 2 2 2 2 2
left_child=1 3 -3 4 5 6 -1 -7
right_child=-2 2 -4 -5 -6 7 -8 -9
leaf_value=-0.028361555162569035 -0.069851170458993112 0 0.13673003694146388 0.080788466205595169 -0.08746737974069857 -0.03062067803529956 0.055004574609224775 0.01134999500242838
leaf_weight=7.6623803228139868 5.8698696345090857 4.2734270170330984 5.4163682758808136 6.3622941933572283 4.5442008152604094 61.163358847959891 25.999883219599724 41.253504421445548
leaf_count=52 26 31 34 43 28 720 209 502
internal_value=0 0.00443207 0.0765752 0 -0.00439549 0 0.0279945 -0.0111097
internal_weight=162.545 156.675 9.6898 146.986 140.623 136.079 33.6623 102.417
internal_count=1645 1619 65 1554 1511 1483 261 1222
is_linear=0
shrinkage=0.19569


Tree=31
num_leaves=30
num_cat=0
split_feature=23 23 23 8 3 3 14 1 3 3 2 19 11 22 4 22 23 3 5 23 13 24 1 4 18 4 1 5 5
split_gain=0.827564 2.64458 1.93021 2.61951 2.13982 2.07614 2.6016 2.33793 1.49123 1.3701 1.8737 2.7354 1.37026 1.5152 1.19 1.29668 1.09511 0.899428 0.801441 0.800295 0.76487 0.963906 0.689423 0.351183 0.342877 0.33974 0.143284 0.282202 0.00873262
threshold=0.40852893463479562 0.49311501615497655 -0.48955924817506441 -0.011237334201314437 -0.20013923892350038 -0.2133490627456143 1.2026505128389633 -0.39690748341304322 -0.21312184711014334 -0.21038215284713371 -0.044352477939829112 0.15480644002737443 -0.31287966271410278 0.82437990481688406 -0.18453712977753425 0.74672160360015172 -0.19786487973941649 -0.22149689841198075 -0.1352555539222427 0.62621482822556651 -0.84016510075625017 1.7857230153968098 -0.20885597511509638 -0.19459137911097132 -0.23821165873461628 -0.1888783498932648 0.29856743214984099 -0.12639887733676994 0.1719122758347226
decision_type=2 2 2 2 2 2 2 2 2 2 2 2 2 2 2 2 2 2 2 2 2 2 2 2 2 2 2 2 2
left_child=2 -2 5 8 16 6 18 -7 22 12 11 -11 13 23 15 -14 -5 -16 -1 -15 -10 -22 -4 -3 -12 -9 27 -6 -28
right_child=1 9 3 4 26 7 -8 25 20 10 24 -13 14 19 17 -17 -18 -19 -20 -21 21 -23 -24 -25 -26 -27 28 -29 -30
leaf_value=0.12847346223397549 -0.10751489409334848 0 0.065960368213853551 0 -0.091363835620639627 -0.17158844243316107 -0.059963149334688846 -0.033520290869727312 0 0.18862858113329958 -0.049765220140303074 0 -0.1213019877513523 -0.082239757444405329 -0.04524056689990686 0 0.14796207731142591 0.038623781715153932 0 0 -0.17782007740280217 0 0 0.10622027798424385 0.013493618106934184 0.027679821113091085 0.015234119952317014 0 0
leaf_weight=7.1261082142591485 9.3457658104598504 6.7090083807706833 6.8735753246583045 4.5038090497255352 1.5715456707403088 5.0846652463078525 4.9204986765980712 8.4223214909434319 0.41282286494970044 5.7227994576096552 4.5197874531149864 3.983731783926487 10.026387542486193 4.9437681362032873 9.2774085476994532 9.7200682349503023 13.968211071565749 9.4576418250799161 4.2539351172745237 4.574826568365097 3.356111102155412 0.3467402011156081 4.967481292318551 6.0448491908609885 5.0818134769797307 3.6908564120531056 1.0605161339044569 1.1567097734659877 0.93044662941247214
leaf_count=58 53 38 55 29 56 28 33 54 4 59 24 25 56 32 45 65 116 71 27 29 446 2 35 50 33 29 6 32 55
internal_value=0 -0.0111469 0.0167689 0.0477 0.0898398 -0.0115413 0.0275281 -0.0637221 0 0 0.0454408 0.105564 -0.0139007 0.0167889 -0.0385995 -0.0717006 0.120159 0 0.0890254 -0.0232751 -0.107488 -0.14105 0.0205465 0.0670492 0 0 0 -0.0420126 0
internal_weight=162.054 89.4079 72.6464 39.148 23.1912 33.4984 16.3005 17.1978 15.9567 80.0621 19.3081 9.70653 60.754 22.2725 38.4815 19.7465 18.472 18.7351 11.38 9.51859 4.11567 3.70285 11.8411 12.7539 9.6016 12.1132 4.71922 2.72826 1.99096
internal_count=1645 580 1065 836 294 229 118 111 542 527 141 84 386 149 237 121 145 116 85 61 452 448 90 88 57 83 149 88 61
is_linear=0
shrinkage=0.19569


Tree=32
num_leaves=23
num_cat=0
split_feature=2 2 11 13 2 7 10 12 4 20 20 9 8 24 22 11 9 22 14 11 3 2
split_gain=1.00545 1.62426 3.31253 1.54838 2.85781 2.57033 1.21301 1.06199 0.929339 0.86361 1.29521 1.11719 2.05917 2.97197 2.066 1.37938 1.79419 1.08616 0.535172 0.476947 0.454222 0.661431
threshold=-0.061440504881093774 -0.064684287619817357 -0.31453705055355707 -0.83408476536893239 -0.05918554604791202 -0.83768383103520583 -0.18505340914797622 -0.15899039565620254 -0.18738675348326175 0.72450734033104303 0.73067994351069154 -0.039707694350762504 -0.011385999032501733 -0.71421373581737913 0.68859960982410484 -0.2597127589716966 -0.039668494739818594 0.18829796281643249 2.4674088882106191 -0.19336048558907007 -0.21230662545374865 -0.059779987756201892
decision_type=2 2 2 2 2 2 2 2 2 2 2 2 2 2 2 2 2 2 2 2 2 2
left_child=1 9 -3 5 -5 20 -7 8 -6 11 -11 12 13 -1 -14 17 -17 -13 19 -9 21 -2
right_child=3 2 -4 4 7 6 -8 18 -10 10 -12 15 14 -15 -16 16 -18 -19 -20 -21 -22 -23
leaf_value=0.11634484419192112 0 -0.19605703804251187 0 -0.16356838706696336 0 0.16026651817299772 0 0 0.09977069560067324 0.10037767473866926 0 0.06300310965332942 -0.19136105846525051 -0.056340198723165619 0 0.04653198594632748 -0.061064778377238553 0 0 -0.13535298463084972 -0.055282117309581394 0.069466312948793019
leaf_weight=5.132278259843587 4.5604995600879183 4.8817742392420769 5.3507304516388086 3.6426984968129572 7.9973646439611912 8.5106189213693124 6.1091339420527211 0.77771233022213415 6.5769874900579488 6.8970430716872198 7.0947432965040207 17.934564920375124 5.3575599519535917 11.96577044716105 3.9804897159337997 5.1872556731104877 20.636961563606746 16.161385111510754 0.89673790335655201 2.2739969951799077 4.3435400947928455 5.481356691569089
leaf_count=38 36 27 40 27 54 85 39 5 46 65 44 143 75 283 20 33 146 93 5 273 30 39
internal_value=0 -0.0109238 -0.0842988 0.0221369 -0.00688424 0.0533023 0.110126 0.0123217 0.0474473 -0.000471921 0.0406304 -0.0103925 -0.0440979 0 -0.116103 0.000186047 -0.0287896 0.030037 -0.0477535 -0.094061 0 0.0168447
internal_weight=161.751 110.581 10.2325 51.1706 22.1655 29.0051 14.6198 18.5228 14.5744 100.348 13.9918 86.3563 26.4361 17.098 9.33805 59.9202 25.8242 34.096 3.94845 3.05171 14.3854 10.0419
internal_count=1646 1007 67 639 410 229 124 383 100 940 109 831 416 321 95 415 179 236 283 278 105 75
is_linear=0
shrinkage=0.19569


Tree=33
num_leaves=30
num_cat=0
split_feature=4 14 3 15 23 22 24 12 11 24 24 24 23 23 4 15 22 9 7 22 3 5 9 14 2 11 23 19 13
split_gain=1.02723 2.22953 2.56526 1.25291 0.922273 2.84597 2.05128 2.34812 2.93284 5.50003 2.67418 0.986298 1.61544 1.78707 1.43237 1.28826 0.690399 0.630339 1.19181 0.951552 0.841567 0.403638 0.719753 0.685246 0.371068 0.156726 0.128353 0.571346 0.103949
threshold=-0.19549672332985737 -0.54941564739119453 -0.2120361325751377 -0.091739943218114503 0.59316067666221006 0.38833465526542715 -0.65940228703218706 -0.6205699021487735 -0.31378738576376375 -0.17641679848365147 0.08547937707487574 -0.40685714792349886 0.62459445849819295 0.61488614888687276 0.63013109104703224 0.79681098735634648 0.88051937761107546 -0.039662421913671864 -0.83455179533994384 -0.1097213474283219 -0.21191255628627501 -0.13677535641213392 -0.03970326580722363 -0.026775252195727527 -0.065240379046436911 -0.24409607478534615 0.60583850504426839 -0.4000807677311477 -0.82746787108825082
decision_type=2 2 2 2 2 2 2 2 2 2 2 2 2 2 2 2 2 2 2 2 2 2 2 2 2 2 2 2 2
left_child=1 2 25 26 6 -6 17 -8 9 -9 -10 12 13 -7 15 -13 -14 19 20 -2 -19 22 -5 -23 -21 -1 27 -3 -4
right_child=4 3 28 21 5 11 7 8 10 -11 -12 14 16 -15 -16 -17 -18 18 -20 24 -22 23 -24 -25 -26 -27 -28 -29 -30
leaf_value=0.13772873884143361 0 0 -0.027689655921615694 0 0.12054945548202184 0 0.026677323724597243 -0.30818647743664412 0.025208226897505463 0 -0.095293764346297535 0 -0.029705330661659844 -0.15743462255814589 -0.017292041806568317 0.14607329476283809 0.063601149719818686 -0.13223188999497681 0.049015542796173706 0 0 0.0019195779164928465 0.093036341991041993 -0.06498702009502956 0.13977670415656135 0 0 -0.17059817635101782 0.0056129724513347716
leaf_weight=10.929228238761423 5.9170635975897303 0.24227233976126061 4.5810961797833443 3.950631255749613 7.0909923836588851 4.6018030084669608 6.5423333682119837 5.076386347413063 12.511029219953345 6.8827084042131883 11.162440908257848 4.5900709982961434 5.1437282897531968 6.3242918383330107 9.6132089644670469 4.5676628947257996 4.9504498541355133 3.5823331736028194 3.4588682465255243 4.5005957074463359 4.0265783071517944 4.0697582514258102 4.3085897006094473 6.4051248580217344 3.5457629673182991 3.3574954345822361 0.51846899092197407 2.2806687544798478 5.2247847621329111
leaf_count=104 41 3 23 29 55 29 42 30 250 44 237 41 33 37 46 31 34 20 27 28 45 28 38 33 33 25 3 221 36
internal_value=0 0.0244258 0.0671336 -0.0109849 -0.0101293 0.00664534 -0.0257964 -0.0533146 -0.0756234 -0.157902 -0.0209973 -0.00788303 -0.040948 -0.092979 0.0151277 0.0767917 0 0.0100509 -0.00751608 0.0426231 -0.0681102 0 0.0388267 -0.0149702 0.0861197 0.119238 -0.121667 -0.138345 0
internal_weight=159.956 45.8681 24.0926 21.7755 114.088 46.8822 67.2061 42.1749 35.6326 11.9591 23.6735 39.7912 21.0203 10.9261 18.7709 9.15773 10.0942 25.0312 11.0678 13.9634 7.60891 18.7341 8.25922 10.4749 8.04636 14.2867 3.04141 2.52294 9.80588
internal_count=1646 543 188 355 1103 306 797 603 561 74 487 251 133 66 118 72 67 194 92 102 65 128 67 61 61 129 227 224 59
is_linear=0
shrinkage=0.19569


Tree=34
num_leaves=17
num_cat=0
split_feature=19 19 23 23 24 9 24 10 7 9 0 24 24 23 0 13
split_gain=1.24617 2.29242 1.32348 2.65043 1.74049 1.41354 1.19514 1.16022 1.26515 1.18661 0.938688 0.897938 0.861739 1.1979 1.1592 0.534589
threshold=-0.39758487901022271 -0.38683336704438559 0.33328258077075235 -0.48955924817506441 -0.29302552051261349 -0.03972732591832951 -0.83551328666128721 -0.20389037864402956 -0.5590591054767281 -0.039706525851374429 -0.72356567330974819 3.3103144117269419 2.7820810872909152 0.62837068494443293 -0.30767576724206724 -0.82909980714721609
decision_type=2 2 2 2 2 2 2 2 2 2 2 2 2 2 2 2
left_child=2 -2 3 4 6 -5 -1 9 15 -4 -11 12 13 14 -3 -9
right_child=1 11 7 5 -6 -7 -8 8 -10 10 -12 -13 -14 -15 -16 -17
leaf_value=0 -0.11193248678904882 -0.023489301850741596 0 0 0.085879075232632218 0.18135012883303608 -0.099392159350558534 0 0.020598614866093459 0 0.13613354772662042 0.10767200385360373 -0.099617515329103012 0.10173645209461663 0.023230806228388211 -0.10369130990347734
leaf_weight=6.1615239605307606 6.8682925105094901 49.659378724521957 3.3797198086977032 3.7819830067455769 6.8262672573328045 7.4155174419283849 5.6190192066133013 5.2252848111093053 3.8427569121122351 4.516997855156661 5.3328411728143665 2.5829559564590445 2.9479550644755355 4.0181583464145652 31.35899167181924 7.7172523960471162
leaf_count=45 40 407 21 31 55 60 35 35 25 25 69 16 14 29 682 44
internal_value=0.00584848 -0.00556662 0.0288433 0.0577776 0 0.132172 -0.0333185 0 -0.0340801 0.0424221 0.0826798 0 -0.000590868 0.00011038 -0.00206567 -0.0706994
internal_weight=157.255 97.4357 59.8192 29.8043 18.6068 11.1975 11.7805 30.0149 16.7853 13.2296 9.84984 90.5674 87.9845 85.0365 81.0184 12.9425
internal_count=1633 1188 445 226 135 91 80 219 104 115 94 1148 1132 1118 1089 79
is_linear=0
shrinkage=0.19569


Tree=35
num_leaves=19
num_cat=0
split_feature=19 19 16 16 11 19 19 6 20 23 5 23 18 18 13 7 19 13
split_gain=0.909501 1.50406 1.08031 0.956187 0.969388 2.24959 2.02048 2.23483 1.93368 1.16112 0.813006 0.744014 0.74346 1.84824 1.08894 0.97005 0.940994 0.688496
threshold=-0.39758487901022271 -0.38683336704438559 0.30313888317753135 -1.6204195191582533 -0.26235798188476883 0.13738720321789147 -0.21791095367783955 -0.61996505194905482 0.73055765379064519 0.43885001622880931 -0.035905953366103062 0.30950556747489616 -0.33711601643555483 -0.34029993226267991 -0.79893056203353685 -0.65145614918993922 -0.42504301348464829 -0.83829633910369739
decision_type=2 2 2 2 2 2 2 2 2 2 2 2 2 2 2 2 2 2
left_child=2 -2 11 -3 5 8 7 -6 -5 -7 -8 -1 13 14 17 -14 -16 -4
right_child=1 3 12 4 6 9 10 -9 -10 -11 -12 -13 15 -15 16 -17 -18 -19
leaf_value=0.14472775765572229 -0.089552907020280959 0.10328331609519359 0 0.05694620349577964 0.010135322785572026 0 0.029591537191251582 -0.12726501951458044 -0.043982813046997971 -0.12397038293582555 -0.054055352355614116 0 0 -0.12168822192154935 0.019789857926566429 0.12158701640342637 -0.056327127006236932 0.11163263771304814
leaf_weight=4.6527808345854265 6.9851140007376662 3.0464021712541571 11.566271211951968 36.477167920675129 1.986937841400503 5.1137444786727411 16.555431192624383 11.439765388611702 5.7090906053781501 4.942647073417902 5.1992195203201872 5.1305271200835705 5.9883521534502506 4.1934086643159452 6.5047650672495392 4.2173111941665393 11.170355029404162 5.0605566408485148
leaf_count=36 40 24 102 261 16 43 300 182 33 26 263 32 41 28 45 35 79 47
internal_value=0.00540166 -0.00388058 0.0253798 0.000110297 -0.000842656 0.0126735 -0.0284246 -0.0876633 0.0366752 -0.0598171 0 0.087003 0.00692266 0 0.00937472 0.0539594 -0.0135383 0.0493615
internal_weight=155.94 97.4555 58.4843 90.4704 87.424 52.2427 35.1814 13.4267 42.1863 10.0564 21.7547 9.78331 48.701 38.4954 34.3019 10.2057 17.6751 16.6268
internal_count=1633 1188 445 1148 1124 363 761 198 294 69 563 68 377 301 273 76 124 149
is_linear=0
shrinkage=0.19569


Tree=36
num_leaves=20
num_cat=0
split_feature=10 13 7 7 8 13 20 20 14 7 2 21 23 12 5 2 18 13 18
split_gain=0.641595 1.13517 2.82766 1.08253 1.4018 1.89206 2.19549 1.84048 1.70102 1.34322 2.47675 1.86575 1.2274 0.970268 0.606039 0.530895 1.22373 0.428036 0.149222
threshold=-0.22977199678702381 1.7148695582592752 -0.58889196791067588 -0.83604760245892151 -0.0068747056039320893 1.9305218881603674 -3.0192364694290967 -0.59810169805409885 -0.15975098549546721 -0.83793358557952868 -0.038583142777706421 0.32593361959533634 0.62384338583484211 -0.39565296877200473 -0.13652835492724616 -0.056669287192953756 -0.32661908791565597 1.4383880219237752 -0.30856621354924524
decision_type=2 2 2 2 2 2 2 2 2 2 2 2 2 2 2 2 2 2 2
left_child=1 2 -1 9 5 7 -7 -5 -9 15 11 -11 13 14 -6 16 -2 -15 -3
right_child=3 18 -4 4 12 6 -8 8 -10 10 -12 -13 -14 17 -16 -17 -18 -19 -20
leaf_value=-0.015162996847666222 -0.042677182236383775 -0.032154468833040323 0.13259160100428091 -0.20043625826392181 0 -0.020921321096113901 0.1312097116802789 -0.049343152040251637 0.031040308658910321 0.13641948284196309 -0.035891314859942874 0 -0.042187614676976154 -0.071884792810557721 0.11383870037491579 -0.064722432327996238 0.074411268559667537 0.02275377792373634 0
leaf_weight=4.305402234196662 6.1273764744400987 5.1465425230562687 9.4289554490242171 3.2601355143124229 3.8016334143467247 4.9484657496213913 4.931312181055544 48.853961860761046 8.053629774367435 11.778960203751927 4.2244276516139498 4.6233728416264048 5.3571153134107581 2.2464414534624675 7.6130326259881294 4.7398123107850543 5.9423075951635846 5.0611546710133553 5.0383662730455381
leaf_count=29 46 29 90 38 50 26 32 506 278 98 21 47 33 111 63 31 49 31 29
internal_value=0 0.0299365 0.0679901 -0.00460037 -0.017408 -0.0328253 0.0307537 -0.0478509 -0.0331249 0.0203156 0.0560208 0.0960532 0.016219 0.0475688 0.0825518 -0.00806556 0 0 0
internal_weight=155.482 23.9193 13.7344 131.563 94.1269 70.0475 9.87978 60.1677 56.9076 37.4363 20.6268 16.4023 24.0794 18.7223 11.4147 16.8095 12.0697 7.3076 10.1849
internal_count=1637 177 119 1460 1168 880 58 822 784 292 166 145 288 255 113 126 95 142 58
is_linear=0
shrinkage=0.19569


Tree=37
num_leaves=14
num_cat=0
split_feature=19 18 0 18 2 8 24 3 1 0 19 20 15
split_gain=0.888461 1.6973 3.37454 1.90586 1.30306 0.891325 0.865641 1.71618 1.25186 0.531962 0.497508 0.493301 0.0849088
threshold=-0.42541468319945858 -0.34517794160158294 -0.54144847862905388 -0.34389818807455586 -0.065240379046436911 -0.011770962675418091 -0.40685714792349886 -0.20452542956911993 -0.23254054104430119 0.85780054287705576 -0.42622297566246808 0.73009830534651321 0.65908537166779879
decision_type=2 2 2 2 2 2 2 2 2 2 2 2 2
left_child=4 2 -2 -3 12 9 8 -8 -7 11 -6 -5 -1
right_child=1 3 -4 5 10 6 7 -9 -10 -11 -12 -13 -14
leaf_value=0.12313441672781719 -0.17462773763845171 0.098908896351023332 0.0054278519733992059 -0.15757534685742541 -0.074532522504918805 0 0 0.082924794531153825 -0.054027100353915475 0 0.02014087693588101 0 0
leaf_weight=5.1745517421513778 6.0813136622309685 6.8535019271075717 3.8165859691798669 2.6646566466661166 2.8078311225399375 33.2020907048136 51.484064873307936 11.18212397140452 22.675544850528233 0.36902170255780209 2.9246942140161982 1.2361956760287283 3.2014808841049671
leaf_count=50 36 54 31 443 17 259 337 205 127 4 43 7 24
internal_value=0 -0.00459116 -0.0813064 0 0.04631 -0.0042398 0 0.0147894 -0.0185504 -0.0884089 0 -0.1151 0.0961628
internal_weight=153.674 139.565 9.8979 129.667 14.1086 122.814 118.544 62.6662 55.8776 4.26987 5.73253 3.90085 8.37603
internal_count=1637 1503 67 1436 134 1382 928 542 386 454 60 450 74
is_linear=0
shrinkage=0.19569


Tree=38
num_leaves=21
num_cat=0
split_feature=25 12 12 21 1 9 22 9 22 23 23 13 3 23 19 15 10 23 12 21
split_gain=1.02921 2.18406 2.31727 1.55874 1.63259 2.0107 1.35584 1.52031 1.35063 1.3026 1.31165 1.25665 1.04025 0.774851 0.692441 0.356896 0.316247 0.286771 0.251818 0.139889
threshold=0.43152304771009636 -0.62039605087714866 -0.62034072184382183 0.31709735974917203 -0.2279951917752521 -0.039554525428569888 0.75160256695393524 -0.039580966184324044 0.59279992423830763 0.6124868889901377 0.62188225165834854 -0.83037296868686261 -0.20651068885661653 0.01611433117025134 -0.31376086141793147 1.9229016987004914 -0.17319707090481262 -0.70444252803136864 0.83657402966623184 0.32297069751953167
decision_type=2 2 2 2 2 2 2 2 2 2 2 2 2 2 2 2 2 2 2 2
left_child=1 8 -3 4 5 -4 11 -8 19 12 -11 -5 13 17 -15 -6 -12 -2 -14 -1
right_child=9 2 3 6 15 -7 7 -9 -10 10 16 -13 18 14 -16 -17 -18 -19 -20 -21
leaf_value=0.0083905790805888277 -0.040264007269012095 -0.16662432118306375 0.15484397440547257 0.0030291040489921479 -0.009690857746327242 0 0 0.13774048936734232 0 0.10627374291024237 -0.046033316950757748 -0.052663222760680292 0.053741652432090573 -0.14661672739738901 0 0.045978899702280029 0 0.0027167941965576129 0 0.16311613895783056
leaf_weight=4.7947561964392644 6.3710419535636911 2.6479411553591481 7.9424354658694938 15.464679667726154 13.990328177227644 4.8487727618776209 6.5675308983772993 3.8415392059832794 5.5484939236193886 4.2872163802385321 5.3851929232478133 29.305799769063018 2.9584627805743393 7.2390893176198006 5.9412021785974485 5.4460641033947459 4.3328813165426245 4.5437876284122476 1.5471552042290566 5.6187859289348125
leaf_count=38 44 16 89 153 488 34 48 28 50 29 32 269 52 40 32 36 32 32 39 46
internal_value=0.00150077 0.0134573 0 0.00728583 0.0429086 0.0964599 -0.00881273 0.0450338 0.0793526 -0.0218273 0.0134312 -0.0275842 -0.0483563 -0.0663051 -0.100613 0 -0.00325842 0 0 0.119689
internal_weight=148.623 106.017 90.0551 87.4072 32.2276 12.7912 55.1795 10.4091 15.962 42.606 14.0053 44.7705 28.6007 24.0951 13.1803 19.4364 9.71807 10.9148 4.50562 10.4135
internal_count=1627 1295 1161 1145 647 123 498 76 134 332 93 422 239 148 72 524 64 76 91 84
is_linear=0
shrinkage=0.19569


Tree=39
num_leaves=24
num_cat=0
split_feature=8 8 24 4 24 4 24 11 8 24 21 8 23 13 0 10 11 4 4 4 21 4 8
split_gain=0.597333 1.17569 1.1602 1.56282 1.30251 1.66429 1.44275 1.68596 1.48234 0.688742 1.33108 0.622179 1.02995 0.758735 1.6819 0.95223 1.19111 0.84742 0.584778 1.16295 0.511595 0.351992 0.0567833
threshold=-0.010285219459655768 -0.0099208755799240229 -0.75910712069955577 -0.19436431042029337 -0.30928888048212733 -0.19523876767870271 0.30373191635793556 0.62189920914321128 -0.011770962675418091 1.219556883987871 0.32415708137355109 -0.0089311436797004755 0.59053887671702665 -0.11647112701023069 0.17814206100329813 -0.08353645610710432 -0.27846471628737252 -0.22351318159376793 -0.19500075147746704 -0.19675235635372781 -0.57358053562500577 -0.17990928769197981 -0.006786679189091354
decision_type=2 2 2 2 2 2 2 2 2 2 2 2 2 2 2 2 2 2 2 2 2 2 2
left_child=2 -2 3 18 5 -4 7 8 -6 10 -8 12 -3 15 22 16 -13 -17 19 -1 -16 -7 -15
right_child=1 11 4 -5 6 21 9 -9 -10 -11 -12 13 -14 14 20 17 -18 -19 -20 -21 -22 -23 -24
leaf_value=0 -0.076946295392606917 0 0.0030185835385441811 0.11558376385914899 0 -0.11830365628436619 -0.10113424407770021 -0.041343373028444659 0.1332571610740704 0.034989142518528825 0 0.001924280253451739 0.094969811160052098 -0.13037339994202693 0.057426319169082939 0 -0.10966131400263782 0.13500166784749199 -0.031763331632346042 0.11504799132399353 -0.018957107189880043 0 0
leaf_weight=4.2910594642162314 8.1205209083855134 4.9444047696888429 7.4385735020041492 8.7755747810006124 1.2080953348195187 7.44273341074586 6.3273564615519735 0.69623049348592836 10.446945583447812 6.7586259618401519 5.7431725859642029 21.793183461762965 6.2169237975031137 5.4375141933560371 4.7055060393176973 3.1994113398250192 3.4426616635173586 3.4047063407488158 6.2386317737400558 4.1715708449482909 7.4637462832033616 4.7250060737132999 4.390375490766024
leaf_count=28 47 28 49 81 433 46 54 4 82 52 38 200 53 29 62 35 50 34 33 35 89 31 34
internal_value=0.00179972 -0.00849922 0.0155477 0.0511725 0 -0.0402313 0.0235672 0.0756066 0.106106 0 -0.0376347 0 0.0416916 -0.00833246 -0.0379961 0.00399038 -0.00416344 0.0723237 0 0.0421567 0 -0.0874726 -0.0973349
internal_weight=147.383 73.119 74.2636 23.4768 50.7867 19.6063 31.1804 12.3513 11.655 18.8292 12.0705 64.9984 11.1613 53.8371 21.9971 31.84 25.2358 6.60412 14.7013 8.46263 12.1693 12.1677 9.82789
internal_count=1627 661 966 177 789 126 663 519 515 144 92 614 81 533 214 319 250 69 96 63 151 77 63
is_linear=0
shrinkage=0.19569


Tree=40
num_leaves=28
num_cat=0
split_feature=0 10 0 18 1 1 24 9 12 20 18 4 3 2 2 1 3 1 8 21 11 0 4 3 4 1 18
split_gain=0.408237 1.44381 0.934589 1.36533 0.775154 1.20956 1.83058 1.06402 2.04028 1.56574 1.45685 1.25169 1.20418 1.22575 1.18045 0.809462 1.00473 0.803135 0.714958 0.562662 0.541734 0.431977 0.87517 0.402442 0.305689 0.274923 0.158184
threshold=0.82392663821754508 -0.18439004452236532 1.1799093957709121 -0.31075948102560891 -0.23496389719520763 -0.15195944058416683 -0.58549682332345721 -0.039554525428569888 -0.61459014288597813 0.72995256366345351 -0.30155098928858198 -0.19467705293469342 -0.21230662545374865 -0.062512796175048277 -0.17322935166458572 0.17940529600287194 -0.21295884038429244 -0.031422688127237239 -0.006786679189091354 0.32524713120577525 -0.3106762793761691 -0.45201967124895509 -0.18963739877187186 -0.21678698399999588 -0.19536867703081062 -0.081875653203567003 -0.029500837199894572
decision_type=2 2 2 2 2 2 2 2 2 2 2 2 2 2 2 2 2 2 2 2 2 2 2 2 2 2 2
left_child=4 2 -2 -4 7 6 -6 9 19 10 23 18 13 -11 -12 17 -17 25 -10 24 -19 -8 -23 -1 -9 -7 -18
right_child=1 -3 3 -5 5 15 21 8 11 12 14 -13 -14 -15 -16 16 26 20 -20 -21 -22 22 -24 -25 -26 -27 -28
leaf_value=0.047953787576078613 0.063918840696852414 0.10235500233551288 0 -0.096871426170538816 -0.17098115522456775 7.680137850950061e-05 0.063799873779662744 0 -0.068057956466307995 -0.036112377614180194 0 -0.14669046391346316 -0.10310473122272687 0.050688196701618865 0.13890818173493261 -0.088485716591233929 0.050212951474237731 0 0.021475248871298151 0 0.0962337465906557 0 -0.11603443144427436 0 0.090586222348813916 -0.047894637751510767 0
leaf_weight=6.4291287790983906 4.5346972942352357 6.0901992223225525 5.108524907380346 6.865144349634642 4.6963075250387192 6.8652070105890743 1.6028870120644567 3.0281999818980694 5.0337173687294117 10.294826906174425 3.4493114979704833 6.0185372759588054 4.0885921195149413 12.470568664371967 9.1356109832413477 7.7314727455377579 2.0220970138907433 2.3856168538331985 4.6095204651355735 3.345881937071681 5.8242323989979941 2.194294779736083 2.7377917845733446 14.771197033114733 4.358426336199047 4.2091477885842341 2.6493602795526368
leaf_count=65 33 49 35 35 24 156 11 39 26 63 34 35 25 115 84 46 17 19 32 27 186 100 33 128 35 102 110
internal_value=0 0.0233233 0 -0.0356582 -0.00490311 -0.0271835 -0.0821247 0.00306651 -0.0253916 0.019958 0.0492497 -0.0748016 -0.00715608 0 0.103322 0 -0.0442566 0.017409 0 0.0225148 0.0653764 0 -0.039928 0.00338792 0.0591559 0 0
internal_weight=152.551 22.5986 16.5084 11.9737 129.952 42.9184 11.2313 87.0335 26.3943 60.6392 33.7852 15.6618 26.854 22.7654 12.5849 31.6871 12.4029 19.2842 9.64324 10.7325 8.20985 6.53497 4.93209 21.2003 7.38663 11.0744 4.67146
internal_count=1664 152 103 70 1512 804 168 708 194 514 311 93 203 178 118 636 173 463 58 101 205 144 133 193 74 258 127
is_linear=0
shrinkage=0.19569


Tree=41
num_leaves=27
num_cat=0
split_feature=19 22 22 23 23 11 9 11 8 11 9 8 23 7 12 2 8 21 22 9 0 4 8 21 2 9
split_gain=0.383815 1.14755 1.70556 1.38916 1.74518 1.61727 2.09733 1.03867 2.29375 1.08434 0.771296 0.954816 0.74448 0.723223 1.24817 0.881668 0.628293 1.16683 2.0449 0.538486 1.10291 0.471623 0.432511 0.395086 0.332887 0.241153
threshold=-0.39758487901022271 0.85017443549920635 0.67518356561016346 0.30950556747489616 0.51480571649712925 -0.3155759736565984 -0.039715027721552339 -0.3098185354547448 -0.0089311436797004755 -0.27216063960142134 -0.039178202076455865 -0.0008573606798361837 0.62786301545901557 0.75687565353054842 -0.42420734589999803 -0.27257719328613089 -0.01127180159196467 0.32250942245119668 -0.99970113792073512 -0.039612205393186641 -0.51918951497399868 -0.19463668876795265 -0.0092075114660135678 0.11845877648932142 -0.060749807720073441 -0.033914499960346275
decision_type=2 2 2 2 2 2 2 2 2 2 2 2 2 2 2 2 2 2 2 2 2 2 2 2 2 2
left_child=1 2 3 5 -5 23 -7 8 19 16 13 12 -12 14 -11 -15 -9 -18 -19 20 21 -2 -3 -1 -4 -13
right_child=7 22 24 4 -6 6 -8 9 -10 10 11 25 -14 15 -16 -17 17 18 -20 -21 -22 -23 -24 -25 -26 -27
leaf_value=0 -0.018291488225727577 0 0.1506769624687154 -0.12177962187428069 0 0 0.13680321478893753 0 -0.15081368579155605 0 -0.12428043746208002 0.044668616929946406 0 0 -0.11475025480000782 0.10246773469427931 0 0 0.15168190993104136 0.039828139041357902 -0.082302691440718445 0.05691619568617326 -0.079819274979385874 -0.061655128902356006 0 -0.030750122237543299
leaf_weight=4.2527317479252762 4.0393955036997857 5.8955256938934326 4.7341320812702179 5.4806355303153378 6.9029215089976788 10.712316093035041 8.9550101701170295 4.9395617581903961 5.4787327796220771 13.654235899681227 6.2417015138780698 3.018826019950211 1.6380844116210935 5.2165884971618652 3.7109854112495695 4.8942654952406865 8.4468527417629975 4.5778535865247276 7.4898935854434923 5.0769262351095668 7.6210335977375534 4.7382788918912402 4.3697074614465219 4.0475554410368204 2.6099334675818673 2.2131062839180213
leaf_count=36 27 41 37 33 52 88 78 31 33 114 212 20 11 26 322 35 67 34 58 34 51 44 26 31 40 83
internal_value=0 0.0123331 0.028525 0.00510295 -0.0396734 0.0347173 0.0686195 -0.00789757 -0.0407662 0.00161031 -0.0136853 -0.0525152 -0.0945049 0 -0.0185042 0.0453948 0.0362903 0.0527238 0.0908603 0 -0.0267028 0 -0.0358746 -0.0140053 0.115682 0
internal_weight=150.957 57.9605 47.6952 40.3512 12.3836 27.9676 19.6673 92.9963 26.9544 66.042 40.5878 13.1117 7.87979 27.4761 17.3652 10.1109 25.4542 20.5146 12.0677 21.4756 16.3987 8.77767 10.2652 8.30029 7.34407 5.23193
internal_count=1664 462 395 318 85 233 166 1202 189 1013 823 326 223 497 436 61 190 159 92 156 122 71 67 67 77 103
is_linear=0
shrinkage=0.19569


Tree=42
num_leaves=14
num_cat=0
split_feature=19 18 19 11 18 14 20 24 7 15 6 22 22
split_gain=0.454739 0.978783 0.572394 0.661337 1.25244 0.533859 1.35383 0.82667 0.812626 0.344871 0.760359 0.377013 0.671241
threshold=-0.42427319697149002 -0.34618295975815555 -0.42370191496430359 -0.31544907197867633 -0.34129710212329106 3.3490045760554179 -1.5346416421558484 0.96450275371401484 0.94507898705769267 0.67557431394258882 -0.62137129718221684 0.85017443549920635 -1.0000000180025095e-35
decision_type=2 2 2 2 2 2 2 2 2 2 2 2 2
left_child=1 9 -2 4 -4 6 7 -5 -8 10 -1 12 -12
right_child=2 -3 3 5 -6 -7 8 -9 -10 -11 11 -13 -14
leaf_value=-0.019225953751114307 -0.078922043793647964 0.10951383649029256 0 0 0.092532437262917461 0.03426145911393428 -0.010722720471936065 -0.13000515785910491 0.047437073088919091 -0.044485050562601998 0 0 0.12887483881159348
leaf_weight=2.5900303907692459 3.7198209166526786 3.8895716145634642 3.7834538668394089 6.5828952416777593 7.4626816958188993 7.1976158395409575 82.537816833064426 5.5939786285161972 9.3328266106545907 3.8280231766402713 2.2888446450233486 3.3824305646121502 4.0172884427011004
leaf_count=20 27 33 32 41 60 35 1148 31 76 24 20 24 60
internal_value=0 0.0259572 -0.00539512 -0.000728017 0.0406298 -0.00745136 -0.013036 -0.0742979 -0.00171723 0 0.019631 0.05716 0.0841381
internal_weight=146.207 19.9962 126.211 122.491 11.2461 111.245 104.048 12.1769 91.8706 16.1066 12.2786 9.68856 6.30613
internal_count=1631 181 1450 1423 92 1331 1296 72 1224 148 124 104 80
is_linear=0
shrinkage=0.19569


Tree=43
num_leaves=20
num_cat=0
split_feature=0 14 7 19 20 8 22 0 6 13 16 20 1 5 22 8 13 10 7
split_gain=0.597694 0.634347 1.10234 0.841751 0.762329 0.621332 0.766842 1.19484 0.995197 0.48658 0.424126 0.491648 0.393241 0.339315 0.609147 1.13738 0.278022 0.158128 0.0791452
threshold=1.7878263952110414 0.81060630004615442 0.30768831718252948 -0.4225935543703126 0.65204081233027067 -0.011612319519141779 0.17779562562212489 -0.30767576724206724 -0.62108058878351169 -0.83923289742503748 -0.38411391433675707 0.73110187618514744 -0.40024738543030397 -0.13012748535516064 -0.1097213474283219 -0.0089311436797004755 -0.83634234003525287 -0.2016848440158355 -0.83793358557952868
decision_type=2 2 2 2 2 2 2 2 2 2 2 2 2 2 2 2 2 2 2
left_child=1 3 12 4 -1 10 7 -7 -8 18 -5 -12 -3 -4 -15 -16 -11 -2 -6
right_child=17 2 13 5 9 6 8 -9 -10 16 11 -13 -14 14 15 -17 -18 -19 -20
leaf_value=0.1079486628798955 0 0 0.033430624274610514 0 0 0 0.0089896367059138782 0.077707451215181092 -0.043656954965237457 -0.05774185809635643 -0.083707216291787956 0 -0.14509438168855165 -0.08284750161902367 0.073451677545207802 -0.046131866130599095 0 0.063914301186586933 0.078589945412610135
leaf_weight=4.6587291397154358 4.1231366917490959 4.5261805541813374 5.4234091825783279 0.50137432245537716 3.3357099778950223 26.613496165955436 15.043846143409608 9.8787942111957836 25.872406406328082 3.3710439614951611 8.4065332966856605 1.0105935260653502 3.6357935704290885 3.9662790261209038 4.7669547051191348 7.0365185840055275 4.5316811800003025 5.9738208670169097 2.8258304968476295
leaf_count=40 27 39 39 6 27 242 125 115 199 26 477 6 20 21 29 70 41 39 43
internal_value=0 -0.0046898 -0.0302881 0 0.0393152 -0.00555514 0 0.0209567 -0.0178594 0 -0.0507258 -0.0660493 -0.090194 0 -0.0200733 0 -0.0149896 0.0435834 0.0506339
internal_weight=145.502 135.405 29.3551 106.05 18.723 87.327 77.4085 36.4923 40.9163 14.0643 9.9185 9.41713 8.16197 21.1932 15.7698 11.8035 7.90273 10.097 6.16154
internal_count=1631 1565 218 1347 177 1170 681 357 324 137 489 483 59 159 120 99 67 66 70
is_linear=0
shrinkage=0.19569


Tree=44
num_leaves=24
num_cat=0
split_feature=8 5 19 8 4 5 8 11 12 9 11 5 9 18 8 6 4 19 12 21 14 19 8
split_gain=0.715994 1.36873 1.15286 1.12677 1.02837 1.27387 1.20068 1.26654 1.57453 1.04748 0.827008 0.825125 0.76758 0.606278 0.989795 0.860513 1.35902 0.275986 0.769869 1.2885 0.923739 0.217915 0.111277
threshold=-0.011385999032501733 -0.13602314633718363 -0.3116913088353328 -0.011770962675418091 -0.16181796457901662 -0.13677535641213392 -0.0034286494871540569 -0.31287966271410278 -0.61815618348111279 -0.039715837979079203 -0.31407801636989757 -0.11955059711325848 -0.039502402750244088 -0.33811704256894498 -0.011465629761224611 -0.62161081165940157 0.093866836670498985 -0.39057064293949667 0.70355653672708607 0.32477283802638662 3.3490045760554179 -0.25983608736327629 -0.011465629761224611
decision_type=2 2 2 2 2 2 2 2 2 2 2 2 2 2 2 2 2 2 2 2 2 2 2
left_child=1 2 3 -1 5 9 7 10 -9 21 -7 -6 -11 -3 15 -15 -17 -13 19 -19 -20 -2 -4
right_child=4 13 22 -5 11 6 -8 8 -10 12 -12 17 -14 14 -16 16 -18 18 20 -21 -22 -23 -24
leaf_value=0 -0.09602159601037126 0.011476549005214666 0 0.11621300361359126 0.1136821030649988 -0.026874501376384478 0.03205223528938686 0 -0.094975124832948024 0.097382768988607787 0.051408263014356248 -0.02302051432184701 0 0 0 -0.18674541663191177 0 0.102308782686512 -0.058385050506715531 0 0.036093418373283476 0 -0.053703933565043216
leaf_weight=2.8847259390167901 1.0961345322430136 7.2932879664003867 1.4969720460358078 11.540779169648886 2.8099562576971939 23.753172257915139 4.6883749682456246 7.5892527177929869 24.768325243145227 7.1257910020649424 5.1258112620562342 7.4515550043433896 4.0995347909629336 0.94588876515627074 0.86588498577475004 3.7839153905515559 1.1796642588451502 7.7634479589760321 7.7137001971714181 4.0436877384781837 5.5937559008598328 1.1100853332318354 1.0970777496695543
leaf_count=45 11 51 129 95 34 191 37 53 145 76 47 51 47 7 7 179 148 93 87 30 28 55 5
internal_value=0 0.0260835 0.0650835 0.0892177 -0.00722498 -0.0211762 -0.0342084 -0.0438287 -0.0713263 0.0224267 -0.00326691 0.016414 0.060007 -0.00288704 -0.055858 -0.0978558 -0.132049 0 0.0158665 0.0542736 0 -0.0451337 0
internal_weight=145.821 31.0882 17.0196 14.4255 114.733 79.3565 65.9249 61.2366 32.3576 13.4315 28.879 35.3761 11.2253 14.0686 6.77535 5.90947 4.96358 32.5661 25.1146 11.8071 13.3075 2.20622 2.59405
internal_count=1651 666 274 140 985 662 473 436 198 189 238 323 123 392 341 334 327 289 238 123 115 66 134
is_linear=0
shrinkage=0.19569


Tree=45
num_leaves=28
num_cat=0
split_feature=3 3 21 18 19 21 18 2 8 10 1 12 0 12 6 21 0 13 5 18 21 13 13 22 5 16 22
split_gain=0.66386 1.25366 1.42451 1.07794 0.836003 0.630765 0.897825 0.613208 1.51263 1.38076 1.03921 0.917064 1.10575 1.75745 0.917152 0.777877 0.743499 0.610138 0.608005 0.586974 0.564666 0.550614 0.483055 0.430501 0.336203 0.165543 0.135077
threshold=-0.21355328111179242 -0.22149689841198075 0.092675539673550481 -0.30856621354924524 -0.42167237247568168 0.32773662797626313 -0.31581135562555857 -0.061440504881093774 -0.0090630797871627897 -0.20389037864402956 0.65222734393634541 -0.62039605087714866 -0.48029428681307668 -0.61982006771460008 0.34281793978140912 0.32821656233710511 -0.55864744104962216 -0.79176769806867242 -0.13651737184695276 -0.32804992005525185 0.32335473179561197 0.65474055219731497 -0.45498305198827349 0.5115874393533949 -0.035905953366103062 0.29595136911582082 -0.2089190962577748
decision_type=2 2 2 2 2 2 2 2 2 2 2 2 2 2 2 2 2 2 2 2 2 2 2 2 2 2 2
left_child=1 2 3 4 -1 6 19 8 9 -2 15 23 13 -13 20 -11 25 -15 -18 26 -14 -8 -20 -9 -16 -10 -3
right_child=7 5 -4 -5 -6 -7 21 11 16 10 -12 12 14 17 24 -17 18 -19 22 -21 -22 -23 -24 -25 -26 -27 -28
leaf_value=0 0 0 -0.11203626024484155 -0.036078448959468171 0.11664343754007384 0 0.0044277943556717625 0.07723273681370843 0 -0.10904820778926917 0 -0.12133708398410108 0.10570766996576195 0.025670641071322206 0 0 -0.082472726898023374 -0.058328518726724593 0.063994535688649767 -0.03549747418374978 0 0.14444999150772636 -0.0025989359259824193 0 -0.081926997827189887 0.10655586333570627 0.081076850419971813
leaf_weight=6.5232762079685962 7.3189809836912927 5.120286578312518 4.0682291679549953 7.2241691425442704 4.2888334132730961 5.6187281403690568 6.8061069413088262 7.8867302387952787 2.3445518910884884 17.325942007009878 1.8172288052737702 6.647210871800783 5.4181435311329569 9.7696598116308451 1.0233612172305586 1.9431952742743295 3.0435013200622061 4.5211432464420733 4.1270999275147915 4.1310750730335721 3.5505362141993828 6.5112559795379639 5.5004463735967839 4.5228243488818407 1.6286466875462782 2.7565571796149015 2.9611659683287144
leaf_count=48 54 48 33 37 33 44 47 69 15 306 11 55 173 81 8 38 73 27 31 23 29 48 42 43 158 47 30
internal_value=0 0.0181838 -0.00795499 0.00269421 0.0530626 0.0451663 0.0584348 -0.00916521 -0.0257968 -0.0553207 -0.0810366 0.00203452 -0.00867585 -0.0411876 0.0268605 -0.0959143 0.00669219 0 -0.000705481 0 0.0679528 0.0947049 0.000324581 0.0506617 -0.0141858 0.073084 0.0445484
internal_weight=144.399 53.2531 22.1045 18.0363 10.8121 31.1486 25.5299 91.1458 46.1775 28.4053 21.0864 44.9683 32.5587 20.938 11.6207 19.2691 17.7722 14.2908 12.671 12.2125 8.96868 13.3174 9.62755 12.4096 2.65201 5.10111 8.08145
internal_count=1651 391 151 118 81 240 196 1260 617 409 355 643 531 163 368 344 208 108 146 101 202 95 73 112 166 62 78
is_linear=0
shrinkage=0.19569


Tree=46
num_leaves=22
num_cat=0
split_feature=10 2 23 10 19 21 14 9 23 25 9 10 24 23 22 5 21 7 7 9 24
split_gain=0.703261 2.22299 0.733576 0.551567 1.1472 0.86897 0.767322 0.750992 0.733286 0.98533 1.71898 1.36414 0.860691 0.677324 0.910598 0.804821 0.550514 0.503315 0.427636 0.180551 0.0331231
threshold=-0.23667208617659938 -0.32704950441824693 -0.70444252803136864 -0.20242335901043254 -0.39758487901022271 0.32466782526388743 -0.71372856293584719 -0.039723816098791775 0.55653197557143408 0.43152304771009636 -0.039662421913671864 -0.18617637380320953 0.69641097962636611 0.62693112900634251 0.62547536408732851 -0.13651737184695276 0.28366468087829128 -0.83757089902109727 -0.83341502622217933 -0.03935710304915245 -0.573984539023083
decision_type=2 2 2 2 2 2 2 2 2 2 2 2 2 2 2 2 2 2 2 2 2
left_child=1 2 -1 4 5 7 -6 -2 9 10 11 -5 -11 14 20 -15 -16 -12 -7 -3 -10
right_child=3 19 -4 8 6 18 -8 -9 13 12 17 -13 -14 15 16 -17 -18 -19 -20 -21 -22
leaf_value=-0.080462005265536943 -0.089008411584821603 0.14158946663726038 0.0093029251221303545 0.1448927192644302 0 0 -0.10322634521534435 0 -0.10850637350322798 -0.091619630919289749 -0.055970202702033858 0 0 -0.011266222408198518 -0.039138131343199434 0.066045693713356945 0.025614373874575855 0.017443177416420444 0.084817114149499703 0 -0.0062622056268160876
leaf_weight=3.8678436763584614 4.649491535499692 5.5353817865252495 6.4840759318321961 8.0839723855024186 4.5972897429019204 4.0189255774021131 8.4437716035172325 6.8210509754717368 5.0215333998203278 3.7594287385581975 4.3334620893001583 8.7792977576027607 7.0904584475792944 3.4747512545436621 8.4143556617200392 7.3846959825605136 11.218299967236815 14.432932933152189 4.9799577612429857 2.8794841754715872 7.7237273752689344
leaf_count=27 37 51 47 84 36 48 53 54 31 68 26 369 52 23 49 51 98 311 47 26 49
internal_value=0.00122594 0.0372451 -0.00074911 -0.00217359 -0.0247213 0 -0.0694005 -0.0305915 0.00332118 0.0224856 0.0406945 0.0852983 -0.0126279 -0.0111083 -0.0291205 0.0177489 0 0 0.0486358 0.112686 -0.0690875
internal_weight=141.994 18.7668 10.3519 123.227 33.5105 20.4694 13.0411 11.4705 89.7169 46.4796 35.6297 16.8633 10.8499 43.2374 32.3779 10.8594 19.6327 18.7664 8.99888 8.41487 12.7453
internal_count=1637 151 74 1486 275 186 89 91 1211 910 790 453 120 301 227 74 147 337 95 77 80
is_linear=0
shrinkage=0.19569


Tree=47
num_leaves=26
num_cat=0
split_feature=3 14 9 18 18 21 12 8 21 7 14 7 8 9 23 2 15 13 2 5 11 23 21 14 23
split_gain=0.638875 0.924078 0.999772 1.29526 1.47174 0.815872 0.768563 1.34462 1.48344 1.87012 1.14061 0.912057 0.780797 0.641691 0.5321 0.468661 0.37126 0.752738 0.939491 0.486949 0.220376 0.505523 0.128353 0.0711431 0.0292471
threshold=-0.21342375804341268 1.6404702024316002 -0.039726121983678926 -0.22121078180379369 -0.34584459817620156 -0.62496605751290224 -0.62039605087714866 -0.0096016607266528036 0.32246863236989698 -0.78528708953546389 -0.69992628120632672 -0.83846400977880398 -0.010524694799453208 -0.039734252647875203 0.61804343582352306 -0.062512796175048277 1.8934231862705591 -0.3236876191309695 -0.16328885831531703 -0.13652835492724616 -0.10960944634489976 0.20562804550934957 0.19799075628625665 -0.51126916514089682 0.51480571649712925
decision_type=2 2 2 2 2 2 2 2 2 2 2 2 2 2 2 2 2 2 2 2 2 2 2 2 2
left_child=1 2 13 4 -4 14 10 8 20 12 11 -2 -10 -1 -3 -13 17 19 -19 -9 21 -8 -6 -22 -11
right_child=6 5 3 -5 22 -7 7 16 9 24 -12 15 -14 -15 -16 -17 -18 18 -20 -21 23 -23 -24 -25 -26
leaf_value=0.039508659360369687 0 -0.0056915727174632631 0 0 0 -0.074509280488797153 0 -0.01814818846498795 -0.039578674503462197 0.013247477822014124 -0.028538946661292725 0 -0.20754907154666102 -0.050133019794987535 0.05670915310915773 0.11652260972276411 0.054999808157813801 0 -0.14044686433843837 0.029200755322013126 0 0.10204583188965895 0.14550999239925294 -0.029857661086960554 -0.010303718046946365
