{"learner":{"attributes":{"scikit_learn":"{\"_estimator_type\": \"classifier\"}"},"feature_names":[],"feature_types":[],"gradient_booster":{"model":{"gbtree_model_param":{"num_parallel_tree":"1","num_trees":"141"},"iteration_indptr":[0,1,2,3,4,5,6,7,8,9,10,11,12,13,14,15,16,17,18,19,20,21,22,23,24,25,26,27,28,29,30,31,32,33,34,35,36,37,38,39,40,41,42,43,44,45,46,47,48,49,50,51,52,53,54,55,56,57,58,59,60,61,62,63,64,65,66,67,68,69,70,71,72,73,74,75,76,77,78,79,80,81,82,83,84,85,86,87,88,89,90,91,92,93,94,95,96,97,98,99,100,101,102,103,104,105,106,107,108,109,110,111,112,113,114,115,116,117,118,119,120,121,122,123,124,125,126,127,128,129,130,131,132,133,134,135,136,137,138,139,140,141],"tree_info":[0,0,0,0,0,0,0,0,0,0,0,0,0,0,0,0,0,0,0,0,0,0,0,0,0,0,0,0,0,0,0,0,0,0,0,0,0,0,0,0,0,0,0,0,0,0,0,0,0,0,0,0,0,0,0,0,0,0,0,0,0,0,0,0,0,0,0,0,0,0,0,0,0,0,0,0,0,0,0,0,0,0,0,0,0,0,0,0,0,0,0,0,0,0,0,0,0,0,0,0,0,0,0,0,0,0,0,0,0,0,0,0,0,0,0,0,0,0,0,0,0,0,0,0,0,0,0,0,0,0,0,0,0,0,0,0,0,0,0,0,0],"trees":[{"base_weights":[3.360142E-2,9.658003E-1,-1.5939373E0,-1.0060087E-1,1.0802232E0,-1.8453976E0,7.457956E-1,1.2899332E0,7.703784E-1,7.844778E-2,-1.9496433E0,1.261511E0,-8.755548E-1,-3.250479E-2,1.3160285E0,8.191102E-1,-7.6120175E-2,4.0685646E-2,-1.9805254E0,1.4509908E0,-0E0,-8.153353E-2,3.092973E-2,7.773601E-2,5.42329E-2,4.660098E-2,-5.4312482E-2,-3.092973E-2,-1.0781995E-1,1.0697102E-2,9.210985E-2],"categories":[],"categories_nodes":[],"categories_segments":[],"categories_sizes":[],"default_left":[0,0,0,0,0,0,0,0,0,0,0,0,0,0,0,0,0,0,0,0,0,0,0,0,0,0,0,0,0,0,0],"id":0,"left_children":[1,3,5,-1,7,9,11,13,15,-1,17,19,21,-1,23,25,-1,-1,27,29,-1,-1,-1,-1,-1,-1,-1,-1,-1,-1,-1],"loss_changes":[6.1025946E2,8.401587E1,8.7209625E1,0E0,1.5248291E1,4.7549194E1,1.3139409E1,7.773163E0,1.1567181E1,0E0,1.1840118E1,2.7456608E0,4.26048E0,0E0,4.2650146E0,7.922409E0,0E0,0E0,5.340271E-1,2.8350525E0,0E0,0E0,0E0,0E0,0E0,0E0,0E0,0E0,0E0,0E0,0E0],"parents":[2147483647,0,0,1,1,2,2,4,4,5,5,6,6,7,7,8,8,10,10,11,11,12,12,14,14,15,15,18,18,19,19],"right_children":[2,4,6,-1,8,10,12,14,16,-1,18,20,22,-1,24,26,-1,-1,28,30,-1,-1,-1,-1,-1,-1,-1,-1,-1,-1,-1],"split_conditions":[-1.8181604E-1,-1.0678476E-1,9.5352274E-1,-1.0060087E-1,-3.208393E-1,-2.6233917E-1,5.982473E-1,-2.660767E0,5.7619224E0,7.844778E-2,-6.184833E-1,2.6175358E0,1.0384732E0,-3.250479E-2,-7.9991597E-1,9.9398214E-1,-7.6120175E-2,4.0685646E-2,-4.1976413E-1,-5.00545E-1,-0E0,-8.153353E-2,3.092973E-2,7.773601E-2,5.42329E-2,4.660098E-2,-5.4312482E-2,-3.092973E-2,-1.0781995E-1,1.0697102E-2,9.210985E-2],"split_indices":[3,9,15,0,1,11,5,22,19,0,16,13,1,0,13,22,0,0,0,0,0,0,0,0,0,0,0,0,0,0,0],"split_type":[0,0,0,0,0,0,0,0,0,0,0,0,0,0,0,0,0,0,0,0,0,0,0,0,0,0,0,0,0,0,0],"sum_hessian":[4.0075E2,2.55E2,1.4575E2,9.5E0,2.455E2,1.3175E2,1.4E1,1.45E2,1.005E2,3.75E0,1.28E2,1.075E1,3.25E0,1.75E0,1.4325E2,9.875E1,1.75E0,1.25E0,1.2675E2,9.25E0,1.5E0,2.25E0,1E0,1.025E2,4.075E1,9.7E1,1.75E0,1E0,1.2575E2,1.75E0,7.5E0],"tree_param":{"num_deleted":"0","num_feature":"26","num_nodes":"31","size_leaf_vector":"1"}},{"base_weights":[-1.50982365E-2,8.920078E-1,-1.5403824E0,-1.4233042E0,1.0100809E0,-1.7853342E0,7.910152E-1,4.630902E-2,-9.678133E-2,1.221549E0,8.411557E-1,8.484595E-2,-1.8747106E0,1.1956782E0,-3.4999993E-1,2.3231785E-1,1.2786779E0,4.136312E-1,1.0281105E0,-1.0242671E-1,-1.2266239E-2,2.9790813E-1,8.754669E-2,3.8192503E-2,-7.646382E-2,-2.8792422E-2,6.4055406E-2,3.8276673E-3,7.149E-2,3.2745726E-2,-2.6042253E-2,6.620458E-2,3.1276878E-2,-3.3246413E-2,5.6886114E-2],"categories":[],"categories_nodes":[],"categories_segments":[],"categories_sizes":[],"default_left":[0,0,0,0,0,0,0,0,0,0,0,0,0,0,0,0,0,0,0,0,0,0,0,0,0,0,0,0,0,0,0,0,0,0,0],"id":1,"left_children":[1,3,5,7,9,11,13,-1,-1,15,17,-1,19,21,23,25,27,29,31,-1,-1,33,-1,-1,-1,-1,-1,-1,-1,-1,-1,-1,-1,-1,-1],"loss_changes":[5.6422723E2,7.0962814E1,8.789896E1,1.1592291E1,7.930725E0,4.3436707E1,7.2264957E0,0E0,0E0,5.7906036E0,1.06946335E1,0E0,2.7965088E0,3.8459015E0,5.747175E0,5.341662E0,4.7368317E0,7.5606484E0,7.7661514E0,0E0,0E0,3.5430684E0,0E0,0E0,0E0,0E0,0E0,0E0,0E0,0E0,0E0,0E0,0E0,0E0,0E0],"parents":[2147483647,0,0,1,1,2,2,3,3,4,4,5,5,6,6,9,9,10,10,12,12,13,13,14,14,15,15,16,16,17,17,18,18,21,21],"right_children":[2,4,6,8,10,12,14,-1,-1,16,18,-1,20,22,24,26,28,30,32,-1,-1,34,-1,-1,-1,-1,-1,-1,-1,-1,-1,-1,-1,-1,-1],"split_conditions":[-1.8181604E-1,-3.178416E-2,3.9510003E-1,-2.521167E-1,-8.219593E-1,-2.3575927E-1,5.9541714E-1,4.630902E-2,-9.678133E-2,-1.1646392E-2,-5.607008E-1,8.484595E-2,1.3326997E0,-6.229893E-1,-5.7394136E-2,-6.2738724E-2,-1.6265148E0,-3.4543708E-1,1.8931376E0,-1.0242671E-1,-1.2266239E-2,6.221743E-1,8.754669E-2,3.8192503E-2,-7.646382E-2,-2.8792422E-2,6.4055406E-2,3.8276673E-3,7.149E-2,3.2745726E-2,-2.6042253E-2,6.620458E-2,3.1276878E-2,-3.3246413E-2,5.6886114E-2],"split_indices":[3,17,23,17,13,23,6,0,0,8,12,0,13,24,5,2,22,15,15,0,0,23,0,0,0,0,0,0,0,0,0,0,0,0,0],"split_type":[0,0,0,0,0,0,0,0,0,0,0,0,0,0,0,0,0,0,0,0,0,0,0,0,0,0,0,0,0,0,0,0,0,0,0],"sum_hessian":[4.0632547E2,2.5498326E2,1.5134221E2,1.1973318E1,2.4300995E2,1.3711284E2,1.422937E1,1.4988482E0,1.047447E1,1.0585261E2,1.3715733E2,3.2443652E0,1.3386847E2,1.0484162E1,3.7452078E0,5.992153E0,9.986046E1,4.246541E1,9.469193E1,1.326201E2,1.2483706E0,3.7429037E0,6.741259E0,1.9971567E0,1.7480512E0,3.495201E0,2.4969518E0,3.2458897E0,9.661457E1,3.52199E1,7.24551E0,6.545983E1,2.9232096E1,1.7468995E0,1.9960041E0],"tree_param":{"num_deleted":"0","num_feature":"26","num_nodes":"35","size_leaf_vector":"1"}},{"base_weights":[-1.4945432E-2,-1.7831209E0,6.5210634E-1,-1.0691712E-2,-9.758183E-2,8.9946723E-1,-1.1079863E0,-8.0894716E-2,9.359516E-1,1.3767066E0,-1.5735391E0,9.674439E-1,-7.235722E-1,8.826631E-2,1.2308516E-2,-1.7402825E0,2.4176445E-2,6.145148E-2,3.9260253E-2,2.8804436E-2,-7.972733E-2,-3.5322655E-2,-9.6041895E-2],"categories":[],"categories_nodes":[],"categories_segments":[],"categories_sizes":[],"default_left":[0,0,0,0,0,0,0,0,0,0,0,0,0,0,0,0,0,0,0,0,0,0,0],"id":2,"left_children":[1,3,5,-1,-1,7,9,-1,11,13,15,17,19,-1,-1,21,-1,-1,-1,-1,-1,-1,-1],"loss_changes":[4.823523E2,2.6259155E0,1.3001302E2,0E0,0E0,2.3772629E1,4.4298786E1,0E0,1.3964996E1,1.5036688E0,1.1168953E1,9.581345E0,5.462987E0,0E0,0E0,1.0626984E-1,0E0,0E0,0E0,0E0,0E0,0E0,0E0],"parents":[2147483647,0,0,1,1,2,2,5,5,6,6,8,8,9,9,10,10,11,11,12,12,15,15],"right_children":[2,4,6,-1,-1,8,10,-1,12,14,16,18,20,-1,-1,22,-1,-1,-1,-1,-1,-1,-1],"split_conditions":[-1.1860846E-2,-2.650208E-1,5.823812E-3,-1.0691712E-2,-9.758183E-2,-4.4694237E-2,-1.3684078E-1,-8.0894716E-2,-3.4673516E-2,6.949694E-3,4.3882915E-1,-3.1390294E-1,3.44504E-2,8.826631E-2,1.2308516E-2,-2.275338E-1,2.4176445E-2,6.145148E-2,3.9260253E-2,2.8804436E-2,-7.972733E-2,-3.5322655E-2,-9.6041895E-2],"split_indices":[8,2,8,0,0,9,22,0,9,11,23,1,14,0,0,19,0,0,0,0,0,0,0],"split_type":[0,0,0,0,0,0,0,0,0,0,0,0,0,0,0,0,0,0,0,0,0,0,0],"sum_hessian":[4.0748676E2,1.1128412E2,2.9620264E2,1.2401853E0,1.1004393E2,2.6002472E2,3.617793E1,3.4622514E0,2.5656247E2,5.4782095E0,3.0699718E1,2.5209152E2,4.47095E0,4.238466E0,1.239744E0,2.8456509E1,2.2432091E0,1.4835086E2,1.03740654E2,1.7425361E0,2.7284138E0,1.2399904E0,2.7216518E1],"tree_param":{"num_deleted":"0","num_feature":"26","num_nodes":"23","size_leaf_vector":"1"}},{"base_weights":[1.2023887E-2,8.251586E-1,-1.3939751E0,-8.842417E-2,9.3317956E-1,-1.6293403E0,7.4407786E-1,1.1111319E0,6.6156554E-1,6.93564E-2,-1.7143939E0,1.1075735E0,-2.2896585E-1,-4.1816797E-2,1.1410722E0,1.1546885E0,4.817998E-1,-9.370715E-2,-9.929172E-3,2.930467E-1,8.785246E-2,3.555111E-2,-5.719334E-2,7.522432E-2,5.4035824E-2,-4.981518E-3,6.843289E-2,5.1764667E-2,1.4174545E-2,-1.738453E-2,6.657773E-2],"categories":[],"categories_nodes":[],"categories_segments":[],"categories_sizes":[],"default_left":[0,0,0,0,0,0,0,0,0,0,0,0,0,0,0,0,0,0,0,0,0,0,0,0,0,0,0,0,0,0,0],"id":3,"left_children":[1,3,5,-1,7,9,11,13,15,-1,17,19,21,-1,23,25,27,-1,-1,29,-1,-1,-1,-1,-1,-1,-1,-1,-1,-1,-1],"loss_changes":[4.6055447E2,6.88208E1,7.518155E1,0E0,1.1281235E1,3.456949E1,5.549985E0,8.92955E0,8.3330345E0,0E0,2.4572449E0,4.288822E0,3.9612002E0,0E0,4.116028E0,3.5533524E0,7.482931E0,0E0,0E0,3.2894292E0,0E0,0E0,0E0,0E0,0E0,0E0,0E0,0E0,0E0,0E0,0E0],"parents":[2147483647,0,0,1,1,2,2,4,4,5,5,6,6,7,7,8,8,10,10,11,11,12,12,14,14,15,15,16,16,19,19],"right_children":[2,4,6,-1,8,10,12,14,16,-1,18,20,22,-1,24,26,28,-1,-1,30,-1,-1,-1,-1,-1,-1,-1,-1,-1,-1,-1],"split_conditions":[-1.8181604E-1,-1.0678476E-1,3.9510003E-1,-8.842417E-2,-3.1390294E-1,-7.246258E-1,5.9541714E-1,-2.660767E0,-2.2609764E-1,6.93564E-2,8.111848E-1,-5.430561E-1,-5.7394136E-2,-4.1816797E-2,-9.791189E-1,-3.3517952E0,-2.0120212E-1,-9.370715E-2,-9.929172E-3,6.270007E-1,8.785246E-2,3.555111E-2,-5.719334E-2,7.522432E-2,5.4035824E-2,-4.981518E-3,6.843289E-2,5.1764667E-2,1.4174545E-2,-1.738453E-2,6.657773E-2],"split_indices":[3,9,23,0,1,22,6,22,10,0,1,24,5,0,24,20,22,0,0,23,0,0,0,0,0,0,0,0,0,0,0],"split_type":[0,0,0,0,0,0,0,0,0,0,0,0,0,0,0,0,0,0,0,0,0,0,0,0,0,0,0,0,0,0,0],"sum_hessian":[4.0136777E2,2.5449571E2,1.4687204E2,1.0281595E1,2.4421413E2,1.3246904E2,1.4403002E1,1.461499E2,9.806423E1,3.4669855E0,1.2900206E2,1.0418796E1,3.984206E0,1.9978515E0,1.4415204E2,2.5116997E1,7.2947235E1,1.2776374E2,1.2383182E0,4.4780073E0,5.9407883E0,1.9913096E0,1.9928962E0,5.0984997E1,9.3167046E1,1.9914027E0,2.3125593E1,2.2400936E1,5.05463E1,2.9893386E0,1.4886686E0],"tree_param":{"num_deleted":"0","num_feature":"26","num_nodes":"31","size_leaf_vector":"1"}},{"base_weights":[1.3813497E-2,-8.996922E-2,6.0735095E-1,8.136571E-1,-9.785788E-1,-7.839309E-2,8.582606E-1,9.54481E-1,-1.3687055E0,8.9616174E-1,-9.426168E-1,5.2059754E-3,6.898999E-2,-1.5416999E0,6.572073E-2,5.7587393E-2,3.597298E-2,1.7553559E-2,-7.893584E-2,1.4054809E-2,-8.863909E-2],"categories":[],"categories_nodes":[],"categories_segments":[],"categories_sizes":[],"default_left":[0,0,0,0,0,0,0,0,0,0,0,0,0,0,0,0,0,0,0,0,0],"id":4,"left_children":[1,-1,3,5,7,-1,9,11,13,15,17,-1,-1,19,-1,-1,-1,-1,-1,-1,-1],"loss_changes":[3.9547354E2,0E0,9.67724E1,2.7164474E1,2.6735035E1,0E0,1.8093277E1,1.5795331E0,1.4209423E1,9.155136E0,4.0153008E0,0E0,0E0,4.8843307E0,0E0,0E0,0E0,0E0,0E0,0E0,0E0],"parents":[2147483647,0,0,2,2,3,3,4,4,6,6,7,7,8,8,9,9,10,10,13,13],"right_children":[2,-1,4,6,8,-1,10,12,14,16,18,-1,-1,20,-1,-1,-1,-1,-1,-1,-1],"split_conditions":[-1.6090127E-2,-8.996922E-2,7.0739347E-3,-4.4694237E-2,-1.500613E-1,-7.839309E-2,-3.4673516E-2,-3.1420484E-1,1.2357894E0,-3.1390294E-1,3.44504E-2,5.2059754E-3,6.898999E-2,-4.8145217E-1,6.572073E-2,5.7587393E-2,3.597298E-2,1.7553559E-2,-7.893584E-2,1.4054809E-2,-8.863909E-2],"split_indices":[8,0,8,9,11,0,9,18,2,1,14,0,0,12,0,0,0,0,0,0,0],"split_type":[0,0,0,0,0,0,0,0,0,0,0,0,0,0,0,0,0,0,0,0,0],"sum_hessian":[3.968133E2,1.0356698E2,2.9324634E2,2.5981314E2,3.343318E1,4.5779395E0,2.552352E2,5.4313207E0,2.8001862E1,2.5034186E2,4.8933477E0,1.7343905E0,3.6969304E0,2.6524048E1,1.4778132E0,1.4465627E2,1.0568559E2,1.4838963E0,3.4094512E0,1.2310264E0,2.5293022E1],"tree_param":{"num_deleted":"0","num_feature":"26","num_nodes":"21","size_leaf_vector":"1"}},{"base_weights":[5.683752E-3,7.34904E-1,-1.2883865E0,-8.182115E-2,8.2700336E-1,-1.5120002E0,5.811368E-1,-3.1897628E-1,8.519244E-1,7.6580174E-2,-1.6008738E0,8.970471E-1,-1.8823715E-1,3.2555234E-1,-7.784538E-2,1.2111869E0,7.690451E-1,-3.1161062E-2,-8.7164804E-2,1.2048906E-1,1.2290854E0,3.8553987E-2,-5.680648E-2,-4.6537884E-2,5.623412E-2,7.0664674E-2,-1.3680161E-2,1.5462713E-2,4.8954938E-2,-4.9145557E-2,5.0895393E-2,7.535962E-2,1.8743064E-2],"categories":[],"categories_nodes":[],"categories_segments":[],"categories_sizes":[],"default_left":[0,0,0,0,0,0,0,0,0,0,0,0,0,0,0,0,0,0,0,0,0,0,0,0,0,0,0,0,0,0,0,0,0],"id":5,"left_children":[1,3,5,-1,7,9,11,13,15,-1,17,19,21,23,-1,25,27,-1,-1,29,31,-1,-1,-1,-1,-1,-1,-1,-1,-1,-1,-1,-1],"loss_changes":[3.724632E2,5.3080765E1,6.012526E1,0E0,7.1443634E0,3.4741272E1,3.953064E0,4.4562473E0,6.382019E0,0E0,1.2615967E-1,2.7876692E0,4.5523663E0,4.2015305E0,0E0,6.078617E0,1.2445213E1,0E0,0E0,4.158862E0,7.386322E-1,0E0,0E0,0E0,0E0,0E0,0E0,0E0,0E0,0E0,0E0,0E0,0E0],"parents":[2147483647,0,0,1,1,2,2,4,4,5,5,6,6,7,7,8,8,10,10,11,11,12,12,13,13,15,15,16,16,19,19,20,20],"right_children":[2,4,6,-1,8,10,12,14,16,-1,18,20,22,24,-1,26,28,-1,-1,30,32,-1,-1,-1,-1,-1,-1,-1,-1,-1,-1,-1,-1],"split_conditions":[-1.8181604E-1,-2.8309625E-1,3.708571E-1,-8.182115E-2,-3.4411564E0,-2.3575927E-1,5.9541714E-1,-3.962038E-2,-1.3677607E-1,7.6580174E-2,-2.1300064E-1,-3.84936E-1,-5.7394136E-2,-2.2485189E-1,-7.784538E-2,-5.5033088E-2,-1.3657732E-1,-3.1161062E-2,-8.7164804E-2,6.221743E-1,-1.3567373E-1,3.8553987E-2,-5.680648E-2,-4.6537884E-2,5.623412E-2,7.0664674E-2,-1.3680161E-2,1.5462713E-2,4.8954938E-2,-4.9145557E-2,5.0895393E-2,7.535962E-2,1.8743064E-2],"split_indices":[3,4,23,0,20,23,6,9,5,0,10,25,5,10,0,2,5,0,0,23,6,0,0,0,0,0,0,0,0,0,0,0,0],"split_type":[0,0,0,0,0,0,0,0,0,0,0,0,0,0,0,0,0,0,0,0,0,0,0,0,0,0,0,0,0,0,0,0,0],"sum_hessian":[3.9322952E2,2.5171274E2,1.4151677E2,9.473871E0,2.4223888E2,1.26528625E2,1.4988142E1,4.962633E0,2.3727625E2,3.4054239E0,1.231232E2,1.0547392E1,4.4407506E0,3.4718626E0,1.4907707E0,4.2576057E1,1.9470018E2,1.1995418E0,1.2192366E2,3.4683208E0,7.0790706E0,2.2267675E0,2.213983E0,1.2412797E0,2.2305827E0,4.0141922E1,2.4341369E0,4.2668846E1,1.5203134E2,1.4976051E0,1.9707158E0,5.6238804E0,1.4551904E0],"tree_param":{"num_deleted":"0","num_feature":"26","num_nodes":"33","size_leaf_vector":"1"}},{"base_weights":[1.6719364E-2,7.449164E-1,-1.2483995E0,-7.93711E-2,8.381646E-1,-1.4750074E0,6.524587E-1,1.0789577E0,6.595043E-1,7.155401E-2,-1.5424687E0,8.8968647E-1,-4.8036903E-2,1.1402513E0,1.5881893E-1,1.0262171E0,5.2188176E-1,-6.5824953E-3,-8.435454E-2,1.3583197E-1,1.261199E0,9.5862313E-4,6.41448E-2,-3.1184684E-2,5.8159564E-2,6.37983E-2,2.9190889E-2,-3.9174017E-2,3.1489912E-2,3.8871337E-2,-5.0658166E-2,7.473284E-2,3.2689463E-2],"categories":[],"categories_nodes":[],"categories_segments":[],"categories_sizes":[],"default_left":[0,0,0,0,0,0,0,0,0,0,0,0,0,0,0,0,0,0,0,0,0,0,0,0,0,0,0,0,0,0,0,0,0],"id":6,"left_children":[1,3,5,-1,7,9,11,13,15,-1,17,19,-1,21,23,25,27,-1,-1,29,31,-1,-1,-1,-1,-1,-1,-1,-1,-1,-1,-1,-1],"loss_changes":[3.5788745E2,5.1675125E1,6.1848373E1,0E0,9.656891E0,2.544986E1,6.2817764E0,5.481949E0,6.555088E0,0E0,2.1586304E0,3.7558193E0,0E0,4.443451E0,5.2180877E0,2.2208366E0,7.761715E0,0E0,0E0,3.8639872E0,7.900143E-2,0E0,0E0,0E0,0E0,0E0,0E0,0E0,0E0,0E0,0E0,0E0,0E0],"parents":[2147483647,0,0,1,1,2,2,4,4,5,5,6,6,7,7,8,8,10,10,11,11,13,13,14,14,15,15,16,16,19,19,20,20],"right_children":[2,4,6,-1,8,10,12,14,16,-1,18,20,-1,22,24,26,28,-1,-1,30,32,-1,-1,-1,-1,-1,-1,-1,-1,-1,-1,-1,-1],"split_conditions":[-1.8181604E-1,-1.0678476E-1,3.9510003E-1,-7.93711E-2,-8.2402045E-1,-7.246258E-1,2.6175358E0,1.2401409E0,-3.148126E-1,7.155401E-2,-5.258431E-1,-5.430561E-1,-4.8036903E-2,-1.6265148E0,1.699132E0,1.6891934E0,-3.1400543E-1,-6.5824953E-3,-8.435454E-2,-1.7784564E-1,5.9541714E-1,9.5862313E-4,6.41448E-2,-3.1184684E-2,5.8159564E-2,6.37983E-2,2.9190889E-2,-3.9174017E-2,3.1489912E-2,3.8871337E-2,-5.0658166E-2,7.473284E-2,3.2689463E-2],"split_indices":[3,9,23,0,13,22,13,25,11,0,16,24,0,22,24,13,11,0,0,19,6,0,0,0,0,0,0,0,0,0,0,0,0],"split_type":[0,0,0,0,0,0,0,0,0,0,0,0,0,0,0,0,0,0,0,0,0,0,0,0,0,0,0,0,0,0,0,0,0],"sum_hessian":[3.8700278E2,2.4582014E2,1.4118262E2,9.5156355E0,2.363045E2,1.2629641E2,1.4886214E1,9.9046936E1,1.3725757E2,2.6514304E0,1.2364498E2,1.3171701E1,1.7145132E0,9.2686264E1,6.3606725E0,3.6138027E1,1.0111954E2,1.2041745E0,1.224408E2,4.688836E0,8.482865E0,3.4368713E0,8.92494E1,3.673047E0,2.6876254E0,2.6819199E1,9.3188305E0,4.18161E0,9.693793E1,3.202161E0,1.4866748E0,6.507451E0,1.9754143E0],"tree_param":{"num_deleted":"0","num_feature":"26","num_nodes":"33","size_leaf_vector":"1"}},{"base_weights":[1.4659827E-2,6.596876E-1,-1.1799954E0,-1.3764836E0,7.4937505E-1,-1.409951E0,7.1298665E-1,-7.800138E-2,-2.8054846E-2,9.2565423E-1,4.9907547E-1,6.322897E-2,-1.501819E0,8.973666E-1,-2.7029965E-2,-4.525323E-2,9.557437E-1,1.0173062E0,3.1402963E-1,-8.185618E-2,-2.399214E-2,8.475265E-2,1.231661E0,6.540866E-2,4.4151153E-2,7.886647E-2,2.943648E-2,4.202238E-2,5.874121E-3,-3.9116226E-2,4.7957573E-2,3.3170845E-2,7.968102E-2],"categories":[],"categories_nodes":[],"categories_segments":[],"categories_sizes":[],"default_left":[0,0,0,0,0,0,0,0,0,0,0,0,0,0,0,0,0,0,0,0,0,0,0,0,0,0,0,0,0,0,0,0,0],"id":7,"left_children":[1,3,5,7,9,11,13,-1,-1,15,17,-1,19,21,-1,-1,23,25,27,-1,-1,29,31,-1,-1,-1,-1,-1,-1,-1,-1,-1,-1],"loss_changes":[2.949629E2,4.614698E1,5.91687E1,4.705429E-3,1.017215E1,2.9672653E1,3.6887226E0,0E0,0E0,7.955429E0,9.361235E0,0E0,4.3276978E-1,3.5257072E0,0E0,0E0,4.1182785E0,4.79591E0,7.0326066E0,0E0,0E0,3.4868526E0,6.98514E-1,0E0,0E0,0E0,0E0,0E0,0E0,0E0,0E0,0E0,0E0],"parents":[2147483647,0,0,1,1,2,2,3,3,4,4,5,5,6,6,9,9,10,10,12,12,13,13,16,16,17,17,18,18,21,21,22,22],"right_children":[2,4,6,8,10,12,14,-1,-1,16,18,-1,20,22,-1,-1,24,26,28,-1,-1,30,32,-1,-1,-1,-1,-1,-1,-1,-1,-1,-1],"split_conditions":[-1.8181604E-1,-2.5149935E-1,3.9510003E-1,-2.818382E-1,-3.1390294E-1,-7.246258E-1,2.6175358E0,-7.800138E-2,-2.8054846E-2,-2.660767E0,-2.2609764E-1,6.322897E-2,3.022135E-1,-6.229893E-1,-2.7029965E-2,-4.525323E-2,-9.9081165E-1,1.6891934E0,-2.0120212E-1,-8.185618E-2,-2.399214E-2,6.221743E-1,-1.6449761E-1,6.540866E-2,4.4151153E-2,7.886647E-2,2.943648E-2,4.202238E-2,5.874121E-3,-3.9116226E-2,4.7957573E-2,3.3170845E-2,7.968102E-2],"split_indices":[3,4,23,12,1,22,13,0,0,22,10,0,22,24,0,0,24,13,22,0,0,23,4,0,0,0,0,0,0,0,0,0,0],"split_type":[0,0,0,0,0,0,0,0,0,0,0,0,0,0,0,0,0,0,0,0,0,0,0,0,0,0,0,0,0,0,0,0,0],"sum_hessian":[3.813031E2,2.4783038E2,1.3347273E2,1.0005324E1,2.3782506E2,1.1918711E2,1.4285625E1,8.859133E0,1.1461912E0,1.383579E2,9.9467155E1,3.8041651E0,1.1538294E2,1.25711155E1,1.7145102E0,1.9891552E0,1.3636874E2,2.5286531E1,7.418062E1,1.1423421E2,1.1487343E0,3.9415698E0,8.629546E0,4.722222E1,8.914652E1,1.2360138E1,1.29263935E1,2.224822E1,5.19324E1,1.9928622E0,1.9487077E0,3.132345E0,5.497201E0],"tree_param":{"num_deleted":"0","num_feature":"26","num_nodes":"33","size_leaf_vector":"1"}},{"base_weights":[-1.60557E-2,6.265866E-1,-1.1742669E0,-7.537098E-2,7.1483845E-1,-1.3751051E0,5.860788E-1,8.6919767E-1,4.8877603E-1,6.949404E-2,-1.4509056E0,8.264239E-1,-4.5457575E-2,-4.3374177E-2,8.9800096E-1,5.3727204E-1,-1.0397528E0,-7.9701446E-2,3.01906E-3,2.3812482E-2,1.249379E0,5.297952E-2,2.8051777E-2,3.1514302E-2,-5.1695466E-2,-7.3005915E-2,-1.8507665E-2,-5.214857E-2,4.016961E-2,7.60903E-2,2.9407622E-2],"categories":[],"categories_nodes":[],"categories_segments":[],"categories_sizes":[],"default_left":[0,0,0,0,0,0,0,0,0,0,0,0,0,0,0,0,0,0,0,0,0,0,0,0,0,0,0,0,0,0,0],"id":8,"left_children":[1,3,5,-1,7,9,11,13,15,-1,17,19,-1,-1,21,23,25,-1,-1,27,29,-1,-1,-1,-1,-1,-1,-1,-1,-1,-1],"loss_changes":[2.8262448E2,4.4184914E1,4.8506653E1,0E0,7.85569E0,2.5908463E1,5.4356627E0,7.181389E0,7.5854836E0,0E0,3.4473267E0,4.272911E0,0E0,0E0,3.7136536E0,6.5753098E0,3.355744E-1,0E0,0E0,4.1521883E0,3.220806E-1,0E0,0E0,0E0,0E0,0E0,0E0,0E0,0E0,0E0,0E0],"parents":[2147483647,0,0,1,1,2,2,4,4,5,5,6,6,7,7,8,8,10,10,11,11,14,14,15,15,16,16,19,19,20,20],"right_children":[2,4,6,-1,8,10,12,14,16,-1,18,20,-1,-1,22,24,26,-1,-1,28,30,-1,-1,-1,-1,-1,-1,-1,-1,-1,-1],"split_conditions":[-1.8181604E-1,-1.0678476E-1,3.9510003E-1,-7.537098E-2,-3.1390294E-1,-2.3575927E-1,2.6175358E0,-2.660767E0,9.9398214E-1,6.949404E-2,3.6885867E-1,-5.430561E-1,-4.5457575E-2,-4.3374177E-2,3.261571E-1,4.5927052E0,-7.268123E-2,-7.9701446E-2,3.01906E-3,6.221743E-1,5.9541714E-1,5.297952E-2,2.8051777E-2,3.1514302E-2,-5.1695466E-2,-7.3005915E-2,-1.8507665E-2,-5.214857E-2,4.016961E-2,7.60903E-2,2.9407622E-2],"split_indices":[3,9,23,0,1,23,13,22,22,0,3,24,0,0,21,19,2,0,0,23,6,0,0,0,0,0,0,0,0,0,0],"split_type":[0,0,0,0,0,0,0,0,0,0,0,0,0,0,0,0,0,0,0,0,0,0,0,0,0,0,0,0,0,0,0],"sum_hessian":[3.7823874E2,2.4347481E2,1.3476392E2,9.748871E0,2.3372594E2,1.2111274E2,1.3651182E1,1.3761945E2,9.610649E1,3.0312746E0,1.1808146E2,1.1950534E1,1.7006481E0,1.9945394E0,1.3562491E2,9.3620094E1,2.4863918E0,1.1664659E2,1.4348714E0,4.400517E0,7.550017E0,1.113468E2,2.4278109E1,9.138599E1,2.2341082E0,1.2437472E0,1.2426445E0,1.7417501E0,2.6587667E0,5.594669E0,1.9553481E0],"tree_param":{"num_deleted":"0","num_feature":"26","num_nodes":"31","size_leaf_vector":"1"}},{"base_weights":[2.5002197E-3,-7.748509E-2,4.7168237E-1,6.099454E-1,-9.9242765E-1,-9.6472186E-1,6.721217E-1,-1.342246E0,9.8560685E-1,3.948846E-2,-7.429525E-2,7.265105E-1,8.720734E-2,-6.132068E-3,-7.6289564E-2,6.963685E-2,7.911187E-3,5.7121627E-2,3.5265546E-2,-3.4423057E-2,3.3245564E-2],"categories":[],"categories_nodes":[],"categories_segments":[],"categories_sizes":[],"default_left":[0,0,0,0,0,0,0,0,0,0,0,0,0,0,0,0,0,0,0,0,0],"id":9,"left_children":[1,-1,3,5,7,9,11,13,15,-1,-1,17,19,-1,-1,-1,-1,-1,-1,-1,-1],"loss_changes":[2.4800867E2,0E0,5.6746647E1,2.540213E1,1.7774445E1,7.580947E0,7.751549E0,1.5310059E0,8.6838627E-1,0E0,0E0,5.066864E0,8.535541E0,0E0,0E0,0E0,0E0,0E0,0E0,0E0,0E0],"parents":[2147483647,0,0,2,2,3,3,4,4,5,5,6,6,7,7,8,8,11,11,12,12],"right_children":[2,-1,4,6,8,10,12,14,16,-1,-1,18,20,-1,-1,-1,-1,-1,-1,-1,-1],"split_conditions":[-1.6090127E-2,-7.748509E-2,2.0441392E-2,-2.0596318E-2,1.383093E0,-2.521167E-1,-1.7725294E-2,-7.482367E-2,-3.2063425E-2,3.948846E-2,-7.429525E-2,-1.3677607E-1,2.278235E-1,-6.132068E-3,-7.6289564E-2,6.963685E-2,7.911187E-3,5.7121627E-2,3.5265546E-2,-3.4423057E-2,3.3245564E-2],"split_indices":[8,0,8,17,15,17,5,22,18,0,0,5,21,0,0,0,0,0,0,0,0],"split_type":[0,0,0,0,0,0,0,0,0,0,0,0,0,0,0,0,0,0,0,0,0],"sum_hessian":[3.6782983E2,9.0427284E1,2.7740253E2,2.5386505E2,2.3537483E1,9.231213E0,2.4463383E2,2.0205648E1,3.3318338E0,1.6654E0,7.565812E0,2.2364357E2,2.0990265E1,1.1172178E0,1.908843E1,2.1620057E0,1.1698284E0,4.046674E1,1.8317683E2,8.773694E0,1.221657E1],"tree_param":{"num_deleted":"0","num_feature":"26","num_nodes":"21","size_leaf_vector":"1"}},{"base_weights":[-3.1169659E-2,5.443259E-1,-1.1137605E0,-7.112718E-2,6.169835E-1,-1.3205453E0,5.03351E-1,7.7277553E-1,3.9523825E-1,6.669392E-2,-1.396609E0,-2.346144E-1,8.452078E-1,1.0570483E0,6.201199E-1,8.536224E-1,2.289745E-1,-7.606491E-2,-2.5932819E-2,-8.468515E-1,4.203552E-2,7.207265E-2,2.6742625E-1,7.991186E-2,4.4314932E-2,3.7334632E-2,-6.616278E-3,5.257814E-2,-4.878163E-2,1.5268804E-2,-6.458306E-2,-7.01922E-2,-5.819361E-3,3.563385E-2,-2.62316E-2],"categories":[],"categories_nodes":[],"categories_segments":[],"categories_sizes":[],"default_left":[0,0,0,0,0,0,0,0,0,0,0,0,0,0,0,0,0,0,0,0,0,0,0,0,0,0,0,0,0,0,0,0,0,0,0],"id":10,"left_children":[1,3,5,-1,7,9,11,13,15,-1,17,19,21,23,25,27,29,-1,-1,31,-1,-1,33,-1,-1,-1,-1,-1,-1,-1,-1,-1,-1,-1,-1],"loss_changes":[2.301688E2,3.3118866E1,4.337384E1,0E0,7.8009033E0,2.3361496E1,3.9525108E0,5.3964233E0,7.2791195E0,0E0,1.07803345E-1,3.7838771E0,2.6486192E0,3.7268867E0,4.6424866E0,5.8628674E0,5.6597342E0,0E0,0E0,1.1025696E0,0E0,0E0,1.9044459E0,0E0,0E0,0E0,0E0,0E0,0E0,0E0,0E0,0E0,0E0,0E0,0E0],"parents":[2147483647,0,0,1,1,2,2,4,4,5,5,6,6,7,7,8,8,10,10,11,11,12,12,13,13,14,14,15,15,16,16,19,19,22,22],"right_children":[2,4,6,-1,8,10,12,14,16,-1,18,20,22,24,26,28,30,-1,-1,32,-1,-1,34,-1,-1,-1,-1,-1,-1,-1,-1,-1,-1,-1,-1],"split_conditions":[-1.8181604E-1,-2.8309625E-1,3.708571E-1,-7.112718E-2,-3.1390294E-1,-2.3575927E-1,-5.015199E-1,-9.9081165E-1,-2.2609764E-1,6.669392E-2,7.620961E-1,6.270007E-1,-1.8170437E-1,-5.5847573E-1,-5.412844E-2,3.9908395E0,9.9398214E-1,-7.606491E-2,-2.5932819E-2,-1.5037519E-1,4.203552E-2,7.207265E-2,-1.7725294E-2,7.991186E-2,4.4314932E-2,3.7334632E-2,-6.616278E-3,5.257814E-2,-4.878163E-2,1.5268804E-2,-6.458306E-2,-7.01922E-2,-5.819361E-3,3.563385E-2,-2.62316E-2],"split_indices":[3,4,23,0,1,23,24,24,10,0,24,23,12,0,2,12,22,0,0,10,0,0,5,0,0,0,0,0,0,0,0,0,0,0,0],"split_type":[0,0,0,0,0,0,0,0,0,0,0,0,0,0,0,0,0,0,0,0,0,0,0,0,0,0,0,0,0,0,0,0,0,0,0],"sum_hessian":[3.6797464E2,2.4048987E2,1.2748476E2,8.581915E0,2.3190796E2,1.13156105E2,1.432865E1,1.3511008E2,9.6797874E1,2.9498034E0,1.102063E2,4.600633E0,9.728018E0,4.5658794E1,8.945129E1,2.4939108E1,7.1858765E1,1.09085045E2,1.1212583E0,2.9439428E0,1.6566901E0,4.7640786E0,4.963939E0,1.528396E1,3.0374832E1,8.196731E1,7.4839816E0,2.3705858E1,1.2332504E0,6.986815E1,1.9906192E0,1.4817435E0,1.4621994E0,3.3373964E0,1.6265426E0],"tree_param":{"num_deleted":"0","num_feature":"26","num_nodes":"35","size_leaf_vector":"1"}},{"base_weights":[-1.3792152E-3,5.7445866E-1,-1.0942495E0,-6.909285E-2,6.4078575E-1,-1.290416E0,5.205411E-1,6.6013706E-1,-6.187532E-2,6.386933E-2,-1.3588185E0,-5.065142E-2,8.481273E-1,7.6439595E-1,4.3131113E-1,-7.445064E-2,-1.1950923E-3,4.4806835E-1,-6.498895E-2,1.0742238E0,-2.0738697E-2,-3.3489097E-2,4.2707797E-2,7.0566367E-3,4.2734753E-2,5.6775093E-2,-3.0875024E-3,6.765705E-2,2.0192673E-3],"categories":[],"categories_nodes":[],"categories_segments":[],"categories_sizes":[],"default_left":[0,0,0,0,0,0,0,0,0,0,0,0,0,0,0,0,0,0,0,0,0,0,0,0,0,0,0,0,0],"id":11,"left_children":[1,3,5,-1,7,9,11,13,-1,-1,15,17,19,21,23,-1,-1,25,-1,27,-1,-1,-1,-1,-1,-1,-1,-1,-1],"loss_changes":[2.2809349E2,2.9698853E1,4.012207E1,0E0,8.468269E0,2.0046661E1,2.6715581E0,5.176689E0,0E0,0E0,2.0211182E0,3.729683E0,2.811173E0,5.3352203E0,7.75644E0,0E0,0E0,1.4391422E0,0E0,1.3557262E0,0E0,0E0,0E0,0E0,0E0,0E0,0E0,0E0,0E0],"parents":[2147483647,0,0,1,1,2,2,4,4,5,5,6,6,7,7,10,10,11,11,12,12,13,13,14,14,17,17,19,19],"right_children":[2,4,6,-1,8,10,12,14,-1,-1,16,18,20,22,24,-1,-1,26,-1,28,-1,-1,-1,-1,-1,-1,-1,-1,-1],"split_conditions":[-1.8181604E-1,-2.8309625E-1,3.9510003E-1,-6.909285E-2,5.7619224E0,-2.3575927E-1,-5.015199E-1,-2.0376712E-1,-6.187532E-2,6.386933E-2,1.3326997E0,-1.2456221E-1,1.9762377E0,-2.660767E0,-3.9599244E-2,-7.445064E-2,-1.1950923E-3,-1.2877776E-1,-6.498895E-2,8.0103165E-1,-2.0738697E-2,-3.3489097E-2,4.2707797E-2,7.0566367E-3,4.2734753E-2,5.6775093E-2,-3.0875024E-3,6.765705E-2,2.0192673E-3],"split_indices":[3,4,23,0,19,23,24,1,0,0,13,19,15,22,9,0,0,4,0,18,0,0,0,0,0,0,0,0,0],"split_type":[0,0,0,0,0,0,0,0,0,0,0,0,0,0,0,0,0,0,0,0,0,0,0,0,0,0,0,0,0],"sum_hessian":[3.6096637E2,2.3662724E2,1.2433911E2,7.7265444E0,2.289007E2,1.1100764E2,1.333148E1,2.2690546E2,1.9952527E0,2.6675346E0,1.083401E2,5.0754757E0,8.256004E0,1.5466887E2,7.223659E1,1.0718219E2,1.1579125E0,3.8454337E0,1.230042E0,7.060113E0,1.195891E0,2.2316875E0,1.5243718E2,3.972826E1,3.2508324E1,1.4060984E0,2.4393353E0,5.9125414E0,1.1475717E0],"tree_param":{"num_deleted":"0","num_feature":"26","num_nodes":"29","size_leaf_vector":"1"}},{"base_weights":[2.4262213E-3,-7.259667E-2,4.0984675E-1,5.2929246E-1,-9.413692E-1,-8.453751E-1,5.827339E-1,-1.2590369E0,8.844278E-1,3.202118E-2,-6.98522E-2,6.0193586E-1,-5.6521177E-2,-2.766151E-3,-7.199976E-2,6.406381E-2,7.1337335E-3,5.2454896E-2,2.8519224E-2],"categories":[],"categories_nodes":[],"categories_segments":[],"categories_sizes":[],"default_left":[0,0,0,0,0,0,0,0,0,0,0,0,0,0,0,0,0,0,0],"id":12,"left_children":[1,-1,3,5,7,9,11,13,15,-1,-1,17,-1,-1,-1,-1,-1,-1,-1],"loss_changes":[1.9512459E2,0E0,4.4571194E1,1.8883698E1,1.3876806E1,6.7521424E0,8.045059E0,1.5533428E0,7.145035E-1,0E0,0E0,6.298958E0,0E0,0E0,0E0,0E0,0E0,0E0,0E0],"parents":[2147483647,0,0,2,2,3,3,4,4,5,5,6,6,7,7,8,8,11,11],"right_children":[2,-1,4,6,8,10,12,14,16,-1,-1,18,-1,-1,-1,-1,-1,-1,-1],"split_conditions":[-1.6090127E-2,-7.259667E-2,2.4209734E-2,-2.0596318E-2,1.7803396E0,-2.521167E-1,-3.0036585E-3,-7.482367E-2,-3.2063425E-2,3.202118E-2,-6.98522E-2,-1.3677607E-1,-5.6521177E-2,-2.766151E-3,-7.199976E-2,6.406381E-2,7.1337335E-3,5.2454896E-2,2.8519224E-2],"split_indices":[8,0,8,17,15,17,9,22,18,0,0,5,0,0,0,0,0,0,0],"split_type":[0,0,0,0,0,0,0,0,0,0,0,0,0,0,0,0,0,0,0],"sum_hessian":[3.5563843E2,8.246621E1,2.731722E2,2.5140358E2,2.1768646E1,8.992681E0,2.424109E2,1.8741669E1,3.0269768E0,2.0564E0,6.9362807E0,2.4004405E2,2.3668423E0,1.0848343E0,1.7656834E1,1.8610665E0,1.1659105E0,3.983392E1,2.0021013E2],"tree_param":{"num_deleted":"0","num_feature":"26","num_nodes":"19","size_leaf_vector":"1"}},{"base_weights":[1.0591267E-2,-7.127436E-2,4.1030195E-1,5.227526E-1,-9.052104E-1,-8.859733E-1,5.772011E-1,-1.2557757E0,7.345692E-1,2.6568776E-2,-6.844126E-2,5.9592086E-1,-5.512951E-2,-1.9780759E-2,-7.009094E-2,5.32163E-3,5.183419E-2,3.378353E-2,-2.4711724E-2],"categories":[],"categories_nodes":[],"categories_segments":[],"categories_sizes":[],"default_left":[0,0,0,0,0,0,0,0,0,0,0,0,0,0,0,0,0,0,0],"id":13,"left_children":[1,-1,3,5,7,9,11,13,15,-1,-1,17,-1,-1,-1,-1,-1,-1,-1],"loss_changes":[1.8440532E2,0E0,3.991695E1,1.9312729E1,1.2945278E1,5.3650575E0,7.548538E0,2.2144699E-1,5.14776E-1,0E0,0E0,6.9260864E0,0E0,0E0,0E0,0E0,0E0,0E0,0E0],"parents":[2147483647,0,0,2,2,3,3,4,4,5,5,6,6,7,7,8,8,11,11],"right_children":[2,-1,4,6,8,10,12,14,16,-1,-1,18,-1,-1,-1,-1,-1,-1,-1],"split_conditions":[-1.6090127E-2,-7.127436E-2,2.4209734E-2,-2.0596318E-2,1.383093E0,-2.521167E-1,-3.0036585E-3,-2.3504892E-1,-5.809115E-1,2.6568776E-2,-6.844126E-2,1.9767461E0,-5.512951E-2,-1.9780759E-2,-7.009094E-2,5.32163E-3,5.183419E-2,3.378353E-2,-2.4711724E-2],"split_indices":[8,0,8,17,15,17,9,24,24,0,0,15,0,0,0,0,0,0,0],"split_type":[0,0,0,0,0,0,0,0,0,0,0,0,0,0,0,0,0,0,0],"sum_hessian":[3.467312E2,7.996332E1,2.6676788E2,2.4617577E2,2.0592104E1,8.735735E0,2.3744003E2,1.7112041E1,3.4800622E0,1.8221338E0,6.9136014E0,2.3514539E2,2.2946508E0,1.0068941E0,1.6105146E1,1.1832294E0,2.2968328E0,2.2954552E2,5.5998735E0],"tree_param":{"num_deleted":"0","num_feature":"26","num_nodes":"19","size_leaf_vector":"1"}},{"base_weights":[-2.2066724E-2,4.6299505E-1,-1.0249285E0,-6.549077E-2,5.257811E-1,-1.2187612E0,3.979336E-1,7.538396E-1,3.5401815E-1,-1.2713505E0,5.6828924E-2,1.001441E0,-2.8548837E-1,1.3054343E0,6.104658E-1,-6.9797947E-3,5.1693517E-1,-7.061522E-2,1.9568877E-2,-0E0,6.415253E-2,4.3249078E-2,-8.197132E-1,7.605654E-2,7.230416E-3,3.9034586E-2,-1.0013497E-2,4.0162273E-2,-1.9552238E-2,-3.715615E-2,3.1683918E-2,-5.9863754E-2,-2.5644526E-3],"categories":[],"categories_nodes":[],"categories_segments":[],"categories_sizes":[],"default_left":[0,0,0,0,0,0,0,0,0,0,0,0,0,0,0,0,0,0,0,0,0,0,0,0,0,0,0,0,0,0,0,0,0],"id":14,"left_children":[1,3,5,-1,7,9,11,13,15,17,-1,19,21,23,25,27,29,-1,-1,-1,-1,-1,31,-1,-1,-1,-1,-1,-1,-1,-1,-1,-1],"loss_changes":[1.6796999E2,2.4874832E1,3.1410004E1,0E0,8.599907E0,1.281543E1,6.0103836E0,6.9797974E0,7.6328754E0,5.2558136E0,0E0,1.3833985E0,4.620063E0,2.0244827E0,6.8438053E0,1.1037827E1,7.5280533E0,0E0,0E0,0E0,0E0,0E0,1.0831976E0,0E0,0E0,0E0,0E0,0E0,0E0,0E0,0E0,0E0,0E0],"parents":[2147483647,0,0,1,1,2,2,4,4,5,5,6,6,7,7,8,8,9,9,11,11,12,12,13,13,14,14,15,15,16,16,22,22],"right_children":[2,4,6,-1,8,10,12,14,16,18,-1,20,22,24,26,28,30,-1,-1,-1,-1,-1,32,-1,-1,-1,-1,-1,-1,-1,-1,-1,-1],"split_conditions":[-1.8181604E-1,-2.8309625E-1,9.5352274E-1,-6.549077E-2,-8.219593E-1,2.4741393E-1,-3.4673516E-2,-5.5847573E-1,-5.607008E-1,6.114646E-1,5.6828924E-2,-5.430561E-1,1.0314445E0,9.546483E-1,-9.8336056E-2,-1.954629E-1,-3.4411564E0,-7.061522E-2,1.9568877E-2,-0E0,6.415253E-2,4.3249078E-2,1.32341E0,7.605654E-2,7.230416E-3,3.9034586E-2,-1.0013497E-2,4.0162273E-2,-1.9552238E-2,-3.715615E-2,3.1683918E-2,-5.9863754E-2,-2.5644526E-3],"split_indices":[3,4,15,0,13,16,9,0,12,23,0,24,13,19,19,4,20,0,0,0,0,0,0,0,0,0,0,0,0,0,0,0,0],"split_type":[0,0,0,0,0,0,0,0,0,0,0,0,0,0,0,0,0,0,0,0,0,0,0,0,0,0,0,0,0,0,0,0,0],"sum_hessian":[3.4383142E2,2.3200359E2,1.11827835E2,7.9111023E0,2.2409248E2,9.8519165E1,1.3308672E1,9.517379E1,1.2891869E2,9.660552E1,1.9136431E0,6.8928833E0,6.4157887E0,1.8389214E1,7.678458E1,4.0289814E1,8.8628876E1,9.496565E1,1.6398662E0,1.1738515E0,5.719032E0,1.9935124E0,4.4222765E0,1.6841099E1,1.5481163E0,6.757243E1,9.212137E0,1.2669136E1,2.7620676E1,4.3353624E0,8.429352E1,2.9926798E0,1.4295967E0],"tree_param":{"num_deleted":"0","num_feature":"26","num_nodes":"33","size_leaf_vector":"1"}},{"base_weights":[1.9862817E-3,4.6938965E-1,-9.7508186E-1,-6.370828E-2,5.2468127E-1,-1.1756788E0,4.6252966E-1,7.5480235E-1,3.759219E-1,-1.2396381E0,5.8880303E-2,1.0293791E0,-3.5082215E-1,8.1662625E-1,-6.280907E-2,4.0455753E-1,-6.1386187E-2,1.3769344E-2,-1.2641169E0,4.203951E-3,1.1802324E0,3.8490392E-2,-8.794087E-1,5.9572227E-2,3.0717561E-2,-4.824571E-2,4.958626E-2,7.1377363E-3,3.1413525E-2,7.5498763E-3,-6.9589384E-2,1.8766556E-2,6.9749236E-2,-6.3499555E-2,-8.256569E-3],"categories":[],"categories_nodes":[],"categories_segments":[],"categories_sizes":[],"default_left":[0,0,0,0,0,0,0,0,0,0,0,0,0,0,0,0,0,0,0,0,0,0,0,0,0,0,0,0,0,0,0,0,0,0,0],"id":15,"left_children":[1,3,5,-1,7,9,11,13,15,17,-1,19,21,23,25,27,-1,-1,29,-1,31,-1,33,-1,-1,-1,-1,-1,-1,-1,-1,-1,-1,-1,-1],"loss_changes":[1.5454683E2,2.1259216E1,3.19851E1,0E0,7.379425E0,1.4922882E1,6.6953497E0,4.4123764E0,6.2168236E0,3.6828766E0,0E0,1.1273661E0,3.9731905E0,5.1958885E0,6.0510864E0,6.343176E0,0E0,0E0,2.632965E0,0E0,2.9266548E-1,0E0,8.1347513E-1,0E0,0E0,0E0,0E0,0E0,0E0,0E0,0E0,0E0,0E0,0E0,0E0],"parents":[2147483647,0,0,1,1,2,2,4,4,5,5,6,6,7,7,8,8,9,9,11,11,12,12,13,13,14,14,15,15,18,18,20,20,22,22],"right_children":[2,4,6,-1,8,10,12,14,16,18,-1,20,22,24,26,28,-1,-1,30,-1,32,-1,34,-1,-1,-1,-1,-1,-1,-1,-1,-1,-1,-1,-1],"split_conditions":[-1.8181604E-1,-2.8309625E-1,9.5352274E-1,-6.370828E-2,-8.3046967E-1,2.4741393E-1,-3.4673516E-2,1.2401409E0,5.7619224E0,-6.184833E-1,5.8880303E-2,-1.0889721E-2,1.0314445E0,7.299905E-1,1.699132E0,-5.5621374E-1,-6.1386187E-2,1.3769344E-2,-8.3937943E-1,4.203951E-3,-5.00545E-1,3.8490392E-2,1.2357894E0,5.9572227E-2,3.0717561E-2,-4.824571E-2,4.958626E-2,7.1377363E-3,3.1413525E-2,7.5498763E-3,-6.9589384E-2,1.8766556E-2,6.9749236E-2,-6.3499555E-2,-8.256569E-3],"split_indices":[3,4,15,0,13,16,9,25,19,16,0,8,13,20,24,7,0,0,13,0,0,0,2,0,0,0,0,0,0,0,0,0,0,0,0],"split_type":[0,0,0,0,0,0,0,0,0,0,0,0,0,0,0,0,0,0,0,0,0,0,0,0,0,0,0,0,0,0,0,0,0,0,0],"sum_hessian":[3.3694574E2,2.2818199E2,1.0876373E2,6.93282E0,2.2124918E2,9.556929E1,1.319444E1,8.566547E1,1.3558371E2,9.32685E1,2.3007925E0,7.6670465E0,5.5273933E0,7.965483E1,6.010635E0,1.3359209E2,1.9916259E0,1.3864012E0,9.1882095E1,1.2100297E0,6.4570165E0,1.7485183E0,3.7788749E0,3.625818E1,4.3396656E1,3.2967515E0,2.7138834E0,5.2668537E1,8.0923546E1,1.1688247E0,9.071327E1,1.0922523E0,5.364764E0,2.3670835E0,1.4117912E0],"tree_param":{"num_deleted":"0","num_feature":"26","num_nodes":"35","size_leaf_vector":"1"}},{"base_weights":[-1.1047094E-2,-1.2433114E0,3.3241087E-1,-6.7868255E-2,-2.1402156E-2,4.2987278E-1,-8.895529E-1,-5.92639E-2,4.6091115E-1,-1.1617309E0,7.3776025E-1,4.855578E-1,-5.6905877E-2,-0E0,-6.703047E-2,5.644259E-2,5.5896994E-3,2.76484E-2,-2.23049E-2],"categories":[],"categories_nodes":[],"categories_segments":[],"categories_sizes":[],"default_left":[0,0,0,0,0,0,0,0,0,0,0,0,0,0,0,0,0,0,0],"id":16,"left_children":[1,3,5,-1,-1,7,9,-1,11,13,15,17,-1,-1,-1,-1,-1,-1,-1],"loss_changes":[1.4031447E2,1.2512207E-1,3.1154459E1,0E0,0E0,1.1737484E1,9.220875E0,0E0,9.167282E0,1.4541397E0,5.301117E-1,5.2342224E0,0E0,0E0,0E0,0E0,0E0,0E0,0E0],"parents":[2147483647,0,0,1,1,2,2,5,5,6,6,8,8,9,9,10,10,11,11],"right_children":[2,4,6,-1,-1,8,10,-1,12,14,16,18,-1,-1,-1,-1,-1,-1,-1],"split_conditions":[-1.1860846E-2,2.4375565E-1,2.4209734E-2,-6.7868255E-2,-2.1402156E-2,-4.4694237E-2,1.7803396E0,-5.92639E-2,-3.0036585E-3,-7.482367E-2,-3.2063425E-2,1.9767461E0,-5.6905877E-2,-0E0,-6.703047E-2,5.644259E-2,5.5896994E-3,2.76484E-2,-2.23049E-2],"split_indices":[8,22,8,0,0,9,15,0,9,22,18,15,0,0,0,0,0,0,0],"split_type":[0,0,0,0,0,0,0,0,0,0,0,0,0,0,0,0,0,0,0],"sum_hessian":[3.300553E2,7.152703E1,2.5852826E2,7.048277E1,1.0442557E0,2.39881E2,1.8647272E1,4.282366E0,2.3559863E2,1.6160854E1,2.4864194E0,2.3231357E2,3.285056E0,1.0201316E0,1.5140722E1,1.3536601E0,1.1327592E0,2.2650545E2,5.808128E0],"tree_param":{"num_deleted":"0","num_feature":"26","num_nodes":"19","size_leaf_vector":"1"}},{"base_weights":[-1.3363021E-2,-6.6932574E-2,3.235378E-1,4.6379608E-1,-4.7037628E-1,6.685112E-1,3.1548545E-1,-9.300905E-1,3.5909534E-1,7.3833156E-1,-1.9724837E-1,-4.1489925E-2,4.8145908E-1,5.724324E-2,-1.1721859E0,5.395111E-1,-3.2028794E-2,2.4398955E-2,5.0488017E-2,-5.0516147E-2,4.7244526E-2,3.2864954E-2,-2.4303827E-2,3.1137474E-2,-9.364131E-3,-6.683382E-2,1.7736326E-3,1.8835244E-4,4.5316026E-2],"categories":[],"categories_nodes":[],"categories_segments":[],"categories_sizes":[],"default_left":[0,0,0,0,0,0,0,0,0,0,0,0,0,0,0,0,0,0,0,0,0,0,0,0,0,0,0,0,0],"id":17,"left_children":[1,-1,3,5,7,9,11,13,15,17,19,21,23,-1,25,27,-1,-1,-1,-1,-1,-1,-1,-1,-1,-1,-1,-1,-1],"loss_changes":[1.3500606E2,0E0,2.8804813E1,6.484356E0,1.5114403E1,5.63237E0,7.627284E0,1.3070713E1,2.7056146E0,4.3838043E0,6.3934207E0,1.1105587E1,5.3992004E0,0E0,1.7039566E0,1.9764822E0,0E0,0E0,0E0,0E0,0E0,0E0,0E0,0E0,0E0,0E0,0E0,0E0,0E0],"parents":[2147483647,0,0,2,2,3,3,4,4,5,5,6,6,7,7,8,8,9,9,10,10,11,11,12,12,14,14,15,15],"right_children":[2,-1,4,6,8,10,12,14,16,18,20,22,24,-1,26,28,-1,-1,-1,-1,-1,-1,-1,-1,-1,-1,-1,-1,-1],"split_conditions":[-1.6090127E-2,-6.6932574E-2,-1.8181604E-1,-8.2402045E-1,3.708571E-1,1.2401409E0,-5.607008E-1,-2.3575927E-1,2.6175358E0,-1.9461127E-1,1.699132E0,-1.9508314E-1,6.762616E-1,5.724324E-2,1.3326997E0,-5.430561E-1,-3.2028794E-2,2.4398955E-2,5.0488017E-2,-5.0516147E-2,4.7244526E-2,3.2864954E-2,-2.4303827E-2,3.1137474E-2,-9.364131E-3,-6.683382E-2,1.7736326E-3,1.8835244E-4,4.5316026E-2],"split_indices":[8,0,3,13,23,25,12,23,13,4,24,4,4,0,13,24,0,0,0,0,0,0,0,0,0,0,0,0,0],"split_type":[0,0,0,0,0,0,0,0,0,0,0,0,0,0,0,0,0,0,0,0,0,0,0,0,0,0,0,0,0],"sum_hessian":[3.2674594E2,7.024511E1,2.5650082E2,2.1825981E2,3.8241024E1,9.058141E1,1.276784E2,2.4554415E1,1.3686608E1,8.393198E1,6.649437E0,4.067981E1,8.699859E1,2.3950918E0,2.2159323E1,1.1777457E1,1.9091508E0,3.4622406E1,4.930957E1,4.0021987E0,2.6472383E0,1.5544696E1,2.5135115E1,7.6287704E1,1.0710881E1,2.1095007E1,1.0643152E0,4.4678373E0,7.30962E0],"tree_param":{"num_deleted":"0","num_feature":"26","num_nodes":"29","size_leaf_vector":"1"}},{"base_weights":[-2.265521E-2,-1.1779282E0,2.9601297E-1,2.6245523E-2,-1.2158358E0,4.2407224E-1,-1.0489788E0,-1.8943852E-2,-6.642316E-2,7.8581744E-1,3.5392833E-1,-6.544463E-2,5.0820865E-2,8.8587445E-1,-5.162821E-1,-6.303092E-2,4.6193552E-1,5.9601188E-2,4.7582467E-3,1.5275302E-2,-5.626737E-2,2.028603E-2,-4.5772113E-2,5.9514E-2,2.0959761E-2],"categories":[],"categories_nodes":[],"categories_segments":[],"categories_sizes":[],"default_left":[0,0,0,0,0,0,0,0,0,0,0,0,0,0,0,0,0,0,0,0,0,0,0,0,0],"id":18,"left_children":[1,3,5,-1,7,9,11,-1,-1,13,15,-1,-1,17,19,21,23,-1,-1,-1,-1,-1,-1,-1,-1],"loss_changes":[1.18136795E2,4.8110733E0,4.3645653E1,0E0,2.0375824E-1,5.625412E0,7.7565613E0,0E0,0E0,5.1298256E0,8.769749E0,0E0,0E0,5.7743607E0,1.5045576E0,1.4091248E1,7.0711937E0,0E0,0E0,0E0,0E0,0E0,0E0,0E0,0E0],"parents":[2147483647,0,0,1,1,2,2,4,4,5,5,6,6,9,9,10,10,13,13,14,14,15,15,16,16],"right_children":[2,4,6,-1,8,10,12,-1,-1,14,16,-1,-1,18,20,22,24,-1,-1,-1,-1,-1,-1,-1,-1],"split_conditions":[-1.2053594E-2,-5.210239E-1,-8.225531E-3,2.6245523E-2,-3.6121735E-1,-1.3677607E-1,5.584166E-1,-1.8943852E-2,-6.642316E-2,-5.5033088E-2,-1.3657732E-1,-6.544463E-2,5.0820865E-2,-6.8437435E-2,1.6561408E-1,-3.129349E-1,-4.257809E-1,5.9601188E-2,4.7582467E-3,1.5275302E-2,-5.626737E-2,2.028603E-2,-4.5772113E-2,5.9514E-2,2.0959761E-2],"split_indices":[17,17,17,0,19,5,23,0,0,2,5,0,0,11,18,11,19,0,0,0,0,0,0,0,0],"split_type":[0,0,0,0,0,0,0,0,0,0,0,0,0,0,0,0,0,0,0,0,0,0,0,0,0],"sum_hessian":[3.1943716E2,6.863977E1,2.5079741E2,1.3318406E0,6.730793E1,2.2946136E2,2.1336033E1,1.0084635E0,6.629947E1,3.6024624E1,1.9343675E2,2.0037205E1,1.298829E0,3.3679356E1,2.3452652E0,3.9842945E1,1.535938E2,2.6350393E1,7.3289633E0,1.0533646E0,1.2919006E0,2.5784157E1,1.4058789E1,1.5221591E1,1.3837221E2],"tree_param":{"num_deleted":"0","num_feature":"26","num_nodes":"25","size_leaf_vector":"1"}},{"base_weights":[-1.2410533E-2,-6.519208E-2,2.8476423E-1,3.6618817E-1,-8.0493885E-1,5.7088417E-1,1.334352E-1,-1.1049722E0,7.262394E-1,8.5702014E-1,4.296795E-1,-1.1277069E0,1.9687514E-1,-3.920499E-3,-6.41979E-2,5.4709595E-2,4.850862E-3,5.983872E-2,1.7869074E-2,-6.4453386E-2,2.5923276E-2,-1.44237615E-2,-7.082407E-2,5.205456E-2,5.771605E-3],"categories":[],"categories_nodes":[],"categories_segments":[],"categories_sizes":[],"default_left":[0,0,0,0,0,0,0,0,0,0,0,0,0,0,0,0,0,0,0,0,0,0,0,0,0],"id":19,"left_children":[1,-1,3,5,7,9,11,13,15,17,19,21,23,-1,-1,-1,-1,-1,-1,-1,-1,-1,-1,-1,-1],"loss_changes":[1.1104188E2,0E0,2.2509424E1,1.1101692E1,8.723188E0,4.7441826E0,9.006262E0,1.1544323E0,5.239475E-1,4.9646435E0,7.050125E0,5.592375E-1,7.227869E0,0E0,0E0,0E0,0E0,0E0,0E0,0E0,0E0,0E0,0E0,0E0,0E0],"parents":[2147483647,0,0,2,2,3,3,4,4,5,5,6,6,7,7,8,8,9,9,10,10,11,11,12,12],"right_children":[2,-1,4,6,8,10,12,14,16,18,20,22,24,-1,-1,-1,-1,-1,-1,-1,-1,-1,-1,-1,-1],"split_conditions":[-1.6090127E-2,-6.519208E-2,2.4209734E-2,-3.1390294E-1,1.7803396E0,-7.8787774E-1,-2.3234604E-1,-5.4245014E-2,9.546483E-1,7.300524E-1,-1.1742929E-2,-1.1511008E-2,-1.5031418E0,-3.920499E-3,-6.41979E-2,5.4709595E-2,4.850862E-3,5.983872E-2,1.7869074E-2,-6.4453386E-2,2.5923276E-2,-1.44237615E-2,-7.082407E-2,5.205456E-2,5.771605E-3],"split_indices":[8,0,8,1,15,25,4,22,19,20,8,8,22,0,0,0,0,0,0,0,0,0,0,0,0],"split_type":[0,0,0,0,0,0,0,0,0,0,0,0,0,0,0,0,0,0,0,0,0,0,0,0,0],"sum_hessian":[3.1258282E2,6.2029224E1,2.5055359E2,2.3359674E2,1.6956837E1,1.23698494E2,1.09898254E2,1.4355183E1,2.601653E0,3.9617165E1,8.408133E1,4.664474E0,1.0523378E2,1.1274487E0,1.3227735E1,1.4934398E0,1.1082133E0,2.6441437E1,1.3175728E1,1.9303497E0,8.215098E1,1.1236327E0,3.540841E0,1.0389852E1,9.4843925E1],"tree_param":{"num_deleted":"0","num_feature":"26","num_nodes":"25","size_leaf_vector":"1"}},{"base_weights":[-2.9637364E-3,-6.445361E-2,2.9129142E-1,3.682788E-1,-8.0730104E-1,6.1116135E-1,2.1309996E-1,6.415018E-1,-1.0964421E0,-3.946981E-1,6.5546644E-1,-7.8844416E-1,2.6154208E-1,5.2827794E-2,7.737255E-4,-1.6188674E-2,-6.285065E-2,1.6071463E-2,-5.7581764E-2,1.8611766E-2,4.6125293E-2,3.630171E-2,-6.2147565E-2,4.0046196E-2,8.510302E-3],"categories":[],"categories_nodes":[],"categories_segments":[],"categories_sizes":[],"default_left":[0,0,0,0,0,0,0,0,0,0,0,0,0,0,0,0,0,0,0,0,0,0,0,0,0],"id":20,"left_children":[1,-1,3,5,7,9,11,13,15,17,19,21,23,-1,-1,-1,-1,-1,-1,-1,-1,-1,-1,-1,-1],"loss_changes":[1.083261E2,0E0,2.1253069E1,8.676865E0,7.43974E0,4.221752E0,7.0995502E0,6.4948285E-1,4.323864E-1,2.2052827E0,5.066448E0,4.1074133E0,6.7538366E0,0E0,0E0,0E0,0E0,0E0,0E0,0E0,0E0,0E0,0E0,0E0,0E0],"parents":[2147483647,0,0,2,2,3,3,4,4,5,5,6,6,7,7,8,8,9,9,10,10,11,11,12,12],"right_children":[2,-1,4,6,8,10,12,14,16,18,20,22,24,-1,-1,-1,-1,-1,-1,-1,-1,-1,-1,-1,-1],"split_conditions":[-1.6090127E-2,-6.445361E-2,2.4209734E-2,-8.2402045E-1,-1.500613E-1,-1.1705024E-2,-2.0596318E-2,-4.9600592E-1,-4.1564322E-1,-5.118696E-1,-1.9461127E-1,-2.3837104E-1,-1.3677607E-1,5.2827794E-2,7.737255E-4,-1.6188674E-2,-6.285065E-2,1.6071463E-2,-5.7581764E-2,1.8611766E-2,4.6125293E-2,3.630171E-2,-6.2147565E-2,4.0046196E-2,8.510302E-3],"split_indices":[8,0,8,13,11,8,17,22,13,0,4,17,5,0,0,0,0,0,0,0,0,0,0,0,0],"split_type":[0,0,0,0,0,0,0,0,0,0,0,0,0,0,0,0,0,0,0,0,0,0,0,0,0],"sum_hessian":[3.0901273E2,6.1005196E1,2.4800752E2,2.3223149E2,1.5776037E1,8.966465E1,1.4256683E2,2.4698484E0,1.3306189E1,3.5280237E0,8.613663E1,6.0492654E0,1.3651758E2,1.3377408E0,1.1321077E0,1.2876922E0,1.20184965E1,1.9270655E0,1.6009582E0,3.3925518E1,5.221111E1,1.059801E0,4.9894648E0,2.3737032E1,1.1278054E2],"tree_param":{"num_deleted":"0","num_feature":"26","num_nodes":"25","size_leaf_vector":"1"}},{"base_weights":[-1.2310597E-2,-6.373537E-2,2.6682988E-1,3.809578E-1,-4.207143E-1,3.9653873E-1,-5.626345E-2,5.5426085E-1,-7.662844E-1,5.5504817E-1,2.7939242E-1,-2.9170044E-2,8.712258E-1,6.781234E-1,-1.0809475E0,2.585591E-2,7.130166E-2,1.8584518E-2,-3.5233542E-2,6.1209373E-2,-2.0500215E-2,-1.0351449E-2,5.8858965E-2,7.5973338E-3,-6.211313E-2],"categories":[],"categories_nodes":[],"categories_segments":[],"categories_sizes":[],"default_left":[0,0,0,0,0,0,0,0,0,0,0,0,0,0,0,0,0,0,0,0,0,0,0,0,0],"id":21,"left_children":[1,-1,3,5,7,9,-1,11,13,15,17,-1,19,21,23,-1,-1,-1,-1,-1,-1,-1,-1,-1,-1],"loss_changes":[9.833501E1,0E0,1.9285078E1,4.9359493E0,1.2145266E1,3.7430038E0,0E0,3.6748226E0,1.2470281E1,4.7338753E0,7.292161E0,0E0,2.8100233E0,1.9807398E0,1.8465252E0,0E0,0E0,0E0,0E0,0E0,0E0,0E0,0E0,0E0,0E0],"parents":[2147483647,0,0,2,2,3,3,4,4,5,5,7,7,8,8,9,9,10,10,12,12,13,13,14,14],"right_children":[2,-1,4,6,8,10,-1,12,14,16,18,-1,20,22,24,-1,-1,-1,-1,-1,-1,-1,-1,-1,-1],"split_conditions":[-1.6090127E-2,-6.373537E-2,-1.8181604E-1,5.7619224E0,-1.9664577E-1,-3.128631E-1,-5.626345E-2,-1.0637039E0,-5.749621E-1,-3.135607E-1,3.277245E-1,-2.9170044E-2,2.4529411E-1,-1.6449761E-1,-1.453471E-1,2.585591E-2,7.130166E-2,1.8584518E-2,-3.5233542E-2,6.1209373E-2,-2.0500215E-2,-1.0351449E-2,5.8858965E-2,7.5973338E-3,-6.211313E-2],"split_indices":[8,0,3,19,11,11,0,24,16,11,21,0,19,4,22,0,0,0,0,0,0,0,0,0,0],"split_type":[0,0,0,0,0,0,0,0,0,0,0,0,0,0,0,0,0,0,0,0,0,0,0,0,0],"sum_hessian":[3.0142563E2,5.789209E1,2.4353355E2,2.0915709E2,3.4376472E1,2.074162E2,1.7408848E0,8.872298E0,2.5504173E1,8.694171E1,1.2047449E2,1.8734556E0,6.9988427E0,4.4046E0,2.1099573E1,7.992248E1,7.0192385E0,1.1323284E2,7.24164E0,5.867907E0,1.1309357E0,1.5230227E0,2.8815775E0,1.0073411E0,2.0092232E1],"tree_param":{"num_deleted":"0","num_feature":"26","num_nodes":"25","size_leaf_vector":"1"}},{"base_weights":[-6.6308705E-3,-6.3051395E-2,2.5713593E-1,3.1679112E-1,-8.400977E-1,-5.884711E-2,3.64595E-1,-6.122091E-2,3.9017465E-2,3.937185E-1,-4.3632522E-1,1.7054593E-2,3.610671E-2,-5.2686214E-2,2.8291559E-2],"categories":[],"categories_nodes":[],"categories_segments":[],"categories_sizes":[],"default_left":[0,0,0,0,0,0,0,0,0,0,0,0,0,0,0],"id":22,"left_children":[1,-1,3,5,7,-1,9,-1,-1,11,13,-1,-1,-1,-1],"loss_changes":[9.045318E1,0E0,1.5999311E1,1.5672358E1,6.299844E0,0E0,5.3181286E0,0E0,0E0,4.4749603E0,4.5557766E0,0E0,0E0,0E0,0E0],"parents":[2147483647,0,0,2,2,3,3,4,4,6,6,9,9,10,10],"right_children":[2,-1,4,6,8,-1,10,-1,-1,12,14,-1,-1,-1,-1],"split_conditions":[-1.6090127E-2,-6.3051395E-2,5.369532E-2,-4.4694237E-2,1.383093E0,-5.884711E-2,1.9766977E0,-6.122091E-2,3.9017465E-2,-6.8749925E-3,3.045502E0,1.7054593E-2,3.610671E-2,-5.2686214E-2,2.8291559E-2],"split_indices":[8,0,9,9,15,0,15,0,0,8,7,0,0,0,0],"split_type":[0,0,0,0,0,0,0,0,0,0,0,0,0,0,0],"sum_hessian":[2.9514297E2,5.4369305E1,2.4077367E2,2.2886325E2,1.1910408E1,7.0127287E0,2.2185052E2,1.0225919E1,1.6844896E0,2.1443932E2,7.411208E0,1.6734409E2,4.7095234E1,4.7544484E0,2.6567597E0],"tree_param":{"num_deleted":"0","num_feature":"26","num_nodes":"15","size_leaf_vector":"1"}},{"base_weights":[6.192773E-3,-6.24555E-2,2.6938632E-1,5.280264E-1,1.5757263E-2,-4.4518456E-2,5.580296E-1,5.790444E-1,-1.7197664E-1,6.620017E-1,2.7037543E-1,-3.134778E-1,7.9811996E-1,2.6872241E-1,-4.805949E-1,-3.841593E-2,3.8184196E-2,4.1464396E-2,-2.0371001E-2,2.731988E-2,-4.7926523E-2,4.9067855E-2,-1.8661128E-2,2.7345754E-2,-1.9291226E-2,7.3920614E-3,-4.1005258E-2],"categories":[],"categories_nodes":[],"categories_segments":[],"categories_sizes":[],"default_left":[0,0,0,0,0,0,0,0,0,0,0,0,0,0,0,0,0,0,0,0,0,0,0,0,0,0,0],"id":23,"left_children":[1,-1,3,5,7,-1,9,11,13,15,17,19,21,23,25,-1,-1,-1,-1,-1,-1,-1,-1,-1,-1,-1,-1],"loss_changes":[8.9421135E1,0E0,1.5672802E1,5.124424E0,1.2924867E1,0E0,3.3348045E0,6.162546E0,1.2566136E1,5.266083E0,1.0471622E1,3.3806245E0,3.2514563E0,5.7553854E0,9.29529E0,0E0,0E0,0E0,0E0,0E0,0E0,0E0,0E0,0E0,0E0,0E0,0E0],"parents":[2147483647,0,0,2,2,3,3,4,4,6,6,7,7,8,8,9,9,10,10,11,11,12,12,13,13,14,14],"right_children":[2,-1,4,6,8,-1,10,12,14,16,18,20,22,24,26,-1,-1,-1,-1,-1,-1,-1,-1,-1,-1,-1,-1],"split_conditions":[-1.6090127E-2,-6.24555E-2,-3.1390294E-1,-2.660767E0,-4.2608625E-1,-4.4518456E-2,-3.9555967E-2,-6.1279505E-1,-2.136356E-1,-3.4711227E-1,-6.11735E-1,-3.9663535E-2,1.9965687E-1,6.762616E-1,-5.869715E-1,-3.841593E-2,3.8184196E-2,4.1464396E-2,-2.0371001E-2,2.731988E-2,-4.7926523E-2,4.9067855E-2,-1.8661128E-2,2.7345754E-2,-1.9291226E-2,7.3920614E-3,-4.1005258E-2],"split_indices":[8,0,1,22,22,0,9,12,3,18,12,9,11,4,6,0,0,0,0,0,0,0,0,0,0,0,0],"split_type":[0,0,0,0,0,0,0,0,0,0,0,0,0,0,0,0,0,0,0,0,0,0,0,0,0,0,0],"sum_hessian":[2.9195938E2,5.3604427E1,2.3835495E2,1.17598595E2,1.20756355E2,2.1292546E0,1.1546934E2,2.981446E1,9.0941895E1,8.408524E1,3.1384096E1,5.804796E0,2.4009665E1,3.7482437E1,5.3459457E1,2.1544209E0,8.193082E1,1.771237E1,1.3671727E1,2.414334E0,3.3904624E0,2.210561E1,1.904056E0,2.7330248E1,1.0152189E1,1.6610992E1,3.6848465E1],"tree_param":{"num_deleted":"0","num_feature":"26","num_nodes":"27","size_leaf_vector":"1"}},{"base_weights":[-9.006013E-3,-6.18703E-2,2.3561966E-1,2.9842582E-1,-7.122334E-1,4.663287E-1,1.05218455E-1,4.8079077E-2,-9.032681E-1,-4.8555106E-2,4.8607293E-1,5.59239E-1,-4.314751E-2,1.4502434E-2,-1.0141813E0,-2.6352523E-2,2.7860843E-2,-2.559494E-2,3.804707E-2,3.977454E-2,-1.0541285E-2,-3.5619864E-3,-5.9176758E-2],"categories":[],"categories_nodes":[],"categories_segments":[],"categories_sizes":[],"default_left":[0,0,0,0,0,0,0,0,0,0,0,0,0,0,0,0,0,0,0,0,0,0,0],"id":24,"left_children":[1,-1,3,5,7,9,11,-1,13,-1,15,17,19,-1,21,-1,-1,-1,-1,-1,-1,-1,-1],"loss_changes":[8.063644E1,0E0,1.4407474E1,7.260702E0,5.1986766E0,3.5483265E0,7.138754E0,0E0,2.0050373E0,0E0,3.387392E0,4.0763483E0,9.530516E0,0E0,8.728504E-1,0E0,0E0,0E0,0E0,0E0,0E0,0E0,0E0],"parents":[2147483647,0,0,2,2,3,3,4,4,5,5,6,6,8,8,10,10,11,11,12,12,14,14],"right_children":[2,-1,4,6,8,10,12,-1,14,-1,16,18,20,-1,22,-1,-1,-1,-1,-1,-1,-1,-1],"split_conditions":[-1.6090127E-2,-6.18703E-2,2.4209734E-2,-3.1390294E-1,-8.455968E-1,-3.087816E0,-4.7690406E-1,4.8079077E-2,-2.5976768E-1,-4.8555106E-2,-1.1742929E-2,-8.199623E-1,-4.1554463E-1,1.4502434E-2,-2.2762015E-1,-2.6352523E-2,2.7860843E-2,-2.559494E-2,3.804707E-2,3.977454E-2,-1.0541285E-2,-3.5619864E-3,-5.9176758E-2],"split_indices":[8,0,8,1,22,22,22,0,18,0,8,13,19,0,2,0,0,0,0,0,0,0,0],"split_type":[0,0,0,0,0,0,0,0,0,0,0,0,0,0,0,0,0,0,0,0,0,0,0],"sum_hessian":[2.8973035E2,5.1014923E1,2.3871542E2,2.2436348E2,1.4351947E1,1.1945938E2,1.049041E2,1.2402226E0,1.3111724E1,1.2335596E0,1.1822582E2,2.5350857E1,7.9553246E1,1.0373484E0,1.2074376E1,2.928699E0,1.1529713E2,2.8604834E0,2.2490374E1,1.2494739E1,6.70585E1,1.0192776E0,1.1055099E1],"tree_param":{"num_deleted":"0","num_feature":"26","num_nodes":"23","size_leaf_vector":"1"}},{"base_weights":[2.4639295E-2,-6.1302856E-2,2.60643E-1,-8.492252E-1,3.1508014E-1,2.6229396E-2,-6.1555196E-2,3.6935872E-1,-7.33738E-1,5.4267704E-1,2.5154352E-1,-5.709584E-2,5.1479377E-2,1.1346842E-2,4.083995E-2,-8.240588E-3,2.0092027E-2],"categories":[],"categories_nodes":[],"categories_segments":[],"categories_sizes":[],"default_left":[0,0,0,0,0,0,0,0,0,0,0,0,0,0,0,0,0],"id":25,"left_children":[1,-1,3,5,7,-1,-1,9,11,13,15,-1,-1,-1,-1,-1,-1],"loss_changes":[7.787908E1,0E0,1.4522192E1,4.7094307E0,1.3098377E1,0E0,0E0,4.302244E0,6.855369E0,5.9608555E0,6.28347E0,0E0,0E0,0E0,0E0,0E0,0E0],"parents":[2147483647,0,0,2,2,3,3,4,4,7,7,8,8,9,9,10,10],"right_children":[2,-1,4,6,8,-1,-1,10,12,14,16,-1,-1,-1,-1,-1,-1],"split_conditions":[-1.6090127E-2,-6.1302856E-2,-2.0596318E-2,-2.521167E-1,-8.225531E-3,2.6229396E-2,-6.1555196E-2,-8.219593E-1,5.584166E-1,-1.9461127E-1,-7.258258E-1,-5.709584E-2,5.1479377E-2,1.1346842E-2,4.083995E-2,-8.240588E-3,2.0092027E-2],"split_indices":[8,0,17,17,17,0,0,13,23,4,13,0,0,0,0,0,0],"split_type":[0,0,0,0,0,0,0,0,0,0,0,0,0,0,0,0,0],"sum_hessian":[2.8417715E2,4.773052E1,2.3644662E2,1.0544077E1,2.2590254E2,1.7663183E0,8.777759E0,2.1524919E2,1.0653347E1,8.599895E1,1.2925024E2,9.191791E0,1.4615557E0,3.3861397E1,5.213755E1,2.9365767E1,9.988448E1],"tree_param":{"num_deleted":"0","num_feature":"26","num_nodes":"17","size_leaf_vector":"1"}},{"base_weights":[1.8200452E-2,-6.0770944E-2,2.3738672E-1,-1.9920984E-1,3.7462574E-1,3.922563E-1,-4.701394E-1,7.52874E-1,3.064463E-1,-2.1218744E-1,7.773184E-1,7.135344E-1,-7.2964275E-1,9.6145135E-1,-8.938543E-1,-2.1324184E-2,4.160555E-1,4.559649E-2,-4.7110636E-2,4.8632257E-2,-7.618193E-3,5.3724516E-2,-2.8236492E-2,-3.8629058E-3,-5.7556286E-2,1.5336605E-3,5.6028612E-2,-8.674137E-2,2.184215E-2,1.8779865E-2,-3.7372097E-2,4.5981042E-2,1.5798228E-2],"categories":[],"categories_nodes":[],"categories_segments":[],"categories_sizes":[],"default_left":[0,0,0,0,0,0,0,0,0,0,0,0,0,0,0,0,0,0,0,0,0,0,0,0,0,0,0,0,0,0,0,0,0],"id":26,"left_children":[1,-1,3,5,7,9,11,13,15,17,19,21,23,25,27,29,31,-1,-1,-1,-1,-1,-1,-1,-1,-1,-1,-1,-1,-1,-1,-1,-1],"loss_changes":[6.987193E1,0E0,1.4120489E1,9.2064495E0,4.4324474E0,4.3563423E0,1.2413705E1,9.834654E0,5.4999886E0,5.8209147E0,1.3357692E0,2.9188793E0,7.030607E0,1.5846233E0,3.586379E0,9.747713E0,5.978384E0,0E0,0E0,0E0,0E0,0E0,0E0,0E0,0E0,0E0,0E0,0E0,0E0,0E0,0E0,0E0,0E0],"parents":[2147483647,0,0,2,2,3,3,4,4,5,5,6,6,7,7,8,8,9,9,10,10,11,11,12,12,13,13,14,14,15,15,16,16],"right_children":[2,-1,4,6,8,10,12,14,16,18,20,22,24,26,28,30,32,-1,-1,-1,-1,-1,-1,-1,-1,-1,-1,-1,-1,-1,-1,-1,-1],"split_conditions":[-1.6090127E-2,-6.0770944E-2,1.939378E-1,-4.8388898E-1,-1.3677895E-1,-3.01374E-1,-3.6613783E-1,-2.1171324E-1,-1.3657732E-1,4.2521602E-1,-3.1685803E-2,1.20675E0,-4.2937666E-1,2.5342262E-1,-3.9167392E-1,-3.129349E-1,-1.3621783E-1,4.559649E-2,-4.7110636E-2,4.8632257E-2,-7.618193E-3,5.3724516E-2,-2.8236492E-2,-3.8629058E-3,-5.7556286E-2,1.5336605E-3,5.6028612E-2,-8.674137E-2,2.184215E-2,1.8779865E-2,-3.7372097E-2,4.5981042E-2,1.5798228E-2],"split_indices":[8,0,16,16,5,18,19,3,5,11,9,0,12,16,1,11,5,0,0,0,0,0,0,0,0,0,0,0,0,0,0,0,0],"split_type":[0,0,0,0,0,0,0,0,0,0,0,0,0,0,0,0,0,0,0,0,0,0,0,0,0,0,0,0,0,0,0,0,0],"sum_hessian":[2.7842224E2,4.4440884E1,2.3398135E2,5.586311E1,1.7811824E2,1.7435286E1,3.8427826E1,2.6051573E1,1.5206667E2,6.903986E0,1.05313E1,6.6715374E0,3.1756289E1,2.3399996E1,2.6515772E0,3.8235554E1,1.1383111E2,2.5665329E0,4.337453E0,9.342155E0,1.1891445E0,5.572981E0,1.0985568E0,1.0948952E1,2.0807337E1,1.7536346E0,2.164636E1,1.6103348E0,1.0412425E0,2.4879957E1,1.3355596E1,2.4533829E1,8.929728E1],"tree_param":{"num_deleted":"0","num_feature":"26","num_nodes":"33","size_leaf_vector":"1"}},{"base_weights":[-1.6514236E-2,-1.0828891E0,2.0298979E-1,8.968841E-3,-6.1188266E-2,2.928989E-1,-8.9797443E-1,6.166564E-1,2.2964542E-1,-5.94186E-2,3.770523E-2,-6.673959E-2,8.1075203E-1,-1.8378682E-1,3.3809388E-1,3.700387E-2,-4.1070253E-2,5.2272066E-2,-4.0144786E-2,1.1597709E-2,-4.8307173E-2,2.4273334E-2,-4.42592E-3],"categories":[],"categories_nodes":[],"categories_segments":[],"categories_sizes":[],"default_left":[0,0,0,0,0,0,0,0,0,0,0,0,0,0,0,0,0,0,0,0,0,0,0],"id":27,"left_children":[1,3,5,-1,-1,7,9,11,13,-1,-1,15,17,19,21,-1,-1,-1,-1,-1,-1,-1,-1],"loss_changes":[6.4243195E1,2.8055878E0,2.2718987E1,0E0,0E0,4.208582E0,6.033927E0,4.559946E0,8.014965E0,0E0,0E0,4.6214933E0,6.8393764E0,1.0658441E1,6.514553E0,0E0,0E0,0E0,0E0,0E0,0E0,0E0,0E0],"parents":[2147483647,0,0,1,1,2,2,5,5,6,6,7,7,8,8,11,11,12,12,13,13,14,14],"right_children":[2,4,6,-1,-1,8,10,12,14,-1,-1,16,18,20,22,-1,-1,-1,-1,-1,-1,-1,-1],"split_conditions":[-1.2053594E-2,-2.521167E-1,-8.225531E-3,8.968841E-3,-6.1188266E-2,-1.3677607E-1,4.3882915E-1,-1.37325E-1,-1.3657732E-1,-5.94186E-2,3.770523E-2,-3.9708453E-1,-5.5033088E-2,-3.129349E-1,6.279361E-1,3.700387E-2,-4.1070253E-2,5.2272066E-2,-4.0144786E-2,1.1597709E-2,-4.8307173E-2,2.4273334E-2,-4.42592E-3],"split_indices":[17,17,17,0,0,5,23,5,5,0,0,19,2,11,12,0,0,0,0,0,0,0,0],"split_type":[0,0,0,0,0,0,0,0,0,0,0,0,0,0,0,0,0,0,0,0,0,0,0],"sum_hessian":[2.7299326E2,4.6113674E1,2.2687958E2,1.5449725E0,4.45687E1,2.1025833E2,1.6621252E1,3.3286987E1,1.7697134E2,1.4996044E1,1.6252072E0,7.4589806E0,2.5828005E1,3.6650696E1,1.4032065E2,3.575608E0,3.8833725E0,2.3765833E1,2.0621731E0,2.3777752E1,1.2872945E1,1.1126072E2,2.905993E1],"tree_param":{"num_deleted":"0","num_feature":"26","num_nodes":"23","size_leaf_vector":"1"}},{"base_weights":[3.1175117E-3,-5.987236E-2,2.110065E-1,4.904462E-1,4.500377E-2,2.0273302E-1,6.682483E-1,-3.1866026E-1,2.069704E-1,-1.7650683E-1,7.163241E-1,8.100284E-1,-6.0887948E-2,6.513715E-1,-6.162386E-1,-1.9301824E-1,3.881223E-1,1.8295197E-2,-7.498321E-2,4.70555E-2,-2.3645457E-2,-1.2119089E-2,4.9026493E-2,-5.417216E-2,2.033639E-2,6.440357E-2,1.2760881E-2,2.3024935E-2,-4.4700786E-2,3.1220395E-4,-6.89665E-2,2.68418E-2,-1.7027259E-2],"categories":[],"categories_nodes":[],"categories_segments":[],"categories_sizes":[],"default_left":[0,0,0,0,0,0,0,0,0,0,0,0,0,0,0,0,0,0,0,0,0,0,0,0,0,0,0,0,0,0,0,0,0],"id":28,"left_children":[1,-1,3,5,7,9,11,13,15,17,19,21,23,25,27,29,31,-1,-1,-1,-1,-1,-1,-1,-1,-1,-1,-1,-1,-1,-1,-1,-1],"loss_changes":[6.2987488E1,0E0,1.0667324E1,4.2798386E0,8.610721E0,6.689256E0,5.4885216E0,1.3305172E1,7.378901E0,1.277938E1,2.818017E0,4.447958E0,4.063943E0,2.2195415E0,7.8146524E0,6.8737826E0,5.3539934E0,0E0,0E0,0E0,0E0,0E0,0E0,0E0,0E0,0E0,0E0,0E0,0E0,0E0,0E0,0E0,0E0],"parents":[2147483647,0,0,2,2,3,3,4,4,5,5,6,6,7,7,8,8,9,9,10,10,11,11,12,12,13,13,14,14,15,15,16,16],"right_children":[2,-1,4,6,8,10,12,14,16,18,20,22,24,26,28,30,32,-1,-1,-1,-1,-1,-1,-1,-1,-1,-1,-1,-1,-1,-1,-1,-1],"split_conditions":[-1.6090127E-2,-5.987236E-2,-8.219593E-1,-1.9461127E-1,1.939378E-1,-6.1942214E-1,-2.358168E-1,-5.749621E-1,-5.607008E-1,-8.3954287E-1,-5.412844E-2,-1.1646392E-2,-6.162993E-2,4.2521602E-1,-3.2272696E-1,-2.842114E-1,6.762616E-1,1.8295197E-2,-7.498321E-2,4.70555E-2,-2.3645457E-2,-1.2119089E-2,4.9026493E-2,-5.417216E-2,2.033639E-2,6.440357E-2,1.2760881E-2,2.3024935E-2,-4.4700786E-2,3.1220395E-4,-6.89665E-2,2.68418E-2,-1.7027259E-2],"split_indices":[8,0,13,4,16,12,1,16,12,13,2,8,2,11,18,15,4,0,0,0,0,0,0,0,0,0,0,0,0,0,0,0,0],"split_type":[0,0,0,0,0,0,0,0,0,0,0,0,0,0,0,0,0,0,0,0,0,0,0,0,0,0,0,0,0,0,0,0,0],"sum_hessian":[2.722037E2,4.2520477E1,2.2968323E2,8.503807E1,1.4464516E2,3.310255E1,5.1935524E1,4.4332993E1,1.00312164E2,1.930937E1,1.37931795E1,4.3423187E1,8.512334E0,1.0194334E1,3.4138657E1,3.1237741E1,6.907442E1,1.3907302E1,5.4020677E0,1.23594055E1,1.4337744E0,3.5291536E0,3.9894035E1,2.4056027E0,6.106731E0,3.846891E0,6.3474436E0,5.552404E0,2.8586254E1,2.6988703E1,4.2490377E0,6.015054E1,8.923879E0],"tree_param":{"num_deleted":"0","num_feature":"26","num_nodes":"33","size_leaf_vector":"1"}},{"base_weights":[3.788235E-3,-1.0453627E0,2.1572094E-1,2.3217835E-2,-1.1000348E0,2.941585E-1,-8.519221E-1,-1.7419761E-2,-6.0342427E-2,4.2085406E-1,1.5268734E-1,-5.8228485E-2,3.2122876E-2,3.3094767E-1,7.7917606E-1,1.901898E-1,-6.676179E-2,2.1399107E-2,-1.9364951E-2,-1.2511961E-2,4.9442317E-2,4.186669E-2,6.133809E-3],"categories":[],"categories_nodes":[],"categories_segments":[],"categories_sizes":[],"default_left":[0,0,0,0,0,0,0,0,0,0,0,0,0,0,0,0,0,0,0,0,0,0,0],"id":29,"left_children":[1,3,5,-1,7,9,11,-1,-1,13,15,-1,-1,17,19,21,-1,-1,-1,-1,-1,-1,-1],"loss_changes":[5.89226E1,3.9409676E0,1.8643982E1,0E0,1.5067673E-1,3.6387463E0,5.366312E0,0E0,0E0,3.2851524E0,5.274228E0,0E0,0E0,3.9502125E0,2.9914865E0,4.257051E0,0E0,0E0,0E0,0E0,0E0,0E0,0E0],"parents":[2147483647,0,0,1,1,2,2,4,4,5,5,6,6,9,9,10,10,13,13,14,14,15,15],"right_children":[2,4,6,-1,8,10,12,-1,-1,14,16,-1,-1,18,20,22,-1,-1,-1,-1,-1,-1,-1],"split_conditions":[-1.2053594E-2,-5.210239E-1,-8.225531E-3,2.3217835E-2,-3.431579E-1,-3.1390294E-1,1.2471368E0,-1.7419761E-2,-6.0342427E-2,-1.873825E-1,9.9398214E-1,-5.8228485E-2,3.2122876E-2,-1.3431855E-1,-1.16837425E-2,-1.5031418E0,-6.676179E-2,2.1399107E-2,-1.9364951E-2,-1.2511961E-2,4.9442317E-2,4.186669E-2,6.133809E-3],"split_indices":[17,17,17,0,19,1,15,0,0,4,22,0,0,5,8,22,0,0,0,0,0,0,0],"split_type":[0,0,0,0,0,0,0,0,0,0,0,0,0,0,0,0,0,0,0,0,0,0,0],"sum_hessian":[2.635517E2,4.37971E1,2.1975461E2,1.3806415E0,4.241646E1,2.0522006E2,1.4534542E1,1.0045687E0,4.141189E1,1.07460884E2,9.775917E1,1.276872E1,1.7658223E0,8.706013E1,2.0400755E1,9.5805046E1,1.95413E0,7.998669E1,7.0734425E0,2.295758E0,1.8104998E1,1.0415262E1,8.538978E1],"tree_param":{"num_deleted":"0","num_feature":"26","num_nodes":"23","size_leaf_vector":"1"}},{"base_weights":[2.2529503E-2,-1.0437651E0,2.2124809E-1,1.8064322E-2,-1.090737E0,2.9907894E-1,-8.4928375E-1,-1.830311E-2,-5.9892587E-2,6.5552485E-1,2.3533456E-1,-5.7804212E-2,3.1076025E-2,-8.39723E-2,8.890648E-1,1.152467E-1,4.4274297E-1,3.4776665E-2,-3.932611E-2,5.594001E-2,-3.8116924E-2,-1.7694445E-2,1.3079206E-2,3.044907E-2,-2.0134693E-3],"categories":[],"categories_nodes":[],"categories_segments":[],"categories_sizes":[],"default_left":[0,0,0,0,0,0,0,0,0,0,0,0,0,0,0,0,0,0,0,0,0,0,0,0,0],"id":30,"left_children":[1,3,5,-1,7,9,11,-1,-1,13,15,-1,-1,17,19,21,23,-1,-1,-1,-1,-1,-1,-1,-1],"loss_changes":[5.5859398E1,2.9532013E0,1.8693947E1,0E0,1.2757874E-1,4.5965614E0,5.151845E0,0E0,0E0,5.42844E0,4.3741903E0,0E0,0E0,4.119952E0,5.910887E0,6.3598166E0,3.7098312E0,0E0,0E0,0E0,0E0,0E0,0E0,0E0,0E0],"parents":[2147483647,0,0,1,1,2,2,4,4,5,5,6,6,9,9,10,10,13,13,14,14,15,15,16,16],"right_children":[2,4,6,-1,8,10,12,-1,-1,14,16,-1,-1,18,20,22,24,-1,-1,-1,-1,-1,-1,-1,-1],"split_conditions":[-1.2053594E-2,-5.210239E-1,-8.225531E-3,1.8064322E-2,-2.1570589E-1,-1.3677895E-1,1.2471368E0,-1.830311E-2,-5.9892587E-2,-1.37325E-1,-6.142253E-2,-5.7804212E-2,3.1076025E-2,-3.1420484E-1,-5.5033088E-2,-1.3657732E-1,-1.0901586E-1,3.4776665E-2,-3.932611E-2,5.594001E-2,-3.8116924E-2,-1.7694445E-2,1.3079206E-2,3.044907E-2,-2.0134693E-3],"split_indices":[17,17,17,0,3,5,15,0,0,5,2,0,0,18,2,5,19,0,0,0,0,0,0,0,0],"split_type":[0,0,0,0,0,0,0,0,0,0,0,0,0,0,0,0,0,0,0,0,0,0,0,0,0],"sum_hessian":[2.6211865E2,4.067616E1,2.214425E2,1.1871761E0,3.9488983E1,2.0693724E2,1.4505257E1,1.0564322E0,3.8432552E1,3.0333113E1,1.7660413E2,1.2753717E1,1.7515389E0,7.3837795E0,2.2949333E1,1.126008E2,6.400333E1,3.4578342E0,3.9259453E0,2.1307224E1,1.6421094E0,2.4712831E1,8.788797E1,5.1221413E1,1.2781916E1],"tree_param":{"num_deleted":"0","num_feature":"26","num_nodes":"25","size_leaf_vector":"1"}},{"base_weights":[-2.2172622E-2,-5.8669396E-2,1.5993819E-1,-8.0338883E-1,2.0125854E-1,1.8166836E-2,-5.80275E-2,2.3940618E-1,-7.9729706E-1,2.6453972E-1,-4.337171E-1,-5.437016E-2,1.6091382E-2,1.0467924E-2,2.8540002E-2,-4.8885804E-2,3.037431E-2],"categories":[],"categories_nodes":[],"categories_segments":[],"categories_sizes":[],"default_left":[0,0,0,0,0,0,0,0,0,0,0,0,0,0,0,0,0],"id":31,"left_children":[1,-1,3,5,7,-1,-1,9,11,13,15,-1,-1,-1,-1,-1,-1],"loss_changes":[4.9831337E1,0E0,8.885434E0,3.0646534E0,8.2074995E0,0E0,0E0,3.5458164E0,2.0136433E0,3.6203394E0,3.9237957E0,0E0,0E0,0E0,0E0,0E0,0E0],"parents":[2147483647,0,0,2,2,3,3,4,4,7,7,8,8,9,9,10,10],"right_children":[2,-1,4,6,8,-1,-1,10,12,14,16,-1,-1,-1,-1,-1,-1],"split_conditions":[-1.6090127E-2,-5.8669396E-2,-2.0596318E-2,-2.521167E-1,1.55446E-1,1.8166836E-2,-5.80275E-2,1.9766977E0,3.708571E-1,-6.8749925E-3,4.0030994E0,-5.437016E-2,1.6091382E-2,1.0467924E-2,2.8540002E-2,-4.8885804E-2,3.037431E-2],"split_indices":[8,0,17,17,9,0,0,15,23,8,6,0,0,0,0,0,0],"split_type":[0,0,0,0,0,0,0,0,0,0,0,0,0,0,0,0,0],"sum_hessian":[2.5676593E2,3.7127457E1,2.1963847E2,8.465351E0,2.1117313E2,1.5641296E0,6.9012218E0,2.0395114E2,7.2219887E0,1.970546E2,6.8965383E0,6.1398735E0,1.0821155E0,1.5580888E2,4.1245716E1,4.7424126E0,2.1541257E0],"tree_param":{"num_deleted":"0","num_feature":"26","num_nodes":"17","size_leaf_vector":"1"}},{"base_weights":[-1.3321292E-2,-1.0280542E0,1.6565003E-1,9.63752E-3,-5.8813848E-2,2.3334928E-1,-8.285791E-1,7.1521366E-1,1.9194415E-1,-5.55685E-2,4.523703E-2,1.0529328E-1,1.0356677E0,6.228239E-1,1.3980794E-1,-2.6328003E-2,5.225974E-2,6.548045E-2,1.6614271E-2,-2.9303001E-2,4.3488897E-2,2.6590485E-2,3.3910468E-3],"categories":[],"categories_nodes":[],"categories_segments":[],"categories_sizes":[],"default_left":[0,0,0,0,0,0,0,0,0,0,0,0,0,0,0,0,0,0,0,0,0,0,0],"id":32,"left_children":[1,3,5,-1,-1,7,9,11,13,-1,-1,15,17,19,21,-1,-1,-1,-1,-1,-1,-1,-1],"loss_changes":[4.7270805E1,2.8099403E0,1.5029888E1,0E0,0E0,4.035104E0,5.2819796E0,3.0653868E0,4.2492228E0,0E0,0E0,3.5913215E0,1.0282068E0,4.599087E0,4.645902E0,0E0,0E0,0E0,0E0,0E0,0E0,0E0,0E0],"parents":[2147483647,0,0,1,1,2,2,5,5,6,6,7,7,8,8,11,11,12,12,13,13,14,14],"right_children":[2,4,6,-1,-1,8,10,12,14,-1,-1,16,18,20,22,-1,-1,-1,-1,-1,-1,-1,-1],"split_conditions":[-1.2053594E-2,-2.909488E0,-8.225531E-3,9.63752E-3,-5.8813848E-2,-8.402318E-1,5.584166E-1,-6.0718663E-2,-4.2570367E-1,-5.55685E-2,4.523703E-2,-3.144947E-1,-6.2055606E-1,-1.3676183E-1,-1.3676788E-1,-2.6328003E-2,5.225974E-2,6.548045E-2,1.6614271E-2,-2.9303001E-2,4.3488897E-2,2.6590485E-2,3.3910468E-3],"split_indices":[17,16,17,0,0,13,23,2,19,0,0,11,12,5,5,0,0,0,0,0,0,0,0],"split_type":[0,0,0,0,0,0,0,0,0,0,0,0,0,0,0,0,0,0,0,0,0,0,0],"sum_hessian":[2.5881778E2,3.8288357E1,2.2052943E2,1.6360011E0,3.6652355E1,2.0700714E2,1.3522292E1,1.5413323E1,1.9159381E2,1.23534355E1,1.168856E0,5.6561775E0,9.757146E0,1.9790455E1,1.7180336E2,3.5333335E0,2.122844E0,7.4950805E0,2.262066E0,2.4358606E0,1.7354595E1,3.0298832E1,1.4150453E2],"tree_param":{"num_deleted":"0","num_feature":"26","num_nodes":"23","size_leaf_vector":"1"}},{"base_weights":[-1.8882604E-2,-5.7944804E-2,1.4757799E-1,-2.1236005E-1,2.567573E-1,4.529547E-1,-4.93963E-1,2.9309872E-1,-3.09195E-1,-1.5103915E-1,9.3402404E-1,9.01108E-2,-8.103748E-1,1.5552884E-1,4.636508E-1,-6.6404454E-2,-7.721037E-2,3.8579345E-2,-6.232775E-2,5.9176907E-2,2.0762239E-2,-5.3713307E-2,1.7467868E-2,3.6961984E-2,-4.9067847E-2,-2.7062774E-2,2.047599E-2,1.7286913E-2,5.1469468E-2,-7.46317E-2,1.256973E-2],"categories":[],"categories_nodes":[],"categories_segments":[],"categories_sizes":[],"default_left":[0,0,0,0,0,0,0,0,0,0,0,0,0,0,0,0,0,0,0,0,0,0,0,0,0,0,0,0,0,0,0],"id":33,"left_children":[1,-1,3,5,7,9,11,13,15,17,19,21,23,25,27,29,-1,-1,-1,-1,-1,-1,-1,-1,-1,-1,-1,-1,-1,-1,-1],"loss_changes":[4.372574E1,0E0,8.529692E0,9.656223E0,3.4828405E0,4.5974607E0,6.7054358E0,3.6122484E0,2.721153E0,7.038827E0,4.3270206E-1,3.559771E0,3.7554464E0,1.2892783E1,4.6501417E0,3.8747501E0,0E0,0E0,0E0,0E0,0E0,0E0,0E0,0E0,0E0,0E0,0E0,0E0,0E0,0E0,0E0],"parents":[2147483647,0,0,2,2,3,3,4,4,5,5,6,6,7,7,8,8,9,9,10,10,11,11,12,12,13,13,14,14,15,15],"right_children":[2,-1,4,6,8,10,12,14,16,18,20,22,24,26,28,30,-1,-1,-1,-1,-1,-1,-1,-1,-1,-1,-1,-1,-1,-1,-1],"split_conditions":[-1.6090127E-2,-5.7944804E-2,1.939378E-1,-5.749621E-1,7.3060066E-1,-9.190713E-3,-2.2379498E-1,7.072184E-1,-2.9895318E-1,-3.968664E-2,-3.8006373E-2,-6.80098E-1,-1.0974597E-1,-5.607008E-1,-7.6190312E-3,-3.1558377E-1,-7.721037E-2,3.8579345E-2,-6.232775E-2,5.9176907E-2,2.0762239E-2,-5.3713307E-2,1.7467868E-2,3.6961984E-2,-4.9067847E-2,-2.7062774E-2,2.047599E-2,1.7286913E-2,5.1469468E-2,-7.46317E-2,1.256973E-2],"split_indices":[8,0,16,16,20,8,1,20,19,9,9,0,23,12,8,11,0,0,0,0,0,0,0,0,0,0,0,0,0,0,0],"split_type":[0,0,0,0,0,0,0,0,0,0,0,0,0,0,0,0,0,0,0,0,0,0,0,0,0,0,0,0,0,0,0],"sum_hessian":[2.488E2,3.3516685E1,2.1528333E2,4.99214E1,1.6536192E2,1.4702765E1,3.521863E1,1.557337E2,9.628219E0,6.7338767E0,7.9688883E0,1.2549687E1,2.2668947E1,8.701227E1,6.8721436E1,8.553987E0,1.0742322E0,3.7212431E0,3.0126338E0,5.625025E0,2.3438637E0,1.7852843E0,1.0764403E1,1.0713121E0,2.1597633E1,2.1797424E1,6.521484E1,5.3882736E1,1.4838698E1,1.0983014E0,7.455685E0],"tree_param":{"num_deleted":"0","num_feature":"26","num_nodes":"31","size_leaf_vector":"1"}},{"base_weights":[-1.5808193E-2,-5.7587113E-2,1.3993438E-1,-5.2749354E-2,1.6979627E-1,2.049836E-1,-6.61559E-1,5.3346145E-1,1.4536084E-1,-5.45368E-2,3.484812E-2,-7.755145E-4,3.9611064E-2,-1.2400156E-2,1.3440524E-2],"categories":[],"categories_nodes":[],"categories_segments":[],"categories_sizes":[],"default_left":[0,0,0,0,0,0,0,0,0,0,0,0,0,0,0],"id":34,"left_children":[1,-1,3,-1,5,7,9,11,13,-1,-1,-1,-1,-1,-1],"loss_changes":[4.051426E1,0E0,7.3059907E0,0E0,6.280571E0,3.9203358E0,4.406144E0,3.3542109E0,6.6817193E0,0E0,0E0,0E0,0E0,0E0,0E0],"parents":[2147483647,0,0,2,2,4,4,5,5,6,6,7,7,8,8],"right_children":[2,-1,4,-1,6,8,10,12,14,-1,-1,-1,-1,-1,-1],"split_conditions":[-1.6090127E-2,-5.7587113E-2,-1.3854048E-1,-5.2749354E-2,5.369532E-2,-1.3677607E-1,1.383093E0,-3.9715115E-2,-1.3657732E-1,-5.45368E-2,3.484812E-2,-7.755145E-4,3.9611064E-2,-1.2400156E-2,1.3440524E-2],"split_indices":[8,0,5,0,9,5,15,9,5,0,0,0,0,0,0],"split_type":[0,0,0,0,0,0,0,0,0,0,0,0,0,0,0],"sum_hessian":[2.4720071E2,3.1485292E1,2.1571542E2,5.0218596E0,2.1069356E2,2.0268143E2,8.012135E0,3.0213558E1,1.7246786E2,6.478496E0,1.5336384E0,8.159727E0,2.2053831E1,3.6880165E1,1.355877E2],"tree_param":{"num_deleted":"0","num_feature":"26","num_nodes":"15","size_leaf_vector":"1"}},{"base_weights":[-9.516117E-3,-5.725247E-2,1.3688421E-1,-1.7796583E-1,2.3196055E-1,3.3672136E-1,-4.2740753E-1,2.846839E-1,-1.3014616E-1,-2.5282285E-1,6.538171E-1,1.1945741E-1,-8.1996447E-1,6.9452584E-1,2.1046202E-1,1.4513707E-1,-1.215173E0,-8.26089E-2,2.199954E-2,4.3043334E-2,-1.0447396E-2,-4.959471E-2,1.7635796E-2,2.1870265E-2,-5.643558E-2,-2.3305431E-2,4.457003E-2,2.9544745E-2,5.646443E-3,-9.269604E-3,4.5740347E-2,-1.09558694E-1,2.2126516E-2],"categories":[],"categories_nodes":[],"categories_segments":[],"categories_sizes":[],"default_left":[0,0,0,0,0,0,0,0,0,0,0,0,0,0,0,0,0,0,0,0,0,0,0,0,0,0,0,0,0,0,0,0,0],"id":35,"left_children":[1,-1,3,5,7,9,11,13,15,17,19,21,23,25,27,29,31,-1,-1,-1,-1,-1,-1,-1,-1,-1,-1,-1,-1,-1,-1,-1,-1],"loss_changes":[3.800689E1,0E0,6.5464354E0,6.638561E0,3.2269173E0,3.3049922E0,7.5076637E0,4.339575E0,6.643594E0,5.8783464E0,1.4538732E0,3.4247563E0,5.782983E0,3.4317408E0,4.39995E0,4.089783E0,6.4931364E0,0E0,0E0,0E0,0E0,0E0,0E0,0E0,0E0,0E0,0E0,0E0,0E0,0E0,0E0,0E0,0E0],"parents":[2147483647,0,0,2,2,3,3,4,4,5,5,6,6,7,7,8,8,9,9,10,10,11,11,12,12,13,13,14,14,15,15,16,16],"right_children":[2,-1,4,6,8,10,12,14,16,18,20,22,24,26,28,30,32,-1,-1,-1,-1,-1,-1,-1,-1,-1,-1,-1,-1,-1,-1,-1,-1],"split_conditions":[-1.6090127E-2,-5.725247E-2,1.939378E-1,-4.8388898E-1,-5.6616772E-2,-3.902011E-1,-4.2937666E-1,-1.3677895E-1,7.1599014E-2,-5.951268E-1,5.9541714E-1,-1.37325E-1,-3.6810824E-1,2.5342262E-1,-8.360149E-1,-3.059123E-1,-2.6579154E-1,-8.26089E-2,2.199954E-2,4.3043334E-2,-1.0447396E-2,-4.959471E-2,1.7635796E-2,2.1870265E-2,-5.643558E-2,-2.3305431E-2,4.457003E-2,2.9544745E-2,5.646443E-3,-9.269604E-3,4.5740347E-2,-1.09558694E-1,2.2126516E-2],"split_indices":[8,0,16,16,2,19,12,5,19,12,6,5,19,16,7,11,11,0,0,0,0,0,0,0,0,0,0,0,0,0,0,0,0],"split_type":[0,0,0,0,0,0,0,0,0,0,0,0,0,0,0,0,0,0,0,0,0,0,0,0,0,0,0,0,0,0,0,0,0],"sum_hessian":[2.4664215E2,2.9721855E1,2.1692029E2,5.013936E1,1.6678093E2,1.627091E1,3.386845E1,1.4574403E2,2.10369E1,5.732487E0,1.0538424E1,1.4356692E1,1.9511757E1,2.1383497E1,1.24360535E2,1.7281706E1,3.7551935E0,1.6315218E0,4.1009655E0,9.092416E0,1.4460076E0,1.9539068E0,1.2402785E1,2.8830886E0,1.662867E1,1.9905713E0,1.9392925E1,2.9252678E1,9.510786E1,1.2270691E1,5.0110154E0,2.3935273E0,1.3616661E0],"tree_param":{"num_deleted":"0","num_feature":"26","num_nodes":"33","size_leaf_vector":"1"}},{"base_weights":[-1.7331587E-2,-9.756515E-1,1.4285845E-1,-1.1078582E0,5.232797E-2,3.2874277E-1,-3.5612784E-2,-7.01623E-3,-1.1420261E0,3.986208E-1,-3.2048056E-1,8.04843E-1,-1.2983567E-1,-1.0356479E0,-1.20646745E-1,-5.356126E-2,4.362724E-1,-7.655169E-1,4.0387392E-1,-4.05047E-2,1.1310254E0,-3.808834E-1,2.0846422E-1,-5.697175E-2,-1.883667E-2,3.942151E-2,1.5400235E-2,-1.3550021E-2,-7.3007904E-2,-2.7803542E-2,5.258431E-2,6.65417E-2,2.0720486E-2,2.6070012E-2,-3.226178E-2,4.5537334E-2,-3.6442645E-3],"categories":[],"categories_nodes":[],"categories_segments":[],"categories_sizes":[],"default_left":[0,0,0,0,0,0,0,0,0,0,0,0,0,0,0,0,0,0,0,0,0,0,0,0,0,0,0,0,0,0,0,0,0,0,0,0,0],"id":36,"left_children":[1,3,5,7,-1,9,11,-1,13,15,17,19,21,23,-1,-1,25,27,29,-1,31,33,35,-1,-1,-1,-1,-1,-1,-1,-1,-1,-1,-1,-1,-1,-1],"loss_changes":[3.745594E1,9.753975E0,6.947123E0,9.8443604E-1,0E0,4.7450695E0,8.567503E0,0E0,1.9396133E0,5.1605253E0,3.569531E0,6.1474986E0,8.308957E0,3.0574799E-2,0E0,0E0,3.8641815E0,1.7368035E0,2.6604307E0,0E0,3.092184E-1,1.0545236E1,7.3287992E0,0E0,0E0,0E0,0E0,0E0,0E0,0E0,0E0,0E0,0E0,0E0,0E0,0E0,0E0],"parents":[2147483647,0,0,1,1,2,2,3,3,5,5,6,6,8,8,9,9,10,10,11,11,12,12,13,13,16,16,17,17,18,18,20,20,21,21,22,22],"right_children":[2,4,6,8,-1,10,12,-1,14,16,18,20,22,24,-1,-1,26,28,30,-1,32,34,36,-1,-1,-1,-1,-1,-1,-1,-1,-1,-1,-1,-1,-1,-1],"split_conditions":[-1.1773892E-2,6.16601E-1,-3.1390294E-1,-6.2061644E-1,5.232797E-2,7.3060066E-1,-1.5031418E0,-7.01623E-3,-1.1840809E-2,-2.660767E0,-1.9869652E-1,-1.3670824E-1,9.388672E-1,5.7598644E-1,-1.20646745E-1,-5.356126E-2,-9.9081165E-1,-1.3597828E-1,3.022135E-1,-4.05047E-2,1.8448982E0,-1.13707185E-2,6.279361E-1,-5.697175E-2,-1.883667E-2,3.942151E-2,1.5400235E-2,-1.3550021E-2,-7.3007904E-2,-2.7803542E-2,5.258431E-2,6.65417E-2,2.0720486E-2,2.6070012E-2,-3.226178E-2,4.5537334E-2,-3.6442645E-3],"split_indices":[8,0,1,12,0,20,22,0,8,22,10,5,7,15,0,0,24,5,22,0,15,8,12,0,0,0,0,0,0,0,0,0,0,0,0,0,0],"split_type":[0,0,0,0,0,0,0,0,0,0,0,0,0,0,0,0,0,0,0,0,0,0,0,0,0,0,0,0,0,0,0,0,0,0,0,0,0],"sum_hessian":[2.4253459E2,3.420658E1,2.08328E2,3.232537E1,1.8812103E0,1.01766914E2,1.065611E2,1.2190357E0,3.1106337E1,9.21477E1,9.619215E0,1.0171991E1,9.63891E1,2.9643936E1,1.4624007E0,1.9383548E0,9.020934E1,5.9405975E0,3.6786175E0,1.5966791E0,8.575313E0,5.5292553E1,4.109655E1,2.8620653E1,1.0232831E0,3.0034487E1,6.0174854E1,3.7135363E0,2.227061E0,1.4240773E0,2.2545402E0,7.172461E0,1.4028515E0,1.0811079E1,4.4481472E1,1.2043663E1,2.9052885E1],"tree_param":{"num_deleted":"0","num_feature":"26","num_nodes":"37","size_leaf_vector":"1"}},{"base_weights":[1.4797344E-2,-5.665899E-2,1.5451843E-1,-5.1409412E-2,1.8279178E-1,2.1652019E-1,-6.4801484E-1,6.551697E-1,1.7986381E-1,-5.4180663E-2,4.4694986E-2,-3.0185582E-2,4.618723E-2,3.1545606E-2,7.2900434E-3],"categories":[],"categories_nodes":[],"categories_segments":[],"categories_sizes":[],"default_left":[0,0,0,0,0,0,0,0,0,0,0,0,0,0,0],"id":37,"left_children":[1,-1,3,-1,5,7,9,11,13,-1,-1,-1,-1,-1,-1],"loss_changes":[3.560144E1,0E0,6.742764E0,0E0,5.92096E0,3.1245766E0,4.88774E0,3.9587312E0,3.3278246E0,0E0,0E0,0E0,0E0,0E0,0E0],"parents":[2147483647,0,0,2,2,4,4,5,5,6,6,7,7,8,8],"right_children":[2,-1,4,-1,6,8,10,12,14,-1,-1,-1,-1,-1,-1],"split_conditions":[-1.6090127E-2,-5.665899E-2,-1.3854048E-1,-5.1409412E-2,5.369532E-2,-8.402318E-1,5.584166E-1,-2.0289372E-1,-4.257809E-1,-5.4180663E-2,4.4694986E-2,-3.0185582E-2,4.618723E-2,3.1545606E-2,7.2900434E-3],"split_indices":[8,0,5,0,9,13,23,10,19,0,0,0,0,0,0],"split_type":[0,0,0,0,0,0,0,0,0,0,0,0,0,0,0],"sum_hessian":[2.3898187E2,2.7276909E1,2.1170496E2,4.6856375E0,2.0701933E2,1.9947719E2,7.5421433E0,1.4405485E1,1.850717E2,6.2861032E0,1.2560401E0,1.8153965E0,1.2590088E1,1.7892881E1,1.6717882E2],"tree_param":{"num_deleted":"0","num_feature":"26","num_nodes":"15","size_leaf_vector":"1"}},{"base_weights":[-1.3281174E-2,-9.555421E-1,1.17913224E-1,4.1906215E-2,-1.0411671E0,1.6680945E-1,-7.526607E-1,-1.8080277E-2,-5.7433054E-2,4.5417893E-1,1.16166085E-1,-5.4622326E-2,3.383331E-2,5.598754E-1,-6.3990843E-1,-2.0022272E-1,2.0155905E-1,-5.2480423E-3,4.21332E-2,-4.8513725E-2,-8.795986E-3,9.098272E-3,-4.737334E-2,4.967891E-2,7.410637E-3],"categories":[],"categories_nodes":[],"categories_segments":[],"categories_sizes":[],"default_left":[0,0,0,0,0,0,0,0,0,0,0,0,0,0,0,0,0,0,0,0,0,0,0,0,0],"id":38,"left_children":[1,3,5,-1,7,9,11,-1,-1,13,15,-1,-1,17,19,21,23,-1,-1,-1,-1,-1,-1,-1,-1],"loss_changes":[2.9654535E1,4.933935E0,9.050384E0,0E0,8.540344E-2,2.8661737E0,4.434563E0,0E0,0E0,3.6955967E0,4.6507735E0,0E0,0E0,3.9774609E0,2.4212897E-1,9.208515E0,6.1621475E0,0E0,0E0,0E0,0E0,0E0,0E0,0E0,0E0],"parents":[2147483647,0,0,1,1,2,2,4,4,5,5,6,6,9,9,10,10,13,13,14,14,15,15,16,16],"right_children":[2,4,6,-1,8,10,12,-1,-1,14,16,-1,-1,18,20,22,24,-1,-1,-1,-1,-1,-1,-1,-1],"split_conditions":[-1.2053594E-2,-5.210239E-1,-8.225531E-3,4.1906215E-2,-3.3717042E-1,-1.3677607E-1,4.3882915E-1,-1.8080277E-2,-5.7433054E-2,-5.5033088E-2,-1.3658673E-1,-5.4622326E-2,3.383331E-2,-1.37325E-1,-3.972658E-2,-3.9678082E-2,-4.0401614E-1,-5.2480423E-3,4.21332E-2,-4.8513725E-2,-8.795986E-3,9.098272E-3,-4.737334E-2,4.967891E-2,7.410637E-3],"split_indices":[17,17,17,0,19,5,23,0,0,2,5,0,0,5,9,9,1,0,0,0,0,0,0,0,0],"split_type":[0,0,0,0,0,0,0,0,0,0,0,0,0,0,0,0,0,0,0,0,0,0,0,0,0],"sum_hessian":[2.384136E2,2.8581314E1,2.0983229E2,1.0648663E0,2.7516449E1,1.992478E2,1.0584475E1,1.0499402E0,2.6466509E1,2.8945173E1,1.7030264E2,9.104913E0,1.4795619E0,2.6731106E1,2.2140675E0,3.5961258E1,1.3434137E2,6.7322125E0,1.9998894E1,1.0118015E0,1.2022659E0,2.3601824E1,1.2359435E1,1.0369333E1,1.23972046E2],"tree_param":{"num_deleted":"0","num_feature":"26","num_nodes":"25","size_leaf_vector":"1"}},{"base_weights":[2.2061602E-3,-5.612724E-2,1.3059725E-1,-7.291991E-1,1.6125922E-1,1.2333809E-2,-5.4826066E-2,2.1055569E-1,-2.9811624E-1,1.6271807E-1,5.7217395E-1,4.3856558E-1,-5.548465E-1,1.12508945E-2,-3.3974413E-2,4.5582436E-2,-7.5754477E-3,5.3019255E-2,-2.608781E-2,-6.512942E-2,7.1616825E-3],"categories":[],"categories_nodes":[],"categories_segments":[],"categories_sizes":[],"default_left":[0,0,0,0,0,0,0,0,0,0,0,0,0,0,0,0,0,0,0,0,0],"id":39,"left_children":[1,-1,3,5,7,-1,-1,9,11,13,15,17,19,-1,-1,-1,-1,-1,-1,-1,-1],"loss_changes":[3.1257576E1,0E0,5.5889378E0,2.149475E0,4.6274586E0,0E0,0E0,3.093254E0,3.9431086E0,5.843463E0,4.121812E0,3.0997725E0,6.8243275E0,0E0,0E0,0E0,0E0,0E0,0E0,0E0,0E0],"parents":[2147483647,0,0,2,2,3,3,4,4,7,7,8,8,9,9,10,10,11,11,12,12],"right_children":[2,-1,4,6,8,-1,-1,10,12,14,16,18,20,-1,-1,-1,-1,-1,-1,-1,-1],"split_conditions":[-1.6090127E-2,-5.612724E-2,-2.0596318E-2,-2.521167E-1,6.0849875E-1,1.2333809E-2,-5.4826066E-2,1.1651151E0,6.4814603E-1,4.2521602E-1,-7.3348256E-3,1.4134573E0,3.3725166E0,1.12508945E-2,-3.3974413E-2,4.5582436E-2,-7.5754477E-3,5.3019255E-2,-2.608781E-2,-6.512942E-2,7.1616825E-3],"split_indices":[8,0,17,17,4,0,0,24,6,11,8,24,14,0,0,0,0,0,0,0,0],"split_type":[0,0,0,0,0,0,0,0,0,0,0,0,0,0,0,0,0,0,0,0,0],"sum_hessian":[2.3329686E2,2.5116076E1,2.0818077E2,6.579964E0,2.0160081E2,1.5220593E0,5.0579047E0,1.8244221E2,1.9158592E1,1.6209357E2,2.0348656E1,4.806831E0,1.4351762E1,1.5391992E2,8.173648E0,1.4690127E1,5.6585293E0,3.007473E0,1.7993578E0,7.118126E0,7.2336354E0],"tree_param":{"num_deleted":"0","num_feature":"26","num_nodes":"21","size_leaf_vector":"1"}},{"base_weights":[1.0575182E-3,-9.556251E-1,1.24531746E-1,1.0279258E-2,-5.6784157E-2,1.7072229E-1,-7.6210487E-1,3.7857667E-1,9.497254E-2,-5.3887717E-2,2.9641071E-2,3.0954743E-2,7.500515E-1,-1.3234068E-1,2.3454739E-1,2.4039572E-2,-4.563075E-2,5.379218E-2,-3.6836028E-2,4.6098005E-2,-1.4679589E-2,3.8400073E-2,4.493544E-3],"categories":[],"categories_nodes":[],"categories_segments":[],"categories_sizes":[],"default_left":[0,0,0,0,0,0,0,0,0,0,0,0,0,0,0,0,0,0,0,0,0,0,0],"id":40,"left_children":[1,3,5,-1,-1,7,9,11,13,-1,-1,15,17,19,21,-1,-1,-1,-1,-1,-1,-1,-1],"loss_changes":[2.729125E1,2.92206E0,8.473078E0,0E0,0E0,3.0418744E0,3.5144877E0,6.6707325E0,4.5942492E0,0E0,0E0,1.0187452E1,9.150351E0,7.673729E0,6.381482E0,0E0,0E0,0E0,0E0,0E0,0E0,0E0,0E0],"parents":[2147483647,0,0,1,1,2,2,5,5,6,6,7,7,8,8,11,11,12,12,13,13,14,14],"right_children":[2,4,6,-1,-1,8,10,12,14,-1,-1,16,18,20,22,-1,-1,-1,-1,-1,-1,-1,-1],"split_conditions":[-1.2053594E-2,-2.521167E-1,-8.225531E-3,1.0279258E-2,-5.6784157E-2,-1.0140499E0,4.3882915E-1,-1.9430938E-1,-3.232157E-1,-5.3887717E-2,2.9641071E-2,-1.9493844E-1,-3.893532E-2,-8.399724E-1,2.4281804E-2,2.4039572E-2,-4.563075E-2,5.379218E-2,-3.6836028E-2,4.6098005E-2,-1.4679589E-2,3.8400073E-2,4.493544E-3],"split_indices":[17,17,17,0,0,24,23,4,24,0,0,4,2,13,25,0,0,0,0,0,0,0,0],"split_type":[0,0,0,0,0,0,0,0,0,0,0,0,0,0,0,0,0,0,0,0,0,0,0],"sum_hessian":[2.2962373E2,2.5672325E1,2.039514E2,1.8336866E0,2.3838638E1,1.944279E2,9.523498E0,5.111107E1,1.4331683E2,8.248214E0,1.2752833E0,2.6828657E1,2.4282413E1,5.451056E1,8.8806274E1,1.847131E1,8.357348E0,2.0965961E1,3.3164508E0,6.253133E0,4.8257427E1,2.0872969E1,6.793331E1],"tree_param":{"num_deleted":"0","num_feature":"26","num_nodes":"23","size_leaf_vector":"1"}},{"base_weights":[-6.502547E-3,-9.508447E-1,1.1555532E-1,1.2471929E-2,-5.654414E-2,1.6010824E-1,-7.565413E-1,2.4680097E-1,-8.4564246E-2,-5.3414404E-2,2.4172353E-2,8.703007E-1,2.0025596E-1,1.0294458E0,-2.2699094E-1,-1.0964249E-2,5.6615785E-2,1.3144414E-2,-3.3543162E-2,1.4670064E-2,6.1980154E-2,-1.0921085E-3,-3.732989E-2],"categories":[],"categories_nodes":[],"categories_segments":[],"categories_sizes":[],"default_left":[0,0,0,0,0,0,0,0,0,0,0,0,0,0,0,0,0,0,0,0,0,0,0],"id":41,"left_children":[1,3,5,-1,-1,7,9,11,13,-1,-1,15,17,19,21,-1,-1,-1,-1,-1,-1,-1,-1],"loss_changes":[2.63666E1,3.0247307E0,7.9528437E0,0E0,0E0,4.117198E0,3.0649185E0,4.009981E0,8.271254E0,0E0,0E0,1.9700813E0,4.7298217E0,2.6859522E-1,4.365032E0,0E0,0E0,0E0,0E0,0E0,0E0,0E0,0E0],"parents":[2147483647,0,0,1,1,2,2,5,5,6,6,7,7,8,8,11,11,12,12,13,13,14,14],"right_children":[2,4,6,-1,-1,8,10,12,14,-1,-1,16,18,20,22,-1,-1,-1,-1,-1,-1,-1,-1],"split_conditions":[-1.2053594E-2,-2.521167E-1,-8.225531E-3,1.2471929E-2,-5.654414E-2,4.4911405E-1,1.2471368E0,-6.2058675E-1,-1.6115957E-1,-5.3414404E-2,2.4172353E-2,-1.9508314E-1,7.3060066E-1,-3.5891584E-1,-2.510016E-1,-1.0964249E-2,5.6615785E-2,1.3144414E-2,-3.3543162E-2,1.4670064E-2,6.1980154E-2,-1.0921085E-3,-3.732989E-2],"split_indices":[17,17,17,0,0,25,15,12,16,0,0,4,20,19,11,0,0,0,0,0,0,0,0],"split_type":[0,0,0,0,0,0,0,0,0,0,0,0,0,0,0,0,0,0,0,0,0,0,0],"sum_hessian":[2.2724133E2,2.5445946E1,2.0179538E2,1.7494129E0,2.3696533E1,1.9256981E2,9.225571E0,1.4221301E2,5.0356796E1,7.8709636E0,1.3546075E0,8.959128E0,1.3325389E2,5.1807303E0,4.5176067E1,1.2245579E0,7.7345705E0,1.2723642E2,6.0174646E0,1.0091983E0,4.171532E0,3.1737179E1,1.3438887E1],"tree_param":{"num_deleted":"0","num_feature":"26","num_nodes":"23","size_leaf_vector":"1"}},{"base_weights":[-7.7504143E-3,-5.534211E-2,1.02617346E-1,-5.3244334E-1,1.3690682E-1,3.0773977E-2,-8.270591E-1,5.7630116E-1,8.056064E-2,1.8591134E-2,-1.0641233E0,7.472056E-1,-4.9719375E-2,-2.5313005E-1,1.6068888E-1,-8.3206855E-2,-2.6305307E-2,4.9762733E-2,-4.6421673E-2,3.3933252E-2,-3.2801572E-2,2.7240077E-2,1.3755228E-3],"categories":[],"categories_nodes":[],"categories_segments":[],"categories_sizes":[],"default_left":[0,0,0,0,0,0,0,0,0,0,0,0,0,0,0,0,0,0,0,0,0,0,0],"id":42,"left_children":[1,-1,3,5,7,-1,9,11,13,-1,15,17,-1,19,21,-1,-1,-1,-1,-1,-1,-1,-1],"loss_changes":[2.5388765E1,0E0,4.509225E0,3.7919762E0,4.7846985E0,0E0,2.6852384E0,6.120375E0,4.6711926E0,0E0,1.4505348E0,6.0895452E0,0E0,1.075275E1,6.479782E0,0E0,0E0,0E0,0E0,0E0,0E0,0E0,0E0],"parents":[2147483647,0,0,2,2,3,3,4,4,6,6,7,7,8,8,10,10,11,11,13,13,14,14],"right_children":[2,-1,4,6,8,-1,10,12,14,-1,16,18,-1,20,22,-1,-1,-1,-1,-1,-1,-1,-1],"split_conditions":[-1.6090127E-2,-5.534211E-2,-1.37325E-1,-3.1927395E-1,-1.3677607E-1,3.0773977E-2,-1.9751462E-1,-5.5033088E-2,-1.3660021E-1,1.8591134E-2,3.0562234E-1,-6.025598E-3,-4.9719375E-2,-1.1425065E-2,-7.564299E-1,-8.3206855E-2,-2.6305307E-2,4.9762733E-2,-4.6421673E-2,3.3933252E-2,-3.2801572E-2,2.7240077E-2,1.3755228E-3],"split_indices":[8,0,5,18,5,0,16,2,5,0,21,8,0,8,24,0,0,0,0,0,0,0,0],"split_type":[0,0,0,0,0,0,0,0,0,0,0,0,0,0,0,0,0,0,0,0,0,0,0],"sum_hessian":[2.2562646E2,2.1582655E1,2.0404382E2,9.890361E0,1.9415346E2,1.9385153E0,7.9518456E0,2.127586E1,1.728776E2,1.2777247E0,6.674121E0,1.942668E1,1.8491803E0,3.3143623E1,1.3973398E2,3.0032368E0,3.670884E0,1.7849838E1,1.5768417E0,9.30176E0,2.3841864E1,3.90586E1,1.0067537E2],"tree_param":{"num_deleted":"0","num_feature":"26","num_nodes":"23","size_leaf_vector":"1"}},{"base_weights":[-1.7181912E-2,-9.298925E-1,1.0171811E-1,4.6520345E-2,-1.0533044E0,-5.319832E-2,1.2626646E-1,1.3537364E-2,-1.1236739E0,3.3909804E-1,1.6698072E-2,-9.841877E-1,-1.0405354E-1,2.2988379E-1,1.0261492E0,9.21954E-2,-4.9280882E-1,-1.1456319E-2,-5.5002812E-2,1.878377E-2,-1.7695868E-2,6.507928E-2,1.0041508E-2,-2.8636778E-4,2.7574474E-2,-5.0595377E-2,4.927474E-4],"categories":[],"categories_nodes":[],"categories_segments":[],"categories_sizes":[],"default_left":[0,0,0,0,0,0,0,0,0,0,0,0,0,0,0,0,0,0,0,0,0,0,0,0,0,0,0],"id":43,"left_children":[1,3,5,-1,7,-1,9,-1,11,13,15,17,-1,19,21,23,25,-1,-1,-1,-1,-1,-1,-1,-1,-1,-1],"loss_changes":[2.4091883E1,6.312685E0,5.3043065E0,0E0,2.440176E0,0E0,4.487154E0,0E0,1.1508808E0,4.724415E0,4.9550323E0,3.2455635E-1,0E0,3.8044255E0,1.103343E0,4.5579166E0,3.6879606E0,0E0,0E0,0E0,0E0,0E0,0E0,0E0,0E0,0E0,0E0],"parents":[2147483647,0,0,1,1,2,2,4,4,6,6,8,8,9,9,10,10,11,11,13,13,14,14,15,15,16,16],"right_children":[2,4,6,-1,8,-1,10,-1,12,14,16,18,-1,20,22,24,26,-1,-1,-1,-1,-1,-1,-1,-1,-1,-1],"split_conditions":[-1.1773892E-2,-3.434495E-1,-3.9742973E-2,4.6520345E-2,-6.2047005E-1,-5.319832E-2,-4.0897357E-1,1.3537364E-2,-1.1840809E-2,-3.371462E-1,6.306336E-1,-1.8430139E-1,-1.0405354E-1,8.549623E-1,-3.2670593E-1,-1.1464329E-1,3.3439353E0,-1.1456319E-2,-5.5002812E-2,1.878377E-2,-1.7695868E-2,6.507928E-2,1.0041508E-2,-2.8636778E-4,2.7574474E-2,-5.0595377E-2,4.927474E-4],"split_indices":[8,18,9,0,6,0,19,0,8,18,4,10,0,22,18,4,14,0,0,0,0,0,0,0,0,0,0],"split_type":[0,0,0,0,0,0,0,0,0,0,0,0,0,0,0,0,0,0,0,0,0,0,0,0,0,0,0],"sum_hessian":[2.2055038E2,2.4849995E1,1.957004E2,1.3166149E0,2.353338E1,3.6937966E0,1.9200659E2,1.102803E0,2.2430576E1,6.470005E1,1.2730654E2,2.0495543E1,1.9350345E0,5.668609E1,8.013959E0,1.1141876E2,1.5887775E1,1.0015442E0,1.9493998E1,4.7112846E1,9.573242E0,6.370373E0,1.6435859E0,9.085059E1,2.0568172E1,8.137024E0,7.750752E0],"tree_param":{"num_deleted":"0","num_feature":"26","num_nodes":"27","size_leaf_vector":"1"}},{"base_weights":[-2.7644068E-2,-5.4847326E-2,7.163731E-2,2.8758466E-1,-3.1727005E-2,3.8779423E-1,-2.8649765E-1,-1.6316186E-1,2.1852095E-1,5.259441E-1,-1.9643316E-1,-1.0284536E0,5.800569E-1,2.396267E-1,-3.7099794E-1,6.228484E-2,7.2352454E-2,3.3368453E-2,-1.3048425E-2,-4.4188734E-2,1.5173134E-2,-8.087296E-2,5.7041273E-3,5.1406365E-2,-1.684561E-2,-2.7641915E-3,3.8255353E-2,4.813372E-3,-3.4389548E-2,8.385139E-3,-6.0010828E-2],"categories":[],"categories_nodes":[],"categories_segments":[],"categories_sizes":[],"default_left":[0,0,0,0,0,0,0,0,0,0,0,0,0,0,0,0,0,0,0,0,0,0,0,0,0,0,0,0,0,0,0],"id":44,"left_children":[1,-1,3,5,7,9,11,13,15,17,19,21,23,25,27,-1,29,-1,-1,-1,-1,-1,-1,-1,-1,-1,-1,-1,-1,-1,-1],"loss_changes":[2.1717707E1,0E0,4.519665E0,3.8518324E0,4.5415053E0,4.6076183E0,6.967149E0,7.6396923E0,6.393833E0,3.2367296E0,3.487345E0,3.1395946E0,1.9090645E0,4.25927E0,7.303503E0,0E0,4.181666E0,0E0,0E0,0E0,0E0,0E0,0E0,0E0,0E0,0E0,0E0,0E0,0E0,0E0,0E0],"parents":[2147483647,0,0,2,2,3,3,4,4,5,5,6,6,7,7,8,8,9,9,10,10,11,11,12,12,13,13,14,14,16,16],"right_children":[2,-1,4,6,8,10,12,14,16,18,20,22,24,26,28,-1,30,-1,-1,-1,-1,-1,-1,-1,-1,-1,-1,-1,-1,-1,-1],"split_conditions":[-1.6090127E-2,-5.4847326E-2,-8.3046967E-1,-9.8336056E-2,9.388672E-1,7.3060066E-1,-3.9499227E-2,-2.0120212E-1,1.1361467E0,-3.4479126E-1,3.7207082E-1,-4.996995E-2,-7.2926533E-1,-9.190713E-3,-3.1086573E-1,6.228484E-2,4.5927052E0,3.3368453E-2,-1.3048425E-2,-4.4188734E-2,1.5173134E-2,-8.087296E-2,5.7041273E-3,5.1406365E-2,-1.684561E-2,-2.7641915E-3,3.8255353E-2,4.813372E-3,-3.4389548E-2,8.385139E-3,-6.0010828E-2],"split_indices":[8,0,13,19,7,20,9,22,13,0,22,2,14,8,11,0,19,0,0,0,0,0,0,0,0,0,0,0,0,0,0],"split_type":[0,0,0,0,0,0,0,0,0,0,0,0,0,0,0,0,0,0,0,0,0,0,0,0,0,0,0,0,0,0,0],"sum_hessian":[2.2098131E2,1.9645138E1,2.0133617E2,6.477919E1,1.3655698E2,5.5369637E1,9.409556E0,8.972565E1,4.6831333E1,4.4853115E1,1.051652E1,5.0009704E0,4.408586E0,3.0485714E1,5.9239933E1,5.6655216E0,4.1165813E1,4.0310005E1,4.5431113E0,4.3559766E0,6.160543E0,3.3918796E0,1.6090908E0,3.0939004E0,1.3146855E0,1.9165375E1,1.1320339E1,2.1729862E1,3.751007E1,3.9086266E1,2.0795457E0],"tree_param":{"num_deleted":"0","num_feature":"26","num_nodes":"31","size_leaf_vector":"1"}},{"base_weights":[3.8369158E-3,-5.4566097E-2,9.878877E-2,4.8615724E-1,4.7443807E-2,1.0582497E-1,7.4401116E-1,2.351168E-1,-6.893864E-2,-6.72707E-2,5.134527E-1,9.675175E-1,-2.6563948E-1,8.236201E-1,1.0416117E-1,-3.0460757E-1,2.9790556E-1,4.1592218E-2,-4.1570924E-2,5.9145592E-2,1.1725016E-2,-4.7996685E-2,1.990264E-2,-3.2359127E-2,5.6190643E-2,-1.8074831E-2,1.6518617E-2,1.8408218E-2,-2.5511663E-2,4.7081053E-2,4.256639E-3],"categories":[],"categories_nodes":[],"categories_segments":[],"categories_sizes":[],"default_left":[0,0,0,0,0,0,0,0,0,0,0,0,0,0,0,0,0,0,0,0,0,0,0,0,0,0,0,0,0,0,0],"id":45,"left_children":[1,-1,3,5,7,9,11,13,15,-1,17,19,21,23,25,27,29,-1,-1,-1,-1,-1,-1,-1,-1,-1,-1,-1,-1,-1,-1],"loss_changes":[2.126788E1,0E0,4.010744E0,2.2512336E0,3.942175E0,6.1812687E0,3.3428135E0,5.2492294E0,9.71162E0,0E0,3.1999383E0,8.8581944E-1,1.4582139E0,4.218052E0,5.102396E0,7.414793E0,5.4455867E0,0E0,0E0,0E0,0E0,0E0,0E0,0E0,0E0,0E0,0E0,0E0,0E0,0E0,0E0],"parents":[2147483647,0,0,2,2,3,3,4,4,5,5,6,6,7,7,8,8,10,10,11,11,12,12,13,13,14,14,15,15,16,16],"right_children":[2,-1,4,6,8,10,12,14,16,-1,18,20,22,24,26,28,30,-1,-1,-1,-1,-1,-1,-1,-1,-1,-1,-1,-1,-1,-1],"split_conditions":[-1.6090127E-2,-5.4566097E-2,-1.1783694E0,-7.2926533E-1,-8.165807E-1,-2.027693E-1,7.724412E-1,-5.5386657E-1,9.388672E-1,-6.72707E-2,-1.9478816E-1,-1.3406771E-1,-2.9377726E-1,-4.2820078E-1,-1.9461127E-1,-1.1382165E-2,5.9541714E-1,4.1592218E-2,-4.1570924E-2,5.9145592E-2,1.1725016E-2,-4.7996685E-2,1.990264E-2,-3.2359127E-2,5.6190643E-2,-1.8074831E-2,1.6518617E-2,1.8408218E-2,-2.5511663E-2,4.7081053E-2,4.256639E-3],"split_indices":[8,0,23,14,13,10,12,0,7,0,4,11,0,23,4,8,6,0,0,0,0,0,0,0,0,0,0,0,0,0,0],"split_type":[0,0,0,0,0,0,0,0,0,0,0,0,0,0,0,0,0,0,0,0,0,0,0,0,0,0,0,0,0,0,0],"sum_hessian":[2.2034135E2,1.8317251E1,2.0202411E2,2.2892256E1,1.7913185E2,9.684068E0,1.3208189E1,6.830932E1,1.1082253E2,1.8953967E0,7.7886705E0,1.0847097E1,2.3610919E0,1.1711254E1,5.659807E1,6.756688E1,4.3255653E1,6.753646E0,1.0350245E0,9.02254E0,1.8245572E0,1.0520557E0,1.3090361E0,1.3454835E0,1.0365771E1,1.7616343E1,3.8981724E1,1.3666032E1,5.390085E1,1.1400747E1,3.1854906E1],"tree_param":{"num_deleted":"0","num_feature":"26","num_nodes":"31","size_leaf_vector":"1"}},{"base_weights":[-2.6495447E-2,-9.271354E-1,6.923303E-2,1.03469845E-2,-5.551084E-2,1.3623096E-1,-4.1744953E-1,1.14203796E-1,6.0472965E-2,-1.004596E0,1.5666458E-1,2.542227E-1,-4.5282827E-3,-1.1134857E0,-6.374466E-3,-5.063068E-1,6.64455E-1,2.5075056E-2,2.672012E-3,-1.7042046E-2,1.22721605E-2,-8.779917E-2,-4.793639E-2,-6.0242526E-2,1.4242886E-2,-1.7056478E-2,4.8204854E-2],"categories":[],"categories_nodes":[],"categories_segments":[],"categories_sizes":[],"default_left":[0,0,0,0,0,0,0,0,0,0,0,0,0,0,0,0,0,0,0,0,0,0,0,0,0,0,0],"id":46,"left_children":[1,3,5,-1,-1,7,9,11,-1,13,15,17,19,21,-1,23,25,-1,-1,-1,-1,-1,-1,-1,-1,-1,-1],"loss_changes":[1.8946398E1,2.4299603E0,6.5193048E0,0E0,0E0,3.6736662E0,8.285546E0,2.8665345E0,0E0,1.0584927E0,4.5823174E0,3.3524542E0,6.766108E0,1.5899181E-1,0E0,3.0089636E0,1.8849115E0,0E0,0E0,0E0,0E0,0E0,0E0,0E0,0E0,0E0,0E0],"parents":[2147483647,0,0,1,1,2,2,5,5,6,6,7,7,9,9,10,10,11,11,12,12,13,13,15,15,16,16],"right_children":[2,4,6,-1,-1,8,10,12,-1,14,16,18,20,22,-1,24,26,-1,-1,-1,-1,-1,-1,-1,-1,-1,-1],"split_conditions":[-1.2053594E-2,-2.521167E-1,-1.7725294E-2,1.03469845E-2,-5.551084E-2,3.5742693E0,2.278235E-1,3.8006467E-1,6.0472965E-2,1.9768746E0,-8.51272E-3,-1.3621783E-1,-1.9461127E-1,7.940958E-3,-6.374466E-3,-3.0761257E-1,-4.7650954E-1,2.5075056E-2,2.672012E-3,-1.7042046E-2,1.22721605E-2,-8.779917E-2,-4.793639E-2,-6.0242526E-2,1.4242886E-2,-1.7056478E-2,4.8204854E-2],"split_indices":[17,17,5,0,0,24,21,23,0,15,8,5,4,5,0,18,14,0,0,0,0,0,0,0,0,0,0],"split_type":[0,0,0,0,0,0,0,0,0,0,0,0,0,0,0,0,0,0,0,0,0,0,0,0,0,0,0],"sum_hessian":[2.1837334E2,2.0375576E1,1.9799776E2,1.5544333E0,1.8821142E1,1.7452248E2,2.3475279E1,1.7149588E2,3.0265994E0,1.1341003E1,1.2134275E1,7.834458E1,9.31513E1,9.924042E0,1.4169612E0,5.2557926E0,6.878483E0,3.8383976E1,3.9960606E1,3.9681206E1,5.3470093E1,1.6929928E0,8.23105E0,2.765835E0,2.4899578E0,1.220012E0,5.658471E0],"tree_param":{"num_deleted":"0","num_feature":"26","num_nodes":"27","size_leaf_vector":"1"}},{"base_weights":[3.8765722E-3,-5.416251E-2,9.144751E-2,4.9278432E-1,4.3243296E-2,8.7163144E-1,1.230604E-1,5.416008E-1,3.439401E-3,6.0037777E-2,6.374361E-2,-6.54072E-2,3.551707E-1,7.1578485E-1,-5.0066732E-2,2.9844597E-1,-8.068257E-2,-3.158899E-2,4.112028E-2,3.7740953E-2,-1.053775E-2,2.1504965E-3,5.4882463E-2,7.0544244E-3,5.195393E-2,-1.0343835E-2,1.0742598E-2],"categories":[],"categories_nodes":[],"categories_segments":[],"categories_sizes":[],"default_left":[0,0,0,0,0,0,0,0,0,0,0,0,0,0,0,0,0,0,0,0,0,0,0,0,0,0,0],"id":47,"left_children":[1,-1,3,5,7,9,11,13,15,-1,17,-1,19,21,-1,23,25,-1,-1,-1,-1,-1,-1,-1,-1,-1,-1],"loss_changes":[1.9438845E1,0E0,3.9195104E0,2.9577603E0,3.6168492E0,1.9551735E0,3.9718134E0,3.9263616E0,4.2363997E0,0E0,1.7566838E0,0E0,2.105591E0,2.4596004E0,0E0,4.1047516E0,4.1015925E0,0E0,0E0,0E0,0E0,0E0,0E0,0E0,0E0,0E0,0E0],"parents":[2147483647,0,0,2,2,3,3,4,4,5,5,6,6,7,7,8,8,10,10,12,12,13,13,15,15,16,16],"right_children":[2,-1,4,6,8,10,12,14,16,-1,18,-1,20,22,-1,24,26,-1,-1,-1,-1,-1,-1,-1,-1,-1,-1],"split_conditions":[-1.6090127E-2,-5.416251E-2,-4.2539603E-1,-2.0802872E-1,-8.402318E-1,7.283626E-1,-5.4746974E-1,6.256098E-1,-6.078898E-1,6.0037777E-2,-2.6871753E-1,-6.54072E-2,-5.0394475E-1,-2.0251888E-1,-5.0066732E-2,2.847306E-1,9.388672E-1,-3.158899E-2,4.112028E-2,3.7740953E-2,-1.053775E-2,2.1504965E-3,5.4882463E-2,7.0544244E-3,5.195393E-2,-1.0343835E-2,1.0742598E-2],"split_indices":[8,0,19,10,13,15,0,23,22,0,10,0,0,10,0,1,7,0,0,0,0,0,0,0,0,0,0],"split_type":[0,0,0,0,0,0,0,0,0,0,0,0,0,0,0,0,0,0,0,0,0,0,0,0,0,0,0],"sum_hessian":[2.1998175E2,1.7045086E1,2.0293666E2,2.101127E1,1.819254E2,9.871027E0,1.1140243E1,1.2751224E1,1.6917418E2,7.422648E0,2.4483793E0,1.1905046E0,9.9497385E0,1.1738579E1,1.0126445E0,3.714536E1,1.3202881E2,1.3227402E0,1.1256391E0,6.0304866E0,3.9192517E0,3.8408885E0,7.8976903E0,3.0306438E1,6.838919E0,9.484872E1,3.7180103E1],"tree_param":{"num_deleted":"0","num_feature":"26","num_nodes":"27","size_leaf_vector":"1"}},{"base_weights":[-1.862511E-2,-5.3919043E-2,6.445229E-2,6.1723405E-1,1.9571032E-2,-2.4109928E-1,7.818163E-1,-1.8016176E-3,5.139647E-2,4.4420265E-2,-6.864634E-2,-5.9858677E-3,9.035229E-1,2.9058946E-2,-7.6709944E-1,2.1890193E-2,6.051781E-2,-4.1393597E-2,2.9927946E-3,4.502366E-2,-6.37061E-2],"categories":[],"categories_nodes":[],"categories_segments":[],"categories_sizes":[],"default_left":[0,0,0,0,0,0,0,0,0,0,0,0,0,0,0,0,0,0,0,0,0],"id":48,"left_children":[1,-1,3,5,7,9,11,13,-1,-1,-1,-1,15,17,19,-1,-1,-1,-1,-1,-1],"loss_changes":[1.7414495E1,0E0,4.898108E0,2.2391067E0,3.6592329E0,3.9624498E0,1.4521856E0,4.2868857E0,0E0,0E0,0E0,0E0,8.4336853E-1,3.6316411E0,5.3038874E0,0E0,0E0,0E0,0E0,0E0,0E0],"parents":[2147483647,0,0,2,2,3,3,4,4,5,5,6,6,7,7,12,12,13,13,14,14],"right_children":[2,-1,4,6,8,10,12,14,-1,-1,-1,-1,16,18,20,-1,-1,-1,-1,-1,-1],"split_conditions":[-1.6090127E-2,-5.3919043E-2,-8.4020245E-1,3.218021E-1,3.5742693E0,-4.0208325E-1,-1.3677406E-1,2.7665403E0,5.139647E-2,4.4420265E-2,-6.864634E-2,-5.9858677E-3,-8.404788E-1,-2.0596318E-2,4.1249286E-2,2.1890193E-2,6.051781E-2,-4.1393597E-2,2.9927946E-3,4.502366E-2,-6.37061E-2],"split_indices":[8,0,13,21,24,19,5,24,0,0,0,0,13,17,16,0,0,0,0,0,0],"split_type":[0,0,0,0,0,0,0,0,0,0,0,0,0,0,0,0,0,0,0,0,0],"sum_hessian":[2.1341476E2,1.6120941E1,1.9729382E2,1.4094394E1,1.8319943E2,2.203351E0,1.1891043E1,1.7978479E2,3.4146395E0,1.1510513E0,1.0522997E0,1.426245E0,1.0464798E1,1.7348529E2,6.299499E0,3.7718897E0,6.6929083E0,4.86331E0,1.6862198E2,1.1208932E0,5.178606E0],"tree_param":{"num_deleted":"0","num_feature":"26","num_nodes":"21","size_leaf_vector":"1"}},{"base_weights":[-2.5049394E-2,-5.3653426E-2,5.191495E-2,3.171063E-2,5.95864E-2,5.7840306E-2,-6.451352E-1,-2.0115498E-1,1.3086413E-1,4.2917352E-2,-9.8883826E-1,1.2193334E-2,-2.5035087E-2,3.0929008E-2,3.116745E-3,1.902663E-2,-7.474384E-2],"categories":[],"categories_nodes":[],"categories_segments":[],"categories_sizes":[],"default_left":[0,0,0,0,0,0,0,0,0,0,0,0,0,0,0,0,0],"id":49,"left_children":[1,-1,3,5,-1,7,9,11,13,-1,15,-1,-1,-1,-1,-1,-1],"loss_changes":[1.5930146E1,0E0,4.1702056E0,3.4861546E0,0E0,3.598654E0,4.196513E0,4.727985E0,4.7476215E0,0E0,3.6251426E0,0E0,0E0,0E0,0E0,0E0,0E0],"parents":[2147483647,0,0,2,2,3,3,5,5,6,6,7,7,8,8,10,10],"right_children":[2,-1,4,6,-1,8,10,12,14,-1,16,-1,-1,-1,-1,-1,-1],"split_conditions":[-1.6090127E-2,-5.3653426E-2,3.5742693E0,2.7665403E0,5.95864E-2,1.877068E-1,4.1249286E-2,-4.5380956E-1,-1.3677607E-1,4.2917352E-2,-3.2670593E-1,1.2193334E-2,-2.5035087E-2,3.0929008E-2,3.116745E-3,1.902663E-2,-7.474384E-2],"split_indices":[8,0,24,24,0,16,16,16,5,0,18,0,0,0,0,0,0],"split_type":[0,0,0,0,0,0,0,0,0,0,0,0,0,0,0,0,0],"sum_hessian":[2.132645E2,1.5126054E1,1.9813844E2,1.9514041E2,2.998042E0,1.8854915E2,6.5912576E0,4.1156406E1,1.4739275E2,1.0819428E0,5.509315E0,1.5641874E1,2.5514532E1,2.0358562E1,1.2703418E2,1.2519159E0,4.257399E0],"tree_param":{"num_deleted":"0","num_feature":"26","num_nodes":"17","size_leaf_vector":"1"}},{"base_weights":[-2.884835E-2,-5.3475495E-2,4.67997E-2,4.3503332E-1,7.0557687E-3,-7.524097E-2,9.079322E-1,-7.798424E-2,2.5893608E-1,8.1736386E-1,-7.1723133E-1,5.870087E-2,8.522662E-3,2.1544445E-1,-2.6289275E-1,-8.479034E-2,7.3548806E-1,8.057161E-3,5.3763602E-2,-7.578772E-2,2.8831827E-2,-3.8132057E-5,3.6964078E-2,-1.7704489E-2,3.9375823E-2,1.4818222E-2,-2.6969474E-2,4.4973258E-2,-7.473743E-3],"categories":[],"categories_nodes":[],"categories_segments":[],"categories_sizes":[],"default_left":[0,0,0,0,0,0,0,0,0,0,0,0,0,0,0,0,0,0,0,0,0,0,0,0,0,0,0,0,0],"id":50,"left_children":[1,-1,3,5,7,9,11,13,15,17,19,-1,-1,21,23,25,27,-1,-1,-1,-1,-1,-1,-1,-1,-1,-1,-1,-1],"loss_changes":[1.5256281E1,0E0,3.0084145E0,4.428447E0,3.829695E0,5.8070054E0,1.1033807E0,7.2922015E0,7.4446917E0,3.7696052E-1,5.530904E0,0E0,0E0,5.2506638E0,5.348132E0,4.0709963E0,1.6479425E0,0E0,0E0,0E0,0E0,0E0,0E0,0E0,0E0,0E0,0E0,0E0,0E0],"parents":[2147483647,0,0,2,2,3,3,4,4,5,5,6,6,7,7,8,8,9,9,10,10,13,13,14,14,15,15,16,16],"right_children":[2,-1,4,6,8,10,12,14,16,18,20,-1,-1,22,24,26,28,-1,-1,-1,-1,-1,-1,-1,-1,-1,-1,-1,-1],"split_conditions":[-1.6090127E-2,-5.3475495E-2,-4.2570367E-1,-1.937095E-1,9.388672E-1,-2.0802872E-1,-1.9088952E-1,-8.3046967E-1,-2.766494E-1,-1.9611551E-1,-6.2272824E-2,5.870087E-2,8.522662E-3,-8.386258E-1,9.065775E-1,-5.7239634E-1,7.753069E-1,8.057161E-3,5.3763602E-2,-7.578772E-2,2.8831827E-2,-3.8132057E-5,3.6964078E-2,-1.7704489E-2,3.9375823E-2,1.4818222E-2,-2.6969474E-2,4.4973258E-2,-7.473743E-3],"split_indices":[8,0,19,4,7,10,4,13,2,4,2,0,0,13,1,21,4,0,0,0,0,0,0,0,0,0,0,0,0],"split_type":[0,0,0,0,0,0,0,0,0,0,0,0,0,0,0,0,0,0,0,0,0,0,0,0,0,0,0,0,0],"sum_hessian":[2.0934584E2,1.4691652E1,1.9465419E2,1.7373941E1,1.7728024E2,8.645036E0,8.728907E0,1.3288608E2,4.4394165E1,3.5262477E0,5.1187882E0,6.8079524E0,1.9209539E0,5.1302284E1,8.158379E1,2.6131657E1,1.8262508E1,1.0215154E0,2.5047324E0,3.2618086E0,1.8569796E0,3.5539864E1,1.5762422E1,7.712774E1,4.4560513E0,1.4110701E1,1.2020956E1,1.6533648E1,1.7288616E0],"tree_param":{"num_deleted":"0","num_feature":"26","num_nodes":"29","size_leaf_vector":"1"}},{"base_weights":[-7.997023E-3,-5.3209536E-2,6.306618E-2,-4.5791358E-2,7.989478E-2,1.4272633E-1,-1.7299229E-1,3.6490023E-2,3.7599975E-1,-9.447837E-1,7.67629E-2,-2.5987115E-2,7.089038E-3,2.9910948E-2,-1.7141432E-2,-6.880062E-2,2.7695524E-2,2.3020059E-2,-3.6478296E-2],"categories":[],"categories_nodes":[],"categories_segments":[],"categories_sizes":[],"default_left":[0,0,0,0,0,0,0,0,0,0,0,0,0,0,0,0,0,0,0],"id":51,"left_children":[1,-1,3,-1,5,7,9,11,13,15,17,-1,-1,-1,-1,-1,-1,-1,-1],"loss_changes":[1.4779809E1,0E0,3.083254E0,0E0,3.1349072E0,3.8907475E0,7.645382E0,5.3452005E0,6.1089425E0,5.050391E0,8.129736E0,0E0,0E0,0E0,0E0,0E0,0E0,0E0,0E0],"parents":[2147483647,0,0,2,2,4,4,5,5,6,6,7,7,8,8,9,9,10,10],"right_children":[2,-1,4,-1,6,8,10,12,14,16,18,-1,-1,-1,-1,-1,-1,-1,-1],"split_conditions":[-1.6090127E-2,-5.3209536E-2,-4.4694237E-2,-4.5791358E-2,6.441046E-2,-6.142253E-2,3.3587682E-1,-8.382829E-1,-3.893532E-2,1.8549043E0,4.6842238E-1,-2.5987115E-2,7.089038E-3,2.9910948E-2,-1.7141432E-2,-6.880062E-2,2.7695524E-2,2.3020059E-2,-3.6478296E-2],"split_indices":[8,0,9,0,19,2,19,13,2,13,12,0,0,0,0,0,0,0,0],"split_type":[0,0,0,0,0,0,0,0,0,0,0,0,0,0,0,0,0,0,0],"sum_hessian":[2.1218146E2,1.380588E1,1.9837558E2,2.9419062E0,1.9543369E2,1.5682724E2,3.8606438E1,1.08367516E2,4.8459724E1,8.946879E0,2.965956E1,1.6262285E1,9.210523E1,