{"learner":{"attributes":{"scikit_learn":"{\"_estimator_type\": \"classifier\"}"},"feature_names":[],"feature_types":[],"gradient_booster":{"model":{"gbtree_model_param":{"num_parallel_tree":"1","num_trees":"72"},"iteration_indptr":[0,1,2,3,4,5,6,7,8,9,10,11,12,13,14,15,16,17,18,19,20,21,22,23,24,25,26,27,28,29,30,31,32,33,34,35,36,37,38,39,40,41,42,43,44,45,46,47,48,49,50,51,52,53,54,55,56,57,58,59,60,61,62,63,64,65,66,67,68,69,70,71,72],"tree_info":[0,0,0,0,0,0,0,0,0,0,0,0,0,0,0,0,0,0,0,0,0,0,0,0,0,0,0,0,0,0,0,0,0,0,0,0,0,0,0,0,0,0,0,0,0,0,0,0,0,0,0,0,0,0,0,0,0,0,0,0,0,0,0,0,0,0,0,0,0,0,0,0],"trees":[{"base_weights":[3.049631E-3,1.1088744E0,-6.92617E-1,3.1318742E-1,2.9822268E-2,-1.3019024E0,1.1281561E0,5.240854E-1,-3.9907622E-1,6.786472E-1,-1.7811594E0,-0E0,1.1680286E0,-0E0,1.9623362E-2,1.0668926E-2,-2.2122419E-2,-0E0,2.0588277E-2,-4.3809537E-2,1.2004356E-2,-0E0,2.7872754E-2],"categories":[],"categories_nodes":[],"categories_segments":[],"categories_sizes":[],"default_left":[0,0,0,0,0,0,0,0,0,0,0,0,0,0,0,0,0,0,0,0,0,0,0],"id":0,"left_children":[1,3,5,7,-1,9,11,13,15,17,19,-1,21,-1,-1,-1,-1,-1,-1,-1,-1,-1,-1],"loss_changes":[2.4298332E2,1.607695E1,2.170893E2,4.231086E0,0E0,1.4109608E2,2.7952423E0,3.559216E0,3.9576852E0,4.231078E0,3.3379242E1,0E0,2.1125793E0,0E0,0E0,0E0,0E0,0E0,0E0,0E0,0E0,0E0,0E0],"parents":[2147483647,0,0,1,1,2,2,3,3,5,5,6,6,7,7,8,8,9,9,10,10,12,12],"right_children":[2,4,6,8,-1,10,12,14,16,18,20,-1,22,-1,-1,-1,-1,-1,-1,-1,-1,-1,-1],"split_conditions":[-1.70989E-1,-1.1785746E0,2.3807062E-1,-7.329794E-1,2.9822268E-2,-1.2560056E-1,-1.16948016E-1,-8.417193E-1,-1.2261137E0,-4.335595E-2,3.0870217E-1,-0E0,1.5733646E-1,-0E0,1.9623362E-2,1.0668926E-2,-2.2122419E-2,-0E0,2.0588277E-2,-4.3809537E-2,1.2004356E-2,-0E0,2.7872754E-2],"split_indices":[2,0,1,2,0,0,2,2,0,2,2,0,0,0,0,0,0,0,0,0,0,0,0],"split_type":[0,0,0,0,0,0,0,0,0,0,0,0,0,0,0,0,0,0,0,0,0,0,0],"sum_hessian":[3.1225E2,1.205E2,1.9175E2,2.375E1,9.675E1,1.4425E2,4.75E1,1.925E1,4.5E0,2.775E1,1.165E2,1.25E0,4.625E1,8E0,1.125E1,1.5E0,3E0,7E0,2.075E1,1.115E2,5E0,1.5E0,4.475E1],"tree_param":{"num_deleted":"0","num_feature":"4","num_nodes":"23","size_leaf_vector":"1"}},{"base_weights":[-4.4446443E-3,1.1539285E0,-7.8374654E-1,1.3733463E0,4.933795E-1,-1.4285249E0,7.600789E-1,-0E0,1.4323002E0,5.6352293E-1,-6.8324236E-3,4.4533864E-1,-1.7472831E0,-2.2499952E-1,8.2462955E-1,-2.9381192E-3,2.766285E-3,3.5078038E-2,1.7964587E-2,6.0276194E-3,2.6507607E-2,-6.131707E-3,1.5373787E-2,-4.4294607E-2,2.066581E-2,-1.07769165E-2,-0E0,1.9603066E-2,-0E0],"categories":[],"categories_nodes":[],"categories_segments":[],"categories_sizes":[],"default_left":[0,0,0,0,0,0,0,0,0,0,0,0,0,0,0,0,0,0,0,0,0,0,0,0,0,0,0,0,0],"id":1,"left_children":[1,3,5,7,9,11,13,15,17,19,-1,21,23,25,27,-1,-1,-1,-1,-1,-1,-1,-1,-1,-1,-1,-1,-1,-1],"loss_changes":[2.9699963E2,1.7014603E1,1.9835239E2,7.9442444E0,2.4220457E0,8.5530396E1,4.378151E0,1.1146447E-1,2.025879E0,4.814842E0,0E0,3.8515487E0,5.6977936E1,4.6315402E-1,1.119503E0,0E0,0E0,0E0,0E0,0E0,0E0,0E0,0E0,0E0,0E0,0E0,0E0,0E0,0E0],"parents":[2147483647,0,0,1,1,2,2,3,3,4,4,5,5,6,6,7,7,8,8,9,9,11,11,12,12,13,13,14,14],"right_children":[2,4,6,8,10,12,14,16,18,20,-1,22,24,26,28,-1,-1,-1,-1,-1,-1,-1,-1,-1,-1,-1,-1,-1,-1],"split_conditions":[-2.3094264E-1,-6.0027605E-1,2.6119173E-1,-1.2261137E0,1.9914134E0,-1.08489655E-1,-1.2163738E0,-8.500175E-1,2.0939815E0,3.3795882E-2,-6.8324236E-3,-1.137637E0,2.039344E-1,1.6502032E0,1.594658E0,-2.9381192E-3,2.766285E-3,3.5078038E-2,1.7964587E-2,6.0276194E-3,2.6507607E-2,-6.131707E-3,1.5373787E-2,-4.4294607E-2,2.066581E-2,-1.07769165E-2,-0E0,1.9603066E-2,-0E0],"split_indices":[3,3,3,0,1,0,1,3,0,0,0,1,0,3,0,0,0,0,0,0,0,0,0,0,0,0,0,0,0],"split_type":[0,0,0,0,0,0,0,0,0,0,0,0,0,0,0,0,0,0,0,0,0,0,0,0,0,0,0,0,0],"sum_hessian":[3.2590897E2,1.3047484E2,1.9543413E2,9.598189E1,3.449295E1,1.3819312E2,5.7241005E1,3.9998727E0,9.198202E1,3.27433E1,1.7496461E0,1.9747002E1,1.1844612E2,2.7498314E0,5.4491173E1,1.9999688E0,1.9999037E0,7.873471E1,1.3247307E1,2.37452E1,8.998103E0,3.999596E0,1.5747405E1,1.1194749E2,6.498631E0,1.4999278E0,1.2499037E0,5.299147E1,1.4997017E0],"tree_param":{"num_deleted":"0","num_feature":"4","num_nodes":"29","size_leaf_vector":"1"}},{"base_weights":[-2.2881335E-2,1.1852087E0,-7.9288656E-1,1.3926636E0,5.2292866E-1,-1.3883631E0,6.4233935E-1,-0E0,1.4381362E0,7.455422E-1,1.6263792E-1,2.9101253E-1,-1.7244447E0,-0E0,7.535546E-1,-0E0,3.381598E-2,-7.8086625E-3,2.036202E-2,-2.2118064E-2,1.6587703E-2,-7.068936E-3,1.1182922E-2,-4.313118E-2,1.3624231E-2,1.1229629E-2,-8.793484E-3,2.6589677E-2,1.2238973E-2],"categories":[],"categories_nodes":[],"categories_segments":[],"categories_sizes":[],"default_left":[0,0,0,0,0,0,0,0,0,0,0,0,0,0,0,0,0,0,0,0,0,0,0,0,0,0,0,0,0],"id":2,"left_children":[1,3,5,7,9,11,13,-1,15,17,19,21,23,25,27,-1,-1,-1,-1,-1,-1,-1,-1,-1,-1,-1,-1,-1,-1],"loss_changes":[3.04666E2,1.5245911E1,1.7316129E2,6.066635E0,2.0048094E0,8.200006E1,4.0060577E0,0E0,3.422577E0,3.6324987E0,1.0886557E1,3.2063882E0,4.151758E1,2.357254E0,2.5583096E0,0E0,0E0,0E0,0E0,0E0,0E0,0E0,0E0,0E0,0E0,0E0,0E0,0E0,0E0],"parents":[2147483647,0,0,1,1,2,2,3,3,4,4,5,5,6,6,8,8,9,9,10,10,11,11,12,12,13,13,14,14],"right_children":[2,4,6,8,10,12,14,-1,16,18,20,22,24,26,28,-1,-1,-1,-1,-1,-1,-1,-1,-1,-1,-1,-1,-1,-1],"split_conditions":[-2.607399E-1,-6.0027605E-1,2.6119173E-1,-1.2555356E0,-1.5755565E-1,-1.08489655E-1,-1.1785746E0,-0E0,-1.2877666E0,-5.722152E-1,-1.3178131E-2,-1.1785746E0,2.039344E-1,1.2798002E0,-7.940862E-1,-0E0,3.381598E-2,-7.8086625E-3,2.036202E-2,-2.2118064E-2,1.6587703E-2,-7.068936E-3,1.1182922E-2,-4.313118E-2,1.3624231E-2,1.1229629E-2,-8.793484E-3,2.6589677E-2,1.2238973E-2],"split_indices":[3,3,3,0,1,0,0,0,3,3,0,0,0,3,0,0,0,0,0,0,0,0,0,0,0,0,0,0,0],"split_type":[0,0,0,0,0,0,0,0,0,0,0,0,0,0,0,0,0,0,0,0,0,0,0,0,0,0,0,0,0],"sum_hessian":[3.2441183E2,1.2566024E2,1.987516E2,9.367104E1,3.1989193E1,1.4077583E2,5.797577E1,2.9998813E0,9.0671165E1,1.7745909E1,1.4243284E1,2.3242455E1,1.1753337E2,9.248451E0,4.8727318E1,1.4985421E0,8.917262E1,1.249833E0,1.6496075E1,3.9986985E0,1.0244586E1,4.749658E0,1.8492798E1,1.11286995E2,6.2463794E0,4.2491093E0,4.999342E0,1.4242023E1,3.4485294E1],"tree_param":{"num_deleted":"0","num_feature":"4","num_nodes":"29","size_leaf_vector":"1"}},{"base_weights":[3.3101045E-2,1.1251094E0,-7.1557736E-1,1.3378662E0,5.558499E-1,-1.3349642E0,7.0579714E-1,-9.7339645E-2,1.400646E0,6.4991415E-1,-8.681108E-3,5.846456E-1,-1.6811895E0,-9.44476E-3,8.239961E-1,-6.583583E-3,-0E0,-0E0,3.27179E-2,8.834573E-3,2.5865301E-2,-1.6287308E-3,2.1016477E-2,-4.24344E-2,2.5552973E-2,3.993219E-3,-1.3256825E-2,1.9984439E-2,-2.5299637E-4],"categories":[],"categories_nodes":[],"categories_segments":[],"categories_sizes":[],"default_left":[0,0,0,0,0,0,0,0,0,0,0,0,0,0,0,0,0,0,0,0,0,0,0,0,0,0,0,0,0],"id":3,"left_children":[1,3,5,7,9,11,13,15,17,19,-1,21,23,25,27,-1,-1,-1,-1,-1,-1,-1,-1,-1,-1,-1,-1,-1,-1],"loss_changes":[2.6637585E2,1.3809937E1,1.7171384E2,9.467377E0,4.0253525E0,9.2067825E1,5.4732914E0,2.2752118E-1,1.2840118E0,3.1389742E0,0E0,5.1634016E0,5.3364227E1,1.3482988E0,2.2256927E0,0E0,0E0,0E0,0E0,0E0,0E0,0E0,0E0,0E0,0E0,0E0,0E0,0E0,0E0],"parents":[2147483647,0,0,1,1,2,2,3,3,4,4,5,5,6,6,7,7,8,8,9,9,11,11,12,12,13,13,14,14],"right_children":[2,4,6,8,10,12,14,16,18,20,-1,22,24,26,28,-1,-1,-1,-1,-1,-1,-1,-1,-1,-1,-1,-1,-1,-1],"split_conditions":[-2.0461822E-1,-6.0027605E-1,2.6119173E-1,-1.2261137E0,1.8625586E0,-1.08489655E-1,-1.1785746E0,-8.500175E-1,-1.2877666E0,2.3005318E-3,-8.681108E-3,-1.1013618E0,2.039344E-1,1.9027508E0,1.8661987E0,-6.583583E-3,-0E0,-0E0,3.27179E-2,8.834573E-3,2.5865301E-2,-1.6287308E-3,2.1016477E-2,-4.24344E-2,2.5552973E-2,3.993219E-3,-1.3256825E-2,1.9984439E-2,-2.5299637E-4],"split_indices":[3,3,3,0,0,0,0,3,3,1,0,0,0,3,1,0,0,0,0,0,0,0,0,0,0,0,0,0,0],"split_type":[0,0,0,0,0,0,0,0,0,0,0,0,0,0,0,0,0,0,0,0,0,0,0,0,0,0,0,0,0],"sum_hessian":[3.2225537E2,1.3102957E2,1.912258E2,9.30584E1,3.7971172E1,1.3352339E2,5.7702396E1,3.4995065E0,8.95589E1,3.5472317E1,2.498857E0,1.9988792E1,1.1353461E2,7.748509E0,4.9953888E1,1.7498206E0,1.7496858E0,1.248805E0,8.831009E1,2.523363E1,1.0238687E1,6.4977407E0,1.3491052E1,1.082897E2,5.2449007E0,5.998611E0,1.749898E0,4.8204834E1,1.7490518E0],"tree_param":{"num_deleted":"0","num_feature":"4","num_nodes":"29","size_leaf_vector":"1"}},{"base_weights":[3.3389155E-2,1.1283956E0,-6.970809E-1,-1.8726529E-1,1.1747661E0,-1.3146836E0,7.200904E-1,-1.0691556E-2,-0E0,1.256971E0,3.4607187E-1,6.4444906E-1,-1.573666E0,7.646514E-1,-3.5522E-3,-2.71414E-4,2.950289E-2,2.217712E-2,-6.269978E-3,-1.7316586E-3,2.2326855E-2,-3.9814647E-2,2.0947948E-2,2.9167696E-3,1.9899324E-2],"categories":[],"categories_nodes":[],"categories_segments":[],"categories_sizes":[],"default_left":[0,0,0,0,0,0,0,0,0,0,0,0,0,0,0,0,0,0,0,0,0,0,0,0,0],"id":4,"left_children":[1,3,5,7,9,11,13,-1,-1,15,17,19,21,23,-1,-1,-1,-1,-1,-1,-1,-1,-1,-1,-1],"loss_changes":[2.5658707E2,8.741562E0,1.6993657E2,4.8583317E-1,6.909027E0,7.046562E1,2.826643E0,0E0,0E0,3.465088E0,6.1595798E0,4.451741E0,4.7136536E1,2.7902184E0,0E0,0E0,0E0,0E0,0E0,0E0,0E0,0E0,0E0,0E0,0E0],"parents":[2147483647,0,0,1,1,2,2,3,3,4,4,5,5,6,6,9,9,10,10,11,11,12,12,13,13],"right_children":[2,4,6,8,10,12,14,-1,-1,16,18,20,22,24,-1,-1,-1,-1,-1,-1,-1,-1,-1,-1,-1],"split_conditions":[-2.3094264E-1,-1.239835E0,2.6119173E-1,-8.6820304E-1,-3.8420758E-1,-2.4800433E-1,1.6753953E0,-1.0691556E-2,-0E0,-1.2877666E0,-1.0697452E-1,-1.137637E0,3.0655542E-1,-1.1513652E0,-3.5522E-3,-2.71414E-4,2.950289E-2,2.217712E-2,-6.269978E-3,-1.7316586E-3,2.2326855E-2,-3.9814647E-2,2.0947948E-2,2.9167696E-3,1.9899324E-2],"split_indices":[3,1,3,2,3,1,1,0,0,3,2,1,1,1,0,0,0,0,0,0,0,0,0,0,0],"split_type":[0,0,0,0,0,0,0,0,0,0,0,0,0,0,0,0,0,0,0,0,0,0,0,0,0],"sum_hessian":[3.1720612E2,1.26867004E2,1.9033911E2,3.7492993E0,1.2311771E2,1.3291682E2,5.7422287E1,1.4999045E0,2.2493947E0,1.1063175E2,1.24859495E1,1.498638E1,1.1793045E2,5.5423798E1,1.9984896E0,1.248805E0,1.0938295E2,6.2435193E0,6.2424307E0,4.499273E0,1.0487107E1,1.1194209E2,5.988359E0,8.49763E0,4.6926167E1],"tree_param":{"num_deleted":"0","num_feature":"4","num_nodes":"25","size_leaf_vector":"1"}},{"base_weights":[2.2710336E-2,9.6474624E-1,-5.837507E-1,3.569279E-1,1.1433293E0,-1.2257093E0,9.513423E-1,4.866174E-1,-4.0943444E-1,2.6691705E-2,-0E0,-1.4441023E0,8.412651E-1,-0E0,2.257828E-2,-9.352168E-3,1.499331E-2,7.1937987E-3,-2.1845156E-2,9.934299E-3,-3.9444186E-2,-5.7518226E-4,2.2438476E-2],"categories":[],"categories_nodes":[],"categories_segments":[],"categories_sizes":[],"default_left":[0,0,0,0,0,0,0,0,0,0,0,0,0,0,0,0,0,0,0,0,0,0,0],"id":5,"left_children":[1,3,5,7,9,11,13,15,17,-1,-1,19,21,-1,-1,-1,-1,-1,-1,-1,-1,-1,-1],"loss_changes":[1.8449335E2,1.2258751E1,1.9515906E2,3.5391326E0,8.5874176E-1,6.514365E1,1.439949E0,4.6986766E0,2.7251513E0,0E0,0E0,6.41633E1,2.1345434E0,0E0,0E0,0E0,0E0,0E0,0E0,0E0,0E0,0E0,0E0],"parents":[2147483647,0,0,1,1,2,2,3,3,4,4,5,5,6,6,7,7,8,8,11,11,12,12],"right_children":[2,4,6,8,10,12,14,16,18,-1,-1,20,22,-1,-1,-1,-1,-1,-1,-1,-1,-1,-1],"split_conditions":[-1.70989E-1,-1.1401793E0,2.4849434E-1,-7.115573E-1,4.2180014E0,2.3593777E-1,2.6806566E-1,-1.2472439E0,-1.2261137E0,2.6691705E-2,-0E0,-1.2560056E-1,-1.2856625E-1,-0E0,2.257828E-2,-9.352168E-3,1.499331E-2,7.1937987E-3,-2.1845156E-2,9.934299E-3,-3.9444186E-2,-5.7518226E-4,2.2438476E-2],"split_indices":[2,1,2,2,0,0,2,1,0,0,0,0,2,0,0,0,0,0,0,0,0,0,0],"split_type":[0,0,0,0,0,0,0,0,0,0,0,0,0,0,0,0,0,0,0,0,0,0,0],"sum_hessian":[3.192782E2,1.25010666E2,1.9426752E2,3.0207323E1,9.4803345E1,1.3746767E2,5.679985E1,2.69584E1,3.248923E0,9.355872E1,1.2446187E0,1.2502027E2,1.2447399E1,1.491423E0,5.530843E1,3.2495577E0,2.3708841E1,1.2492242E0,1.999699E0,1.4965334E1,1.1005494E2,1.2471544E0,1.1200245E1],"tree_param":{"num_deleted":"0","num_feature":"4","num_nodes":"23","size_leaf_vector":"1"}},{"base_weights":[1.1267613E-2,1.0898906E0,-6.5806574E-1,-8.722592E-2,1.1356443E0,-1.2605585E0,7.905069E-1,-6.4263917E-3,-0E0,1.2899606E0,5.9567857E-1,5.249189E-1,-1.5892743E0,8.709392E-1,2.9728314E-1,4.043809E-3,3.0259756E-2,2.4619255E-2,-5.863234E-3,-0E0,1.670261E-2,-3.9985154E-2,1.7321078E-2,-0E0,2.1144813E-2,-1.4770608E-3,1.1884676E-2],"categories":[],"categories_nodes":[],"categories_segments":[],"categories_sizes":[],"default_left":[0,0,0,0,0,0,0,0,0,0,0,0,0,0,0,0,0,0,0,0,0,0,0,0,0,0,0],"id":6,"left_children":[1,3,5,7,9,11,13,-1,-1,15,17,19,21,23,25,-1,-1,-1,-1,-1,-1,-1,-1,-1,-1,-1,-1],"loss_changes":[2.2949953E2,7.2986298E0,1.7267499E2,2.203021E-1,7.5276337E0,8.3596146E1,1.2469177E0,0E0,0E0,7.1946716E-1,1.2874222E1,2.3191872E0,4.1494293E1,1.4738197E0,1.209441E0,0E0,0E0,0E0,0E0,0E0,0E0,0E0,0E0,0E0,0E0,0E0,0E0],"parents":[2147483647,0,0,1,1,2,2,3,3,4,4,5,5,6,6,9,9,10,10,11,11,12,12,13,13,14,14],"right_children":[2,4,6,8,10,12,14,-1,-1,16,18,20,22,24,26,-1,-1,-1,-1,-1,-1,-1,-1,-1,-1,-1,-1],"split_conditions":[-2.3094264E-1,-1.2688458E0,2.6119173E-1,-8.6820304E-1,-5.722152E-1,-1.08489655E-1,2.3517241E0,-6.4263917E-3,-0E0,-1.2456753E0,-1.0697452E-1,-9.021198E-2,2.039344E-1,-1.2378368E0,2.744576E0,4.043809E-3,3.0259756E-2,2.4619255E-2,-5.863234E-3,-0E0,1.670261E-2,-3.9985154E-2,1.7321078E-2,-0E0,2.1144813E-2,-1.4770608E-3,1.1884676E-2],"split_indices":[3,0,3,2,3,0,3,0,0,3,2,3,0,0,3,0,0,0,0,0,0,0,0,0,0,0,0],"split_type":[0,0,0,0,0,0,0,0,0,0,0,0,0,0,0,0,0,0,0,0,0,0,0,0,0,0,0],"sum_hessian":[3.14256E2,1.20247665E2,1.9400835E2,3.9990597E0,1.16248604E2,1.3743565E2,5.6572697E1,1.7497679E0,2.2492917E0,8.7838165E1,2.8410439E1,2.0958048E1,1.1647761E2,4.6603268E1,9.969431E0,2.2401435E0,8.559802E1,1.8438757E1,9.971682E0,6.2378035E0,1.4720244E1,1.1050261E2,5.9749928E0,2.7487226E0,4.3854546E1,3.2397797E0,6.729651E0],"tree_param":{"num_deleted":"0","num_feature":"4","num_nodes":"27","size_leaf_vector":"1"}},{"base_weights":[1.0880593E-2,1.1081159E0,-6.480784E-1,-3.6993602E-1,1.165793E0,-1.213991E0,6.494632E-1,-1.361932E-2,-0E0,2.94775E-2,7.275587E-1,3.5132173E-1,-1.5242673E0,-1.662439E-1,8.151713E-1,2.187281E-2,-0E0,-3.4813322E-3,1.4727639E-2,-3.9124846E-2,1.643268E-2,5.1255417E-3,-1.7265057E-2,1.992197E-2,-4.2295037E-3],"categories":[],"categories_nodes":[],"categories_segments":[],"categories_sizes":[],"default_left":[0,0,0,0,0,0,0,0,0,0,0,0,0,0,0,0,0,0,0,0,0,0,0,0,0],"id":7,"left_children":[1,3,5,7,9,11,13,-1,-1,-1,15,17,19,21,23,-1,-1,-1,-1,-1,-1,-1,-1,-1,-1],"loss_changes":[2.3064038E2,1.1365158E1,1.4758463E2,7.031693E-1,2.9427948E0,6.917403E1,8.843672E0,0E0,0E0,0E0,4.9106436E0,3.8802273E0,4.6477356E1,3.0713978E0,3.0359573E0,0E0,0E0,0E0,0E0,0E0,0E0,0E0,0E0,0E0,0E0],"parents":[2147483647,0,0,1,1,2,2,3,3,4,4,5,5,6,6,10,10,11,11,12,12,13,13,14,14],"right_children":[2,4,6,8,10,12,14,-1,-1,-1,16,18,20,22,24,-1,-1,-1,-1,-1,-1,-1,-1,-1,-1],"split_conditions":[-3.0588704E-1,-1.2688458E0,2.6119173E-1,-8.5390353E-1,-6.0027605E-1,-1.2560056E-1,-1.1785746E0,-1.361932E-2,-0E0,2.94775E-2,1.5291768E-1,-1.1013618E0,2.039344E-1,-7.2902954E-1,1.594658E0,2.187281E-2,-0E0,-3.4813322E-3,1.4727639E-2,-3.9124846E-2,1.643268E-2,5.1255417E-3,-1.7265057E-2,1.992197E-2,-4.2295037E-3],"split_indices":[3,0,3,2,3,0,0,0,0,0,2,0,0,2,0,0,0,0,0,0,0,0,0,0,0],"split_type":[0,0,0,0,0,0,0,0,0,0,0,0,0,0,0,0,0,0,0,0,0,0,0,0,0],"sum_hessian":[3.1534106E2,1.1820734E2,1.9713371E2,3.7490919E0,1.14458244E2,1.376317E2,5.9502014E1,2.499711E0,1.2493808E0,8.8067215E1,2.6391031E1,2.244262E1,1.1518908E2,9.4928055E0,5.000921E1,2.0410046E1,5.980986E0,7.7380805E0,1.4704539E1,1.077238E2,7.465283E0,5.744403E0,3.7484026E0,4.851161E1,1.4976008E0],"tree_param":{"num_deleted":"0","num_feature":"4","num_nodes":"25","size_leaf_vector":"1"}},{"base_weights":[-4.70207E-2,9.430829E-1,-7.033116E-1,1.1538885E0,3.3895928E-1,-1.275519E0,5.9801966E-1,-1.2954172E-2,1.2026577E0,6.4790595E-1,-1.8673366E-1,2.9661515E-1,-1.4818131E0,-7.843818E-2,7.1641594E-1,-7.5049098E-3,2.1350966E-3,-8.670904E-4,2.8365508E-2,-0E0,2.5411846E-2,-1.6625257E-2,1.6284589E-2,-6.1824094E-3,1.28002735E-2,-3.7033815E-2,1.8139137E-2,4.7812527E-3,-1.9906491E-2,-1.8927245E-3,1.752205E-2],"categories":[],"categories_nodes":[],"categories_segments":[],"categories_sizes":[],"default_left":[0,0,0,0,0,0,0,0,0,0,0,0,0,0,0,0,0,0,0,0,0,0,0,0,0,0,0,0,0,0,0],"id":8,"left_children":[1,3,5,7,9,11,13,15,17,19,21,23,25,27,29,-1,-1,-1,-1,-1,-1,-1,-1,-1,-1,-1,-1,-1,-1,-1,-1],"loss_changes":[2.065797E2,1.4653191E1,1.4427995E2,5.931343E0,6.2551985E0,4.4791687E1,5.1924534E0,3.366867E-1,3.4252014E0,6.8479767E0,7.4276047E0,2.809276E0,3.4949615E1,2.80533E0,2.174879E0,0E0,0E0,0E0,0E0,0E0,0E0,0E0,0E0,0E0,0E0,0E0,0E0,0E0,0E0,0E0,0E0],"parents":[2147483647,0,0,1,1,2,2,3,3,4,4,5,5,6,6,7,7,8,8,9,9,10,10,11,11,12,12,13,13,14,14],"right_children":[2,4,6,8,10,12,14,16,18,20,22,24,26,28,30,-1,-1,-1,-1,-1,-1,-1,-1,-1,-1,-1,-1,-1,-1,-1,-1],"split_conditions":[-2.0461822E-1,-6.0027605E-1,2.6119173E-1,-1.2068585E0,5.985695E-4,-2.4800433E-1,-1.1513652E0,-8.6820304E-1,-1.2877666E0,-4.515536E-1,1.3284512E0,-1.1401793E0,4.4785285E-1,-1.1658922E0,-8.437375E-1,-7.5049098E-3,2.1350966E-3,-8.670904E-4,2.8365508E-2,-0E0,2.5411846E-2,-1.6625257E-2,1.6284589E-2,-6.1824094E-3,1.28002735E-2,-3.7033815E-2,1.8139137E-2,4.7812527E-3,-1.9906491E-2,-1.8927245E-3,1.752205E-2],"split_indices":[3,3,3,1,2,1,1,2,3,3,2,1,2,1,2,0,0,0,0,0,0,0,0,0,0,0,0,0,0,0,0],"split_type":[0,0,0,0,0,0,0,0,0,0,0,0,0,0,0,0,0,0,0,0,0,0,0,0,0,0,0,0,0,0,0],"sum_hessian":[3.147656E2,1.24854485E2,1.899111E2,9.077308E1,3.408141E1,1.3222185E2,5.7689255E1,3.24413E0,8.7528946E1,2.18735E1,1.2207909E1,1.49481325E1,1.1727371E2,7.993573E0,4.9695683E1,1.2488513E0,1.9952785E0,1.2453898E0,8.628356E1,9.69091E0,1.21825905E1,8.223413E0,3.984495E0,3.9987655E0,1.0949367E1,1.12052666E2,5.2210455E0,6.2439785E0,1.7495947E0,1.7353257E0,4.7960354E1],"tree_param":{"num_deleted":"0","num_feature":"4","num_nodes":"31","size_leaf_vector":"1"}},{"base_weights":[1.3184088E-2,1.0159823E0,-6.7401E-1,1.1823533E0,5.299906E-1,-1.226065E0,6.235448E-1,-0E0,1.2145681E0,8.645575E-1,-4.7290783E-2,3.075784E-1,-1.5101206E0,-2.8656963E-1,6.890588E-1,-7.238709E-3,7.520805E-3,-0E0,2.8377715E-2,-4.24404E-3,2.3100477E-2,-2.3624783E-2,1.184956E-2,-1.558307E-2,1.2457832E-2,-3.7966825E-2,1.173727E-2,-8.900304E-3,-0E0,4.946388E-4,1.777327E-2],"categories":[],"categories_nodes":[],"categories_segments":[],"categories_sizes":[],"default_left":[0,0,0,0,0,0,0,0,0,0,0,0,0,0,0,0,0,0,0,0,0,0,0,0,0,0,0,0,0,0,0],"id":9,"left_children":[1,3,5,7,9,11,13,15,17,19,21,23,25,27,29,-1,-1,-1,-1,-1,-1,-1,-1,-1,-1,-1,-1,-1,-1,-1,-1],"loss_changes":[2.1645486E2,8.375504E0,1.3477258E2,3.50383E0,7.5532827E0,5.8613464E1,3.902443E0,5.928012E-1,1.0135345E0,4.103821E0,8.978625E0,5.4331636E0,3.1730469E1,6.916073E-2,2.3980865E0,0E0,0E0,0E0,0E0,0E0,0E0,0E0,0E0,0E0,0E0,0E0,0E0,0E0,0E0,0E0,0E0],"parents":[2147483647,0,0,1,1,2,2,3,3,4,4,5,5,6,6,7,7,8,8,9,9,10,10,11,11,12,12,13,13,14,14],"right_children":[2,4,6,8,10,12,14,16,18,20,22,24,26,28,30,-1,-1,-1,-1,-1,-1,-1,-1,-1,-1,-1,-1,-1,-1,-1,-1],"split_conditions":[-2.0461822E-1,-6.0027605E-1,2.6119173E-1,-1.2726963E0,-9.084236E-2,-1.08489655E-1,-8.437375E-1,-8.6820304E-1,-1.2877666E0,-8.646723E-1,-1.9982655E-2,-1.2001365E0,2.039344E-1,6.2598264E-1,-1.1785746E0,-7.238709E-3,7.520805E-3,-0E0,2.8377715E-2,-4.24404E-3,2.3100477E-2,-2.3624783E-2,1.184956E-2,-1.558307E-2,1.2457832E-2,-3.7966825E-2,1.173727E-2,-8.900304E-3,-0E0,4.946388E-4,1.777327E-2],"split_indices":[3,3,3,0,2,0,2,2,3,2,0,0,0,3,0,0,0,0,0,0,0,0,0,0,0,0,0,0,0,0,0],"split_type":[0,0,0,0,0,0,0,0,0,0,0,0,0,0,0,0,0,0,0,0,0,0,0,0,0,0,0,0,0,0,0],"sum_hessian":[3.1053082E2,1.2626844E2,1.8426239E2,9.146524E1,3.4803204E1,1.2962288E2,5.463952E1,2.4992228E0,8.896602E1,2.2106516E1,1.2696688E1,1.9936428E1,1.0968645E2,2.7372725E0,5.1902245E1,1.2495103E0,1.2497125E0,1.2452092E0,8.772081E1,1.991476E0,2.011504E1,4.486891E0,8.209797E0,2.7498403E0,1.7186588E1,1.0347766E2,6.2087865E0,1.2435291E0,1.4937433E0,6.492702E0,4.5409546E1],"tree_param":{"num_deleted":"0","num_feature":"4","num_nodes":"31","size_leaf_vector":"1"}},{"base_weights":[-4.4546958E-2,9.775351E-1,-7.039563E-1,1.1067152E0,3.6649123E-1,-1.2089745E0,5.916987E-1,-0E0,1.1307218E0,7.009255E-1,-4.7465155E-1,1.8838352E-1,-1.4535586E0,-2.1183412E-1,7.620046E-1,2.8504984E-2,1.633587E-2,-0E0,2.3791898E-2,-2.7105754E-2,8.293991E-3,-1.0233701E-2,9.215697E-3,-3.7411567E-2,1.8316712E-2,3.5827332E-3,-2.0629043E-2,1.8425783E-2,-7.644873E-4],"categories":[],"categories_nodes":[],"categories_segments":[],"categories_sizes":[],"default_left":[0,0,0,0,0,0,0,0,0,0,0,0,0,0,0,0,0,0,0,0,0,0,0,0,0,0,0,0,0],"id":10,"left_children":[1,3,5,7,9,11,13,-1,15,17,19,21,23,25,27,-1,-1,-1,-1,-1,-1,-1,-1,-1,-1,-1,-1,-1,-1],"loss_changes":[2.1474959E2,8.375198E0,1.2850674E2,2.599083E0,7.7017584E0,4.9155075E1,8.125603E0,0E0,1.8104401E0,4.7444267E0,5.579479E0,3.1967967E0,4.703987E1,3.225908E0,1.75593E0,0E0,0E0,0E0,0E0,0E0,0E0,0E0,0E0,0E0,0E0,0E0,0E0,0E0,0E0],"parents":[2147483647,0,0,1,1,2,2,3,3,4,4,5,5,6,6,8,8,9,9,10,10,11,11,12,12,13,13,14,14],"right_children":[2,4,6,8,10,12,14,-1,16,18,20,22,24,26,28,-1,-1,-1,-1,-1,-1,-1,-1,-1,-1,-1,-1,-1,-1],"split_conditions":[-2.607399E-1,-5.3573614E-1,3.3976206E-1,-1.2456753E0,4.418143E-2,-1.59078E-1,-1.1785746E0,-0E0,9.507278E-1,-7.652741E-1,-1.3178131E-2,-1.1785746E0,2.039344E-1,-7.115573E-1,1.594658E0,2.8504984E-2,1.633587E-2,-0E0,2.3791898E-2,-2.7105754E-2,8.293991E-3,-1.0233701E-2,9.215697E-3,-3.7411567E-2,1.8316712E-2,3.5827332E-3,-2.0629043E-2,1.8425783E-2,-7.644873E-4],"split_indices":[3,3,3,3,2,0,0,0,0,2,0,0,0,2,0,0,0,0,0,0,0,0,0,0,0,0,0,0,0],"split_type":[0,0,0,0,0,0,0,0,0,0,0,0,0,0,0,0,0,0,0,0,0,0,0,0,0,0,0,0,0],"sum_hessian":[3.1550403E2,1.2309091E2,1.924131E2,9.976669E1,2.332422E1,1.3882996E2,5.3583157E1,2.2281294E0,9.753856E1,1.7348164E1,5.976056E0,2.0406351E1,1.184236E2,8.742719E0,4.4840435E1,7.498558E1,2.2552979E1,5.712634E0,1.16355295E1,3.2397244E0,2.7363317E0,3.9973507E0,1.6409E1,1.1098119E2,7.442404E0,5.994428E0,2.7482905E0,4.3594284E1,1.246151E0],"tree_param":{"num_deleted":"0","num_feature":"4","num_nodes":"29","size_leaf_vector":"1"}},{"base_weights":[-2.6426204E-3,9.5488477E-1,-6.50099E-1,1.1361285E0,3.92E-1,-1.2043433E0,5.689813E-1,-1.1736228E-1,1.1910722E0,7.263734E-1,-1.9731793E-1,5.0399595E-1,-1.4985461E0,-6.041934E-2,6.828174E-1,-6.563E-3,-0E0,-0E0,2.7819004E-2,4.8819934E-3,2.3793379E-2,-2.0412862E-2,6.602899E-3,-6.910997E-3,1.6184183E-2,-3.68927E-2,1.1265296E-2,5.7961177E-3,-1.3604609E-2,-2.0291102E-3,1.670362E-2],"categories":[],"categories_nodes":[],"categories_segments":[],"categories_sizes":[],"default_left":[0,0,0,0,0,0,0,0,0,0,0,0,0,0,0,0,0,0,0,0,0,0,0,0,0,0,0,0,0,0,0],"id":11,"left_children":[1,3,5,7,9,11,13,15,17,19,21,23,25,27,29,-1,-1,-1,-1,-1,-1,-1,-1,-1,-1,-1,-1,-1,-1,-1,-1],"loss_changes":[1.9990623E2,1.167968E1,1.3179453E2,7.4687805E0,7.399188E0,6.885072E1,4.783825E0,2.0357917E-1,9.5822144E-1,2.5870838E0,5.1619477E0,3.8044538E0,2.4049469E1,2.0959775E0,2.0624657E0,0E0,0E0,0E0,0E0,0E0,0E0,0E0,0E0,0E0,0E0,0E0,0E0,0E0,0E0,0E0,0E0],"parents":[2147483647,0,0,1,1,2,2,3,3,4,4,5,5,6,6,7,7,8,8,9,9,10,10,11,11,12,12,13,13,14,14],"right_children":[2,4,6,8,10,12,14,16,18,20,22,24,26,28,30,-1,-1,-1,-1,-1,-1,-1,-1,-1,-1,-1,-1,-1,-1,-1,-1],"split_conditions":[-2.0461822E-1,-5.834395E-1,2.6119173E-1,-1.2555356E0,-7.6947294E-2,-1.2560056E-1,-1.1785746E0,-8.6820304E-1,-1.2877666E0,-7.652741E-1,-1.9982655E-2,-1.1849252E0,2.039344E-1,-7.115573E-1,-8.437375E-1,-6.563E-3,-0E0,-0E0,2.7819004E-2,4.8819934E-3,2.3793379E-2,-2.0412862E-2,6.602899E-3,-6.910997E-3,1.6184183E-2,-3.68927E-2,1.1265296E-2,5.7961177E-3,-1.3604609E-2,-2.0291102E-3,1.670362E-2],"split_indices":[3,3,3,0,2,0,0,2,3,2,0,0,0,2,2,0,0,0,0,0,0,0,0,0,0,0,0,0,0,0,0],"split_type":[0,0,0,0,0,0,0,0,0,0,0,0,0,0,0,0,0,0,0,0,0,0,0,0,0,0,0,0,0,0,0],"sum_hessian":[3.1940134E2,1.2819206E2,1.9120927E2,9.496279E1,3.322927E1,1.3176752E2,5.9441753E1,3.493835E0,9.1468956E1,2.1541977E1,1.1687293E1,1.8913939E1,1.12853584E2,8.493198E0,5.0948555E1,1.748266E0,1.7455691E0,1.2452092E0,9.022375E1,9.681633E0,1.1860344E1,4.7266207E0,6.960673E0,2.999243E0,1.5914695E1,1.0814591E2,4.707672E0,5.245532E0,3.2476664E0,1.7334431E0,4.921511E1],"tree_param":{"num_deleted":"0","num_feature":"4","num_nodes":"31","size_leaf_vector":"1"}},{"base_weights":[-1.9889816E-3,9.4497913E-1,-6.2589085E-1,-2.618928E-1,9.970866E-1,-1.1126908E0,5.177524E-1,-0E0,-3.4264743E-1,1.1326056E0,5.715668E-1,6.007938E-1,-1.3541893E0,-0E0,6.1851156E-1,-0E0,-1.4002006E-2,2.7893879E-2,1.2441053E-2,-1.9384156E-3,1.6983295E-2,-2.0526513E-3,2.1347672E-2,-3.4258027E-2,1.6908433E-2,5.0508357E-3,-1.122113E-2,1.52038755E-2,-1.608179E-3],"categories":[],"categories_nodes":[],"categories_segments":[],"categories_sizes":[],"default_left":[0,0,0,0,0,0,0,0,0,0,0,0,0,0,0,0,0,0,0,0,0,0,0,0,0,0,0,0,0],"id":12,"left_children":[1,3,5,7,9,11,13,-1,15,17,19,21,23,25,27,-1,-1,-1,-1,-1,-1,-1,-1,-1,-1,-1,-1,-1,-1],"loss_changes":[1.897535E2,8.83934E0,1.0935565E2,1.2428653E-1,5.0857544E0,5.8460495E1,3.0019674E0,0E0,7.0274466E-1,1.9626312E0,4.0890665E0,4.549597E0,3.44319E1,1.3571186E0,1.7176838E0,0E0,0E0,0E0,0E0,0E0,0E0,0E0,0E0,0E0,0E0,0E0,0E0,0E0,0E0],"parents":[2147483647,0,0,1,1,2,2,3,3,4,4,5,5,6,6,8,8,9,9,10,10,11,11,12,12,13,13,14,14],"right_children":[2,4,6,8,10,12,14,-1,16,18,20,22,24,26,28,-1,-1,-1,-1,-1,-1,-1,-1,-1,-1,-1,-1,-1,-1],"split_conditions":[-2.775764E-1,-1.2259617E0,2.5678188E-1,-1.250803E0,-6.423673E-1,-3.098077E-1,-1.1417773E0,-0E0,-8.744782E-1,1.9914134E0,-7.652741E-1,-1.137637E0,4.084474E-1,-7.115573E-1,1.6753953E0,-0E0,-1.4002006E-2,2.7893879E-2,1.2441053E-2,-1.9384156E-3,1.6983295E-2,-2.0526513E-3,2.1347672E-2,-3.4258027E-2,1.6908433E-2,5.0508357E-3,-1.122113E-2,1.52038755E-2,-1.608179E-3],"split_indices":[3,1,3,1,3,1,1,0,2,1,2,1,1,2,1,0,0,0,0,0,0,0,0,0,0,0,0,0,0],"split_type":[0,0,0,0,0,0,0,0,0,0,0,0,0,0,0,0,0,0,0,0,0,0,0,0,0,0,0,0,0],"sum_hessian":[3.1814868E2,1.2567474E2,1.9247394E2,4.494259E0,1.2118049E2,1.3537149E2,5.7102444E1,1.4993758E0,2.9948828E0,8.885307E1,3.232742E1,1.614019E1,1.192313E2,9.738164E0,4.736428E1,1.248338E0,1.7465448E0,7.667537E1,1.21777E1,5.940233E0,2.6387186E1,4.992212E0,1.1147979E1,1.1304326E2,6.1880407E0,7.489644E0,2.2485204E0,4.562603E1,1.7382507E0],"tree_param":{"num_deleted":"0","num_feature":"4","num_nodes":"29","size_leaf_vector":"1"}},{"base_weights":[2.4185564E-2,9.069539E-1,-5.7544464E-1,4.7276935E-1,1.0892668E0,-1.1097978E0,8.837915E-1,-1.9895768E-1,5.5226743E-1,2.55299E-2,2.0432037E-1,6.0106736E-1,-1.347794E0,1.0402998E0,3.7465006E-1,-6.2615126E-3,-0E0,2.0026684E-2,4.2358343E-3,1.3110323E-2,-2.0235057E-3,-2.6585488E-3,2.1488413E-2,4.1120267E-3,-3.5131488E-2,3.6991094E-3,2.5078556E-2,1.7322281E-2,-5.8628694E-4],"categories":[],"categories_nodes":[],"categories_segments":[],"categories_sizes":[],"default_left":[0,0,0,0,0,0,0,0,0,0,0,0,0,0,0,0,0,0,0,0,0,0,0,0,0,0,0,0,0],"id":13,"left_children":[1,3,5,7,9,11,13,15,17,-1,19,21,23,25,27,-1,-1,-1,-1,-1,-1,-1,-1,-1,-1,-1,-1,-1,-1],"loss_changes":[1.6728331E2,8.434319E0,1.480802E2,2.599309E0,9.688568E-2,5.8090042E1,2.646183E0,5.5769116E-2,3.6210537E0,0E0,7.788167E-1,4.7986937E0,3.3260803E1,4.981804E-1,2.73056E0,0E0,0E0,0E0,0E0,0E0,0E0,0E0,0E0,0E0,0E0,0E0,0E0,0E0,0E0],"parents":[2147483647,0,0,1,1,2,2,3,3,4,4,5,5,6,6,7,7,8,8,10,10,11,11,12,12,13,13,14,14],"right_children":[2,4,6,8,10,12,14,16,18,-1,20,22,24,26,28,-1,-1,-1,-1,-1,-1,-1,-1,-1,-1,-1,-1,-1,-1],"split_conditions":[-1.70989E-1,-1.1413386E0,2.7862686E-1,-1.2726963E0,2.3517241E0,-3.8420758E-1,1.2682748E0,-8.6820304E-1,-2.3094264E-1,2.55299E-2,-9.383442E-1,-4.3398846E-2,-1.59078E-1,3.0870217E-1,-5.217057E-1,-6.2615126E-3,-0E0,2.0026684E-2,4.2358343E-3,1.3110323E-2,-2.0235057E-3,-2.6585488E-3,2.1488413E-2,4.1120267E-3,-3.5131488E-2,3.6991094E-3,2.5078556E-2,1.7322281E-2,-5.8628694E-4],"split_indices":[2,0,2,0,3,3,0,2,3,0,0,0,0,2,3,0,0,0,0,0,0,0,0,0,0,0,0,0,0],"split_type":[0,0,0,0,0,0,0,0,0,0,0,0,0,0,0,0,0,0,0,0,0,0,0,0,0,0,0,0,0],"sum_hessian":[3.123941E2,1.2638589E2,1.8600821E2,4.00168E1,8.636909E1,1.367141E2,4.9294106E1,3.2487721E0,3.676803E1,8.390707E1,2.4620225E0,1.6108355E1,1.2060575E2,3.556614E1,1.3727964E1,1.7494835E0,1.4992886E0,1.7861204E1,1.8906824E1,1.2295208E0,1.2325017E0,4.885322E0,1.1223032E1,1.189388E1,1.0871187E2,2.6687555E0,3.2897385E1,7.0411954E0,6.6867685E0],"tree_param":{"num_deleted":"0","num_feature":"4","num_nodes":"29","size_leaf_vector":"1"}},{"base_weights":[1.6132839E-3,8.1890273E-1,-5.5787647E-1,1.4628468E-1,9.981863E-1,-1.0747277E0,8.3122104E-1,2.9101276E-1,-4.585061E-1,2.3331758E-2,-0E0,-1.2886002E0,8.703252E-1,2.0876542E-2,2.6598388E-1,-2.886037E-3,1.4221318E-2,6.7140698E-3,-2.0866767E-2,1.0712615E-2,-3.3619426E-2,2.3990456E-2,-0E0,-4.1218757E-4,1.4529099E-2],"categories":[],"categories_nodes":[],"categories_segments":[],"categories_sizes":[],"default_left":[0,0,0,0,0,0,0,0,0,0,0,0,0,0,0,0,0,0,0,0,0,0,0,0,0],"id":14,"left_children":[1,3,5,7,9,11,13,15,17,-1,-1,19,21,-1,23,-1,-1,-1,-1,-1,-1,-1,-1,-1,-1],"loss_changes":[1.4439651E2,1.464389E1,1.3578543E2,2.7248101E0,1.0109406E0,5.9164627E1,1.053463E0,3.8525143E0,2.644225E0,0E0,0E0,3.7827988E1,1.9726429E0,0E0,1.2754245E0,0E0,0E0,0E0,0E0,0E0,0E0,0E0,0E0,0E0,0E0],"parents":[2147483647,0,0,1,1,2,2,3,3,4,4,5,5,6,6,7,7,8,8,11,11,12,12,14,14],"right_children":[2,4,6,8,10,12,14,16,18,-1,-1,20,22,-1,24,-1,-1,-1,-1,-1,-1,-1,-1,-1,-1],"split_conditions":[-1.70989E-1,-1.1417773E0,2.7862686E-1,-7.173811E-1,4.2180014E0,2.3593777E-1,1.594658E0,-1.2261137E0,-1.2261137E0,2.3331758E-2,-0E0,-3.8819706E-1,4.022852E0,2.0876542E-2,2.2927656E0,-2.886037E-3,1.4221318E-2,6.7140698E-3,-2.0866767E-2,1.0712615E-2,-3.3619426E-2,2.3990456E-2,-0E0,-4.1218757E-4,1.4529099E-2],"split_indices":[2,1,2,2,0,0,0,0,0,0,0,0,0,0,0,0,0,0,0,0,0,0,0,0,0],"split_type":[0,0,0,0,0,0,0,0,0,0,0,0,0,0,0,0,0,0,0,0,0,0,0,0,0],"sum_hessian":[3.1215976E2,1.2693604E2,1.8522371E2,2.7984291E1,9.895175E1,1.3555325E2,4.9670456E1,2.3998621E1,3.9856703E0,9.7733315E1,1.2184443E0,1.2288011E2,1.2673143E1,4.2334236E1,7.336219E0,1.0226349E1,1.3772271E1,1.2425414E0,2.743129E0,1.008207E1,1.1279804E2,1.0251943E1,2.4212012E0,4.159263E0,3.1769557E0],"tree_param":{"num_deleted":"0","num_feature":"4","num_nodes":"25","size_leaf_vector":"1"}},{"base_weights":[-8.596652E-3,8.23768E-1,-5.413651E-1,2.1117146E-1,9.8358154E-1,-1.0570567E0,7.7113473E-1,4.1473892E-1,-4.2989582E-1,1.0337484E0,4.002402E-1,-1.2446142E0,8.0355644E-1,8.8643533E-1,3.4629896E-1,-6.2318156E-3,1.8488562E-2,9.665964E-3,-2.064271E-2,1.2140939E-2,2.509107E-2,-0E0,1.3512857E-2,4.1671223E-3,-3.383619E-2,2.7046608E-2,2.8048137E-3,-0E0,2.2358667E-2,-1.96952E-3,1.5415414E-2],"categories":[],"categories_nodes":[],"categories_segments":[],"categories_sizes":[],"default_left":[0,0,0,0,0,0,0,0,0,0,0,0,0,0,0,0,0,0,0,0,0,0,0,0,0,0,0,0,0,0,0],"id":15,"left_children":[1,3,5,7,9,11,13,15,17,19,21,23,25,27,29,-1,-1,-1,-1,-1,-1,-1,-1,-1,-1,-1,-1,-1,-1,-1,-1],"loss_changes":[1.3798685E2,1.0871071E1,1.3032133E2,3.9263992E0,1.3147278E0,4.992566E1,1.4842567E0,6.6142006E0,3.5834665E0,4.2949677E-1,7.775371E-1,4.046022E1,2.4005175E0,2.7111397E0,2.5298467E0,0E0,0E0,0E0,0E0,0E0,0E0,0E0,0E0,0E0,0E0,0E0,0E0,0E0,0E0,0E0,0E0],"parents":[2147483647,0,0,1,1,2,2,3,3,4,4,5,5,6,6,7,7,8,8,9,9,10,10,11,11,12,12,13,13,14,14],"right_children":[2,4,6,8,10,12,14,16,18,20,22,24,26,28,30,-1,-1,-1,-1,-1,-1,-1,-1,-1,-1,-1,-1,-1,-1,-1,-1],"split_conditions":[-1.70989E-1,-1.1417773E0,2.6806566E-1,-7.2902954E-1,1.8625586E0,2.039344E-1,1.2361112E0,-1.2068585E0,-1.2261137E0,-8.437375E-1,2.1432438E0,-1.2560056E-1,4.9547907E-2,3.0870217E-1,1.7707969E0,-6.2318156E-3,1.8488562E-2,9.665964E-3,-2.064271E-2,1.2140939E-2,2.509107E-2,-0E0,1.3512857E-2,4.1671223E-3,-3.383619E-2,2.7046608E-2,2.8048137E-3,-0E0,2.2358667E-2,-1.96952E-3,1.5415414E-2],"split_indices":[2,1,2,2,0,0,1,1,0,2,0,0,2,2,1,0,0,0,0,0,0,0,0,0,0,0,0,0,0,0,0],"split_type":[0,0,0,0,0,0,0,0,0,0,0,0,0,0,0,0,0,0,0,0,0,0,0,0,0,0,0,0,0,0,0],"sum_hessian":[3.0818262E2,1.195231E2,1.886595E2,2.6228302E1,9.32948E1,1.3597136E2,5.2688152E1,2.0993616E1,5.2346854E0,8.38718E1,9.422999E0,1.24283485E2,1.168787E1,3.901982E1,1.3668334E1,7.2310567E0,1.376256E1,1.4918642E0,3.7428212E0,1.0415218E1,7.345658E1,3.610815E0,5.8121843E0,1.6275927E1,1.0800755E2,6.31487E0,5.3730006E0,3.6147835E0,3.5405037E1,5.6233134E0,8.04502E0],"tree_param":{"num_deleted":"0","num_feature":"4","num_nodes":"31","size_leaf_vector":"1"}},{"base_weights":[-1.849118E-2,8.784029E-1,-6.043629E-1,1.0505545E0,3.118797E-1,-1.069499E0,5.210894E-1,-0E0,1.0857391E0,6.528636E-1,-4.1674706E-1,3.3796638E-1,-1.3550031E0,-1.1787145E-1,6.5149724E-1,-0E0,-2.787391E-4,2.6434252E-2,1.3813671E-2,-3.6151893E-3,2.2981327E-2,-1.9108787E-2,5.8690594E-3,-5.7360367E-3,1.29686585E-2,-3.4637503E-2,1.3751039E-2,4.465544E-3,-1.1572362E-2,-2.74805E-3,1.6082505E-2],"categories":[],"categories_nodes":[],"categories_segments":[],"categories_sizes":[],"default_left":[0,0,0,0,0,0,0,0,0,0,0,0,0,0,0,0,0,0,0,0,0,0,0,0,0,0,0,0,0,0,0],"id":16,"left_children":[1,3,5,7,9,11,13,15,17,19,21,23,25,27,29,-1,-1,-1,-1,-1,-1,-1,-1,-1,-1,-1,-1,-1,-1,-1,-1],"loss_changes":[1.6705853E2,1.0945457E1,1.0215649E2,3.5885086E0,8.607034E0,5.648825E1,5.1795597E0,4.9487856E-4,5.111618E-1,7.110631E0,3.6290374E0,3.5595098E0,3.40746E1,1.5636976E0,2.1005096E0,0E0,0E0,0E0,0E0,0E0,0E0,0E0,0E0,0E0,0E0,0E0,0E0,0E0,0E0,0E0,0E0],"parents":[2147483647,0,0,1,1,2,2,3,3,4,4,5,5,6,6,7,7,8,8,9,9,10,10,11,11,12,12,13,13,14,14],"right_children":[2,4,6,8,10,12,14,16,18,20,22,24,26,28,30,-1,-1,-1,-1,-1,-1,-1,-1,-1,-1,-1,-1,-1,-1,-1,-1],"split_conditions":[-2.775764E-1,-6.0027605E-1,2.6119173E-1,-1.2555356E0,4.418143E-2,-1.3869475E-1,-1.1785746E0,-1.277689E0,2.0939815E0,-7.652741E-1,1.1400737E0,-1.1623595E0,2.039344E-1,1.3499522E0,-8.437375E-1,-0E0,-2.787391E-4,2.6434252E-2,1.3813671E-2,-3.6151893E-3,2.2981327E-2,-1.9108787E-2,5.8690594E-3,-5.7360367E-3,1.29686585E-2,-3.4637503E-2,1.3751039E-2,4.465544E-3,-1.1572362E-2,-2.74805E-3,1.6082505E-2],"split_indices":[3,3,3,0,2,0,0,0,0,2,2,0,0,3,2,0,0,0,0,0,0,0,0,0,0,0,0,0,0,0,0],"split_type":[0,0,0,0,0,0,0,0,0,0,0,0,0,0,0,0,0,0,0,0,0,0,0,0,0,0,0,0,0,0,0],"sum_hessian":[3.1487622E2,1.2372117E2,1.9115506E2,9.30666E1,3.0654575E1,1.3565504E2,5.5500015E1,2.995693E0,9.00709E1,2.1506907E1,9.147669E0,2.2505085E1,1.13149956E2,8.728873E0,4.677114E1,1.2496743E0,1.7460188E0,7.7549576E1,1.2521326E1,6.174681E0,1.5332225E1,5.94046E0,3.2072089E0,5.4818344E0,1.7023249E1,1.0601414E2,7.135816E0,4.4861426E0,4.24273E0,1.7217172E0,4.5049423E1],"tree_param":{"num_deleted":"0","num_feature":"4","num_nodes":"31","size_leaf_vector":"1"}},{"base_weights":[-5.598931E-3,8.410057E-1,-5.38309E-1,-2.6633078E-1,8.875841E-1,-1.049309E0,6.1310613E-1,-8.960826E-3,-0E0,1.0331203E0,4.3004248E-1,3.1305313E-1,-1.2668883E0,-2.1637183E-1,7.728484E-1,-0E0,2.4176124E-2,1.7372938E-2,-2.7610685E-3,-5.4015233E-3,1.3099168E-2,-3.226603E-2,1.17768245E-2,5.657656E-5,-1.3241923E-2,-0E0,1.856872E-2],"categories":[],"categories_nodes":[],"categories_segments":[],"categories_sizes":[],"default_left":[0,0,0,0,0,0,0,0,0,0,0,0,0,0,0,0,0,0,0,0,0,0,0,0,0,0,0],"id":17,"left_children":[1,3,5,7,9,11,13,-1,-1,15,17,19,21,23,25,-1,-1,-1,-1,-1,-1,-1,-1,-1,-1,-1,-1],"loss_changes":[1.4057877E2,6.925415E0,1.1422873E2,1.484353E-1,6.2032394E0,4.0857162E1,8.491644E0,0E0,0E0,9.331131E-1,6.1039996E0,3.093163E0,2.8254791E1,1.1222931E0,1.4923878E0,0E0,0E0,0E0,0E0,0E0,0E0,0E0,0E0,0E0,0E0,0E0,0E0],"parents":[2147483647,0,0,1,1,2,2,3,3,4,4,5,5,6,6,9,9,10,10,11,11,12,12,13,13,14,14],"right_children":[2,4,6,8,10,12,14,-1,-1,16,18,20,22,24,26,-1,-1,-1,-1,-1,-1,-1,-1,-1,-1,-1,-1],"split_conditions":[-2.607399E-1,-1.239835E0,2.6119173E-1,-6.928768E-1,-6.0027605E-1,-2.0039906E-1,-1.1417773E0,-8.960826E-3,-0E0,-1.2877666E0,-7.6947294E-2,-1.137637E0,4.4785285E-1,-7.329794E-1,-8.437375E-1,-0E0,2.4176124E-2,1.7372938E-2,-2.7610685E-3,-5.4015233E-3,1.3099168E-2,-3.226603E-2,1.17768245E-2,5.657656E-5,-1.3241923E-2,-0E0,1.856872E-2],"split_indices":[3,1,3,3,3,1,1,0,0,3,2,1,2,2,2,0,0,0,0,0,0,0,0,0,0,0,0],"split_type":[0,0,0,0,0,0,0,0,0,0,0,0,0,0,0,0,0,0,0,0,0,0,0,0,0,0,0],"sum_hessian":[3.0875116E2,1.1847996E2,1.902712E2,3.9965477E0,1.1448341E2,1.322131E2,5.8058098E1,1.9991745E0,1.9973733E0,8.437422E1,3.0109192E1,1.7763876E1,1.1444923E2,8.731904E0,4.9326195E1,1.2308733E0,8.314335E1,1.9233456E1,1.0875734E1,4.9924026E0,1.2771473E1,1.0731935E2,7.1298714E0,5.487293E0,3.244611E0,1.477817E0,4.7848377E1],"tree_param":{"num_deleted":"0","num_feature":"4","num_nodes":"27","size_leaf_vector":"1"}},{"base_weights":[-2.0115351E-2,7.961822E-1,-5.529529E-1,9.943055E-1,2.4633846E-1,-1.0818202E0,5.4526365E-1,-5.447362E-3,2.3986073E-2,4.5438227E-1,-1.552313E-1,3.1982812E-1,-1.3509223E0,-1.00031376E-1,5.932339E-1,-2.2166986E-3,1.8747214E-2,-2.1330608E-2,8.487889E-3,-3.0786814E-3,1.2579849E-2,-3.3945717E-2,1.5184712E-2,8.084803E-4,-9.246012E-3,1.6078046E-2,4.011736E-3],"categories":[],"categories_nodes":[],"categories_segments":[],"categories_sizes":[],"default_left":[0,0,0,0,0,0,0,0,0,0,0,0,0,0,0,0,0,0,0,0,0,0,0,0,0,0,0],"id":18,"left_children":[1,3,5,7,9,11,13,-1,-1,15,17,19,21,23,25,-1,-1,-1,-1,-1,-1,-1,-1,-1,-1,-1,-1],"loss_changes":[1.334361E2,1.2090897E1,1.0939746E2,5.510063E0,3.1993287E0,4.9006805E1,2.2629547E0,0E0,0E0,5.2928686E0,5.784472E0,2.518183E0,2.7253235E1,4.187255E-1,1.8212605E0,0E0,0E0,0E0,0E0,0E0,0E0,0E0,0E0,0E0,0E0,0E0,0E0],"parents":[2147483647,0,0,1,1,2,2,3,3,4,4,5,5,6,6,9,9,10,10,11,11,12,12,13,13,14,14],"right_children":[2,4,6,8,10,12,14,-1,-1,16,18,20,22,24,26,-1,-1,-1,-1,-1,-1,-1,-1,-1,-1,-1,-1],"split_conditions":[-2.3094264E-1,-6.0027605E-1,2.6119173E-1,-1.2726963E0,-7.6947294E-2,-1.08489655E-1,-8.437375E-1,-5.447362E-3,2.3986073E-2,-4.880327E-1,3.3795882E-2,-1.1013618E0,2.039344E-1,-8.5652274E-1,2.3517241E0,-2.2166986E-3,1.8747214E-2,-2.1330608E-2,8.487889E-3,-3.0786814E-3,1.2579849E-2,-3.3945717E-2,1.5184712E-2,8.084803E-4,-9.246012E-3,1.6078046E-2,4.011736E-3],"split_indices":[3,3,3,0,2,0,2,0,0,3,0,0,0,2,3,0,0,0,0,0,0,0,0,0,0,0,0],"split_type":[0,0,0,0,0,0,0,0,0,0,0,0,0,0,0,0,0,0,0,0,0,0,0,0,0,0,0],"sum_hessian":[3.037505E2,1.1923971E2,1.8451079E2,8.594473E1,3.3294975E1,1.24887634E2,5.962315E1,2.2486517E0,8.369608E1,2.2678986E1,1.0615988E1,1.9740072E1,1.0514756E2,3.2183163E0,5.6404835E1,8.79629E0,1.3882695E1,4.2056727E0,6.4103155E0,5.96068E0,1.3779393E1,1.0000668E2,5.140875E0,1.981428E0,1.2368883E0,4.3434345E1,1.2970487E1],"tree_param":{"num_deleted":"0","num_feature":"4","num_nodes":"27","size_leaf_vector":"1"}},{"base_weights":[2.7411677E-2,8.8177913E-1,-5.587003E-1,-1.52077805E-2,9.2952996E-1,-1.1132978E0,5.785676E-1,1.1042017E0,4.3041894E-1,-1.2166398E0,6.723286E-1,-1.9361435E-1,6.4068985E-1,-0E0,2.6057692E-2,1.7792521E-2,-4.020309E-3,1.1478871E-3,-3.191355E-2,-2.5320745E-3,2.1703117E-2,7.983334E-4,-1.2207556E-2,1.5833873E-2,-0E0],"categories":[],"categories_nodes":[],"categories_segments":[],"categories_sizes":[],"default_left":[0,0,0,0,0,0,0,0,0,0,0,0,0,0,0,0,0,0,0,0,0,0,0,0,0],"id":19,"left_children":[1,3,5,-1,7,9,11,13,15,17,19,21,23,-1,-1,-1,-1,-1,-1,-1,-1,-1,-1,-1,-1],"loss_changes":[1.5426404E2,1.0392296E1,1.1626298E2,0E0,9.086258E0,2.4412613E1,3.3498535E0,2.7123184E0,7.795559E0,2.5224976E1,2.1895292E0,6.892952E-1,1.8489952E0,0E0,0E0,0E0,0E0,0E0,0E0,0E0,0E0,0E0,0E0,0E0,0E0],"parents":[2147483647,0,0,1,1,2,2,4,4,5,5,6,6,7,7,8,8,9,9,10,10,11,11,12,12],"right_children":[2,4,6,-1,8,10,12,14,16,18,20,22,24,-1,-1,-1,-1,-1,-1,-1,-1,-1,-1,-1,-1],"split_conditions":[-2.0461822E-1,-1.245428E0,2.6119173E-1,-1.52077805E-2,-6.0027605E-1,4.4785285E-1,-8.437375E-1,-1.2877666E0,-5.332285E-2,-1.6548051E-1,-1.0359919E-1,-8.5652274E-1,1.5680683E0,-0E0,2.6057692E-2,1.7792521E-2,-4.020309E-3,1.1478871E-3,-3.191355E-2,-2.5320745E-3,2.1703117E-2,7.983334E-4,-1.2207556E-2,1.5833873E-2,-0E0],"split_indices":[3,1,3,0,3,2,2,3,2,2,3,2,1,0,0,0,0,0,0,0,0,0,0,0,0],"split_type":[0,0,0,0,0,0,0,0,0,0,0,0,0,0,0,0,0,0,0,0,0,0,0,0,0],"sum_hessian":[3.0442465E2,1.2390289E2,1.8052174E2,2.7481513E0,1.2115475E2,1.21690544E2,5.8831203E1,8.74526E1,3.370215E1,1.1581963E2,5.8709087E0,3.4688551E0,5.536235E1,1.4740682E0,8.597853E1,2.1868895E1,1.1833254E1,1.3029312E1,1.0279032E2,1.2232329E0,4.6476755E0,1.9812961E0,1.487559E0,5.2168243E1,3.1941056E0],"tree_param":{"num_deleted":"0","num_feature":"4","num_nodes":"25","size_leaf_vector":"1"}},{"base_weights":[3.9753593E-3,7.715602E-1,-5.1514846E-1,9.477467E-1,2.6033363E-1,-1.056805E0,5.65894E-1,7.65778E-2,9.699526E-1,4.9947855E-1,-1.5778236E-1,2.6126644E-1,-1.2996433E0,-0E0,6.594857E-1,-0E0,5.744424E-3,-0E0,2.2695126E-2,-0E0,1.683694E-2,-2.1198202E-2,1.0861073E-2,-1.0329898E-2,8.983659E-3,-3.2937758E-2,1.3848816E-2,1.01268E-2,-1.3809909E-2,1.619348E-2,-2.5151193E-3],"categories":[],"categories_nodes":[],"categories_segments":[],"categories_sizes":[],"default_left":[0,0,0,0,0,0,0,0,0,0,0,0,0,0,0,0,0,0,0,0,0,0,0,0,0,0,0,0,0,0,0],"id":20,"left_children":[1,3,5,7,9,11,13,15,17,19,21,23,25,27,29,-1,-1,-1,-1,-1,-1,-1,-1,-1,-1,-1,-1,-1,-1,-1,-1],"loss_changes":[1.2118129E2,1.0011757E1,1.0712413E2,1.050705E0,3.7750382E0,3.9970886E1,2.8882256E0,1.8270631E-1,8.278656E-1,3.0425673E0,7.161644E0,2.0522897E0,2.6383514E1,3.2620068E0,2.0755749E0,0E0,0E0,0E0,0E0,0E0,0E0,0E0,0E0,0E0,0E0,0E0,0E0,0E0,0E0,0E0,0E0],"parents":[2147483647,0,0,1,1,2,2,3,3,4,4,5,5,6,6,7,7,8,8,9,9,10,10,11,11,12,12,13,13,14,14],"right_children":[2,4,6,8,10,12,14,16,18,20,22,24,26,28,30,-1,-1,-1,-1,-1,-1,-1,-1,-1,-1,-1,-1,-1,-1,-1,-1],"split_conditions":[-2.3094264E-1,-6.0027605E-1,2.6119173E-1,-1.2555356E0,-7.6947294E-2,-1.08489655E-1,-1.1849252E0,-8.741473E-1,-1.2877666E0,-5.1048136E-1,-1.3178131E-2,-1.2041183E0,2.039344E-1,1.7231615E0,1.5394582E0,-0E0,5.744424E-3,-0E0,2.2695126E-2,-0E0,1.683694E-2,-2.1198202E-2,1.0861073E-2,-1.0329898E-2,8.983659E-3,-3.2937758E-2,1.3848816E-2,1.01268E-2,-1.3809909E-2,1.619348E-2,-2.5151193E-3],"split_indices":[3,3,3,0,2,0,0,2,3,3,0,0,0,3,0,0,0,0,0,0,0,0,0,0,0,0,0,0,0,0,0],"split_type":[0,0,0,0,0,0,0,0,0,0,0,0,0,0,0,0,0,0,0,0,0,0,0,0,0,0,0,0,0,0,0],"sum_hessian":[3.004553E2,1.2131557E2,1.7913972E2,8.837993E1,3.293564E1,1.1970213E2,5.9437603E1,2.9875288E0,8.53924E1,2.1572498E1,1.1363142E1,1.8255388E1,1.0144674E2,9.469494E0,4.996811E1,1.2453443E0,1.7421845E0,1.2287775E0,8.416363E1,6.571025E0,1.5001472E1,5.1878033E0,6.1753387E0,1.4995612E0,1.6755827E1,9.5825035E1,5.621704E0,6.2272415E0,3.242252E0,4.824313E1,1.7249802E0],"tree_param":{"num_deleted":"0","num_feature":"4","num_nodes":"31","size_leaf_vector":"1"}},{"base_weights":[2.8435905E-2,8.5353774E-1,-4.7288704E-1,1.0165077E0,2.7412924E-1,-9.43894E-1,6.1096126E-1,-1.8529451E-4,1.049987E0,-8.275977E-2,5.2071404E-1,3.4808987E-1,-1.2502058E0,2.1771675E-2,7.1954656E-1,-0E0,2.4581704E-2,2.129673E-3,-1.2602185E-2,1.8434986E-2,3.066195E-3,-3.4162742E-3,1.5088541E-2,-3.2542724E-2,1.4018855E-2,1.1463747E-2,-1.2820933E-2,1.7875085E-2,-5.743535E-4],"categories":[],"categories_nodes":[],"categories_segments":[],"categories_sizes":[],"default_left":[0,0,0,0,0,0,0,0,0,0,0,0,0,0,0,0,0,0,0,0,0,0,0,0,0,0,0,0,0],"id":21,"left_children":[1,3,5,7,9,11,13,-1,15,17,19,21,23,25,27,-1,-1,-1,-1,-1,-1,-1,-1,-1,-1,-1,-1,-1,-1],"loss_changes":[1.2425683E2,9.577278E0,9.61928E1,3.5781097E0,2.7703962E0,5.297377E1,3.2224483E0,0E0,1.0289688E0,1.296251E0,1.2175097E0,4.365288E0,3.2992706E1,3.5306633E0,2.332117E0,0E0,0E0,0E0,0E0,0E0,0E0,0E0,0E0,0E0,0E0,0E0,0E0,0E0,0E0],"parents":[2147483647,0,0,1,1,2,2,3,3,4,4,5,5,6,6,8,8,9,9,10,10,11,11,12,12,13,13,14,14],"right_children":[2,4,6,8,10,12,14,-1,16,18,20,22,24,26,28,-1,-1,-1,-1,-1,-1,-1,-1,-1,-1,-1,-1,-1,-1],"split_conditions":[-3.0588704E-1,-6.0027605E-1,2.6119173E-1,-1.2555356E0,-5.1048136E-1,-1.2560056E-1,-1.1785746E0,-1.8529451E-4,-1.2877666E0,-5.3573614E-1,-4.0665627E-1,-1.1013618E0,2.039344E-1,1.4313287E0,1.5138131E0,-0E0,2.4581704E-2,2.129673E-3,-1.2602185E-2,1.8434986E-2,3.066195E-3,-3.4162742E-3,1.5088541E-2,-3.2542724E-2,1.4018855E-2,1.1463747E-2,-1.2820933E-2,1.7875085E-2,-5.743535E-4],"split_indices":[3,3,3,0,3,0,0,0,3,3,3,0,0,3,0,0,0,0,0,0,0,0,0,0,0,0,0,0,0],"split_type":[0,0,0,0,0,0,0,0,0,0,0,0,0,0,0,0,0,0,0,0,0,0,0,0,0,0,0,0,0],"sum_hessian":[2.9662244E2,1.1207763E2,1.845448E2,8.576697E1,2.6310663E1,1.2913951E2,5.54053E1,2.2409372E0,8.3526024E1,1.0301437E1,1.6009226E1,2.4366583E1,1.0477293E2,9.709378E0,4.569592E1,1.2270548E0,8.229897E1,7.5859656E0,2.7154713E0,7.507433E0,8.501792E0,8.919697E0,1.5446887E1,9.721405E1,7.558874E0,5.9707756E0,3.7386029E0,4.3239414E1,2.4565046E0],"tree_param":{"num_deleted":"0","num_feature":"4","num_nodes":"29","size_leaf_vector":"1"}},{"base_weights":[-0E0,7.7438825E-1,-5.1337135E-1,9.067915E-1,3.5733584E-1,-1.0133402E0,4.813895E-1,-0E0,9.421988E-1,5.5834776E-1,-3.0552622E-2,1.5038303E-1,-1.2028972E0,5.2828413E-1,-9.192457E-3,-0E0,-1.5758243E-3,-2.257874E-3,2.2336857E-2,-7.6479046E-3,1.6502192E-2,-1.1973091E-2,1.1494216E-2,-1.1190825E-2,1.1266234E-2,-3.0964268E-2,7.6138726E-3,-8.461889E-3,1.3319645E-2],"categories":[],"categories_nodes":[],"categories_segments":[],"categories_sizes":[],"default_left":[0,0,0,0,0,0,0,0,0,0,0,0,0,0,0,0,0,0,0,0,0,0,0,0,0,0,0,0,0],"id":22,"left_children":[1,3,5,7,9,11,13,15,17,19,21,23,25,27,-1,-1,-1,-1,-1,-1,-1,-1,-1,-1,-1,-1,-1,-1,-1],"loss_changes":[1.1640587E2,5.2169952E0,8.878516E1,3.0233765E0,2.79628E0,2.6952408E1,2.8815212E0,1.3428175E-2,2.720047E0,3.638092E0,3.40002E0,4.163334E0,2.2686752E1,2.9500313E0,0E0,0E0,0E0,0E0,0E0,0E0,0E0,0E0,0E0,0E0,0E0,0E0,0E0,0E0,0E0],"parents":[2147483647,0,0,1,1,2,2,3,3,4,4,5,5,6,6,7,7,8,8,9,9,10,10,11,11,12,12,13,13],"right_children":[2,4,6,8,10,12,14,16,18,20,22,24,26,28,-1,-1,-1,-1,-1,-1,-1,-1,-1,-1,-1,-1,-1,-1,-1],"split_conditions":[-2.775764E-1,-6.0027605E-1,2.5678188E-1,-1.2068585E0,5.985695E-4,-2.0039906E-1,1.8661987E0,-8.5390353E-1,-1.2877666E0,-8.581838E-1,1.1400737E0,-1.137637E0,2.647964E-1,-8.437375E-1,-9.192457E-3,-0E0,-1.5758243E-3,-2.257874E-3,2.2336857E-2,-7.6479046E-3,1.6502192E-2,-1.1973091E-2,1.1494216E-2,-1.1190825E-2,1.1266234E-2,-3.0964268E-2,7.6138726E-3,-8.461889E-3,1.3319645E-2],"split_indices":[3,3,3,1,2,1,1,2,3,2,2,1,1,2,0,0,0,0,0,0,0,0,0,0,0,0,0,0,0],"split_type":[0,0,0,0,0,0,0,0,0,0,0,0,0,0,0,0,0,0,0,0,0,0,0,0,0,0,0,0,0],"sum_hessian":[2.8962366E2,1.1497065E2,1.7465302E2,8.480095E1,3.0169699E1,1.1657617E2,5.807684E1,2.9703197E0,8.1830635E1,2.0313526E1,9.8561735E0,1.5976036E1,1.00600136E2,5.634954E1,1.7272978E0,1.7382891E0,1.2320309E0,1.2287775E0,8.060185E1,2.226698E0,1.8086828E1,5.6747775E0,4.1813955E0,4.7322073E0,1.1243829E1,9.288113E1,7.719015E0,1.7305552E0,5.4618984E1],"tree_param":{"num_deleted":"0","num_feature":"4","num_nodes":"29","size_leaf_vector":"1"}},{"base_weights":[2.7108457E-2,7.44376E-1,-4.6091413E-1,3.8015038E-1,9.037754E-1,-9.4124234E-1,6.4092726E-1,4.759154E-1,-2.2176081E-1,9.448938E-1,3.1344205E-1,-1.097743E0,5.7999605E-1,4.337445E-1,7.981451E-1,-7.139901E-3,1.3354914E-2,-8.010014E-3,-0E0,2.5210489E-2,1.4243302E-2,-5.153194E-3,1.1964889E-2,4.3837843E-3,-3.0461626E-2,1.8081967E-2,-4.4761742E-3,1.30223455E-2,-0E0,-3.2166683E-3,2.0118106E-2],"categories":[],"categories_nodes":[],"categories_segments":[],"categories_sizes":[],"default_left":[0,0,0,0,0,0,0,0,0,0,0,0,0,0,0,0,0,0,0,0,0,0,0,0,0,0,0,0,0,0,0],"id":23,"left_children":[1,3,5,7,9,11,13,15,17,19,21,23,25,27,29,-1,-1,-1,-1,-1,-1,-1,-1,-1,-1,-1,-1,-1,-1,-1,-1],"loss_changes":[1.0441273E2,5.760109E0,9.476242E1,2.66113E0,8.152542E-1,3.0899956E1,5.274658E-1,3.354473E0,1.9478226E-1,1.5488968E0,1.301203E0,3.3175003E1,2.501844E0,1.8803821E0,2.4529953E0,0E0,0E0,0E0,0E0,0E0,0E0,0E0,0E0,0E0,0E0,0E0,0E0,0E0,0E0,0E0,0E0],"parents":[2147483647,0,0,1,1,2,2,3,3,4,4,5,5,6,6,7,7,8,8,9,9,10,10,11,11,12,12,13,13,14,14],"right_children":[2,4,6,8,10,12,14,16,18,20,22,24,26,28,30,-1,-1,-1,-1,-1,-1,-1,-1,-1,-1,-1,-1,-1,-1,-1,-1],"split_conditions":[-1.70989E-1,-1.1413386E0,2.4849434E-1,-1.1496897E0,2.0939815E0,2.3593777E-1,1.0941607E0,-1.2472439E0,-7.329794E-1,-4.554823E-1,2.1432438E0,-1.3042796E-1,1.6227564E-1,7.77862E-1,-2.5988573E-1,-7.139901E-3,1.3354914E-2,-8.010014E-3,-0E0,2.5210489E-2,1.4243302E-2,-5.153194E-3,1.1964889E-2,4.3837843E-3,-3.0461626E-2,1.8081967E-2,-4.4761742E-3,1.30223455E-2,-0E0,-3.2166683E-3,2.0118106E-2],"split_indices":[2,0,2,0,0,0,2,1,2,2,0,0,2,2,0,0,0,0,0,0,0,0,0,0,0,0,0,0,0,0,0],"split_type":[0,0,0,0,0,0,0,0,0,0,0,0,0,0,0,0,0,0,0,0,0,0,0,0,0,0,0,0,0,0,0],"sum_hessian":[2.945641E2,1.1936689E2,1.7519722E2,3.90814E1,8.0285484E1,1.2252064E2,5.2676575E1,3.479417E1,4.2872295E0,7.32674E1,7.0180836E0,1.1183367E2,1.0686961E1,2.690419E1,2.5772387E1,2.9967017E0,3.179747E1,2.3994846E0,1.8877451E0,4.69589E1,2.6308502E1,1.1600068E0,5.8580766E0,1.599747E1,9.5836205E1,9.013773E0,1.6731877E0,2.1199034E1,5.7051554E0,1.1949292E0,2.4577457E1],"tree_param":{"num_deleted":"0","num_feature":"4","num_nodes":"31","size_leaf_vector":"1"}},{"base_weights":[6.230278E-3,7.4606705E-1,-5.13282E-1,9.2333037E-1,3.257059E-1,-1.0152496E0,4.5906112E-1,1.0209391E0,1.3049875E-1,6.143752E-1,-2.2737545E-1,-1.1413181E0,9.356464E-1,5.109629E-1,-1.3597308E-2,-0E0,2.4432711E-2,8.142795E-3,-2.0493083E-3,-0E0,1.68158E-2,-2.1873299E-2,8.074146E-3,3.917487E-3,-3.0708892E-2,-0E0,2.4886116E-2,-5.8352444E-3,1.3067917E-2],"categories":[],"categories_nodes":[],"categories_segments":[],"categories_sizes":[],"default_left":[0,0,0,0,0,0,0,0,0,0,0,0,0,0,0,0,0,0,0,0,0,0,0,0,0,0,0,0,0],"id":24,"left_children":[1,3,5,7,9,11,13,15,17,19,21,23,25,27,-1,-1,-1,-1,-1,-1,-1,-1,-1,-1,-1,-1,-1,-1,-1],"loss_changes":[1.15075966E2,8.048584E0,8.662503E1,5.752922E0,6.8581285E0,3.0530518E1,3.7421293E0,2.8376465E0,7.7105105E-1,1.8307734E0,6.8195286E0,2.809111E1,5.070281E-1,2.853732E0,0E0,0E0,0E0,0E0,0E0,0E0,0E0,0E0,0E0,0E0,0E0,0E0,0E0,0E0,0E0],"parents":[2147483647,0,0,1,1,2,2,3,3,4,4,5,5,6,6,7,7,8,8,9,9,10,10,11,11,12,12,13,13],"right_children":[2,4,6,8,10,12,14,16,18,20,22,24,26,28,-1,-1,-1,-1,-1,-1,-1,-1,-1,-1,-1,-1,-1,-1,-1],"split_conditions":[-2.0461822E-1,-6.423673E-1,2.6119173E-1,2.0987403E0,5.985695E-4,4.4785285E-1,1.6753953E0,-1.2259617E0,-1.0239947E0,-5.778274E-1,-1.0640401E-2,-2.8725782E-1,-9.021198E-2,-1.2068585E0,-1.3597308E-2,-0E0,2.4432711E-2,8.142795E-3,-2.0493083E-3,-0E0,1.68158E-2,-2.1873299E-2,8.074146E-3,3.917487E-3,-3.0708892E-2,-0E0,2.4886116E-2,-5.8352444E-3,1.3067917E-2],"split_indices":[3,3,3,1,2,2,1,1,3,3,1,1,3,1,0,0,0,0,0,0,0,0,0,0,0,0,0,0,0],"split_type":[0,0,0,0,0,0,0,0,0,0,0,0,0,0,0,0,0,0,0,0,0,0,0,0,0,0,0,0,0],"sum_hessian":[2.9576318E2,1.2214231E2,1.7362088E2,8.3610245E1,3.8532066E1,1.1482698E2,5.8793907E1,7.341094E1,1.0199301E1,2.5841942E1,1.2690124E1,1.0876453E2,6.0624537E0,5.7320206E1,1.4737005E0,2.490086E0,7.092085E1,5.79996E0,4.3993406E0,4.4253197E0,2.1416622E1,5.5946665E0,7.095457E0,1.3246509E1,9.551802E1,1.451445E0,4.611009E0,2.745109E0,5.4575096E1],"tree_param":{"num_deleted":"0","num_feature":"4","num_nodes":"29","size_leaf_vector":"1"}},{"base_weights":[2.4846947E-2,6.672003E-1,-4.136921E-1,8.537669E-2,7.964777E-1,-8.525351E-1,8.3734626E-1,2.9004848E-1,-5.4006225E-1,1.9277036E-2,9.5919E-2,4.813415E-1,-1.2087111E0,-0E0,8.753788E-1,-4.9850303E-3,1.5373612E-2,6.085795E-3,-2.2303427E-2,-6.9806953E-3,1.0265743E-2,-3.5140526E-3,1.422521E-2,-3.0073386E-2,1.1476886E-2,2.2396648E-2,8.257784E-3],"categories":[],"categories_nodes":[],"categories_segments":[],"categories_sizes":[],"default_left":[0,0,0,0,0,0,0,0,0,0,0,0,0,0,0,0,0,0,0,0,0,0,0,0,0,0,0],"id":25,"left_children":[1,3,5,7,9,11,13,15,17,-1,19,21,23,-1,25,-1,-1,-1,-1,-1,-1,-1,-1,-1,-1,-1,-1],"loss_changes":[8.203147E1,8.316364E0,9.579837E1,3.2153225E0,1.8798294E0,6.2510902E1,1.703659E0,4.260776E0,2.8082008E0,0E0,1.3352404E0,2.7829008E0,1.7615982E1,0E0,8.210106E-1,0E0,0E0,0E0,0E0,0E0,0E0,0E0,0E0,0E0,0E0,0E0,0E0],"parents":[2147483647,0,0,1,1,2,2,3,3,4,4,5,5,6,6,7,7,8,8,10,10,11,11,12,12,14,14],"right_children":[2,4,6,8,10,12,14,16,18,-1,20,22,24,-1,26,-1,-1,-1,-1,-1,-1,-1,-1,-1,-1,-1,-1],"split_conditions":[-1.6548051E-1,-1.1785746E0,2.647964E-1,-7.173811E-1,2.0939815E0,-1.08489655E-1,1.5733646E-1,-1.2261137E0,-1.2261137E0,1.9277036E-2,2.3699753E0,-7.413331E-2,3.4867337E-1,-0E0,1.9452446E0,-4.9850303E-3,1.5373612E-2,6.085795E-3,-2.2303427E-2,-6.9806953E-3,1.0265743E-2,-3.5140526E-3,1.422521E-2,-3.0073386E-2,1.1476886E-2,2.2396648E-2,8.257784E-3],"split_indices":[2,0,1,2,0,0,0,0,0,0,0,2,2,0,0,0,0,0,0,0,0,0,0,0,0,0,0],"split_type":[0,0,0,0,0,0,0,0,0,0,0,0,0,0,0,0,0,0,0,0,0,0,0,0,0,0,0],"sum_hessian":[2.874347E2,1.1676928E2,1.706654E2,2.2492027E1,9.4277245E1,1.2705754E2,4.360787E1,1.8269838E1,4.2221885E0,8.845811E1,5.8191414E0,2.6333319E1,1.0072423E2,1.6245768E0,4.198329E1,7.4631643E0,1.0806675E1,1.2364804E0,2.985708E0,2.090876E0,3.7282653E0,3.8536985E0,2.247962E1,9.6228355E1,4.495866E0,3.3456432E1,8.526856E0],"tree_param":{"num_deleted":"0","num_feature":"4","num_nodes":"27","size_leaf_vector":"1"}},{"base_weights":[5.7289142E-2,7.431704E-1,-4.376008E-1,-2.2861323E-1,7.883324E-1,-9.03005E-1,4.6647888E-1,-1.0816622E-2,-0E0,8.96929E-1,5.046268E-1,4.2986524E-1,-1.2230536E0,-4.3737322E-1,5.385149E-1,2.231938E-2,9.661964E-3,1.7092196E-2,-0E0,-7.285143E-3,1.5288444E-2,-3.098369E-2,1.8276801E-2,-1.5715783E-2,-0E0,3.6455179E-3,1.3927955E-2],"categories":[],"categories_nodes":[],"categories_segments":[],"categories_sizes":[],"default_left":[0,0,0,0,0,0,0,0,0,0,0,0,0,0,0,0,0,0,0,0,0,0,0,0,0,0,0],"id":26,"left_children":[1,3,5,7,9,11,13,-1,-1,15,17,19,21,23,25,-1,-1,-1,-1,-1,-1,-1,-1,-1,-1,-1,-1],"loss_changes":[9.831353E1,5.939125E0,7.146376E1,5.333847E-1,2.0970993E0,4.891613E1,4.1995687E0,0E0,0E0,1.2477264E0,4.442422E0,4.416054E0,2.3495804E1,6.811417E-1,7.6339245E-1,0E0,0E0,0E0,0E0,0E0,0E0,0E0,0E0,0E0,0E0,0E0,0E0],"parents":[2147483647,0,0,1,1,2,2,3,3,4,4,5,5,6,6,9,9,10,10,11,11,12,12,13,13,14,14],"right_children":[2,4,6,8,10,12,14,-1,-1,16,18,20,22,24,26,-1,-1,-1,-1,-1,-1,-1,-1,-1,-1,-1,-1],"split_conditions":[-2.3094264E-1,-1.2688458E0,2.6119173E-1,-8.6820304E-1,-6.255308E-1,-1.08489655E-1,-8.437375E-1,-1.0816622E-2,-0E0,1.8625586E0,-5.332285E-2,-1.1849252E0,2.3593777E-1,9.5990664E-1,-1.1785746E0,2.231938E-2,9.661964E-3,1.7092196E-2,-0E0,-7.285143E-3,1.5288444E-2,-3.098369E-2,1.8276801E-2,-1.5715783E-2,-0E0,3.6455179E-3,1.3927955E-2],"split_indices":[3,0,3,2,3,0,2,0,0,0,2,0,0,3,0,0,0,0,0,0,0,0,0,0,0,0,0],"split_type":[0,0,0,0,0,0,0,0,0,0,0,0,0,0,0,0,0,0,0,0,0,0,0,0,0,0,0],"sum_hessian":[2.8590408E2,1.1994045E2,1.6596362E2,4.4938393E0,1.1544661E2,1.09960266E2,5.6003357E1,2.246819E0,2.2470202E0,7.951458E1,3.5932034E1,2.0852753E1,8.910751E1,2.95733E0,5.3046024E1,6.708693E1,1.2427654E1,2.3975832E1,1.19562E1,4.246044E0,1.6606709E1,8.498072E1,4.126794E0,1.7260398E0,1.2312903E0,9.679766E0,4.336626E1],"tree_param":{"num_deleted":"0","num_feature":"4","num_nodes":"27","size_leaf_vector":"1"}},{"base_weights":[-1.9340102E-2,6.5502656E-1,-4.5441818E-1,7.9475576E-1,1.9246282E-1,-8.9990723E-1,4.6767673E-1,-1.9614333E-1,8.444468E-1,4.5449102E-1,-2.805988E-1,1.7022918E-1,-1.1128188E0,2.512621E-1,6.721586E-1,-9.738332E-3,-0E0,6.013199E-6,2.0053042E-2,-0E0,2.060791E-2,-1.7867086E-2,8.2471045E-3,-7.4377586E-3,9.862018E-3,-2.9042052E-2,1.6232066E-2,8.166298E-3,-1.0774385E-2,1.8075204E-2,-6.0273856E-3],"categories":[],"categories_nodes":[],"categories_segments":[],"categories_sizes":[],"default_left":[0,0,0,0,0,0,0,0,0,0,0,0,0,0,0,0,0,0,0,0,0,0,0,0,0,0,0,0,0,0,0],"id":27,"left_children":[1,3,5,7,9,11,13,15,17,19,21,23,25,27,29,-1,-1,-1,-1,-1,-1,-1,-1,-1,-1,-1,-1,-1,-1,-1,-1],"loss_changes":[8.468227E1,6.505348E0,7.327418E1,4.8238297E0,3.934109E0,2.8099495E1,1.7882853E0,3.7157044E-1,1.1246758E0,3.5313754E0,4.0470266E0,2.9182289E0,2.7943062E1,2.5640028E0,3.4447908E0,0E0,0E0,0E0,0E0,0E0,0E0,0E0,0E0,0E0,0E0,0E0,0E0,0E0,0E0,0E0,0E0],"parents":[2147483647,0,0,1,1,2,2,3,3,4,4,5,5,6,6,7,7,8,8,9,9,10,10,11,11,12,12,13,13,14,14],"right_children":[2,4,6,8,10,12,14,16,18,20,22,24,26,28,30,-1,-1,-1,-1,-1,-1,-1,-1,-1,-1,-1,-1,-1,-1,-1,-1],"split_conditions":[-3.0588704E-1,-6.0027605E-1,2.5678188E-1,-1.2259617E0,-5.332285E-2,-2.0039906E-1,6.788431E-2,-8.6820304E-1,-1.2456753E0,-4.515536E-1,1.1400737E0,-1.137637E0,4.4785285E-1,-3.623009E-2,1.6753953E0,-9.738332E-3,-0E0,6.013199E-6,2.0053042E-2,-0E0,2.060791E-2,-1.7867086E-2,8.2471045E-3,-7.4377586E-3,9.862018E-3,-2.9042052E-2,1.6232066E-2,8.166298E-3,-1.0774385E-2,1.8075204E-2,-6.0273856E-3],"split_indices":[3,3,3,1,2,1,2,2,3,3,2,1,2,2,1,0,0,0,0,0,0,0,0,0,0,0,0,0,0,0,0],"split_type":[0,0,0,0,0,0,0,0,0,0,0,0,0,0,0,0,0,0,0,0,0,0,0,0,0,0,0,0,0,0,0],"sum_hessian":[2.8565393E2,1.1120383E2,1.7445009E2,8.358982E1,2.7614006E1,1.18046875E2,5.6403217E1,3.23684E0,8.035298E1,1.8550936E1,9.063069E0,1.9221104E1,9.882577E1,3.0486158E1,2.5917057E1,1.4970703E0,1.7397696E0,2.8062441E0,7.754674E1,1.0513039E1,8.037897E0,5.394799E0,3.6682706E0,5.7153783E0,1.3505724E1,9.2332504E1,6.4932685E0,2.8089407E1,2.3967516E0,2.394884E1,1.9682177E0],"tree_param":{"num_deleted":"0","num_feature":"4","num_nodes":"31","size_leaf_vector":"1"}},{"base_weights":[-1.3047105E-2,7.3379886E-1,-4.800391E-1,-3.4533182E-1,7.8113216E-1,-8.8560927E-1,3.5055655E-1,3.2181665E-3,-1.6859988E-2,8.555353E-1,1.9761992E-1,3.6283067E-1,-1.1686361E0,-1.2653923E-1,4.5982462E-1,2.2491299E-2,1.0892725E-2,1.1608533E-2,-9.419811E-3,-4.6251076E-3,1.227322E-2,-3.034931E-2,1.06490925E-2,1.3368204E-3,-1.1127907E-2,1.133385E-2,-1.9248226E-4],"categories":[],"categories_nodes":[],"categories_segments":[],"categories_sizes":[],"default_left":[0,0,0,0,0,0,0,0,0,0,0,0,0,0,0,0,0,0,0,0,0,0,0,0,0,0,0],"id":28,"left_children":[1,3,5,7,9,11,13,-1,-1,15,17,19,21,23,25,-1,-1,-1,-1,-1,-1,-1,-1,-1,-1,-1,-1],"loss_changes":[1.0235023E2,6.435955E0,6.185187E1,1.493372E0,3.8750458E0,4.4485855E1,3.4158645E0,0E0,0E0,2.7549515E0,3.209054E0,2.587206E0,2.5149445E1,1.0345045E0,9.8564434E-1,0E0,0E0,0E0,0E0,0E0,0E0,0E0,0E0,0E0,0E0,0E0,0E0],"parents":[2147483647,0,0,1,1,2,2,3,3,4,4,5,5,6,6,9,9,10,10,11,11,12,12,13,13,14,14],"right_children":[2,4,6,8,10,12,14,-1,-1,16,18,20,22,24,26,-1,-1,-1,-1,-1,-1,-1,-1,-1,-1,-1,-1],"split_conditions":[-3.0588704E-1,-1.2688458E0,2.6119173E-1,-1.277689E0,1.9914134E0,-1.59078E-1,-1.1785746E0,3.2181665E-3,-1.6859988E-2,-6.423673E-1,-8.415993E-1,-1.1785746E0,2.039344E-1,1.5968877E0,1.6753953E0,2.2491299E-2,1.0892725E-2,1.1608533E-2,-9.419811E-3,-4.6251076E-3,1.227322E-2,-3.034931E-2,1.06490925E-2,1.3368204E-3,-1.1127907E-2,1.133385E-2,-1.9248226E-4],"split_indices":[3,0,3,0,1,0,0,0,0,3,3,0,0,3,1,0,0,0,0,0,0,0,0,0,0,0,0],"split_type":[0,0,0,0,0,0,0,0,0,0,0,0,0,0,0,0,0,0,0,0,0,0,0,0,0,0,0],"sum_hessian":[2.9052298E2,1.109596E2,1.7956337E2,3.7422068E0,1.0721739E2,1.2101618E2,5.854719E1,1.4969378E0,2.245269E0,9.3582085E1,1.3635306E1,2.192398E1,9.90922E1,9.935833E0,4.861136E1,6.8651665E1,2.4930422E1,9.8542795E0,3.7810276E0,4.226923E0,1.7697058E1,9.163273E1,7.4594755E0,6.445172E0,3.4906614E0,4.665457E1,1.9567869E0],"tree_param":{"num_deleted":"0","num_feature":"4","num_nodes":"27","size_leaf_vector":"1"}},{"base_weights":[6.3936114E-3,7.2453517E-1,-4.8156777E-1,-2.728845E-1,7.644696E-1,-9.116818E-1,4.2556426E-1,-0E0,-1.28482785E-2,9.028895E-1,3.7655878E-1,1.7180222E-1,-1.144388E0,6.228409E-1,1.9644329E-1,-3.1446249E-3,2.146258E-2,1.4275904E-2,-2.6892312E-3,-5.5110287E-3,7.7482685E-3,-3.0365571E-2,1.3764518E-2,8.549425E-4,2.1231757E-2,1.0463285E-2,-1.6119175E-3],"categories":[],"categories_nodes":[],"categories_segments":[],"categories_sizes":[],"default_left":[0,0,0,0,0,0,0,0,0,0,0,0,0,0,0,0,0,0,0,0,0,0,0,0,0,0,0],"id":29,"left_children":[1,3,5,7,9,11,13,-1,-1,15,17,19,21,23,25,-1,-1,-1,-1,-1,-1,-1,-1,-1,-1,-1,-1],"loss_changes":[9.990348E1,5.218399E0,6.688054E1,6.678117E-1,4.763489E0,3.000953E1,1.8435793E0,0E0,0E0,2.7775192E0,4.3549685E0,1.6242335E0,2.989965E1,4.2016754E0,2.250792E0,0E0,0E0,0E0,0E0,0E0,0E0,0E0,0E0,0E0,0E0,0E0,0E0],"parents":[2147483647,0,0,1,1,2,2,3,3,4,4,5,5,6,6,9,9,10,10,11,11,12,12,13,13,14,14],"right_children":[2,4,6,8,10,12,14,-1,-1,16,18,20,22,24,26,-1,-1,-1,-1,-1,-1,-1,-1,-1,-1,-1,-1],"split_conditions":[-2.775764E-1,-1.2688458E0,2.6119173E-1,-1.277689E0,-6.423673E-1,-1.2560056E-1,-6.4182234E-1,-0E0,-1.28482785E-2,-1.2877666E0,-4.02956E-3,-1.1785746E0,2.039344E-1,-1.1785746E0,1.1563325E0,-3.1446249E-3,2.146258E-2,1.4275904E-2,-2.6892312E-3,-5.5110287E-3,7.7482685E-3,-3.0365571E-2,1.3764518E-2,8.549425E-4,2.1231757E-2,1.0463285E-2,-1.6119175E-3],"split_indices":[3,0,3,0,3,0,0,0,0,3,2,0,0,0,3,0,0,0,0,0,0,0,0,0,0,0,0],"split_type":[0,0,0,0,0,0,0,0,0,0,0,0,0,0,0,0,0,0,0,0,0,0,0,0,0,0,0],"sum_hessian":[2.81408E2,1.1397601E2,1.6743196E2,3.4923072E0,1.1048371E2,1.1397907E2,5.3452896E1,1.746822E0,1.7454851E0,7.8774734E1,3.1708973E1,1.9816196E1,9.416287E1,2.591924E1,2.7533655E1,1.211662E0,7.756307E1,2.1753517E1,9.955455E0,4.4817333E0,1.5334464E1,8.646994E1,7.6929297E0,9.9342E0,1.5985041E1,1.4476938E1,1.3056718E1],"tree_param":{"num_deleted":"0","num_feature":"4","num_nodes":"27","size_leaf_vector":"1"}},{"base_weights":[2.2540307E-2,7.378057E-1,-4.3032834E-1,8.5323954E-1,3.144846E-1,3.7589407E-1,-8.949615E-1,9.0470016E-1,3.822973E-1,1.2695393E-2,8.055319E-1,-1.1149053E-1,5.281858E-1,-1.2456893E0,5.0158E-1,2.190923E-2,8.222779E-3,1.1801425E-2,-2.3600836E-3,7.774605E-3,-1.9100342E-2,2.6300818E-2,-0E0,4.1813017E-3,-2.0039553E-2,1.7840499E-2,5.0394298E-3,-3.0015716E-2,2.215673E-3,1.5694192E-2,-8.859436E-3],"categories":[],"categories_nodes":[],"categories_segments":[],"categories_sizes":[],"default_left":[0,0,0,0,0,0,0,0,0,0,0,0,0,0,0,0,0,0,0,0,0,0,0,0,0,0,0,0,0,0,0],"id":30,"left_children":[1,3,5,7,9,11,13,15,17,19,21,23,25,27,29,-1,-1,-1,-1,-1,-1,-1,-1,-1,-1,-1,-1,-1,-1,-1,-1],"loss_changes":[9.07256E1,4.239605E0,6.481024E1,7.5281906E-1,3.5328543E0,5.0129385E0,5.495279E1,4.6230316E-1,1.0620441E0,5.370083E0,2.0951133E0,4.0690956E0,2.9069414E0,7.0998383E0,4.170017E0,0E0,0E0,0E0,0E0,0E0,0E0,0E0,0E0,0E0,0E0,0E0,0E0,0E0,0E0,0E0,0E0],"parents":[2147483647,0,0,1,1,2,2,3,3,4,4,5,5,6,6,7,7,8,8,9,9,10,10,11,11,12,12,13,13,14,14],"right_children":[2,4,6,8,10,12,14,16,18,20,22,24,26,28,30,-1,-1,-1,-1,-1,-1,-1,-1,-1,-1,-1,-1,-1,-1,-1,-1],"split_conditions":[-3.0588704E-1,-6.0027605E-1,-6.631047E-2,2.0939815E0,3.3795882E-2,-1.1785746E0,2.039344E-1,5.785874E-1,-7.7986544E-1,-1.5301876E-1,1.5394582E0,-7.173811E-1,-6.4182234E-1,4.4785285E-1,1.594658E0,2.190923E-2,8.222779E-3,1.1801425E-2,-2.3600836E-3,7.774605E-3,-1.9100342E-2,2.6300818E-2,-0E0,4.1813017E-3,-2.0039553E-2,1.7840499E-2,5.0394298E-3,-3.0015716E-2,2.215673E-3,1.5694192E-2,-8.859436E-3],"split_indices":[3,3,0,0,0,0,0,2,3,2,0,2,0,2,0,0,0,0,0,0,0,0,0,0,0,0,0,0,0,0,0],"split_type":[0,0,0,0,0,0,0,0,0,0,0,0,0,0,0,0,0,0,0,0,0,0,0,0,0,0,0,0,0,0,0],"sum_hessian":[2.7628812E2,1.0717319E2,1.6911493E2,8.188026E1,2.529293E1,6.1518234E1,1.075967E2,7.139936E1,1.0480895E1,1.7402912E1,7.8900175E0,1.3903355E1,4.761488E1,8.645261E1,2.1144094E1,6.416904E1,7.2303233E0,9.10218E0,1.3787162E0,1.3741878E1,3.6610346E0,4.746567E0,3.1434507E0,1.0414713E1,3.4886415E0,2.4308199E1,2.3306679E1,8.36194E1,2.8332078E0,1.8445894E1,2.6982002E0],"tree_param":{"num_deleted":"0","num_feature":"4","num_nodes":"31","size_leaf_vector":"1"}},{"base_weights":[-0E0,7.34079E-1,-4.4186854E-1,-1.7480145E-1,7.7148265E-1,-8.484842E-1,4.904053E-1,-0E0,-7.660302E-3,8.1773245E-1,-6.508102E-2,1.0771002E-1,-1.0959141E0,-1.2782566E-1,5.3867424E-1,-3.311772E-3,1.9373246E-2,6.9644996E-3,-1.3590987E-2,-1.1342313E-2,8.669792E-3,-2.9331835E-2,1.396019E-2,-1.2888998E-2,5.201817E-3,1.4709751E-2,1.5119694E-3],"categories":[],"categories_nodes":[],"categories_segments":[],"categories_sizes":[],"default_left":[0,0,0,0,0,0,0,0,0,0,0,0,0,0,0,0,0,0,0,0,0,0,0,0,0,0,0],"id":31,"left_children":[1,3,5,7,9,11,13,-1,-1,15,17,19,21,23,25,-1,-1,-1,-1,-1,-1,-1,-1,-1,-1,-1,-1],"loss_changes":[8.985036E1,4.0948677E0,6.6152695E1,1.6926786E-1,4.4086456E0,2.9335915E1,1.9167414E0,0E0,0E0,2.4650345E0,1.6402154E0,4.3875475E0,3.004995E1,1.0494467E0,1.8722229E0,0E0,0E0,0E0,0E0,0E0,0E0,0E0,0E0,0E0,0E0,0E0,0E0],"parents":[2147483647,0,0,1,1,2,2,3,3,4,4,5,5,6,6,9,9,10,10,11,11,12,12,13,13,14,14],"right_children":[2,4,6,8,10,12,14,-1,-1,16,18,20,22,24,26,-1,-1,-1,-1,-1,-1,-1,-1,-1,-1,-1,-1],"split_conditions":[-3.6175892E-1,-1.2688458E0,2.6119173E-1,-7.0971334E-1,4.022852E0,-1.2560056E-1,-8.437375E-1,-0E0,-7.660302E-3,-1.2877666E0,-9.566487E-1,-1.1623595E0,2.039344E-1,6.2598264E-1,2.3517241E0,-3.311772E-3,1.9373246E-2,6.9644996E-3,-1.3590987E-2,-1.1342313E-2,8.669792E-3,-2.9331835E-2,1.396019E-2,-1.2888998E-2,5.201817E-3,1.4709751E-2,1.5119694E-3],"split_indices":[3,0,3,3,0,0,2,0,0,3,3,0,0,3,3,0,0,0,0,0,0,0,0,0,0,0,0],"split_type":[0,0,0,0,0,0,0,0,0,0,0,0,0,0,0,0,0,0,0,0,0,0,0,0,0,0,0],"sum_hessian":[2.7321606E2,1.0269572E2,1.7052036E2,3.245076E0,9.945064E1,1.19243034E2,5.127732E1,1.9970998E0,1.2479762E0,9.48906E1,4.560038E0,2.4254395E1,9.498864E1,2.7014863E0,4.8575836E1,1.2079601E0,9.368264E1,2.4840095E0,2.0760288E0,6.4356136E0,1.781878E1,8.6885925E1,8.10271E0,1.4778872E0,1.2235993E0,3.884178E1,9.734056E0],"tree_param":{"num_deleted":"0","num_feature":"4","num_nodes":"27","size_leaf_vector":"1"}},{"base_weights":[2.5555702E-2,5.918292E-1,-3.9152232E-1,2.7200885E-2,7.715536E-1,-8.258978E-1,5.8316654E-1,1.5015803E-1,-3.798694E-1,1.8617446E-2,2.0436053E-1,-1.0085518E0,8.243847E-1,7.2802E-1,1.9065352E-1,-1.1450762E-4,2.2756815E-2,-1.451656E-2,3.3276042E-3,-5.469042E-3,1.2208156E-2,5.174209E-3,-2.853915E-2,2.2851985E-2,-0E0,6.319103E-3,2.0561831E-2,-0E0,8.556819E-3],"categories":[],"categories_nodes":[],"categories_segments":[],"categories_sizes":[],"default_left":[0,0,0,0,0,0,0,0,0,0,0,0,0,0,0,0,0,0,0,0,0,0,0,0,0,0,0,0,0],"id":32,"left_children":[1,3,5,7,9,11,13,15,17,-1,19,21,23,25,27,-1,-1,-1,-1,-1,-1,-1,-1,-1,-1,-1,-1,-1,-1],"loss_changes":[6.737005E1,1.1842163E1,7.015601E1,1.5584347E0,9.303665E-1,3.589354E1,2.1705837E0,3.9803233E0,1.2974079E0,0E0,1.5446823E0,2.9935005E1,1.9748659E0,1.5832176E0,7.278123E-1,0E0,0E0,0E0,0E0,0E0,0E0,0E0,0E0,0E0,0E0,0E0,0E0,0E0,0E0],"parents":[2147483647,0,0,1,1,2,2,3,3,4,4,5,5,6,6,7,7,8,8,10,10,11,11,12,12,13,13,14,14],"right_children":[2,4,6,8,10,12,14,16,18,-1,20,22,24,26,28,-1,-1,-1,-1,-1,-1,-1,-1,-1,-1,-1,-1,-1,-1],"split_conditions":[-1.70989E-1,-1.137637E0,2.4849434E-1,-7.2902954E-1,2.0939815E0,2.039344E-1,9.507278E-1,-7.8279227E-1,-1.1436658E0,1.8617446E-2,-4.6669608E-1,-1.2560056E-1,1.6227564E-1,-7.1781285E-2,1.4111848E0,-1.1450762E-4,2.2756815E-2,-1.451656E-2,3.3276042E-3,-5.469042E-3,1.2208156E-2,5.174209E-3,-2.853915E-2,2.2851985E-2,-0E0,6.319103E-3,2.0561831E-2,-0E0,8.556819E-3],"split_indices":[2,1,2,2,0,0,0,2,1,0,2,0,2,1,2,0,0,0,0,0,0,0,0,0,0,0,0,0,0],"split_type":[0,0,0,0,0,0,0,0,0,0,0,0,0,0,0,0,0,0,0,0,0,0,0,0,0,0,0,0,0],"sum_hessian":[2.8150458E2,1.19654495E2,1.6185008E2,3.0080502E1,8.9574E1,1.12516365E2,4.933373E1,2.4929657E1,5.1508446E0,8.297065E1,6.6033406E0,1.0218037E2,1.0335993E1,3.3990463E1,1.5343263E1,2.1862255E1,3.0674024E0,3.9746084E0,1.176236E0,2.2750008E0,4.32834E0,1.5468316E1,8.671205E1,8.70352E0,1.6324732E0,1.0959408E1,2.3031057E1,7.179467E0,8.163795E0],"tree_param":{"num_deleted":"0","num_feature":"4","num_nodes":"29","size_leaf_vector":"1"}},{"base_weights":[9.038226E-3,6.431567E-1,-4.8613873E-1,7.859299E-1,2.4682283E-1,-9.406316E-1,2.9846433E-1,-6.7307256E-2,8.313334E-1,5.3215057E-1,-2.2438307E-1,2.5569636E-1,-1.1674099E0,3.3045366E-1,-5.9323176E-3,-1.034066E-2,3.031567E-3,-3.4161108E-3,1.9768227E-2,-0E0,1.945949E-2,-1.869267E-2,9.712983E-3,-1.0470507E-2,1.083712E-2,-2.9453054E-2,1.3111412E-2,3.7916312E-3,1.2123036E-2],"categories":[],"categories_nodes":[],"categories_segments":[],"categories_sizes":[],"default_left":[0,0,0,0,0,0,0,0,0,0,0,0,0,0,0,0,0,0,0,0,0,0,0,0,0,0,0,0,0],"id":33,"left_children":[1,3,5,7,9,11,13,15,17,19,21,23,25,27,-1,-1,-1,-1,-1,-1,-1,-1,-1,-1,-1,-1,-1,-1,-1],"loss_changes":[8.662087E1,5.9825516E0,5.5831474E1,3.894001E0,5.1446238E0,2.7721283E1,1.2000875E0,6.720436E-1,2.5482101E0,3.9400811E0,5.9923296E0,2.879693E0,1.7042961E1,1.2895722E0,0E0,0E0,0E0,0E0,0E0,0E0,0E0,0E0,0E0,0E0,0E0,0E0,0E0,0E0,0E0],"parents":[2147483647,0,0,1,1,2,2,3,3,4,4,5,5,6,6,7,7,8,8,9,9,10,10,11,11,12,12,13,13],"right_children":[2,4,6,8,10,12,14,16,18,20,22,24,26,28,-1,-1,-1,-1,-1,-1,-1,-1,-1,-1,-1,-1,-1,-1,-1],"split_conditions":[-1.4994882E-1,-5.722152E-1,2.5678188E-1,-1.2261137E0,4.418143E-2,-1.08489655E-1,1.594658E0,-8.6820304E-1,-1.2877666E0,-4.515536E-1,5.311034E-2,-8.417193E-1,2.039344E-1,6.788431E-2,-5.9323176E-3,-1.034066E-2,3.031567E-3,-3.4161108E-3,1.9768227E-2,-0E0,1.945949E-2,-1.869267E-2,9.712983E-3,-1.0470507E-2,1.083712E-2,-2.9453054E-2,1.3111412E-2,3.7916312E-3,1.2123036E-2],"split_indices":[3,3,3,0,2,0,0,2,3,3,0,2,0,2,0,0,0,0,0,0,0,0,0,0,0,0,0,0,0],"split_type":[0,0,0,0,0,0,0,0,0,0,0,0,0,0,0,0,0,0,0,0,0,0,0,0,0,0,0,0,0],"sum_hessian":[2.7228262E2,1.196547E2,1.5262793E2,8.576175E1,3.389295E1,9.687419E1,5.5753735E1,3.688772E0,8.2072975E1,2.1694E1,1.2198948E1,1.5022298E1,8.185189E1,5.427442E1,1.4793106E0,1.4904876E0,2.1982844E0,1.2053252E0,8.086765E1,8.460298E0,1.3233702E1,6.6191154E0,5.579833E0,2.4532406E0,1.2569057E1,7.781645E1,4.0354433E0,3.2364864E1,2.1909557E1],"tree_param":{"num_deleted":"0","num_feature":"4","num_nodes":"29","size_leaf_vector":"1"}},{"base_weights":[2.9888539E-2,7.0603883E-1,-4.172526E-1,8.1688935E-1,3.0574262E-1,-8.120599E-1,3.5480568E-1,-0E0,8.4348154E-1,-0E0,4.8599082E-1,2.8067368E-1,-1.0338492E0,1.2046652E-1,6.142344E-1,-0E0,2.023977E-2,4.0768823E-3,-1.2417697E-2,1.6692424E-2,-3.0775487E-3,9.2430385E-3,-4.766623E-3,-2.7204957E-2,1.095055E-2,7.2869207E-3,-8.2901E-3,2.3275688E-2,8.195913E-3],"categories":[],"categories_nodes":[],"categories_segments":[],"categories_sizes":[],"default_left":[0,0,0,0,0,0,0,0,0,0,0,0,0,0,0,0,0,0,0,0,0,0,0,0,0,0,0,0,0],"id":34,"left_children":[1,3,5,7,9,11,13,-1,15,17,19,21,23,25,27,-1,-1,-1,-1,-1,-1,-1,-1,-1,-1,-1,-1,-1,-1],"loss_changes":[8.435647E1,3.9162102E0,5.1698257E1,2.1168785E0,1.656529E0,2.7940018E1,2.960249E0,0E0,2.1303444E0,1.33426E0,3.115819E0,1.3861989E0,2.1479378E1,3.266507E0,1.2875586E0,0E0,0E0,0E0,0E0,0E0,0E0,0E0,0E0,0E0,0E0,0E0,0E0,0E0,0E0],"parents":[2147483647,0,0,1,1,2,2,3,3,4,4,5,5,6,6,8,8,9,9,10,10,11,11,12,12,13,13,14,14],"right_children":[2,4,6,8,10,12,14,-1,16,18,20,22,24,26,28,-1,-1,-1,-1,-1,-1,-1,-1,-1,-1,-1,-1,-1,-1],"split_conditions":[-3.0588704E-1,-6.0027605E-1,2.6119173E-1,-1.2456753E0,-5.1048136E-1,-1.6548051E-1,6.788431E-2,-0E0,-1.2068585E0,-5.3573614E-1,6.788431E-2,-1.2880857E-1,2.647964E-1,2.0065758E0,4.9589783E-1,-0E0,2.023977E-2,4.0768823E-3,-1.2417697E-2,1.6692424E-2,-3.0775487E-3,9.2430385E-3,-4.766623E-3,-2.7204957E-2,1.095055E-2,7.2869207E-3,-8.2901E-3,2.3275688E-2,8.195913E-3],"split_indices":[3,3,3,3,3,2,2,0,1,3,2,1,1,3,2,0,0,0,0,0,0,0,0,0,0,0,0,0,0],"split_type":[0,0,0,0,0,0,0,0,0,0,0,0,0,0,0,0,0,0,0,0,0,0,0,0,0,0,0,0,0],"sum_hessian":[2.7522598E2,1.0965849E2,1.6556749E2,8.346466E1,2.6193836E1,1.09956245E2,5.561125E1,2.3072493E0,8.115741E1,9.814638E0,1.6379196E1,1.8064974E1,9.1891266E1,3.1592825E1,2.4018429E1,3.1813278E0,7.797608E1,7.8761277E0,1.9385107E0,1.2292006E1,4.087192E0,1.5645927E1,2.4190457E0,8.458874E1,7.302535E0,2.3669949E1,7.9228764E0,6.8303604E0,1.7188068E1],"tree_param":{"num_deleted":"0","num_feature":"4","num_nodes":"29","size_leaf_vector":"1"}},{"base_weights":[-1.5485533E-2,5.580845E-1,-5.4274356E-1,7.945579E-1,1.4432956E-1,-1.0270171E0,2.9598048E-1,-8.975542E-3,8.392719E-1,-6.9368673E-3,4.9915284E-1,-0E0,-1.135025E0,-1.1993073E-2,3.6332098E-1,2.1328675E-2,9.134877E-3,6.6532325E-3,-2.3860907E-2,2.151622E-2,-4.794162E-3,-3.5655363E-3,1.0092063E-2,-2.7877342E-2,6.1114193E-3,1.9806907E-2,3.6037855E-3],"categories":[],"categories_nodes":[],"categories_segments":[],"categories_sizes":[],"default_left":[0,0,0,0,0,0,0,0,0,0,0,0,0,0,0,0,0,0,0,0,0,0,0,0,0,0,0],"id":35,"left_children":[1,3,5,7,9,11,13,-1,15,17,19,21,23,-1,25,-1,-1,-1,-1,-1,-1,-1,-1,-1,-1,-1,-1],"loss_changes":[8.195718E1,1.1955688E1,5.8449352E1,5.074333E0,2.9511166E0,1.0387077E1,3.1218214E0,0E0,1.6110535E0,1.1639274E1,5.595146E0,8.700025E-1,9.205879E0,0E0,4.3784566E0,0E0,0E0,0E0,0E0,0E0,0E0,0E0,0E0,0E0,0E0,0E0,0E0],"parents":[2147483647,0,0,1,1,2,2,3,3,4,4,5,5,6,6,8,8,9,9,10,10,11,11,12,12,14,14],"right_children":[2,4,6,8,10,12,14,-1,16,18,20,22,24,-1,26,-1,-1,-1,-1,-1,-1,-1,-1,-1,-1,-1,-1],"split_conditions":[-2.222276E-2,-6.0027605E-1,3.3976206E-1,-1.2259617E0,3.92977E-2,-2.4800433E-1,-8.437375E-1,-8.975542E-3,1.8125352E0,-1.0260251E-1,1.5680683E0,-4.7684374E-1,3.0870217E-1,-1.1993073E-2,6.989408E-1,2.1328675E-2,9.134877E-3,6.6532325E-3,-2.3860907E-2,2.151622E-2,-4.794162E-3,-3.5655363E-3,1.0092063E-2,-2.7877342E-2,6.1114193E-3,1.9806907E-2,3.6037855E-3],"split_indices":[3,3,3,1,1,1,2,0,1,1,1,1,2,0,3,0,0,0,0,0,0,0,0,0,0,0,0],"split_type":[0,0,0,0,0,0,0,0,0,0,0,0,0,0,0,0,0,0,0,0,0,0,0,0,0,0,0],"sum_hessian":[2.67715E2,1.276867E2,1.4002832E2,7.944459E1,4.8242104E1,8.894628E1,5.108203E1,1.987792E0,7.74568E1,3.3889915E1,1.435219E1,8.360361E0,8.058592E1,2.4359622E0,4.8646072E1,6.2676414E1,1.4780384E1,2.6837404E1,7.052509E0,9.059572E0,5.2926183E0,6.4676356E0,1.8927255E0,7.72842E1,3.3017201E0,1.20851145E1,3.6560955E1],"tree_param":{"num_deleted":"0","num_feature":"4","num_nodes":"27","size_leaf_vector":"1"}},{"base_weights":[2.1388248E-2,6.545288E-1,-4.0433705E-1,-4.0862754E-1,7.056159E-1,-7.954797E-1,3.3454567E-1,-0E0,-1.144588E-2,8.334064E-1,3.0866295E-1,2.386349E-1,-1.0103296E0,-5.619975E-1,4.0587977E-1,2.087112E-2,7.0042894E-3,1.1925805E-2,-2.2777594E-3,-5.5077737E-3,1.0790023E-2,-2.6109906E-2,1.47215435E-2,-1.7193256E-2,-0E0,1.024525E-2,-6.2392303E-3],"categories":[],"categories_nodes":[],"categories_segments":[],"categories_sizes":[],"default_left":[0,0,0,0,0,0,0,0,0,0,0,0,0,0,0,0,0,0,0,0,0,0,0,0,0,0,0],"id":36,"left_children":[1,3,5,7,9,11,13,-1,-1,15,17,19,21,23,25,-1,-1,-1,-1,-1,-1,-1,-1,-1,-1,-1,-1],"loss_changes":[7.416619E1,6.663349E0,4.8020477E1,1.35141015E-2,4.377846E0,2.4824982E1,3.9624734E0,0E0,0E0,1.7990417E0,2.8177485E0,2.4292798E0,1.9171501E1,2.2252691E-1,1.671483E0,0E0,0E0,0E0,0E0,0E0,0E0,0E0,0E0,0E0,0E0,0E0,0E0],"parents":[2147483647,0,0,1,1,2,2,3,3,4,4,5,5,6,6,9,9,10,10,11,11,12,12,13,13,14,14],"right_children":[2,4,6,8,10,12,14,-1,-1,16,18,20,22,24,26,-1,-1,-1,-1,-1,-1,-1,-1,-1,-1,-1,-1],"split_conditions":[-2.607399E-1,-1.239835E0,2.6119173E-1,-8.2476276E-1,-6.0027605E-1,-2.0039906E-1,-8.437375E-1,-0E0,-1.144588E-2,2.0987403E0,5.985695E-4,-1.137637E0,5.911165E-1,6.2598264E-1,1.8661987E0,2.087112E-2,7.0042894E-3,1.1925805E-2,-2.2777594E-3,-5.5077737E-3,1.0790023E-2,-2.6109906E-2,1.47215435E-2,-1.7193256E-2,-0E0,1.024525E-2,-6.2392303E-3],"split_indices":[3,1,3,3,3,1,2,0,0,1,2,1,2,3,1,0,0,0,0,0,0,0,0,0,0,0,0],"split_type":[0,0,0,0,0,0,0,0,0,0,0,0,0,0,0,0,0,0,0,0,0,0,0,0,0,0,0],"sum_hessian":[2.7136575E2,1.092591E2,1.6210664E2,3.9905233E0,1.0526858E2,1.06392914E2,5.5713734E1,1.7463084E0,2.2442148E0,7.721975E1,2.8048824E1,1.783588E1,8.855704E1,2.705227E0,5.3008507E1,6.6341675E1,1.08780775E1,1.9178093E1,8.870731E0,4.9779305E0,1.285795E1,8.337439E1,5.1826406E0,1.2355185E0,1.4697084E0,5.1535084E1,1.473425E0],"tree_param":{"num_deleted":"0","num_feature":"4","num_nodes":"27","size_leaf_vector":"1"}},{"base_weights":[1.1969525E-2,6.8123305E-1,-3.672744E-1,7.2507656E-1,-5.4678347E-2,-7.391936E-1,4.0645513E-1,-1.4528495E-2,7.5790304E-1,3.2431525E-1,-1.4254672E-2,1.5407886E-1,-1.0050806E0,5.4156244E-1,-8.2683176E-2,-0E0,-4.141013E-3,-0E0,1.7862255E-2,-0E0,1.2729678E-2,-3.2134138E-3,1.0488409E-2,-2.8050696E-2,1.4532534E-2,-0E0,1.4199832E-2,-8.968444E-3,5.047006E-3],"categories":[],"categories_nodes":[],"categories_segments":[],"categories_sizes":[],"default_left":[0,0,0,0,0,0,0,0,0,0,0,0,0,0,0,0,0,0,0,0,0,0,0,0,0,0,0,0,0],"id":37,"left_children":[1,3,5,7,9,11,13,15,17,19,-1,21,23,25,27,-1,-1,-1,-1,-1,-1,-1,-1,-1,-1,-1,-1,-1,-1],"loss_changes":[6.8537704E1,3.5893784E0,5.0015587E1,2.685421E0,1.8430018E0,2.847203E1,4.040885E0,9.971367E-2,7.130585E-1,5.190558E-1,0E0,2.7144737E0,3.2475586E1,2.1097755E0,1.4036143E0,0E0,0E0,0E0,0E0,0E0,0E0,0E0,0E0,0E0,0E0,0E0,0E0,0E0,0E0],"parents":[2147483647,0,0,1,1,2,2,3,3,4,4,5,5,6,6,7,7,8,8,9,9,11,11,12,12,13,13,14,14],"right_children":[2,4,6,8,10,12,14,16,18,20,-1,22,24,26,28,-1,-1,-1,-1,-1,-1,-1,-1,-1,-1,-1,-1,-1,-1],"split_conditions":[-4.0665627E-1,4.022852E0,2.6119173E-1,-1.2555356E0,-9.566487E-1,-1.08489655E-1,2.3517241E0,-1.2749833E0,-1.2456753E0,4.2180014E0,-1.4254672E-2,-1.2604786E-1,2.039344E-1,-1.191242E0,3.148652E0,-0E0,-4.141013E-3,-0E0,1.7862255E-2,-0E0,1.2729678E-2,-3.2134138E-3,1.0488409E-2,-2.8050696E-2,1.4532534E-2,-0E0,1.4199832E-2,-8.968444E-3,5.047006E-3],"split_indices":[3,0,3,0,3,0,3,0,3,0,0,3,0,1,3,0,0,0,0,0,0,0,0,0,0,0,0,0,0],"split_type":[0,0,0,0,0,0,0,0,0,0,0,0,0,0,0,0,0,0,0,0,0,0,0,0,0,0,0,0,0],"sum_hessian":[2.6606845E2,9.627686E1,1.697916E2,9.158249E1,4.694368E0,1.1519475E2,5.4596855E1,3.2287185E0,8.8353775E1,2.6455305E0,2.0488377E0,2.6114964E1,8.907978E1,4.3510468E1,1.1086389E1,1.7468954E0,1.4818232E0,2.225874E0,8.61279E1,1.0989788E0,1.5465517E0,1.2735621E1,1.3379343E1,7.967514E1,9.404638E0,4.4707713E0,3.9039696E1,6.1614623E0,4.9249263E0],"tree_param":{"num_deleted":"0","num_feature":"4","num_nodes":"29","size_leaf_vector":"1"}},{"base_weights":[1.4206593E-2,5.4349E-1,-3.6009863E-1,-1.9645112E-2,5.8330166E-1,-7.940068E-1,5.6164914E-1,2.1190704E-1,6.563964E-1,-9.759758E-1,5.957386E-1,3.2391816E-1,7.6719326E-1,9.227972E-3,-1.7507657E-2,-0E0,1.5358516E-2,3.4101307E-3,-2.7519971E-2,1.9259645E-2,-9.827104E-4,9.478637E-3,-5.9788474E-3,-0E0,1.8582836E-2],"categories":[],"categories_nodes":[],"categories_segments":[],"categories_sizes":[],"default_left":[0,0,0,0,0,0,0,0,0,0,0,0,0,0,0,0,0,0,0,0,0,0,0,0,0],"id":38,"left_children":[1,3,5,-1,7,9,11,13,15,17,19,21,23,-1,-1,-1,-1,-1,-1,-1,-1,-1,-1,-1,-1],"loss_changes":[5.3280563E1,6.877632E0,6.3528503E1,0E0,2.2854118E0,2.8384995E1,1.474266E0,4.257898E0,3.4516144E-1,2.4028267E1,2.4796157E0,1.6433537E0,5.4578495E-1,0E0,0E0,0E0,0E0,0E0,0E0,0E0,0E0,0E0,0E0,0E0,0E0],"parents":[2147483647,0,0,1,1,2,2,4,4,5,5,6,6,7,7,8,8,9,9,10,10,11,11,12,12],"right_children":[2,4,6,-1,8,10,12,14,16,18,20,22,24,-1,-1,-1,-1,-1,-1,-1,-1,-1,-1,-1,-1],"split_conditions":[-1.70989E-1,-1.2472439E0,2.4849434E-1,-1.9645112E-2,-1.1785746E0,2.3593777E-1,1.0941607E0,-1.1557959E0,-8.767569E-1,-1.2560056E-1,2.1959572E0,9.4662815E-1,-2.5988573E-1,9.227972E-3,-1.7507657E-2,-0E0,1.5358516E-2,3.4101307E-3,-2.7519971E-2,1.9259645E-2,-9.827104E-4,9.478637E-3,-5.9788474E-3,-0E0,1.8582836E-2],"split_indices":[2,1,2,0,0,0,2,1,2,0,0,2,0,0,0,0,0,0,0,0,0,0,0,0,0],"split_type":[0,0,0,0,0,0,0,0,0,0,0,0,0,0,0,0,0,0,0,0,0,0,0,0,0],"sum_hessian":[2.6514233E2,1.10123604E2,1.550187E2,1.7436274E0,1.0837998E2,1.0595799E2,4.9060722E1,2.0106415E1,8.827357E1,9.4472084E1,1.1485905E1,2.5953209E1,2.3107512E1,1.8136597E1,1.9698168E0,1.3752059E0,8.689836E1,1.4825282E1,7.9646805E1,8.6223545E0,2.8635502E0,2.3849546E1,2.1036637E0,1.3652881E0,2.1742224E1],"tree_param":{"num_deleted":"0","num_feature":"4","num_nodes":"25","size_leaf_vector":"1"}},{"base_weights":[1.7758235E-2,6.691721E-1,-4.17099E-1,-1.4489093E-1,7.059319E-1,-8.02525E-1,3.4976596E-1,-7.81913E-3,-0E0,8.639939E-1,4.5788467E-1,-9.401595E-1,7.8159684E-1,1.3230382E-1,5.9702295E-1,-0E0,2.0384304E-2,6.393728E-3,2.1882067E-2,-0E0,-2.6983615E-2,-0E0,2.6421303E-2,1.22259E-2,-1.2914414E-4,1.7280985E-2,-5.7816315E-3],"categories":[],"categories_nodes":[],"categories_segments":[],"categories_sizes":[],"default_left":[0,0,0,0,0,0,0,0,0,0,0,0,0,0,0,0,0,0,0,0,0,0,0,0,0,0,0],"id":39,"left_children":[1,3,5,7,9,11,13,-1,-1,15,17,19,21,23,25,-1,-1,-1,-1,-1,-1,-1,-1,-1,-1,-1,-1],"loss_changes":[7.608512E1,3.7002869E0,4.8097443E1,3.0414957E-1,2.7073479E0,2.4779465E1,2.3934255E0,0E0,0E0,9.5163345E-1,2.9220972E0,2.1698242E1,2.6439953E0,2.049395E0,3.6120663E0,0E0,0E0,0E0,0E0,0E0,0E0,0E0,0E0,0E0,0E0,0E0,0E0],"parents":[2147483647,0,0,1,1,2,2,3,3,4,4,5,5,6,6,9,9,10,10,11,11,12,12,13,13,14,14],"right_children":[2,4,6,8,10,12,14,-1,-1,16,18,20,22,24,26,-1,-1,-1,-1,-1,-1,-1,-1,-1,-1,-1,-1],"split_conditions":[-3.0588704E-1,-1.2726963E0,2.6119173E-1,-8.6820304E-1,-2.960566E-1,3.0870217E-1,6.788431E-2,-7.81913E-3,-0E0,-1.2877666E0,1.0941607E0,-1.2560056E-1,-1.4128333E-1,5.782792E-1,1.471318E0,-0E0,2.0384304E-2,6.393728E-3,2.1882067E-2,-0E0,-2.6983615E-2,-0E0,2.6421303E-2,1.22259E-2,-1.2914414E-4,1.7280985E-2,-5.7816315E-3],"split_indices":[3,0,3,2,2,2,2,0,0,3,2,0,3,3,0,0,0,0,0,0,0,0,0,0,0,0,0],"split_type":[0,0,0,0,0,0,0,0,0,0,0,0,0,0,0,0,0,0,0,0,0,0,0,0,0,0,0],"sum_hessian":[2.648203E2,1.06155235E2,1.586651E2,3.7379398E0,1.0241729E2,1.06013405E2,5.2651688E1,1.9907029E0,1.747237E0,5.8705177E1,4.3712116E1,9.847398E1,7.539423E0,3.0535238E1,2.211645E1,1.1933393E0,5.7511837E1,3.4588078E1,9.124036E0,1.9255217E1,7.9218765E1,2.8725493E0,4.666874E0,7.680594E0,2.2854643E1,1.9488325E1,2.6281238E0],"tree_param":{"num_deleted":"0","num_feature":"4","num_nodes":"27","size_leaf_vector":"1"}},{"base_weights":[1.6858034E-2,5.051285E-1,-4.579186E-1,7.238803E-1,1.7873736E-1,-9.550559E-1,2.4326436E-1,-7.367581E-4,7.45905E-1,2.9040413E-2,4.7901547E-1,4.9161628E-1,-1.1734035E0,-4.4603188E-2,3.2290426E-1,-0E0,1.7867649E-2,7.302309E-3,-2.5483638E-2,2.0405054E-2,-6.355434E-3,-0E0,1.4576071E-2,-2.8396659E-2,2.2856786E-3,2.180975E-3,-1.42081175E-2,9.30053E-3,-0E0],"categories":[],"categories_nodes":[],"categories_segments":[],"categories_sizes":[],"default_left":[0,0,0,0,0,0,0,0,0,0,0,0,0,0,0,0,0,0,0,0,0,0,0,0,0,0,0,0,0],"id":40,"left_children":[1,3,5,7,9,11,13,-1,15,17,19,21,23,25,27,-1,-1,-1,-1,-1,-1,-1,-1,-1,-1,-1,-1,-1,-1],"loss_changes":[6.187052E1,8.72443E0,4.773494E1,1.7173653E0,2.2269E0,2.6477264E1,1.4761944E0,0E0,1.7860413E0,1.328445E1,6.0220485E0,1.0651522E0,5.716202E0,1.3511623E0,1.2611327E0,0E0,0E0,0E0,0E0,0E0,0E0,0E0,0E0,0E0,0E0,0E0,0E0,0E0,0E0],"parents":[2147483647,0,0,1,1,2,2,3,3,4,4,5,5,6,6,8,8,9,9,10,10,11,11,12,12,13,13,14,14],"right_children":[2,4,6,8,10,12,14,-1,16,18,20,22,24,26,28,-1,-1,-1,-1,-1,-1,-1,-1,-1,-1,-1,-1,-1,-1],"split_conditions":[-2.222276E-2,-6.423673E-1,2.5678188E-1,-1.2877666E0,2.089933E-2,-1.08489655E-1,-1.1785746E0,-7.367581E-4,-1.2726963E0,-1.2560056E-1,1.5394582E0,-1.1906672E0,2.3593777E-1,-1.1557959E0,2.3517241E0,-0E0,1.7867649E-2,7.302309E-3,-2.5483638E-2,2.0405054E-2,-6.355434E-3,-0E0,1.4576071E-2,-2.8396659E-2,2.2856786E-3,2.180975E-3,-1.42081175E-2,9.30053E-3,-0E0],"split_indices":[3,3,3,3,1,0,0,0,0,0,0,0,0,1,3,0,0,0,0,0,0,0,0,0,0,0,0,0,0],"split_type":[0,0,0,0,0,0,0,0,0,0,0,0,0,0,0,0,0,0,0,0,0,0,0,0,0,0,0,0,0],"sum_hessian":[2.634692E2,1.3040007E2,1.3306912E2,7.586983E1,5.453024E1,7.796557E1,5.510356E1,1.4297E0,7.444013E1,3.880831E1,1.5721927E1,9.626289E0,6.833928E1,1.0622415E1,4.4481148E1,2.2442946E0,7.219584E1,3.229498E1,6.5133305E0,1.0523641E1,5.1982856E0,1.7460942E0,7.8801947E0,6.5968925E1,2.3703494E0,8.887199E0,1.7352147E0,3.5851025E1,8.630122E0],"tree_param":{"num_deleted":"0","num_feature":"4","num_nodes":"29","size_leaf_vector":"1"}},{"base_weights":[-2.349288E-2,5.7621723E-1,-4.0076393E-1,6.992512E-1,2.3705976E-1,3.1433225E-1,-7.9699016E-1,-0E0,7.316202E-1,-0E0,4.9967462E-1,-1.7338005E-1,4.7933048E-1,-1.1159564E0,4.4404578E-1,2.5726613E-4,-2.941645E-4,2.0846304E-2,1.0086078E-2,6.357857E-3,-8.163078E-3,1.8607568E-2,-3.1503185E-3,5.1951926E-4,-1.5360689E-2,-4.534395E-3,1.2354585E-2,-2.7893757E-2,3.1855968E-3,1.6101543E-2,-1.7835449E-3],"categories":[],"categories_nodes":[],"categories_segments":[],"categories_sizes":[],"default_left":[0,0,0,0,0,0,0,0,0,0,0,0,0,0,0,0,0,0,0,0,0,0,0,0,0,0,0,0,0,0,0],"id":41,"left_children":[1,3,5,7,9,11,13,15,17,19,21,23,25,27,29,-1,-1,-1,-1,-1,-1,-1,-1,-1,-1,-1,-1,-1,-1,-1,-1],"loss_changes":[5.891917E1,3.3980217E0,4.618283E1,1.6277542E0,2.0269074E0,4.9680524E0,4.247316E1,9.356146E-4,2.0568771E0,1.8394893E0,3.4473557E0,1.8196633E0,2.0176134E0,1.0388115E1,3.3421626E0,0E0,0E0,0E0,0E0,0E0,0E0,0E0,0E0,0E0,0E0,0E0,0E0,0E0,0E0,0E0,0E0],"parents":[2147483647,0,0,1,1,2,2,3,3,4,4,5,5,6,6,7,7,8,8,9,9,10,10,11,11,12,12,13,13,14,14],"right_children":[2,4,6,8,10,12,14,16,18,20,22,24,26,28,30,-1,-1,-1,-1,-1,-1,-1,-1,-1,-1,-1,-1,-1,-1,-1,-1],"split_conditions":[-3.0588704E-1,-6.255308E-1,-1.59078E-1,-1.2261137E0,-4.515536E-1,-1.1785746E0,2.039344E-1,-1.2749833E0,-1.3178131E-2,-5.3573614E-1,4.418143E-2,-7.115573E-1,-8.5390353E-1,4.4785285E-1,1.3284512E0,2.5726613E-4,-2.941645E-4,2.0846304E-2,1.0086078E-2,6.357857E-3,-8.163078E-3,1.8607568E-2,-3.1503185E-3,5.1951926E-4,-1.5360689E-2,-4.534395E-3,1.2354585E-2,-2.7893757E-2,3.1855968E-3,1.6101543E-2,-1.7835449E-3],"split_indices":[3,3,0,0,3,0,0,0,0,3,2,2,2,2,2,0,0,0,0,0,0,0,0,0,0,0,0,0,0,0,0],"split_type":[0,0,0,0,0,0,0,0,0,0,0,0,0,0,0,0,0,0,0,0,0,0,0,0,0,0,0,0,0,0,0],"sum_hessian":[2.5748413E2,9.853706E1,1.5894705E2,6.984128E1,2.8695791E1,5.630412E1,1.0264294E2,3.1456666E0,6.669561E1,1.5403096E1,1.3292696E1,1.3380342E1,4.292378E1,8.21368E1,2.0506138E1,1.2478071E0,1.8978595E0,3.8984344E1,2.7711266E1,8.427779E0,6.975317E0,9.26019E0,4.0325055E0,9.906421E0,3.47392E0,2.1762567E0,4.074752E1,7.705543E1,5.081368E0,1.4139479E1,6.36666E0],"tree_param":{"num_deleted":"0","num_feature":"4","num_nodes":"31","size_leaf_vector":"1"}},{"base_weights":[-1.2100736E-2,6.9690263E-1,-3.2118544E-1,-1.7663868E-2,7.349715E-1,2.1121225E-1,-6.780224E-1,1.461875E-4,-4.810636E-3,8.112042E-1,2.8503385E-1,-4.0953588E-1,2.9041895E-1,-1.1178378E0,5.633833E-1,1.920084E-2,3.9233584E-3,1.4605104E-2,-2.076094E-3,7.009942E-4,-1.991071E-2,-0E0,8.764365E-3,-2.737896E-2,2.2211182E-3,2.0650651E-2,-0E0],"categories":[],"categories_nodes":[],"categories_segments":[],"categories_sizes":[],"default_left":[0,0,0,0,0,0,0,0,0,0,0,0,0,0,0,0,0,0,0,0,0,0,0,0,0,0,0],"id":42,"left_children":[1,3,5,7,9,11,13,-1,-1,15,17,19,21,23,25,-1,-1,-1,-1,-1,-1,-1,-1,-1,-1,-1,-1],"loss_changes":[5.690148E1,2.5486107E0,3.505979E1,1.3394964E-1,1.6071205E0,3.754772E0,6.1374943E1,0E0,0E0,2.6741028E-3,2.2739825E0,2.133649E0,1.6524715E0,7.4121094E0,5.372072E0,0E0,0E0,0E0,0E0,0E0,0E0,0E0,0E0,0E0,0E0,0E0,0E0],"parents":[2147483647,0,0,1,1,2,2,3,3,4,4,5,5,6,6,9,9,10,10,11,11,12,12,13,13,14,14],"right_children":[2,4,6,8,10,12,14,-1,-1,16,18,20,22,24,26,-1,-1,-1,-1,-1,-1,-1,-1,-1,-1,-1,-1],"split_conditions":[-6.0027605E-1,-1.2555356E0,-1.08489655E-1,-1.2749833E0,1.919862E0,-4.880327E-1,2.039344E-1,1.461875E-4,-4.810636E-3,-6.423673E-1,-9.7348523E-1,-5.3573614E-1,-1.1785746E0,5.586366E-1,1.2361112E0,1.920084E-2,3.9233584E-3,1.4605104E-2,-2.076094E-3,7.009942E-4,-1.991071E-2,-0E0,8.764365E-3,-2.737896E-2,2.2211182E-3,2.0650651E-2,-0E0],"split_indices":[3,0,0,0,1,3,0,0,0,3,3,3,0,3,1,0,0,0,0,0,0,0,0,0,0,0,0],"split_type":[0,0,0,0,0,0,0,0,0,0,0,0,0,0,0,0,0,0,0,0,0,0,0,0,0,0,0],"sum_hessian":[2.5723563E2,7.693058E1,1.8030505E2,3.2150824E0,7.37155E1,7.201494E1,1.08290115E2,1.7477504E0,1.467332E0,6.0866016E1,1.2849482E1,6.591646E0,6.5423294E1,8.040553E1,2.7884586E1,5.7781216E1,3.0847998E0,6.8363714E0,6.0131106E0,3.514812E0,3.0768342E0,1.622795E1,4.9195343E1,7.668669E1,3.7188447E0,1.682285E1,1.1061737E1],"tree_param":{"num_deleted":"0","num_feature":"4","num_nodes":"27","size_leaf_vector":"1"}},{"base_weights":[-9.282325E-3,4.8530522E-1,-3.7606922E-1,7.16733E-2,5.928918E-1,-7.9103357E-1,5.109678E-1,3.0581078E-1,-8.5234284E-1,1.9093329E-1,6.650941E-1,-9.17501E-1,4.902295E-1,5.9538406E-1,-0E0,-5.326957E-4,1.4629118E-2,-0E0,-2.2782994E-2,1.7247207E-2,-3.4572668E-3,1.861784E-2,7.974673E-3,-0E0,-2.5903037E-2,1.750485E-2,-5.19196E-3,5.5078473E-3,1.5533477E-2,-8.730577E-3,7.7948445E-3],"categories":[],"categories_nodes":[],"categories_segments":[],"categories_sizes":[],"default_left":[0,0,0,0,0,0,0,0,0,0,0,0,0,0,0,0,0,0,0,0,0,0,0,0,0,0,0,0,0,0,0],"id":43,"left_children":[1,3,5,7,9,11,13,15,17,19,21,23,25,27,29,-1,-1,-1,-1,-1,-1,-1,-1,-1,-1,-1,-1,-1,-1,-1,-1],"loss_changes":[4.6814236E1,4.4377384E0,5.5655403E1,5.654452E0,1.8079948E0,1.7595573E1,2.3845205E0,2.7256894E0,4.9514055E-2,3.6273468E0,2.0914955E0,1.8083176E1,2.4623346E0,3.930683E-1,1.1995441E0,0E0,0E0,0E0,0E0,0E0,0E0,0E0,0E0,0E0,0E0,0E0,0E0,0E0,0E0,0E0,0E0],"parents":[2147483647,0,0,1,1,2,2,3,3,4,4,5,5,6,6,7,7,8,8,9,9,10,10,11,11,12,12,13,13,14,14],"right_children":[2,4,6,8,10,12,14,16,18,20,22,24,26,28,30,-1,-1,-1,-1,-1,-1,-1,-1,-1,-1,-1,-1,-1,-1,-1,-1],"split_conditions":[-1.70989E-1,-1.1785746E0,2.7862686E-1,-7.173811E-1,-8.086852E-1,4.255288E-1,1.8625586E0,-8.35881E-1,-1.1587739E0,-8.7065536E-1,-1.7840514E-1,-1.2560056E-1,1.5291768E-1,-5.9166364E-2,1.2417039E0,-5.326957E-4,1.4629118E-2,-0E0,-2.2782994E-2,1.7247207E-2,-3.4572668E-3,1.861784E-2,7.974673E-3,-0E0,-2.5903037E-2,1.750485E-2,-5.19196E-3,5.5078473E-3,1.5533477E-2,-8.730577E-3,7.7948445E-3],"split_indices":[2,0,2,2,2,0,0,2,1,2,0,0,2,1,2,0,0,0,0,0,0,0,0,0,0,0,0,0,0,0,0],"split_type":[0,0,0,0,0,0,0,0,0,0,0,0,0,0,0,0,0,0,0,0,0,0,0,0,0,0,0,0,0,0,0],"sum_hessian":[2.5506194E2,1.0775133E2,1.4731061E2,2.38526E1,8.389873E1,1.0089988E2,4.6410732E1,2.0383778E1,3.4688227E0,1.4839933E1,6.905879E1,9.264907E1,8.250812E0,4.0473152E1,5.9375796E0,1.0104628E1,1.027915E1,1.2414945E0,2.2273283E0,5.4967346E0,9.343198E0,4.50869E1,2.3971891E1,1.6682365E1,7.5966705E1,6.487972E0,1.7628397E0,9.602571E0,3.087058E1,3.4378495E0,2.4997303E0],"tree_param":{"num_deleted":"0","num_feature":"4","num_nodes":"31","size_leaf_vector":"1"}},{"base_weights":[1.3804013E-2,5.361742E-1,-3.6747316E-1,6.889217E-1,1.4693195E-1,-7.7479714E-1,3.3520532E-1,-8.172775E-3,7.3327017E-1,-1.4211933E-1,6.311531E-1,1.8742533E-1,-9.6671176E-1,-2.8298724E-1,3.9531812E-1,-2.4047427E-4,1.7680386E-2,2.6938992E-3,-1.884171E-2,2.4902012E-2,-0E0,-5.771324E-3,9.458978E-3,-2.5230765E-2,1.0905047E-2,-1.1887526E-2,-0E0,-1.794564E-3,9.896743E-3],"categories":[],"categories_nodes":[],"categories_segments":[],"categories_sizes":[],"default_left":[0,0,0,0,0,0,0,0,0,0,0,0,0,0,0,0,0,0,0,0,0,0,0,0,0,0,0,0,0],"id":44,"left_children":[1,3,5,7,9,11,13,-1,15,17,19,21,23,25,27,-1,-1,-1,-1,-1,-1,-1,-1,-1,-1,-1,-1,-1,-1],"loss_changes":[4.9609917E1,5.65036E0,4.1643444E1,4.0711403E0,5.010088E0,1.7641197E1,2.2234006E0,0E0,2.1213188E0,4.229197E0,3.6037111E0,1.821624E0,1.5031876E1,4.410074E-1,1.0210137E0,0E0,0E0,0E0,0E0,0E0,0E0,0E0,0E0,0E0,0E0,0E0,0E0,0E0,0E0],"parents":[2147483647,0,0,1,1,2,2,3,3,4,4,5,5,6,6,8,8,9,9,10,10,11,11,12,12,13,13,14,14],"right_children":[2,4,6,8,10,12,14,-1,16,18,20,22,24,26,28,-1,-1,-1,-1,-1,-1,-1,-1,-1,-1,-1,-1,-1,-1],"split_conditions":[-2.0461822E-1,-6.0027605E-1,2.6119173E-1,-1.245428E0,1.0590829E-2,-1.70989E-1,-1.1869565E0,-8.172775E-3,-1.2456753E0,-2.1025436E-1,6.65683E-1,-1.1436658E0,4.4785285E-1,-7.8279227E-1,-8.437375E-1,-2.4047427E-4,1.7680386E-2,2.6938992E-3,-1.884171E-2,2.4902012E-2,-0E0,-5.771324E-3,9.458978E-3,-2.5230765E-2,1.0905047E-2,-1.1887526E-2,-0E0,-1.794564E-3,9.896743E-3],"split_indices":[3,3,3,1,1,2,1,0,3,2,1,1,2,2,2,0,0,0,0,0,0,0,0,0,0,0,0,0,0],"split_type":[0,0,0,0,0,0,0,0,0,0,0,0,0,0,0,0,0,0,0,0,0,0,0,0,0,0,0,0,0],"sum_hessian":[2.4532918E2,1.0382853E2,1.4150064E2,7.264905E1,3.1179482E1,8.9957115E1,5.154353E1,1.993577E0,7.065547E1,1.955597E1,1.1623513E1,1.4494664E1,7.5462456E1,3.2232082E0,4.832032E1,2.22409E0,6.843138E1,1.45339155E1,5.0220532E0,6.006649E0,5.616864E0,3.9849942E0,1.050967E1,7.015414E1,5.3083143E0,1.4880269E0,1.7351813E0,1.9154322E0,4.640489E1],"tree_param":{"num_deleted":"0","num_feature":"4","num_nodes":"29","size_leaf_vector":"1"}},{"base_weights":[1.1076883E-2,5.0325125E-1,-3.3390483E-1,-4.1111454E-1,5.4000795E-1,-6.9336927E-1,5.489904E-1,-0E0,-1.4341462E-2,2.4023525E-2,4.788534E-1,2.4424203E-1,-1.0312204E0,2.2043817E-2,2.8362367E-1,-3.0263797E-3,1.272259E-2,1.997475E-2,-1.2453117E-3,-2.6183665E-2,5.3206165E-3,1.6575973E-2,3.5552816E-3],"categories":[],"categories_nodes":[],"categories_segments":[],"categories_sizes":[],"default_left":[0,0,0,0,0,0,0,0,0,0,0,0,0,0,0,0,0,0,0,0,0,0,0],"id":45,"left_children":[1,3,5,7,9,11,13,-1,-1,-1,15,17,19,-1,21,-1,-1,-1,-1,-1,-1,-1,-1],"loss_changes":[4.273324E1,3.9374676E0,4.7372726E1,3.7341708E-1,1.4468231E0,3.4314476E1,3.5006676E0,0E0,0E0,0E0,4.463007E0,5.8577614E0,1.0960564E1,0E0,9.852629E-1,0E0,0E0,0E0,0E0,0E0,0E0,0E0,0E0],"parents":[2147483647,0,0,1,1,2,2,3,3,4,4,5,5,6,6,10,10,11,11,12,12,14,14],"right_children":[2,4,6,8,10,12,14,-1,-1,-1,16,18,20,-1,22,-1,-1,-1,-1,-1,-1,-1,-1],"split_conditions":[-1.70989E-1,-1.2472439E0,2.039344E-1,-1.277689E0,-8.723583E-1,-1.08489655E-1,6.65683E-1,-0E0,-1.4341462E-2,2.4023525E-2,-8.437375E-1,-5.211083E-1,3.0870217E-1,2.2043817E-2,6.621513E-2,-3.0263797E-3,1.272259E-2,1.997475E-2,-1.2453117E-3,-2.6183665E-2,5.3206165E-3,1.6575973E-2,3.5552816E-3],"split_indices":[2,1,0,0,2,0,1,0,0,0,2,1,2,0,2,0,0,0,0,0,0,0,0],"split_type":[0,0,0,0,0,0,0,0,0,0,0,0,0,0,0,0,0,0,0,0,0,0,0],"sum_hessian":[2.4784206E2,1.02467575E2,1.4537448E2,2.7369614E0,9.973061E1,1.0400151E2,4.137298E1,1.4947213E0,1.24224E0,7.021807E0,9.27088E1,2.724462E1,7.675689E1,1.3874017E1,2.7498964E1,8.792282E0,8.391652E1,8.4169E0,1.882772E1,7.159565E1,5.1612406E0,3.6463091E0,2.3852655E1],"tree_param":{"num_deleted":"0","num_feature":"4","num_nodes":"23","size_leaf_vector":"1"}},{"base_weights":[-1.2475421E-2,4.650961E-1,-5.0844413E-1,6.780446E-1,8.858228E-2,-9.6887E-1,1.7606106E-1,-1.8416536E-3,7.057616E-1,3.3274096E-1,-2.3933655E-1,2.4802625E-2,-1.1132796E0,2.983752E-1,-1.3441308E-1,1.8084291E-2,4.545914E-3,-0E0,1.17844865E-2,-1.3316788E-2,4.870194E-3,-3.3170108E-3,9.711084E-3,-2.7498603E-2,3.0874498E-3,-2.9042389E-3,1.1013048E-2,1.9070111E-3,-1.244455E-2],"categories":[],"categories_nodes":[],"categories_segments":[],"categories_sizes":[],"default_left":[0,0,0,0,0,0,0,0,0,0,0,0,0,0,0,0,0,0,0,0,0,0,0,0,0,0,0,0,0],"id":46,"left_children":[1,3,5,7,9,11,13,-1,15,17,19,21,23,25,27,-1,-1,-1,-1,-1,-1,-1,-1,-1,-1,-1,-1,-1,-1],"loss_changes":[5.9959885E1,9.777544E0,4.0004185E1,2.1305542E0,4.122257E0,1.1436432E1,2.0946064E0,0E0,2.2869263E0,1.8427787E0,3.5843248E0,9.615199E-1,7.138191E0,3.1886926E0,1.5757325E0,0E0,0E0,0E0,0E0,0E0,0E0,0E0,0E0,0E0,0E0,0E0,0E0,0E0,0E0],"parents":[2147483647,0,0,1,1,2,2,3,3,4,4,5,5,6,6,8,8,9,9,10,10,11,11,12,12,13,13,14,14],"right_children":[2,4,6,8,10,12,14,-1,16,18,20,22,24,26,28,-1,-1,-1,-1,-1,-1,-1,-1,-1,-1,-1,-1,-1,-1],"split_conditions":[-3.494667E-3,-5.778274E-1,3.3976206E-1,-1.2726963E0,-5.332285E-2,-1.08489655E-1,5.911165E-1,-1.8416536E-3,2.0939815E0,-4.515536E-1,1.3290365E-1,-4.335595E-2,2.3593777E-1,-1.1785746E0,1.0357755E0,1.8084291E-2,4.545914E-3,-0E0,1.17844865E-2,-1.3316788E-2,4.870194E-3,-3.3170108E-3,9.711084E-3,-2.7498603E-2,3.0874498E-3,-2.9042389E-3,1.1013048E-2,1.9070111E-3,-1.244455E-2],"split_indices":[3,3,3,0,2,0,2,0,0,3,0,2,0,0,0,0,0,0,0,0,0,0,0,0,0,0,0,0,0],"split_type":[0,0,0,0,0,0,0,0,0,0,0,0,0,0,0,0,0,0,0,0,0,0,0,0,0,0,0,0,0],"sum_hessian":[2.497327E2,1.26721085E2,1.23011604E2,7.917344E1,4.754765E1,7.3605705E1,4.9405903E1,1.9933467E0,7.718009E1,2.8189318E1,1.9358332E1,9.037065E0,6.456864E1,3.6743156E1,1.2662745E1,6.538993E1,1.1790157E1,1.0041494E1,1.8147823E1,1.149687E1,7.8614607E0,6.116104E0,2.92096E0,6.1326347E1,3.242291E0,1.0109147E1,2.6634008E1,8.222716E0,4.4400287E0],"tree_param":{"num_deleted":"0","num_feature":"4","num_nodes":"29","size_leaf_vector":"1"}},{"base_weights":[1.8478013E-3,5.5776256E-1,-3.952553E-1,-3.3111316E-1,6.002289E-1,2.9645061E-1,-7.8933996E-1,-0E0,-1.1237671E-2,7.0198405E-1,3.0077833E-1,-2.2805066E-1,4.9139956E-1,-1.1356813E0,3.53658E-1,-1.548313E-3,1.6771954E-2,9.150643E-3,-3.1465918E-3,1.8523481E-3,-2.1268176E-2,1.589354E-2,5.4761837E-3,-2.7330086E-2,-3.4770833E-3,1.198687E-2,-6.286949E-3],"categories":[],"categories_nodes":[],"categories_segments":[],"categories_sizes":[],"default_left":[0,0,0,0,0,0,0,0,0,0,0,0,0,0,0,0,0,0,0,0,0,0,0,0,0,0,0],"id":47,"left_children":[1,3,5,7,9,11,13,-1,-1,15,17,19,21,23,25,-1,-1,-1,-1,-1,-1,-1,-1,-1,-1,-1,-1],"loss_changes":[5.6804535E1,4.537834E0,4.1353493E1,3.295948E-1,2.2712822E0,5.941588E0,3.9119198E1,0E0,0E0,1.7965164E0,1.501437E0,3.8308492E0,1.2900486E0,2.4035568E0,2.7650456E0,0E0,0E0,0E0,0E0,0E0,0E0,0E0,0E0,0E0,0E0,0E0,0E0],"parents":[2147483647,0,0,1,1,2,2,3,3,4,4,5,5,6,6,9,9,10,10,11,11,12,12,13,13,14,14],"right_children":[2,4,6,8,10,12,14,-1,-1,16,18,20,22,24,26,-1,-1,-1,-1,-1,-1,-1,-1,-1,-1,-1,-1],"split_conditions":[-2.607399E-1,-1.2688458E0,-1.59078E-1,-8.2476276E-1,-6.0027605E-1,-1.1785746E0,2.647964E-1,-0E0,-1.1237671E-2,-1.2877666E0,1.5394582E0,-1.1658922E0,5.333819E-1,5.586366E-1,1.6455822E0,-1.548313E-3,1.6771954E-2,9.150643E-3,-3.1465918E-3,1.8523481E-3,-2.1268176E-2,1.589354E-2,5.4761837E-3,-2.7330086E-2,-3.4770833E-3,1.198687E-2,-6.286949E-3],"split_indices":[3,0,0,3,3,0,1,0,0,3,0,1,3,3,1,0,0,0,0,0,0,0,0,0,0,0,0],"split_type":[0,0,0,0,0,0,0,0,0,0,0,0,0,0,0,0,0,0,0,0,0,0,0,0,0,0,0],"sum_hessian":[2.5360658E2,1.0596272E2,1.4764386E2,3.7351768E0,1.0222755E2,5.323615E1,9.440771E1,1.4964107E0,2.238766E0,7.328462E1,2.8942923E1,1.3594779E1,3.964137E1,7.282601E1,2.1581697E1,1.4043678E0,7.188026E1,2.491799E1,4.024932E0,9.877314E0,3.7174654E0,1.9589577E1,2.0051792E1,6.869301E1,4.1330047E0,1.799097E1,3.5907278E0],"tree_param":{"num_deleted":"0","num_feature":"4","num_nodes":"27","size_leaf_vector":"1"}},{"base_weights":[-1.40175065E-2,3.9610344E-1,-3.8812095E-1,-1.7887034E-2,4.3666843E-1,-1.0500293E0,3.380422E-1,7.2552174E-1,2.8241962E-1,8.386383E-2,-1.1482428E0,4.62867E-1,-0E0,-8.605352E-4,1.7980505E-2,-8.921737E-3,7.62432E-3,7.956247E-3,-0E0,-2.7271625E-2,-0E0,-2.0806564E-3,1.3480937E-2,9.405096E-3,-9.8961E-3],"categories":[],"categories_nodes":[],"categories_segments":[],"categories_sizes":[],"default_left":[0,0,0,0,0,0,0,0,0,0,0,0,0,0,0,0,0,0,0,0,0,0,0,0,0],"id":48,"left_children":[1,3,5,-1,7,9,11,13,15,17,19,21,23,-1,-1,-1,-1,-1,-1,-1,-1,-1,-1,-1,-1],"loss_changes":[3.853117E1,6.031605E0,6.442592E1,0E0,4.311426E0,8.516586E0,2.6657267E0,1.9795856E0,2.7152987E0,2.8271335E-1,1.827774E0,3.446518E0,3.5955312E0,0E0,0E0,0E0,0E0,0E0,0E0,0E0,0E0,0E0,0E0,0E0,0E0],"parents":[2147483647,0,0,1,1,2,2,4,4,5,5,6,6,7,7,8,8,9,9,10,10,11,11,12,12],"right_children":[2,4,6,-1,8,10,12,14,16,18,20,22,24,-1,-1,-1,-1,-1,-1,-1,-1,-1,-1,-1,-1],"split_conditions":[-1.08489655E-1,-1.2472439E0,1.3866562E-1,-1.7887034E-2,-6.423673E-1,-7.012951E-1,1.8661987E0,-1.2555356E0,-5.722152E-1,1.9488178E-2,5.586366E-1,1.5881333E-1,-8.8369054E-1,-8.605352E-4,1.7980505E-2,-8.921737E-3,7.62432E-3,7.956247E-3,-0E0,-2.7271625E-2,-0E0,-2.0806564E-3,1.3480937E-2,9.405096E-3,-9.8961E-3],"split_indices":[0,1,1,0,3,3,1,0,3,1,3,0,3,0,0,0,0,0,0,0,0,0,0,0,0],"split_type":[0,0,0,0,0,0,0,0,0,0,0,0,0,0,0,0,0,0,0,0,0,0,0,0,0],"sum_hessian":[2.478457E2,1.1749286E2,1.3035284E2,2.4850616E0,1.150078E2,6.819773E1,6.2155106E1,3.667382E1,7.833398E1,5.015015E0,6.318272E1,4.4820675E1,1.733443E1,1.7189485E0,3.4954872E1,3.6463509E0,7.468762E1,1.1251081E0,3.8899071E0,6.1076E1,2.1067178E0,7.279339E0,3.7541336E1,8.9995E0,8.33493E0],"tree_param":{"num_deleted":"0","num_feature":"4","num_nodes":"25","size_leaf_vector":"1"}},{"base_weights":[2.2492222E-2,4.7763324E-1,-4.094578E-1,6.8312454E-1,1.2537979E-1,-9.392734E-1,2.6387888E-1,7.662046E-1,1.47597E-1,3.117226E-1,-1.20277904E-1,4.3055706E-2,-1.0935714E0,1.13173336E-1,6.139205E-1,-0E0,1.8063575E-2,-5.318672E-3,6.14355E-3,-0E0,1.247999E-2,-2.399237E-2,8.150622E-3,-3.2816809E-3,1.4526107E-2,-2.6970085E-2,4.345882E-3,4.318785E-3,-1.7585048E-2,1.5884405E-2,-0E0],"categories":[],"categories_nodes":[],"categories_segments":[],"categories_sizes":[],"default_left":[0,0,0,0,0,0,0,0,0,0,0,0,0,0,0,0,0,0,0,0,0,0,0,0,0,0,0,0,0,0,0],"id":49,"left_children":[1,3,5,7,9,11,13,15,17,19,21,23,25,27,29,-1,-1,-1,-1,-1,-1,-1,-1,-1,-1,-1,-1,-1,-1,-1,-1],"loss_changes":[4.9001034E1,8.23914E0,4.6161785E1,2.6805954E0,2.3585258E0,1.1563053E1,2.4900222E0,6.024246E-1,7.047217E-1,2.182268E0,9.917153E0,1.5915741E0,6.780693E0,2.6834397E0,5.922551E-1,0E0,0E0,0E0,0E0,0E0,0E0,0E0,0E0,0E0,0E0,0E0,0E0,0E0,0E0,0E0,0E0],"parents":[2147483647,0,0,1,1,2,2,3,3,4,4,5,5,6,6,7,7,8,8,9,9,10,10,11,11,12,12,13,13,14,14],"right_children":[2,4,6,8,10,12,14,16,18,20,22,24,26,28,30,-1,-1,-1,-1,-1,-1,-1,-1,-1,-1,-1,-1,-1,-1,-1,-1],"split_conditions":[-2.222276E-2,-6.0027605E-1,2.5678188E-1,2.0939815E0,-1.2560056E-1,-1.08489655E-1,2.3807062E-1,-1.2456753E0,2.1432438E0,-3.98238E-1,4.4308785E-2,-1.5587443E-1,2.039344E-1,6.247679E-2,1.6455822E0,-0E0,1.8063575E-2,-5.318672E-3,6.14355E-3,-0E0,1.247999E-2,-2.399237E-2,8.150622E-3,-3.2816809E-3,1.4526107E-2,-2.6970085E-2,4.345882E-3,4.318785E-3,-1.7585048E-2,1.5884405E-2,-0E0],"split_indices":[3,3,3,0,0,0,1,3,0,3,1,1,0,0,1,0,0,0,0,0,0,0,0,0,0,0,0,0,0,0,0],