tree
version=v4
num_class=1
num_tree_per_iteration=1
label_index=0
max_feature_idx=3
objective=binary sigmoid:1
feature_names=Column_0 Column_1 Column_2 Column_3
feature_infos=[-1.2829983144811443:4.3399485618819744] [-1.2561053552352495:4.3049044419220079] [-0.8805901732276572:18.544323252984988] [-1.3691430390177139:8.7972989877283503]
tree_sizes=812 878 886 889 886 889 888 890 888 887 888 892 880 864 886 862 884 885 883 888 878 885 886 884 887 887 882 887 867 891 891 892 887 890 886 886 886 884 887 887 882 869 865 887 888 885 888 884 888 881 885 890 891 893 886 893 888 892 890 892 893 887 893 897 874 892 892 886 893 888 891 891 887 894 683 887 896 894 892 895 685 585 890 688 791 789 898 583 583 893 894 580 678 891 687 582 681 891 661 581 793 793 577 579 583 581 893 786 790 785 893 889 684 687 889 882 582 685 865 895 682 680 898 898 795 794 897 791 898 680 686 885 573 895 580 895 577 580 587

Tree=0
num_leaves=7
num_cat=0
split_feature=3 3 1 3 2 1
split_gain=396.032 281.409 98.7841 22.5408 11.9977 5.9603
threshold=-0.20882733985693622 0.25865315549582263 -0.19529212824360517 -0.59606692022981955 -0.077511994829551331 -1.1423220301370827
decision_type=2 2 2 2 2 2
left_child=3 2 -2 -1 -5 -3
right_child=1 5 -4 4 -6 -7
leaf_value=0.061825874506572953 0.024509168064752423 0.0064697938068808292 -0.076470531039105241 0.04141392258253751 -0.0049128674276787011 0.040893269579479592
leaf_weight=122 20.5 11.999999999999998 155.25 29.25 15.999999999999998 63.75
leaf_count=488 82 48 621 117 64 255
internal_value=0.000142738 -0.0343931 -0.0646156 0.0520436 0.0250678 0.0356097
internal_weight=418.75 251.5 175.75 167.25 45.25 75.75
internal_count=1675 1006 703 669 181 303
is_linear=0
shrinkage=0.043602


Tree=1
num_leaves=7
num_cat=0
split_feature=2 2 0 1 1 1
split_gain=307.665 273.847 112.947 22.9525 4.46117 1.17322
threshold=-0.17230435125016977 0.2770476367951531 0.2262341481507707 -1.1389081672072303 -1.2069675196598202 1.6604887062463864
decision_type=2 2 2 2 2 2
left_child=3 2 -2 4 -1 -3
right_child=1 5 -4 -5 -6 -7
leaf_value=-0.0066682803080260426 -0.067591185027485595 0.048140936759986395 0.051079483759201391 0.055681158685264527 0.02571577058865188 0.029865326523524107
leaf_weight=10.745272681117056 170.2788814753294 53.714392140507698 16.238356918096542 125.65886883437634 27.238895654678345 14.48959945142269
leaf_count=43 682 215 65 503 109 58
internal_value=0.000143567 -0.0297891 -0.0570946 0.0467058 0.0164513 0.0446439
internal_weight=418.364 254.721 186.517 163.643 37.9842 68.204
internal_count=1675 1020 747 655 152 273
is_linear=0
shrinkage=0.043602


Tree=2
num_leaves=7
num_cat=0
split_feature=3 3 0 3 0 1
split_gain=339.592 229.231 108.713 19.4232 5.48245 4.21786
threshold=-0.20882733985693622 0.25865315549582263 -0.043237287034241234 -0.59606692022981955 -1.1843074922844514 0.030054562088371695
decision_type=2 2 2 2 2 2
left_child=3 2 -2 -1 -3 -5
right_child=1 4 -4 5 -6 -7
leaf_value=0.056700852753275653 0.022046796537691753 0.0023877789078439759 -0.07481251451300043 0.012365690104331951 0.035782880467013729 0.041283196898521932
leaf_weight=119.40442351996899 25.469002187252045 11.497954204678534 148.27409127354622 30.202488332986832 62.639823347330093 14.733778357505797
leaf_count=479 102 46 596 121 251 59
internal_value=-0.00101124 -0.0332182 -0.0605541 0.0474761 0.0307408 0.022403
internal_weight=412.222 247.881 173.743 164.341 74.1378 44.9363
internal_count=1654 995 698 659 297 180
is_linear=0
shrinkage=0.043602


Tree=3
num_leaves=7
num_cat=0
split_feature=3 3 1 3 2 1
split_gain=311.943 211.045 73.8965 17.9065 11.7463 3.99137
threshold=-0.20882733985693622 0.25865315549582263 -0.19529212824360517 -0.59606692022981955 -0.014106590095820553 -1.1423220301370827
decision_type=2 2 2 2 2 2
left_child=3 2 -2 -1 -5 -3
right_child=1 5 -4 4 -6 -7
leaf_value=0.054446115364423092 0.018325868163450127 0.0055363334726443759 -0.068754007247348412 0.037050740183768575 -0.0095002439203999284 0.033894202743760107
leaf_weight=118.96243163943291 20.713147774338722 11.997110828757284 152.05745361745358 29.920794770121574 14.980830043554304 62.040948957204819
leaf_count=479 83 48 615 120 60 249
internal_value=-0.000963025 -0.0319117 -0.0582539 0.045562 0.0214803 0.0294577
internal_weight=410.673 246.809 172.771 163.864 44.9016 74.0381
internal_count=1654 995 698 659 180 297
is_linear=0
shrinkage=0.043602


Tree=4
num_leaves=7
num_cat=0
split_feature=3 3 0 3 2 0
split_gain=283.307 192.922 102.915 15.5299 8.03576 4.24417
threshold=-0.28459160558206559 0.25865315549582263 -0.063529144055764694 -0.59606692022981955 -0.014106590095820553 -1.1762588786414605
decision_type=2 2 2 2 2 2
left_child=3 2 -2 -1 -5 -3
right_child=1 5 -4 4 -6 -7
leaf_value=0.054898972707614555 0.022162618730960714 0.0059731276988439523 -0.06656620426385508 0.035180162132069495 -0.0077694834341832707 0.036344796058637496
leaf_weight=120.09130851924419 29.415990740060806 10.996991336345671 148.1046838760376 25.875906080007553 11.487156197428702 62.408374592661858
leaf_count=486 118 44 604 104 46 251
internal_value=0.00147191 -0.0272616 -0.0518063 0.047225 0.0219185 0.031958
internal_weight=408.38 250.926 177.521 157.454 37.3631 73.4054
internal_count=1653 1017 722 636 150 295
is_linear=0
shrinkage=0.043602


Tree=5
num_leaves=7
num_cat=0
split_feature=3 3 0 3 2 0
split_gain=261.126 187.409 95.3467 18.8743 8.42813 3.90065
threshold=-0.20882733985693622 0.25865315549582263 -0.043237287034241234 -0.59606692022981955 -0.014106590095820553 -1.1762588786414605
decision_type=2 2 2 2 2 2
left_child=3 2 -2 -1 -5 -3
right_child=1 5 -4 4 -6 -7
leaf_value=0.052870517785532922 0.024136170226601038 0.0057271001265913248 -0.066478565154185432 0.032497425022353213 -0.0067866875440061938 0.034877356478466029
leaf_weight=119.30272766947746 25.660866975784302 10.996053859591482 142.87757395207882 29.539289548993111 15.232701390981672 62.228639796376228
leaf_count=486 103 44 589 119 61 251
internal_value=0.00142069 -0.0273534 -0.0526112 0.0437959 0.0190999 0.0306601
internal_weight=405.838 241.763 168.538 164.075 44.772 73.2247
internal_count=1653 987 692 666 180 295
is_linear=0
shrinkage=0.043602


Tree=6
num_leaves=7
num_cat=0
split_feature=3 3 1 3 2 1
split_gain=245.587 165.851 60.5619 12.8294 6.93018 3.14757
threshold=-0.23321388581581562 0.25865315549582263 -0.19529212824360517 -0.59606692022981955 -0.014106590095820553 -1.1423220301370827
decision_type=2 2 2 2 2 2
left_child=3 2 -2 -1 -5 -3
right_child=1 5 -4 4 -6 -7
leaf_value=0.048557842814483318 0.017227019358668411 0.0048231457504157148 -0.060899333527370599 0.032174356981935687 -0.0043150325896239737 0.030036541493110139
leaf_weight=118.88618797063828 21.140232369303703 11.993889480829237 151.42292515933514 29.198978289961815 14.23561345040798 63.000156864523888
leaf_count=488 85 48 631 118 57 255
internal_value=-0.000467993 -0.0277867 -0.0512688 0.041109 0.0201971 0.0261503
internal_weight=409.878 247.557 172.563 162.321 43.4346 74.994
internal_count=1682 1019 716 663 175 303
is_linear=0
shrinkage=0.043602


Tree=7
num_leaves=7
num_cat=0
split_feature=3 3 1 3 2 1
split_gain=226.522 153.624 56.4737 11.987 6.38878 2.89589
threshold=-0.23321388581581562 0.25865315549582263 -0.19529212824360517 -0.59606692022981955 -0.014106590095820553 -1.1423220301370827
decision_type=2 2 2 2 2 2
left_child=3 2 -2 -1 -5 -3
right_child=1 5 -4 4 -6 -7
leaf_value=0.046844720901591516 0.016516987365207063 0.0046236700616314377 -0.059020754880492188 0.030907401933103085 -0.0041347232423115526 0.028839089946297025
leaf_weight=117.90507365763187 21.114928066730499 11.992669820785521 149.49241112172604 29.098303750157356 14.235758662223814 62.785637035965919
leaf_count=488 85 48 631 118 57 255
internal_value=-0.000447425 -0.0268173 -0.0496135 0.0395988 0.0193739 0.0250992
internal_weight=406.625 245.386 170.607 161.239 43.3341 74.7783
internal_count=1682 1019 716 663 175 303
is_linear=0
shrinkage=0.043602


Tree=8
num_leaves=7
num_cat=0
split_feature=3 3 1 3 2 1
split_gain=198.355 142.209 56.8812 12.2465 7.63065 3.34639
threshold=-0.20882733985693622 0.25865315549582263 -0.19529212824360517 -0.59606692022981955 -0.014106590095820553 -1.1423220301370827
decision_type=2 2 2 2 2 2
left_child=3 2 -2 -1 -5 -3
right_child=1 5 -4 4 -6 -7
leaf_value=0.044590925593698226 0.020334609617280584 0.0026270591404410331 -0.057605061968356887 0.029943218452034692 -0.0071328955383522146 0.02820280200669387
leaf_weight=114.19821788370609 19.844005450606346 12.241317242383955 145.45473936200142 29.981015503406525 15.475092947483061 62.309739097952843
leaf_count=477 80 49 623 122 62 254
internal_value=-0.00061557 -0.0256717 -0.0481739 0.0369454 0.0172748 0.0241335
internal_weight=399.504 239.85 165.299 159.654 45.4561 74.5511
internal_count=1667 1006 703 661 184 303
is_linear=0
shrinkage=0.043602


Tree=9
num_leaves=7
num_cat=0
split_feature=3 3 1 3 2 1
split_gain=183.208 132.053 53.1785 11.4703 7.03525 3.3889
threshold=-0.20882733985693622 0.25865315549582263 -0.19529212824360517 -0.59606692022981955 -0.014106590095820553 1.8751425201907443
decision_type=2 2 2 2 2 2
left_child=3 2 -2 5 -5 -1
right_child=1 -3 -4 4 -6 -7
leaf_value=0.046497524157109622 0.019509567232812726 0.023174543972804704 -0.055975991370960182 0.02878135593727706 -0.0068343533233978576 0.023750266807283503
leaf_weight=95.108354330062866 19.808455944061279 74.301270037889481 143.22856070101261 29.859128445386887 15.474054649472235 17.996344581246376
leaf_count=401 80 303 623 122 62 76
internal_value=-0.000591353 -0.0248201 -0.0467316 0.0356233 0.0165757 0.0430766
internal_weight=395.776 237.338 163.037 158.438 45.3332 113.105
internal_count=1667 1006 703 661 184 477
is_linear=0
shrinkage=0.043602


Tree=10
num_leaves=7
num_cat=0
split_feature=3 3 0 3 0 1
split_gain=180.244 122.694 70.3597 8.07698 4.35334 3.86123
threshold=-0.28459160558206559 0.25865315549582263 -0.12790077522237023 -0.59606692022981955 -1.1843074922844514 0.030054562088371695
decision_type=2 2 2 2 2 2
left_child=3 2 -2 -1 -3 -5
right_child=1 4 -4 5 -6 -7
leaf_value=0.043251108570322938 0.018409717499958199 -0.00073181984999709255 -0.056150141140552404 0.0082888262510699556 0.02821136897641573 0.038634610658537745
leaf_weight=115.48065266013145 28.597284957766533 11.233762979507445 139.77380293607712 24.481536731123924 62.583197742700577 12.077556535601614
leaf_count=492 116 45 618 100 257 49
internal_value=0.000406422 -0.0229206 -0.0434324 0.037543 0.0237629 0.0189414
internal_weight=394.228 242.188 168.371 152.04 73.817 36.5591
internal_count=1677 1036 734 641 302 149
is_linear=0
shrinkage=0.043602


Tree=11
num_leaves=7
num_cat=0
split_feature=3 3 0 3 0 0
split_gain=166.763 118.846 66.0483 9.7886 4.93215 4.02537
threshold=-0.23321388581581562 0.25865315549582263 -0.063529144055764694 -0.59606692022981955 0.0042020588889744442 -1.1843074922844514
decision_type=2 2 2 2 2 2
left_child=3 2 -2 -1 -5 -3
right_child=1 5 -4 4 -6 -7
leaf_value=0.041845268193740751 0.019017335177142332 -0.00070156656606866984 -0.056231379678620082 0.0057489915703822728 0.037539159716052185 0.027121724707272445
leaf_weight=114.20531387627125 26.103072866797447 11.234063327312468 134.09501355886459 28.38359634578228 13.785760819911955 62.290694251656532
leaf_count=492 106 45 605 116 56 257
internal_value=0.000395602 -0.0228875 -0.0439096 0.0351834 0.0166657 0.0228255
internal_weight=390.098 233.723 160.198 156.375 42.1694 73.5248
internal_count=1677 1013 711 664 172 302
is_linear=0
shrinkage=0.043602


Tree=12
num_leaves=7
num_cat=0
split_feature=2 2 0 1 1 1
split_gain=139.55 154.537 52.6461 15.459 3.16127 2.66567
threshold=-0.17230435125016977 0.2770476367951531 0.2262341481507707 -1.1389081672072303 1.6604887062463864 -1.2165190723252584
decision_type=2 2 2 2 2 2
left_child=3 2 -2 5 -3 -1
right_child=1 4 -4 -5 -6 -7
leaf_value=-0.011973734204408537 -0.051459144128006437 0.040041557006070969 0.034082026504012798 0.039475302803535742 0.014803428195742731 0.01384607506025169
leaf_weight=9.6795097887516004 152.26133202016354 51.445860594511032 14.517104908823965 117.32488408684731 13.68658424913883 27.387216672301292
leaf_count=40 688 217 62 501 58 113
internal_value=-0.000289341 -0.0216656 -0.0438812 0.0317421 0.0350126 0.00687017
internal_weight=386.302 231.911 166.778 154.392 65.1324 37.0667
internal_count=1679 1025 750 654 275 153
is_linear=0
shrinkage=0.043602


Tree=13
num_leaves=7
num_cat=0
split_feature=3 3 0 3 1 0
split_gain=143.299 109.653 49.0544 10.7873 5.03141 2.66545
threshold=-0.15128900363741807 0.25865315549582263 -0.043237287034241234 -0.59606692022981955 0.030054562088371695 -1.1843074922844514
decision_type=2 2 2 2 2 2
left_child=3 2 -2 -1 -5 -3
right_child=1 5 -4 4 -6 -7
leaf_value=0.038875545512945302 0.016626680781171101 0 -0.054886774430324949 0.0045137093997955399 0.03393577751221892 0.02329492559885878
leaf_weight=108.94206501543522 20.865452021360397 11.480323404073713 126.51457947492599 35.041040450334549 16.071758463978767 63.583648771047592
leaf_count=479 85 46 593 145 66 265
internal_value=-0.000274408 -0.0229018 -0.0446974 0.0311055 0.014169 0.019834
internal_weight=382.499 222.444 147.38 160.055 51.1128 75.064
internal_count=1679 989 678 690 211 311
is_linear=0
shrinkage=0.043602


Tree=14
num_leaves=7
num_cat=0
split_feature=3 3 0 3 2 2
split_gain=135.114 92.7797 62.3239 5.24442 7.12455 2.63661
threshold=-0.28459160558206559 0.25865315549582263 0.19622959128678272 -0.539945241914909 -0.077511994829551331 0.079165123186894851
decision_type=2 2 2 2 2 2
left_child=3 2 -2 -1 -5 -3
right_child=1 5 -4 4 -6 -7
leaf_value=0.037783659178836165 -0.046122844030304783 0.012534561546403927 0.066382028309930716 0.03121126605734087 -0.013452708279147707 0.029891844901432263
leaf_weight=114.54857993125916 147.80636827647686 43.049938872456551 9.4156641662120801 19.246662423014644 9.6721409410238248 30.539239525794983
leaf_count=507 689 178 41 80 39 128
internal_value=0.000382892 -0.0202396 -0.0391151 0.0335431 0.0161167 0.0200026
internal_weight=374.279 230.811 157.222 143.467 28.9188 73.5892
internal_count=1662 1036 730 626 119 306
is_linear=0
shrinkage=0.043602


Tree=15
num_leaves=7
num_cat=0
split_feature=3 3 0 3 0 0
split_gain=126.12 110.852 29.5967 13.734 10.9409 2.09019
threshold=-0.018499226202336058 0.25581881206798612 -0.029752744833290021 -0.539945241914909 0.12040676723349342 -1.1843074922844514
decision_type=2 2 2 2 2 2
left_child=3 2 -2 -1 -5 -3
right_child=1 5 -4 4 -6 -7
leaf_value=0.036582679420357173 0.014828851586604685 0.0010150996332009526 -0.055480511194936764 0 0.044536824262017771 0.021608730690677695
leaf_weight=113.2011451125145 12.274285420775412 11.722979336977003 111.68358781933784 45.341408848762512 12.999583423137663 63.279752269387245
leaf_count=507 50 47 545 192 54 267
internal_value=0.000377088 -0.0231961 -0.0484347 0.0277353 0.0102697 0.018498
internal_weight=370.503 198.961 123.958 171.542 58.341 75.0027
internal_count=1662 909 595 753 246 314
is_linear=0
shrinkage=0.043602


Tree=16
num_leaves=7
num_cat=0
split_feature=2 2 0 1 0 0
split_gain=103.792 115.853 43.7383 12.795 3.81827 2.87807
threshold=-0.17230435125016977 0.20319114805361407 0.2262341481507707 -1.1403971925276979 0.16768170038951782 1.8841088045162462
decision_type=2 2 2 2 2 2
left_child=3 2 -2 -1 -3 -5
right_child=1 4 -4 5 -6 -7
leaf_value=0.0042741758939769609 -0.048451616812557656 0.013410013862910788 0.033277883514440429 0.036835190330952047 0.035196148050888838 0.010071862601334726
leaf_weight=34.990052819252014 136.60209314525127 27.323674604296684 13.175957977771757 103.42926348745823 41.830874770879745 9.4857635796070081
leaf_count=146 661 119 58 456 182 43
internal_value=-0.000545954 -0.0196034 -0.0411171 0.0275899 0.0268639 0.0347032
internal_weight=366.838 218.933 149.778 147.905 69.1545 112.915
internal_count=1665 1020 719 645 301 499
is_linear=0
shrinkage=0.043602


Tree=17
num_leaves=7
num_cat=0
split_feature=3 3 2 3 1 2
split_gain=107.221 101.221 17.62 14.8076 9.47685 3.34874
threshold=-0.018499226202336058 0.25581881206798612 -0.17230435125016977 -0.539945241914909 0.26494580737145662 0.079165123186894851
decision_type=2 2 2 2 2 2
left_child=3 2 -2 -1 -5 -3
right_child=1 5 -4 4 -6 -7
leaf_value=0.033735046959834862 0.0083209237600342136 0.0086917857167312096 -0.052755070446806766 -0.0030886811927142957 0.038370485505984708 0.027830176253339285
leaf_weight=112.85698503255844 9.4446033835411054 42.93736843764782 108.6941232830286 44.870013222098351 12.953323453664778 31.16080667078495
leaf_count=516 39 180 552 191 54 133
internal_value=-0.000520764 -0.0228325 -0.0478077 0.0245683 0.00641348 0.016979
internal_weight=362.917 192.237 118.139 170.68 57.8233 74.0982
internal_count=1665 904 591 761 245 313
is_linear=0
shrinkage=0.043602


Tree=18
num_leaves=7
num_cat=0
split_feature=3 3 2 3 2 1
split_gain=95.6118 93.9753 17.3937 12.8328 8.27447 2.5103
threshold=-0.018499226202336058 0.25865315549582263 0.1826566008455508 -0.59606692022981955 -0.10171234294845342 -1.1423220301370827
decision_type=2 2 2 2 2 2
left_child=3 2 -2 5 -5 -1
right_child=1 -3 -4 4 -6 -7
leaf_value=0.0091446621328963966 -0.049743150138231433 0.01832645971367498 0.013414053857695724 0.022194404298064196 -0.0086098872453347405 0.035147454705543341
leaf_weight=8.8100141584873182 109.06675688922405 70.707344174385071 8.568889379501341 36.09858612716198 29.428366109728813 96.743234738707542
leaf_count=40 560 299 40 151 127 452
internal_value=0.000138802 -0.0212456 -0.0450494 0.023705 0.00832543 0.0330956
internal_weight=359.423 188.343 117.636 171.08 65.527 105.553
internal_count=1669 899 600 770 278 492
is_linear=0
shrinkage=0.043602


Tree=19
num_leaves=7
num_cat=0
split_feature=3 3 0 3 2 0
split_gain=88.5634 87.9564 26.4562 12.0538 7.61673 2.81102
threshold=-0.018499226202336058 0.25581881206798612 -0.029752744833290021 -0.59606692022981955 -0.10171234294845342 1.8841088045162462
decision_type=2 2 2 2 2 2
left_child=3 2 -2 5 -5 -1
right_child=1 -3 -4 4 -6 -7
leaf_value=0.035232306309233845 0.014479604778481337 0.016912850514000242 -0.051806684707595481 0.021337166342599537 -0.0082505251271467062 0.014161444482852135
leaf_weight=87.841201394796371 12.487319543957708 72.098890706896782 101.1582889854908 35.940220355987549 29.398888647556305 16.385781660676003
leaf_count=415 51 307 541 151 127 77
internal_value=0.000134809 -0.0206157 -0.0444355 0.02289 0.00798809 0.0320762
internal_weight=355.311 185.744 113.646 169.566 65.3391 104.227
internal_count=1669 899 592 770 278 492
is_linear=0
shrinkage=0.043602


Tree=20
num_leaves=7
num_cat=0
split_feature=2 2 0 1 1 0
split_gain=75.9111 97.599 40.9099 13.1334 3.64566 2.41634
threshold=-0.17230435125016977 0.2770476367951531 0.2262341481507707 -1.1389081672072303 -1.2165190723252584 1.3603244941757706
decision_type=2 2 2 2 2 2
left_child=3 2 -2 4 -1 -5
right_child=1 -3 -4 5 -6 -7
leaf_value=-0.020832867660254235 -0.043769232319746394 0.029582323325147351 0.033600823315774082 0.034591813959325375 0.0099042168323644104 0.012934067185469748
leaf_weight=9.4399234205484372 130.77633444964886 60.220040306448936 13.881035044789312 94.249053165316582 26.24406073987484 12.9935977011919
leaf_count=40 681 268 63 431 111 61
internal_value=0.000176156 -0.0168028 -0.0361947 0.0245205 0.0014027 0.0321088
internal_weight=347.804 204.877 144.657 142.927 35.684 107.243
internal_count=1655 1012 744 643 151 492
is_linear=0
shrinkage=0.043602


Tree=21
num_leaves=7
num_cat=0
split_feature=3 3 1 1 3 1
split_gain=77.495 62.278 43.3455 5.84381 5.18913 2.66925
threshold=-0.30478623827923662 0.25581881206798612 0.30947854311611095 -1.1824893960989635 -0.63815817896600258 -1.1423220301370827
decision_type=2 2 2 2 2 2
left_child=3 2 -2 -1 -5 -3
right_child=1 5 -4 4 -6 -7
leaf_value=-0.007567419180338728 -0.039347157363948192 -0.0018374502677710933 0.057420134737682031 0.034093483931121299 0.013264150181028646 0.020621001922955247
leaf_weight=8.5753791779279691 131.50965185463428 11.430971488356588 8.8442783653736097 90.848882973194122 33.100733399391174 59.565877392888069
leaf_count=38 692 46 38 440 142 259
internal_value=0.000173583 -0.0161857 -0.0329837 0.0262587 0.0286695 0.0169431
internal_weight=343.876 211.351 140.354 132.525 123.95 70.9968
internal_count=1655 1035 730 620 582 305
is_linear=0
shrinkage=0.043602


Tree=22
num_leaves=7
num_cat=0
split_feature=3 3 0 3 1 0
split_gain=81.4049 69.444 26.4973 8.89225 5.78507 2.68638
threshold=-0.018499226202336058 0.25581881206798612 -0.029752744833290021 -0.65499468246047576 0.13891523416115767 2.0860543092685444
decision_type=2 2 2 2 2 2
left_child=3 2 -2 5 -5 -1
right_child=1 -3 -4 4 -6 -7
leaf_value=0.033838249501911485 0.016116292002624894 0.012983136743953808 -0.049864759161131846 0.0025991234060100468 0.031027572187927153 0.011261823364327015
leaf_weight=80.367274820804596 12.699386551976202 71.413141787052155 96.61933134496212 52.990237340331078 18.003390699625015 13.238279163837431
leaf_count=394 52 308 553 230 77 64
internal_value=-0.000149894 -0.0203354 -0.0421016 0.0219736 0.0100926 0.0307996
internal_weight=345.331 180.732 109.319 164.599 70.9936 93.6056
internal_count=1678 913 605 765 307 458
is_linear=0
shrinkage=0.043602


Tree=23
num_leaves=7
num_cat=0
split_feature=3 3 2 3 1 1
split_gain=75.4914 65.3623 16.6892 8.3964 5.34421 2.35451
threshold=-0.018499226202336058 0.25581881206798612 -0.17230435125016977 -0.65499468246047576 0.13891523416115767 2.0599833044206073
decision_type=2 2 2 2 2 2
left_child=3 2 -2 5 -5 -1
right_child=1 -3 -4 4 -6 -7
leaf_value=0.032784574539975915 0.010877971462765259 0.01245973899983263 -0.046863054137022388 0.0024876229770730059 0.029865606208190669 0.011576627511580529
leaf_weight=78.998384431004524 10.149163872003554 71.199415594339371 96.53547203540802 52.979433178901672 17.914499893784523 13.380614116787909
leaf_count=393 42 308 563 230 77 65
internal_value=-0.000141701 -0.0197751 -0.0412871 0.0212087 0.00968296 0.0298703
internal_weight=341.157 177.884 106.685 163.273 70.8939 92.379
internal_count=1678 913 605 765 307 458
is_linear=0
shrinkage=0.043602


Tree=24
num_leaves=7
num_cat=0
split_feature=0 1 0 2 0 2
split_gain=67.5961 124.573 8.68961 7.45205 7.37352 2.35433
threshold=-0.11327162482002071 0.24033248378130925 -1.1993938492838723 0.20319114805361407 1.8841088045162462 -0.70064456898456107
decision_type=2 2 2 2 2 2
left_child=2 3 -1 -2 -3 -4
right_child=1 4 5 -5 -6 -7
leaf_value=-0.0030366206479432827 -0.048737838864743532 0.035956986361817267 0.035854669516217963 -0.0038543167814952275 0.0045299120554125466 0.022347034275730135
leaf_weight=20.776894420385361 103.37495572865009 52.68618406355381 42.451368227601051 7.9522055387496939 20.190024241805077 84.906514793634415
leaf_count=88 607 247 199 38 96 381
internal_value=0.000901465 -0.0166915 0.0227936 -0.0456205 0.0274377 0.0270451
internal_weight=332.338 184.203 148.135 111.327 72.8762 127.358
internal_count=1656 988 668 645 343 580
is_linear=0
shrinkage=0.043602


Tree=25
num_leaves=7
num_cat=0
split_feature=3 3 2 3 2 1
split_gain=68.7892 62.2687 15.3752 8.87622 6.12078 2.47753
threshold=-0.018499226202336058 0.25581881206798612 -0.17230435125016977 -0.59606692022981955 -0.10171234294845342 2.0599833044206073
decision_type=2 2 2 2 2 2
left_child=3 2 -2 5 -5 -1
right_child=1 -3 -4 4 -6 -7
leaf_value=0.032630410056047138 0.01076260717321764 0.01311746268721147 -0.046110080341807747 0.020756653160543325 -0.0060212365877715356 0.010978426981921091
leaf_weight=82.352594017982483 9.6356547027826291 69.310767635703087 89.805591881275177 34.839396864175797 29.065618857741356 13.289481520652769
leaf_count=419 40 303 552 149 128 65
internal_value=0.000871713 -0.0184845 -0.0405112 0.0213716 0.00855085 0.0297698
internal_weight=328.299 168.752 99.4412 159.547 63.905 95.6421
internal_count=1656 895 592 761 277 484
is_linear=0
shrinkage=0.043602


Tree=26
num_leaves=7
num_cat=0
split_feature=0 0 3 0 0 3
split_gain=60.2602 109.99 23.8739 9.572 6.91535 1.80088
threshold=-0.11327162482002071 0.19622959128678272 -0.38140150067528639 -1.1762588786414605 1.0390564591032587 -0.24678328999047786
decision_type=2 2 2 2 2 2
left_child=3 2 -2 5 -3 -1
right_child=1 4 -4 -5 -6 -7
leaf_value=0.010762630503593733 0.019361582457907273 0.040329451995012651 -0.050342432936394642 0.026436018877480517 0.012456047902602295 -0.0097045574674281907
leaf_weight=14.202768594026567 9.8593223094940168 32.61954203248024 99.443179786205292 117.98379239439964 37.737497553229332 17.53867843747139
leaf_count=64 47 156 613 548 180 71
internal_value=0.000344513 -0.0166381 -0.0439306 0.0207438 0.0256972 -0.000344381
internal_weight=329.385 179.66 109.303 149.725 70.357 31.7414
internal_count=1679 996 660 683 336 135
is_linear=0
shrinkage=0.043602


Tree=27
num_leaves=7
num_cat=0
split_feature=0 0 2 0 1 2
split_gain=55.8332 103.165 14.0333 8.88431 6.99738 1.56176
threshold=-0.11327162482002071 0.19622959128678272 0.28670754069759813 -1.1762588786414605 1.6604887062463864 -0.80423447183205787
decision_type=2 2 2 2 2 2
left_child=3 2 -2 5 -3 -1
right_child=1 4 -4 -5 -6 -7
leaf_value=0.0070227572638700145 -0.04738748859751403 0.035635714277461365 0.014053120917051024 0.025506246565349267 0.0068494314034595553 -0.012469147948438624
leaf_weight=19.642792314291004 99.348499283194542 42.957384318113327 7.1904983371496192 116.99762883782387 26.823786273598671 12.067846089601515
leaf_count=85 627 207 33 548 129 50
internal_value=0.000333524 -0.0162198 -0.0431315 0.0199833 0.0248073 -0.000320856
internal_weight=325.028 176.32 106.539 148.708 69.7812 31.7106
internal_count=1679 996 660 683 336 135
is_linear=0
shrinkage=0.043602


Tree=28
num_leaves=7
num_cat=0
split_feature=3 3 2 3 2 1
split_gain=53.1699 49.3409 13.2383 7.28394 6.83631 2.84408
threshold=-0.018499226202336058 0.25581881206798612 0.21589389205444073 -0.539945241914909 -0.10171234294845342 -1.1615704062309316
decision_type=2 2 2 2 2 2
left_child=3 2 -2 5 -5 -1
right_child=1 -3 -4 4 -6 -7
leaf_value=0 -0.042861933638147991 0.010081221672439553 0.019294024057317668 0.01904303498893679 -0.011163026874421641 0.026942366449230107
leaf_weight=8.4141295999288541 86.638975664973259 69.197405859827995 6.5650083124637595 29.926805749535561 25.914768978953362 92.857566058635712
leaf_count=40 564 308 33 129 117 483
internal_value=-0.000227947 -0.0177064 -0.0383259 0.0178022 0.00495839 0.0247565
internal_weight=319.515 162.401 93.204 157.113 55.8416 101.272
internal_count=1674 905 597 769 246 523
is_linear=0
shrinkage=0.043602


Tree=29
num_leaves=7
num_cat=0
split_feature=3 3 2 3 2 1
split_gain=49.2418 46.3058 12.5616 6.81421 6.29254 2.66853
threshold=-0.018499226202336058 0.25581881206798612 0.21589389205444073 -0.539945241914909 -0.10171234294845342 -1.1681439082554346
decision_type=2 2 2 2 2 2
left_child=3 2 -2 5 -5 -1
right_child=1 -3 -4 4 -6 -7
leaf_value=-0.00021222604794783332 -0.042008120007124651 0.0096728189530097698 0.018398647231255231 0.018316252564337356 -0.010703313472020535 0.025992872105806454
leaf_weight=7.5583595484495154 84.60345359146595 69.005117297172546 6.6134770661592475 29.785510137677193 25.876923635601997 92.534945547580719
leaf_count=36 564 308 33 129 117 487
internal_value=-0.000219385 -0.0171748 -0.0374732 0.0171857 0.00475767 0.0239699
internal_weight=315.978 160.222 91.2169 155.756 55.6624 100.093
internal_count=1674 905 597 769 246 523
is_linear=0
shrinkage=0.043602


Tree=30
num_leaves=7
num_cat=0
split_feature=3 3 2 3 1 1
split_gain=45.1783 42.9957 15.3868 6.52691 4.52553 2.50313
threshold=-0.018499226202336058 0.25581881206798612 -0.17230435125016977 -0.65499468246047576 0.04542714617033132 1.8751425201907443
decision_type=2 2 2 2 2 2
left_child=3 2 -2 5 -5 -1
right_child=1 -3 -4 4 -6 -7
leaf_value=0.027993112539406027 0.012675622706632387 0.0092051803079337378 -0.042650676546990153 -0.00093313978689650307 0.023648287847325089 0.0076187780110887381
leaf_weight=70.338415056467056 10.38666622340679 69.352592796087265 80.329717978835106 48.116748884320259 19.345469102263451 15.301702767610548
leaf_count=381 43 310 563 216 87 78
internal_value=-0.000358095 -0.0165404 -0.0362122 0.0165229 0.00618606 0.0244982
internal_weight=313.171 160.069 90.7164 153.102 67.4622 85.6401
internal_count=1678 916 606 762 303 459
is_linear=0
shrinkage=0.043602


Tree=31
num_leaves=7
num_cat=0
split_feature=3 3 0 3 0 0
split_gain=41.8627 40.4849 21.2699 6.13606 3.60236 2.6916
threshold=-0.018499226202336058 0.25581881206798612 -0.029752744833290021 -0.65499468246047576 -0.15368797578711715 1.8841088045162462
decision_type=2 2 2 2 2 2
left_child=3 2 -2 5 -5 -1
right_child=1 -3 -4 4 -6 -7
leaf_value=0.027337066606618322 0.015924847640974623 0.0088306211065315547 -0.044190437644827968 0.014941767058321443 -0.0050780238144081018 0.0061020885658256913
leaf_weight=69.716405257582664 12.630533784627913 69.172533959150314 75.921899750828743 37.204389438033104 30.182380557060242 14.873868614435194
leaf_count=383 52 310 554 162 141 76
internal_value=-0.00034414 -0.0160663 -0.0355026 0.0159353 0.00592902 0.0237401
internal_weight=309.702 157.725 88.5524 151.977 67.3868 84.5903
internal_count=1678 916 606 762 303 459
is_linear=0
shrinkage=0.043602


Tree=32
num_leaves=7
num_cat=0
split_feature=3 0 1 0 0 1
split_gain=42.8798 36.3627 47.234 4.95989 4.85561 5.57909
threshold=-0.018499226202336058 -0.029752744833290021 0.26494580737145662 -1.1843074922844514 -1.1993938492838723 -0.32859924016982073
decision_type=2 2 2 2 2 2
left_child=4 3 -3 -2 -1 -6
right_child=1 2 -4 -5 5 -7
leaf_value=-0.0090824624494821316 -0.012687192223715784 -0.049623425762975279 0.022667356206260019 0.01700929785435152 0.029639769194939557 0.011478134637916013
leaf_weight=12.417014405131338 13.107624128460882 73.147719413042068 21.878535330295563 46.617265745997429 54.361260145902634 84.721687138080597
leaf_count=56 53 549 103 207 281 429
internal_value=-6.33041e-05 -0.0161921 -0.0328823 0.0103365 0.016374 0.0187167
internal_weight=306.251 154.751 95.0263 59.7249 151.5 139.083
internal_count=1678 912 652 260 766 710
is_linear=0
shrinkage=0.043602


Tree=33
num_leaves=7
num_cat=0
split_feature=3 3 2 3 2 3
split_gain=39.7541 32.7603 15.3711 4.80916 4.48551 1.38349
threshold=-0.018499226202336058 0.25581881206798612 -0.17230435125016977 -0.99733692018143072 0.0039061022291063188 2.4050398276600276
decision_type=2 2 2 2 2 2
left_child=3 2 -2 -1 -5 -3
right_child=1 5 -4 4 -6 -7
leaf_value=0.029484658545824712 0.01569154140657673 0.0092158519246774255 -0.041098393503427734 0.01765163386848639 -0.00018524393830106865 -0.0061619791571540664
leaf_weight=36.76974630355835 9.8523212969303113 56.469803616404533 72.8992870002985 72.39935177564621 41.363284602761269 12.899090617895125
leaf_count=204 41 255 558 361 201 58
internal_value=-6.48912e-05 -0.0157708 -0.0342039 0.0157696 0.0111521 0.00624782
internal_weight=302.653 152.121 82.7516 150.532 113.763 69.3689
internal_count=1678 912 599 766 562 313
is_linear=0
shrinkage=0.043602


Tree=34
num_leaves=7
num_cat=0
split_feature=3 3 0 3 0 0
split_gain=37.3163 35.0352 20.6287 4.46351 3.50049 1.45167
threshold=-0.018499226202336058 0.25581881206798612 0.17161056304851854 -0.99733692018143072 -0.16621063769946423 -1.0291205858692773
decision_type=2 2 2 2 2 2
left_child=3 2 -2 5 -5 -1
right_child=1 -3 -4 4 -6 -7
leaf_value=0.046892323291254402 -0.039765152249581139 0.0082646491451213479 0.048097566235276036 0.019392875871937186 0.0038312510077219281 0.023737445165048721
leaf_weight=8.430963531136511 74.56365454941988 69.291169360280037 4.8767101094126692 59.337344855070114 53.365372717380524 26.659963831305504
leaf_count=49 563 313 27 290 271 149
internal_value=0.00106486 -0.0143043 -0.0339704 0.0165641 0.0121347 0.0301756
internal_weight=296.525 148.732 79.4404 147.794 112.703 35.0909
internal_count=1662 903 590 759 561 198
is_linear=0
shrinkage=0.043602


Tree=35
num_leaves=7
num_cat=0
split_feature=0 1 0 2 0 1
split_gain=33.5032 80.3463 8.49046 6.88176 5.163 2.09872
threshold=-0.11327162482002071 0.13891523416115767 -1.1762588786414605 -0.16333148369613446 0.16673057966591073 -1.2165190723252584
decision_type=2 2 2 2 2 2
left_child=2 3 5 -2 -3 -1
right_child=1 4 -4 -5 -6 -7
leaf_value=-0.020533805051998363 0.0025740727754353042 -0.012214988509814836 0.022237129202152546 -0.046500107882258522 0.023461303837467421 0.0037712038890392076
leaf_weight=9.1854007542133349 5.5574619472026816 8.1024193540215474 108.73470887541771 74.638277374207973 66.970050945878029 20.496708288788795
leaf_count=40 30 50 541 573 339 89
internal_value=0.00103825 -0.0128227 0.0166143 -0.0430371 0.0194689 -0.00383437
internal_weight=293.685 155.268 138.417 80.1957 75.0725 29.6821
internal_count=1662 992 670 603 389 129
is_linear=0
shrinkage=0.043602


Tree=36
num_leaves=7
num_cat=0
split_feature=0 0 2 0 0 3
split_gain=30.4071 70.7306 14.0279 8.0381 7.10227 3.07848
threshold=-0.063529144055764694 0.19622959128678272 0.28670754069759813 -1.1762588786414605 1.3603244941757706 0.53057577194201166
decision_type=2 2 2 2 2 2
left_child=3 2 -2 -1 -3 -5
right_child=1 4 -4 5 -6 -7
leaf_value=-0.0046010344419027596 -0.045167285090727399 0.033781081738120736 0.021926439799927543 0.024363031179974882 0.0049416067938875992 0.007032417432173416
leaf_weight=31.067454591393471 76.479141622781754 34.250385776162148 5.9398117065429679 84.554131746292114 31.798843145370483 27.375119253993034
leaf_count=135 607 175 28 434 162 126
internal_value=0.000468975 -0.0133054 -0.0401372 0.0148047 0.0201553 0.0202359
internal_weight=291.465 148.468 82.419 142.997 66.0492 111.929
internal_count=1667 972 635 695 337 560
is_linear=0
shrinkage=0.043602


Tree=37
num_leaves=7
num_cat=0
split_feature=0 0 3 0 0 3
split_gain=28.1727 63.9571 16.7531 7.76284 6.64851 3.62519
threshold=-0.11327162482002071 0.19622959128678272 -0.59606692022981955 -1.1762588786414605 1.3603244941757706 0.53057577194201166
decision_type=2 2 2 2 2 2
left_child=3 2 -2 -1 -3 -5
right_child=1 4 -4 5 -6 -7
leaf_value=-0.0043998541015165772 0.020278280368408393 0.032745882372083 -0.044172496322867787 0.024707136567295583 0.0047398495490110762 0.0057787648676466616
leaf_weight=31.099160224199295 8.0412700027227384 33.821823418140411 75.660301595926285 80.881736978888512 31.734813615679741 26.858111098408699
leaf_count=135 41 175 610 420 162 124
internal_value=0.000455102 -0.0126502 -0.037811 0.0145772 0.0194444 0.0200999
internal_weight=288.097 149.258 83.7016 138.839 65.5566 107.74
internal_count=1667 988 651 679 337 544
is_linear=0
shrinkage=0.043602


Tree=38
num_leaves=7
num_cat=0
split_feature=3 0 1 3 1 0
split_gain=29.3422 30.2564 35.2371 5.41126 4.19464 4.04586
threshold=-0.01221936317153262 -0.029752744833290021 0.26494580737145662 -0.65499468246047576 0.030054562088371695 -1.1843074922844514
decision_type=2 2 2 2 2 2
left_child=3 5 -3 -1 -5 -2
right_child=1 2 -4 4 -6 -7
leaf_value=0.022302268836282724 -0.010267792855313118 -0.047459259055543324 0.017257576680249895 -0.0018347798286323335 0.02202329135436136 0.016412492209541534
leaf_weight=77.416546985507011 13.372973486781119 60.391981229186058 21.161419406533241 46.809117197990417 19.117485538125038 45.51051427423954
leaf_count=452 54 539 103 218 88 206
internal_value=0.000639382 -0.0134749 -0.0305956 0.0145045 0.0051415 0.010216
internal_weight=283.78 140.437 81.5534 143.343 65.9266 58.8835
internal_count=1660 902 642 758 306 260
is_linear=0
shrinkage=0.043602


Tree=39
num_leaves=7
num_cat=0
split_feature=2 2 3 1 3 2
split_gain=28.1743 39.2855 16.1111 9.20384 3.53935 3.4091
threshold=-0.17230435125016977 0.2770476367951531 -0.57361824890385538 -1.1389081672072303 0.53057577194201166 -0.84240944547368701
decision_type=2 2 2 2 2 2
left_child=3 2 -2 5 -5 -1
right_child=1 -3 -4 4 -6 -7
leaf_value=-0.020749809659061695 0.014895371439121318 0.018105268141125661 -0.034702145820007142 0.026860451151130938 0.0025508049624305123 0.0071165108289097407
leaf_weight=12.544204860925673 13.979804947972296 53.887349933385849 87.219216145575047 76.85555425286293 14.112501710653303 21.905587509274483
leaf_count=58 74 267 675 424 68 94
internal_value=0.000615382 -0.0117706 -0.0277471 0.0159579 0.0231926 -0.00306045
internal_weight=280.504 155.086 101.199 125.418 90.9681 34.4498
internal_count=1660 1016 749 644 492 152
is_linear=0
shrinkage=0.043602


Tree=40
num_leaves=7
num_cat=0
split_feature=0 1 2 1 1 2
split_gain=25.0631 58.9524 6.88032 6.36001 6.17089 3.40348
threshold=-0.11327162482002071 0.13891523416115767 -0.16756130542052391 1.6604887062463864 -1.1147060580960211 -0.84240944547368701
decision_type=2 2 2 2 2 2
left_child=4 2 -2 -3 5 -1
right_child=1 3 -4 -5 -6 -7
leaf_value=-0.015478888200181347 0.0054164405621195582 0.024230672755973834 -0.044238954922987114 -0.0025384824121865443 0.019711349693094887 0.0091062546522195087
leaf_weight=16.31556898355484 5.4092508852481833 47.867201469838619 66.372064553201199 25.169418901205063 93.859698906540871 28.468740537762642
leaf_count=78 29 263 583 131 484 127
internal_value=0.000153019 -0.0124868 -0.0404061 0.0149869 0.0133923 0
internal_weight=283.462 144.818 71.7813 73.0366 138.644 44.7843
internal_count=1695 1006 612 394 689 205
is_linear=0
shrinkage=0.043602


Tree=41
num_leaves=7
num_cat=0
split_feature=0 1 3 1 1 0
split_gain=23.1851 55.3771 12.9426 5.89405 5.72771 2.82361
threshold=-0.11327162482002071 0.13891523416115767 -0.59606692022981955 1.6604887062463864 -1.1147060580960211 -0.66147190380721332
decision_type=2 2 2 2 2 2
left_child=4 2 -2 -3 -1 -6
right_child=1 3 -4 -5 5 -7
leaf_value=0 0.014550665468616848 0.023358239562957062 -0.045969216602089448 -0.0024278319993635265 0.028457302941465035 0.012443859708337132
leaf_weight=44.803019776940346 7.0742219835519782 47.521031424403191 62.857247471809387 25.196807250380516 36.978230834007263 56.150131702423096
leaf_count=205 37 263 575 131 196 288
internal_value=0.000143087 -0.0121358 -0.0396942 0.0144029 0.0128794 0.019008
internal_weight=280.581 142.649 69.9315 72.7178 137.931 93.1284
internal_count=1695 1006 612 394 689 484
is_linear=0
shrinkage=0.043602


Tree=42
num_leaves=7
num_cat=0
split_feature=3 2 2 1 1 1
split_gain=21.5657 17.309 33.7155 4.84612 2.05601 1.93977
threshold=-0.59606692022981955 0.28670754069759813 -0.17230435125016977 1.2298472828819451 1.8751425201907443 -1.1615704062309316
decision_type=2 2 2 2 2 2
left_child=4 2 -2 -3 5 -1
right_child=1 3 -4 -5 -6 -7
leaf_value=0 0.0069340588812168849 0.025759099781706596 -0.033920103036290748 -0.0094710877918532388 0.0029119872185629178 0.02420922820237946
leaf_weight=7.2276168316602698 70.968886524438858 29.807273760437965 82.147198863327503 9.1871566325426084 14.49745289981365 59.073258489370346
leaf_count=36 323 139 675 42 79 372
internal_value=-0.000410433 -0.0083777 -0.0149968 0.0173005 0.0183842 0.021626
internal_weight=272.909 192.111 153.116 38.9944 80.7983 66.3009
internal_count=1666 1179 998 181 487 408
is_linear=0
shrinkage=0.043602


Tree=43
num_leaves=7
num_cat=0
split_feature=3 0 0 2 0 0
split_gain=19.9629 19.7217 43.1066 5.23508 2.58607 2.31909
threshold=-0.59606692022981955 -0.12790077522237023 0.19622959128678272 -0.84240944547368701 1.8841088045162462 -1.1943702513851611
decision_type=2 2 2 2 2 2
left_child=4 3 -3 -2 5 -1
right_child=1 2 -4 -5 -6 -7
leaf_value=-0.0017753122209041212 -0.020797759959358699 -0.041263218913209034 0.018701018980184021 0.010750271744031438 0.00017082101575744305 0.024099807856951844
leaf_weight=6.8628006726503363 10.76164688169956 67.401939548552036 33.681602403521538 78.57837963104248 13.77220882475376 59.292503640055656
leaf_count=34 47 618 161 353 75 378
internal_value=-0.000393097 -0.00808791 -0.0212361 0.00677096 0.0177915 0.021341
internal_weight=270.351 190.424 101.084 89.34 79.9275 66.1553
internal_count=1666 1179 779 400 487 412
is_linear=0
shrinkage=0.043602


Tree=44
num_leaves=7
num_cat=0
split_feature=3 0 0 0 3 0
split_gain=17.6112 20.3347 28.614 5.03004 4.08289 2.89392
threshold=-0.018499226202336058 -0.029752744833290021 0.19622959128678272 -1.1843074922844514 -0.65499468246047576 0.12040676723349342
decision_type=2 2 2 2 2 2
left_child=4 3 -3 -2 -1 -6
right_child=1 2 -4 -5 5 -7
leaf_value=0.017532358423743632 -0.015403554699481747 -0.04316198454633912 0.0183388251625312 0.014692493754609992 -0.0028616004789088693 0.01849760180023385
leaf_weight=74.188275307416916 13.105656281113623 53.595746278762817 19.027314111590385 44.112834826111794 48.015725269913673 15.324968889355658
leaf_count=458 53 559 95 204 231 71
internal_value=-0.000207111 -0.0117155 -0.0269541 0.00761178 0.0106217 0.00234912
internal_weight=267.371 129.842 72.6231 57.2185 137.529 63.3407
internal_count=1671 911 654 257 760 302
is_linear=0
shrinkage=0.043602


Tree=45
num_leaves=7
num_cat=0
split_feature=3 3 2 3 2 1
split_gain=16.3162 17.6988 17.6407 3.93548 3.39348 1.49854
threshold=-0.018499226202336058 0.25581881206798612 0.28670754069759813 -0.99733692018143072 1.5057215298517133 2.0599833044206073
decision_type=2 2 2 2 2 2
left_child=3 2 -2 5 -5 -1
right_child=1 -3 -4 4 -6 -7
leaf_value=0.028573101000379519 -0.034257829897870087 0.004416131948862442 0.052399491238362253 0.0034978770401454585 0.030970357872122718 0.0039438049847150113
leaf_weight=24.757752940058712 58.361064687371254 65.339829638600349 4.236618995666503 96.362588837742805 8.8939584046602231 6.7012905776500693
leaf_count=162 583 309 19 518 43 37
internal_value=-0.000201608 -0.0113851 -0.0278474 0.0102276 0.00603989 0.0236776
internal_weight=264.653 127.938 62.5977 136.716 105.257 31.459
internal_count=1671 911 602 760 561 199
is_linear=0
shrinkage=0.043602


Tree=46
num_leaves=7
num_cat=0
split_feature=0 0 2 0 0 0
split_gain=20.4311 39.101 13.2899 7.34385 4.26463 2.64431
threshold=-0.11327162482002071 0.19622959128678272 0.65213759616914413 1.8841088045162462 -1.1762588786414605 -0.66147190380721332
decision_type=2 2 2 2 2 2
left_child=4 2 -2 -3 -1 -6
right_child=1 3 -4 -5 5 -7
leaf_value=-0.0018117940092866464 -0.039475276014156263 0.023139397909281198 0.032669927803523763 -0.0094145239782238224 0.023896874941369824 0.0094100199201996668
leaf_weight=30.197282820940018 64.504442721605301 42.940628796815872 4.7010047882795325 18.192005127668381 49.557147935032845 51.820851638913155
leaf_count=131 637 239 22 96 268 272
internal_value=0.000269219 -0.0119162 -0.0342479 0.0133649 0.0123813 0.0166486
internal_weight=261.913 130.338 69.2054 61.1326 131.575 101.378
internal_count=1665 994 659 335 671 540
is_linear=0
shrinkage=0.043602


Tree=47
num_leaves=7
num_cat=0
split_feature=0 0 3 0 0 0
split_gain=18.891 36.5655 13.656 6.84109 3.95584 2.48118
threshold=-0.11327162482002071 0.19622959128678272 -0.38140150067528639 0.9806152172752991 -1.1762588786414605 -0.66147190380721332
decision_type=2 2 2 2 2 2
left_child=4 2 -2 -3 -1 -6
right_child=1 3 -4 -5 5 -7
leaf_value=-0.0017337232053253296 0.01240914378656117 0.029717485324327796 -0.04160825430676892 0.00013216199162862887 0.023126035152531296 0.0090370498565723306
leaf_weight=30.208878964185715 10.032231241464613 25.606767028570175 57.685802109539509 35.166871920228004 49.009235635399818 51.636659890413284
leaf_count=131 52 147 607 188 268 272
internal_value=0.00026148 -0.011564 -0.0334845 0.0128629 0.0119153 0.0160523
internal_weight=259.346 128.492 67.718 60.7736 130.855 100.646
internal_count=1665 994 659 335 671 540
is_linear=0
shrinkage=0.043602


Tree=48
num_leaves=7
num_cat=0
split_feature=3 0 1 3 0 1
split_gain=15.0952 15.8131 33.059 2.83847 1.68259 2.18575
threshold=-0.59606692022981955 -0.15368797578711715 0.26494580737145662 -0.45295664052679752 1.8841088045162462 -1.170940370442654
decision_type=2 2 2 2 2 2
left_child=4 3 -3 -2 5 -1
right_child=1 2 -4 -5 -6 -7
leaf_value=-0.0038407022376709937 -0.016678665374070166 -0.038581230581499024 0.014701781658484049 0.009000565661335844 0.0012354880117530604 0.021601267564381701
leaf_weight=6.6389605849981299 8.4410830587148649 60.866579137742519 33.985569626092911 76.945941567420959 13.312922209501265 56.071263611316681
leaf_count=33 40 624 167 347 73 376
internal_value=-0.000356019 -0.00724851 -0.0194604 0.00629531 0.0158389 0.018809
internal_weight=256.262 180.239 94.8521 85.387 76.0231 62.7102
internal_count=1660 1178 791 387 482 409
is_linear=0
shrinkage=0.043602


Tree=49
num_leaves=7
num_cat=0
split_feature=3 2 2 1 1 3
split_gain=13.9692 11.8862 23 7.18543 1.21762 3.94943
threshold=-0.59606692022981955 0.28670754069759813 -0.17230435125016977 1.2298472828819451 1.0043485898358697 -0.8850935635516094
decision_type=2 2 2 2 2 2
left_child=4 2 -2 -3 -1 -6
right_child=1 3 -4 -5 5 -7
leaf_value=0.018544645158388131 0.0049468534938034133 0.025003813391835973 -0.030158479982081023 -0.018248621807566135 0.01959819168672311 -0.020543735162674097
leaf_weight=56.353404760360718 69.2987140417099 28.894534811377525 71.280094683170319 9.0512413531541807 12.320274025201799 6.5976324528455725
leaf_count=372 321 138 677 42 71 39
internal_value=-0.000346151 -0.00700837 -0.0128684 0.0144152 0.0153099 0.00510671
internal_weight=253.796 178.525 140.579 37.9458 75.2713 18.9179
internal_count=1660 1178 998 180 482 110
is_linear=0
shrinkage=0.043602


Tree=50
num_leaves=7
num_cat=0
split_feature=2 2 1 0 2 0
split_gain=13.11 22.5581 11.3178 5.36178 5.1628 1.52016
threshold=-0.17230435125016977 0.084174535953884119 0.13891523416115767 -1.2583857687658069 1.1395746697575098 1.3603244941757706
decision_type=2 2 2 2 2 2
left_child=3 2 -2 -1 -3 -5
right_child=1 4 -4 5 -6 -7
leaf_value=-0.024070628189028224 -0.036589467147920537 -0.0014358304131335921 0.018015439366326751 0.014159345499719334 0.023171653296457883 -0.0026366578028096015
leaf_weight=7.5010513961315146 52.577181152999401 48.36848308891058 7.8198134824633589 101.58567151427269 23.432249084115028 10.583006113767622
leaf_count=33 560 291 45 560 122 59
internal_value=-0.000337791 -0.00980178 -0.0293172 0.0100675 0.00664835 0.0125197
internal_weight=251.867 132.198 60.397 119.67 71.8007 112.169
internal_count=1670 1018 605 652 413 619
is_linear=0
shrinkage=0.043602


Tree=51
num_leaves=7
num_cat=0
split_feature=2 2 3 1 2 3
split_gain=12.0785 21.076 10.9778 4.83571 4.78588 1.7541
threshold=-0.17230435125016977 0.084174535953884119 -0.15128900363741807 -1.2165190723252584 1.1395746697575098 -0.65499468246047576
decision_type=2 2 2 2 2 2
left_child=3 2 -2 -1 -3 -5
right_child=1 4 -4 5 -6 -7
leaf_value=-0.019585757983602868 0.00571635774397316 -0.0013737469799258595 -0.038579438452380467 0.019132654588826143 0.022382495464002557 0.0075576491186414678
leaf_weight=9.1927968859672529 13.32371102273464 48.378018043935299 45.96335281431675 43.431887924671173 23.227248892188072 66.461512386798859
leaf_count=40 74 291 531 295 122 317
internal_value=-0.000328449 -0.00947032 -0.0285762 0.00967044 0.00638193 0.0122644
internal_weight=249.979 130.892 59.2871 119.086 71.6053 109.893
internal_count=1670 1018 605 652 413 612
is_linear=0
shrinkage=0.043602


Tree=52
num_leaves=7
num_cat=0
split_feature=3 0 1 3 3 3
split_gain=10.979 13.3898 20.2504 3.0644 3.28466 3.08231
threshold=-0.018499226202336058 -0.029752744833290021 0.26494580737145662 -0.99733692018143072 -0.10132648598272849 -1.1544776194631805
decision_type=2 2 2 2 2 2
left_child=3 -2 -3 5 -5 -1
right_child=1 2 -4 4 -6 -7
leaf_value=0.0009368445497762311 0.0050541400557581823 -0.041759677281488966 0.011690169353590997 0.0018941824341331679 0.030136451992376658 0.030342028358233658
leaf_weight=10.914474233984949 55.64259997010231 40.688977591693401 19.454255789518356 94.18744358420372 7.9995864555239669 19.374339923262596
leaf_count=76 254 537 101 524 40 129
internal_value=-0.000465548 -0.0102655 -0.0244366 0.00806605 0.00432795 0.0201573
internal_weight=248.262 115.786 60.1432 132.476 102.187 30.2888
internal_count=1661 892 638 769 564 205
is_linear=0
shrinkage=0.043602


Tree=53
num_leaves=7
num_cat=0
split_feature=3 0 0 2 2 2
split_gain=10.1653 12.6005 18.4828 4.07497 3.75167 6.32289
threshold=-0.018499226202336058 -0.029752744833290021 0.19622959128678272 -0.042369260538924036 1.3297668910024962 0.014382432929512879
decision_type=2 2 2 2 2 2
left_child=4 3 -3 -2 5 -1
right_child=1 2 -4 -5 -6 -7
leaf_value=0.011418631303786198 -0.0022966295564522689 -0.040012954788019944 0.012354097410219131 0.023773151315358069 0.032028043707009707 -0.010931124815649625
leaf_weight=89.383469395339489 40.533575490117073 40.800886452198029 17.998663440346718 15.033380225300787 10.5887064486742 32.068989396095276
leaf_count=528 185 544 94 69 57 184
internal_value=-0.000442137 -0.00995064 -0.0239285 0.00484286 0.00775985 0.00544625
internal_weight=246.408 114.367 58.7995 55.567 132.041 121.452
internal_count=1661 892 638 254 769 712
is_linear=0
shrinkage=0.043602


Tree=54
num_leaves=7
num_cat=0
split_feature=0 1 2 1 1 2
split_gain=9.9217 32.3483 5.91332 5.45907 4.89422 2.3321
threshold=-0.11327162482002071 0.13891523416115767 0.28670754069759813 -1.2268696141870448 1.2298472828819451 -0.87197088049927485
decision_type=2 2 2 2 2 2
left_child=3 2 -2 -1 -3 -5
right_child=1 4 -4 5 -6 -7
leaf_value=-0.026085475048275891 -0.038397922805390096 0.022888444449454013 0.017577841721914626 0.036899430640293739 -0.00066752176131164547 0.009880319124034101
leaf_weight=7.1699164807796469 47.170868828892708 34.592795327305794 3.387686386704444 6.1066847443580619 31.099510207772255 114.72883313894272
leaf_count=31 583 216 15 40 169 606
internal_value=0.000836754 -0.00833629 -0.0343709 0.00921057 0.0117515 0.0114734
internal_weight=244.256 116.251 50.5586 128.005 65.6923 120.836
internal_count=1660 983 598 677 385 646
is_linear=0
shrinkage=0.043602


Tree=55
num_leaves=7
num_cat=0
split_feature=0 1 1 0 3 3
split_gain=9.16723 33.4831 4.95736 4.33671 3.48679 2.73353
threshold=-0.063529144055764694 0.04542714617033132 -1.2268696141870448 0.16673057966591073 -0.68866768944942214 -0.65499468246047576
decision_type=2 2 2 2 2 2
left_child=2 4 -1 -3 -2 -4
right_child=1 3 5 -5 -6 -7
leaf_value=-0.024920861966634456 0.0083599869921420385 -0.01040715748173382 0.021078357094350728 0.013590805150847401 -0.046631214126289164 0.0065180155593744394
leaf_weight=7.2059873789548865 1.9790960997343052 18.124668970704079 34.898478113114834 58.469663642346859 33.029748655855656 88.643607825040817
leaf_count=31 11 162 250 334 459 413
internal_value=0.000806656 -0.00832193 0.00864328 0.00780225 -0.0432753 0.0107607
internal_weight=242.351 111.603 130.748 76.5943 35.0088 123.542
internal_count=1660 966 694 496 470 663
is_linear=0
shrinkage=0.043602


Tree=56
num_leaves=7
num_cat=0
split_feature=3 2 2 1 1 3
split_gain=8.05651 7.57783 15.8245 4.68515 1.70069 3.36164
threshold=-0.59606692022981955 0.24026102461092583 -0.17230435125016977 0.86487347228514866 1.0043485898358697 -0.8850935635516094
decision_type=2 2 2 2 2 2
left_child=4 2 -2 -3 -1 -6
right_child=1 3 -4 -5 5 -7
leaf_value=0.016088381230008355 0.0037512990514021144 0.021534006890070668 -0.026294282901497268 -0.010463383247933876 0.014623852647212519 -0.021935949699476674
leaf_weight=52.555806539952755 70.784789070487022 26.797855153679848 61.681052777916193 12.026013836264609 12.046986550092699 7.043256700038909
leaf_count=367 333 133 666 59 72 42
internal_value=-0.000116904 -0.00527413 -0.0102549 0.0114733 0.0120755 0.000587576
internal_weight=242.936 171.29 132.466 38.8239 71.646 19.0902
internal_count=1672 1191 999 192 481 114
is_linear=0
shrinkage=0.043602


Tree=57
num_leaves=7
num_cat=0
split_feature=0 1 1 0 2 0
split_gain=7.80415 28.6167 5.39127 3.47435 3.39706 2.92473
threshold=-0.12790077522237023 0.04542714617033132 -1.2268696141870448 1.8841088045162462 -0.87022150497964146 -0.063529144055764694
decision_type=2 2 2 2 2 2
left_child=2 5 -1 -3 -4 -2
right_child=1 3 4 -5 -6 -7
leaf_value=-0.027082738977417656 -0.0039688563042225566 0.012010427748380114 0.038365158404782322 -0.0093334498476523135 0.0076489719409350287 -0.043540334386115931
leaf_weight=7.4454261213541022 4.4634051471948615 58.960856892168522 6.8631127253174773 18.361251652240753 112.07925330847502 33.274958100169897
leaf_count=32 23 404 46 99 597 471
internal_value=-0.000111135 -0.00832601 0.007328 0.00683687 0.00965804 -0.0391448
internal_weight=241.448 115.06 126.388 77.3221 118.942 37.7384
internal_count=1672 997 675 503 643 494
is_linear=0
shrinkage=0.043602


Tree=58
num_leaves=7
num_cat=0
split_feature=0 1 3 1 3 1
split_gain=8.83129 26.2983 5.47858 5.01137 3.57606 3.09123
threshold=-0.12790077522237023 0.04542714617033132 -0.68866768944942214 -1.2268696141870448 -0.65499468246047576 1.6604887062463864
decision_type=2 2 2 2 2 2
left_child=3 2 -2 -1 -5 -3
right_child=1 5 -4 4 -6 -7
leaf_value=-0.023840371620573928 0.01208682771851376 0.011575070004946387 -0.044028022063737106 0.022692126211849604 0.0054495967567703115 -0.0070715252127089463
leaf_weight=8.1446825861930829 3.2345994710922232 52.641121424734592 33.599281396716833 31.61595693230629 85.60142208635807 23.873303174972534
leaf_count=35 19 372 480 236 402 129
internal_value=-5.54061e-05 -0.00887277 -0.0388334 0.00787742 0.0102425 0.00567517
internal_weight=238.71 113.348 36.8339 125.362 117.217 76.5144
internal_count=1673 1000 499 673 638 501
is_linear=0
shrinkage=0.043602


Tree=59
num_leaves=7
num_cat=0
split_feature=0 1 3 1 3 0
split_gain=8.15505 24.8629 5.26152 4.6135 3.36961 2.94914
threshold=-0.12790077522237023 0.04542714617033132 -0.68866768944942214 -1.2268696141870448 -0.65499468246047576 0.16673057966591073
decision_type=2 2 2 2 2 2
left_child=3 2 -2 -1 -5 -3
right_child=1 5 -4 4 -6 -7
leaf_value=-0.022782750240800204 0.01171128592623461 -0.0095645895637253599 -0.043504171718609735 0.022057407785961932 0.0052227876636181739 0.010225880386665047
leaf_weight=8.1792426109313947 3.2131907045841208 18.09472494199872 32.551927950233221 31.136210583150387 85.454681813716888 58.361848592758179
leaf_count=35 19 165 480 236 402 336
internal_value=-5.68641e-05 -0.00858357 -0.0382758 0.00757263 0.00985903 0.00543084
internal_weight=236.992 112.222 35.7651 124.77 116.591 76.4566
internal_count=1673 1000 499 673 638 501
is_linear=0
shrinkage=0.043602


Tree=60
num_leaves=7
num_cat=0
split_feature=2 2 1 1 2 2
split_gain=5.89833 14.962 9.26265 4.74858 3.12267 1.8872
threshold=-0.17230435125016977 0.084174535953884119 0.086150747449581844 -1.2268696141870448 1.0926635416278192 -0.84240944547368701
decision_type=2 2 2 2 2 2
left_child=3 2 -2 -1 -3 -5
right_child=1 4 -4 5 -6 -7
leaf_value=-0.024484141186364258 -0.033786974299278051 -8.0962361356019355e-05 0.014442447279955179 -0.0035998301605089395 0.01895710155306557 0.012374742994099632
leaf_weight=7.5176186859607688 39.602239962667227 47.160624876618385 8.7734186723828298 15.717385470867155 24.011317081749439 91.098094590008259
leaf_count=32 527 292 60 96 130 522
internal_value=0.000450156 -0.00628039 -0.0248547 0.00753179 0.00637331 0.00996534
internal_weight=233.881 119.548 48.3757 114.333 71.1719 106.815
internal_count=1659 1009 587 650 422 618
is_linear=0
shrinkage=0.043602


Tree=61
num_leaves=7
num_cat=0
split_feature=3 1 1 2 3 1
split_gain=5.60742 4.78138 12.9812 6.90608 1.53231 1.20552
threshold=-0.99733692018143072 -0.19529212824360517 0.04542714617033132 -0.84240944547368701 -1.0506525145805958 -0.5557682939051265
decision_type=2 2 2 2 2 2
left_child=4 3 -3 -2 5 -1
right_child=1 2 -4 -5 -6 -7
leaf_value=0.026255256800263287 -0.02091003865510109 -0.025993301698691906 0.00430857027064849 0.010260556961169866 0.034092113815791865 0.0029388991379152847
leaf_weight=6.0552716404199645 15.564043894410132 45.333132427185774 63.812815558165312 79.721574932336807 8.2385047078132612 13.770730458199978
leaf_count=50 77 553 417 410 59 93
internal_value=0.000428045 -0.00207478 -0.00830261 0.00500875 0.0185024 0.0109133
internal_weight=232.496 204.432 109.146 95.2856 28.0645 19.826
internal_count=1659 1457 970 487 202 143
is_linear=0
shrinkage=0.043602


Tree=62
num_leaves=7
num_cat=0
split_feature=3 3 1 3 2 1
split_gain=6.71309 7.18146 15.5824 2.59239 2.55078 1.95733
threshold=-0.018499226202336058 0.25581881206798612 0.37462260999608837 -0.10132648598272849 0.014382432929512879 0.51869121944219232
decision_type=2 2 2 2 2 2
left_child=3 2 -2 4 -1 -3
right_child=1 5 -4 -5 -6 -7
leaf_value=0.0097073536265355094 -0.029011025891671777 0.0055657714140817252 0.055035623774344802 0.031997408423888853 -0.0040273677021292224 -0.013893760829338429
leaf_weight=81.166815057396889 41.460472580045462 51.03472788631916 4.0424935072660437 6.9613190218806258 36.398684166371822 11.439568921923636
leaf_count=504 590 247 17 37 217 64
internal_value=0.000185686 -0.00772263 -0.0207827 0.00709158 0.00540932 0.00181289
internal_weight=232.504 107.977 45.503 124.527 117.565 62.4743
internal_count=1676 918 607 758 721 311
is_linear=0
shrinkage=0.043602


Tree=63
num_leaves=7
num_cat=0
split_feature=3 0 1 3 0 3
split_gain=6.17431 10.1486 16.1768 2.38888 2.36448 2.35893
threshold=-0.018499226202336058 -0.029752744833290021 0.26494580737145662 -0.10132648598272849 -1.1843074922844514 -0.58203650065109191
decision_type=2 2 2 2 2 2
left_child=3 4 -3 5 -2 -1
right_child=1 2 -4 -5 -6 -7
leaf_value=0.010135460417398835 -0.0099832087233964386 -0.040237619529905247 0.0093353076603922593 0.030727888247900383 0.010507978165271133 -0.0024069207448554515
leaf_weight=71.299440152943134 13.477186769247053 31.859458658844233 19.784167468547821 6.9586089625954619 42.189232930541039 45.898394614458084
leaf_count=492 55 554 105 37 204 229
internal_value=0.000183324 -0.00742904 -0.0212556 0.00681144 0.00539297 0.00518965
internal_weight=231.466 107.31 51.6436 124.156 55.6664 117.198
internal_count=1676 918 659 758 259 721
is_linear=0
shrinkage=0.043602


Tree=64
num_leaves=7
num_cat=0
split_feature=0 1 1 1 2 0
split_gain=5.44834 20.1189 4.87594 3.50933 3.25788 2.52729
threshold=-0.11327162482002071 0.04542714617033132 1.6604887062463864 -1.1147060580960211 -0.84240944547368701 -0.063529144055764694
decision_type=2 2 2 2 2 2
left_child=3 5 -3 4 -1 -2
right_child=1 2 -4 -5 -6 -7
leaf_value=-0.02043292889304469 0 0.011783350760741045 -0.011998887838279149 0.011037125600509052 0.0045583609195606863 -0.041399880068493627
leaf_weight=14.815621525049208 3.3426625430583981 52.345220603048801 22.974595949053764 81.108960755169392 26.650063201785088 27.309627924114466
leaf_count=75 18 375 126 471 125 470
internal_value=-0.000449804 -0.00768878 0.00441728 0.0057709 -0.00440929 -0.0371097
internal_weight=228.547 105.972 75.3198 122.575 41.4657 30.6523
internal_count=1660 989 501 671 200 488
is_linear=0
shrinkage=0.043602


Tree=65
num_leaves=7
num_cat=0
split_feature=2 2 3 1 2 2
split_gain=4.39553 9.17267 5.75022 3.53471 3.06908 8.2636
threshold=-0.25581374239663135 0.088266331333645018 -0.16533303916288047 -0.32859924016982073 -0.83857068108657051 -0.87022150497964146
decision_type=2 2 2 2 2 2
left_child=4 2 -2 -3 5 -1
right_child=1 3 -4 -5 -6 -7
leaf_value=0.02260569830566192 0.0019975355339701575 0.031216861441325034 -0.028534027522831535 0.00073826441719302555 0.009999633472798421 -0.031071890747168037
leaf_weight=8.7925519347190875 16.269288793206215 7.630247399210929 37.94169607013464 62.494856528937817 82.056593015789986 12.238260880112646
leaf_count=57 95 41 546 382 476 63
internal_value=-0.000439715 -0.00596843 -0.0193514 0.00437824 0.00617095 -0.0083697
internal_weight=227.423 124.336 54.211 70.1251 103.087 21.0308
internal_count=1660 1064 641 423 596 120
is_linear=0
shrinkage=0.043602


Tree=66
num_leaves=7
num_cat=0
split_feature=3 0 1 0 0 0
split_gain=5.24067 6.0967 18.9745 4.63185 2.04331 2.59633
threshold=-0.30478623827923662 -0.043237287034241234 0.26494580737145662 -1.1428567428885026 -1.213658229497957 1.8841088045162462
decision_type=2 2 2 2 2 2
left_child=4 3 -3 -2 -1 -6
right_child=1 2 -4 -5 5 -7
leaf_value=-0.013663121576649527 -0.012691127837097416 -0.037116105904855347 0.012474237049512244 0.010587445630003285 0.012536656683354828 -0.0066776997503198605
leaf_weight=7.3976796865463248 24.077657207846642 34.251559484750032 24.677239075303078 46.499475494027138 74.589613780379295 15.440841495990751
leaf_count=34 105 585 127 223 504 86
internal_value=-0.000295689 -0.00605411 -0.016343 0.00252654 0.00729199 0.00915692
internal_weight=226.934 129.506 58.9288 70.5771 97.4281 90.0305
internal_count=1664 1040 712 328 624 590
is_linear=0
shrinkage=0.043602


Tree=67
num_leaves=7
num_cat=0
split_feature=3 2 1 1 2 2
split_gain=4.82785 7.50502 9.34414 4.0643 2.16639 8.49597
threshold=-0.30478623827923662 0.28670754069759813 -0.13176867283218965 0.86487347228514866 1.2444727953794468 0.43191472248917456
decision_type=2 2 2 2 2 2
left_child=4 2 -2 -3 5 -1
right_child=1 3 -4 -5 -6 -7
leaf_value=0.0089158371611342425 -0.0015363143384431873 0.02312758148267691 -0.02962161399921873 -0.010304572083288355 0.02795823556294344 -0.039443516593696389
leaf_weight=82.028885461390018 62.704848952591419 21.274473980069164 34.990618482232094 9.4032021015882474 8.0640025138854963 6.894443951547145
leaf_count=530 352 106 534 48 49 45
internal_value=-0.000291232 -0.00585005 -0.0117755 0.0127019 0.00700007 0.0048566
internal_weight=225.36 128.373 97.6955 30.6777 96.9873 88.9233
internal_count=1664 1040 886 154 624 575
is_linear=0
shrinkage=0.043602


Tree=68
num_leaves=7
num_cat=0
split_feature=0 0 1 1 3 1
split_gain=4.03952 16.8096 7.86376 7.36191 3.69407 2.63255
threshold=0.19622959128678272 -0.029752744833290021 1.6604887062463864 0.04542714617033132 -0.8850935635516094 0.51869121944219232
decision_type=2 2 2 2 2 2
left_child=1 -1 5 -3 -4 -2
right_child=2 3 4 -5 -6 -7
leaf_value=0.0037744941796755151 0.043046001220357392 -0.043710193435367875 0.0087385784950687467 -0.0060084946274104869 -0.025166228172926547 0.014512317176061542
leaf_weight=128.04951683431864 8.7566868364810926 23.553501427173615 10.49074523150921 17.630322020500898 12.739137127995489 24.661083936691284
leaf_count=709 56 465 63 166 65 150
internal_value=-0.000609875 -0.00400761 0.00937726 -0.0280326 -0.00979365 0.0228019
internal_weight=225.881 169.233 56.6477 41.1838 23.2299 33.4178
internal_count=1674 1340 334 631 128 206
is_linear=0
shrinkage=0.043602


Tree=69
num_leaves=7
num_cat=0
split_feature=2 2 1 3 2 3
split_gain=5.18546 7.70455 9.30952 5.33221 2.94553 2.62522
threshold=0.65213759616914413 -0.17230435125016977 -0.34070935516673978 1.3934465760337631 -0.78394735547185312 -0.10869322697552662
decision_type=2 2 2 2 2 2
left_child=1 4 -3 5 -1 -2
right_child=3 2 -4 -5 -6 -7
leaf_value=-0.006080401512758302 0.010082347716438178 0.016650777668736384 -0.021020016189389184 -0.016839829454858728 0.0088370208287371008 0.038551925442869117
leaf_weight=36.65726612508297 14.311054624617102 14.791538901627062 64.063921172171831 7.1855299472808829 75.390906974673271 12.235393688082693
leaf_count=202 85 73 763 39 452 60
internal_value=-0.000586675 -0.00340662 -0.0138091 0.014984 0.00390087 0.0239903
internal_weight=224.636 190.904 78.8555 33.732 112.048 26.5464
internal_count=1674 1490 836 184 654 145
is_linear=0
shrinkage=0.043602


Tree=70
num_leaves=7
num_cat=0
split_feature=3 0 1 3 3 3
split_gain=4.96034 5.70468 17.9946 2.39393 1.32924 0.812722
threshold=-0.65499468246047576 -0.15368797578711715 0.030054562088371695 -0.48943573143148944 -1.1544776194631805 -1.00715821388654
decision_type=2 2 2 2 2 2
left_child=4 3 -3 -2 -1 -6
right_child=1 2 -4 -5 5 -7
leaf_value=-0.0029790382774562973 -0.016316907160943167 -0.041647571803195699 0.0034078645708052724 0.0068161204594378057 0.022083266075544155 0.0096205104752775366
leaf_weight=10.06472274661064 8.8584592342376691 25.190852019935846 47.753316447138786 76.0862135887146 16.163706436753273 37.475192852318287
leaf_count=78 48 465 339 356 120 261
internal_value=0.000735041 -0.00338451 -0.012297 0.00423785 0.0109655 0.0136883
internal_weight=221.592 157.889 72.9442 84.9447 63.7036 53.6389
internal_count=1667 1208 804 404 459 381
is_linear=0
shrinkage=0.043602


Tree=71
num_leaves=7
num_cat=0
split_feature=2 2 0 2 2 2
split_gain=4.10715 9.8486 7.46915 2.70018 6.51987 4.13663
threshold=-0.17230435125016977 0.084174535953884119 0.51222885629366466 -0.78394735547185312 -0.71051656886489833 -0.87022150497964146
decision_type=2 2 2 2 2 2
left_child=3 2 -2 5 -5 -1
right_child=1 -3 -4 4 -6 -7
leaf_value=0.023483401513649825 -0.028599967917580779 0.0049833194178352759 0.023754967722910886 0.037453328349346109 0.004854248888849967 -0.010993717941127286
leaf_weight=7.9487074911594382 36.998803518712521 68.670079357922077 5.4095929637551299 14.168988138437269 59.199858263134956 27.947261817753315
leaf_count=53 570 422 32 83 361 146
internal_value=0.000702659 -0.00515919 -0.021546 0.00670772 0.0114866 -0.00293749
internal_weight=220.343 111.078 42.4084 109.265 73.3688 35.896
internal_count=1667 1024 602 643 444 199
is_linear=0
shrinkage=0.043602


Tree=72
num_leaves=7
num_cat=0
split_feature=3 0 0 1 0 1
split_gain=3.93871 5.42966 15.8881 4.14808 2.01751 1.03359
threshold=-0.59606692022981955 0.19622959128678272 -0.11327162482002071 1.6276943735604432 1.8841088045162462 -0.13176867283218965
decision_type=2 2 2 2 2 2
left_child=4 2 -2 -3 5 -1
right_child=1 3 -4 -5 -6 -7
leaf_value=0.0065601162259035029 0.0016868154462014321 0.021586152315309227 -0.03278093415339875 -0.013311742134474624 -0.0068346714656453344 0.019408117771140796
leaf_weight=33.219943627715111 82.846365973353386 21.911757886409763 35.8538663610816 8.392277777194975 12.977758958935736 21.028992861509323
leaf_count=257 392 120 615 39 75 153
internal_value=-0.000590946 -0.00456439 -0.00879445 0.0116691 0.00809539 0.011805
internal_weight=216.231 149.004 118.7 30.304 67.2267 54.2489
internal_count=1651 1166 1007 159 485 410
is_linear=0
shrinkage=0.043602


Tree=73
num_leaves=7
num_cat=0
split_feature=1 1 0 1 0 1
split_gain=3.76539 8.65036 9.40925 5.30221 4.58608 1.40218
threshold=-0.582911655105117 0.13891523416115767 -0.029752744833290021 1.6604887062463864 -1.1369866009514611 -1.1579023194658773
decision_type=2 2 2 2 2 2
left_child=4 2 -2 -3 5 -1
right_child=1 3 -4 -5 -6 -7
leaf_value=0.004851865400552274 -0.0021988426599032669 0.01723126304312541 -0.033075875757925505 -0.0087306704107428038 0.019715379448728459 -0.010893775872539218
leaf_weight=23.557171821594238 48.831851989030838 38.546814389526844 30.388108905404806 23.385124489665031 31.707377776503563 18.479254856705666
leaf_count=106 284 254 577 129 201 100
internal_value=-0.000568316 -0.00475856 -0.0142778 0.00735025 0.00735035 -0.00199792
internal_weight=214.896 141.152 79.22 61.9319 73.7438 42.0364
internal_count=1651 1244 861 383 407 206
is_linear=0
shrinkage=0.043602


Tree=74
num_leaves=5
num_cat=0
split_feature=0 0 1 3
split_gain=3.64336 4.4448 17.931 2.20585
threshold=-1.2729317036239416 -0.063529144055764694 0.04542714617033132 2.4050398276600276
decision_type=2 2 2 2
left_child=-1 3 -3 -2
right_child=1 2 -4 -5
leaf_value=-0.035166810280364745 0.0091809975200885848 -0.038934522042169989 0.0051327004917685578 -0.012604905657498921
leaf_weight=4.5798033475875846 108.75868717581034 22.253585688769817 74.460155881941319 8.8704864680767042
leaf_count=20 623 480 510 44
internal_value=0.000843941 0.00173868 -0.00513411 0.00743358
internal_weight=218.923 214.343 96.7137 117.629
internal_count=1677 1657 990 667
is_linear=0
shrinkage=0.043602


Tree=75
num_leaves=7
num_cat=0
split_feature=0 1 1 1 1 1
split_gain=3.04133 16.8869 3.70696 3.46718 3.35552 2.45215
threshold=-0.063529144055764694 0.04542714617033132 -1.1389081672072303 -1.1579023194658773 1.6604887062463864 -0.582911655105117
decision_type=2 2 2 2 2 2
left_child=2 -2 3 -1 -3 -4
right_child=1 4 5 -5 -6 -7
leaf_value=0.0013081783072032445 -0.038278899453693442 0.011360565430836175 0.01782051548511538 -0.02996836073767755 -0.008136975450280453 0.0030861098042886887
leaf_weight=25.198400169610977 21.671442370861769 50.115470755845308 41.057708375155926 8.4089247062802297 24.22010549902916 47.207245141267776
leaf_count=113 480 377 259 41 133 274
internal_value=0.000798145 -0.00495814 0.00538016 -0.00675798 0.00491911 0.0100791
internal_weight=217.879 96.007 121.872 33.6073 74.3356 88.265
internal_count=1677 990 687 154 510 533
is_linear=0
shrinkage=0.043602


Tree=76
num_leaves=7
num_cat=0
split_feature=3 1 1 1 2 2
split_gain=4.25387 3.25642 8.46985 3.79596 0.946078 3.1454
threshold=-0.59606692022981955 0.26494580737145662 -0.098413249674228695 1.2298472828819451 -0.52348271974874694 -0.69754453689868356
decision_type=2 2 2 2 2 2
left_child=4 2 -2 -3 5 -1
right_child=1 3 -4 -5 -6 -7
leaf_value=0.013015605956601553 -0.00057104951555584434 0.020131224563322142 -0.02698946954330805 -0.0099969838039278593 0.013594485320301034 -0.017316041662112678
leaf_weight=18.489301480352882 87.719889730215073 18.974411085247997 30.9190683811903 12.604250043630598 36.966881185770035 9.1648711040616018
leaf_count=140 514 106 502 62 259 71
internal_value=-0.000228209 -0.00427599 -0.0076074 0.00797296 0.00904735 0.0026076
internal_weight=214.839 150.218 118.639 31.5787 64.6211 27.6542
internal_count=1654 1184 1016 168 470 211
is_linear=0
shrinkage=0.043602


Tree=77
num_leaves=7
num_cat=0
split_feature=3 0 1 1 0 3
split_gain=3.91781 3.20811 13.7463 3.3473 0.904422 1.57397
threshold=-0.59606692022981955 -0.15368797578711715 0.030054562088371695 -1.1389081672072303 2.0860543092685444 -0.99733692018143072
decision_type=2 2 2 2 2 2
left_child=4 3 -3 -2 5 -1
right_child=1 2 -4 -5 -6 -7
leaf_value=0.021012528047070825 -0.01125470017458525 -0.039918777990587004 0.0022297813516341069 0.0074368743374985105 -0.0021438678503711986 0.0050823337476945769
leaf_weight=19.032733835279942 25.81956847012043 20.931284636259079 45.458347700536251 57.454346552491188 11.033935457468031 34.196943178772926
leaf_count=158 110 456 332 286 63 249
internal_value=-0.00022029 -0.00411066 -0.0112232 0.0015349 0.00870714 0.0110581
internal_weight=213.927 149.664 66.3896 83.2739 64.2636 53.2297
internal_count=1654 1184 788 396 470 407
is_linear=0
shrinkage=0.043602


Tree=78
num_leaves=7
num_cat=0
split_feature=3 0 0 0 0 2
split_gain=3.4187 3.84238 10.0918 4.64325 1.22605 2.39345
threshold=-0.65499468246047576 0.19622959128678272 -0.11327162482002071 1.5450446911084326 1.8841088045162462 0.57692088963235311
decision_type=2 2 2 2 2 2
left_child=4 2 -2 -3 5 -1
right_child=1 3 -4 -5 -6 -7
leaf_value=0.015625594783365258 0.00084934385167916211 0.020712737745144753 -0.027242389604938629 -0.015897272996181638 -0.0025849258477922167 -0.012441283079032191
leaf_weight=42.658403374254704 87.109424039721489 22.128136754035953 32.896940091624856 8.5765568912029249 13.201492682099341 5.9701936766505233
leaf_count=335 419 125 617 40 76 49
internal_value=0.000158627 -0.00335745 -0.00690616 0.0101972 0.00876591 0.0119537
internal_weight=212.541 150.711 120.006 30.7047 61.8301 48.6286
internal_count=1661 1201 1036 165 460 384
is_linear=0
shrinkage=0.043602


Tree=79
num_leaves=7
num_cat=0
split_feature=3 0 0 3 0 3
split_gain=3.14439 3.53629 9.44588 4.59087 1.13754 1.06073
threshold=-0.65499468246047576 0.19622959128678272 -0.11327162482002071 0.33274685588195158 1.8841088045162462 -0.84019622089968093
decision_type=2 2 2 2 2 2
left_child=4 2 -2 -3 5 -1
right_child=1 3 -4 -5 -6 -7
leaf_value=0.0060869773541525011 0.00081279705967120881 0.023543312974476871 -0.026531476219305822 -0.010068327145530706 -0.0024738597434477991 0.019942261739120764
leaf_weight=30.362719163298603 87.085815563797951 18.150904968380932 32.334891552105546 12.38161678612232 13.220229521393774 17.877356313169006
leaf_count=246 419 90 617 75 76 138
internal_value=0.000147256 -0.00323102 -0.00664399 0.00980625 0.00842878 0.0115235
internal_weight=211.414 149.953 119.421 30.5325 61.4603 48.2401
internal_count=1661 1201 1036 165 460 384
is_linear=0
shrinkage=0.043602


Tree=80
num_leaves=5
num_cat=0
split_feature=0 0 1 3
split_gain=3.537 2.65384 13.2887 1.88961
threshold=-1.2690058717387893 -0.029752744833290021 0.030054562088371695 2.4050398276600276
decision_type=2 2 2 2
left_child=-1 3 -3 -2
right_child=1 2 -4 -5
leaf_value=-0.032080078559538566 0.0061750969435182363 -0.041853559634471488 0.002164157148842708 -0.013877148214994636
leaf_weight=6.0730645805597296 106.12566567212343 15.149664197117088 73.909549910575151 9.0179992914199811
leaf_count=26 619 438 531 45
internal_value=-0.000892262 0.000102811 -0.00550013 0.00449062
internal_weight=210.276 204.203 89.0592 115.144
internal_count=1659 1633 969 664
is_linear=0
shrinkage=0.043602


Tree=81
num_leaves=4
num_cat=0
split_feature=1 2 2
split_gain=2.74646 3.06732 4.02729
threshold=-1.2268696141870448 -0.87197088049927485 -0.84240944547368701
decision_type=2 2 2
left_child=-1 -2 -3
right_child=1 2 -4
leaf_value=-0.025371348123261486 0.031624769964188788 -0.027205695378755074 0.00067003712823252828
leaf_weight=7.7314570695161811 5.0953530445694915 9.7656735181808454 186.91820257715881
leaf_count=33 41 54 1531
internal_value=-0.000868643 0.000117908 -0.000767344
internal_weight=209.511 201.779 196.684
internal_count=1659 1626 1585
is_linear=0
shrinkage=0.043602


Tree=82
num_leaves=7
num_cat=0
split_feature=2 2 0 1 2 2
split_gain=3.61003 5.65764 5.6599 3.85188 2.05889 1.96285
threshold=-0.17230435125016977 0.084174535953884119 0.51222885629366466 -1.2268696141870448 1.1395746697575098 -0.84240944547368701
decision_type=2 2 2 2 2 2
left_child=3 2 -2 -1 -3 -5
right_child=1 4 -4 5 -6 -7
leaf_value=-0.02165932084204731 -0.025558573724987439 -0.0028076126581727846 0.021366542229358004 -0.0054777551979872611 0.013229867756820137 0.011175342603639064
leaf_weight=7.9811149835586539 31.763701047748327 45.140222005546093 5.1383586153388014 15.051125250756739 21.97462697327137 86.263250201940536
leaf_count=34 572 298 31 97 126 529
internal_value=0.000717561 -0.00505207 -0.018631 0.00625648 0.00243479 0.00862868
internal_weight=213.312 104.017 36.9021 109.295 67.1148 101.314
internal_count=1687 1027 603 660 424 626
is_linear=0
shrinkage=0.043602


Tree=83
num_leaves=5
num_cat=0
split_feature=0 2 2 1
split_gain=4.70671 4.78042 5.22979 1.78635
threshold=-1.2729317036239416 -0.17230435125016977 0.084174535953884119 -0.49062422702514913
decision_type=2 2 2 2
left_child=-1 3 -3 -2
right_child=1 2 -4 -5
leaf_value=-0.040003882697092145 0.0037940591150130718 -0.017983938810733756 0.0023333475083015995 0.015779864440178839
leaf_weight=4.6390087008476248 65.880518361926079 36.557548306882381 67.011843752115965 38.356376484036446
leaf_count=20 382 603 424 258
internal_value=0.000685732 0.00173733 -0.00484952 0.00832481
internal_weight=212.445 207.806 103.569 104.237
internal_count=1687 1667 1027 640
is_linear=0
shrinkage=0.043602


Tree=84
num_leaves=6
num_cat=0
split_feature=3 3 2 2 1
split_gain=3.16435 2.75956 2.24201 5.01413 1.44051
threshold=-0.99733692018143072 -1.0618768502435778 -0.84240944547368701 -0.71051656886489833 -0.43466714393593792
decision_type=2 2 2 2 2
left_child=1 4 -2 -4 -1
right_child=2 -3 3 -5 -6
leaf_value=0.021508784688555129 -0.017319396762917477 0.033699116725846461 0.016549427320044895 -0.0035768644128317561 -0.004653452723524667
leaf_weight=5.1836808994412449 15.399085730314253 8.6319511532783491 27.570406816899776 141.54914414696395 11.781436800956728
leaf_count=50 76 70 148 1242 84
internal_value=0.000256366 0.0144552 -0.00172536 -0.000214542 0.00350321
internal_weight=210.116 25.5971 184.519 169.12 16.9651
internal_count=1670 204 1466 1390 134
is_linear=0
shrinkage=0.043602


Tree=85
num_leaves=6
num_cat=0
split_feature=3 3 2 2 1
split_gain=2.94198 2.62497 2.04663 4.61849 1.117
threshold=-0.99733692018143072 -1.0618768502435778 -0.84240944547368701 -0.71051656886489833 -0.15558687695826603
decision_type=2 2 2 2 2
left_child=1 4 -2 -4 -1
right_child=2 -3 3 -5 -6
leaf_value=-0.0076687138957588514 -0.016508462419067282 0.033052584160860612 0.01594685876798399 -0.0034191117168933462 0.01382163954522634
leaf_weight=8.0468869432806986 15.479811877012251 8.4336478859186155 27.392162591218948 141.64982602745295 8.8706690594553965
leaf_count=74 76 70 148 1242 60
internal_value=0.000251656 0.0140159 -0.00165018 -0.000201358 0.00337422
internal_weight=209.873 25.3512 184.522 169.042 16.9176
internal_count=1670 204 1466 1390 134
is_linear=0
shrinkage=0.043602


Tree=86
num_leaves=7
num_cat=0
split_feature=3 2 0 0 2 2
split_gain=2.49844 2.81469 8.11124 5.23529 0.97658 3.82831
threshold=-0.59606692022981955 0.28670754069759813 -0.15368797578711715 0.79412040779288329 -0.78394735547185312 -0.69754453689868356
decision_type=2 2 2 2 2 2
left_child=4 2 -2 -3 -1 -6
right_child=1 3 -4 -5 5 -7
leaf_value=-0.0032785784366796758 0.0014875539776629258 0.019627863646196356 -0.023317293586873573 -0.015774946987775988 0.043670355491284646 0.0052170519517986801
leaf_weight=13.322974577546118 73.852072209119797 22.321801200509071 36.980987874791026 11.433007210493086 5.0113167390227309 46.38133180141449
leaf_count=100 351 116 656 58 46 343
internal_value=-0.00023462 -0.00344537 -0.00682313 0.00740698 0.00681853 0.00955056
internal_weight=209.303 144.588 110.833 33.7548 64.7156 51.3926
internal_count=1670 1181 1007 174 489 389
is_linear=0
shrinkage=0.043602


Tree=87
num_leaves=4
num_cat=0
split_feature=0 2 2
split_gain=3.95762 3.5741 2.35348
threshold=-1.2729317036239416 -0.87197088049927485 -0.84240944547368701
decision_type=2 2 2
left_child=-1 -2 -3
right_child=1 2 -4
leaf_value=-0.037435045010573105 0.034323153137383697 -0.01915897748967936 0.00091595790757873299
leaf_weight=4.6786506175994864 5.2257470190525046 11.169047631323336 187.46907139755785
leaf_count=20 41 59 1550
internal_value=-0.000218941 0.000719324 -0.000241281
internal_weight=208.543 203.864 198.638
internal_count=1670 1650 1609
is_linear=0
shrinkage=0.043602


Tree=88
num_leaves=4
num_cat=0
split_feature=0 2 2
split_gain=2.63209 3.67018 4.19452
threshold=-1.2729317036239416 -0.87022150497964146 -0.84240944547368701
decision_type=2 2 2
left_child=-1 -2 -3
right_child=1 2 -4
leaf_value=-0.030272041122886374 0.031799283611439751 -0.027530281179438391 0.00049774830845484685
leaf_weight=4.9550079852342597 6.0903904363512984 10.089322946965693 188.74050869978964
leaf_count=21 47 53 1559
internal_value=-0.000714811 6.23627e-05 -0.000978118
internal_weight=209.875 204.92 198.83
internal_count=1680 1659 1612
is_linear=0
shrinkage=0.043602


Tree=89
num_leaves=7
num_cat=0
split_feature=1 0 1 1 0 3
split_gain=2.52375 9.44875 3.49368 3.25764 2.57211 2.04098
threshold=0.13891523416115767 0.018566930781178929 0.054913495634668817 1.6604887062463864 -1.1369866009514611 -0.8850935635516094
decision_type=2 2 2 2 2 2
left_child=1 4 -3 -2 -1 -5
right_child=3 2 -4 5 -6 -7
leaf_value=-0.0082869255227083338 0.014266615758119052 -0.046229422233390258 -0.0053364101633203605 0.0076602904084104202 0.0047066025133127758 -0.017598506542993067
leaf_weight=42.62724345177412 38.976389601826668 11.791859121993186 6.5870199501514426 10.348963119089605 86.834420250728726 12.677635684609411
leaf_count=209 265 371 87 64 620 64
internal_value=-0.000685208 -0.0038035 -0.0325194 0.0066255 0.00036651 -0.00610904
internal_weight=209.844 147.841 18.3789 62.003 129.462 23.0266
internal_count=1680 1287 458 393 829 128
is_linear=0
shrinkage=0.043602


Tree=90
num_leaves=7
num_cat=0
split_feature=3 3 2 0 0 2
split_gain=2.03755 3.9909 3.90496 6.36494 3.84705 2.1153
threshold=-0.018499226202336058 -0.10132648598272849 0.28670754069759813 -0.029752744833290021 0.74047636154763008 0.014382432929512879
decision_type=2 2 2 2 2 2
left_child=1 5 3 -2 -4 -1
right_child=2 -3 4 -5 -6 -7
leaf_value=0.0059803878683532107 -0.00035803034372601592 0.03477770534283503 0.02229454798075859 -0.028434805303440665 -0.014072123587811873 -0.0069978319035605661
leaf_weight=76.762089066207409 46.769103914499283 6.9574238657951346 16.224807068705562 22.543300250545144 7.5305139273405066 33.665750034153461
leaf_count=512 221 40 88 573 40 219
internal_value=0.000286898 0.00412213 -0.00448653 -0.0097407 0.0104739 0.00195682
internal_weight=210.453 117.385 93.0677 69.3124 23.7553 110.428
internal_count=1693 771 922 794 128 731
is_linear=0
shrinkage=0.043602


Tree=91
num_leaves=4
num_cat=0
split_feature=0 2 2
split_gain=2.57241 3.50677 1.92489
threshold=-1.2729317036239416 -0.87022150497964146 1.1395746697575098
decision_type=2 2 2
left_child=-1 -2 -3
right_child=1 2 -4
leaf_value=-0.028856924169540384 0.031965849083094529 -0.0014727618831195698 0.012123531130870446
leaf_weight=4.9747205525636664 6.1431064531207076 177.00313626416028 21.654850132763386
leaf_count=21 47 1499 126
internal_value=0.000274146 0.00109396 1.47111e-05
internal_weight=209.776 204.801 198.658
internal_count=1693 1672 1625
is_linear=0
shrinkage=0.043602


Tree=92
num_leaves=5
num_cat=0
split_feature=3 2 2 3
split_gain=2.9896 3.15009 3.23008 1.17098
threshold=2.4050398276600276 1.1395746697575098 -0.16756130542052391 0.19981959163880283
decision_type=2 2 2 2
left_child=1 2 -1 -3
right_child=-2 3 -4 -5
leaf_value=0.0059604608864780879 -0.020439359852627258 0.027189948896769966 -0.0060608082249109449 0.0042947299867896714
leaf_weight=102.07904755324125 10.354763567447661 12.29637958109379 71.65714194253087 7.6783707886934272
leaf_count=632 53 72 859 44
internal_value=0.00164453 0.00291518 0.000966591 0.0190535
internal_weight=204.066 193.711 173.736 19.9748
internal_count=1660 1607 1491 116
is_linear=0
shrinkage=0.043602


Tree=93
num_leaves=7
num_cat=0
split_feature=0 0 2 1 2 2
split_gain=2.46222 8.18013 7.22816 3.96437 2.1327 1.94795
threshold=0.19622959128678272 0.018566930781178929 0.65213759616914413 1.6604887062463864 -0.84240944547368701 0.5443673414894864
decision_type=2 2 2 2 2 2
left_child=1 4 -3 5 -1 -2
right_child=3 2 -4 -5 -6 -7
leaf_value=-0.0098490154969944049 0.030438659509207936 -0.033437691967958351 0.036382795781764593 -0.0039875587920037035 0.0055526949216370284 0.0074758546746681196
leaf_weight=19.494624830782413 15.537268303334715 20.795674927532676 2.6512060239911071 22.496914714574814 107.94675235450268 14.769459478557108
leaf_count=115 110 492 13 125 710 95
internal_value=0.00157793 -0.00123296 -0.0245765 0.00963473 0.00311703 0.0198027
internal_weight=203.692 150.888 23.4469 52.8036 127.441 30.3067
internal_count=1660 1330 505 330 825 205
is_linear=0
shrinkage=0.043602


Tree=94
num_leaves=5
num_cat=0
split_feature=0 3 0 0
split_gain=2.38335 2.29651 2.89781 1.69331
threshold=-1.2729317036239416 -0.59606692022981955 -0.15368797578711715 -1.0291205858692773
decision_type=2 2 2 2
left_child=-1 3 -3 -2
right_child=1 2 -4 -5
leaf_value=-0.030400816022278968 0.022062329542785863 0.0020045596968520222 -0.010519320874931794 0.0031114043648404971
leaf_weight=4.5170229226350775 10.736003197729586 80.732758343219757 60.593571450561285 49.18418475985527
leaf_count=19 90 390 790 380
internal_value=-0.00106819 -0.000290722 -0.00334856 0.00679019
internal_weight=205.764 201.247 141.326 59.9202
internal_count=1669 1650 1180 470
is_linear=0
shrinkage=0.043602


Tree=95
num_leaves=4
num_cat=0
split_feature=0 2 2
split_gain=2.19768 3.51994 3.07139
threshold=-1.2729317036239416 -0.87197088049927485 -0.84240944547368701
decision_type=2 2 2
left_child=-1 -2 -3
right_child=1 2 -4
leaf_value=-0.029145089629617826 0.03319819449742499 -0.022949926035908487 5.601816054104822e-05
leaf_weight=4.5326388627290717 5.1684381887316695 11.080493524670599 184.63521964848042
leaf_count=19 43 58 1549
internal_value=-0.00102238 -0.000272333 -0.00128681
internal_weight=205.417 200.884 195.716
internal_count=1669 1650 1607
is_linear=0
shrinkage=0.043602


Tree=96
num_leaves=5
num_cat=0
split_feature=2 2 2 0
split_gain=1.81501 2.66098 2.18244 1.63626
threshold=1.1395746697575098 0.77679737845695818 0.2770476367951531 1.0390564591032587
decision_type=2 2 2 2
left_child=1 2 -1 -2
right_child=3 -3 -4 -5
leaf_value=-0.0017452761378444338 0.021162105493227678 -0.02572521277046037 0.013892218404793839 -0.0024088500849250177
leaf_weight=160.02625276334584 13.325626835227014 7.4278277084231368 18.344995111227036 8.5133874416351301
leaf_count=1413 83 40 107 46
internal_value=0.000182967 -0.00120139 -6.33533e-05 0.0119145
internal_weight=207.638 185.799 178.371 21.839
internal_count=1689 1560 1520 129
is_linear=0
shrinkage=0.043602


Tree=97
num_leaves=7
num_cat=0
split_feature=0 0 1 3 3 1
split_gain=1.66943 7.68996 4.89371 3.25348 4.36816 2.25805
threshold=0.19622959128678272 0.0095354853903547743 0.04542714617033132 1.118450352290701 -0.15436213994242301 -1.1147060580960211
decision_type=2 2 2 2 2 2
left_child=1 5 -3 4 -2 -1
right_child=3 2 -4 -5 -6 -7
leaf_value=-0.0059001826366388375 0.0023577163108567554 -0.04262031014046086 -0.0048620355587070171 -0.02059988096653179 0.031670992146204627 0.0064162651382907833
leaf_weight=41.284225843846798 34.922907136380672 12.35681324824691 14.248450584709643 6.5415102690458289 13.068314328789709 85.131241869181395
leaf_count=202 233 436 159 39 69 551
internal_value=0.000174078 -0.00213509 -0.0231754 0.00670519 0.010757 0.00234119
internal_weight=207.553 153.021 26.6053 54.5327 47.9912 126.415
internal_count=1689 1348 595 341 302 753
is_linear=0
shrinkage=0.043602


Tree=98
num_leaves=5
num_cat=0
split_feature=3 2 2 3
split_gain=1.86134 2.50909 4.14631 2.02743
threshold=2.4050398276600276 0.65213759616914413 0.4783502242979481 -0.10869322697552662
decision_type=2 2 2 2
left_child=1 2 -1 -3
right_child=-2 3 -4 -5
leaf_value=0.00026587789270963633 -0.016604968019884824 0 -0.038009022434722865 0.02295450910128824
leaf_weight=158.43849950656295 11.367327332496641 13.567626707255842 4.9394980370998374 15.879281491041182
leaf_count=1417 58 87 30 83
internal_value=3.7978e-05 0.00109799 -0.000997272 0.0126875
internal_weight=204.192 192.825 163.378 29.4469
internal_count=1675 1617 1447 170
is_linear=0
shrinkage=0.043602


Tree=99
num_leaves=4
num_cat=0
split_feature=1 2 3
split_gain=1.70775 3.58766 2.11849
threshold=-1.245863766445692 -0.87022150497964146 2.4050398276600276
decision_type=2 2 2
left_child=-1 -2 -3
right_child=1 2 -4
leaf_value=-0.025367420029920935 0.031614044664944774 0.00073732249222548075 -0.018300697678816771
leaf_weight=4.2792807519435874 6.2658821716904631 182.47241201624274 11.194475725293158
leaf_count=18 51 1549 57
internal_value=3.23613e-05 0.000680628 -0.000389662
internal_weight=204.212 199.933 193.667
internal_count=1675 1657 1606
is_linear=0
shrinkage=0.043602


Tree=100
num_leaves=6
num_cat=0
split_feature=2 2 0 0 2
split_gain=2.3863 4.97912 4.81674 2.8097 1.58851
threshold=-0.70064456898456107 -0.76584120931964461 -1.1762588786414605 -0.66147190380721332 -0.87022150497964146
decision_type=2 2 2 2 2
left_child=1 4 -2 -4 -1
right_child=2 -3 3 -5 -6
leaf_value=0.01867580128573551 -0.043351281469535936 0.033858438175205299 0.014957493015608588 -0.0026822935978110972 -0.0030390333795559414
leaf_weight=7.3958092629909471 4.5061899274587622 11.235443338751791 19.133851259946823 129.67135693132877 30.498000182211403
leaf_count=54 19 73 113 1234 163
internal_value=0.000860793 0.00917841 -0.00179493 -0.000324204 0.00128833
internal_weight=202.441 49.1293 153.311 148.805 37.8938
internal_count=1656 290 1366 1347 217
is_linear=0
shrinkage=0.043602


Tree=101
num_leaves=6
num_cat=0
split_feature=2 2 1 1 2
split_gain=2.20687 4.67503 3.45713 3.19645 1.47419
threshold=-0.70064456898456107 -0.76584120931964461 -1.1030807652891514 -0.63260488560971495 -0.87022150497964146
decision_type=2 2 2 2 2
left_child=1 4 -2 -4 -1
right_child=2 -3 3 -5 -6
leaf_value=0.018078018573424136 -0.031099918520396338 0.03300206733409955 0.017553750072895655 -0.0025703920072442867 -0.0029061771491258916
leaf_weight=7.3292939886450723 6.6371975764632216 11.044793106615542 16.316838905215263 130.3277044557035 30.529376775026325
leaf_count=54 32 73 98 1236 163
internal_value=0.000826817 0.00884876 -0.00172193 -0.000228904 0.00123878
internal_weight=202.185 48.9035 153.282 146.645 37.8587
internal_count=1656 290 1366 1334 217
is_linear=0
shrinkage=0.043602


Tree=102
num_leaves=4
num_cat=0
split_feature=0 2 3
split_gain=1.89249 2.74477 2.85625
threshold=-1.2729317036239416 -0.87197088049927485 -1.1544776194631805
decision_type=2 2 2
left_child=-1 -2 -3
right_child=1 2 -4
leaf_value=-0.025540166716157095 0.031398212231131373 -0.026158848520321836 0.00133814667479192
leaf_weight=4.5499885827302924 4.9281911998987189 6.8402886912226668 187.7444648835808
leaf_count=19 44 51 1558
internal_value=0.00045674 0.00115484 0.000262877
internal_weight=204.063 199.513 194.585
internal_count=1672 1653 1609
is_linear=0
shrinkage=0.043602


Tree=103
num_leaves=4
num_cat=0
split_feature=1 2 3
split_gain=1.74722 2.58748 1.85358
threshold=-1.245863766445692 -0.87022150497964146 -1.1544776194631805
decision_type=2 2 2
left_child=-1 -2 -3
right_child=1 2 -4
leaf_value=-0.024525997940082471 0.028615247029438209 -0.021285139324153733 0.0010509112948038043
leaf_weight=4.5570941120386115 5.6767010763287535 6.712950386106967 187.06858856417239
leaf_count=19 49 49 1555
internal_value=0.000433915 0.00110635 0.000183016
internal_weight=204.015 199.458 193.782
internal_count=1672 1653 1604
is_linear=0
shrinkage=0.043602


Tree=104
num_leaves=4
num_cat=0
split_feature=0 2 2
split_gain=2.36435 3.83913 1.69461
threshold=-1.2729317036239416 -0.87022150497964146 0.65213759616914413
decision_type=2 2 2
left_child=-1 -2 -3
right_child=1 2 -4
leaf_value=-0.028125173713994291 0.034870228429677554 -0.0018443183671964692 0.0091443468657694572
leaf_weight=4.7974800914525977 5.562461130321025 161.09024816192687 31.327855497598648
leaf_count=20 49 1410 182
internal_value=0.000253679 0.00105519 -2.82854e-06
internal_weight=202.778 197.981 192.418
internal_count=1661 1641 1592
is_linear=0
shrinkage=0.043602


Tree=105
num_leaves=4
num_cat=0
split_feature=0 2 2
split_gain=2.18271 3.61897 1.55777
threshold=-1.2729317036239416 -0.87022150497964146 0.65213759616914413
decision_type=2 2 2
left_child=-1 -2 -3
right_child=1 2 -4
leaf_value=-0.02700198238172169 0.034180534912696348 -0.001763321669955553 0.008789836743228403
leaf_weight=4.8048558533191672 5.4424944370985022 161.17004897817969 31.198338195681572
leaf_count=20 49 1410 182
internal_value=0.000244113 0.00101642 -2.77479e-07
internal_weight=202.616 197.811 192.368
internal_count=1661 1641 1592
is_linear=0
shrinkage=0.043602


Tree=106
num_leaves=7
num_cat=0
split_feature=2 3 0 0 3 3
split_gain=1.43756 6.17016 2.7613 5.46992 1.8338 0.0496445
threshold=1.1395746697575098 0.42113849922793584 -0.12790077522237023 0.19622959128678272 -0.84019622089968093 -0.52030265450469027
decision_type=2 2 2 2 2 2
left_child=2 5 4 -4 -1 -2
right_child=1 -3 3 -5 -6 -7
leaf_value=-0.010975579487016107 0.033850360821237171 -0.020751187855821918 -0.022303539960414388 0.0017393418498173122 0.0040702413301325823 0.018878870509056404
leaf_weight=17.682259932160378 5.5809514001011857 7.5932450816035262 32.629044868052006 38.170757584273815 93.682763420045376 7.8236531242728242
leaf_count=161 42 46 658 242 491 38
internal_value=-0.00137976 0.00920171 -0.00265695 -0.00936128 0.00158412 0.0267319
internal_weight=203.163 20.9978 182.165 70.7998 111.365 13.4046
internal_count=1678 126 1552 900 652 80
is_linear=0
shrinkage=0.043602


Tree=107
num_leaves=6
num_cat=0
split_feature=0 0 0 3 3
split_gain=1.30646 3.11183 6.03702 4.00525 2.19866
threshold=1.8841088045162462 0.19622959128678272 0.018566930781178929 1.118450352290701 -0.8850935635516094
decision_type=2 2 2 2 2
left_child=1 2 -1 -3 -2
right_child=4 3 -4 -5 -6
leaf_value=0.00064666694679043203 0.0026675515185472462 0.017615732964599375 -0.023555312907116311 -0.019462447457560515 -0.027530512605587674
leaf_weight=126.90575238317251 8.3722689747810382 30.37504605948925 22.463021421805024 6.0715766549110404 8.541221618652342
leaf_count=829 50 207 513 36 43
internal_value=-0.00131928 -0.000214556 -0.00303861 0.0110665 -0.0127018
internal_weight=202.729 185.815 149.369 36.4466 16.9135
internal_count=1678 1585 1342 243 93
is_linear=0
shrinkage=0.043602


Tree=108
num_leaves=6
num_cat=0
split_feature=3 0 2 3 2
split_gain=1.99207 3.19196 2.65938 1.87605 1.56275
threshold=-0.93840915795077462 1.8841088045162462 -0.84240944547368701 -1.1544776194631805 -0.28723899056002061
decision_type=2 2 2 2 2
left_child=3 2 -2 -1 -5
right_child=1 -3 -4 4 -6
leaf_value=-0.0055266412866534498 -0.017295889455473151 -0.025652581134126672 0.0015402555473686338 0.02772181422640433 0.0025151717080620795
leaf_weight=8.8452522680163401 15.114328414201735 9.3561475425958616 149.43863429315388 11.703952111303808 8.5900241136550886
leaf_count=77 74 47 1310 100 62
internal_value=4.90803e-05 -0.00170174 -0.000214917 0.0105017 0.0177094
internal_weight=203.048 173.909 164.553 29.1392 20.294
internal_count=1670 1431 1384 239 162
is_linear=0
shrinkage=0.043602


Tree=109
num_leaves=6
num_cat=0
split_feature=1 0 0 2 0
split_gain=1.38268 3.5255 5.33343 1.98942 1.93517
threshold=1.6604887062463864 0.19622959128678272 0.018566930781178929 0.5443673414894864 2.3531270345264046
decision_type=2 2 2 2 2
left_child=1 2 -1 -3 -2
right_child=4 3 -4 -5 -6
leaf_value=0.0021132049434006172 -0.020927067780940816 0.026099945054911467 -0.020675389290742023 0.0029776454508744299 0.0035940266396341006
leaf_weight=128.17716671898961 12.67950524389744 14.691940344870092 22.355077078565955 14.610547162592409 10.433001831173895
leaf_count=834 71 105 506 97 57
internal_value=4.46158e-05 0.00137269 -0.00130554 0.0150576 -0.00982058
internal_weight=202.947 179.835 150.532 29.3025 23.1125
internal_count=1670 1542 1340 202 128
is_linear=0
shrinkage=0.043602


Tree=110
num_leaves=7
num_cat=0
split_feature=0 1 1 1 1 0
split_gain=1.5854 9.35492 1.83775 1.4468 2.75181 1.67809
threshold=-0.029752744833290021 0.04542714617033132 1.6604887062463864 -1.1389081672072303 -1.1579023194658773 -0.66147190380721332
decision_type=2 2 2 2 2 2
left_child=3 -2 -3 4 -1 -5
right_child=1 2 -4 5 -6 -7
leaf_value=0.0023042966896602533 -0.036428121188666993 0.0068330546929396994 -0.008011325662507238 0.012972104082896327 -0.025709819414940788 0.00050620425156101714
leaf_weight=24.910432875156403 14.29891520924866 44.758472215384245 23.571539297699928 34.978578381240368 8.3077704608440381 50.943010449409485
leaf_count=114 467 368 130 236 42 309
internal_value=-0.000489256 -0.00513237 0.00160579 0.00269461 -0.00488192 0.00570186
internal_weight=201.769 82.6289 68.33 119.14 33.2182 85.9216
internal_count=1666 965 498 701 156 545
is_linear=0
shrinkage=0.043602


Tree=111
num_leaves=7
num_cat=0
split_feature=2 3 0 3 2 3
split_gain=1.63081 3.4822 3.09293 3.80617 1.61334 0.261208
threshold=1.1395746697575098 0.42113849922793584 -0.12790077522237023 1.7357888137547179 -0.84240944547368701 -0.42629884332721496
decision_type=2 2 2 2 2 2
left_child=2 5 4 -4 -1 -2
right_child=1 -3 3 -5 -6 -7
leaf_value=-0.0085287669670184706 0.0314847935587362 -0.010974087576228092 -0.011721835882726909 0.029900263696211512 0.0050713520164045647 0.014253059277349208
leaf_weight=19.410641886293888 6.4734648838639259 8.1011005043983442 65.129519306123257 3.8057847172021857 91.320136934518814 6.9926937669515628
leaf_count=117 47 49 865 19 535 34
internal_value=-0.000473766 0.0106449 -0.00187132 -0.00909746 0.00260321 0.0239544
internal_weight=201.233 21.5673 179.666 68.9353 110.731 13.4662
internal_count=1666 130 1536 884 652 81
is_linear=0
shrinkage=0.043602


Tree=112
num_leaves=5
num_cat=0
split_feature=2 3 2 3
split_gain=1.53091 3.59762 3.5387 1.66328
threshold=1.1395746697575098 0.42113849922793584 0.77679737845695818 -0.28459160558206559
decision_type=2 2 2 2
left_child=2 -2 3 -1
right_child=1 -3 -4 -5
leaf_value=0.004131056534289493 0.024786302637370028 -0.011167465586875116 -0.030698670476355178 -0.0043975305374217471
leaf_weight=81.495419390499592 12.709500811994078 8.0501885116100294 7.025537781417369 91.513708025217056
leaf_count=566 78 48 38 936
internal_value=-0.000333212 0.0106656 -0.00166452 -0.000347837
internal_weight=200.794 20.7597 180.035 173.009
internal_count=1666 126 1540 1502
is_linear=0
shrinkage=0.043602


Tree=113
num_leaves=5
num_cat=0
split_feature=2 2 0 0
split_gain=1.40889 3.22162 1.45154 1.28925
threshold=1.1395746697575098 0.77679737845695818 0.19622959128678272 1.0390564591032587
decision_type=2 2 2 2
left_child=1 2 -1 -2
right_child=3 -3 -4 -5
leaf_value=-0.0023183997643593511 0.018577887575023488 -0.029142897453916083 0.0077292925010740612 -0.0028972336862193755
leaf_weight=139.58166173473001 12.758550494909288 7.1091877445578566 33.274604484438896 7.9101251736283293
leaf_count=1288 82 38 214 44
internal_value=-0.000320475 -0.00159679 -0.000331506 0.0102543
internal_weight=200.634 179.965 172.856 20.6687
internal_count=1666 1540 1502 126
is_linear=0
shrinkage=0.043602


Tree=114
num_leaves=7
num_cat=0
split_feature=1 1 2 1 2 2
split_gain=1.6753 4.93132 3.01626 2.80724 2.21456 0.909876
threshold=-0.61673645906202845 -0.53447119511744146 -0.25581374239663135 -0.96094058725876386 -0.71051656886489833 -0.28723899056002061
decision_type=2 2 2 2 2 2
left_child=3 -2 -3 4 -1 -5
right_child=1 2 -4 5 -6 -7
leaf_value=0.0055999467280093496 -0.040737988719085627 0.010328146421453974 -0.0049527195338046502 0.0098667606440366613 -0.0153652133745072 0.034903181309515051
leaf_weight=43.283968515694141 5.6150323525071135 32.479931153357029 93.868575820699334 7.1597697958350182 11.590859226882456 6.2354884520173055
leaf_count=246 32 228 1012 52 61 36
internal_value=0 -0.00286748 -0.000949523 0.00551425 0.000949167 0.0229482
internal_weight=200.234 131.964 126.349 68.2701 54.8748 13.3953
internal_count=1667 1272 1240 395 307 88
is_linear=0
shrinkage=0.043602


Tree=115
num_leaves=7
num_cat=0
split_feature=1 1 1 1 3 3
split_gain=1.55475 5.68055 2.21922 2.01766 1.36574 0.27181
threshold=-0.582911655105117 -0.50398711253899064 -0.96094058725876386 0.04542714617033132 -0.14709349371053451 0.39728678594409889
decision_type=2 2 2 2 2 2
left_child=2 -2 4 -3 -1 -4
right_child=1 3 5 -5 -6 -7
leaf_value=0.0078775462539157088 -0.044609650106383215 -0.0070128385824445019 0.011280971764511122 0.004095603379534199 -0.005704646068621767 0.026370101904208739
leaf_weight=27.021245807409286 5.2885728552937499 55.131845792755485 8.2233880162239057 69.279725283384323 27.8308394998312 7.2582861036062232
leaf_count=177 28 726 61 505 130 40
internal_value=0 -0.00282661 0.00519447 -0.00079307 0.000899609 0.0194447
internal_weight=200.034 129.7 70.3338 124.412 54.8521 15.4817
internal_count=1667 1259 408 1231 307 101
is_linear=0
shrinkage=0.043602


Tree=116
num_leaves=4
num_cat=0
split_feature=0 2 2
split_gain=1.85609 3.37176 2.13934
threshold=-1.2729317036239416 -0.87022150497964146 -0.84240944547368701
decision_type=2 2 2
left_child=-1 -2 -3
right_child=1 2 -4
leaf_value=-0.024986088182045684 0.033430612617889675 -0.01874381634981015 0.0010200691426253676
leaf_weight=4.7914347350597373 5.2510036826133719 10.419744700193403 181.21583093330264
leaf_count=20 48 54 1559
internal_value=0.000168354 0.00088533 -8.28789e-05
internal_weight=201.678 196.887 191.636
internal_count=1681 1661 1613
is_linear=0
shrinkage=0.043602


Tree=117
num_leaves=5
num_cat=0
split_feature=0 0 1 0
split_gain=1.71475 1.74786 9.18905 1.91874
threshold=-1.2729317036239416 -0.029752744833290021 0.043676273683816109 -0.2078071779304759
decision_type=2 2 2 2
left_child=-1 3 -3 -2
right_child=1 2 -4 -5
leaf_value=-0.024012175429662354 0.0019480045483668751 -0.036408925805538547 0.002427596520574091 0.017998484511152969
leaf_weight=4.7935543805360785 97.488625757396221 13.206991255283354 69.835521053522825 16.2438630387187
leaf_count=20 587 468 510 96
internal_value=0.000159185 0.000849895 -0.00390742 0.00437431
internal_weight=201.569 196.775 83.0425 113.732
internal_count=1681 1661 978 683
is_linear=0
shrinkage=0.043602


Tree=118
num_leaves=7
num_cat=0
split_feature=1 0 1 1 0 3
split_gain=1.3134 7.27238 2.53773 2.30005 2.30788 2.06489
threshold=0.13891523416115767 0.018566930781178929 0.054913495634668817 0.51869121944219232 0.16673057966591073 0.33274685588195158
decision_type=2 2 2 2 2 2
left_child=1 -1 -3 4 -2 -5
right_child=3 2 -4 5 -6 -7
leaf_value=0.00062903534963886128 0 -0.044906223606887924 -0.0072415078394218735 0.0051939037779590433 0.035055921854682003 -0.016362789313194161
