{"learner":{"attributes":{"scikit_learn":"{\"_estimator_type\": \"classifier\"}"},"feature_names":[],"feature_types":[],"gradient_booster":{"model":{"gbtree_model_param":{"num_parallel_tree":"1","num_trees":"100"},"iteration_indptr":[0,1,2,3,4,5,6,7,8,9,10,11,12,13,14,15,16,17,18,19,20,21,22,23,24,25,26,27,28,29,30,31,32,33,34,35,36,37,38,39,40,41,42,43,44,45,46,47,48,49,50,51,52,53,54,55,56,57,58,59,60,61,62,63,64,65,66,67,68,69,70,71,72,73,74,75,76,77,78,79,80,81,82,83,84,85,86,87,88,89,90,91,92,93,94,95,96,97,98,99,100],"tree_info":[0,0,0,0,0,0,0,0,0,0,0,0,0,0,0,0,0,0,0,0,0,0,0,0,0,0,0,0,0,0,0,0,0,0,0,0,0,0,0,0,0,0,0,0,0,0,0,0,0,0,0,0,0,0,0,0,0,0,0,0,0,0,0,0,0,0,0,0,0,0,0,0,0,0,0,0,0,0,0,0,0,0,0,0,0,0,0,0,0,0,0,0,0,0,0,0,0,0,0,0],"trees":[{"base_weights":[-2.4682736E-8,-2.2198954E0,1.7108837E0,-6.8613124E-1,-1.457793E0,5.275715E-1,6.8062735E-1,-1.0616786E-2,-5.815738E-1,8.540821E-1,-1.11587256E-1,-6.005513E-1,2.9229534E-1,1.130394E0,3.2302815E-1,2.304028E-2,-2.903704E-1,1.4910257E-1,3.9594385E-1,2.5026962E-1,-1.0593774E-1],"categories":[],"categories_nodes":[],"categories_segments":[],"categories_sizes":[],"default_left":[0,0,0,0,0,0,0,0,0,0,0,0,0,0,0,0,0,0,0,0,0],"id":0,"left_children":[1,3,5,-1,7,-1,9,11,-1,13,-1,15,-1,17,19,-1,-1,-1,-1,-1,-1],"loss_changes":[1.3978643E3,4.8710938E0,9.015259E0,0E0,1.0931347E1,0E0,2.2944245E0,3.4501452E0,0E0,1.0433145E0,0E0,9.955907E-1,0E0,5.3512573E-2,1.9140095E0,0E0,0E0,0E0,0E0,0E0,0E0],"parents":[2147483647,0,0,1,1,2,2,4,4,6,6,7,7,9,9,11,11,13,13,14,14],"right_children":[2,4,6,-1,8,-1,10,12,-1,14,-1,16,-1,18,20,-1,-1,-1,-1,-1,-1],"split_conditions":[-7.168984E-3,-8.8207E-1,-5.440938E-1,-6.8613124E-1,-9.0300536E-1,5.275715E-1,1.1313375E0,-9.120155E-1,-5.815738E-1,-1.24868706E-1,-1.11587256E-1,-9.416663E-1,2.9229534E-1,-9.772522E-1,-8.6930543E-1,2.304028E-2,-2.903704E-1,1.4910257E-1,3.9594385E-1,2.5026962E-1,-1.0593774E-1],"split_indices":[1,5,0,0,8,0,10,6,0,0,0,6,0,10,8,0,0,0,0,0,0],"split_type":[0,0,0,0,0,0,0,0,0,0,0,0,0,0,0,0,0,0,0,0,0],"sum_hessian":[3.6605438E2,1.591968E2,2.0685757E2,1.4445636E2,1.4740444E1,1.9703061E2,9.826963E0,3.9307852E0,1.0809659E1,8.598593E0,1.2283704E0,2.7024148E0,1.2283704E0,4.9134817E0,3.685111E0,1.2283704E0,1.4740444E0,1.9653926E0,2.948089E0,1.9653926E0,1.7197185E0],"tree_param":{"num_deleted":"0","num_feature":"12","num_nodes":"21","size_leaf_vector":"1"}},{"base_weights":[1.8646812E-2,-1.5964651E0,1.4012934E0,-4.9330944E-1,-1.0595233E0,2.4859501E-1,1.432449E0,5.7600334E-4,-4.2314106E-1,2.792669E-1,-1.6038932E-1,4.3333685E-1,7.8870267E-1,-4.8828545E-1,2.5320837E-1,-2.687451E-1,3.5890523E-1,3.4130794E-1,2.7561566E-2,4.0088005E-2,-2.5510988E-1,2.6521137E-1,-9.319131E-2],"categories":[],"categories_nodes":[],"categories_segments":[],"categories_sizes":[],"default_left":[0,0,0,0,0,0,0,0,0,0,0,0,0,0,0,0,0,0,0,0,0,0,0],"id":1,"left_children":[1,3,5,-1,7,9,11,13,-1,-1,15,-1,17,19,-1,-1,21,-1,-1,-1,-1,-1,-1],"loss_changes":[7.5658673E2,2.2769165E0,6.199127E0,0E0,5.8084908E0,1.8273997E0,2.3284912E-1,2.4251764E0,0E0,0E0,2.0831993E0,0E0,1.2216091E0,9.5226604E-1,0E0,0E0,1.4762783E0,0E0,0E0,0E0,0E0,0E0,0E0],"parents":[2147483647,0,0,1,1,2,2,4,4,5,5,6,6,7,7,10,10,12,12,13,13,16,16],"right_children":[2,4,6,-1,8,10,12,14,-1,-1,16,-1,18,20,-1,-1,22,-1,-1,-1,-1,-1,-1],"split_conditions":[-7.168984E-3,-8.8207E-1,5.440938E-1,-4.9330944E-1,-9.0300536E-1,-9.321266E-1,-5.440938E-1,-9.120155E-1,-4.2314106E-1,2.792669E-1,-8.89131E-1,4.3333685E-1,-8.6149913E-1,-9.7809577E-1,2.5320837E-1,-2.687451E-1,-8.229818E-1,3.4130794E-1,2.7561566E-2,4.0088005E-2,-2.5510988E-1,2.6521137E-1,-9.319131E-2],"split_indices":[1,5,1,0,8,8,0,6,0,0,6,0,6,10,0,0,6,0,0,0,0,0,0],"split_type":[0,0,0,0,0,0,0,0,0,0,0,0,0,0,0,0,0,0,0,0,0,0,0],"sum_hessian":[3.3679938E2,1.5526958E2,1.8152982E2,1.4065916E2,1.4610417E1,5.013647E0,1.7651616E2,3.88212E0,1.0728297E1,1.4007399E0,3.6129074E0,1.7206303E2,4.4531293E0,2.7242448E0,1.1578751E0,1.1951973E0,2.4177098E0,2.5455744E0,1.9075551E0,1.2346132E0,1.4896315E0,1.1754366E0,1.2422732E0],"tree_param":{"num_deleted":"0","num_feature":"12","num_nodes":"23","size_leaf_vector":"1"}},{"base_weights":[2.2435179E-2,1.2578667E0,-1.3216307E0,3.8534218E-1,6.202183E-1,-4.167063E-1,-7.480326E-1,7.099895E-1,2.0909304E-2,1.179541E-1,-1.0958256E0,7.965418E-1,8.0733545E-2,-2.0908949E-1,1.8370563E-1,-5.09762E-1,-1.2326628E0,8.444964E-2,2.9803607E-1,6.3023195E-2,-2.0225321E-1,-2.8826815E-1,3.0706964E-2,-3.9653713E-1,-1.2170046E-1],"categories":[],"categories_nodes":[],"categories_segments":[],"categories_sizes":[],"default_left":[0,0,0,0,0,0,0,0,0,0,0,0,0,0,0,0,0,0,0,0,0,0,0,0,0],"id":2,"left_children":[1,3,5,-1,7,-1,9,11,-1,13,15,17,-1,19,-1,21,23,-1,-1,-1,-1,-1,-1,-1,-1],"loss_changes":[4.7358154E2,1.7244568E0,4.241394E0,0E0,3.4024334E-1,0E0,5.1074924E0,4.021573E-2,0E0,1.0397977E0,3.2514954E-1,2.341671E-1,0E0,9.4859487E-1,0E0,1.1907309E0,1.2230873E-1,0E0,0E0,0E0,0E0,0E0,0E0,0E0,0E0],"parents":[2147483647,0,0,1,1,2,2,4,4,6,6,7,7,9,9,10,10,11,11,13,13,15,15,16,16],"right_children":[2,4,6,-1,8,-1,10,12,-1,14,16,18,-1,20,-1,22,24,-1,-1,-1,-1,-1,-1,-1,-1],"split_conditions":[7.1689836E-3,-5.440938E-1,-8.8207E-1,3.8534218E-1,1.0303969E0,-4.167063E-1,-8.870234E-1,-1.24868706E-1,2.0909304E-2,-9.120155E-1,9.624075E-1,-9.772522E-1,8.0733545E-2,-9.29694E-1,1.8370563E-1,-8.10022E-1,1.1724063E0,8.444964E-2,2.9803607E-1,6.3023195E-2,-2.0225321E-1,-2.8826815E-1,3.0706964E-2,-3.9653713E-1,-1.2170046E-1],"split_indices":[0,0,5,0,10,0,8,0,0,6,8,10,0,6,0,10,6,0,0,0,0,0,0,0,0],"split_type":[0,0,0,0,0,0,0,0,0,0,0,0,0,0,0,0,0,0,0,0,0,0,0,0,0],"sum_hessian":[2.8320273E2,1.4759827E2,1.3560448E2,1.4071237E2,6.8858953E0,1.200756E2,1.5528875E1,5.6714115E0,1.2144837E0,4.6389575E0,1.0889917E1,4.066387E0,1.6050243E0,3.139359E0,1.4995987E0,2.955793E0,7.9341245E0,1.7966449E0,2.2697423E0,1.9395863E0,1.1997726E0,1.3736373E0,1.5821556E0,6.6221337E0,1.3119911E0],"tree_param":{"num_deleted":"0","num_feature":"12","num_nodes":"25","size_leaf_vector":"1"}},{"base_weights":[2.1877669E-2,-1.2010616E0,1.1379703E0,-2.6234131E-2,-1.2195455E0,3.5670868E-1,4.231469E-1,-3.7531343E-1,-8.7618846E-1,2.905162E-1,1.4330544E-1,-3.1997365E-1,-1.0142505E0,-1.513135E-1,3.497691E-1,-3.227802E-1,1.2666087E-1,-3.255584E-1,-6.401069E-2,5.56852E-1,-8.295312E-2,2.4217473E-1,-1.5374108E-2],"categories":[],"categories_nodes":[],"categories_segments":[],"categories_sizes":[],"default_left":[0,0,0,0,0,0,0,0,0,0,0,0,0,0,0,0,0,0,0,0,0,0,0],"id":3,"left_children":[1,3,5,-1,7,-1,9,-1,11,-1,13,15,17,-1,19,-1,-1,-1,-1,21,-1,-1,-1],"loss_changes":[3.1563083E2,2.1647644E0,3.909256E0,0E0,7.7041626E-2,0E0,1.327846E0,0E0,6.317005E-1,0E0,1.1827711E0,2.6631925E0,3.090849E-1,0E0,9.7065383E-1,0E0,0E0,0E0,0E0,8.124616E-1,0E0,0E0,0E0],"parents":[2147483647,0,0,1,1,2,2,4,4,6,6,8,8,10,10,11,11,12,12,14,14,19,19],"right_children":[2,4,6,-1,8,-1,10,-1,12,-1,14,16,18,-1,20,-1,-1,-1,-1,22,-1,-1,-1],"split_conditions":[-7.168984E-3,-9.444443E-1,-5.440938E-1,-2.6234131E-2,-8.8207E-1,3.5670868E-1,-9.321266E-1,-3.7531343E-1,-9.0300536E-1,2.905162E-1,-9.102538E-1,-9.382386E-1,1.1868429E0,-1.513135E-1,1.1313375E0,-3.227802E-1,1.2666087E-1,-3.255584E-1,-6.401069E-2,7.1689836E-3,-8.295312E-2,2.4217473E-1,-1.5374108E-2],"split_indices":[1,6,0,0,5,0,8,0,8,0,8,8,8,0,10,0,0,0,0,0,0,0,0],"split_type":[0,0,0,0,0,0,0,0,0,0,0,0,0,0,0,0,0,0,0,0,0,0,0],"sum_hessian":[2.2924464E2,1.0935006E2,1.1989458E2,1.8789353E0,1.0747112E2,1.11282486E2,8.612091E0,9.6018875E1,1.14522505E1,2.0864284E0,6.5256624E0,2.9370944E0,8.515157E0,1.2285904E0,5.297072E0,1.232254E0,1.7048404E0,7.49613E0,1.0190263E0,4.0641084E0,1.2329638E0,2.6467566E0,1.4173517E0],"tree_param":{"num_deleted":"0","num_feature":"12","num_nodes":"23","size_leaf_vector":"1"}},{"base_weights":[2.0320525E-2,-1.1051658E0,1.0639474E0,-3.5020134E-1,-6.054521E-1,3.3802164E-1,3.4949023E-1,3.2505408E-2,-8.8412476E-1,2.5674388E-1,1.0666142E-1,-8.0325805E-2,1.047002E-1,-2.8350598E-1,-8.297981E-2,-2.941214E-1,4.364847E-1,-1.7478846E-1,7.111933E-2,2.748793E-1,-4.4574916E-2],"categories":[],"categories_nodes":[],"categories_segments":[],"categories_sizes":[],"default_left":[0,0,0,0,0,0,0,0,0,0,0,0,0,0,0,0,0,0,0,0,0],"id":4,"left_children":[1,3,5,-1,7,-1,9,11,13,-1,15,-1,-1,-1,-1,17,19,-1,-1,-1,-1],"loss_changes":[2.1612405E2,2.0438995E0,3.8888092E0,0E0,2.1397161E0,0E0,1.0351475E0,5.281579E-1,4.5652866E-2,0E0,1.0978986E0,0E0,0E0,0E0,0E0,7.370955E-1,1.3785237E0,0E0,0E0,0E0,0E0],"parents":[2147483647,0,0,1,1,2,2,4,4,6,6,7,7,8,8,10,10,15,15,16,16],"right_children":[2,4,6,-1,8,-1,10,12,14,-1,16,-1,-1,-1,-1,18,20,-1,-1,-1,-1],"split_conditions":[-7.168984E-3,-8.8207E-1,-5.440938E-1,-3.5020134E-1,-9.0300536E-1,3.3802164E-1,-9.321266E-1,-9.382386E-1,1.1861672E0,2.5674388E-1,-8.337871E-1,-8.0325805E-2,1.047002E-1,-2.8350598E-1,-8.297981E-2,5.440938E-1,-7.461195E-1,-1.7478846E-1,7.111933E-2,2.748793E-1,-4.4574916E-2],"split_indices":[1,5,0,0,8,0,8,8,8,0,10,0,0,0,0,1,6,0,0,0,0],"split_type":[0,0,0,0,0,0,0,0,0,0,0,0,0,0,0,0,0,0,0,0,0],"sum_hessian":[1.8199883E2,8.753684E1,9.446198E1,7.6662834E1,1.0874013E1,8.630027E1,8.161709E0,3.5744593E0,7.2995534E0,1.827286E0,6.334423E0,1.9133128E0,1.6611466E0,6.129629E0,1.1699244E0,2.9084647E0,3.4259584E0,1.8220159E0,1.0864489E0,1.571325E0,1.8546336E0],"tree_param":{"num_deleted":"0","num_feature":"12","num_nodes":"21","size_leaf_vector":"1"}},{"base_weights":[2.0487279E-2,1.0348746E0,-1.0063007E0,3.2499424E-1,4.028825E-1,-3.3297974E-1,-4.3689013E-1,2.0635203E-1,2.1483958E-1,-9.683763E-3,-8.903587E-1,-1.277565E-1,4.9743038E-1,8.924849E-2,-1.3386399E-1,-2.9733256E-1,-6.7637056E-2,1.8645792E-1,2.9100198E-2,5.7216737E-2,-3.0524006E-1,-1.8482336E-1,-3.3324386E-3],"categories":[],"categories_nodes":[],"categories_segments":[],"categories_sizes":[],"default_left":[0,0,0,0,0,0,0,0,0,0,0,0,0,0,0,0,0,0,0,0,0,0,0],"id":5,"left_children":[1,3,5,-1,7,-1,9,-1,11,13,15,-1,17,-1,19,-1,-1,-1,-1,-1,21,-1,-1],"loss_changes":[1.5096173E2,1.7952347E0,3.7660294E0,0E0,2.1562016E-1,0E0,2.459686E0,0E0,1.2148483E0,3.286478E-1,1.8984699E-1,0E0,1.5365958E-1,0E0,3.9651167E-1,0E0,0E0,0E0,0E0,0E0,3.9220753E-1,0E0,0E0],"parents":[2147483647,0,0,1,1,2,2,4,4,6,6,8,8,9,9,10,10,12,12,14,14,20,20],"right_children":[2,4,6,-1,8,-1,10,-1,12,14,16,-1,18,-1,20,-1,-1,-1,-1,-1,22,-1,-1],"split_conditions":[7.1689836E-3,-5.440938E-1,-8.8207E-1,3.2499424E-1,-9.3442786E-1,-3.3297974E-1,9.624075E-1,2.0635203E-1,-9.3081874E-1,8.715277E-1,1.1724063E0,-1.277565E-1,1.0303969E0,8.924849E-2,-9.29694E-1,-2.9733256E-1,-6.7637056E-2,1.8645792E-1,2.9100198E-2,5.7216737E-2,-9.096411E-1,-1.8482336E-1,-3.3324386E-3],"split_indices":[0,0,5,0,8,0,8,0,10,0,6,0,10,0,6,0,0,0,0,0,6,0,0],"split_type":[0,0,0,0,0,0,0,0,0,0,0,0,0,0,0,0,0,0,0,0,0,0,0],"sum_hessian":[1.4293817E2,7.1899315E1,7.103886E1,6.611756E1,5.7817597E0,5.9297535E1,1.1741321E1,1.2419052E0,4.5398545E0,6.571633E0,5.1696873E0,1.2343496E0,3.305505E0,1.4900631E0,5.0815697E0,4.063373E0,1.1063144E0,2.101948E0,1.2035571E0,1.7168901E0,3.3646796E0,1.1037146E0,2.260965E0],"tree_param":{"num_deleted":"0","num_feature":"12","num_nodes":"23","size_leaf_vector":"1"}},{"base_weights":[1.896369E-2,1.0121676E0,-9.20886E-1,3.1533772E-1,4.295989E-1,-3.2060462E-1,-3.3247465E-1,1.9290732E-1,9.001951E-3,-8.031788E-3,-8.017102E-1,-1.599993E-1,1.5226942E-1,-2.7209887E-1,-5.820764E-2,-3.92574E-1,1.2746172E-1,-2.113308E-2,-2.647516E-1],"categories":[],"categories_nodes":[],"categories_segments":[],"categories_sizes":[],"default_left":[0,0,0,0,0,0,0,0,0,0,0,0,0,0,0,0,0,0,0],"id":6,"left_children":[1,3,5,-1,7,-1,9,-1,-1,11,13,15,-1,-1,-1,17,-1,-1,-1],"loss_changes":[1.06448524E2,8.065796E-1,4.7410507E0,0E0,4.2127413E-1,0E0,2.0056024E0,0E0,0E0,7.725872E-1,1.6903329E-1,1.1972493E0,0E0,0E0,0E0,8.752723E-1,0E0,0E0,0E0],"parents":[2147483647,0,0,1,1,2,2,4,4,6,6,9,9,10,10,11,11,15,15],"right_children":[2,4,6,-1,8,-1,10,-1,-1,12,14,16,-1,-1,-1,18,-1,-1,-1],"split_conditions":[-1.24868706E-1,-5.440938E-1,-8.8207E-1,3.1533772E-1,-8.6149913E-1,-3.2060462E-1,9.624075E-1,1.9290732E-1,9.001951E-3,9.7977364E-1,1.1724063E0,-8.10022E-1,1.5226942E-1,-2.7209887E-1,-5.820764E-2,-8.6930543E-1,1.2746172E-1,-2.113308E-2,-2.647516E-1],"split_indices":[0,0,5,0,6,0,8,0,0,11,6,10,0,0,0,8,0,0,0],"split_type":[0,0,0,0,0,0,0,0,0,0,0,0,0,0,0,0,0,0,0],"sum_hessian":[1.120377E2,5.4435257E1,5.7602436E1,5.0269306E1,4.165953E0,4.5386196E1,1.2216238E1,2.31845E0,1.8475033E0,7.8237734E0,4.392464E0,6.575411E0,1.2483629E0,3.32401E0,1.0684543E0,4.939858E0,1.6355526E0,3.6703691E0,1.2694889E0],"tree_param":{"num_deleted":"0","num_feature":"12","num_nodes":"19","size_leaf_vector":"1"}},{"base_weights":[1.6672177E-2,-9.230161E-1,9.1183054E-1,7.097295E-2,-9.6277016E-1,3.0767843E-1,2.426467E-1,-3.1079838E-1,-5.557626E-1,2.0095587E-1,6.096806E-2,-2.6578042E-1,-3.8766196E-1,-1.3940413E-1,2.5614688E-1,1.0298786E-1,-6.4861846E-1,4.123067E-1,-5.12697E-2,-2.161218E-1,-4.578602E-2,2.1083383E-1,1.7954564E-2],"categories":[],"categories_nodes":[],"categories_segments":[],"categories_sizes":[],"default_left":[0,0,0,0,0,0,0,0,0,0,0,0,0,0,0,0,0,0,0,0,0,0,0],"id":7,"left_children":[1,3,5,-1,7,-1,9,-1,11,-1,13,-1,15,-1,17,-1,19,21,-1,-1,-1,-1,-1],"loss_changes":[7.564162E1,2.2505608E0,3.2564316E0,0E0,6.945076E-1,0E0,5.800904E-1,0E0,1.3699698E-1,0E0,8.077747E-1,0E0,1.6559281E0,0E0,4.3992049E-1,0E0,9.9532604E-2,4.0326393E-1,0E0,0E0,0E0,0E0,0E0],"parents":[2147483647,0,0,1,1,2,2,4,4,6,6,8,8,10,10,12,12,14,14,16,16,17,17],"right_children":[2,4,6,-1,8,-1,10,-1,12,-1,14,-1,16,-1,18,-1,20,22,-1,-1,-1,-1,-1],"split_conditions":[-7.168984E-3,-9.444443E-1,-5.440938E-1,7.097295E-2,-8.8207E-1,3.0767843E-1,-9.321266E-1,-3.1079838E-1,-9.382386E-1,2.0095587E-1,-9.102538E-1,-2.6578042E-1,-9.0300536E-1,-1.3940413E-1,1.1313375E0,1.0298786E-1,1.1861672E0,-1.24868706E-1,-5.12697E-2,-2.161218E-1,-4.578602E-2,2.1083383E-1,1.7954564E-2],"split_indices":[1,6,0,0,5,0,8,0,8,0,8,0,8,0,10,0,8,0,0,0,0,0,0],"split_type":[0,0,0,0,0,0,0,0,0,0,0,0,0,0,0,0,0,0,0,0,0,0,0],"sum_hessian":[8.792376E1,4.2879784E1,4.5043972E1,1.2572045E0,4.162258E1,3.8043762E1,7.0002093E0,3.3966335E1,7.6562443E0,1.2869663E0,5.713243E0,1.1423166E0,6.5139275E0,1.1730999E0,4.540143E0,1.6307056E0,4.883222E0,3.349742E0,1.1904011E0,3.8705838E0,1.0126383E0,1.2914648E0,2.0582774E0],"tree_param":{"num_deleted":"0","num_feature":"12","num_nodes":"23","size_leaf_vector":"1"}},{"base_weights":[1.4913929E-2,9.3950796E-1,-8.0008996E-1,2.9482275E-1,4.0179335E-2,-3.0344307E-1,-2.3381878E-1,2.5249148E-2,-6.736338E-1,-1.8123934E-1,3.4887016E-1,-2.3508164E-1,-4.7903106E-2,-4.2941377E-1,1.290991E-1,-4.224173E-3,1.6005464E-1,-3.7569944E-2,-1.818538E-1],"categories":[],"categories_nodes":[],"categories_segments":[],"categories_sizes":[],"default_left":[0,0,0,0,0,0,0,0,0,0,0,0,0,0,0,0,0,0,0],"id":8,"left_children":[1,3,5,-1,-1,-1,7,9,11,13,15,-1,-1,17,-1,-1,-1,-1,-1],"loss_changes":[5.3778385E1,1.0326385E0,4.3051605E0,0E0,0E0,0E0,1.3403385E0,6.160465E-1,1.2025106E-1,1.0511947E0,2.4638084E-1,0E0,0E0,1.6933441E-1,0E0,0E0,0E0,0E0,0E0],"parents":[2147483647,0,0,1,1,2,2,6,6,7,7,8,8,9,9,10,10,13,13],"right_children":[2,4,6,-1,-1,-1,8,10,12,14,16,-1,-1,18,-1,-1,-1,-1,-1],"split_conditions":[-1.24868706E-1,1.1663628E0,-8.8207E-1,2.9482275E-1,4.0179335E-2,-3.0344307E-1,9.624075E-1,-8.9219195E-1,1.1868429E0,9.7977364E-1,-8.10022E-1,-2.3508164E-1,-4.7903106E-2,-9.2869097E-1,1.290991E-1,-4.224173E-3,1.6005464E-1,-3.7569944E-2,-1.818538E-1],"split_indices":[0,10,5,0,0,0,8,6,8,11,10,0,0,8,0,0,0,0,0],"split_type":[0,0,0,0,0,0,0,0,0,0,0,0,0,0,0,0,0,0,0],"sum_hessian":[6.9369385E1,3.2428078E1,3.694131E1,3.056762E1,1.860459E0,2.6327242E1,1.0614067E1,7.2727375E0,3.3413298E0,4.708447E0,2.5642908E0,2.320219E0,1.0211107E0,3.561175E0,1.1472718E0,1.1761389E0,1.388152E0,1.9367902E0,1.6243849E0],"tree_param":{"num_deleted":"0","num_feature":"12","num_nodes":"19","size_leaf_vector":"1"}},{"base_weights":[1.0066746E-2,-7.253967E-1,9.1435856E-1,-2.9619482E-1,-1.9581467E-1,2.9118285E-1,3.3030197E-2,9.559069E-3,-6.083117E-1,-1.9631167E-1,3.354409E-1,-2.1812035E-1,-4.340184E-2,-4.260321E-1,1.19875595E-1,1.6199788E-1,-1.3746808E-2,-1.835601E-1,-6.2386334E-2],"categories":[],"categories_nodes":[],"categories_segments":[],"categories_sizes":[],"default_left":[0,0,0,0,0,0,0,0,0,0,0,0,0,0,0,0,0,0,0],"id":9,"left_children":[1,3,5,-1,7,-1,-1,9,11,13,15,-1,-1,17,-1,-1,-1,-1,-1],"loss_changes":[3.815985E1,4.196747E0,1.0571575E0,0E0,9.9875367E-1,0E0,0E0,6.568728E-1,1.1017108E-1,9.9563277E-1,3.1952402E-1,0E0,0E0,6.874275E-2,0E0,0E0,0E0,0E0,0E0],"parents":[2147483647,0,0,1,1,2,2,4,4,7,7,8,8,9,9,10,10,13,13],"right_children":[2,4,6,-1,8,-1,-1,10,12,14,16,-1,-1,18,-1,-1,-1,-1,-1],"split_conditions":[5.440938E-1,-8.8207E-1,1.1663628E0,-2.9619482E-1,9.624075E-1,2.9118285E-1,3.3030197E-2,-8.9219195E-1,1.1698128E0,9.7977364E-1,8.715277E-1,-2.1812035E-1,-4.340184E-2,-9.61923E-1,1.19875595E-1,1.6199788E-1,-1.3746808E-2,-1.835601E-1,-6.2386334E-2],"split_indices":[1,5,10,0,8,0,0,6,6,11,0,0,0,10,0,0,0,0,0],"split_type":[0,0,0,0,0,0,0,0,0,0,0,0,0,0,0,0,0,0,0],"sum_hessian":[5.53796E1,3.0649826E1,2.4729774E1,1.992904E1,1.0720785E1,2.2919886E1,1.8098881E0,7.8094482E0,2.9113364E0,5.0296464E0,2.7798018E0,1.8653662E0,1.0459702E0,3.8359365E0,1.19371E0,1.5382107E0,1.2415911E0,1.0961351E0,2.7398016E0],"tree_param":{"num_deleted":"0","num_feature":"12","num_nodes":"19","size_leaf_vector":"1"}},{"base_weights":[5.0094426E-3,2.8974435E-1,-6.002058E-1,-2.890743E-1,-1.2302989E-1,5.5003534E-3,-2.2719157E-1,-8.634509E-2,1.2174345E-1,4.377707E-2,-2.0328824E-1,-2.4336796E-2,1.1850961E-1],"categories":[],"categories_nodes":[],"categories_segments":[],"categories_sizes":[],"default_left":[0,0,0,0,0,0,0,0,0,0,0,0,0],"id":10,"left_children":[1,-1,3,-1,5,7,-1,9,-1,11,-1,-1,-1],"loss_changes":[2.7108498E1,0E0,4.8417683E0,0E0,1.1058292E0,4.8466992E-1,0E0,8.5842097E-1,0E0,4.6058503E-1,0E0,0E0,0E0],"parents":[2147483647,0,0,2,2,4,4,5,5,7,7,9,9],"right_children":[2,-1,4,-1,6,8,-1,10,-1,12,-1,-1,-1],"split_conditions":[-5.440938E-1,2.8974435E-1,-8.8207E-1,-2.890743E-1,1.1752353E0,1.1398859E0,-2.2719157E-1,9.624075E-1,1.2174345E-1,-8.10022E-1,-2.0328824E-1,-2.4336796E-2,1.1850961E-1],"split_indices":[0,0,5,0,10,6,0,8,0,10,0,0,0],"split_type":[0,0,0,0,0,0,0,0,0,0,0,0,0],"sum_hessian":[4.4621826E1,1.70146E1,2.7607225E1,1.5093785E1,1.251344E1,1.1229259E1,1.2841812E0,9.771613E0,1.4576463E0,8.768018E0,1.0035951E0,7.035407E0,1.7326107E0],"tree_param":{"num_deleted":"0","num_feature":"12","num_nodes":"13","size_leaf_vector":"1"}},{"base_weights":[-2.2269269E-4,2.830877E-1,-5.2986264E-1,-2.815865E-1,-1.0626803E-1,3.8335423E-3,-2.0619467E-1,1.23928405E-1,-7.895315E-2,-1.7817779E-1,9.6141875E-2,1.2592727E-1,-4.2889003E-2],"categories":[],"categories_nodes":[],"categories_segments":[],"categories_sizes":[],"default_left":[0,0,0,0,0,0,0,0,0,0,0,0,0],"id":11,"left_children":[1,-1,3,-1,5,7,-1,-1,9,-1,11,-1,-1],"loss_changes":[1.929969E1,0E0,4.182149E0,0E0,8.5170853E-1,4.443515E-1,0E0,0E0,1.044203E0,0E0,7.587501E-1,0E0,0E0],"parents":[2147483647,0,0,2,2,4,4,5,5,8,8,10,10],"right_children":[2,-1,4,-1,6,8,-1,-1,10,-1,12,-1,-1],"split_conditions":[-5.440938E-1,2.830877E-1,-8.8207E-1,-2.815865E-1,1.1752353E0,-9.6123296E-1,-2.0619467E-1,1.23928405E-1,-9.633146E-1,-1.7817779E-1,-8.6930543E-1,1.2592727E-1,-4.2889003E-2],"split_indices":[0,0,5,0,10,8,0,0,10,0,8,0,0],"split_type":[0,0,0,0,0,0,0,0,0,0,0,0,0],"sum_hessian":[3.6606937E1,1.2877272E1,2.3729664E1,1.1457546E1,1.2272118E1,1.1152293E1,1.1198243E0,1.2050729E0,9.947221E0,1.9170258E0,8.030194E0,3.091069E0,4.939126E0],"tree_param":{"num_deleted":"0","num_feature":"12","num_nodes":"13","size_leaf_vector":"1"}},{"base_weights":[-4.0582875E-3,2.7564442E-1,-4.6260187E-1,-2.733467E-1,-9.009744E-2,9.43855E-2,-1.8219988E-1,-1.932619E-1,-5.52087E-2,3.334733E-1,-2.733779E-1,1.20816424E-1,3.4817763E-2,3.8182274E-2,-1.20517075E-1],"categories":[],"categories_nodes":[],"categories_segments":[],"categories_sizes":[],"default_left":[0,0,0,0,0,0,0,0,0,0,0,0,0,0,0],"id":12,"left_children":[1,-1,3,-1,5,-1,7,-1,9,11,13,-1,-1,-1,-1],"loss_changes":[1.3744385E1,0E0,3.5424066E0,0E0,5.404263E-1,0E0,6.21019E-1,0E0,9.282858E-1,1.34755075E-2,4.045195E-1,0E0,0E0,0E0,0E0],"parents":[2147483647,0,0,2,2,4,4,6,6,8,8,9,9,10,10],"right_children":[2,-1,4,-1,6,-1,8,-1,10,12,14,-1,-1,-1,-1],"split_conditions":[-5.440938E-1,2.7564442E-1,-8.8207E-1,-2.733467E-1,-9.531562E-1,9.43855E-2,-9.633146E-1,-1.932619E-1,-8.6930543E-1,-9.105268E-1,-1.24868706E-1,1.20816424E-1,3.4817763E-2,3.8182274E-2,-1.20517075E-1],"split_indices":[0,0,5,0,8,0,10,0,8,8,0,0,0,0,0],"split_type":[0,0,0,0,0,0,0,0,0,0,0,0,0,0,0],"sum_hessian":[3.0474596E1,9.782465E0,2.0692131E1,8.731731E0,1.19604E1,1.7693918E0,1.0191008E1,1.3191104E0,8.871898E0,2.9995337E0,5.8723636E0,1.628515E0,1.3710188E0,1.4267806E0,4.4455833E0],"tree_param":{"num_deleted":"0","num_feature":"12","num_nodes":"15","size_leaf_vector":"1"}},{"base_weights":[-3.0168812E-3,2.6714382E-1,-3.9645308E-1,-2.6407868E-1,-6.8006486E-2,1.01272024E-1,-1.346194E-1,-1.4703345E-1,-1.6447311E-2,3.0845842E-1,-2.1458036E-1,1.13886334E-1,2.8908247E-2,-9.605262E-2,5.4770004E-2],"categories":[],"categories_nodes":[],"categories_segments":[],"categories_sizes":[],"default_left":[0,0,0,0,0,0,0,0,0,0,0,0,0,0,0],"id":13,"left_children":[1,-1,3,-1,5,-1,7,-1,9,11,13,-1,-1,-1,-1],"loss_changes":[9.739261E0,0E0,2.9958663E0,0E0,3.8417405E-1,0E0,4.743699E-1,0E0,6.8763405E-1,2.480656E-2,3.3466712E-1,0E0,0E0,0E0,0E0],"parents":[2147483647,0,0,2,2,4,4,6,6,8,8,9,9,10,10],"right_children":[2,-1,4,-1,6,-1,8,-1,10,12,14,-1,-1,-1,-1],"split_conditions":[-5.440938E-1,2.6714382E-1,-8.8207E-1,-2.6407868E-1,-9.421677E-1,1.01272024E-1,-9.633146E-1,-1.4703345E-1,-8.6930543E-1,-9.105268E-1,1.1698128E0,1.13886334E-1,2.8908247E-2,-9.605262E-2,5.4770004E-2],"split_indices":[0,0,5,0,6,0,10,0,8,8,6,0,0,0,0],"split_type":[0,0,0,0,0,0,0,0,0,0,0,0,0,0,0],"sum_hessian":[2.5700787E1,7.470926E0,1.822986E1,6.692128E0,1.1537732E1,1.0538098E0,1.0483923E1,1.8303423E0,8.653581E0,3.0671432E0,5.5864367E0,1.7051816E0,1.3619617E0,4.5661755E0,1.0202613E0],"tree_param":{"num_deleted":"0","num_feature":"12","num_nodes":"15","size_leaf_vector":"1"}},{"base_weights":[1.478273E-3,-5.354379E-1,5.322554E-1,-2.5363097E-1,-1.808713E-1,2.574165E-1,1.0969855E-1,2.4725702E-2,-3.4541324E-1,1.1105914E-1,-2.7697543E-2,-7.23238E-2,8.6887866E-2,-1.9127642E-1,2.4188238E-3,-1.0066477E-1,2.4941187E-1,1.666281E-1,-5.8972202E-2],"categories":[],"categories_nodes":[],"categories_segments":[],"categories_sizes":[],"default_left":[0,0,0,0,0,0,0,0,0,0,0,0,0,0,0,0,0,0,0],"id":14,"left_children":[1,3,5,-1,7,-1,9,11,13,-1,15,-1,-1,-1,-1,-1,17,-1,-1],"loss_changes":[6.91777E0,1.173624E0,1.5861976E0,0E0,2.4202575E-1,0E0,2.4147792E-1,3.5156602E-1,4.079717E-1,0E0,5.2387464E-1,0E0,0E0,0E0,0E0,0E0,5.5808324E-1,0E0,0E0],"parents":[2147483647,0,0,1,1,2,2,4,4,6,6,7,7,8,8,10,10,16,16],"right_children":[2,4,6,-1,8,-1,10,12,14,-1,16,-1,-1,-1,-1,-1,18,-1,-1],"split_conditions":[-7.168984E-3,-8.8207E-1,-5.440938E-1,-2.5363097E-1,-9.0300536E-1,2.574165E-1,-9.1356415E-1,-9.382386E-1,1.0481454E0,1.1105914E-1,-8.337871E-1,-7.23238E-2,8.6887866E-2,-1.9127642E-1,2.4188238E-3,-1.0066477E-1,1.1313375E0,1.666281E-1,-5.8972202E-2],"split_indices":[1,5,0,0,8,0,6,8,10,0,10,0,0,0,0,0,10,0,0],"split_type":[0,0,0,0,0,0,0,0,0,0,0,0,0,0,0,0,0,0,0],"sum_hessian":[2.2274315E1,1.1068756E1,1.120556E1,5.166899E0,5.9018564E0,5.7452416E0,5.4603176E0,3.001357E0,2.9004993E0,1.3004076E0,4.1599097E0,1.5430067E0,1.4583504E0,1.1479034E0,1.7525959E0,1.8707403E0,2.2891695E0,1.2120943E0,1.0770754E0],"tree_param":{"num_deleted":"0","num_feature":"12","num_nodes":"19","size_leaf_vector":"1"}},{"base_weights":[-2.410715E-4,-3.6072582E-1,6.4539635E-1,-2.4199538E-1,-9.444327E-2,7.706832E-1,-1.46295475E-2,-1.8474002E-1,1.0054286E-1,4.6586882E-2,2.5915977E-1,-4.055085E-1,3.6561716E-2,-2.0632643E-1,-1.6187501E-1,4.061193E-1,-1.19742565E-1,-1.2267269E-1,3.335214E-2,3.2140106E-2,1.519511E-1],"categories":[],"categories_nodes":[],"categories_segments":[],"categories_sizes":[],"default_left":[0,0,0,0,0,0,0,0,0,0,0,0,0,0,0,0,0,0,0,0,0],"id":15,"left_children":[1,3,5,-1,7,9,-1,11,-1,-1,-1,13,15,17,-1,19,-1,-1,-1,-1,-1],"loss_changes":[5.003941E0,1.5620136E0,7.0753837E-1,0E0,4.409209E-1,2.4346638E-1,0E0,4.4077054E-1,0E0,0E0,0E0,7.4310303E-3,1.0108515E0,2.646797E-1,0E0,4.6213984E-2,0E0,0E0,0E0,0E0,0E0],"parents":[2147483647,0,0,1,1,2,2,4,4,5,5,7,7,11,11,12,12,13,13,15,15],"right_children":[2,4,6,-1,8,10,-1,12,-1,-1,-1,14,16,18,-1,20,-1,-1,-1,-1,-1],"split_conditions":[5.440938E-1,-8.8207E-1,1.1584479E0,-2.4199538E-1,9.7977364E-1,-9.8470736E-1,-1.46295475E-2,-8.9219195E-1,1.0054286E-1,4.6586882E-2,2.5915977E-1,-9.082269E-1,9.624075E-1,-9.362507E-1,-1.6187501E-1,-8.10022E-1,-1.19742565E-1,-1.2267269E-1,3.335214E-2,3.2140106E-2,1.519511E-1],"split_indices":[1,5,10,0,11,10,0,6,0,0,0,6,8,8,0,10,0,0,0,0,0],"split_type":[0,0,0,0,0,0,0,0,0,0,0,0,0,0,0,0,0,0,0,0,0],"sum_hessian":[1.949961E1,1.2796249E1,6.703362E0,4.025579E0,8.77067E0,5.5850916E0,1.1182705E0,7.718285E0,1.0523851E0,1.0851423E0,4.499949E0,3.4471068E0,4.2711782E0,2.408267E0,1.0388398E0,2.3477502E0,1.923428E0,1.2944412E0,1.1138258E0,1.1097367E0,1.2380136E0],"tree_param":{"num_deleted":"0","num_feature":"12","num_nodes":"21","size_leaf_vector":"1"}},{"base_weights":[-1.8004087E-3,2.3670796E-1,-2.521751E-1,-2.2931379E-1,-4.5036152E-2,3.1180516E-2,-1.0497403E-1,-8.689982E-2,1.2343653E-1,-1.7590418E-1,8.7027214E-2,-1.045169E-1,1.36634065E-2],"categories":[],"categories_nodes":[],"categories_segments":[],"categories_sizes":[],"default_left":[0,0,0,0,0,0,0,0,0,0,0,0,0],"id":16,"left_children":[1,-1,3,-1,5,7,-1,9,-1,11,-1,-1,-1],"loss_changes":[3.8331065E0,0E0,1.5250187E0,0E0,2.787926E-1,4.9111423E-1,0E0,3.3837563E-1,0E0,3.0427665E-1,0E0,0E0,0E0],"parents":[2147483647,0,0,2,2,4,4,5,5,7,7,9,9],"right_children":[2,-1,4,-1,6,8,-1,10,-1,12,-1,-1,-1],"split_conditions":[-5.440938E-1,2.3670796E-1,-8.8207E-1,-2.2931379E-1,1.1592983E0,5.440938E-1,-1.0497403E-1,9.7977364E-1,1.2343653E-1,-8.9219195E-1,8.7027214E-2,-1.045169E-1,1.36634065E-2],"split_indices":[0,0,5,0,10,1,0,11,0,6,0,0,0],"split_type":[0,0,0,0,0,0,0,0,0,0,0,0,0],"sum_hessian":[1.735393E1,3.6557117E0,1.3698218E1,3.1698282E0,1.052839E1,9.140958E0,1.3874323E0,7.563783E0,1.5771743E0,6.550632E0,1.0131515E0,3.3601773E0,3.1904547E0],"tree_param":{"num_deleted":"0","num_feature":"12","num_nodes":"13","size_leaf_vector":"1"}},{"base_weights":[1.1391127E-3,2.237559E-1,-2.0887452E-1,-2.1585996E-1,-3.0692156E-2,6.858839E-2,-2.5228307E-1,-4.1704774E-2,1.0823821E-1,-1.4384133E-1,5.378398E-2,8.856491E-2,-1.253268E-1,-2.5125625E-2,1.2436624E-1],"categories":[],"categories_nodes":[],"categories_segments":[],"categories_sizes":[],"default_left":[0,0,0,0,0,0,0,0,0,0,0,0,0,0,0],"id":17,"left_children":[1,-1,3,-1,5,7,9,11,-1,-1,-1,13,-1,-1,-1],"loss_changes":[2.7667947E0,0E0,1.2338846E0,0E0,2.6540205E-1,2.913816E-1,4.4903123E-1,3.8584948E-1,0E0,0E0,0E0,3.781671E-1,0E0,0E0,0E0],"parents":[2147483647,0,0,2,2,4,4,5,5,6,6,7,7,11,11],"right_children":[2,-1,4,-1,6,8,10,12,-1,-1,-1,14,-1,-1,-1],"split_conditions":[-5.440938E-1,2.237559E-1,-8.8207E-1,-2.1585996E-1,9.624075E-1,-8.10022E-1,1.1854086E0,-8.6930543E-1,1.0823821E-1,-1.4384133E-1,5.378398E-2,-8.9772284E-1,-1.253268E-1,-2.5125625E-2,1.2436624E-1],"split_indices":[0,0,5,0,8,10,8,8,0,0,0,10,0,0,0],"split_type":[0,0,0,0,0,0,0,0,0,0,0,0,0,0,0],"sum_hessian":[1.56944E1,2.8910854E0,1.2803314E1,2.5259442E0,1.027737E1,7.5742927E0,2.7030776E0,6.121141E0,1.4531517E0,1.6981227E0,1.0049548E0,5.114047E0,1.007094E0,3.8317027E0,1.2823442E0],"tree_param":{"num_deleted":"0","num_feature":"12","num_nodes":"15","size_leaf_vector":"1"}},{"base_weights":[1.2154334E-3,2.1014386E-1,-1.7489085E-1,-2.0199506E-1,-2.3093043E-2,8.471221E-2,-9.129251E-2,-1.5795965E-1,2.4685876E-2,2.774322E-1,-1.2819012E-1,9.848719E-2,2.4930416E-2,-6.518192E-2,4.8743945E-2],"categories":[],"categories_nodes":[],"categories_segments":[],"categories_sizes":[],"default_left":[0,0,0,0,0,0,0,0,0,0,0,0,0,0,0],"id":18,"left_children":[1,-1,3,-1,5,-1,7,-1,9,11,13,-1,-1,-1,-1],"loss_changes":[2.0293489E0,0E0,9.8086154E-1,0E0,2.57659E-1,0E0,5.104519E-1,0E0,3.731332E-1,8.385241E-3,1.93973E-1,0E0,0E0,0E0,0E0],"parents":[2147483647,0,0,2,2,4,4,6,6,8,8,9,9,10,10],"right_children":[2,-1,4,-1,6,-1,8,-1,10,12,14,-1,-1,-1,-1],"split_conditions":[-5.440938E-1,2.1014386E-1,-8.8207E-1,-2.0199506E-1,-9.394493E-1,8.471221E-2,-9.772522E-1,-1.5795965E-1,-8.745216E-1,-9.082269E-1,1.1861672E0,9.848719E-2,2.4930416E-2,-6.518192E-2,4.8743945E-2],"split_indices":[0,0,5,0,6,0,10,0,10,6,8,0,0,0,0],"split_type":[0,0,0,0,0,0,0,0,0,0,0,0,0,0,0],"sum_hessian":[1.4484547E1,2.3149588E0,1.2169588E1,2.038987E0,1.0130601E1,1.2758087E0,8.854793E0,1.1182702E0,7.736522E0,2.6087623E0,5.12776E0,1.521287E0,1.0874753E0,4.1181583E0,1.0096012E0],"tree_param":{"num_deleted":"0","num_feature":"12","num_nodes":"15","size_leaf_vector":"1"}},{"base_weights":[4.5419326E-3,-3.0396712E-1,3.2547787E-1,-1.8810712E-1,-1.1819851E-1,1.9626254E-1,1.0409635E-1,-2.2068495E-1,3.8365576E-2,2.575521E-1,-8.35011E-2,-1.3499387E-1,6.286638E-2,1.054033E-1,1.4184465E-2,-5.6792386E-2,2.2759706E-2,-5.9868908E-3,3.421258E-2],"categories":[],"categories_nodes":[],"categories_segments":[],"categories_sizes":[],"default_left":[0,0,0,0,0,0,0,0,0,0,0,0,0,0,0,0,0,0,0],"id":19,"left_children":[1,3,5,-1,7,-1,9,11,-1,13,15,-1,17,-1,-1,-1,-1,-1,-1],"loss_changes":[1.5412701E0,4.026693E-1,4.8664612E-1,0E0,1.865134E-1,0E0,1.8687434E-1,3.4023023E-1,0E0,5.053146E-2,7.067849E-2,0E0,1.5086933E-2,0E0,0E0,0E0,0E0,0E0,0E0],"parents":[2147483647,0,0,1,1,2,2,4,4,6,6,7,7,9,9,10,10,12,12],"right_children":[2,4,6,-1,8,-1,10,12,-1,14,16,-1,18,-1,-1,-1,-1,-1,-1],"split_conditions":[-7.168984E-3,-8.8207E-1,-5.440938E-1,-1.8810712E-1,1.0481454E0,1.9626254E-1,-8.6149913E-1,8.991021E-1,3.8365576E-2,-1.24868706E-1,1.023661E0,-1.3499387E-1,-9.6069145E-1,1.054033E-1,1.4184465E-2,-5.6792386E-2,2.2759706E-2,-5.9868908E-3,3.421258E-2],"split_indices":[1,5,0,0,10,0,6,11,0,0,8,0,8,0,0,0,0,0,0],"split_type":[0,0,0,0,0,0,0,0,0,0,0,0,0,0,0,0,0,0,0],"sum_hessian":[1.3567333E1,6.9445524E0,6.622781E0,1.6682049E0,5.2763476E0,1.8784072E0,4.7443733E0,3.797864E0,1.4784834E0,2.404545E0,2.3398283E0,1.7753115E0,2.0225525E0,1.1988682E0,1.2056769E0,1.2933027E0,1.0465257E0,1.0054199E0,1.0171326E0],"tree_param":{"num_deleted":"0","num_feature":"12","num_nodes":"19","size_leaf_vector":"1"}},{"base_weights":[5.5398922E-3,1.8249771E-1,-1.1936804E-1,-1.7455278E-1,-7.727073E-3,8.065387E-2,-2.0670706E-1,-3.6966417E-2,1.1423769E-1,-1.1510366E-1,3.542407E-2,7.02133E-2,-1.3795182E-1,-1.2883407E-1,1.988007E-2],"categories":[],"categories_nodes":[],"categories_segments":[],"categories_sizes":[],"default_left":[0,0,0,0,0,0,0,0,0,0,0,0,0,0,0],"id":20,"left_children":[1,-1,3,-1,5,7,9,11,-1,-1,-1,-1,13,-1,-1],"loss_changes":[1.1170434E0,0E0,6.3193464E-1,0E0,2.0911536E-1,3.0696887E-1,2.5488773E-1,2.2036758E-1,0E0,0E0,0E0,0E0,3.6395067E-1,0E0,0E0],"parents":[2147483647,0,0,2,2,4,4,5,5,6,6,7,7,12,12],"right_children":[2,-1,4,-1,6,8,10,12,-1,-1,-1,-1,14,-1,-1],"split_conditions":[-5.440938E-1,1.8249771E-1,-8.8207E-1,-1.7455278E-1,9.624075E-1,-8.10022E-1,1.1861672E0,-9.394493E-1,1.1423769E-1,-1.1510366E-1,3.542407E-2,7.02133E-2,-9.727175E-1,-1.2883407E-1,1.988007E-2],"split_indices":[0,0,5,0,8,10,8,6,0,0,0,0,10,0,0],"split_type":[0,0,0,0,0,0,0,0,0,0,0,0,0,0,0],"sum_hessian":[1.2871576E1,1.545079E0,1.1326497E1,1.3835186E0,9.942979E0,7.2966766E0,2.6463017E0,5.8722534E0,1.4244232E0,1.5955737E0,1.050728E0,1.2364454E0,4.635808E0,1.455458E0,3.18035E0],"tree_param":{"num_deleted":"0","num_feature":"12","num_nodes":"15","size_leaf_vector":"1"}},{"base_weights":[4.438642E-3,-2.4826108E-1,2.7275434E-1,-3.96558E-4,-4.1356465E-1,1.691773E-1,1.06554106E-1,-7.600901E-2,7.559426E-2,-1.8783362E-1,-1.3681681E-1,2.3264606E-1,-5.3090293E-2,-1.1831424E-2,-4.897059E-2,1.0115742E-1,7.0793307E-3,-5.001326E-2,2.9302556E-2],"categories":[],"categories_nodes":[],"categories_segments":[],"categories_sizes":[],"default_left":[0,0,0,0,0,0,0,0,0,0,0,0,0,0,0,0,0,0,0],"id":21,"left_children":[1,3,5,7,9,-1,11,-1,-1,-1,13,15,17,-1,-1,-1,-1,-1,-1],"loss_changes":[9.7100127E-1,3.0238944E-1,2.756555E-1,3.1636164E-1,1.7485625E-1,0E0,1.2608063E-1,0E0,0E0,0E0,1.8037036E-3,6.509131E-2,7.293909E-2,0E0,0E0,0E0,0E0,0E0,0E0],"parents":[2147483647,0,0,1,1,2,2,3,3,4,4,6,6,10,10,11,11,12,12],"right_children":[2,4,6,8,10,-1,12,-1,-1,-1,14,16,18,-1,-1,-1,-1,-1,-1],"split_conditions":[-7.168984E-3,-9.0300536E-1,-5.440938E-1,-9.382386E-1,1.0481454E0,1.691773E-1,-8.6149913E-1,-7.600901E-2,7.559426E-2,-1.8783362E-1,1.1582686E0,-1.24868706E-1,1.023661E0,-1.1831424E-2,-4.897059E-2,1.0115742E-1,7.0793307E-3,-5.001326E-2,2.9302556E-2],"split_indices":[1,8,0,8,10,0,6,0,0,0,6,0,8,0,0,0,0,0,0],"split_type":[0,0,0,0,0,0,0,0,0,0,0,0,0,0,0,0,0,0,0],"sum_hessian":[1.2322168E1,6.3842363E0,5.9379315E0,2.955304E0,3.4289327E0,1.2881498E0,4.6497817E0,1.4739776E0,1.4813263E0,1.2254063E0,2.2035265E0,2.342404E0,2.3073776E0,1.0022064E0,1.20132E0,1.1528693E0,1.1895344E0,1.2554654E0,1.0519123E0],"tree_param":{"num_deleted":"0","num_feature":"12","num_nodes":"19","size_leaf_vector":"1"}},{"base_weights":[4.153236E-3,-2.1759076E-1,2.3988457E-1,-1.5722793E-1,-7.4765295E-2,9.256077E-2,1.6101027E-1,-1.7125168E-1,4.0881377E-2,-1.2066917E-1,2.8690434E-1,-1.1283816E-1,2.0091785E-2,-1.095699E-2,4.0213186E-1,1.6510984E-1,3.4201708E-2],"categories":[],"categories_nodes":[],"categories_segments":[],"categories_sizes":[],"default_left":[0,0,0,0,0,0,0,0,0,0,0,0,0,0,0,0,0],"id":22,"left_children":[1,3,5,-1,7,9,-1,11,-1,-1,13,-1,-1,-1,15,-1,-1],"loss_changes":[7.212914E-1,2.725112E-1,2.4242952E-1,0E0,1.4598438E-1,6.6088194E-1,0E0,2.4855755E-1,0E0,0E0,1.8822765E-1,0E0,0E0,0E0,8.745122E-2,0E0,0E0],"parents":[2147483647,0,0,1,1,2,2,4,4,5,5,7,7,10,10,14,14],"right_children":[2,4,6,-1,8,10,-1,12,-1,-1,14,-1,-1,-1,16,-1,-1],"split_conditions":[-7.168984E-3,-8.8207E-1,9.310654E-1,-1.5722793E-1,1.0481454E0,-9.043591E-1,1.6101027E-1,8.991021E-1,4.0881377E-2,-1.2066917E-1,-1.1420164E0,-1.1283816E-1,2.0091785E-2,-1.095699E-2,-1.24868706E-1,1.6510984E-1,3.4201708E-2],"split_indices":[1,5,9,0,10,8,0,11,0,0,11,0,0,0,0,0,0],"split_type":[0,0,0,0,0,0,0,0,0,0,0,0,0,0,0,0,0],"sum_hessian":[1.180025E1,6.1201754E0,5.6800747E0,1.096859E0,5.0233164E0,4.6726604E0,1.0074143E0,3.5766056E0,1.446711E0,1.0160775E0,3.6565826E0,1.6116718E0,1.9649338E0,1.1399461E0,2.5166366E0,1.060749E0,1.4558876E0],"tree_param":{"num_deleted":"0","num_feature":"12","num_nodes":"17","size_leaf_vector":"1"}},{"base_weights":[5.2311537E-3,9.896424E-2,-1.5225548E-1,-4.623687E-2,4.3535846E-1,9.989424E-2,-1.6898176E-1,1.6353737E-1,4.7409426E-2,3.3653447E-1,-7.466342E-2,5.379988E-2,-3.0160132E-1,1.2724793E-1,2.2321712E-2,-2.7226659E-2,-1.1208529E-1],"categories":[],"categories_nodes":[],"categories_segments":[],"categories_sizes":[],"default_left":[0,0,0,0,0,0,0,0,0,0,0,0,0,0,0,0,0],"id":23,"left_children":[1,3,-1,5,7,9,11,-1,-1,13,-1,-1,15,-1,-1,-1,-1],"loss_changes":[6.4485204E-1,5.7192194E-1,0E0,1.7463195E-1,2.0458221E-2,4.6699357E-1,2.9204836E-1,0E0,0E0,4.1747123E-2,0E0,0E0,2.8405309E-2,0E0,0E0,0E0,0E0],"parents":[2147483647,0,0,1,1,3,3,4,4,5,5,6,6,9,9,12,12],"right_children":[2,4,-1,6,8,10,12,-1,-1,14,-1,-1,16,-1,-1,-1,-1],"split_conditions":[1.1752353E0,5.440938E-1,-1.5225548E-1,8.9017135E-1,-8.6149913E-1,9.624075E-1,-9.7809577E-1,1.6353737E-1,4.7409426E-2,8.715277E-1,-7.466342E-2,5.379988E-2,9.1055495E-1,1.2724793E-1,2.2321712E-2,-2.7226659E-2,-1.1208529E-1],"split_indices":[10,1,0,7,6,8,10,0,0,0,0,0,7,0,0,0,0],"split_type":[0,0,0,0,0,0,0,0,0,0,0,0,0,0,0,0,0],"sum_hessian":[1.1372166E1,1.0296845E1,1.0753204E0,7.794836E0,2.5020092E0,3.6434152E0,4.1514206E0,1.1007102E0,1.4012991E0,2.191549E0,1.4518663E0,1.0476407E0,3.10378E0,1.1792202E0,1.0123287E0,1.365664E0,1.7381161E0],"tree_param":{"num_deleted":"0","num_feature":"12","num_nodes":"17","size_leaf_vector":"1"}},{"base_weights":[8.326792E-3,-1.09517194E-1,9.256173E-2,2.8921464E-2,-4.0290824E-1,2.8890982E-1,-1.3625802E-1,-1.3087598E-2,-1.6743371E-1,1.1069133E-1,1.881997E-2,4.8521526E-2,-2.6232946E-1,-2.2928175E-2,-9.916745E-2],"categories":[],"categories_nodes":[],"categories_segments":[],"categories_sizes":[],"default_left":[0,0,0,0,0,0,0,0,0,0,0,0,0,0,0],"id":24,"left_children":[1,3,-1,5,7,9,11,-1,-1,-1,-1,-1,13,-1,-1],"loss_changes":[4.5505318E-1,3.8893747E-1,0E0,3.5045987E-1,1.4544088E-1,3.361854E-2,2.3437628E-1,0E0,0E0,0E0,0E0,0E0,2.5112778E-2,0E0,0E0],"parents":[2147483647,0,0,1,1,3,3,4,4,5,5,6,6,12,12],"right_children":[2,4,-1,6,8,10,12,-1,-1,-1,-1,-1,14,-1,-1],"split_conditions":[5.440938E-1,9.624075E-1,9.256173E-2,8.9017135E-1,-1.1601014E0,8.715277E-1,-9.394493E-1,-1.3087598E-2,-1.6743371E-1,1.1069133E-1,1.881997E-2,4.8521526E-2,9.1055495E-1,-2.2928175E-2,-9.916745E-2],"split_indices":[1,8,0,7,11,0,6,0,0,0,0,0,7,0,0],"split_type":[0,0,0,0,0,0,0,0,0,0,0,0,0,0,0],"sum_hessian":[1.0907409E1,8.288916E0,2.6184928E0,6.2440434E0,2.0448728E0,2.1348217E0,4.109222E0,1.0033333E0,1.0415394E0,1.1104188E0,1.0244029E0,1.1375268E0,2.971695E0,1.3670543E0,1.6046406E0],"tree_param":{"num_deleted":"0","num_feature":"12","num_nodes":"15","size_leaf_vector":"1"}},{"base_weights":[2.9029348E-3,1.124371E-1,-8.082577E-2,1.2296232E-1,-1.8412709E-1,-1.6156286E-2,8.206731E-2,3.520804E-2,-2.5393224E-1,-6.370173E-2,-1.8322027E-1,1.05484106E-1,-2.4922666E-1,-1.0396596E-2,-1.0762615E-1],"categories":[],"categories_nodes":[],"categories_segments":[],"categories_sizes":[],"default_left":[0,0,0,0,0,0,0,0,0,0,0,0,0,0,0],"id":25,"left_children":[1,-1,3,5,7,-1,-1,-1,9,11,-1,-1,13,-1,-1],"loss_changes":[3.896064E-1,0E0,2.3824053E-1,1.2243384E-1,1.8126063E-1,0E0,0E0,0E0,3.79192E-1,4.8322898E-1,0E0,0E0,8.472416E-2,0E0,0E0],"parents":[2147483647,0,0,2,2,3,3,4,4,8,8,9,9,12,12],"right_children":[2,-1,4,6,8,-1,-1,-1,10,12,-1,-1,14,-1,-1],"split_conditions":[-4.9339652E-1,1.124371E-1,-9.082269E-1,-9.382386E-1,-1.1861672E0,-1.6156286E-2,8.206731E-2,3.520804E-2,1.1428055E0,-8.5278964E-1,-1.8322027E-1,1.05484106E-1,-8.6930543E-1,-1.0396596E-2,-1.0762615E-1],"split_indices":[4,0,6,8,9,0,0,0,10,11,0,0,8,0,0],"split_type":[0,0,0,0,0,0,0,0,0,0,0,0,0,0,0],"sum_hessian":[1.0539525E1,1.2980208E0,9.241505E0,3.0447114E0,6.196793E0,1.6959077E0,1.3488036E0,1.0369539E0,5.159839E0,4.1342053E0,1.0256339E0,1.0001149E0,3.1340904E0,1.5040196E0,1.6300708E0],"tree_param":{"num_deleted":"0","num_feature":"12","num_nodes":"15","size_leaf_vector":"1"}},{"base_weights":[2.7750726E-3,9.85258E-2,-6.8292804E-2,3.593348E-2,-2.529666E-1,-7.813809E-2,9.7811766E-2,2.9507345E-2,-1.2779544E-1,9.199662E-2,-9.836082E-2,6.5521605E-2,-2.4796093E-2],"categories":[],"categories_nodes":[],"categories_segments":[],"categories_sizes":[],"default_left":[0,0,0,0,0,0,0,0,0,0,0,0,0],"id":26,"left_children":[1,-1,3,5,7,9,-1,-1,-1,11,-1,-1,-1],"loss_changes":[2.8387025E-1,0E0,2.0351207E-1,2.6812822E-1,2.7096918E-1,2.8805164E-1,0E0,0E0,0E0,1.1499503E-1,0E0,0E0,0E0],"parents":[2147483647,0,0,2,2,3,3,4,4,5,5,9,9],"right_children":[2,-1,4,6,8,10,-1,-1,-1,12,-1,-1,-1],"split_conditions":[-4.9339652E-1,9.85258E-2,9.624075E-1,-7.874531E-1,-1.1861672E0,-9.0411735E-1,9.7811766E-2,2.9507345E-2,-1.2779544E-1,-9.605587E-1,-9.836082E-2,6.5521605E-2,-2.4796093E-2],"split_indices":[4,0,8,10,9,6,0,0,0,10,0,0,0],"split_type":[0,0,0,0,0,0,0,0,0,0,0,0,0],"sum_hessian":[1.0296863E1,1.1958916E0,9.100971E0,6.3324704E0,2.7685006E0,5.0696898E0,1.2627805E0,1.0559151E0,1.7125854E0,3.3910697E0,1.6786201E0,1.8218892E0,1.5691804E0],"tree_param":{"num_deleted":"0","num_feature":"12","num_nodes":"13","size_leaf_vector":"1"}},{"base_weights":[5.261762E-3,-9.254975E-2,8.0202825E-2,1.7221551E-2,-1.01651765E-1,2.7308834E-1,-1.4237496E-1,1.044668E-1,1.8711109E-2,3.6508493E-2,-2.4869911E-1,-1.2697194E-2,-1.0118396E-1],"categories":[],"categories_nodes":[],"categories_segments":[],"categories_sizes":[],"default_left":[0,0,0,0,0,0,0,0,0,0,0,0,0],"id":27,"left_children":[1,3,-1,5,-1,7,9,-1,-1,-1,11,-1,-1],"loss_changes":[3.0949956E-1,2.446172E-1,0E0,3.2721552E-1,0E0,2.6649535E-2,1.7081396E-1,0E0,0E0,0E0,5.697325E-2,0E0,0E0],"parents":[2147483647,0,0,1,1,3,3,5,5,6,6,10,10],"right_children":[2,4,-1,6,-1,8,10,-1,-1,-1,12,-1,-1],"split_conditions":[5.440938E-1,9.624075E-1,8.0202825E-2,8.9017135E-1,-1.01651765E-1,8.715277E-1,-9.394493E-1,1.044668E-1,1.8711109E-2,3.6508493E-2,9.1055495E-1,-1.2697194E-2,-1.0118396E-1],"split_indices":[1,8,0,7,0,0,6,0,0,0,7,0,0],"split_type":[0,0,0,0,0,0,0,0,0,0,0,0,0],"sum_hessian":[1.01083355E1,7.8321548E0,2.2761805E0,6.06089E0,1.7712649E0,2.0550673E0,4.0058227E0,1.0338727E0,1.0211946E0,1.1084003E0,2.8974223E0,1.3139613E0,1.5834612E0],"tree_param":{"num_deleted":"0","num_feature":"12","num_nodes":"13","size_leaf_vector":"1"}},{"base_weights":[5.808107E-3,-7.36833E-2,6.5627486E-2,1.8934418E-2,-8.759122E-2,7.06484E-2,-1.1623387E-1,2.2057725E-2,-7.893919E-2],"categories":[],"categories_nodes":[],"categories_segments":[],"categories_sizes":[],"default_left":[0,0,0,0,0,0,0,0,0],"id":28,"left_children":[1,3,-1,5,-1,-1,7,-1,-1],"loss_changes":[1.9883485E-1,1.7955759E-1,0E0,2.3177244E-1,0E0,0E0,1.5785372E-1,0E0,0E0],"parents":[2147483647,0,0,1,1,3,3,6,6],"right_children":[2,4,-1,6,-1,-1,8,-1,-1],"split_conditions":[5.440938E-1,9.624075E-1,6.5627486E-2,8.9017135E-1,-8.759122E-2,7.06484E-2,-9.605587E-1,2.2057725E-2,-7.893919E-2],"split_indices":[1,8,0,7,0,0,10,0,0],"split_type":[0,0,0,0,0,0,0,0,0],"sum_hessian":[9.793901E0,7.6079464E0,2.185955E0,5.982764E0,1.6251825E0,2.0139213E0,3.9688427E0,1.9497067E0,2.0191362E0],"tree_param":{"num_deleted":"0","num_feature":"12","num_nodes":"9","size_leaf_vector":"1"}},{"base_weights":[3.0192428E-3,7.8666955E-2,-5.177497E-2,7.951825E-2,-1.8388717E-1,6.135521E-2,-3.9953075E-2,-1.3007832E-1,5.0460584E-2,-8.60009E-2,5.3756736E-2,8.6403646E-2,-4.7716822E-2],"categories":[],"categories_nodes":[],"categories_segments":[],"categories_sizes":[],"default_left":[0,0,0,0,0,0,0,0,0,0,0,0,0],"id":29,"left_children":[1,-1,3,5,7,-1,9,-1,11,-1,-1,-1,-1],"loss_changes":[1.6397619E-1,0E0,1.8073249E-1,9.032641E-2,3.1887704E-1,0E0,2.4867749E-1,0E0,2.207015E-1,0E0,0E0,0E0,0E0],"parents":[2147483647,0,0,2,2,3,3,4,4,6,6,8,8],"right_children":[2,-1,4,6,8,-1,10,-1,12,-1,-1,-1,-1],"split_conditions":[-4.9339652E-1,7.8666955E-2,-8.6149913E-1,-9.605587E-1,1.0277894E0,6.135521E-2,-8.9772284E-1,-1.3007832E-1,1.1482416E0,-8.60009E-2,5.3756736E-2,8.6403646E-2,-4.7716822E-2],"split_indices":[4,0,6,10,10,0,10,0,10,0,0,0,0],"split_type":[0,0,0,0,0,0,0,0,0,0,0,0,0],"sum_hessian":[9.589376E0,1.0127873E0,8.576589E0,4.5012965E0,4.075292E0,1.8518797E0,2.649417E0,1.56137E0,2.513922E0,1.1013459E0,1.548071E0,1.0025607E0,1.5113611E0],"tree_param":{"num_deleted":"0","num_feature":"12","num_nodes":"13","size_leaf_vector":"1"}},{"base_weights":[3.5046195E-3,-1.7328933E-1,7.163765E-2,6.715896E-2,-1.4092346E-1,2.5959158E-1,-7.118376E-2,-5.4207407E-3,1.1301347E-1,5.799424E-2,-1.9603005E-1,-1.11916535E-1,1.6445411E-2],"categories":[],"categories_nodes":[],"categories_segments":[],"categories_sizes":[],"default_left":[0,0,0,0,0,0,0,0,0,0,0,0,0],"id":30,"left_children":[1,3,5,-1,-1,7,9,-1,-1,-1,11,-1,-1],"loss_changes":[1.3830665E-1,4.8190007E-1,2.3998304E-1,0E0,0E0,1.2966773E-1,2.1864009E-1,0E0,0E0,0E0,2.0761925E-1,0E0,0E0],"parents":[2147483647,0,0,1,1,2,2,5,5,6,6,10,10],"right_children":[2,4,6,-1,-1,8,10,-1,-1,-1,12,-1,-1],"split_conditions":[-9.633146E-1,-9.4586307E-1,-8.6813855E-1,6.715896E-2,-1.4092346E-1,-9.338171E-1,-1.24868706E-1,-5.4207407E-3,1.1301347E-1,5.799424E-2,1.0481454E0,-1.11916535E-1,1.6445411E-2],"split_indices":[10,8,8,0,0,8,0,0,0,0,10,0,0],"split_type":[0,0,0,0,0,0,0,0,0,0,0,0,0],"sum_hessian":[9.451417E0,2.1998286E0,7.251588E0,1.0448893E0,1.1549393E0,2.7780545E0,4.4735336E0,1.0750692E0,1.7029853E0,1.2586197E0,3.2149138E0,1.5991842E0,1.6157296E0],"tree_param":{"num_deleted":"0","num_feature":"12","num_nodes":"13","size_leaf_vector":"1"}},{"base_weights":[2.1449018E-3,-5.6999177E-2,4.9276575E-2,2.251891E-2,-7.473522E-2,7.746294E-2,-1.2336247E-1,3.5705596E-2,-8.4642574E-2,-2.7026907E-2,4.763085E-2],"categories":[],"categories_nodes":[],"categories_segments":[],"categories_sizes":[],"default_left":[0,0,0,0,0,0,0,0,0,0,0],"id":31,"left_children":[1,3,-1,5,-1,-1,7,9,-1,-1,-1],"loss_changes":[1.077961E-1,1.3186565E-1,0E0,2.6436013E-1,0E0,0E0,1.326613E-1,6.558047E-2,0E0,0E0,0E0],"parents":[2147483647,0,0,1,1,3,3,6,6,7,7],"right_children":[2,4,-1,6,-1,-1,8,10,-1,-1,-1],"split_conditions":[5.440938E-1,9.624075E-1,4.9276575E-2,8.9017135E-1,-7.473522E-2,7.746294E-2,-9.321266E-1,-9.353151E-1,-8.4642574E-2,-2.7026907E-2,4.763085E-2],"split_indices":[1,8,0,7,0,0,8,6,0,0,0],"split_type":[0,0,0,0,0,0,0,0,0,0,0],"sum_hessian":[9.266484E0,7.264506E0,2.001978E0,5.762275E0,1.5022305E0,1.9086299E0,3.8536456E0,2.3122833E0,1.5413622E0,1.2759538E0,1.0363296E0],"tree_param":{"num_deleted":"0","num_feature":"12","num_nodes":"11","size_leaf_vector":"1"}},{"base_weights":[-2.7045815E-5,-1.4280787E-1,5.5824608E-2,5.9571095E-2,-1.20427534E-1,2.3073149E-1,-6.332502E-2,-8.520604E-3,1.07986696E-1,4.545395E-2,-1.8867655E-1,-1.1863411E-1,2.3412226E-2],"categories":[],"categories_nodes":[],"categories_segments":[],"categories_sizes":[],"default_left":[0,0,0,0,0,0,0,0,0,0,0,0,0],"id":32,"left_children":[1,3,5,-1,-1,7,9,-1,-1,-1,11,-1,-1],"loss_changes":[8.84927E-2,3.551803E-1,1.8085267E-1,0E0,0E0,1.2567014E-1,1.7749621E-1,0E0,0E0,0E0,2.4800298E-1,0E0,0E0],"parents":[2147483647,0,0,1,1,2,2,5,5,6,6,10,10],"right_children":[2,4,6,-1,-1,8,10,-1,-1,-1,12,-1,-1],"split_conditions":[-9.633146E-1,-9.4586307E-1,-8.807589E-1,5.9571095E-2,-1.20427534E-1,-9.338171E-1,7.1689836E-3,-8.520604E-3,1.07986696E-1,4.545395E-2,1.0481454E0,-1.1863411E-1,2.3412226E-2],"split_indices":[10,8,8,0,0,8,0,0,0,0,10,0,0],"split_type":[0,0,0,0,0,0,0,0,0,0,0,0,0],"sum_hessian":[9.097192E0,2.1201818E0,6.97701E0,1.0139451E0,1.1062367E0,2.447578E0,4.529432E0,1.0740315E0,1.3735465E0,1.592081E0,2.9373507E0,1.3827443E0,1.5546064E0],"tree_param":{"num_deleted":"0","num_feature":"12","num_nodes":"13","size_leaf_vector":"1"}},{"base_weights":[-1.3053899E-3,6.452586E-2,-1.4688352E-1,-3.8257256E-2,9.367961E-2,-7.2481886E-2,6.5050204E-3,-7.491949E-2,8.797081E-2,-3.060939E-2,6.7465276E-2],"categories":[],"categories_nodes":[],"categories_segments":[],"categories_sizes":[],"default_left":[0,0,0,0,0,0,0,0,0,0,0],"id":33,"left_children":[1,3,5,7,-1,-1,-1,-1,9,-1,-1],"loss_changes":[1.04677804E-1,2.0381773E-1,5.950278E-2,1.879124E-1,0E0,0E0,0E0,0E0,1.4345095E-1,0E0,0E0],"parents":[2147483647,0,0,1,1,2,2,3,3,8,8],"right_children":[2,4,6,8,-1,-1,-1,-1,10,-1,-1],"split_conditions":[9.870289E-1,-8.10022E-1,1.1667497E0,9.0136254E-1,9.367961E-2,-7.2481886E-2,6.5050204E-3,-7.491949E-2,-9.3256986E-1,-3.060939E-2,6.7465276E-2],"split_indices":[8,10,6,7,0,0,0,0,6,0,0],"split_type":[0,0,0,0,0,0,0,0,0,0,0],"sum_hessian":[8.933649E0,6.5351696E0,2.3984792E0,5.2165017E0,1.3186678E0,1.2581764E0,1.1403029E0,1.5841324E0,3.6323693E0,1.6279504E0,2.0044188E0],"tree_param":{"num_deleted":"0","num_feature":"12","num_nodes":"11","size_leaf_vector":"1"}},{"base_weights":[-2.0109005E-3,-8.9037985E-2,1.0158943E-1,5.0556947E-2,-7.502862E-2,6.426851E-2,-3.569995E-2,7.9753965E-2,-3.2979213E-2,4.8118597E-3,-2.150628E-2],"categories":[],"categories_nodes":[],"categories_segments":[],"categories_sizes":[],"default_left":[0,0,0,0,0,0,0,0,0,0,0],"id":34,"left_children":[1,3,5,7,-1,-1,9,-1,-1,-1,-1],"loss_changes":[9.8270066E-2,1.4554504E-1,8.4736645E-2,1.6737637E-1,0E0,0E0,6.929101E-3,0E0,0E0,0E0,0E0],"parents":[2147483647,0,0,1,1,2,2,3,3,6,6],"right_children":[2,4,6,8,-1,-1,10,-1,-1,-1,-1],"split_conditions":[-7.168984E-3,9.1055495E-1,-8.6149913E-1,-7.948062E-1,-7.502862E-2,6.426851E-2,1.1298894E0,7.9753965E-2,-3.2979213E-2,4.8118597E-3,-2.150628E-2],"split_indices":[1,7,6,10,0,0,10,0,0,0,0],"split_type":[0,0,0,0,0,0,0,0,0,0,0],"sum_hessian":[8.896231E0,4.9112287E0,3.9850023E0,2.9984474E0,1.912781E0,1.8811775E0,2.1038246E0,1.0002065E0,1.998241E0,1.0904247E0,1.0134E0],"tree_param":{"num_deleted":"0","num_feature":"12","num_nodes":"11","size_leaf_vector":"1"}},{"base_weights":[5.8777526E-4,-5.132368E-2,4.2220537E-2,3.959516E-2,-9.753126E-2,3.1890543E-3,-8.399399E-2,-1.1858806E-1,7.273314E-2,-7.98109E-2,2.6661905E-2],"categories":[],"categories_nodes":[],"categories_segments":[],"categories_sizes":[],"default_left":[0,0,0,0,0,0,0,0,0,0,0],"id":35,"left_children":[1,3,-1,-1,5,7,-1,9,-1,-1,-1],"loss_changes":[7.8240484E-2,7.941316E-2,0E0,0E0,1.2675777E-1,1.8613698E-1,0E0,1.5368974E-1,0E0,0E0,0E0],"parents":[2147483647,0,0,1,1,4,4,5,5,7,7],"right_children":[2,4,-1,-1,6,8,-1,10,-1,-1,-1],"split_conditions":[5.440938E-1,-9.394493E-1,4.2220537E-2,3.959516E-2,9.1055495E-1,8.860331E-1,-8.399399E-2,1.0481454E0,7.273314E-2,-7.98109E-2,2.6661905E-2],"split_indices":[1,6,0,0,7,9,0,10,0,0,0],"split_type":[0,0,0,0,0,0,0,0,0,0,0],"sum_hessian":[8.76151E0,6.8558483E0,1.9056615E0,1.0065389E0,5.8493094E0,4.4018183E0,1.447491E0,3.2512991E0,1.1505191E0,1.7354933E0,1.5158058E0],"tree_param":{"num_deleted":"0","num_feature":"12","num_nodes":"11","size_leaf_vector":"1"}},{"base_weights":[2.091851E-3,-1.3065518E-1,5.942954E-2,-6.5637216E-2,4.895495E-3,-3.901526E-2,8.407235E-2,-6.774389E-2,1.0298267E-1,-2.0400723E-2,7.1392186E-2],"categories":[],"categories_nodes":[],"categories_segments":[],"categories_sizes":[],"default_left":[0,0,0,0,0,0,0,0,0,0,0],"id":36,"left_children":[1,3,5,-1,-1,7,-1,-1,9,-1,-1],"loss_changes":[8.132933E-2,4.538495E-2,1.725974E-1,0E0,0E0,1.8297566E-1,0E0,0E0,1.1099677E-1,0E0,0E0],"parents":[2147483647,0,0,1,1,2,2,5,5,8,8],"right_children":[2,4,6,-1,-1,8,-1,-1,10,-1,-1],"split_conditions":[-1.0555209E0,1.1667497E0,-8.10022E-1,-6.5637216E-2,4.895495E-3,9.082269E-1,8.407235E-2,-6.774389E-2,-9.3256986E-1,-2.0400723E-2,7.1392186E-2],"split_indices":[11,6,10,0,0,7,0,0,6,0,0],"split_type":[0,0,0,0,0,0,0,0,0,0,0],"sum_hessian":[8.665039E0,2.228037E0,6.437001E0,1.0873474E0,1.1406897E0,5.021547E0,1.4154547E0,1.9137547E0,3.107792E0,1.5900369E0,1.5177552E0],"tree_param":{"num_deleted":"0","num_feature":"12","num_nodes":"11","size_leaf_vector":"1"}},{"base_weights":[2.123818E-3,-7.724784E-2,9.5277674E-2,-1.7633182E-1,4.0084887E-2,-1.9511985E-2,1.7116603E-1,2.3064034E-2,-9.385951E-2,8.706436E-2,-1.9436726E-2],"categories":[],"categories_nodes":[],"categories_segments":[],"categories_sizes":[],"default_left":[0,0,0,0,0,0,0,0,0,0,0],"id":37,"left_children":[1,3,5,7,-1,-1,9,-1,-1,-1,-1],"loss_changes":[7.854492E-2,1.4371052E-1,7.0467815E-2,1.742116E-1,0E0,0E0,1.1951958E-1,0E0,0E0,0E0,0E0],"parents":[2147483647,0,0,1,1,2,2,3,3,6,6],"right_children":[2,4,6,8,-1,-1,10,-1,-1,-1,-1],"split_conditions":[-7.168984E-3,1.0481454E0,-9.102538E-1,-9.605587E-1,4.0084887E-2,-1.9511985E-2,1.1298894E0,2.3064034E-2,-9.385951E-2,8.706436E-2,-1.9436726E-2],"split_indices":[1,10,8,10,0,0,10,0,0,0,0],"split_type":[0,0,0,0,0,0,0,0,0,0,0],"sum_hessian":[8.627682E0,4.750647E0,3.877035E0,3.343377E0,1.40727E0,1.291543E0,2.5854917E0,1.3242886E0,2.0190885E0,1.5656193E0,1.0198724E0],"tree_param":{"num_deleted":"0","num_feature":"12","num_nodes":"11","size_leaf_vector":"1"}},{"base_weights":[3.2320612E-3,6.0874168E-2,-1.2098824E-1,-2.155963E-2,7.65876E-2,-5.700294E-2,1.6264735E-3,-5.882926E-2,1.0477305E-1,-1.54958265E-2,6.6772036E-2],"categories":[],"categories_nodes":[],"categories_segments":[],"categories_sizes":[],"default_left":[0,0,0,0,0,0,0,0,0,0,0],"id":38,"left_children":[1,3,5,7,-1,-1,-1,-1,9,-1,-1],"loss_changes":[7.598331E-2,1.2107158E-1,3.0452091E-2,1.5253624E-1,0E0,0E0,0E0,0E0,8.749522E-2,0E0,0E0],"parents":[2147483647,0,0,1,1,2,2,3,3,8,8],"right_children":[2,4,6,8,-1,-1,-1,-1,10,-1,-1],"split_conditions":[9.870289E-1,-8.10022E-1,1.1667497E0,9.138888E-1,7.65876E-2,-5.700294E-2,1.6264735E-3,-5.882926E-2,-9.3256986E-1,-1.54958265E-2,6.6772036E-2],"split_indices":[8,10,6,9,0,0,0,0,6,0,0],"split_type":[0,0,0,0,0,0,0,0,0,0,0],"sum_hessian":[8.583126E0,6.2109847E0,2.3721414E0,4.9860077E0,1.2249768E0,1.2089256E0,1.1632158E0,1.8617005E0,3.1243074E0,1.5833362E0,1.5409712E0],"tree_param":{"num_deleted":"0","num_feature":"12","num_nodes":"11","size_leaf_vector":"1"}},{"base_weights":[3.6840395E-3,-4.9620517E-2,4.382216E-2,5.1776793E-2,-1.473968E-1,-8.107955E-2,6.845585E-2,-8.639192E-2,1.7137721E-2,-5.820907E-2,2.2078654E-2],"categories":[],"categories_nodes":[],"categories_segments":[],"categories_sizes":[],"default_left":[0,0,0,0,0,0,0,0,0,0,0],"id":39,"left_children":[1,3,-1,5,7,9,-1,-1,-1,-1,-1],"loss_changes":[7.974277E-2,8.393262E-2,0E0,1.2439299E-1,1.3657114E-1,7.2195515E-2,0E0,0E0,0E0,0E0,0E0],"parents":[2147483647,0,0,1,1,3,3,4,4,5,5],"right_children":[2,4,-1,6,8,10,-1,-1,-1,-1,-1],"split_conditions":[5.440938E-1,-8.745216E-1,4.382216E-2,-9.1055495E-1,1.0481454E0,9.610733E-1,6.845585E-2,-8.639192E-2,1.7137721E-2,-5.820907E-2,2.2078654E-2],"split_indices":[1,10,0,6,10,9,0,0,0,0,0],"split_type":[0,0,0,0,0,0,0,0,0,0,0],"sum_hessian":[8.551286E0,6.6960807E0,1.8552048E0,3.5181239E0,3.1779566E0,2.3150315E0,1.2030925E0,1.6415975E0,1.5363592E0,1.1909261E0,1.1241053E0],"tree_param":{"num_deleted":"0","num_feature":"12","num_nodes":"11","size_leaf_vector":"1"}},{"base_weights":[3.2354526E-3,6.079535E-2,-1.1949853E-1,-5.6080908E-2,1.900213E-1,-2.1909412E-3,-5.2747767E-2,-8.744236E-2,1.103358E-1,8.338471E-2,3.7167645E-3,-9.621729E-3,6.169149E-2],"categories":[],"categories_nodes":[],"categories_segments":[],"categories_sizes":[],"default_left":[0,0,0,0,0,0,0,0,0,0,0,0,0],"id":40,"left_children":[1,3,5,7,9,-1,-1,-1,11,-1,-1,-1,-1],"loss_changes":[7.405858E-2,1.1787691E-1,1.9922748E-2,2.0843174E-1,5.277294E-2,0E0,0E0,0E0,5.221738E-2,0E0,0E0,0E0,0E0],"parents":[2147483647,0,0,1,1,2,2,3,3,4,4,8,8],"right_children":[2,4,6,8,10,-1,-1,-1,12,-1,-1,-1,-1],"split_conditions":[9.870289E-1,-9.102538E-1,-1.1837442E0,9.321266E-1,8.715277E-1,-2.1909412E-3,-5.2747767E-2,-8.744236E-2,9.6395636E-1,8.338471E-2,3.7167645E-3,-9.621729E-3,6.169149E-2],"split_indices":[8,8,9,9,0,0,0,0,11,0,0,0,0],"split_type":[0,0,0,0,0,0,0,0,0,0,0,0,0],"sum_hessian":[8.454753E0,6.0990653E0,2.3556876E0,3.499776E0,2.5992894E0,1.1649473E0,1.1907402E0,1.1382568E0,2.361519E0,1.3608998E0,1.2383895E0,1.2127712E0,1.1487479E0],"tree_param":{"num_deleted":"0","num_feature":"12","num_nodes":"13","size_leaf_vector":"1"}},{"base_weights":[2.1272402E-3,-4.5803234E-2,3.9142385E-2,1.7808579E-2,-5.859695E-2,6.4722165E-2,-1.0451815E-1,2.5202656E-2,-7.625703E-2],"categories":[],"categories_nodes":[],"categories_segments":[],"categories_sizes":[],"default_left":[0,0,0,0,0,0,0,0,0],"id":41,"left_children":[1,3,-1,5,-1,-1,7,-1,-1],"loss_changes":[6.358123E-2,7.536503E-2,0E0,1.7311865E-1,0E0,0E0,1.488126E-1,0E0,0E0],"parents":[2147483647,0,0,1,1,3,3,6,6],"right_children":[2,4,-1,6,-1,-1,8,-1,-1],"split_conditions":[5.440938E-1,9.624075E-1,3.9142385E-2,8.9017135E-1,-5.859695E-2,6.4722165E-2,-9.605587E-1,2.5202656E-2,-7.625703E-2],"split_indices":[1,8,0,7,0,0,10,0,0],"split_type":[0,0,0,0,0,0,0,0,0],"sum_hessian":[8.364013E0,6.558074E0,1.8059385E0,5.218716E0,1.3393577E0,1.7016703E0,3.5170457E0,1.7506446E0,1.7664012E0],"tree_param":{"num_deleted":"0","num_feature":"12","num_nodes":"9","size_leaf_vector":"1"}},{"base_weights":[6.513167E-4,7.668003E-2,-8.482528E-2,-2.1332975E-2,1.5248147E-1,7.546412E-2,-8.5075356E-2,3.1525379E-3,7.156177E-2,-2.8280828E-2,7.385638E-2],"categories":[],"categories_nodes":[],"categories_segments":[],"categories_sizes":[],"default_left":[0,0,0,0,0,0,0,0,0,0,0],"id":42,"left_children":[1,3,5,-1,7,9,-1,-1,-1,-1,-1],"loss_changes":[6.661197E-2,7.1565464E-2,1.752428E-1,0E0,4.515273E-2,1.23555504E-1,0E0,0E0,0E0,0E0,0E0],"parents":[2147483647,0,0,1,1,2,2,4,4,5,5],"right_children":[2,4,6,-1,8,10,-1,-1,-1,-1,-1],"split_conditions":[-8.6149913E-1,-9.3256986E-1,-1.0144167E0,-2.1332975E-2,8.991021E-1,-1.1500728E0,-8.5075356E-2,3.1525379E-3,7.156177E-2,-2.8280828E-2,7.385638E-2],"split_indices":[6,6,11,0,11,11,0,0,0,0,0],"split_type":[0,0,0,0,0,0,0,0,0,0,0],"sum_hessian":[8.249204E0,4.4203525E0,3.828851E0,1.5195602E0,2.9007921E0,2.462938E0,1.3659128E0,1.5182245E0,1.3825676E0,1.4596148E0,1.0033234E0],"tree_param":{"num_deleted":"0","num_feature":"12","num_nodes":"11","size_leaf_vector":"1"}},{"base_weights":[1.8844804E-3,-3.6951978E-2,5.1849917E-2,-4.9418677E-2,6.0399298E-2,-6.414712E-2,4.7789875E-2,-2.39825E-2,5.9138067E-2],"categories":[],"categories_nodes":[],"categories_segments":[],"categories_sizes":[],"default_left":[0,0,0,0,0,0,0,0,0],"id":43,"left_children":[1,-1,3,5,-1,-1,7,-1,-1],"loss_changes":[6.392632E-2,0E0,1.2020383E-1,9.2441E-2,0E0,0E0,9.302159E-2,0E0,0E0],"parents":[2147483647,0,0,2,2,3,3,6,6],"right_children":[2,-1,4,6,-1,-1,8,-1,-1],"split_conditions":[-9.633146E-1,-3.6951978E-2,8.745216E-1,-7.854165E-1,6.0399298E-2,-6.414712E-2,-1.1298894E0,-2.39825E-2,5.9138067E-2],"split_indices":[10,0,11,8,0,0,11,0,0],"split_type":[0,0,0,0,0,0,0,0,0],"sum_hessian":[8.208483E0,1.9250745E0,6.283408E0,4.144823E0,2.1385853E0,1.0943508E0,3.0504723E0,1.8946348E0,1.1558374E0],"tree_param":{"num_deleted":"0","num_feature":"12","num_nodes":"9","size_leaf_vector":"1"}},{"base_weights":[7.129094E-4,-3.9326616E-2,4.7905583E-2,-1.06553E-1,6.471536E-2,8.5056275E-2,-2.8331172E-2,4.0718533E-2,-9.956632E-2,-6.0429487E-2,2.126493E-2],"categories":[],"categories_nodes":[],"categories_segments":[],"categories_sizes":[],"default_left":[0,0,0,0,0,0,0,0,0,0,0],"id":44,"left_children":[1,3,-1,-1,5,-1,7,-1,9,-1,-1],"loss_changes":[6.460999E-2,2.899083E-1,0E0,0E0,1.4964738E-1,0E0,8.117599E-2,0E0,9.438443E-2,0E0,0E0],"parents":[2147483647,0,0,1,1,4,4,6,6,8,8],"right_children":[2,4,-1,-1,6,-1,8,-1,10,-1,-1],"split_conditions":[9.388138E-1,-9.727175E-1,4.7905583E-2,-1.06553E-1,-9.105268E-1,8.5056275E-2,-1.24868706E-1,4.0718533E-2,1.0481454E0,-6.0429487E-2,2.126493E-2],"split_indices":[7,10,0,0,8,0,0,0,10,0,0],"split_type":[0,0,0,0,0,0,0,0,0,0,0],"sum_hessian":[8.163939E0,7.1226225E0,1.0413175E0,1.1667691E0,5.9558535E0,1.1662489E0,4.7896047E0,1.17595E0,3.6136544E0,2.148114E0,1.4655404E0],"tree_param":{"num_deleted":"0","num_feature":"12","num_nodes":"11","size_leaf_vector":"1"}},{"base_weights":[3.591079E-3,-7.6951176E-2,1.0022091E-1,-1.6603497E-1,3.3061713E-2,6.1016493E-2,-7.6411185E-3,1.2155579E-2,-8.141407E-2],"categories":[],"categories_nodes":[],"categories_segments":[],"categories_sizes":[],"default_left":[0,0,0,0,0,0,0,0,0],"id":45,"left_children":[1,3,5,7,-1,-1,-1,-1,-1],"loss_changes":[7.847859E-2,1.104116E-1,6.441294E-2,1.0112573E-1,0E0,0E0,0E0,0E0,0E0],"parents":[2147483647,0,0,1,1,2,2,3,3],"right_children":[2,4,6,8,-1,-1,-1,-1,-1],"split_conditions":[-7.168984E-3,1.0481454E0,-8.6149913E-1,-9.605587E-1,3.3061713E-2,6.1016493E-2,-7.6411185E-3,1.2155579E-2,-8.141407E-2],"split_indices":[1,10,6,10,0,0,0,0,0],"split_type":[0,0,0,0,0,0,0,0,0],"sum_hessian":[8.092694E0,4.524834E0,3.56786E0,3.1420999E0,1.3827345E0,1.6200038E0,1.9478562E0,1.2691041E0,1.8729957E0],"tree_param":{"num_deleted":"0","num_feature":"12","num_nodes":"9","size_leaf_vector":"1"}},{"base_weights":[4.3255603E-3,-1.1699555E-1,5.991563E-2,-5.6376312E-2,1.5687328E-3,-7.280145E-2,1.9829403E-1,-7.507409E-2,3.8204163E-2,9.070146E-2,1.1068802E-2],"categories":[],"categories_nodes":[],"categories_segments":[],"categories_sizes":[],"default_left":[0,0,0,0,0,0,0,0,0,0,0],"id":46,"left_children":[1,3,5,-1,-1,7,9,-1,-1,-1,-1],"loss_changes":[6.8093054E-2,2.8589845E-2,1.4064956E-1,0E0,0E0,1.8243371E-1,4.9852207E-2,0E0,0E0,0E0,0E0],"parents":[2147483647,0,0,1,1,2,2,5,5,6,6],"right_children":[2,4,6,-1,-1,8,10,-1,-1,-1,-1],"split_conditions":[-1.0555209E0,1.1667497E0,-8.9772284E-1,-5.6376312E-2,1.5687328E-3,9.367853E-1,-8.657446E-1,-7.507409E-2,3.8204163E-2,9.070146E-2,1.1068802E-2],"split_indices":[11,6,10,0,0,9,8,0,0,0,0],"split_type":[0,0,0,0,0,0,0,0,0,0,0],"sum_hessian":[8.057078E0,2.1846447E0,5.872434E0,1.0423036E0,1.142341E0,3.2394307E0,2.6330035E0,1.5844241E0,1.6550064E0,1.0699934E0,1.5630101E0],"tree_param":{"num_deleted":"0","num_feature":"12","num_nodes":"11","size_leaf_vector":"1"}},{"base_weights":[4.2792405E-3,-6.9250435E-2,9.2958525E-2,6.315151E-2,-6.685426E-2,-5.0980407E-3,5.4289203E-2,5.688518E-2,-3.512048E-2],"categories":[],"categories_nodes":[],"categories_segments":[],"categories_sizes":[],"default_left":[0,0,0,0,0,0,0,0,0],"id":47,"left_children":[1,3,5,7,-1,-1,-1,-1,-1],"loss_changes":[6.511748E-2,1.2578069E-1,4.667983E-2,1.0719269E-1,0E0,0E0,0E0,0E0,0E0],"parents":[2147483647,0,0,1,1,2,2,3,3],"right_children":[2,4,6,8,-1,-1,-1,-1,-1],"split_conditions":[-7.168984E-3,9.1055495E-1,-8.337871E-1,1.0353618E0,-6.685426E-2,-5.0980407E-3,5.4289203E-2,5.688518E-2,-3.512048E-2],"split_indices":[1,7,10,6,0,0,0,0,0],"split_type":[0,0,0,0,0,0,0,0,0],"sum_hessian":[7.9992375E0,4.4929423E0,3.5062952E0,2.7291996E0,1.7637426E0,1.917509E0,1.5887862E0,1.5731367E0,1.156063E0],"tree_param":{"num_deleted":"0","num_feature":"12","num_nodes":"9","size_leaf_vector":"1"}},{"base_weights":[3.3838693E-3,-5.8568414E-2,1.0012214E-1,-5.2498467E-2,2.6718931E-2,-1.3434019E-2,6.2653325E-2,6.3666604E-2,-1.05318874E-1,1.4624577E-3,-4.9917445E-2],"categories":[],"categories_nodes":[],"categories_segments":[],"categories_sizes":[],"default_left":[0,0,0,0,0,0,0,0,0,0,0],"id":48,"left_children":[1,3,5,-1,7,-1,-1,-1,9,-1,-1],"loss_changes":[5.936206E-2,6.497446E-2,7.006773E-2,0E0,1.2944949E-1,0E0,0E0,0E0,2.2499386E-2,0E0,0E0],"parents":[2147483647,0,0,1,1,2,2,4,4,8,8],"right_children":[2,4,6,-1,8,-1,-1,-1,10,-1,-1],"split_conditions":[9.082269E-1,-8.10022E-1,-9.3112427E-1,-5.2498467E-2,9.870289E-1,-1.3434019E-2,6.2653325E-2,6.3666604E-2,-1.1837442E0,1.4624577E-3,-4.9917445E-2],"split_indices":[7,10,6,0,8,0,0,0,9,0,0],"split_type":[0,0,0,0,0,0,0,0,0,0,0],"sum_hessian":[7.926526E0,5.072566E0,2.8539603E0,1.700023E0,3.3725429E0,1.475533E0,1.3784274E0,1.149833E0,2.22271E0,1.1207364E0,1.1019734E0],"tree_param":{"num_deleted":"0","num_feature":"12","num_nodes":"11","size_leaf_vector":"1"}},{"base_weights":[3.7183084E-3,-6.696905E-2,8.923037E-2,-1.540862E-1,3.4509696E-2,5.6320187E-2,-8.435759E-3,1.5021308E-2,-7.868473E-2],"categories":[],"categories_nodes":[],"categories_segments":[],"categories_sizes":[],"default_left":[0,0,0,0,0,0,0,0,0],"id":49,"left_children":[1,3,5,7,-1,-1,-1,-1,-1],"loss_changes":[5.97366E-2,1.03983626E-1,5.676064E-2,1.03844985E-1,0E0,0E0,0E0,0E0,0E0],"parents":[2147483647,0,0,1,1,2,2,3,3],"right_children":[2,4,6,8,-1,-1,-1,-1,-1],"split_conditions":[-7.168984E-3,1.0481454E0,-8.6149913E-1,-9.605587E-1,3.4509696E-2,5.6320187E-2,-8.435759E-3,1.5021308E-2,-7.868473E-2],"split_indices":[1,10,6,10,0,0,0,0,0],"split_type":[0,0,0,0,0,0,0,0,0],"sum_hessian":[7.8940096E0,4.4403243E0,3.4536853E0,3.1066618E0,1.3336623E0,1.5515368E0,1.9021486E0,1.2622056E0,1.8444563E0],"tree_param":{"num_deleted":"0","num_feature":"12","num_nodes":"9","size_leaf_vector":"1"}},{"base_weights":[4.6095327E-3,-1.0018838E-1,5.3106725E-2,-4.575979E-2,-1.3278956E-3,-4.448356E-2,1.525683E-1,-6.217703E-2,3.9211012E-2,8.024368E-2,2.2522592E-5],"categories":[],"categories_nodes":[],"categories_segments":[],"categories_sizes":[],"default_left":[0,0,0,0,0,0,0,0,0,0,0],"id":50,"left_children":[1,3,5,-1,-1,7,9,-1,-1,-1,-1],"loss_changes":[5.0368894E-2,1.5117288E-2,7.194649E-2,0E0,0E0,1.4578973E-1,6.2193476E-2,0E0,0E0,0E0,0E0],"parents":[2147483647,0,0,1,1,2,2,5,5,6,6],"right_children":[2,4,6,-1,-1,8,10,-1,-1,-1,-1],"split_conditions":[-1.0555209E0,1.1667497E0,-8.9772284E-1,-4.575979E-2,-1.3278956E-3,9.367853E-1,-8.657446E-1,-6.217703E-2,3.9211012E-2,8.024368E-2,2.2522592E-5],"split_indices":[11,6,10,0,0,9,8,0,0,0,0],"split_type":[0,0,0,0,0,0,0,0,0,0,0],"sum_hessian":[7.863564E0,2.1505554E0,5.713009E0,1.0071892E0,1.1433661E0,3.1626337E0,2.5503752E0,1.5445086E0,1.6181251E0,1.0244027E0,1.5259725E0],"tree_param":{"num_deleted":"0","num_feature":"12","num_nodes":"11","size_leaf_vector":"1"}},{"base_weights":[4.4957167E-3,3.8780756E-2,-5.147671E-2,2.4738789E-2,-1.0090129E-1,-6.917179E-2,1.7481683E-2,5.13728E-2,-4.849704E-2],"categories":[],"categories_nodes":[],"categories_segments":[],"categories_sizes":[],"default_left":[0,0,0,0,0,0,0,0,0],"id":51,"left_children":[1,-1,3,-1,5,-1,7,-1,-1],"loss_changes":[6.821484E-2,0E0,5.3337082E-2,0E0,8.718585E-2,0E0,1.312846E-1,0E0,0E0],"parents":[2147483647,0,0,2,2,4,4,6,6],"right_children":[2,-1,4,-1,6,-1,8,-1,-1],"split_conditions":[-1.24868706E-1,3.8780756E-2,-9.605587E-1,2.4738789E-2,-8.89131E-1,-6.917179E-2,9.624075E-1,5.13728E-2,-4.849704E-2],"split_indices":[0,0,10,0,6,0,8,0,0],"split_type":[0,0,0,0,0,0,0,0,0],"sum_hessian":[7.814663E0,2.0144794E0,5.8001833E0,1.3832252E0,4.4169583E0,1.6556981E0,2.76126E0,1.5095962E0,1.2516639E0],"tree_param":{"num_deleted":"0","num_feature":"12","num_nodes":"9","size_leaf_vector":"1"}},{"base_weights":[2.7058136E-3,3.1330366E-2,-4.2868968E-2,-1.2936792E-1,4.988075E-2,-8.269105E-2,2.0353938E-2,7.8023404E-2,-3.4959283E-2],"categories":[],"categories_nodes":[],"categories_segments":[],"categories_sizes":[],"default_left":[0,0,0,0,0,0,0,0,0],"id":52,"left_children":[1,-1,3,5,7,-1,-1,-1,-1],"loss_changes":[4.4893194E-2,0E0,6.0440242E-2,1.2717019E-1,1.6914082E-1,0E0,0E0,0E0,0E0],"parents":[2147483647,0,0,2,2,3,3,4,4],"right_children":[2,-1,4,6,8,-1,-1,-1,-1],"split_conditions":[-1.24868706E-1,3.1330366E-2,8.860331E-1,1.0481454E0,9.1055495E-1,-8.269105E-2,2.0353938E-2,7.8023404E-2,-3.4959283E-2],"split_indices":[0,0,9,10,7,0,0,0,0],"split_type":[0,0,0,0,0,0,0,0,0],"sum_hessian":[7.717405E0,1.988135E0,5.72927E0,2.7602434E0,2.9690266E0,1.3565065E0,1.403737E0,1.06321E0,1.9058167E0],"tree_param":{"num_deleted":"0","num_feature":"12","num_nodes":"9","size_leaf_vector":"1"}},{"base_weights":[3.2421367E-3,-2.9137531E-2,5.0178144E-2,-2.5845615E-2,1.210537E-1,6.1699275E-2,4.8765773E-3,1.9242454E-2,-1.7166171E-2],"categories":[],"categories_nodes":[],"categories_segments":[],"categories_sizes":[],"default_left":[0,0,0,0,0,0,0,0,0],"id":53,"left_children":[1,-1,3,-1,5,-1,7,-1,-1],"loss_changes":[4.562169E-2,0E0,7.374793E-2,0E0,4.546599E-2,0E0,1.4770966E-2,0E0,0E0],"parents":[2147483647,0,0,2,2,4,4,6,6],"right_children":[2,-1,4,-1,6,-1,8,-1,-1],"split_conditions":[-1.0555209E0,-2.9137531E-2,-9.633146E-1,-2.5845615E-2,8.9017135E-1,6.1699275E-2,-9.0910333E-1,1.9242454E-2,-1.7166171E-2],"split_indices":[11,0,10,0,7,0,6,0,0],"split_type":[0,0,0,0,0,0,0,0,0],"sum_hessian":[7.64987E0,2.0967987E0,5.553071E0,1.825724E0,3.727347E0,1.7109882E0,2.0163589E0,1.014862E0,1.0014968E0],"tree_param":{"num_deleted":"0","num_feature":"12","num_nodes":"9","size_leaf_vector":"1"}},{"base_weights":[3.2930356E-3,-5.5337258E-2,9.3563326E-2,5.624441E-2,-1.4673512E-1,-1.4902619E-2,6.0965173E-2,4.934524E-2,-2.5770389E-2,-1.6306236E-3,-6.719033E-2],"categories":[],"categories_nodes":[],"categories_segments":[],"categories_sizes":[],"default_left":[0,0,0,0,0,0,0,0,0,0,0],"id":54,"left_children":[1,3,5,7,9,-1,-1,-1,-1,-1,-1],"loss_changes":[5.0791312E-2,6.7946434E-2,6.92336E-2,6.58029E-2,3.6920555E-2,0E0,0E0,0E0,0E0,0E0,0E0],"parents":[2147483647,0,0,1,1,2,2,3,3,4,4],"right_children":[2,4,6,8,10,-1,-1,-1,-1,-1,-1],"split_conditions":[9.082269E-1,-1.0144167E0,-9.3112427E-1,1.1601014E0,-8.6149913E-1,-1.4902619E-2,6.0965173E-2,4.934524E-2,-2.5770389E-2,-1.6306236E-3,-6.719033E-2],"split_indices":[7,11,6,10,6,0,0,0,0,0,0],"split_type":[0,0,0,0,0,0,0,0,0,0,0],"sum_hessian":[7.6184487E0,4.8532557E0,2.765193E0,2.3585167E0,2.494739E0,1.436154E0,1.329039E0,1.2497315E0,1.108785E0,1.259966E0,1.2347729E0],"tree_param":{"num_deleted":"0","num_feature":"12","num_nodes":"11","size_leaf_vector":"1"}},{"base_weights":[2.3689866E-3,-3.7585195E-2,3.225549E-2,3.539277E-2,-1.07679896E-1,-7.668919E-2,5.5471696E-2,-6.741468E-2,1.6274352E-2,-5.463678E-2,2.0034164E-2],"categories":[],"categories_nodes":[],"categories_segments":[],"categories_sizes":[],"default_left":[0,0,0,0,0,0,0,0,0,0,0],"id":55,"left_children":[1,3,-1,5,7,9,-1,-1,-1,-1,-1],"loss_changes":[4.0090084E-2,3.940898E-2,0E0,8.392594E-2,8.4148526E-2,5.8836713E-2,0E0,0E0,0E0,0E0,0E0],"parents":[2147483647,0,0,1,1,3,3,4,4,5,5],"right_children":[2,4,-1,6,8,10,-1,-1,-1,-1,-1],"split_conditions":[5.440938E-1,-8.745216E-1,3.225549E-2,-9.1055495E-1,1.0481454E0,9.610733E-1,5.5471696E-2,-6.741468E-2,1.6274352E-2,-5.463678E-2,2.0034164E-2],"split_indices":[1,10,0,6,10,9,0,0,0,0,0],"split_type":[0,0,0,0,0,0,0,0,0,0,0],"sum_hessian":[7.580734E0,5.959009E0,1.6217246E0,3.162008E0,2.7970014E0,2.0856092E0,1.0763987E0,1.398478E0,1.3985232E0,1.0468689E0,1.0387404E0],"tree_param":{"num_deleted":"0","num_feature":"12","num_nodes":"11","size_leaf_vector":"1"}},{"base_weights":[1.8213188E-3,-2.999804E-2,5.015274E-2,-2.2163572E-2,6.0824648E-2,-5.5996984E-2,7.534065E-2,-1.3363306E-2,4.732464E-2],"categories":[],"categories_nodes":[],"categories_segments":[],"categories_sizes":[],"default_left":[0,0,0,0,0,0,0,0,0],"id":56,"left_children":[1,-1,3,5,-1,-1,7,-1,-1],"loss_changes":[4.693964E-2,0E0,7.559652E-2,9.863567E-2,0E0,0E0,4.6772722E-2,0E0,0E0],"parents":[2147483647,0,0,2,2,3,3,6,6],"right_children":[2,-1,4,6,-1,-1,8,-1,-1],"split_conditions":[-1.0555209E0,-2.999804E-2,-8.10022E-1,9.0136254E-1,6.0824648E-2,-5.5996984E-2,-9.3112427E-1,-1.3363306E-2,4.732464E-2],"split_indices":[11,0,10,7,0,0,6,0,0],"split_type":[0,0,0,0,0,0,0,0,0],"sum_hessian":[7.519802E0,2.076514E0,5.4432883E0,4.273028E0,1.1702602E0,1.2499591E0,3.0230687E0,1.4186801E0,1.6043886E0],"tree_param":{"num_deleted":"0","num_feature":"12","num_nodes":"9","size_leaf_vector":"1"}},{"base_weights":[2.295946E-3,-6.429134E-2,8.3672285E-2,-1.478839E-1,3.28097E-2,-2.016321E-2,1.5076791E-1,-8.421099E-2,5.0425488E-3,-1.5283625E-2,8.021695E-2],"categories":[],"categories_nodes":[],"categories_segments":[],"categories_sizes":[],"default_left":[0,0,0,0,0,0,0,0,0,0,0],"id":57,"left_children":[1,3,5,7,-1,-1,9,-1,-1,-1,-1],"loss_changes":[5.1340647E-2,9.2100546E-2,5.317519E-2,9.125194E-2,0E0,0E0,9.0106405E-2,0E0,0E0,0E0,0E0],"parents":[2147483647,0,0,1,1,2,2,3,3,6,6],"right_children":[2,4,6,8,-1,-1,10,-1,-1,-1,-1],"split_conditions":[-7.168984E-3,1.0481454E0,-1.0990697E0,8.991021E-1,3.28097E-2,-2.016321E-2,-9.102538E-1,-8.421099E-2,5.0425488E-3,-1.5283625E-2,8.021695E-2],"split_indices":[1,10,11,11,0,0,8,0,0,0,0],"split_type":[0,0,0,0,0,0,0,0,0,0,0],"sum_hessian":[7.4820776E0,4.2304254E0,3.2516525E0,2.9559472E0,1.2744782E0,1.0003576E0,2.2512949E0,1.2463745E0,1.7095726E0,1.0310731E0,1.2202218E0],"tree_param":{"num_deleted":"0","num_feature":"12","num_nodes":"11","size_leaf_vector":"1"}},{"base_weights":[1.3741247E-3,-5.2869644E-2,8.415794E-2,2.1770697E-2,-1.1997557E-1,-1.09317545E-2,5.205791E-2,-2.854003E-3,-4.8909485E-2],"categories":[],"categories_nodes":[],"categories_segments":[],"categories_sizes":[],"default_left":[0,0,0,0,0,0,0,0,0],"id":58,"left_children":[1,3,5,-1,7,-1,-1,-1,-1],"loss_changes":[4.236813E-2,5.681895E-2,4.6507932E-2,0E0,1.7951343E-2,0E0,0E0,0E0,0E0],"parents":[2147483647,0,0,1,1,2,2,4,4],"right_children":[2,4,6,-1,8,-1,-1,-1,-1],"split_conditions":[9.138888E-1,-1.1432377E0,-9.3256986E-1,2.1770697E-2,-8.6149913E-1,-1.09317545E-2,5.205791E-2,-2.854003E-3,-4.8909485E-2],"split_indices":[9,7,6,0,6,0,0,0,0],"split_type":[0,0,0,0,0,0,0,0,0],"sum_hessian":[7.4441996E0,4.715645E0,2.728555E0,1.6151308E0,3.100514E0,1.4134505E0,1.3151045E0,1.2120072E0,1.8885069E0],"tree_param":{"num_deleted":"0","num_feature":"12","num_nodes":"9","size_leaf_vector":"1"}},{"base_weights":[2.2473626E-3,-5.848193E-2,7.6900244E-2,5.539015E-2,-5.539998E-2,1.3683785E-1,-1.7340025E-2,4.577084E-2,-2.5368202E-2,-1.2791521E-2,7.192351E-2],"categories":[],"categories_nodes":[],"categories_segments":[],"categories_sizes":[],"default_left":[0,0,0,0,0,0,0,0,0,0,0],"id":59,"left_children":[1,3,5,7,-1,9,-1,-1,-1,-1,-1],"loss_changes":[4.2709883E-2,8.517434E-2,4.192262E-2,6.0651183E-2,0E0,6.9555804E-2,0E0,0E0,0E0,0E0,0E0],"parents":[2147483647,0,0,1,1,2,2,3,3,5,5],"right_children":[2,4,6,8,-1,10,-1,-1,-1,-1,-1],"split_conditions":[-7.168984E-3,9.1055495E-1,1.0916859E0,1.0353618E0,-5.539998E-2,-9.102538E-1,-1.7340025E-2,4.577084E-2,-2.5368202E-2,-1.2791521E-2,7.192351E-2],"split_indices":[1,7,10,6,0,8,0,0,0,0,0],"split_type":[0,0,0,0,0,0,0,0,0,0,0],"sum_hessian":[7.4287252E0,4.2158184E0,3.2129066E0,2.510932E0,1.7048866E0,2.2125287E0,1.0003778E0,1.4287022E0,1.0822297E0,1.0197265E0,1.1928022E0],"tree_param":{"num_deleted":"0","num_feature":"12","num_nodes":"11","size_leaf_vector":"1"}},{"base_weights":[2.430243E-3,-5.7518303E-2,9.37055E-2,-5.5118483E-2,2.7098794E-2,-1.6501428E-3,4.8452377E-2,4.9572874E-2,-7.561379E-2,2.5853538E-3,-3.7748847E-2],"categories":[],"categories_nodes":[],"categories_segments":[],"categories_sizes":[],"default_left":[0,0,0,0,0,0,0,0,0,0,0],"id":60,"left_children":[1,3,5,-1,7,-1,-1,-1,9,-1,-1],"loss_changes":[5.1165972E-2,6.552166E-2,2.5754191E-2,0E0,7.30142E-2,0E0,0E0,0E0,1.433358E-2,0E0,0E0],"parents":[2147483647,0,0,1,1,2,2,4,4,8,8],"right_children":[2,4,6,-1,8,-1,-1,-1,10,-1,-1],"split_conditions":[9.138888E-1,-8.592542E-1,-9.633146E-1,-5.5118483E-2,9.870289E-1,-1.6501428E-3,4.8452377E-2,4.9572874E-2,-1.183288E0,2.5853538E-3,-3.7748847E-2],"split_indices":[9,8,10,0,8,0,0,0,9,0,0],"split_type":[0,0,0,0,0,0,0,0,0,0,0],"sum_hessian":[7.3658085E0,4.66906E0,2.6967483E0,1.4038574E0,3.2652028E0,1.4678782E0,1.2288702E0,1.1328192E0,2.1323836E0,1.1058381E0,1.0265454E0],"tree_param":{"num_deleted":"0","num_feature":"12","num_nodes":"11","size_leaf_vector":"1"}},{"base_weights":[2.427012E-3,3.3900116E-2,-4.6906225E-2,3.5871245E-2,-1.1392051E-1,-7.344798E-2,1.0725168E-2,4.0524423E-2,-3.938533E-2],"categories":[],"categories_nodes":[],"categories_segments":[],"categories_sizes":[],"default_left":[0,0,0,0,0,0,0,0,0],"id":61,"left_children":[1,-1,3,-1,5,-1,7,-1,-1],"loss_changes":[5.0791416E-2,0E0,8.583945E-2,0E0,8.629012E-2,0E0,8.103684E-2,0E0,0E0],"parents":[2147483647,0,0,2,2,4,4,6,6],"right_children":[2,-1,4,-1,6,-1,8,-1,-1],"split_conditions":[-1.24868706E-1,3.3900116E-2,-9.29694E-1,3.5871245E-2,-8.89131E-1,-7.344798E-2,9.624075E-1,4.0524423E-2,-3.938533E-2],"split_indices":[0,0,6,0,6,0,8,0,0],"split_type":[0,0,0,0,0,0,0,0,0],"sum_hessian":[7.3394103E0,1.8661501E0,5.4732604E0,1.3457892E0,4.127471E0,1.5428988E0,2.5845723E0,1.4039422E0,1.18063E0],"tree_param":{"num_deleted":"0","num_feature":"12","num_nodes":"9","size_leaf_vector":"1"}},{"base_weights":[1.2588144E-3,-5.2094225E-2,8.269529E-2,2.5249438E-2,-1.2636985E-1,-9.008268E-3,5.036512E-2,-1.3891924E-3,-5.2662436E-2],"categories":[],"categories_nodes":[],"categories_segments":[],"categories_sizes":[],"default_left":[0,0,0,0,0,0,0,0,0],"id":62,"left_children":[1,3,5,-1,7,-1,-1,-1,-1],"loss_changes":[4.0152702E-2,6.7290545E-2,4.0110063E-2,0E0,2.3267724E-2,0E0,0E0,0E0,0E0],"parents":[2147483647,0,0,1,1,2,2,4,4],"right_children":[2,4,6,-1,8,-1,-1,-1,-1],"split_conditions":[9.082269E-1,-1.1432377E0,-9.3112427E-1,2.5249438E-2,-8.6149913E-1,-9.008268E-3,5.036512E-2,-1.3891924E-3,-5.2662436E-2],"split_indices":[7,7,6,0,6,0,0,0,0],"split_type":[0,0,0,0,0,0,0,0,0],"sum_hessian":[7.2498765E0,4.5978847E0,2.6519918E0,1.5751404E0,3.0227442E0,1.4202319E0,1.2317599E0,1.1844505E0,1.8382938E0],"tree_param":{"num_deleted":"0","num_feature":"12","num_nodes":"9","size_leaf_vector":"1"}},{"base_weights":[2.356099E-3,-3.680151E-2,3.143207E-2,2.1592615E-2,-8.548224E-2,3.2313187E-2,-6.629011E-2,4.513665E-2,-3.511628E-2],"categories":[],"categories_nodes":[],"categories_segments":[],"categories_sizes":[],"default_left":[0,0,0,0,0,0,0,0,0],"id":63,"left_children":[1,3,-1,-1,5,7,-1,-1,-1],"loss_changes":[3.6879804E-2,4.1615725E-2,0E0,0E0,8.827251E-2,8.099399E-2,0E0,0E0,0E0],"parents":[2147483647,0,0,1,1,4,4,5,5],"right_children":[2,4,-1,-1,6,8,-1,-1,-1],"split_conditions":[5.440938E-1,-9.605587E-1,3.143207E-2,2.1592615E-2,8.9017135E-1,9.624075E-1,-6.629011E-2,4.513665E-2,-3.511628E-2],"split_indices":[1,10,0,0,7,8,0,0,0],"split_type":[0,0,0,0,0,0,0,0,0],"sum_hessian":[7.2345386E0,5.6970415E0,1.5374972E0,1.613396E0,4.0836453E0,2.5917673E0,1.491878E0,1.4430788E0,1.1486887E0],"tree_param":{"num_deleted":"0","num_feature":"12","num_nodes":"9","size_leaf_vector":"1"}},{"base_weights":[1.1634622E-3,5.8634136E-2,-6.207191E-2,-2.894418E-2,5.587743E-2,5.3773038E-2,-6.26021E-2,3.7727587E-2,-5.3163957E-2,4.0148415E-2,-1.6999397E-2],"categories":[],"categories_nodes":[],"categories_segments":[],"categories_sizes":[],"default_left":[0,0,0,0,0,0,0,0,0,0,0],"id":64,"left_children":[1,3,5,7,-1,9,-1,-1,-1,-1,-1],"loss_changes":[3.330494E-2,5.893615E-2,8.547581E-2,1.0730517E-1,0E0,3.62059E-2,0E0,0E0,0E0,0E0,0E0],"parents":[2147483647,0,0,1,1,2,2,3,3,5,5],"right_children":[2,4,6,8,-1,10,-1,-1,-1,-1,-1],"split_conditions":[-8.6149913E-1,9.7809577E-1,-1.0144167E0,9.1055495E-1,5.587743E-2,1.1601014E0,-6.26021E-2,3.7727587E-2,-5.3163957E-2,4.0148415E-2,-1.6999397E-2],"split_indices":[6,11,11,7,0,10,0,0,0,0,0],"split_type":[0,0,0,0,0,0,0,0,0,0,0],"sum_hessian":[7.16289E0,3.7906075E0,3.3722825E0,2.7065332E0,1.0840744E0,2.2374494E0,1.1348331E0,1.3988277E0,1.3077055E0,1.1743674E0,1.0630821E0],"tree_param":{"num_deleted":"0","num_feature":"12","num_nodes":"11","size_leaf_vector":"1"}},{"base_weights":[9.148448E-4,-4.7867414E-2,7.51908E-2,-4.6605695E-2,2.9189857E-2,-1.2244401E-2,4.972466E-2,-2.119692E-2,4.7502294E-2],"categories":[],"categories_nodes":[],"categories_segments":[],"categories_sizes":[],"default_left":[0,0,0,0,0,0,0,0,0],"id":65,"left_children":[1,3,5,-1,7,-1,-1,-1,-1],"loss_changes":[3.297604E-2,5.0127074E-2,4.461518E-2,0E0,6.338739E-2,0E0,0E0,0E0,0E0],"parents":[2147483647,0,0,1,1,2,2,4,4],"right_children":[2,4,6,-1,8,-1,-1,-1,-1],"split_conditions":[9.082269E-1,-8.10022E-1,-9.3112427E-1,-4.6605695E-2,-1.0555209E0,-1.2244401E-2,4.972466E-2,-2.119692E-2,4.7502294E-2],"split_indices":[7,10,6,0,11,0,0,0,0],"split_type":[0,0,0,0,0,0,0,0,0],"sum_hessian":[7.1076517E0,4.5046663E0,2.6029859E0,1.4566983E0,3.047968E0,1.3819708E0,1.2210151E0,1.974447E0,1.0735208E0],"tree_param":{"num_deleted":"0","num_feature":"12","num_nodes":"9","size_leaf_vector":"1"}},{"base_weights":[2.768122E-3,-5.181556E-2,7.063431E-2,-1.3936968E-1,3.7774093E-2,-1.8246626E-2,4.106264E-2,1.00184055E-2,-6.838278E-2],"categories":[],"categories_nodes":[],"categories_segments":[],"categories_sizes":[],"default_left":[0,0,0,0,0,0,0,0,0],"id":66,"left_children":[1,3,5,7,-1,-1,-1,-1,-1],"loss_changes":[3.3572067E-2,9.6165165E-2,4.3353137E-2,6.66695E-2,0E0,0E0,0E0,0E0,0E0],"parents":[2147483647,0,0,1,1,2,2,3,3],"right_children":[2,4,6,8,-1,-1,-1,-1,-1],"split_conditions":[-7.168984E-3,1.0481454E0,-1.0096918E0,-9.29694E-1,3.7774093E-2,-1.8246626E-2,4.106264E-2,1.00184055E-2,-6.838278E-2],"split_indices":[1,10,11,6,0,0,0,0,0],"split_type":[0,0,0,0,0,0,0,0,0],"sum_hessian":[7.0747824E0,4.052182E0,3.0226004E0,2.859398E0,1.1927841E0,1.0401727E0,1.9824277E0,1.1802504E0,1.6791476E0],"tree_param":{"num_deleted":"0","num_feature":"12","num_nodes":"9","size_leaf_vector":"1"}},{"base_weights":[2.075647E-3,-5.5731893E-2,6.07383E-2,2.175957E-2,-4.390371E-2,-2.3467729E-2,5.2528698E-2],"categories":[],"categories_nodes":[],"categories_segments":[],"categories_sizes":[],"default_left":[0,0,0,0,0,0,0],"id":67,"left_children":[1,3,5,-1,-1,-1,-1],"loss_changes":[3.0691238E-2,6.3812554E-2,8.481253E-2,0E0,0E0,0E0,0E0],"parents":[2147483647,0,0,1,1,2,2],"right_children":[2,4,6,-1,-1,-1,-1],"split_conditions":[8.745216E-1,-1.1432377E0,-9.633146E-1,2.175957E-2,-4.390371E-2,-2.3467729E-2,5.2528698E-2],"split_indices":[11,7,10,0,0,0,0],"split_type":[0,0,0,0,0,0,0],"sum_hessian":[7.0522037E0,3.5771532E0,3.4750504E0,1.5635284E0,2.0136247E0,1.7113798E0,1.7636706E0],"tree_param":{"num_deleted":"0","num_feature":"12","num_nodes":"7","size_leaf_vector":"1"}},{"base_weights":[2.313368E-3,-3.4281492E-2,2.9301742E-2,2.067207E-2,-1.0366923E-1,5.8748666E-2,-9.155594E-2,-6.356059E-2,1.7102564E-2,-6.1464306E-2,1.4582056E-2],"categories":[],"categories_nodes":[],"categories_segments":[],"categories_sizes":[],"default_left":[0,0,0,0,0,0,0,0,0,0,0],"id":68,"left_children":[1,3,-1,5,7,-1,9,-1,-1,-1,-1],"loss_changes":[3.137199E-2,2.7094446E-2,0E0,1.0610006E-1,6.524658E-2,0E0,6.420506E-2,0E0,0E0,0E0,0E0],"parents":[2147483647,0,0,1,1,3,3,4,4,6,6],"right_children":[2,4,-1,6,8,-1,10,-1,-1,-1,-1],"split_conditions":[5.440938E-1,9.1055495E-1,2.9301742E-2,-8.6930543E-1,9.610733E-1,5.8748666E-2,1.0481454E0,-6.356059E-2,1.7102564E-2,-6.1464306E-2,1.4582056E-2],"split_indices":[1,7,0,8,9,0,10,0,0,0,0],"split_type":[0,0,0,0,0,0,0,0,0,0,0],"sum_hessian":[7.0304904E0,5.543591E0,1.486899E0,3.48535E0,2.0582414E0,1.0701783E0,2.4151716E0,1.0395929E0,1.0186485E0,1.0801265E0,1.3350451E0],"tree_param":{"num_deleted":"0","num_feature":"12","num_nodes":"11","size_leaf_vector":"1"}},{"base_weights":[8.8738056E-4,-4.6748824E-2,7.3319934E-2,-4.5902193E-2,2.757133E-2,-1.2330779E-2,4.8920136E-2,-2.438187E-2,5.2467886E-2],"categories":[],"categories_nodes":[],"categories_segments":[],"categories_sizes":[],"default_left":[0,0,0,0,0,0,0,0,0],"id":69,"left_children":[1,3,5,-1,7,-1,-1,-1,-1],"loss_changes":[3.0932356E-2,4.701711E-2,4.317777E-2,0E0,7.893695E-2,0E0,0E0,0E0,0E0],"parents":[2147483647,0,0,1,1,2,2,4,4],"right_children":[2,4,6,-1,8,-1,-1,-1,-1],"split_conditions":[9.138888E-1,-8.10022E-1,-9.3112427E-1,-4.5902193E-2,-1.0555209E0,-1.2330779E-2,4.8920136E-2,-2.438187E-2,5.2467886E-2],"split_indices":[9,10,6,0,11,0,0,0,0],"split_type":[0,0,0,0,0,0,0,0,0],"sum_hessian":[6.9714346E0,4.419489E0,2.551946E0,1.3831646E0,3.0363243E0,1.3600183E0,1.1919277E0,2.0040333E0,1.0322908E0],"tree_param":{"num_deleted":"0","num_feature":"12","num_nodes":"9","size_leaf_vector":"1"}},{"base_weights":[2.984263E-3,-5.1138397E-2,7.0238695E-2,5.860963E-2,-5.1673323E-2,-1.6743226E-2,4.0143885E-2,3.7096053E-2,-1.405096E-2],"categories":[],"categories_nodes":[],"categories_segments":[],"categories_sizes":[],"default_left":[0,0,0,0,0,0,0,0,0],"id":70,"left_children":[1,3,5,7,-1,-1,-1,-1,-1],"loss_changes":[3.2481633E-2,7.6237276E-2,3.920456E-2,2.8814115E-2,0E0,0E0,0E0,0E0,0E0],"parents":[2147483647,0,0,1,1,2,2,3,3],"right_children":[2,4,6,8,-1,-1,-1,-1,-1],"split_conditions":[-7.168984E-3,9.1055495E-1,-1.0096918E0,1.0353618E0,-5.1673323E-2,-1.6743226E-2,4.0143885E-2,3.7096053E-2,-1.405096E-2],"split_indices":[1,7,11,6,0,0,0,0,0],"split_type":[0,0,0,0,0,0,0,0,0],"sum_hessian":[6.9367666E0,3.9764037E0,2.9603627E0,2.356739E0,1.6196645E0,1.0334486E0,1.9269142E0,1.3508223E0,1.0059167E0],"tree_param":{"num_deleted":"0","num_feature":"12","num_nodes":"9","size_leaf_vector":"1"}},{"base_weights":[1.4324754E-3,-4.8689853E-2,7.883797E-2,2.1150984E-2,-1.1523291E-1,-5.6747994E-3,4.499851E-2,-9.053625E-3,-4.7482707E-2],"categories":[],"categories_nodes":[],"categories_segments":[],"categories_sizes":[],"default_left":[0,0,0,0,0,0,0,0,0],"id":71,"left_children":[1,3,5,-1,7,-1,-1,-1,-1],"loss_changes":[3.4461137E-2,5.1025387E-2,2.7071321E-2,0E0,9.32074E-3,0E0,0E0,0E0,0E0],"parents":[2147483647,0,0,1,1,2,2,4,4],"right_children":[2,4,6,-1,8,-1,-1,-1,-1],"split_conditions":[9.082269E-1,-1.1432377E0,-9.3112427E-1,2.1150984E-2,8.615867E-1,-5.6747994E-3,4.499851E-2,-9.053625E-3,-4.7482707E-2],"split_indices":[7,7,6,0,9,0,0,0,0],"split_type":[0,0,0,0,0,0,0,0,0],"sum_hessian":[6.892926E0,4.4089675E0,2.483959E0,1.5582634E0,2.850704E0,1.3556976E0,1.1282613E0,1.5294958E0,1.321208E0],"tree_param":{"num_deleted":"0","num_feature":"12","num_nodes":"9","size_leaf_vector":"1"}},{"base_weights":[1.4916578E-3,-3.537986E-2,2.741588E-2,-6.6135876E-2,5.5793874E-2,6.103621E-2,-3.6044892E-2,2.3732908E-2,-3.0936057E-2],"categories":[],"categories_nodes":[],"categories_segments":[],"categories_sizes":[],"default_left":[0,0,0,0,0,0,0,0,0],"id":72,"left_children":[1,3,-1,-1,5,-1,7,-1,-1],"loss_changes":[2.938224E-2,1.1886475E-1,0E0,0E0,7.553229E-2,0E0,3.866856E-2,0E0,0E0],"parents":[2147483647,0,0,1,1,4,4,6,6],"right_children":[2,4,-1,-1,6,-1,8,-1,-1],"split_conditions":[9.367853E-1,-8.9772284E-1,2.741588E-2,-6.6135876E-2,-8.365084E-1,6.103621E-2,7.1689836E-3,2.3732908E-2,-3.0936057E-2],"split_indices":[9,10,0,0,6,0,0,0,0],"split_type":[0,0,0,0,0,0,0,0,0],"sum_hessian":[6.889158E0,5.3154016E0,1.5737561E0,1.2863345E0,4.029067E0,1.0789579E0,2.950109E0,1.0198385E0,1.9302706E0],"tree_param":{"num_deleted":"0","num_feature":"12","num_nodes":"9","size_leaf_vector":"1"}},{"base_weights":[2.9568325E-3,2.5399713E-2,-3.415949E-2,2.8535146E-2,-8.855479E-2,-6.584592E-2,3.0720953E-2,3.982861E-2,-2.8511161E-2],"categories":[],"categories_nodes":[],"categories_segments":[],"categories_sizes":[],"default_left":[0,0,0,0,0,0,0,0,0],"id":73,"left_children":[1,-1,3,-1,5,-1,7,-1,-1],"loss_changes":[2.6603822E-2,0E0,5.1240407E-2,0E0,8.175893E-2,0E0,5.6130454E-2,0E0,0E0],"parents":[2147483647,0,0,2,2,4,4,6,6],"right_children":[2,-1,4,-1,6,-1,8,-1,-1],"split_conditions":[-1.24868706E-1,2.5399713E-2,-9.29694E-1,2.8535146E-2,-8.89131E-1,-6.584592E-2,9.624075E-1,3.982861E-2,-2.8511161E-2],"split_indices":[0,0,6,0,6,0,8,0,0],"split_type":[0,0,0,0,0,0,0,0,0],"sum_hessian":[6.818586E0,1.7296959E0,5.08889E0,1.2853888E0,3.8035014E0,1.4126476E0,2.3908536E0,1.2891415E0,1.1017122E0],"tree_param":{"num_deleted":"0","num_feature":"12","num_nodes":"9","size_leaf_vector":"1"}},{"base_weights":[1.9040983E-3,-4.211652E-2,6.794607E-2,2.023307E-2,-1.0429481E-1,-1.262113E-2,4.69322E-2,-1.5403463E-4,-4.3641567E-2],"categories":[],"categories_nodes":[],"categories_segments":[],"categories_sizes":[],"default_left":[0,0,0,0,0,0,0,0,0],"id":74,"left_children":[1,3,5,-1,7,-1,-1,-1,-1],"loss_changes":[2.5399791E-2,4.2928845E-2,4.049494E-2,0E0,1.5968356E-2,0E0,0E0,0E0,0E0],"parents":[2147483647,0,0,1,1,2,2,4,4],"right_children":[2,4,6,-1,8,-1,-1,-1,-1],"split_conditions":[9.138888E-1,-1.1432377E0,-9.3112427E-1,2.023307E-2,-8.6149913E-1,-1.262113E-2,4.69322E-2,-1.5403463E-4,-4.3641567E-2],"split_indices":[9,7,6,0,6,0,0,0,0],"split_type":[0,0,0,0,0,0,0,0,0],"sum_hessian":[6.7525015E0,4.2691526E0,2.483349E0,1.5149982E0,2.7541542E0,1.3409182E0,1.142431E0,1.0699519E0,1.6842024E0],"tree_param":{"num_deleted":"0","num_feature":"12","num_nodes":"9","size_leaf_vector":"1"}},{"base_weights":[2.6983179E-3,-4.144589E-2,5.8008827E-2,-1.2826255E-1,3.7685636E-2,-2.2080112E-2,3.921794E-2,9.598836E-3,-6.479535E-2],"categories":[],"categories_nodes":[],"categories_segments":[],"categories_sizes":[],"default_left":[0,0,0,0,0,0,0,0,0],"id":75,"left_children":[1,3,5,7,-1,-1,-1,-1,-1],"loss_changes":[2.1309607E-2,8.7027885E-2,4.650086E-2,5.9097786E-2,0E0,0E0,0E0,0E0,0E0],"parents":[2147483647,0,0,1,1,2,2,3,3],"right_children":[2,4,6,8,-1,-1,-1,-1,-1],"split_conditions":[-7.168984E-3,9.484128E-1,-1.0096918E0,-9.605587E-1,3.7685636E-2,-2.2080112E-2,3.921794E-2,9.598836E-3,-6.479535E-2],"split_indices":[1,8,11,10,0,0,0,0,0],"split_type":[0,0,0,0,0,0,0,0,0],"sum_hessian":[6.7429066E0,3.8893905E0,2.8535159E0,2.7122192E0,1.1771711E0,1.0112141E0,1.8423017E0,1.184153E0,1.5280664E0],"tree_param":{"num_deleted":"0","num_feature":"12","num_nodes":"9","size_leaf_vector":"1"}},{"base_weights":[1.7239931E-3,-4.273585E-2,6.1063834E-2,4.0662546E-2,-5.5054158E-2,-1.1876338E-2,4.011941E-2,-2.0349953E-2,5.4165386E-2],"categories":[],"categories_nodes":[],"categories_segments":[],"categories_sizes":[],"default_left":[0,0,0,0,0,0,0,0,0],"id":76,"left_children":[1,3,5,7,-1,-1,-1,-1,-1],"loss_changes":[2.3006309E-2,6.625955E-2,3.25257E-2,7.2403334E-2,0E0,0E0,0E0,0E0,0E0],"parents":[2147483647,0,0,1,1,2,2,3,3],"right_children":[2,4,6,8,-1,-1,-1,-1,-1],"split_conditions":[9.0411735E-1,8.615867E-1,-9.3112427E-1,-1.0555209E0,-5.5054158E-2,-1.1876338E-2,4.011941E-2,-2.0349953E-2,5.4165386E-2],"split_indices":[7,9,6,11,0,0,0,0,0],"split_type":[0,0,0,0,0,0,0,0,0],"sum_hessian":[6.7311745E0,4.008016E0,2.7231581E0,2.963541E0,1.0444751E0,1.3325988E0,1.3905592E0,1.9591465E0,1.0043945E0],"tree_param":{"num_deleted":"0","num_feature":"12","num_nodes":"9","size_leaf_vector":"1"}},{"base_weights":[2.1080016E-3,-3.2302897E-2,2.701946E-2,2.428799E-2,-3.0987993E-2,5.708659E-2,-8.469155E-2,-6.0959127E-2,1.7031638E-2],"categories":[],"categories_nodes":[],"categories_segments":[],"categories_sizes":[],"default_left":[0,0,0,0,0,0,0,0,0],"id":77,"left_children":[1,3,-1,5,-1,-1,7,-1,-1],"loss_changes":[2.6210558E-2,2.7696796E-2,0E0,9.3875E-2,0E0,0E0,6.663688E-2,0E0,0E0],"parents":[2147483647,0,0,1,1,3,3,6,6],"right_children":[2,4,-1,6,-1,-1,8,-1,-1],"split_conditions":[5.440938E-1,9.1055495E-1,2.701946E-2,-8.6930543E-1,-3.0987993E-2,5.708659E-2,1.0481454E0,-6.0959127E-2,1.7031638E-2],"split_indices":[1,7,0,8,0,0,10,0,0],"split_type":[0,0,0,0,0,0,0,0,0],"sum_hessian":[6.698614E0,5.2697134E0,1.4289006E0,3.2983012E0,1.9714123E0,1.0114846E0,2.2868166E0,1.0069195E0,1.2798971E0],"tree_param":{"num_deleted":"0","num_feature":"12","num_nodes":"9","size_leaf_vector":"1"}},{"base_weights":[2.6591034E-3,-2.7857205E-2,2.97878E-2,-4.03351E-2,3.6657967E-2,-2.060289E-2,3.89629E-2],"categories":[],"categories_nodes":[],"categories_segments":[],"categories_sizes":[],"default_left":[0,0,0,0,0,0,0],"id":78,"left_children":[1,3,-1,-1,5,-1,-1],"loss_changes":[2.536508E-2,5.0351776E-2,0E0,0E0,5.7038017E-2,0E0,0E0],"parents":[2147483647,0,0,1,1,4,4],"right_children":[2,4,-1,-1,6,-1,-1],"split_conditions":[9.6069145E-1,-9.102538E-1,2.97878E-2,-4.03351E-2,-1.0555209E0,-2.060289E-2,3.89629E-2],"split_indices":[9,8,0,0,11,0,0],"split_type":[0,0,0,0,0,0,0],"sum_hessian":[6.66356E0,5.6051955E0,1.0583645E0,1.7046807E0,3.9005148E0,1.9548556E0,1.9456593E0],"tree_param":{"num_deleted":"0","num_feature":"12","num_nodes":"7","size_leaf_vector":"1"}},{"base_weights":[2.878875E-3,-4.4265065E-2,7.3473364E-2,1.816254E-2,-1.0475488E-1,-7.848581E-3,4.492726E-2,-4.7064535E-3,-4.025402E-2],"categories":[],"categories_nodes":[],"categories_segments":[],"categories_sizes":[],"default_left":[0,0,0,0,0,0,0,0,0],"id":79,"left_children":[1,3,5,-1,7,-1,-1,-1,-1],"loss_changes":[2.8647754E-2,3.9304025E-2,2.9998276E-2,0E0,7.4946173E-3,0E0,0E0,0E0,0E0],"parents":[2147483647,0,0,1,1,2,2,4,4],"right_children":[2,4,6,-1,8,-1,-1,-1,-1],"split_conditions":[9.138888E-1,-1.1432377E0,-9.382386E-1,1.816254E-2,-8.6149913E-1,-7.848581E-3,4.492726E-2,-4.7064535E-3,-4.025402E-2],"split_indices":[9,7,8,0,6,0,0,0,0],"split_type":[0,0,0,0,0,0,0,0,0],"sum_hessian":[6.6306105E0,4.1992574E0,2.431353E0,1.5363909E0,2.6628666E0,1.3392262E0,1.0921267E0,1.0420012E0,1.6208653E0],"tree_param":{"num_deleted":"0","num_feature":"12","num_nodes":"9","size_leaf_vector":"1"}},{"base_weights":[3.3501296E-3,-2.8795712E-2,2.553062E-2,1.8311743E-2,-7.066699E-2,4.1279443E-2,-6.054314E-2,4.4384222E-2,-2.8190864E-2],"categories":[],"categories_nodes":[],"categories_segments":[],"categories_sizes":[],"default_left":[0,0,0,0,0,0,0,0,0],"id":80,"left_children":[1,3,-1,-1,5,7,-1,-1,-1],"loss_changes":[2.247898E-2,2.7700275E-2,0E0,0E0,7.7394076E-2,6.2492784E-2,0E0,0E0,0E0],"parents":[2147483647,0,0,1,1,4,4,5,5],"right_children":[2,4,-1,-1,6,8,-1,-1,-1],"split_conditions":[5.440938E-1,-9.605587E-1,2.553062E-2,1.8311743E-2,8.9017135E-1,9.624075E-1,-6.054314E-2,4.4384222E-2,-2.8190864E-2],"split_indices":[1,10,0,0,7,8,0,0,0],"split_type":[0,0,0,0,0,0,0,0,0],"sum_hessian":[6.621203E0,5.2174187E0,1.4037845E0,1.5131576E0,3.7042608E0,2.3680687E0,1.3361921E0,1.2714301E0,1.0966387E0],"tree_param":{"num_deleted":"0","num_feature":"12","num_nodes":"9","size_leaf_vector":"1"}},{"base_weights":[2.218734E-3,-4.1113265E-2,6.6766225E-2,4.0956423E-2,-3.399894E-2,-1.1205409E-2,4.5854013E-2,2.9318122E-2,-1.1274926E-2],"categories":[],"categories_nodes":[],"categories_segments":[],"categories_sizes":[],"default_left":[0,0,0,0,0,0,0,0,0],"id":81,"left_children":[1,3,5,7,-1,-1,-1,-1,-1],"loss_changes":[2.3899605E-2,3.5130788E-2,3.6352687E-2,1.7684158E-2,0E0,0E0,0E0,0E0,0E0],"parents":[2147483647,0,0,1,1,2,2,3,3],"right_children":[2,4,6,8,-1,-1,-1,-1,-1],"split_conditions":[9.138888E-1,-1.0144167E0,-9.633146E-1,1.1601014E0,-3.399894E-2,-1.1205409E-2,4.5854013E-2,2.9318122E-2,-1.1274926E-2],"split_indices":[9,11,10,10,0,0,0,0,0],"split_type":[0,0,0,0,0,0,0,0,0],"sum_hessian":[6.5634036E0,4.1443048E0,2.419099E0,2.14243E0,2.0018744E0,1.3510462E0,1.068053E0,1.1017491E0,1.040681E0],"tree_param":{"num_deleted":"0","num_feature":"12","num_nodes":"9","size_leaf_vector":"1"}},{"base_weights":[4.0450976E-3,-4.4933632E-2,5.340813E-2,3.4452844E-2,-4.1413963E-2,-1.47847E-2,4.1147605E-2,2.4691688E-2,-9.584848E-3],"categories":[],"categories_nodes":[],"categories_segments":[],"categories_sizes":[],"default_left":[0,0,0,0,0,0,0,0,0],"id":82,"left_children":[1,3,5,7,-1,-1,-1,-1,-1],"loss_changes":[2.0637538E-2,3.6759157E-2,4.2999968E-2,1.2598398E-2,0E0,0E0,0E0,0E0,0E0],"parents":[2147483647,0,0,1,1,2,2,3,3],"right_children":[2,4,6,8,-1,-1,-1,-1,-1],"split_conditions":[8.745216E-1,-1.0144167E0,-9.633146E-1,1.1601014E0,-4.1413963E-2,-1.47847E-2,4.1147605E-2,2.4691688E-2,-9.584848E-3],"split_indices":[11,11,10,10,0,0,0,0,0],"split_type":[0,0,0,0,0,0,0,0,0],"sum_hessian":[6.543295E0,3.3294733E0,3.2138214E0,2.1372654E0,1.1922078E0,1.6285447E0,1.5852767E0,1.1029364E0,1.034329E0],"tree_param":{"num_deleted":"0","num_feature":"12","num_nodes":"9","size_leaf_vector":"1"}},{"base_weights":[2.8469935E-3,-4.225531E-2,5.9777845E-2,6.234224E-2,-4.732137E-2,-2.0416975E-2,3.940258E-2,-3.600472E-3,3.134187E-2],"categories":[],"categories_nodes":[],"categories_segments":[],"categories_sizes":[],"default_left":[0,0,0,0,0,0,0,0,0],"id":83,"left_children":[1,3,5,7,-1,-1,-1,-1,-1],"loss_changes":[2.1833286E-2,6.758868E-2,4.313454E-2,1.1357065E-2,0E0,0E0,0E0,0E0,0E0],"parents":[2147483647,0,0,1,1,2,2,3,3],"right_children":[2,4,6,8,-1,-1,-1,-1,-1],"split_conditions":[-7.168984E-3,9.1055495E-1,7.563237E-1,9.484128E-1,-4.732137E-2,-2.0416975E-2,3.940258E-2,-3.600472E-3,3.134187E-2],"split_indices":[1,7,7,8,0,0,0,0,0],"split_type":[0,0,0,0,0,0,0,0,0],"sum_hessian":[6.5192814E0,3.7813568E0,2.7379243E0,2.2256494E0,1.5557076E0,1.0002309E0,1.7376934E0,1.063728E0,1.1619214E0],"tree_param":{"num_deleted":"0","num_feature":"12","num_nodes":"9","size_leaf_vector":"1"}},{"base_weights":[1.8786192E-3,-4.3950602E-2,7.188971E-2,-3.8927317E-2,1.8155552E-2,-3.8594601E-3,3.9807815E-2,-2.2234557E-2,3.3098612E-2],"categories":[],"categories_nodes":[],"categories_segments":[],"categories_sizes":[],"default_left":[0,0,0,0,0,0,0,0,0],"id":84,"left_children":[1,3,5,-1,7,-1,-1,-1,-1],"loss_changes":[2.7272405E-2,2.9867973E-2,1.898407E-2,0E0,4.1109297E-2,0E0,0E0,0E0,0E0],"parents":[2147483647,0,0,1,1,2,2,4,4],"right_children":[2,4,6,-1,8,-1,-1,-1,-1],"split_conditions":[9.082269E-1,-8.10022E-1,-9.3112427E-1,-3.8927317E-2,-7.168984E-3,-3.8594601E-3,3.9807815E-2,-2.2234557E-2,3.3098612E-2],"split_indices":[7,10,6,0,1,0,0,0,0],"split_type":[0,0,0,0,0,0,0,0,0],"sum_hessian":[6.515164E0,4.162577E0,2.352587E0,1.2904189E0,2.8721583E0,1.3120751E0,1.0405117E0,1.5332242E0,1.3389341E0],"tree_param":{"num_deleted":"0","num_feature":"12","num_nodes":"9","size_leaf_vector":"1"}},{"base_weights":[2.3761992E-3,-3.0385152E-2,3.1181917E-2,-4.248932E-2,3.5385296E-2,-2.1943547E-2,3.9498374E-2],"categories":[],"categories_nodes":[],"categories_segments":[],"categories_sizes":[],"default_left":[0,0,0,0,0,0,0],"id":85,"left_children":[1,3,-1,-1,5,-1,-1],"loss_changes":[2.8007394E-2,5.1988345E-2,0E0,0E0,6.015121E-2,0E0,0E0],"parents":[2147483647,0,0,1,1,4,4],"right_children":[2,4,-1,-1,6,-1,-1],"split_conditions":[9.6069145E-1,-8.9772284E-1,3.1181917E-2,-4.248932E-2,-1.0555209E0,-2.1943547E-2,3.9498374E-2],"split_indices":[9,10,0,0,11,0,0],"split_type":[0,0,0,0,0,0,0],"sum_hessian":[6.4681387E0,5.4204803E0,1.0476584E0,1.5854285E0,3.8350518E0,1.9157313E0,1.9193205E0],"tree_param":{"num_deleted":"0","num_feature":"12","num_nodes":"7","size_leaf_vector":"1"}},{"base_weights":[2.4949957E-3,-3.6907963E-2,2.3667637E-2,3.9017245E-2,-4.729152E-2,-1.7556202E-2,4.4014417E-2],"categories":[],"categories_nodes":[],"categories_segments":[],"categories_sizes":[],"default_left":[0,0,0,0,0,0,0],"id":86,"left_children":[1,3,-1,5,-1,-1,-1],"loss_changes":[2.529316E-2,5.735827E-2,0E0,5.3032726E-2,0E0,0E0,0E0],"parents":[2147483647,0,0,1,1,3,3],"right_children":[2,4,-1,6,-1,-1,-1],"split_conditions":[9.546366E-1,8.9017135E-1,2.3667637E-2,-1.017182E0,-4.729152E-2,-1.7556202E-2,4.4014417E-2],"split_indices":[11,7,0,9,0,0,0],"split_type":[0,0,0,0,0,0,0],"sum_hessian":[6.4350114E0,4.5864005E0,1.8486111E0,3.2311878E0,1.3552125E0,1.9351808E0,1.2960069E0],"tree_param":{"num_deleted":"0","num_feature":"12","num_nodes":"7","size_leaf_vector":"1"}},{"base_weights":[2.1209987E-3,5.345132E-2,-5.325913E-2,-3.4822762E-2,5.12827E-2,-4.320179E-2,1.8829651E-2,3.3867687E-2,-5.2002367E-2],"categories":[],"categories_nodes":[],"categories_segments":[],"categories_sizes":[],"default_left":[0,0,0,0,0,0,0,0,0],"id":87,"left_children":[1,3,5,7,-1,-1,-1,-1,-1],"loss_changes":[2.3894845E-2,5.0982803E-2,5.181268E-2,8.729338E-2,0E0,0E0,0E0,0E0,0E0],"parents":[2147483647,0,0,1,1,2,2,3,3],"right_children":[2,4,6,8,-1,-1,-1,-1,-1],"split_conditions":[-8.6149913E-1,9.7809577E-1,1.1420164E0,9.1055495E-1,5.12827E-2,-4.320179E-2,1.8829651E-2,3.3867687E-2,-5.2002367E-2],"split_indices":[6,11,10,7,0,0,0,0,0],"split_type":[0,0,0,0,0,0,0,0,0],"sum_hessian":[6.4043074E0,3.3417552E0,3.0625522E0,2.3098886E0,1.0318666E0,1.5831498E0,1.4794024E0,1.207365E0,1.1025234E0],"tree_param":{"num_deleted":"0","num_feature":"12","num_nodes":"9","size_leaf_vector":"1"}},{"base_weights":[2.6583376E-3,-3.7113644E-2,6.1984394E-2,1.7317386E-2,-9.3579225E-2,-1.1529876E-2,4.374098E-2,-3.703088E-2,-7.136148E-3],"categories":[],"categories_nodes":[],"categories_segments":[],"categories_sizes":[],"default_left":[0,0,0,0,0,0,0,0,0],"id":88,"left_children":[1,3,5,-1,7,-1,-1,-1,-1],"loss_changes":[1.9693226E-2,3.238299E-2,3.3656392E-2,0E0,4.439609E-3,0E0,0E0,0E0,0E0],"parents":[2147483647,0,0,1,1,2,2,4,4],"right_children":[2,4,6,-1,8,-1,-1,-1,-1],"split_conditions":[9.138888E-1,-1.1432377E0,-9.633146E-1,1.7317386E-2,-7.874531E-1,-1.1529876E-2,4.374098E-2,-3.703088E-2,-7.136148E-3],"split_indices":[9,7,10,0,10,0,0,0,0],"split_type":[0,0,0,0,0,0,0,0,0],"sum_hessian":[6.3713284E0,4.038407E0,2.3329213E0,1.4987853E0,2.5396216E0,1.3077168E0,1.0252044E0,1.2403649E0,1.2992567E0],"tree_param":{"num_deleted":"0","num_feature":"12","num_nodes":"9","size_leaf_vector":"1"}},{"base_weights":[2.5932346E-3,-4.5178548E-2,5.1616453E-2,3.2904234E-2,-4.124821E-2,-1.2898635E-2,3.8310476E-2,2.2906588E-2,-8.384641E-3],"categories":[],"categories_nodes":[],"categories_segments":[],"categories_sizes":[],"default_left":[0,0,0,0,0,0,0,0,0],"id":89,"left_children":[1,3,5,7,-1,-1,-1,-1,-1],"loss_changes":[1.9584566E-2,3.5262275E-2,3.5022996E-2,1.03761535E-2,0E0,0E0,0E0,0E0,0E0],"parents":[2147483647,0,0,1,1,2,2,3,3],"right_children":[2,4,6,8,-1,-1,-1,-1,-1],"split_conditions":[8.745216E-1,-1.0144167E0,-9.633146E-1,1.1601014E0,-4.124821E-2,-1.2898635E-2,3.8310476E-2,2.2906588E-2,-8.384641E-3],"split_indices":[11,11,10,10,0,0,0,0,0],"split_type":[0,0,0,0,0,0,0,0,0],"sum_hessian":[6.3668447E0,3.2642996E0,3.102545E0,2.117138E0,1.1471616E0,1.5767539E0,1.5257912E0,1.0865538E0,1.0305842E0],"tree_param":{"num_deleted":"0","num_feature":"12","num_nodes":"9","size_leaf_vector":"1"}},{"base_weights":[1.6365577E-3,-4.1665487E-2,5.670615E-2,-1.190973E-1,3.170609E-2,-2.0374315E-2,3.8771432E-2,1.0238323E-2,-6.1840996E-2],"categories":[],"categories_nodes":[],"categories_segments":[],"categories_sizes":[],"default_left":[0,0,0,0,0,0,0,0,0],"id":90,"left_children":[1,3,5,7,-1,-1,-1,-1,-1],"loss_changes":[1.9878201E-2,6.608021E-2,4.1830976E-2,5.429363E-2,0E0,0E0,0E0,0E0,0E0],"parents":[2147483647,0,0,1,1,2,2,3,3],"right_children":[2,4,6,8,-1,-1,-1,-1,-1],"split_conditions":[-7.168984E-3,9.484128E-1,7.572997E-1,-9.605587E-1,3.170609E-2,-2.0374315E-2,3.8771432E-2,1.0238323E-2,-6.1840996E-2],"split_indices":[1,8,9,10,0,0,0,0,0],"split_type":[0,0,0,0,0,0,0,0,0],"sum_hessian":[6.3451824E0,3.6883671E0,2.6568153E0,2.543528E0,1.144839E0,1.0008577E0,1.6559576E0,1.1416534E0,1.4018748E0],"tree_param":{"num_deleted":"0","num_feature":"12","num_nodes":"9","size_leaf_vector":"1"}},{"base_weights":[8.4872294E-4,-1.9930169E-2,3.7053965E-2,-4.853596E-2,