tree
version=v4
num_class=1
num_tree_per_iteration=1
label_index=0
max_feature_idx=11
objective=binary sigmoid:1
feature_names=Column_0 Column_1 Column_2 Column_3 Column_4 Column_5 Column_6 Column_7 Column_8 Column_9 Column_10 Column_11
feature_infos=[-0.95773007732914395:1.2187169890373766] [-1.2187169269070395:0.95773007735625093] [-1.011697408855462:1.2619606798895189] [-1.2619606798895169:1.011697408855464] [-0.91898613489040215:1.1789308226166471] [-1.1789308226166497:0.91898613489039926] [-0.94703761927880559:1.1832609701608203] [-1.1832609642423169:0.94703761926034435] [-0.96840109239012395:1.2034007668875082] [-1.2034007668875077:0.96840109239012462] [-1.0101432035283213:1.2366610908179658] [-1.2366610908179672:1.0101432035283202]
tree_sizes=1171 977 1291 872 979 1081 874 1188 1196 974 872 1080 1081 1087 1191 872 1182 876 1197 1080 1946 983 983 1716 2370 1611 1818 1412 1621 1511 1840 1726 1938 2143 2057 2262 2143 3020 2047 2250 2151 2372 2262 2050 2801 2153 2482 2701 2488 3244 3027 3361 3248 2718 3353 3481 3466 3483 3496 3488 3491 3460 3516 3469 3499 3444 3477 3512 3529 3476 3494 3470 3503 3499 3507 3488 3496 3529 3511 3472 3481 3511 3465 3477 3516 3529 3467 3518 3539 3533 3523 3471 3524 3531 3558 3532 3559 3496 3544 3506

Tree=0
num_leaves=10
num_cat=0
split_feature=0 0 4 6 8 0 0 0 0
split_gain=1405.76 9.69266 7.44864 8.68359 1.62817 1.13687e-13 1.13687e-13 1.42109e-14 1.42109e-14
threshold=0.36896559810028179 -0.59363852766155745 0.97869810788732081 -0.8551120031076308 -0.87400037103415096 -0.76945842225875216 1.2015437552541053 1.2120371884379739 1.205425332987325
decision_type=2 2 2 2 2 2 2 2 2
left_child=1 5 3 -2 -3 -1 -4 8 -8
right_child=2 4 6 -5 -6 -7 7 -9 -10
leaf_value=0.44137036089721643 0.21749651384232899 0.38031385715497434 0.034327002615602897 0.054679170529683518 0.29890518549865169 0.44137036089721643 0.034327002615603008 0.034327002615602897 0.034327002615602897
leaf_weight=189.66038489341736 4.9134814739227304 4.9134814739227295 121.36299240589142 9.8269629478454554 4.9134814739227277 7.3702222108840934 7.3702222108840969 7.1245481371879569 8.5985925793647748
leaf_count=772 20 20 494 40 20 30 30 29 35
internal_value=0.264621 0.436536 0.0412367 0.108952 0.33961 0.44137 0.034327 0.034327 0.034327
internal_weight=366.054 206.858 159.197 14.7404 9.82696 197.031 144.456 23.0934 15.9688
internal_count=1490 842 648 60 40 802 588 94 65
is_linear=0
shrinkage=1


Tree=1
num_leaves=8
num_cat=0
split_feature=0 0 4 10 8 6 0
split_gain=1143.07 8.51557 5.7895 7.05593 1.37158 0.000833458 1.13687e-13
threshold=0.36896559810028179 -0.59363852766155745 0.97869810788732081 -0.81731266286355797 -0.87400037103415096 1.1382588516262837 -0.86732704324110543
decision_type=2 2 2 2 2 2 2
left_child=1 6 3 -2 -3 -5 -1
right_child=2 4 -4 5 -6 -7 -8
leaf_value=0.16431544754180361 -0.040474988681856602 0.10616882056891588 -0.20349229904708813 -0.18743228222615133 0.03101256893821663 -0.18560521935340019 0.16431544754180361
leaf_weight=143.40193116664886 4.9468252956867227 4.8234724998474121 146.95670753717422 4.9907713234424556 4.8899617791175825 4.9962645769119263 47.641837596893311
leaf_count=602 20 20 588 20 20 20 200
internal_value=0.000241694 0.159671 -0.197464 -0.138142 0.0683335 -0.186518 0.164315
internal_weight=362.648 200.757 161.891 14.9339 9.71343 9.98704 191.044
internal_count=1490 842 648 60 40 40 802
is_linear=0
shrinkage=0.1


Tree=2
num_leaves=11
num_cat=0
split_feature=0 4 8 0 6 0 0 0 3 1
split_gain=948.729 8.32494 11.4719 3.415 0.288465 5.68434e-14 5.68434e-14 5.68434e-14 5.68434e-14 7.10543e-15
threshold=1.0000000180025095e-35 0.97869810788732081 -0.87687446763719479 -0.59363852766155745 1.1320644239854916 -0.78534699905645067 1.2106495744153312 1.2020528891699127 -1.183880222989804 -1.2058826202404629
decision_type=2 2 2 2 2 2 2 2 2 2
left_child=3 2 -2 5 -4 -1 7 8 -3 -9
right_child=1 6 4 -5 -6 -7 -8 9 -10 -11
leaf_value=0.15456999798015755 0.018110260910671885 -0.18443693322954988 -0.144211938482223 0.085344204927552042 -0.17555292750117626 0.15456999798015755 -0.18443693322954988 -0.18443693322954985 -0.18443693322954988 -0.1844369332295499
leaf_weight=174.04379153251648 4.9241965711116817 41.452729493379593 4.9535245597362501 7.4146004021167746 7.2131669521331787 9.1361570358276349 9.6805775463581067 5.2126186788082123 82.409019112586975 7.1983781754970533
leaf_count=762 20 167 20 31 29 40 39 21 332 29
internal_value=0.000385316 -0.176705 -0.110671 0.151877 -0.162793 0.15457 -0.184437 -0.184437 -0.184437 -0.184437
internal_weight=353.639 163.044 17.0909 190.595 12.1667 183.18 145.953 136.273 123.862 12.411
internal_count=1490 657 69 833 49 802 588 549 499 50
is_linear=0
shrinkage=0.1


Tree=3
num_leaves=7
num_cat=0
split_feature=0 0 4 10 8 8
split_gain=799.354 6.95476 4.14003 4.64379 1.01125 0.00184535
threshold=0.36896559810028179 -0.59363852766155745 0.97869810788732081 -0.81731266286355797 -0.87400037103415096 1.1588675504414785
decision_type=2 2 2 2 2 2
left_child=1 -1 3 -2 -3 -5
right_child=2 4 -4 5 -6 -7
leaf_value=0.1467546781255635 -0.035702132272756898 0.092180612043772481 -0.17021542875002282 -0.15586211694181154 0.026793916403383879 -0.15311606821831492
leaf_weight=174.10672631859779 4.9576250910758981 4.6248849481344223 142.49906462430954 4.9043903350830043 4.8411468863487226 4.8842660784721375
leaf_count=802 20 20 588 20 20 20
internal_value=0.000475941 0.142216 -0.164996 -0.114555 0.0587403 -0.154492
internal_weight=340.818 183.573 157.245 14.7463 9.46603 9.78866
internal_count=1490 842 648 60 40 40
is_linear=0
shrinkage=0.1


Tree=4
num_leaves=8
num_cat=0
split_feature=0 4 8 0 10 0 0
split_gain=680.642 6.54656 8.57077 3.06251 0.227065 5.68434e-14 5.68434e-14
threshold=1.0000000180025095e-35 0.97869810788732081 -0.87687446763719479 -0.59363852766155745 1.0878537826521875 -0.76654535520232314 1.2106495744153312
decision_type=2 2 2 2 2 2 2
left_child=3 2 -2 5 -4 -1 -3
right_child=1 6 4 -5 -6 -7 -8
leaf_value=0.14037293316724395 0.018107601432611573 -0.15922552102864979 -0.12264481554888568 0.073510506438370274 -0.15087816394959189 0.14037293316724395 -0.15922552102864979
leaf_weight=159.20055878162384 4.9101040512323406 128.24956078827381 4.8537175506353361 7.148360773921012 6.8953084200620651 5.1222831010818473 9.1106245368719083
leaf_count=777 20 549 20 31 29 25 39
internal_value=0.000534539 -0.152046 -0.0928455 0.137586 -0.139214 0.140373 -0.159226
internal_weight=325.491 154.019 16.6591 171.471 11.749 164.323 137.36
internal_count=1490 657 69 833 49 802 588
is_linear=0
shrinkage=0.1


Tree=5
num_leaves=9
num_cat=0
split_feature=0 0 4 6 8 10 0 0
split_gain=584.71 6.14646 3.49799 3.44429 0.753099 0.00339802 5.68434e-14 7.10543e-15
threshold=0.36896559810028179 -0.59363852766155745 0.97869810788732081 -0.8551120031076308 -0.87400037103415096 1.1510900322486017 -0.84762782188651542 -0.80413811985694728
decision_type=2 2 2 2 2 2 2 2
left_child=1 6 3 -2 -3 -5 -1 -8
right_child=2 4 -4 5 -6 -7 7 -9
leaf_value=0.13508545122345816 -0.030875220146043377 0.080679053390050062 -0.15050776068226185 -0.13627435396105522 0.023344395179500019 -0.13242857656649107 0.13508545122345814 0.13508545122345816
leaf_weight=126.32093690335751 4.9469156861305246 4.4040436893701553 131.10451644659042 4.6280297338962519 4.7747691571712476 4.5624799132347107 17.304237931966785 10.574812069535254
leaf_count=657 20 20 588 20 20 20 90 55
internal_value=0.000573792 0.130353 -0.145412 -0.0981524 0.0508539 -0.134365 0.135085 0.135085
internal_weight=308.621 163.379 145.242 14.1374 9.17881 9.19051 154.2 27.8791
internal_count=1490 842 648 60 40 40 802 145
is_linear=0
shrinkage=0.1


Tree=6
num_leaves=7
num_cat=0
split_feature=0 4 8 0 8 0
split_gain=505.434 5.7666 6.70679 2.95522 0.200788 2.84217e-14
threshold=1.0000000180025095e-35 0.97869810788732081 -0.87687446763719479 -0.59363852766155745 1.1322158812905767 1.2136039542008306
decision_type=2 2 2 2 2 2
left_child=3 2 -2 -1 -4 -3
right_child=1 5 4 -5 -6 -7
leaf_value=0.13065210059877694 0.017905765171993229 -0.14345036575498737 -0.10697899737778803 0.063513796805718628 -0.13428630903243249 -0.14345036575498737
leaf_weight=144.01305210590363 4.8933573514223108 119.08833414316177 4.6629703044891322 6.8688451349735251 6.3724671304225922 5.0675886869430533
leaf_count=802 20 564 20 31 29 24
internal_value=0.000600433 -0.136183 -0.0795387 0.127596 -0.122748 -0.14345
internal_weight=290.967 140.085 15.9288 150.882 11.0354 124.156
internal_count=1490 657 69 833 49 588
is_linear=0
shrinkage=0.1


Tree=7
num_leaves=10
num_cat=0
split_feature=0 0 4 6 8 0 0 0 0
split_gain=439.651 5.69126 3.23895 2.71336 0.560835 2.84217e-14 2.84217e-14 7.10543e-15 3.55271e-15
threshold=0.36896559810028179 -0.59363852766155745 0.97869810788732081 1.0890234486140817 -0.87400037103415096 -0.82559995269475095 1.2006672888180263 1.2060400222250496 -0.76120334651361821
decision_type=2 2 2 2 2 2 2 2 2
left_child=1 5 3 -2 -3 -1 -4 -8 -7
right_child=2 4 6 -5 -6 8 7 -9 -10
leaf_value=0.12689791988786744 -0.037639343948967778 0.070879801424896402 -0.13764381571878967 -0.12800305691877023 0.020539722808635918 0.12689791988786744 -0.13764381571878961 -0.13764381571878967 0.12689791988786744
leaf_weight=118.0943655371666 6.2558013051748258 4.1824294030666351 95.968211486935616 7.0877401828765869 4.7002952098846418 12.527690827846525 9.1398296654224414 11.722825005650519 3.3407175540924063
leaf_count=707 26 20 483 34 20 75 46 59 20
internal_value=0.000618369 0.121758 -0.132313 -0.0856382 0.0442423 0.126898 -0.137644 -0.137644 0.126898
internal_weight=273.02 142.845 130.174 13.3435 8.88272 133.963 116.831 20.8627 15.8684
internal_count=1490 842 648 60 40 802 588 105 95
is_linear=0
shrinkage=0.1


Tree=8
num_leaves=10
num_cat=0
split_feature=0 4 8 0 10 0 0 0 5
split_gain=383.622 5.43095 5.49248 2.96621 0.171054 2.84217e-14 2.84217e-14 2.84217e-14 2.84217e-14
threshold=1.0000000180025095e-35 0.97869810788732081 -0.87687446763719479 -0.59363852766155745 1.0878537826521875 -0.79154247936033706 -0.87525226672488843 1.2136039542008306 -1.1761560361869881
decision_type=2 2 2 2 2 2 2 2 2
left_child=3 2 -2 5 -4 6 -1 8 -3
right_child=1 7 4 -5 -6 -7 -8 -9 -10
leaf_value=0.12369232273336084 0.018477772151822027 -0.13280317132603395 -0.095805135574839662 0.054875817023880252 -0.12189406677320694 0.12369232273336084 0.12369232273336084 -0.13280317132603395 -0.13280317132603395
leaf_weight=88.576445162296295 4.8784514665603629 5.0218375772237769 4.4621141701936704 6.5961586683988562 5.7538879364728928 6.9684266299009314 28.647976145148277 4.4638556241989127 99.878769591450691
leaf_count=572 20 27 20 31 29 45 185 24 537
internal_value=0.000630793 -0.125043 -0.0688144 0.120222 -0.110499 0.123692 0.123692 -0.132803 -0.132803
internal_weight=255.248 124.459 15.0945 130.789 10.216 124.193 117.224 109.364 104.901
internal_count=1490 657 69 833 49 802 757 588 564
is_linear=0
shrinkage=0.1


Tree=9
num_leaves=8
num_cat=0
split_feature=0 0 4 6 8 0 4
split_gain=336.6 5.41537 3.17002 2.24242 0.414032 2.84217e-14 3.55271e-15
threshold=0.36896559810028179 -0.59363852766155745 0.97869810788732081 1.0890234486140817 -0.87400037103415096 1.2015437552541053 1.1728110268195324
decision_type=2 2 2 2 2 2 2
left_child=1 -1 3 -2 -3 -4 -7
right_child=2 4 5 -5 -6 6 -8
leaf_value=0.12093576885665842 -0.032509852754439773 0.062321835561324215 -0.12872367987632749 -0.11718480217107984 0.018299862692713605 -0.12872367987632743 -0.12872367987632749
leaf_weight=114.80312252044678 6.1760258525609952 3.9718935489654541 85.634770631790161 6.3363035172224045 4.6233147233724576 8.1474376916885394 8.1474376916885358
leaf_count=802 26 20 494 34 20 47 47
internal_value=0.000638606 0.115204 -0.122892 -0.0753897 0.0386427 -0.128724 -0.128724
internal_weight=237.84 123.398 114.442 12.5123 8.59521 101.93 16.2949
internal_count=1490 842 648 60 40 588 94
is_linear=0
shrinkage=0.1


Tree=10
num_leaves=7
num_cat=0
split_feature=0 0 4 6 8 0
split_gain=295.625 5.42423 3.25289 2.09736 0.357925 2.84217e-14
threshold=0.36896559810028179 -0.59363852766155745 0.97869810788732081 1.0890234486140817 -0.87400037103415096 1.2120371884379739
decision_type=2 2 2 2 2 2
left_child=1 -1 3 -2 -3 -4
right_child=2 4 5 -5 -6 -7
leaf_value=0.11855099881813305 -0.029327813341466214 0.057825409595550395 -0.12525434495159152 -0.11253790393570949 0.016536990542826101 -0.12525434495159152
leaf_weight=105.85980471968651 6.1622439175844175 3.8587414473295212 89.983380854129791 5.9577914774417877 4.6055306643247587 4.6681897044181815
leaf_count=802 26 20 559 34 20 29
internal_value=0.000643873 0.112392 -0.119008 -0.070231 0.0353598 -0.125254
internal_weight=221.096 114.324 106.772 12.12 8.46427 94.6516
internal_count=1490 842 648 60 40 588
is_linear=0
shrinkage=0.1


Tree=11
num_leaves=9
num_cat=0
split_feature=0 4 8 0 9 0 0 0
split_gain=260.58 6.59004 4.5189 1.57679 0.246165 2.84217e-14 2.84217e-14 1.42109e-14
threshold=-0.32051169630885118 0.97869810788732081 -0.86821981243679847 -0.59363852766155745 -1.0982348754134594 -0.76120334651361821 1.2136039542008306 1.2044646821221971
decision_type=2 2 2 2 2 2 2 2
left_child=3 2 -2 5 -4 -1 7 -3
right_child=1 6 4 -5 -6 -7 -8 -9
leaf_value=0.11647710988003557 0.016234788848561343 -0.1222812078780534 -0.10957280832119752 0.057943452845729472 -0.076643514505099611 0.11647710988003557 -0.1222812078780534 -0.1222812078780534
leaf_weight=94.974418163299561 6.0326913595199576 77.336895123124123 5.163761392235755 4.8304100781679145 4.0512871444225302 2.4290132522582999 3.5762726068496695 6.7055111378431311
leaf_count=782 26 519 31 24 19 20 24 45
internal_value=0.000646853 -0.111722 -0.0510484 0.113711 -0.0950958 0.116477 -0.122281 -0.122281
internal_weight=205.1 102.866 15.2477 102.234 9.21505 97.4034 87.6187 84.0424
internal_count=1490 664 76 826 50 802 588 564
is_linear=0
shrinkage=0.1


Tree=12
num_leaves=9
num_cat=0
split_feature=0 0 4 11 8 10 0 0
split_gain=230.18 5.25619 3.28906 2.66445 0.249735 0.0634654 2.84217e-14 1.42109e-14
threshold=0.36896559810028179 -0.59363852766155745 0.97869810788732081 0.87442364331197853 -0.87400037103415096 1.1510900322486017 1.0567147083004265 -0.76120334651361821
decision_type=2 2 2 2 2 2 2 2
left_child=1 7 3 5 -3 -2 -4 -1
right_child=2 4 6 -5 -6 -7 -8 -9
leaf_value=0.11466545950376601 -0.10959236076730927 0.050476930607776575 -0.11971663857467051 -0.0017452576857354706 0.015402519744605454 -0.090283998268847476 -0.11971663857467051 0.11466545950376601
leaf_weight=87.224242821335793 3.8558388054370862 3.6696933209896088 5.2276603281497946 4.4365895688533783 4.5432544648647291 3.0480390340089798 75.663504749536514 2.2307990491390219
leaf_count=782 22 20 38 18 20 20 550 20
internal_value=0.00064821 0.107636 -0.112646 -0.0622111 0.0310744 -0.101068 -0.119717 0.114665
internal_weight=189.9 97.668 92.2316 11.3405 8.21295 6.90388 80.8912 89.455
internal_count=1490 842 648 60 40 42 588 802
is_linear=0
shrinkage=0.1


Tree=13
num_leaves=9
num_cat=0
split_feature=0 4 8 0 7 0 0 1
split_gain=203.712 6.41402 3.57568 1.68178 0.251372 2.84217e-14 1.42109e-14 3.55271e-15
threshold=-0.32051169630885118 0.97869810788732081 -0.86821981243679847 -0.59363852766155745 -1.1144303288033941 -0.87525226672488843 1.2106495744153312 0.81725101388343535
decision_type=2 2 2 2 2 2 2 2
left_child=3 2 -2 5 -4 -1 -3 -7
right_child=1 6 4 -5 -6 7 -8 -9
leaf_value=0.11307667039399667 0.014546564475657312 -0.11749204720393557 -0.10240264319682185 0.051150337372739219 -0.067784210174682544 0.11307667039399663 -0.11749204720393557 0.11307667039399667
leaf_weight=58.498823374509811 5.9774622768163672 69.565825715661049 4.5722491145133963 4.6332200020551673 3.8752648979425421 7.9771122783422497 4.9418346136808387 15.545141875743864
leaf_count=572 26 549 31 24 19 78 39 152
internal_value=0.000647331 -0.105675 -0.0446407 0.109766 -0.0865216 0.113077 -0.117492 0.113077
internal_weight=175.587 88.9326 14.425 86.6543 8.44751 82.0211 74.5077 23.5223
internal_count=1490 664 76 826 50 802 588 230
is_linear=0
shrinkage=0.1


Tree=14
num_leaves=10
num_cat=0
split_feature=0 0 4 11 8 6 0 0 1
split_gain=180.485 5.12984 3.33077 2.1408 0.170313 0.0643209 1.42109e-14 1.42109e-14 3.55271e-15
threshold=0.36896559810028179 -0.59363852766155745 0.97869810788732081 0.87442364331197853 -0.87400037103415096 1.1382588516262837 -0.86585329607577821 1.1613978509515095 0.7944681480635728
decision_type=2 2 2 2 2 2 2 2 2
left_child=1 6 3 5 -3 -2 -1 -4 -8
right_child=2 4 7 -5 -6 -7 8 -9 -10
leaf_value=0.11167853509988071 -0.10230763156523692 0.043882359861800536 -0.11555301147860145 -0.0022107712572781487 0.014444246193173192 -0.081714319935959401 0.11167853509988063 -0.11555301147860145 0.11167853509988071
leaf_weight=56.837869763374329 3.4899183809757215 3.500773161649704 28.887073338031769 4.4236250668764114 4.4807172417640677 2.6825008243322372 4.4945926666259792 39.603245705366135 13.764690041542051
leaf_count=607 22 20 248 18 20 20 48 340 147
internal_value=0.000646234 0.103578 -0.107481 -0.0553059 0.0273561 -0.0933579 0.111679 -0.115553 0.111679
internal_weight=162.165 83.0786 79.0864 10.596 7.98149 6.17242 75.0972 68.4903 18.2593
internal_count=1490 842 648 60 40 42 802 588 195
is_linear=0
shrinkage=0.1


Tree=15
num_leaves=7
num_cat=0
split_feature=0 4 8 0 9 0
split_gain=160.121 6.30078 3.09041 1.78931 0.114287 1.42109e-14
threshold=-0.32051169630885118 0.97869810788732081 1.0477937987594224 -0.59363852766155745 0.91005660771722863 1.1763133700739348
decision_type=2 2 2 2 2 2
left_child=3 2 4 -1 -2 -3
right_child=1 5 -4 -5 -6 -7
leaf_value=0.11044449295979684 -0.015775286417909162 -0.1138557640437087 -0.10326985572744074 0.045045997575179533 0.0069851367757486687 -0.1138557640437087
leaf_weight=68.671011224389076 4.204533636569975 33.989707544445992 4.8330883905291548 4.4550212025642386 4.6416893005371094 28.85918565094471
leaf_count=802 20 318 36 24 20 270
internal_value=0.000643416 -0.100469 -0.0389652 0.10646 -0.0038327 -0.113856
internal_weight=149.654 76.5282 13.6793 73.126 8.84622 62.8489
internal_count=1490 664 76 826 40 588
is_linear=0
shrinkage=0.1


Tree=16
num_leaves=10
num_cat=0
split_feature=0 0 4 9 8 8 2 0 3
split_gain=142.019 5.07561 3.41714 2.69537 0.130189 0.12655 2.84217e-14 1.42109e-14 4.44089e-16
threshold=0.36896559810028179 -0.59363852766155745 0.97869810788732081 0.9031359892804024 1.1588675504414785 -0.87400037103415096 -1.0069402447469922 1.191737568412319 1.0077952052442678
decision_type=2 2 2 2 2 2 2 2 2
left_child=1 6 3 4 -2 -3 8 -4 -1
right_child=2 5 7 -5 -6 -7 -8 -9 -10
leaf_value=0.10935237084178871 -0.1034962433998567 0.038340977791652575 -0.1123646958300407 0.014764174059839331 -0.073227599514422453 0.012592557414714886 0.10935237084178873 -0.1123646958300407 0.10935237084178867
leaf_weight=1.5642109513282769 3.5912556722760183 3.3603411167860031 41.425142906606197 3.9869013875722885 2.3513684794306755 4.4188767522573462 59.596437245607376 16.158743686974049 1.5642109513282774
leaf_count=20 24 20 423 16 20 20 762 165 20
internal_value=0.000639025 0.0999034 -0.103022 -0.0488446 -0.0915196 0.0237149 0.109352 -0.112365 0.109352
internal_weight=138.017 70.5041 67.5134 9.92953 5.94262 7.77922 62.7249 57.5839 3.12842
internal_count=1490 842 648 60 44 40 802 588 40
is_linear=0
shrinkage=0.1


Tree=17
num_leaves=7
num_cat=0
split_feature=0 4 8 0 9 0
split_gain=126.308 6.18533 2.59096 1.89191 0.0499884 1.42109e-14
threshold=-0.32051169630885118 0.97869810788732081 1.0477937987594224 -0.59363852766155745 0.91005660771722863 1.2038101092120683
decision_type=2 2 2 2 2 2
left_child=3 2 4 -1 -2 -3
right_child=1 5 -4 -5 -6 -7
leaf_value=0.10838360642285937 -0.010782156499424727 -0.11105055132401076 -0.097805374764177 0.039580517113628047 0.0043875045143012192 -0.11105055132401076
leaf_weight=57.237125173211098 4.1034340113401395 46.058067113161087 4.2729162126779547 4.2965476959943762 4.6158251315355301 6.6309279501438132
leaf_count=802 20 514 36 24 20 74
internal_value=0.000633398 -0.0958121 -0.0340132 0.103579 -0.0027516 -0.111051
internal_weight=127.215 65.6812 12.9922 61.5337 8.71926 52.689
internal_count=1490 664 76 826 40 588
is_linear=0
shrinkage=0.1


Tree=18
num_leaves=10
num_cat=0
split_feature=0 4 8 0 6 0 0 1 1
split_gain=112.123 6.1914 2.31914 1.96996 0.0491136 7.10543e-15 7.10543e-15 7.10543e-15 7.10543e-15
threshold=-0.32051169630885118 0.97869810788732081 1.0477937987594224 -0.59363852766155745 -0.90427537345976339 -0.88629893970984519 1.1954232354680605 -1.0533893022926704 -1.0891377597182712
decision_type=2 2 2 2 2 2 2 2 2
left_child=3 2 4 5 -2 -1 7 8 -3
right_child=1 6 -4 -5 -6 -7 -8 -9 -10
leaf_value=0.1075224617879085 -0.0094240146957428675 -0.10988906592495301 -0.094501319786455179 0.036404213009429941 0.0056394119004249763 0.1075224617879085 -0.10988906592495298 -0.10988906592495272 -0.10988906592495298
leaf_weight=34.290387891232967 4.6947347521781913 31.364992178976529 3.9945722892880431 4.2090363055467597 4.0160758942365637 17.893466167151928 11.055545546114443 2.86625254899264 2.8662525489926329
leaf_count=527 20 383 36 24 20 275 135 35 35
internal_value=0.000627566 -0.0935052 -0.0314109 0.102214 -0.0024791 0.107522 -0.109889 -0.109889 -0.109889
internal_weight=117.251 60.8584 12.7054 56.3929 8.71081 52.1839 48.153 37.0975 34.2312
internal_count=1490 664 76 826 40 802 588 453 418
is_linear=0
shrinkage=0.1


Tree=19
num_leaves=9
num_cat=0
split_feature=0 0 4 9 10 8 0 0
split_gain=99.5634 4.95858 3.51693 2.08583 0.163828 0.0854941 7.10543e-15 7.10543e-15
threshold=0.36896559810028179 -0.59363852766155745 0.97869810788732081 0.9031359892804024 1.1510900322486017 -0.87400037103415096 -0.9413478913676 1.205425332987325
decision_type=2 2 2 2 2 2 2 2
left_child=1 6 3 4 -2 -3 -1 -4
right_child=2 5 7 -5 -6 -7 -8 -9
leaf_value=0.10675559291680346 -0.09683763003098475 0.031705378446046942 -0.10885994712353422 0.01370678796825359 -0.059803308070308508 0.010122641160833994 0.10675559291680346 -0.10885994712353422
leaf_weight=12.744445651769636 3.1743198037147504 3.1948074847459793 39.176553785800934 3.9844929873943329 1.9151391461491583 4.3132864236831656 34.795300453901291 4.7849225997924796
leaf_count=215 24 20 524 16 20 20 587 64
internal_value=0.000621128 0.0948282 -0.0971606 -0.0404797 -0.0829018 0.0193064 0.106756 -0.10886
internal_weight=108.083 55.0478 53.0354 9.07395 5.08946 7.50809 47.5397 43.9615
internal_count=1490 842 648 60 44 40 802 588
is_linear=0
shrinkage=0.1


Tree=20
num_leaves=17
num_cat=0
split_feature=0 4 0 8 6 0 0 0 0 0 0 4 4 4 4 4
split_gain=88.5892 6.08098 2.05609 1.94471 0.065704 1.42109e-14 7.10543e-15 3.55271e-15 3.55271e-15 3.55271e-15 3.55271e-15 3.55271e-15 3.55271e-15 3.55271e-15 7.10543e-15 3.55271e-15
threshold=-0.32051169630885118 0.97869810788732081 -0.59363852766155745 1.0477937987594224 -0.90427537345976339 -0.90839709250672629 1.1773048755716233 1.1583317449175807 -0.76945842225875216 -0.79767371707137658 -0.82335548928662561 -0.89185204848503774 -0.89910924826870586 -0.90329838468325641 -0.9059861716128158 -0.90986844676841461
decision_type=2 2 2 2 2 2 2 2 2 2 2 2 2 2 2 2
left_child=2 3 5 4 -2 11 7 -3 9 10 -7 12 13 14 15 -1
right_child=1 6 -4 -5 -6 8 -8 -9 -10 -11 -12 -13 -14 -15 -16 -17
leaf_value=0.10607156099177691 -0.0095371743858409883 -0.10794609118126053 0.031803819011812243 -0.089510115646789054 0.008001686075412134 0.10607156099177693 -0.10794609118126056 -0.10794609118126056 0.10607156099177698 0.10607156099177664 0.10607156099177698 0.10607156099177668 0.10607156099177698 0.10607156099177698 0.10607156099177668 0.10607156099177698
leaf_weight=14.624189537018546 4.6844066232442847 15.888976767659189 4.0790466219186774 3.5486010089516631 3.9261301159858695 15.487610321491962 18.071153834462166 6.1373730003833762 1.6189139708876599 1.0792759805917764 2.1585519611835471 1.2411673776805425 1.5109863728284825 1.5649501718580712 1.2951311767101312 2.6981899514794341
leaf_count=271 20 233 24 36 20 287 265 90 30 20 40 23 28 29 24 50
internal_value=0.000613685 -0.0891612 0.0996747 -0.0272138 -0.00154001 0.106072 -0.107946 -0.107946 0.106072 0.106072 0.106072 0.106072 0.106072 0.106072 0.106072 0.106072
internal_weight=99.6147 52.2566 47.358 12.1591 8.61054 43.279 40.0975 22.0263 20.3444 18.7254 17.6462 22.9346 21.6934 20.1825 18.6175 17.3224
internal_count=1490 664 826 76 40 802 588 323 377 347 327 425 402 374 345 321
is_linear=0
shrinkage=0.1


Tree=21
num_leaves=8
num_cat=0
split_feature=0 4 8 0 10 0 0
split_gain=78.6464 6.69254 1.80128 1.46131 0.426164 7.10543e-15 7.10543e-15
threshold=-0.53012423405740972 0.97869810788732081 1.0477937987594224 -0.59363852766155745 -0.89871540739853406 -0.76120334651361821 1.2006672888180263
decision_type=2 2 2 2 2 2 2
left_child=3 2 4 5 -2 -1 -3
right_child=1 6 -4 -5 -6 -7 -8
leaf_value=0.10546052477829722 -0.022942076123835919 -0.10713301847247508 -0.086335624698779034 0.03506733029222002 0.019596722079758364 0.10546052477829722 -0.10713301847247508
leaf_weight=38.39379695057869 4.5094165652990332 30.017459314316511 3.322954647243022 3.1877856254577628 4.9296131730079642 0.98193854093551536 6.5255346335470668
leaf_count=782 21 483 36 19 24 20 105
internal_value=0.000605987 -0.0853606 -0.0230168 0.100188 -0.000725829 0.105461 -0.107133
internal_weight=91.8685 49.305 12.762 42.5635 9.43903 39.3757 36.543
internal_count=1490 669 81 821 45 802 588
is_linear=0
shrinkage=0.1


Tree=22
num_leaves=8
num_cat=0
split_feature=0 4 0 8 8 1 0
split_gain=69.8175 6.02715 2.15929 1.53027 0.0421511 1.42109e-14 7.10543e-15
threshold=-0.32051169630885118 0.97869810788732081 -0.59363852766155745 1.0477937987594224 -0.90431601209306967 -1.0467047760601711 -0.76654535520232314
decision_type=2 2 2 2 2 2 2
left_child=2 3 6 4 -2 -3 -1
right_child=1 5 -4 -5 -6 -7 -8
leaf_value=0.10491397496037885 0.005098526591300283 -0.10640835164806234 0.027033668358544333 -0.083186536105848474 -0.0089077380511469219 -0.10640835164806212 0.10491397496037885
leaf_weight=34.68866154178977 4.6138755083084098 31.581226810812947 3.953097701072692 3.1147576346993437 4.0213508307933798 1.6979154199361826 1.116108801215886
leaf_count=777 20 558 24 36 20 30 25
internal_value=0.000598037 -0.0846692 0.0971704 -0.0230982 -0.00142407 -0.106408 0.104914
internal_weight=84.787 45.0291 39.7579 11.75 8.63523 33.2791 35.8048
internal_count=1490 664 826 76 40 588 802
is_linear=0
shrinkage=0.1


Tree=23
num_leaves=15
num_cat=0
split_feature=0 4 10 2 8 6 9 10 8 0 0 0 0 2
split_gain=62.0158 6.53323 1.68049 2.31254 1.55441 1.43203 3.00298 0.272861 0.889399 0.11409 0.00296694 7.10543e-15 3.55271e-15 1.77636e-15
threshold=-0.53012423405740972 0.97869810788732081 1.1653323397998825 -0.86239244643162394 -0.95136465811308213 -0.89013664540957671 -0.96854969080550035 -0.99319799432515832 -0.95136465811308213 -0.59363852766155745 -0.86044879863649826 -0.76120334651361821 -0.90314992121494375 -0.76050105697897996
decision_type=2 2 2 2 2 2 2 2 2 2 2 2 2 2
left_child=2 4 7 -4 -2 -6 -7 8 10 11 -1 12 -9 -14
right_child=1 -3 3 -5 5 6 -8 9 -10 -11 -12 -13 13 -15
leaf_value=0.10442454752680784 0.063327690539090695 -0.10576147598486985 0.10442454752680788 -0.1144017130175865 -0.081311906093857356 -0.080053087335177062 0.057366287549701314 0.10442454752680792 -0.013760488858476947 0.12832521331428312 0.11186393487711406 0.10442454752680796 0.10442454752680796 0.10442454752680791
leaf_weight=1.4201442152261738 1.914819300174712 30.286981165409088 1.0955398231744764 0.86365652084350486 4.0395773351192465 2.9230449944734564 3.487531915307045 15.865039661526684 0.82806162536144157 2.1482885181903866 0.86116291582584392 0.81151098012924094 8.9266207814216596 2.7997128814458856
leaf_count=35 9 588 27 14 18 36 18 391 18 13 14 20 220 69
internal_value=0.000589477 -0.0807544 0.0979926 0.00796115 -0.0195016 -0.0346787 -0.00529313 0.103233 0.0750109 0.106105 0.107233 0.104425 0.104425 0.104425
internal_weight=78.2717 42.652 35.6197 1.9592 12.365 10.4502 6.41058 33.6605 3.10937 30.5512 2.28131 28.4029 27.5914 11.7263
internal_count=1490 669 821 41 81 72 54 780 67 713 49 700 680 289
is_linear=0
shrinkage=0.1


Tree=24
num_leaves=21
num_cat=0
split_feature=0 4 0 10 10 8 9 10 11 8 0 0 0 0 0 0 2 2 2 0
split_gain=54.9644 6.45341 1.75904 1.75293 2.29181 1.24136 0.583375 1.68774e-05 4.43211e-06 1.01629e-05 8.34826e-09 7.10543e-15 3.55271e-15 3.55271e-15 3.55271e-15 3.55271e-15 3.55271e-15 3.55271e-15 3.55271e-15 8.88178e-16
threshold=-0.53012423405740972 0.97869810788732081 -0.59363852766155745 -0.97978303227890307 -0.96287435733267268 -0.86821981243679847 -0.96854969080550035 1.1689180675965607 0.99343208454860277 -0.95436127186707431 -0.92304388401883075 -0.76654535520232314 -0.85391040968990384 -0.86732704324110543 1.1253124812509838 1.1944889571941315 -0.82698177733860267 -0.86239244643162394 -0.87848063745751237 -0.82335548928662561
decision_type=2 2 2 2 2 2 2 2 2 2 2 2 2 2 2 2 2 2 2 2
left_child=2 3 7 -2 -5 -6 -7 8 11 10 -10 12 13 16 -3 -16 17 18 -1 -14
right_child=1 14 -4 4 5 6 -8 -9 9 -11 -12 -13 19 -15 15 -17 -18 -19 -20 -21
leaf_value=0.10398582174829317 0.092291317781966128 -0.10518325119392369 0.022612338165107822 -0.1603419872595882 0.030248387785705873 -0.076928694018364344 -0.014024376482266629 0.10434621033812211 0.10398582174829314 0.10441631759159567 0.10397110534991637 0.10398582174829284 0.10398582174829325 0.10398582174829328 -0.10518325119392374 -0.10518325119392376 0.10398582174829328 0.10398582174829328 0.10398582174829288 0.10398582174829313
leaf_weight=16.329544555395859 1.2924747318029393 5.7156904041767147 2.914870396256446 1.2149761468172062 3.766232326626775 2.7468250617384888 3.1823888421058686 1.4618884809315194 0.81094803661108028 0.80885268002748389 0.73470138013362896 0.81094803661108272 2.3222602866590023 1.3270058780908573 15.273074358701708 6.5589889883995047 1.3270058780908573 0.77408676221966644 0.88467058539390819 2.1379539147019413
leaf_count=443 6 122 19 6 17 36 16 37 22 20 20 22 63 36 326 140 36 21 24 58
internal_value=0.000596072 -0.0783662 0.0967464 -0.0178274 -0.0308723 -0.0146479 -0.043166 0.104015 0.103998 0.104129 0.103979 0.103986 0.103986 0.103986 -0.105183 -0.105183 0.103986 0.103986 0.103986 0.103986
internal_weight=72.3954 39.7507 32.6447 12.2029 10.9104 9.69545 5.92921 29.7299 28.268 2.3545 1.54565 25.9135 25.1025 20.6423 27.5478 21.8321 19.3153 17.9883 17.2142 4.46021
internal_count=1490 669 821 81 75 69 52 802 765 62 42 703 681 560 588 466 524 488 467 121
is_linear=0
shrinkage=0.1


Tree=25
num_leaves=14
num_cat=0
split_feature=0 0 4 9 11 9 10 11 8 4 0 4 1
split_gain=48.7483 4.73085 3.61485 1.4634 1.38381 0.137017 1.23736e-05 3.24343e-06 7.43392e-06 6.1165e-09 3.55271e-15 3.55271e-15 1.77636e-15
threshold=0.36896559810028179 -0.59363852766155745 0.97869810788732081 0.9031359892804024 -1.0482926333138074 0.87266723196744667 1.1689180675965607 0.99343208454860277 -0.95436127186707431 -0.90353923145726445 1.1632840758363283 -0.9122535248546414 -1.0467047760601711
decision_type=2 2 2 2 2 2 2 2 2 2 2 2 2
left_child=1 6 3 4 -2 -3 7 11 9 -9 12 -1 -4
right_child=2 5 10 -5 -6 -7 -8 8 -10 -11 -12 -13 -14
leaf_value=0.10359217182185723 -0.01719583831645485 -0.0012472584141104666 -0.10466574650632086 0.015729067861876365 -0.13618399451423724 0.026938048853952623 0.10391593216364081 0.10359218029246489 0.10397849363423327 0.10357896156042184 -0.10466574650632086 0.1035921718218573 -0.10466574650632057
leaf_weight=7.698960490524775 2.1935790479183201 3.879045069217681 9.7106252610683423 3.9686902612447739 1.7628787159919728 3.1056351065635681 1.3279692269861687 0.73642368242144596 0.73480473831295867 0.6671724133193494 14.054852351546286 15.833079617470505 1.277713850140574
leaf_count=230 33 19 228 16 11 21 37 22 20 20 330 473 30
internal_value=0.000594665 0.0846406 -0.0860382 -0.0271758 -0.0702134 0.0112849 0.103618 0.103603 0.103721 0.103586 -0.104666 0.103592 -0.104666
internal_weight=66.9514 33.9831 32.9683 7.92515 3.95646 6.98468 26.9984 25.6704 2.1384 1.4036 25.0432 23.532 10.9883
internal_count=1490 842 648 60 44 40 802 765 62 42 588 703 258
is_linear=0
shrinkage=0.1


Tree=26
num_leaves=16
num_cat=0
split_feature=0 4 10 4 8 6 6 11 7 10 8 0 0 1 0
split_gain=43.2486 6.18295 1.89533 2.66467 0.971036 2.73022 1.88412 0.878094 2.38555 0.342584 0.995282 0.0789069 0.00236102 7.10543e-15 3.55271e-15
threshold=-0.53012423405740972 0.97869810788732081 1.1653323397998825 -0.88489860519596197 -0.95136465811308213 -0.92091974552150369 -0.90629152569133853 0.81015859736427365 -1.031271524886139 -0.99319799432515832 -0.95136465811308213 -0.59363852766155745 -0.85558253590331412 0.8515151158332942 1.2120371884379739
decision_type=2 2 2 2 2 2 2 2 2 2 2 2 2 2 2
left_child=2 4 9 -4 -2 -6 -7 8 -8 10 12 13 -1 -11 -3
right_child=1 14 3 -5 5 6 7 -9 -10 11 -12 -13 -14 -15 -16
leaf_value=0.10323790579645194 0.051276813422943185 -0.10420208965723438 0.10345859687366299 -0.15169286585778419 -0.15638590912317424 0.10221596444929104 -0.066704768065181899 -0.068983291385940615 0.08224249034018738 0.10323868654789987 -0.033984040149893556 0.1242564588025874 0.1107663865554033 0.10323868654790014 -0.10420208965723439
leaf_weight=1.0936727579683065 1.8568486273288716 21.633395485579971 0.92863624170422554 0.73189545050263294 1.4109055846929539 1.3490165024995775 2.3291498199105236 2.9100573658943176 1.9974229782819781 4.1933665685355761 0.71137700602412834 1.9500025063753081 0.67284735292196285 17.07733341678977 1.1223049536347378
leaf_count=36 9 559 29 12 6 6 35 14 11 138 18 13 13 562 29
internal_value=0.000580988 -0.0736965 0.0945415 -0.00900189 -0.0151331 -0.0274687 -0.00628336 -0.0265093 0.00205882 0.101232 0.0658873 0.105004 0.106105 0.103239 -0.104202
internal_weight=61.9682 34.6091 27.3591 1.66053 11.8534 9.99655 8.58565 7.23663 4.32657 25.6986 2.4779 23.2207 1.76652 21.2707 22.7557
internal_count=1490 669 821 41 81 72 66 60 46 780 67 713 49 700 588
is_linear=0
shrinkage=0.1


Tree=27
num_leaves=12
num_cat=0
split_feature=0 4 9 7 10 10 11 9 0 0 0
split_gain=38.4594 7.65876 1.51138 1.45856 0.52141 3.38497e-05 1.20351e-05 2.76043e-05 1.55875e-08 3.55271e-15 3.55271e-15
threshold=-0.59363852766155745 0.97869810788732081 -0.96854969080550035 -1.1400128010688422 -0.91703040782660938 1.1653323397998825 0.99343208454860277 0.95180421552064109 -0.91388694360323652 -0.78153512031425698 1.1596456326076845
decision_type=2 2 2 2 2 2 2 2 2 2 2
left_child=5 2 3 -2 -4 6 9 -8 -9 -1 -3
right_child=1 10 4 -5 -6 -7 7 8 -10 -11 -12
leaf_value=0.10292100538046922 -0.016178269150186639 -0.10378627124683192 -0.016580172189617239 -0.14984205710370049 0.027828659142177466 0.10348348900671929 0.10373030672146127 0.10292101431922673 0.10289820488954289 0.10292100537362654 -0.10378627124683196
leaf_weight=18.475637642666705 2.1866540610790257 8.3658203333616274 4.4976700842380515 1.3027792833745486 6.414557904005048 1.2317188568413246 0.62242555059492488 0.66181651316583145 0.54742169380187977 0.85484293475747364 12.302676960825918
leaf_count=670 25 238 25 17 33 39 18 24 20 31 350
internal_value=0.000595603 -0.0647775 -0.00879419 -0.0660816 0.00952476 0.102974 0.102944 0.103189 0.102911 0.102921 -0.103786
internal_weight=57.464 35.0702 14.4017 3.48943 10.9122 22.3939 21.1621 1.83166 1.20924 19.3305 20.6685
internal_count=1490 688 100 42 58 802 763 62 44 701 588
is_linear=0
shrinkage=0.1


Tree=28
num_leaves=14
num_cat=0
split_feature=0 4 8 10 9 7 10 11 9 0 0 1 1
split_gain=34.1975 7.38348 1.33166 3.56026 1.81357 1.3688 2.49046e-05 8.83279e-06 2.02452e-05 1.14451e-08 3.55271e-15 3.55271e-15 3.55271e-15
threshold=-0.59363852766155745 0.97869810788732081 -0.95136465811308213 -0.9614637810977581 -0.96854969080550035 -1.1400128010688422 1.1653323397998825 0.99343208454860277 0.95180421552064109 -0.91388694360323652 -0.76945842225875216 -1.0594231936402663 -1.1197429610047493
decision_type=2 2 2 2 2 2 2 2 2 2 2 2 2
left_child=6 2 -2 -4 5 -5 7 10 -9 -10 -1 12 -3
right_child=1 11 3 4 -6 -7 -8 8 9 -11 -12 -13 -14
leaf_value=0.10263532890027549 0.061720539627436427 -0.10341301653198849 -0.16904229321665454 -0.014630439644230206 0.027070608354413446 -0.14788029355022522 0.10314173068481752 0.10336280173727386 0.1026353369756514 0.10261481685355758 0.10263532889213951 -0.10341301653198823 -0.10341301653198852
leaf_weight=16.861678212881095 2.297479309141635 15.255101867020132 1.4372963607311238 2.1767422519624215 7.1936060339212418 1.1936650909483435 1.1180099789053191 0.56509427540004153 0.60041823983192433 0.49662587977945793 0.67546782083809631 1.2765775620937372 2.2340107336640349
leaf_count=674 13 478 8 25 37 17 39 18 24 20 27 40 70
internal_value=0.000577528 -0.0621637 -0.00802817 -0.0213806 -0.00129032 -0.0618223 0.102683 0.102656 0.102877 0.102626 0.102635 -0.103413 -0.103413
internal_weight=53.3818 33.0645 14.2988 12.0013 10.564 3.37041 20.3173 19.1993 1.66214 1.09704 17.5371 18.7657 17.4891
internal_count=1490 688 100 87 79 42 802 763 62 44 701 588 548
is_linear=0
shrinkage=0.1


Tree=29
num_leaves=13
num_cat=0
split_feature=0 4 1 8 10 7 10 11 9 0 0 9
split_gain=30.4358 5.05072 2.26912 0.913946 0.637622 0.346946 1.83364e-05 6.48882e-06 1.48633e-05 8.40897e-09 3.55271e-15 3.55271e-15
threshold=-0.32051169630885118 0.97869810788732081 0.59363852755082325 -0.86821981243679847 -0.52715686215093849 -1.1331808760512529 1.1653323397998825 0.99343208454860277 0.95180421552064109 -0.91388694360323652 1.0515063164099883 0.87266723196744667
decision_type=2 2 2 2 2 2 2 2 2 2 2 2
left_child=2 3 -1 -2 -5 -6 7 11 -9 -10 -3 -4
right_child=1 10 6 4 5 -7 -8 8 9 -11 -12 -13
leaf_value=0.015622782337378719 0.012237213208685482 -0.10307770025721948 0.10237826611612302 -0.089432923062643208 -0.047067109176622046 0.02307430453974417 0.10283441139426928 0.10303262231965281 0.10237827335849402 0.10235980441761512 -0.10307770025721988 0.10237826613424623
leaf_weight=3.6002689450979259 5.6724549233913422 0.9269289374351527 7.8282421454787317 2.0401436388492584 1.60634495690465 1.2570631168782727 1.0144864171743382 0.51287353411316761 0.54457554593682289 0.45042816177010536 16.105390287935734 8.0778382886201126
leaf_count=24 26 32 345 10 27 13 39 18 24 20 556 356
internal_value=0.000572455 -0.0693738 0.0882352 -0.0150947 -0.0467123 -0.0162744 0.102421 0.102397 0.102595 0.10237 -0.103078 0.102378
internal_weight=49.637 27.6083 22.0287 10.576 4.90355 2.86341 18.4284 17.414 1.50788 0.995004 17.0323 15.9061
internal_count=1490 664 826 76 50 40 802 763 62 44 588 701
is_linear=0
shrinkage=0.1


Tree=30
num_leaves=16
num_cat=0
split_feature=0 4 9 7 0 10 11 9 0 0 4 0 0 0 0
split_gain=27.033 6.80162 1.06933 1.31331 0.486103 1.35089e-05 4.77086e-06 1.0921e-05 6.18214e-09 3.55271e-15 3.55271e-15 1.77636e-15 4.44089e-16 2.22045e-16 2.22045e-16
threshold=-0.59363852766155745 0.97869810788732081 -0.96854969080550035 -1.1400128010688422 0.36896559810028179 1.1653323397998825 0.99343208454860277 0.95180421552064109 -0.91388694360323652 1.2136039542008306 1.1694146607770424 -0.83146720466531576 1.2032608967524931 -0.76120334651361821 -0.80797598144761296
decision_type=2 2 2 2 2 2 2 2 2 2 2 2 2 2 2
left_child=5 2 3 -2 -4 6 11 -8 -9 10 -3 -1 -12 14 -13
right_child=1 9 4 -5 -6 -7 7 8 -10 -11 12 13 -14 -15 -16
leaf_value=0.10214682854134467 -0.011392003229005871 -0.10277626236361809 0.030173775063796149 -0.14652753625211984 -0.012180347443758819 0.10255789064058814 0.10273574616217628 0.10214684293010808 0.10213021301350272 -0.10277626236361775 -0.10277626236361795 0.10214682852901236 -0.10277626236361795 0.10214682852901247 0.10214682852901232
leaf_weight=12.509851410984991 2.1112816482782368 11.669632002711291 5.2574051395058632 1.0906798876822001 5.5921037495136261 0.92029418051242906 0.46533982828259535 0.49381190352141857 0.40843382477760315 0.63079091906547624 2.2340511716902269 0.84359195269644249 0.91990342363715161 0.41150826960801978 0.65841323137283314
leaf_count=608 25 444 32 17 26 39 18 24 20 24 85 41 35 20 32
internal_value=0.000561668 -0.0569951 -0.00664303 -0.057423 0.00834342 0.102185 0.102164 0.102342 0.102139 -0.102776 -0.102776 0.102147 -0.102776 0.102147 0.102147
internal_weight=46.2171 29.5058 14.0515 3.20196 10.8495 16.7112 15.791 1.36759 0.902246 15.4544 14.8236 14.4234 3.15395 1.91351 1.50201
internal_count=1490 688 100 42 58 802 763 62 44 588 564 701 120 93 73
is_linear=0
shrinkage=0.1


Tree=31
num_leaves=15
num_cat=0
split_feature=0 4 8 10 11 7 10 11 9 0 0 0 0 6
split_gain=24.0533 6.48161 1.00646 2.97319 1.35404 0.481274 9.95747e-06 3.50992e-06 8.03121e-06 4.55225e-09 1.77636e-15 1.77636e-15 1.77636e-15 1.77636e-15
threshold=-0.59363852766155745 0.97869810788732081 -0.95136465811308213 -0.9614637810977581 -1.1300081642372251 0.89218976678119422 1.1653323397998825 0.99343208454860277 0.95180421552064109 -0.91388694360323652 -0.78153512031425698 -0.95654324576806782 1.2136039542008306 1.1368258844494687
decision_type=2 2 2 2 2 2 2 2 2 2 2 2 2 2
left_child=6 2 -2 -4 -5 -6 7 10 -9 -10 11 -1 -3 -13
right_child=1 12 3 4 5 -7 -8 8 9 -11 -12 13 -14 -15
leaf_value=0.10193837122057184 0.055775161242411123 -0.10250509929364589 -0.15071699250058423 -0.066408827653167801 0.043494992905494696 -0.0060509679784617647 0.10230894742795374 0.1024686724180411 0.10193837804047448 0.10192339052965499 0.10193837122057106 0.10193837123458177 -0.10250509929364555 0.1019383712205707
leaf_weight=0.46633845195173762 2.2104105949401847 13.446610361337658 1.471095636487006 2.286865118890999 4.3106583580374753 3.5960819572210312 0.83463964052498418 0.42209842614829607 0.44768670201301575 0.37027793750166893 0.57825968042015929 11.49057946912944 0.57219618558883745 0.5409526042640217
leaf_count=25 13 564 8 31 30 18 39 18 24 20 31 616 24 29
internal_value=0.000543871 -0.0545484 -0.006095 -0.0178191 0.00136009 0.0209609 0.101973 0.101954 0.102114 0.101932 0.101938 0.101938 -0.102505 0.101938
internal_weight=43.0448 27.8939 13.8751 11.6647 10.1936 7.90674 15.1508 14.3162 1.24006 0.817965 13.0761 12.4979 14.0188 12.0315
internal_count=1490 688 100 87 79 48 802 763 62 44 701 670 588 645
is_linear=0
shrinkage=0.1


Tree=32
num_leaves=17
num_cat=0
split_feature=0 4 8 10 8 6 8 10 10 11 9 0 1 0 1 0
split_gain=21.3615 6.20111 0.829822 2.32419 1.27228 1.45494 1.88737 1.00282 7.34327e-06 2.58387e-06 5.91015e-06 3.34729e-09 3.55271e-15 1.77636e-15 1.77636e-15 1.11022e-16
threshold=-0.59363852766155745 0.97869810788732081 -0.95136465811308213 -0.9614637810977581 -0.91059388256667517 -0.89013664540957671 -0.86821981243679847 1.1442589598510222 1.1653323397998825 0.99343208454860277 0.95180421552064109 -0.91388694360323652 -1.0396742882001371 -0.79154247936033706 -1.1555001186247713 -0.76120334651361821
decision_type=2 2 2 2 2 2 2 2 2 2 2 2 2 2 2 2
left_child=8 2 -2 -4 -5 -6 -7 -8 9 13 -11 -12 14 -1 -3 -15
right_child=1 12 3 4 5 6 7 -9 -10 10 11 -13 -14 15 -16 -17
leaf_value=0.10175052134710608 0.051456342074832177 -0.10226103018931024 -0.13163835395657431 0.073328611369793392 -0.1007550138703371 0.13997677137926617 0.013671743414596935 -0.075300580205380427 0.10208471821854369 0.102228257619882 0.10175051511591914 0.10173701620247283 -0.10226103018931024 0.10175052134915108 -0.10226103018931024 0.10175052134915136
leaf_weight=11.159275857731695 2.1591126024723044 7.9567315876483908 1.5133958756923664 1.9709004834294308 1.6287637054920168 0.89285258948802582 3.7391622476279816 1.9159217625856397 0.75678753107786256 0.38278290629386968 0.40579350665211678 0.33562386408448219 0.54053883068263431 0.35506786778569221 4.2162028793245545 0.33815987408161063
leaf_count=660 13 368 8 10 8 5 29 27 39 18 24 20 25 21 195 20
internal_value=0.00054273 -0.0518576 -0.00549013 -0.0160342 0.00120686 -0.0161773 0.00486099 -0.0164718 0.101782 0.101764 0.101909 0.101744 -0.102261 0.101751 -0.102261 0.101751
internal_weight=40.2671 26.5336 13.8201 11.661 10.1476 8.1767 6.54794 5.65508 13.7335 12.9767 1.1242 0.741417 12.7135 11.8525 12.1729 0.693228
internal_count=1490 688 100 87 79 69 61 56 802 763 62 44 588 701 563 41
is_linear=0
shrinkage=0.1


Tree=33
num_leaves=19
num_cat=0
split_feature=0 4 11 0 11 8 8 7 9 0 0 8 6 0 2 1 10 1
split_gain=19.0867 4.19174 2.11866 2.87491 0.90638 3.05922 0.622602 1.25246 0.633636 0.0952957 0.00468739 2.14365e-06 2.45038e-08 3.00038e-09 1.7518e-11 3.55271e-15 2.10942e-15 1.77636e-15
threshold=-0.32051169630885118 0.97869810788732081 -1.1663123314882762 -0.82559995269475095 0.97780068285245003 -0.9306016576558197 -0.86821981243679847 0.80967006612933667 -1.0862513929367028 -0.59363852766155745 -0.59363852766155745 -0.95136465811308213 1.1465736692369 -0.85558253590331412 -0.91899452882566413 -1.0343344799318905 -0.99319799432515832 0.95181462719953125
decision_type=2 2 2 2 2 2 2 2 2 2 2 2 2 2 2 2 2 2
left_child=2 6 3 -1 9 10 -2 8 -8 12 11 13 17 14 16 -3 -6 -4
right_child=1 15 4 -5 5 -7 7 -9 -10 -11 -12 -13 -14 -15 -16 -17 -18 -19
leaf_value=0.10182316174980927 0.0091613848893190662 -0.10204125338913546 0.10158115580757349 -0.21693671419581417 0.10158116662577346 -0.1210129180232888 -0.044531924709483459 -0.11052253289296901 0.048448060119746922 0.1250258405705918 0.11261012306793475 0.10181872238008526 0.10160970100139051 0.10156953544465824 0.10158025250368108 -0.10204125338913546 0.10158115580757313 0.10158115580757328
leaf_weight=0.5994997899979353 5.453803576529026 11.135062098503111 8.1825854592025227 0.53583548031747585 0.35243493225425515 0.81764625199139018 1.5931567437946794 1.6512033790349958 1.3573894649744054 2.1118138059973708 0.49644571542739879 0.51841732487082492 0.31068617105484087 0.30426472891122092 0.30629281233996153 0.39207965135574241 0.33711026236414909 1.1952091120183475
leaf_count=35 26 568 534 5 23 20 33 8 9 14 5 30 20 20 20 20 22 78
internal_value=0.000553913 -0.0608802 0.0830715 -0.0486195 0.0930839 0.0452676 -0.0136953 -0.0407842 -0.00175678 0.105778 0.103998 0.101647 0.101582 0.101578 0.101581 -0.102041 0.101581 0.101581
internal_weight=37.6509 21.5827 16.0682 1.13534 14.9329 3.13261 10.0556 4.60175 2.95055 11.8003 2.31497 1.81852 9.68848 1.3001 0.995838 11.5271 0.689545 9.37779
internal_count=1490 664 826 40 786 140 76 50 42 646 120 115 632 85 65 588 45 612
is_linear=0
shrinkage=0.1


Tree=34
num_leaves=18
num_cat=0
split_feature=0 4 9 9 7 10 10 8 11 0 0 6 5 0 0 0 7
split_gain=17.0609 5.50668 0.625454 0.428256 0.276496 8.18746e-06 2.43668e-06 4.65463e-06 1.62181e-06 2.20194e-09 1.33165e-11 4.08562e-14 3.55271e-15 1.77636e-15 1.77636e-15 1.77636e-15 4.44089e-16
threshold=-0.59363852766155745 0.97869810788732081 -0.96854969080550035 0.91028135770603313 -1.150105033694945 1.1653323397998825 -0.97811009787650127 -0.95136465811308213 0.99269926782877949 -0.85558253590331412 -0.91068754555664688 1.1457219814889175 0.90986453592441829 1.2120371884379739 1.1985348114868148 -0.76654535520232314 -1.1097380028613808
decision_type=2 2 2 2 2 2 2 2 2 2 2 2 2 2 2 2 2
left_child=5 2 4 -4 -2 6 7 9 -9 10 12 15 -1 14 -3 -8 -16
right_child=1 13 3 -5 -6 -7 11 8 -10 -11 -12 -13 -14 -15 16 -17 -18
leaf_value=0.10142844884096443 -0.016772448803753334 -0.10184322847086219 0.02704439283474043 -0.013317124860144879 -0.078496483215764912 0.10181813977685808 0.10142843392501232 0.10161280376560988 0.10190365050237593 0.10141794955112422 0.10142760503187365 0.10142839505046136 0.10142843329424943 -0.10184322847086179 -0.10184322847086205 0.10142843392501162 -0.10184322847086179
leaf_weight=0.27769936900585879 1.5284087508916857 8.405754383653397 5.1140350922942162 5.4097505584359169 1.3819169737398631 0.64339064434170801 8.219809606671328 0.43215316534042081 0.34460305795073509 0.27570066601037968 0.27753915078938007 0.27768896240741092 0.33323567174375057 0.5153633765876301 1.0129556022584436 0.27769627049565393 0.5153633765876301
leaf_count=20 21 473 28 30 21 39 592 28 19 20 20 20 24 29 57 20 29
internal_value=0.000585009 -0.0473988 -0.00505036 0.00629656 -0.046081 0.101472 0.101451 0.101552 0.101742 0.101426 0.101428 0.101428 0.101428 -0.101843 -0.101843 0.101428 -0.101843
internal_weight=35.2431 23.8835 13.4341 10.5238 2.91033 11.3595 10.7161 1.94093 0.776756 1.16417 0.888474 8.77519 0.610935 10.4494 9.93407 8.49751 1.52832
internal_count=1490 688 100 58 42 802 763 131 47 84 64 632 44 588 559 612 86
is_linear=0
shrinkage=0.1


Tree=35
num_leaves=20
num_cat=0
split_feature=0 4 8 10 8 6 9 7 10 10 8 11 0 0 6 5 0 0 0
split_gain=15.1513 5.23201 0.634657 1.7862 0.99763 1.27855 1.26672 0.236049 6.05226e-06 1.79769e-06 3.43285e-06 1.1951e-06 1.62271e-09 9.78384e-12 3.37508e-14 4.44089e-15 1.77636e-15 1.77636e-15 8.88178e-16
threshold=-0.59363852766155745 0.97869810788732081 -0.95136465811308213 -0.9614637810977581 -0.91059388256667517 -0.89013664540957671 -0.96854969080550035 -1.150105033694945 1.1653323397998825 -0.97811009787650127 -0.95136465811308213 0.99269926782877949 -0.85558253590331412 -0.91068754555664688 1.1457219814889175 0.90986453592441829 1.2106495744153312 1.2060400222250496 -0.78534699905645067
decision_type=2 2 2 2 2 2 2 2 2 2 2 2 2 2 2 2 2 2 2
left_child=8 2 -2 -4 -5 -6 7 -7 9 10 12 -12 13 15 18 -1 17 -3 -11
right_child=1 16 3 4 5 6 -8 -9 -10 14 11 -13 -14 -15 -16 -17 -18 -19 -20
leaf_value=0.10129066913549344 0.04626166930654018 -0.10166475681512861 -0.11356542203208105 0.066642655973692858 -0.092988695191002391 -0.015195658271506525 0.048212836007830787 -0.072727503066033303 0.10164258796854105 0.10129065095573753 0.10145702572447401 0.10171928643682387 0.1012811980455136 0.10128990701638546 0.10129061465828926 0.10129065100733725 -0.10166475681512828 -0.10166475681512802 0.10129065095573656
leaf_weight=0.25159717816859473 2.0760645270347586 8.5204938445240206 1.5513773709535588 1.9158186316490153 1.620043918490407 1.5188342258334135 3.3760075047612279 1.3444251492619512 0.58311822824180204 7.3213962279260123 0.39159818459301909 0.31234610639512539 0.24978397414088238 0.25145182851701975 0.25158773735165585 0.30191337876021862 0.62816495262086469 0.32213587313890535 0.37739155814051883
leaf_count=20 13 529 8 10 8 21 19 21 39 582 28 19 20 20 20 24 39 20 30
internal_value=0.000568575 -0.0447703 -0.00456633 -0.0138827 0.00193757 -0.0138352 0.00671722 -0.0422094 0.10133 0.101311 0.101402 0.101573 0.101288 0.10129 0.101291 0.101291 -0.101665 -0.101665 0.101291
internal_weight=33.1656 22.8734 13.4026 11.3265 9.77513 7.85931 6.23927 2.86326 10.2922 9.70907 1.75869 0.703944 1.05475 0.804962 7.95038 0.553511 9.47079 8.84263 7.69879
internal_count=1490 688 100 87 79 69 61 42 802 763 131 47 84 64 632 44 588 549 612
is_linear=0
shrinkage=0.1


Tree=36
num_leaves=19
num_cat=0
split_feature=1 4 11 4 11 8 8 7 9 0 0 8 10 0 2 7 1 10
split_gain=13.4753 3.57898 1.98218 2.43086 0.975101 2.45425 0.500762 1.1315 0.537645 0.0766936 0.00312958 8.56863e-07 9.87102e-09 1.20422e-09 7.04525e-12 6.21725e-15 1.77636e-15 6.66134e-16
threshold=0.32051169609471375 0.97869810788732081 -1.1663123314882762 -0.85826708214138325 0.97780068285245003 -0.9306016576558197 -0.86821981243679847 0.80967006612933667 -1.0615305017901882 -0.59363852766155745 -0.59363852766155745 -0.95136465811308213 1.1510900322486017 -0.85558253590331412 -0.91899452882566413 -1.1380988757436978 -1.0396742882001371 -0.99531263658085045
decision_type=2 2 2 2 2 2 2 2 2 2 2 2 2 2 2 2 2 2
left_child=1 6 3 -2 9 10 -1 8 -8 12 11 13 15 14 17 -4 -3 -6
right_child=2 16 4 -5 5 -7 7 -9 -10 -11 -12 -13 -14 -15 -16 -17 -18 -19
leaf_value=0.0075130779839373916 0.10146994325559865 -0.10150382589197382 0.10116630722959584 -0.21002525542483369 0.10116633200620678 -0.10209731683754145 -0.040133696915521835 -0.10409972168694429 0.04762395810577582 0.12334893043285622 0.11090259036735561 0.10134046533369345 0.10118733050797997 0.10115778769066702 0.1011656603194199 0.10116632328748315 -0.10150382589197382 0.10116632545150045
leaf_weight=5.3600507155060768 0.49587587080895901 8.217525630258022 0.22791341599076886 0.5063477493822599 0.250710379332304 0.85691632982343335 1.5039366185665128 1.6324385255575178 1.3029095381498392 1.9889488667249633 0.44251926988363277 0.38567756488919258 0.231078466400504 0.22627558279782534 0.22778974566608667 6.7463593184947968 0.36489900667220254 0.26210524886846542
leaf_count=26 37 563 20 3 22 20 35 8 7 14 5 30 20 20 20 592 25 23
internal_value=0.000563927 -0.0543541 0.0791325 -0.055905 0.090557 0.0371366 -0.0130595 -0.0378992 0.000602517 0.105965 0.103603 0.101214 0.101167 0.101164 0.101166 0.101166 -0.101504 0.101166
internal_weight=31.2303 18.3818 12.8485 1.00222 11.8463 2.65199 9.79934 4.43928 2.80685 9.1943 1.79508 1.35256 7.20535 0.966881 0.740605 6.97427 8.58242 0.512816
internal_count=1490 664 826 40 786 140 76 50 42 646 120 115 632 85 65 612 588 45
is_linear=0
shrinkage=0.1


Tree=37
num_leaves=27
num_cat=0
split_feature=1 4 8 10 8 6 6 11 10 10 8 8 0 0 7 10 0 0 0 0 0 1 3 0 3 3
split_gain=12.0917 4.60819 0.468214 1.39805 0.75782 1.06942 1.027 0.348788 3.83495e-06 3.04051e-06 8.52425e-06 6.30751e-07 8.83438e-10 5.38247e-12 3.19744e-14 4.44089e-15 8.88178e-16 8.88178e-16 8.88178e-16 8.88178e-16 5.55112e-16 4.44089e-16 2.22045e-16 1.11022e-16 1.11022e-16 1.11022e-16
threshold=0.59363852755082325 0.97869810788732081 -0.95136465811308213 -0.9614637810977581 -0.91059388256667517 -0.89013664540957671 -0.82205377620054543 -1.1430486412232368 1.1653323397998825 -0.97811009787650127 -0.9306016576558197 -0.95136465811308213 -0.85558253590331412 -0.91068754555664688 -1.145383770029216 1.1425050225555669 1.1939664421113614 -0.76945842225875216 -0.84762782188651542 -0.87370011631429734 -0.93947693140625843 -1.2014430014597592 -1.2211086526479276 -0.86209695567219324 -1.2457870670559914 -1.2067911242069498
decision_type=2 2 2 2 2 2 2 2 2 2 2 2 2 2 2 2 2 2 2 2 2 2 2 2 2 2
left_child=1 2 -1 -4 -5 -6 -7 -8 9 10 11 12 13 20 -11 17 -3 18 19 -16 -2 22 24 -21 -18 -23
right_child=8 16 3 4 5 6 7 -9 -10 14 -12 -13 -14 -15 15 -17 21 -19 -20 23 -22 25 -24 -25 -26 -27
leaf_value=0.040510449293721038 0.10105410901095846 -0.10135867569295567 -0.099375366413638158 0.059562392563115754 -0.084277278737940359 0.071033756312052637 -0.054007527785519663 0.0044025409237235715 0.10137330044038045 0.10105407021379963 0.10171141743217448 0.10121132699001811 0.10104640456136971 0.10105349625902237 0.10105411050043181 0.10105409644349482 -0.10135867569295537 0.10105411050043378 0.10105411050043173 0.10105411050043148 0.10105411601687871 -0.10135867569295541 -0.10135867569295537 0.10105411050043152 -0.10135867569295552 -0.10135867569295537
leaf_weight=1.9908305853605259 0.2477350765839218 5.7925154808908692 1.5765301287174214 1.8593227639794321 1.6014433801174135 1.7957260608673067 1.714212864637372 2.532850619405524 0.4844632279127844 0.20643872581422407 0.2783792447298773 0.34939810354262579 0.20495682489126921 0.20632841996848583 4.4489043839275837 0.20644313097000111 0.30417318735271681 0.22709024697541647 0.82578271627426136 0.29934623464941978 0.20644786767661572 0.40997255686670542 0.30417318735271681 0.30966851860284794 0.66124605946242809 0.30417318735271681
leaf_count=13 24 438 8 10 8 11 27 23 39 20 17 30 20 20 431 20 23 22 80 29 20 31 23 30 50 23
internal_value=0.000585687 -0.0404036 -0.00413977 -0.0121624 0.00230526 -0.0116215 0.00763352 -0.0191731 0.1011 0.101084 0.101212 0.101098 0.101052 0.101054 0.101054 0.101054 -0.101359 0.101054 0.101054 0.101054 0.101054 -0.101359 -0.101359 0.101054 -0.101359 -0.101359
internal_weight=29.3486 20.8472 13.0709 11.0801 9.50356 7.64423 6.04279 4.24706 8.50138 8.01692 1.49325 1.21487 0.865468 0.660511 6.52367 6.31724 7.77625 6.11079 5.8837 5.05792 0.454183 1.98374 1.26959 0.609015 0.965419 0.714146
internal_count=1490 688 100 87 79 69 61 50 802 763 131 114 84 64 632 612 588 592 570 490 44 150 96 59 73 54
is_linear=0
shrinkage=0.1


Tree=38
num_leaves=18
num_cat=0
split_feature=1 4 8 10 8 7 10 10 8 8 0 0 6 5 10 7 7
split_gain=10.7526 4.33747 0.385411 0.736297 1.74173 0.240478 2.83739e-06 2.24542e-06 6.28971e-06 4.65875e-07 6.523e-10 3.90421e-12 1.5099e-14 3.71925e-15 2.66454e-15 8.88178e-16 2.22045e-16
threshold=0.59363852755082325 0.97869810788732081 -0.95136465811308213 -0.78738469715418524 1.0174263776068087 -1.150105033694945 1.1653323397998825 -0.97811009787650127 -0.9306016576558197 -0.95136465811308213 -0.85558253590331412 -0.91068754555664688 1.1457219814889175 0.90986453592441829 1.1425050225555669 0.91171068117537724 0.92663312964457101
decision_type=2 2 2 2 2 2 2 2 2 2 2 2 2 2 2 2 2
left_child=1 2 -1 -4 -5 -6 7 8 9 10 11 13 14 -2 15 -9 -17
right_child=6 -3 3 4 5 -7 -8 12 -10 -11 -12 -13 -14 -15 -16 16 -18
leaf_value=0.037187835003455703 0.10095280246697763 -0.101227709577736 -0.033564453686104764 0.087597462377933491 -0.0064376102778755349 -0.066409502392947475 0.10124121778512758 0.10095278179849364 0.10154596408711949 0.1010947601840736 0.10094583433682468 0.10095224088968786 0.10095275265124762 0.10095278346653661 0.10095276967830072 0.10095278179849346 0.10095278179849346
leaf_weight=1.9538459554314602 0.18697982374578703 7.0448856130242339 6.2514870613813391 2.0693643242120805 1.4301857687532891 1.2556414213031541 0.43890326004475344 3.9639277011156047 0.25227747112512844 0.316494452767074 0.18562796618789434 0.18687140569090843 0.18697141855955113 0.22437336202710867 0.18697540834546078 0.7292131148278711 0.84139974787831306
leaf_count=13 20 588 32 13 21 21 39 424 17 30 20 20 20 24 20 78 90
internal_value=0.000578559 -0.0380711 -0.00374143 -0.011007 0.0186486 -0.0344749 0.100994 0.100979 0.101096 0.100992 0.100951 0.100953 0.100953 0.100953 0.100953 0.100953 0.100953
internal_weight=27.7054 20.0054 12.9605 11.0067 4.75519 2.68583 7.70002 7.26111 1.35262 1.10035 0.783853 0.598225 5.90849 0.411353 5.72152 5.53454 1.57061
internal_count=1490 688 100 87 55 42 802 763 131 114 84 64 632 44 612 592 168
is_linear=0
shrinkage=0.1


Tree=39
num_leaves=20
num_cat=0
split_feature=1 4 11 10 11 10 9 6 0 4 10 9 9 8 8 6 0 1 0
split_gain=9.5724 3.23825 1.95498 0.722494 2.09856 0.401997 1.1147 0.350789 0.054863 0.000893299 9.27458e-07 2.081e-06 7.6256e-07 3.97862e-09 3.38751e-12 2.66454e-15 8.88178e-16 8.88178e-16 1.11022e-16
threshold=0.53012423392262964 0.97869810788732081 -1.1663123314882762 -0.99319799432515832 0.99549396859789441 -0.78738469715418524 -0.96854969080550035 1.0999258521511452 -0.59363852766155745 -0.86739564515906464 -0.97811009787650127 0.93564881706899594 0.95829212487888038 1.1484015895096393 -0.95809060476752972 1.1342372186683287 1.2060400222250496 0.94696246015980601 1.2136039542008306
decision_type=2 2 2 2 2 2 2 2 2 2 2 2 2 2 2 2 2 2 2
left_child=1 5 7 4 -4 -1 -7 -2 10 12 11 -5 -6 15 -13 17 -3 -12 -18
right_child=2 16 3 8 9 6 -8 -9 -10 -11 13 14 -14 -15 -16 -17 18 -19 -20
leaf_value=-0.024017425713293683 -0.16541617021530972 -0.10110950622364907 -0.21683508682288843 0.10124409615720978 0.10111140857127383 -0.043770195446229183 0.072735230623355962 -0.023306143376665214 0.12145431918774514 0.10833187803068917 0.10086129535032451 0.10086131136213075 0.10085885620476154 0.10087676757730689 0.10086073382458621 0.10086128356242291 -0.10110950622364885 0.10086129542159183 -0.1011095062236487
leaf_weight=7.0207344144582748 0.23907226324081676 5.7412231974303713 0.28120151814073391 0.21336889918893565 0.19057533517479897 1.5413509197533133 1.7577669098973325 0.6352206664159894 1.6523539572954105 0.24156022071838379 3.9707895722240218 0.253999013453722 0.32081952225416899 0.17168793268501747 0.16922051552683115 0.17779377009719599 0.37985408678650845 1.0413798810914157 0.26047137379646301
leaf_count=35 1 529 6 18 18 36 10 39 13 5 469 30 38 20 20 21 35 123 24
internal_value=0.000562112 -0.0451141 0.0803668 0.0947156 0.0162656 -0.0104879 0.0183038 -0.0621656 0.10532 0.10332 0.100875 0.100989 0.100953 0.100862 0.100861 0.100861 -0.10111 0.100861 -0.10111
internal_weight=26.2604 16.7014 9.55904 8.68475 1.03416 10.3199 3.29912 0.874293 7.65059 0.752955 5.99824 0.636588 0.511395 5.36165 0.42322 5.18996 6.38155 5.01217 0.640325
internal_count=1490 669 821 781 67 81 46 40 714 61 701 68 56 633 50 613 588 592 59
is_linear=0
shrinkage=0.1


Tree=40
num_leaves=19
num_cat=0
split_feature=1 4 8 6 6 10 8 8 10 10 8 8 6 0 6 4 8 0
split_gain=8.62238 3.77569 0.328117 0.64088 1.02707 0.976821 1.20358 0.109512 4.33111e-06 2.12773e-06 5.46552e-06 3.08259e-07 1.4647e-08 1.02285e-10 1.33227e-14 2.83107e-15 1.77636e-15 8.88178e-16
threshold=0.59363852755082325 0.97869810788732081 -0.95136465811308213 -0.91033450165968433 -0.90277158051929995 -0.78738469715418524 1.0174263776068087 1.1744995313644668 1.1653323397998825 -0.97811009787650127 -0.9306016576558197 -0.95136465811308213 -0.94111791937593259 -0.87525226672488843 1.1457219814889175 -0.9086218584194693 1.1174304477738157 1.2038101092120683
decision_type=2 2 2 2 2 2 2 2 2 2 2 2 2 2 2 2 2 2
left_child=1 2 -1 -4 -5 -6 -7 -8 9 10 11 12 13 15 16 -2 -11 -3
right_child=8 17 3 4 5 6 7 -9 -10 14 -12 -13 -14 -15 -16 -17 -18 -19
leaf_value=0.034679453069622598 0.10077866521414972 -0.10100282276317762 -0.059399401570363101 0.079697341961347035 -0.061317010579655065 0.07167572576684246 -0.049120545866916318 -0.0071064026987356383 0.1011452052107874 0.10077866210355693 0.10138116265118442 0.10091482656847522 0.10081212779042126 0.10077554335465509 0.10077863108112661 0.10077868377734756 0.10077865434353012 -0.1010028227631775
leaf_weight=1.9088866636157025 0.17633611196652055 5.0526314266026011 2.1333576366305342 1.4157209098339061 2.6841824203729603 2.0479624457657435 1.4660541135817768 1.0755440667271612 0.40547487605363119 4.439061122015115 0.21777637489140278 0.26316525181755424 0.16590953664854169 0.15272428095340729 0.15332909580320109 0.15333941066637635 0.25300053227692831 0.72742164507508267
leaf_count=13 23 514 11 6 15 13 26 16 39 579 17 30 21 20 20 20 33 74
internal_value=0.000576629 -0.0339755 -0.0035459 -0.0102879 0.00176947 -0.013398 0.0146272 -0.0313412 0.100829 0.100807 0.100931 0.100824 0.100786 0.100778 0.100779 0.100779 0.100779 -0.101003
internal_weight=24.8919 18.5118 12.7317 10.8228 8.68946 7.27374 4.58956 2.5416 6.38012 5.97464 1.12925 0.911475 0.648309 0.4824 4.84539 0.329676 4.69206 5.78005
internal_count=1490 688 100 87 76 70 55 42 802 763 131 114 84 63 632 43 612 588
is_linear=0
shrinkage=0.1


Tree=41
num_leaves=21
num_cat=0
split_feature=1 4 10 10 8 7 10 10 8 8 6 0 6 4 0 0 8 8 8 8
split_gain=7.66754 3.53895 0.297503 1.97118 0.979452 0.149158 3.20369e-06 1.57331e-06 4.03894e-06 2.27912e-07 1.08362e-08 7.55699e-11 8.88178e-15 2.72005e-15 8.88178e-16 8.88178e-16 8.88178e-16 8.88178e-16 1.11022e-16 1.11022e-16
threshold=0.59363852755082325 0.97869810788732081 -0.87239549750792267 -0.78738469715418524 1.0174263776068087 -1.1649792896784499 1.1653323397998825 -0.97811009787650127 -0.9306016576558197 -0.95136465811308213 -0.94111791937593259 -0.87525226672488843 1.1457219814889175 -0.9086218584194693 1.2106495744153312 -0.76945842225875216 1.1322158812905767 -0.53038510356143331 1.1043880916087729 0.94829265604875645
decision_type=2 2 2 2 2 2 2 2 2 2 2 2 2 2 2 2 2 2 2 2
left_child=1 2 -1 -4 -5 -6 7 8 9 10 11 13 15 -2 -3 16 17 -9 19 -19
right_child=6 14 3 4 5 -7 -8 12 -10 -11 -12 -13 -14 -15 -16 -17 -18 18 -20 -21
leaf_value=0.011373856452751843 0.10070401638926599 -0.10090647380111724 -0.11971657886626037 0.064692458604393044 0.0016934458965904284 -0.048148756894232751 0.10103525574452386 0.10070401282750348 0.10124821562168412 0.10082705395468175 0.1007342649450518 0.10070119753032708 0.10070398699014796 0.10070403553272463 -0.10090647380111697 0.10070401341079532 0.10070400619971198 0.10070401282750296 0.10070401020422766 0.10070401319505531
leaf_weight=6.6626776158809662 0.15966776804998517 4.8875453146174541 1.4760213568806646 2.0424280762672478 0.99032136797904957 1.5249848309904339 0.3672677744179963 3.1586387124843918 0.19729779288172966 0.23831851361319423 0.15023129153996706 0.13828747859224677 0.13883550977334369 0.13884485373273492 0.34720267262309779 0.15966745140030436 0.1388395926915108 0.1457833251915871 0.13884025812149048 0.50677060661837459
leaf_count=37 23 549 8 13 14 28 39 455 17 30 21 20 20 20 39 23 20 21 20 73
internal_value=0.000560798 -0.0317192 -0.00319328 -0.0192788 0.0132479 -0.028525 0.100749 0.10073 0.100842 0.100745 0.100711 0.100703 0.100704 0.100704 -0.100906 0.100704 0.100704 0.100704 0.100704 0.100704
internal_weight=23.7085 17.9312 12.6964 6.03376 4.55773 2.51531 5.77729 5.41002 1.02265 0.82535 0.587031 0.4368 4.38738 0.298513 5.23475 4.24854 4.08887 3.95003 0.791394 0.652554
internal_count=1490 688 100 63 55 42 802 763 131 114 84 63 632 43 588 612 589 569 114 94
is_linear=0
shrinkage=0.1


Tree=42
num_leaves=20
num_cat=0
split_feature=1 4 0 9 10 8 10 10 8 8 6 0 6 0 1 0 7 7 8
split_gain=6.82648 3.30419 0.27171 0.409036 2.24394 0.768713 2.3702e-06 1.16355e-06 2.98543e-06 1.68538e-07 8.01702e-09 5.58442e-11 6.21725e-15 1.77636e-15 1.27676e-15 4.44089e-16 4.44089e-16 2.22045e-16 1.66533e-16
threshold=0.59363852755082325 0.97869810788732081 -0.32051169630885118 0.86845380722718379 -0.78738469715418524 1.0477937987594224 1.1653323397998825 -0.97811009787650127 -0.9306016576558197 -0.95136465811308213 -0.94111791937593259 -0.87525226672488843 1.1457219814889175 1.0567147083004265 0.93176268866934353 -0.76654535520232314 0.86268699321760811 -1.1021064633095381 1.128565218322193
decision_type=2 2 2 2 2 2 2 2 2 2 2 2 2 2 2 2 2 2 2
left_child=1 2 -1 4 -4 -6 7 8 9 10 11 14 15 -3 -2 16 17 18 -9
right_child=6 13 3 -5 5 -7 -8 12 -10 -11 -12 -13 -14 -15 -16 -17 -18 -19 -20
leaf_value=0.022064521145172621 0.10063658701068899 -0.10081947271785895 -0.1437283664262666 0.0069675149704187221 0.067166829529269542 -0.037174566205652307 0.10093595207228662 0.10063656695116346 0.10112819599431105 0.10074776322546336 0.10066391510636097 0.10063402508903004 0.10063654438386585 -0.10081947271785892 0.10063657344979693 0.10063656798515297 0.10063656724429122 0.10063656729469431 0.10063656283305755
leaf_weight=3.2398213483393201 0.12571172835305333 0.3063572533428659 1.3015784323215474 5.2590918242931366 1.4114520996809052 1.4128484949469564 0.33262794464826573 0.13827902916818846 0.17872351687401788 0.21580059360712767 0.13602506089955568 0.12520695850253105 0.12570346752181638 4.434118140488863 0.14456547750160098 0.12570868246256717 2.0050534852780402 1.4456495875492725 0.13199247093871236
leaf_count=24 20 38 7 26 7 36 39 22 17 30 21 20 20 550 23 20 319 230 21
internal_value=0.000533371 -0.0296337 -0.00290421 -0.0115238 -0.0350939 0.0149703 0.100678 0.10066 0.100761 0.100673 0.100643 0.100636 0.100637 -0.100819 0.100637 0.100637 0.100637 0.100637 0.100637
internal_weight=22.5963 17.3653 12.6248 9.38497 4.12588 2.8243 5.23105 4.89842 0.926033 0.74731 0.531509 0.395484 3.97239 4.74048 0.270277 3.84668 3.72097 1.71592 0.270272
internal_count=1490 688 100 76 50 43 802 763 131 114 84 63 632 588 43 612 592 273 43
is_linear=0
shrinkage=0.1


Tree=43
num_leaves=18
num_cat=0
split_feature=1 4 0 6 8 10 6 10 10 8 8 6 0 6 8 0 4
split_gain=6.08991 3.06941 0.240267 0.925399 4.2345 2.37674 0.207789 1.75361e-06 8.60571e-07 2.20716e-06 1.24651e-07 5.93239e-09 4.13392e-11 6.21725e-15 1.77636e-15 8.88178e-16 8.88178e-16
threshold=0.59363852755082325 0.97869810788732081 0.36896559810028179 -0.91033450165968433 -0.8926789395113145 1.0485407922005925 -0.86071257418846725 1.1653323397998825 -0.97811009787650127 -0.9306016576558197 -0.95136465811308213 -0.94111791937593259 -0.87525226672488843 1.1457219814889175 1.1174304477738157 1.2106495744153312 -0.9086218584194693
decision_type=2 2 2 2 2 2 2 2 2 2 2 2 2 2 2 2 2
left_child=1 2 6 -4 -5 -6 -1 8 9 10 11 12 16 14 -10 -3 -2
right_child=7 15 3 4 5 -7 -8 -9 13 -11 -12 -13 -14 -15 -16 -17 -18
leaf_value=0.028832231838266272 0.10057563008685505 -0.10074087559161037 -0.064507837588815536 0.17086983467357833 -0.13297068986825061 0.051556107083166006 -0.0086135055859776124 0.10084623393364248 0.10057562762886932 0.10101982168218052 0.10067612502266426 0.10060034819789304 0.10057332570228848 0.10057560370071608 0.10057561927424959 -0.10074087559161005 0.10057564221042425
leaf_weight=3.2528547458350658 0.13088329788297415 4.0078266402706495 2.4503125250339508 1.2003414183855055 1.6129457093775275 1.2305353377014396 2.7219036594033295 0.30122834537178267 3.2948381407186362 0.1618803851306464 0.19539632508531213 0.12315438082441688 0.11335684033110738 0.1138066118583082 0.18778651161119331 0.28470899630337942 0.11381428735330701
leaf_count=24 23 549 11 5 11 33 16 39 579 17 30 21 20 20 33 39 20
internal_value=0.000485154 -0.0278071 -0.00269897 -0.0160137 0.0133708 -0.0531155 0.0117732 0.100613 0.100597 0.100688 0.100609 0.100581 0.100575 0.100576 0.100576 -0.100741 0.100576
internal_weight=21.4976 16.7614 12.4689 6.49413 4.04382 2.84348 5.97476 4.73615 4.43492 0.838486 0.676605 0.481209 0.358054 3.59643 3.48262 4.29254 0.244698
internal_count=1490 688 100 60 49 44 40 802 763 131 114 84 63 632 612 588 43
is_linear=0
shrinkage=0.1


Tree=44
num_leaves=25
num_cat=0
split_feature=1 4 6 10 8 10 8 10 10 10 8 8 6 0 6 7 1 0 1 2 2 10 3 2
split_gain=5.43319 2.84842 0.210083 0.681283 0.686619 1.13003 0.787224 0.0979205 1.29763e-06 6.36581e-07 1.63214e-06 9.22127e-08 4.39039e-09 3.05743e-11 6.66134e-15 1.33227e-15 8.60423e-16 4.44089e-16 8.88178e-16 4.44089e-16 4.44089e-16 4.16334e-16 2.22045e-16 1.11022e-16
threshold=0.59363852755082325 0.97869810788732081 -0.90629152569133853 -0.89871540739853406 -0.86579522395538211 -0.7597112228678814 1.0174263776068087 1.1653323397998825 1.1653323397998825 -0.97811009787650127 -0.9306016576558197 -0.95136465811308213 -0.94111791937593259 -0.87525226672488843 1.1457219814889175 -1.096161235961022 0.93176268866934353 1.1891127161025647 -1.0825853765694018 1.2130969832841243 1.1202906917192321 1.1100108321146511 -1.1902600407011164 1.0162913226218591
decision_type=2 2 2 2 2 2 2 2 2 2 2 2 2 2 2 2 2 2 2 2 2 2 2 2
left_child=1 2 -1 -4 -5 -6 -7 -8 9 10 11 12 13 16 15 21 -2 18 19 20 23 -11 -19 -3
right_child=8 17 3 4 5 6 7 -9 -10 14 -12 -13 -14 -15 -16 -17 -18 22 -20 -21 -22 -23 -24 -25
leaf_value=0.014229204509267885 0.10052056205590983 -0.10066987461416838 -0.086810902388621977 0.059292872445399991 -0.10347073233502249 0.066573809827033134 -0.0084433065266087005 -0.04837674548566738 0.10076517728426736 0.1005205513596712 0.1009219502335445 0.10061139229563006 0.10054289917770974 0.10051846752387245 0.10052052714248534 0.10052055339730422 0.10052054971250556 -0.10066987461417054 -0.10066987461417072 -0.10066987461417023 -0.10066987461417057 0.10052054320699109 -0.10066987461417015 -0.10066987461417046
leaf_weight=4.6685426272451878 0.10303681390359998 0.13880881760269614 1.0671169161796568 1.4802055694162843 1.1886339932680123 1.4425058886408866 1.3726659864187243 1.1110669504851101 0.27277077874168743 0.14424772281199993 0.14661025861278432 0.17690987698733807 0.11149512603878975 0.10262263845652342 0.10303003760054696 2.9055673824623169 0.11848986335098743 1.0377611601725218 0.42964634019881343 0.2247380856424569 1.3153787953779099 0.10303285159170628 0.1850784234702586 0.55523527041077614
leaf_count=27 20 21 6 10 7 8 22 20 39 28 17 30 21 20 20 564 23 157 65 34 199 20 28 84
internal_value=0.000446305 -0.0260218 -0.00249275 -0.0126814 -0.000686833 -0.0180445 0.00781752 -0.026307 0.100554 0.10054 0.100622 0.100551 0.100526 0.10052 0.100521 0.100521 0.100521 -0.10067 -0.10067 -0.10067 -0.10067 0.100521 -0.10067 -0.10067
internal_weight=20.5052 16.2174 12.3307 7.6622 6.59508 5.11487 3.92624 2.48373 4.28781 4.01504 0.759165 0.612554 0.435644 0.324149 3.25588 3.15285 0.221527 3.88665 2.66381 2.23416 2.00942 0.247281 1.22284 0.694044
internal_count=1490 688 100 73 67 57 50 42 802 763 131 114 84 63 632 612 43 588 403 338 304 48 185 105
is_linear=0
shrinkage=0.1


Tree=45
num_leaves=19
num_cat=0
split_feature=1 5 0 6 8 11 9 10 10 8 8 6 0 6 2 8 4 0
split_gain=4.84451 2.64381 0.242465 0.759071 3.48795 2.14546 0.0804335 9.60402e-07 4.71021e-07 1.20712e-06 6.82133e-08 3.24928e-09 2.25037e-11 3.9968e-15 8.88178e-16 8.88178e-16 7.21645e-16 1.11022e-16
threshold=0.59363852755082325 -0.97869810788732337 0.36896559810028179 -0.91033450165968433 -0.8926789395113145 -1.0482926333138074 0.84642276297844343 1.1653323397998825 -0.97811009787650127 -0.9306016576558197 -0.95136465811308213 -0.94111791937593259 -0.87525226672488843 1.1449981612406881 1.0761355844337976 1.121954015627445 -0.9086218584194693 1.1156089266606612
decision_type=2 2 2 2 2 2 2 2 2 2 2 2 2 2 2 2 2 2
left_child=1 14 6 -4 -5 -6 -3 8 9 10 11 12 16 15 17 -10 -2 -1
right_child=7 2 3 4 5 -7 -8 -9 13 -11 -12 -13 -14 -15 -16 -17 -18 -19
leaf_value=-0.10060572479415378 0.1004707673368879 0.025721630806905395 -0.059397298493893018 0.15820387311247433 0.04678829546803797 -0.13044779718251467 0.0021511539940066425 0.10069193335179474 0.10047076775238591 0.10083353993426394 0.10055288685919916 0.10049097725297672 0.10046889034642917 0.10047074793168419 -0.10060572479415385 0.10047076173691259 0.10047077957850691 -0.1006057247941532
leaf_weight=0.50270172022283022 0.10726432967931032 2.5482765510678309 2.4535700678825378 1.14585717022419 1.258056173101068 1.494177252054214 3.3523974344134331 0.24698361754417408 2.7142482176423064 0.13276884006336498 0.16016307519748807 0.10093443654477596 0.092900296673178673 0.097932931035756954 2.8665967141278088 0.13524464750662435 0.093275566585361958 0.14961360720917583
leaf_count=84 23 15 11 5 33 11 25 39 582 17 30 21 20 21 479 29 20 25
internal_value=0.000424629 -0.0242068 -0.00226478 -0.0158236 0.0116029 -0.0494325 0.0123303 0.100501 0.100488 0.100563 0.100498 0.100476 0.10047 0.100471 -0.100606 0.100471 0.100471 -0.100606
internal_weight=19.653 15.7712 12.2523 6.35166 3.89809 2.75223 5.90067 3.88172 3.63473 0.687307 0.554538 0.394375 0.29344 2.94743 3.51891 2.84949 0.20054 0.652315
internal_count=1490 688 100 60 49 44 40 802 763 131 114 84 63 632 588 611 43 109
is_linear=0
shrinkage=0.1


Tree=46
num_leaves=22
num_cat=0
split_feature=1 6 5 6 6 6 6 6 10 10 8 8 6 0 6 6 0 4 9 9 0
split_gain=4.326 2.70331 1.80593 1.33756 0.677049 0.673887 0.444895 0.268355 7.10803e-07 3.48514e-07 8.92907e-07 5.04689e-08 2.40499e-09 1.67149e-11 5.32907e-15 1.44329e-15 4.44089e-16 4.44089e-16 4.44089e-16 4.44089e-16 2.77556e-17
threshold=0.59363852755082325 -0.94445187545742149 -0.97869810788732337 -0.92468456362526019 -0.90629152569133853 -0.89013664540957671 -0.82205377620054543 1.1432366006330623 1.1653323397998825 -0.97811009787650127 -0.9306016576558197 -0.95136465811308213 -0.94111791937593259 -0.87525226672488843 1.1024348627685048 1.1457219814889175 1.1872935919239247 -0.9086218584194693 -1.0668214805979013 0.9571634764836171 -0.90314992121494375
decision_type=2 2 2 2 2 2 2 2 2 2 2 2 2 2 2 2 2 2 2 2 2
left_child=1 -1 16 -4 -5 -6 -7 -8 9 10 11 12 13 17 18 20 -3 -2 -11 -20 -16
right_child=8 2 3 4 5 6 7 -9 -10 14 -12 -13 -14 -15 15 -17 -18 -19 19 -21 -22
leaf_value=0.13691964251310262 0.10042576919394211 -0.10054774903432061 -0.089932008644931227 0.057888792663298827 -0.068915923082881816 0.043237486490499771 -0.038375488261444171 0.014147476804451057 0.10062573154589756 0.10042576575035334 0.10075366415717607 0.10050000823612658 0.10044404234824485 0.10042406850852637 0.10042576047172579 0.10042574462592715 -0.10054774903432057 0.10042577932333985 0.10042577052427448 0.10042577054541323 0.100425760675662
leaf_weight=0.99368049530312319 0.097098059486597776 2.0642591700889166 1.9544963240623463 1.7120594084262837 1.6199036985635737 1.9327554106712321 2.2154972366988726 1.7342337667942045 0.22361956350505341 0.10131933540106031 0.12022460903972554 0.14499391941353679 0.091369761619716883 0.084095274098217487 0.1013185135088861 0.084429421927779913 1.0836006142199037 0.084435118827968836 2.2121425648219857 0.084432922303676494 0.08443247340619553
leaf_count=13 23 381 11 10 10 13 25 25 39 24 17 30 21 20 24 20 200 20 524 20 20
internal_value=0.00038831 -0.0225776 -0.0336478 -0.0147926 0.00114533 -0.0118036 0.00392381 -0.0153139 0.100453 0.100441 0.100509 0.10045 0.10043 0.100425 0.100426 0.100426 -0.100548 0.100426 0.100426 0.100426 0.100426
internal_weight=18.8244 15.3105 14.3168 11.1689 9.21445 7.50239 5.88249 3.94973 3.51391 3.29029 0.622217 0.501992 0.356998 0.265628 2.66808 0.27018 3.14786 0.181533 2.39789 2.29658 0.185751
internal_count=1490 688 675 94 83 73 63 50 802 763 131 114 84 63 632 64 581 43 568 544 44
is_linear=0
shrinkage=0.1


Tree=47
num_leaves=24
num_cat=0
split_feature=1 6 5 6 6 10 8 10 10 10 10 8 8 6 0 7 4 1 7 7 11 11 11
split_gain=3.86016 2.29541 1.72186 1.0711 0.558346 0.542776 0.569721 0.871228 0.677228 5.26162e-07 2.57931e-07 6.60614e-07 3.73468e-08 1.78061e-09 1.23603e-11 2.22045e-15 5.27356e-16 4.44089e-16 4.44089e-16 4.44089e-16 1.66533e-16 5.55112e-17 5.55112e-17
threshold=0.59363852755082325 -0.94445187545742149 -0.97869810788732337 -0.92468456362526019 -0.90629152569133853 -0.89871540739853406 -0.86579522395538211 -0.7597112228678814 1.1442589598510222 1.1653323397998825 -0.97811009787650127 -0.9306016576558197 -0.95136465811308213 -0.94111791937593259 -0.87525226672488843 -1.145383770029216 -0.9086218584194693 -1.0343344799318905 -1.0559707792348583 0.82800879371913283 -1.0946543675815215 -1.0026273346196832 0.78770829957938593
decision_type=2 2 2 2 2 2 2 2 2 2 2 2 2 2 2 2 2 2 2 2 2 2 2
left_child=1 -1 17 -4 -5 -6 -7 -8 -9 10 11 12 13 14 16 -12 -2 -3 20 21 -17 -20 -23
right_child=9 2 3 4 5 6 7 8 -10 -11 15 -13 -14 -15 -16 18 -18 -19 19 -21 -22 22 -24
leaf_value=0.12985095455744711 0.10038508583957428 -0.10049535467331955 -0.080230568051090911 0.053113352218771594 -0.076025731368162597 0.057017107973751015 -0.09332668890578566 0.041463788070922131 -0.04381193138930204 0.10056589843249067 0.1003850697065508 0.10068149744435324 0.10045221059911946 0.10040161316157759 0.1003835496240425 0.10038508204752128 0.1003850970191921 -0.10049535467331723 0.10038508574285324 0.1003850866199657 0.10038508542293033 0.10038508661996717 0.10038508661996487
leaf_weight=0.94551736721768875 0.087891751434653997 2.7516140132211131 1.9708029925823201 1.6810726188123215 1.0861135423183421 1.3918318226933459 1.1127981245517711 2.309336226433524 1.5606568399816749 0.20245361467823375 0.076424281811343753 0.10885773645714092 0.13125517312437296 0.082707940600812435 0.076121702790260315 0.14521092618815601 0.076429442036896944 0.098096756264568596 0.080248829210177064 1.5400132194627074 0.17960429168306502 0.28278158372267581 0.1108198098372668
leaf_count=13 23 561 11 10 6 10 7 23 27 39 20 17 30 21 20 38 20 20 21 403 47 74 29
internal_value=0.000401277 -0.0209371 -0.0311484 -0.0133651 0.00104987 -0.0106812 0.000452246 -0.0153479 0.00707454 0.10041 0.100399 0.10046 0.100407 0.100389 0.100385 0.100385 0.100385 -0.100495 0.100385 0.100385 0.100385 0.100385 0.100385
internal_weight=18.0887 14.9078 13.9623 11.1126 9.14181 7.46074 6.37462 4.98279 3.86999 3.18082 2.97837 0.563264 0.454406 0.323151 0.240443 2.4151 0.164321 2.84971 2.33868 2.01386 0.324815 0.47385 0.393601
internal_count=1490 688 675 94 83 73 67 57 50 802 763 131 114 84 63 632 43 581 612 527 85 124 103
is_linear=0
shrinkage=0.1


Tree=48
num_leaves=22
num_cat=0
split_feature=1 5 0 6 7 6 7 10 7 10 8 8 6 0 6 0 0 11 4 1 1
split_gain=3.44815 2.10774 0.247573 0.616104 0.853568 0.262555 0.0687799 3.89498e-07 1.98342e-07 1.9091e-07 4.88793e-07 2.76402e-08 1.31845e-09 9.16175e-12 1.33227e-15 4.44089e-16 4.44089e-16 4.44089e-16 1.94289e-16 5.55112e-17 5.55112e-17
threshold=0.59363852755082325 -0.97869810788732337 0.36896559810028179 -0.91033450165968433 0.88745466747722279 1.1357976722197112 0.86873964228766365 1.1653323397998825 0.94334006975288343 -0.97811009787650127 -0.9306016576558197 -0.95136465811308213 -0.94111791937593259 -0.87525226672488843 1.1457219814889175 1.2136039542008306 -0.84864193246237429 -1.1408990403964692 -0.9086218584194693 0.83001391897191545 0.7944681480635728
decision_type=2 2 2 2 2 2 2 2 2 2 2 2 2 2 2 2 2 2 2 2 2
left_child=1 8 6 -4 5 -5 -3 9 15 10 11 12 13 18 16 -1 17 -11 -2 20 -18
right_child=7 2 3 4 -6 -7 -8 -9 -10 14 -12 -13 -14 -15 -16 -17 19 -19 -20 -21 -22
leaf_value=-0.100447992972396 0.10034830733875662 0.0022085158496562632 -0.055347273632893101 -0.05438714331261077 0.069920922413081649 0.016260568591273217 0.023996391007343312 0.10051180823015904 -0.10060338791362247 0.10034829973181536 0.10061627510426796 0.10040900227903637 0.1003632539179074 0.100346915869532 0.10034829173860932 -0.10044799297239518 0.10034830451216377 0.10034830459874654 0.10034831465151346 0.10034830472919479 0.10034830464319205
leaf_weight=2.442036778666079 0.079555411590263247 2.8499323874712008 2.3760905265808105 1.4328449424356229 1.445074215531349 0.83121419139206398 2.9472112506628036 0.18328117160126556 0.084877537563443073 0.072636331431569778 0.098559156525881764 0.11881310003809631 0.074864387745037675 0.068901630584150553 0.06917560496367503 0.10212153801694501 0.12452126876450753 1.6706601411569861 0.069180279038846493 0.10722664813511074 0.14181583607569337
leaf_count=550 23 17 11 19 7 23 23 39 15 21 17 30 21 20 20 23 36 483 20 31 41
internal_value=0.000404069 -0.0194302 -0.00150349 -0.0155921 0.00987524 -0.0284499 0.0132853 0.100371 -0.100453 0.100361 0.100416 0.100368 0.100352 0.100348 0.100348 -0.100448 0.100348 0.100348 0.100348 0.100348 0.100348
internal_weight=17.3906 14.5114 11.8824 6.08522 3.70913 2.26406 5.79714 2.87919 2.62904 2.69591 0.509874 0.411315 0.292502 0.217637 2.18604 2.54416 2.11686 1.7433 0.148736 0.373564 0.266337
internal_count=1490 688 100 60 49 42 40 802 588 763 131 114 84 63 632 573 612 504 43 108 77
is_linear=0
shrinkage=0.1


Tree=49
num_leaves=29
num_cat=0
split_feature=1 6 7 10 3 8 9 10 11 7 8 1 4 3 4 0 10 10 8 8 6 0 6 0 7 0 0 0
split_gain=3.08244 2.01812 1.77348 1.77444 1.83055 2.0761 2.32107 0.778294 2.63673 0.749786 0.227043 0.211057 0.0277439 0.00433938 0.00037883 0.000119837 2.88348e-07 1.4131e-07 3.61702e-07 2.04591e-08 9.75687e-10 6.75643e-12 8.88178e-16 2.22045e-16 2.22045e-16 1.11022e-16 1.11022e-16 1.11022e-16
threshold=0.59363852755082325 -0.94445187545742149 -1.1737858108828989 1.1425050225555669 -0.26676424775270113 -0.93812670035210843 0.9031359892804024 1.0485407922005925 -1.0555799919121913 0.9094091297013378 -0.96096281895822233 -1.0000000180025095e-35 0.97869810788732081 -0.26676424775270113 1.1056930896226695 1.0004552157323652 1.1653323397998825 -0.97811009787650127 -0.9306016576558197 -0.95136465811308213 -0.94111791937593259 -0.87525226672488843 1.1426806025082048 1.2106495744153312 -1.1202601288164495 -0.93242063933249741 1.1763133700739348 1.1939664421113614
decision_type=2 2 2 2 2 2 2 2 2 2 2 2 2 2 2 2 2 2 2 2 2 2 2 2 2 2 2 2
left_child=1 -1 -3 4 5 10 7 12 15 -8 -4 13 -7 14 -5 -9 17 18 19 20 21 25 24 26 -19 -2 -16 -17
right_child=16 2 3 11 -6 6 9 8 -10 -11 -12 -13 -14 -15 23 27 -18 22 -20 -21 -22 -23 -24 -25 -26 -27 -28 -29
leaf_value=0.12666355519835079 0.10031505269544104 0.15200762829949754 -0.22037387745140624 -0.1037282945526284 0.026834577537104727 -0.12705952906735876 0.12769652932091621 -0.1031500519919788 0.28812728502372731 -0.00063903449759534006 -0.13390312288051651 -0.18009573345406313 -0.10040517473399349 -0.1202029818081749 -0.10040517473399338 -0.10040517473399342 0.10046290948156333 0.10031504754383876 0.1005573268089868 0.10036993889001194 0.1003285678690321 0.10031379637610259 0.10031503986061503 -0.10040517473399252 0.10031504963250826 0.10031505832680956 -0.10040517473399341 -0.10040517473399241
leaf_weight=0.90293164364993472 0.068876708624884486 0.52653846377506752 0.53853698913007975 0.57423670776188374 4.8025159984827086 1.3429269902408125 0.89423639932647325 0.23360815271735191 0.22805664828047145 0.92733792774379253 0.69618004607036421 0.46529854834079643 0.55062559759244312 0.13982506096363079 0.37378233997151256 0.41799315437674522 0.16591627523303021 0.078267992706970602 0.089229628909380687 0.10754625336267054 0.067762327147647738 0.062364311655983329 0.078265984542667977 0.088421628810465336 1.8220953524578329 0.065747256390750408 0.38985899975523353 0.080383298918604851
leaf_count=13 22 38 14 18 33 11 19 8 2 24 32 2 137 1 93 104 39 25 17 30 21 20 25 22 582 21 97 20
internal_value=0.000381009 -0.0179978 -0.0278407 -0.0352716 -0.0190221 -0.0562864 -0.0258271 -0.0821225 -0.00877767 0.0623627 -0.171618 -0.12096 -0.119309 -0.103391 -0.101743 -0.101281 0.100335 0.100327 0.100376 0.100333 0.100318 0.100315 0.100315 -0.100405 0.100315 0.100315 -0.100405 -0.100405
internal_weight=16.7794 14.1733 13.2704 12.7438 10.7124 5.90989 4.67517 2.85359 0.960041 1.82157 1.23472 2.03142 1.89355 1.56612 1.4263 0.731985 2.60607 2.44016 0.461526 0.372297 0.264751 0.196988 1.97863 0.852063 1.90036 0.134624 0.763641 0.498376
internal_count=1490 688 675 637 404 371 325 282 134 43 46 233 148 231 230 132 802 763 131 114 84 63 632 212 607 43 190 124
is_linear=0
shrinkage=0.1


Tree=50
num_leaves=27
num_cat=0
split_feature=1 5 8 10 6 6 6 10 11 9 10 6 10 8 9 8 8 6 3 0 0 6 0 7 4 0
split_gain=2.76683 1.83531 0.245973 0.8148 0.379567 0.782482 0.799099 0.31647 0.451243 3.75471e-07 2.13488e-07 1.37573e-07 1.04598e-07 2.67698e-07 1.80905e-08 4.21968e-08 1.5145e-08 7.22743e-10 2.4925e-10 8.62954e-10 5.00588e-12 6.66134e-16 2.22045e-16 2.22045e-16 1.94289e-16 2.77556e-17
threshold=0.59363852755082325 -0.97869810788732337 -0.95136465811308213 -0.9614637810977581 -0.90629152569133853 -0.89013664540957671 -0.82205377620054543 1.0278812349316315 -1.1591493900372287 0.963253302115329 1.1653323397998825 1.1738447007639563 -0.97811009787650127 -0.9306016576558197 0.9031359892804024 -0.93812670035210843 -0.95136465811308213 -0.94111791937593259 -1.0736213562734147 1.1124920891150913 -0.87525226672488843 1.1457219814889175 -0.82559995269475095 -1.1123963470598073 -0.90940660224890213 -0.78534699905645067
decision_type=2 2 2 2 2 2 2 2 2 2 2 2 2 2 2 2 2 2 2 2 2 2 2 2 2 2
left_child=1 9 -3 -4 -5 -6 -7 -8 -9 11 12 14 13 16 18 -16 17 20 -1 -20 24 22 23 -14 -2 -24
right_child=10 2 3 4 5 6 7 8 -10 -11 -12 -13 21 -15 15 -17 -18 -19 19 -21 -22 -23 25 -25 -26 -27
leaf_value=-0.10036647246096604 0.1002849780136075 0.033327508380117256 -0.075946723279756156 0.050189436388854085 -0.066538824088906615 0.07944810195284488 -0.048955638151721624 -0.037066400655490286 0.049965849447139048 -0.10060785445076369 0.10041870189574716 -0.10047169092121724 0.10028497681574139 0.10050404608679975 -0.10035038179387344 -0.10043042360285026 0.10033461664653148 0.1002972060054792 -0.10036647246096544 -0.10037896584366413 0.10028384267272313 0.10028496889140215 0.10028497994718891 0.10028497999593258 0.10028498583416279 0.10028498004001969
leaf_weight=1.437018642900511 0.062339863041415811 1.77627957984805 1.4618642553687085 1.5201623551547498 1.5855553969740839 1.3629240468144388 1.3383598756045203 1.0641633551567768 1.3533520568162227 0.073244992643594631 0.15018998808227468 0.14485661825165141 0.096342455595732956 0.080778933595867408 0.11819653096608818 0.14875623397529114 0.097344390815123916 0.061332086799666286 0.21464329096488688 0.07446926855482161 0.056445560185238719 0.056670138612389676 0.11617857473902404 1.4366475278511641 0.059507607948035002 0.08500874531455016
leaf_count=395 22 13 8 8 10 11 9 20 21 14 39 31 34 17 34 35 30 21 59 20 20 20 41 507 21 30
internal_value=0.000282683 -0.0169712 -0.000880387 -0.0071534 0.00507425 -0.00515528 0.0138584 -0.00994271 0.0116552 -0.100385 0.100303 -0.100378 0.100295 0.100341 -0.100371 -0.100395 0.100301 0.100288 -0.100367 -0.10037 0.100285 0.100285 0.100285 0.100285 0.100285 0.100285
internal_weight=16.0326 13.6738 11.4627 9.68638 8.22452 6.70435 5.1188 3.75588 2.41752 2.21119 2.35879 2.13794 2.2086 0.417748 1.99308 0.266953 0.33697 0.239625 1.72613 0.289113 0.178293 1.79085 1.73418 1.53299 0.121847 0.201187
internal_count=1490 688 100 87 79 71 61 50 41 588 802 574 763 131 543 69 114 84 474 79 63 632 612 541 43 71
is_linear=0
shrinkage=0.1


Tree=51
num_leaves=30
num_cat=0
split_feature=8 0 6 0 8 9 7 10 11 8 5 4 10 10 8 6 8 6 0 6 0 0 7 0 5 8 0 7 8
split_gain=2.64727 2.72266 1.81344 1.59017 1.40551 2.52153 0.658998 0.25682 2.4701 0.147761 0.0168125 0.000491497 1.12201e-07 7.7441e-08 1.98133e-07 6.77195e-08 1.12122e-08 5.35065e-10 3.71039e-12 6.66134e-16 2.22045e-16 2.22045e-16 2.22045e-16 2.08167e-16 1.11022e-16 1.11022e-16 5.55112e-17 5.55112e-17 5.55112e-17
threshold=1.1961109159599725 -0.59363852766155745 -0.94445187545742149 0.36896559810028179 -0.93812670035210843 0.9031359892804024 0.9094091297013378 1.0485407922005925 -1.0555799919121913 -0.96096281895822233 -0.97869810788732337 0.97869810788732081 1.1653323397998825 -0.97811009787650127 -0.9306016576558197 1.1738447007639563 -0.95136465811308213 -0.94111791937593259 -0.87525226672488843 1.1457219814889175 1.2112754362778986 -0.88919212988719332 -1.1445384542181687 -0.93947693140625843 -1.1384894533071719 1.0684566861477396 1.1985348114868148 -1.1021064633095381 -0.70749988048468782
decision_type=2 2 2 2 2 2 2 2 2 2 2 2 2 2 2 2 2 2 2 2 2 2 2 2 2 2 2 2 2
left_child=1 12 -3 -4 9 7 -7 10 11 -5 24 -9 13 14 16 20 17 18 23 21 22 -15 -13 -1 26 28 -6 -24 -23
right_child=-2 2 3 4 5 6 -8 8 -10 -11 -12 15 -14 19 -16 -17 -18 -19 -20 -21 -22 25 27 -25 -26 -27 -28 -29 -30
leaf_value=0.10025778500365908 0.33326693095420135 0.12043552108195843 0.0089406028887335214 -0.20245392223365533 -0.10033147305924738 0.12060822165077525 -0.0022117503706010132 -0.10347896144613236 0.23250393464802552 -0.13085753134056075 -0.122896343811146 -0.10033147319594499 0.10036594312842056 0.10025778519021709 0.1004558773502138 -0.10042661100643516 0.10030267955076831 0.10026884520275159 0.10025675875584264 0.10025777329001234 -0.10033147296957311 0.10025778481545281 -0.10033147311822183 0.10025779368812676 -0.10033147332826681 0.10025778872212283 -0.1003314729695729 -0.10033147311689306 0.10025778522810631
leaf_weight=0.051292738644406199 0.23512387624941844 0.83894225955009361 5.4288952648639661 0.53390092472545803 0.30294747184962023 0.84223979432135798 0.90766007080674171 0.87115310318767969 0.24814717983827117 0.62651385855860897 1.2317236848175537 0.54003657493740231 0.12234562286175776 1.023286514217032 0.07312506949528863 0.080368488561361917 0.088107467861846089 0.055510465987026691 0.051087150117382407 0.051290462957695016 0.085615613032132387 0.43342243158258498 0.36551264557056129 0.058987796306610107 0.075736806495115161 0.056421632179990411 0.072443980257958174 0.092201388441026877 0.056421854998919385
leaf_count=20 25 13 37 14 92 19 24 29 2 32 11 164 36 399 17 19 30 21 20 20 26 169 111 23 23 22 22 28 22
internal_value=0.000276688 -0.00485218 -0.0218182 -0.0315168 -0.0634588 -0.0430878 0.0569024 -0.0872073 -0.0653594 -0.163799 -0.116847 -0.101683 0.100273 0.100267 0.100308 -0.100338 0.100273 0.10026 0.100257 0.100258 -0.100331 0.100258 -0.100331 0.100258 -0.100331 0.100258 -0.100331 -0.100331 0.100258
internal_weight=15.5005 15.2653 13.144 12.3051 6.8762 5.71579 1.7499 3.96589 2.28303 1.16041 1.68285 2.03489 2.1213 1.99895 0.378111 1.16373 0.304986 0.216878 0.161368 1.62084 1.08337 1.56955 0.997751 0.110281 0.451128 0.546266 0.375391 0.457714 0.489844
internal_count=1490 1465 666 653 616 570 43 527 379 46 148 377 799 763 131 348 114 84 63 632 329 612 303 43 137 213 114 139 191
is_linear=0
shrinkage=0.1


Tree=52
num_leaves=29
num_cat=0
split_feature=1 5 8 10 6 6 6 10 10 9 8 10 9 8 10 8 6 8 3 0 6 0 8 0 10 0 1 1
split_gain=2.22186 1.60432 0.205119 0.638074 0.295213 0.645499 0.687549 0.21399 0.329225 6.55532e-07 5.62414e-07 9.37255e-08 5.83772e-08 1.17536e-07 5.73199e-08 1.46661e-07 4.9524e-08 8.29929e-09 1.33598e-09 4.63942e-09 3.95988e-10 2.73162e-12 1.9984e-15 2.22045e-16 1.66533e-16 1.11022e-16 1.11022e-16 6.93889e-17
threshold=0.59363852755082325 -0.97869810788732337 -0.95136465811308213 -0.9614637810977581 -0.90629152569133853 -0.89013664540957671 -0.82205377620054543 1.0278812349316315 1.1653323397998825 0.96386279310271961 1.1961109159599725 1.1653323397998825 0.9031359892804024 -0.93812670035210843 -0.97811009787650127 -0.9306016576558197 1.1738447007639563 -0.95136465811308213 -1.0736213562734147 1.1124920891150913 -0.94111791937593259 -0.87525226672488843 1.1059496697987139 1.1976320374166582 1.1497789565637715 1.1906832493784498 -1.1390652889701094 0.93176268866934353
decision_type=2 2 2 2 2 2 2 2 2 2 2 2 2 2 2 2 2 2 2 2 2 2 2 2 2 2 2 2
left_child=1 9 -3 -4 -5 -6 -7 -8 -9 10 12 14 16 -14 15 17 18 20 23 -20 21 27 -16 25 -24 26 -1 -2
right_child=11 2 3 4 5 6 7 8 -10 -11 -12 -13 13 -15 22 -17 -18 -19 19 -21 -22 -23 24 -25 -26 -27 -28 -29
leaf_value=-0.10029983078516368 0.10023320178562496 0.031689009889807988 -0.067404343168669903 0.045425910432656653 -0.060311035603720781 0.076347237795045306 -0.041655783812229008 0.04158842988391525 -0.033598392196457778 -0.10065323008412129 -0.10055385756424623 0.10033287439201335 -0.10027420568290651 -0.10041658086302607 0.10023320027994645 0.1004123309331429 -0.10038584719400211 0.10027379539458346 -0.10029983078516279 -0.10033215700871996 0.10024319702695202 0.10023226923382314 0.10023319124560942 -0.1002998307851632 0.10023318437821943 -0.10029983078516286 -0.10029983078516272 0.1002331965961461
leaf_weight=0.60502906818874014 0.046423399122431874 1.6969064436852921 1.4375813007354725 1.471318531781433 1.5575835667550544 1.2877205759286861 1.2765828017145442 1.3484716247767212 1.0251166289672253 0.063584396382793673 0.10268109431490291 0.12051448039710511 0.097829129314050078 0.14235850190743793 1.3346400577574984 0.066193534992634029 0.072748444043099769 0.079744731308892369 0.17286544805392656 0.059740075375884771 0.05024014413356781 0.046236286638304591 0.08588009118102502 0.28612212091684341 0.046420674072578549 0.14008062169887125 0.13113930542022001 0.053385790670290589
leaf_count=203 20 13 8 8 10 11 9 21 20 12 19 39 36 35 575 17 19 30 58 19 21 20 37 96 20 47 44 23
internal_value=0.000130213 -0.014759 -0.000311138 -0.00608518 0.00497966 -0.004182 0.0135231 -0.00864028 0.00911639 -0.100338 -0.100327 0.100247 -0.100313 -0.100359 0.100242 0.100279 -0.100305 0.100247 -0.100301 -0.100308 0.100236 0.100233 0.100233 -0.1003 0.100233 -0.1003 -0.1003 0.100233
internal_weight=14.9051 12.9755 11.1013 9.40438 7.96679 6.49548 4.93789 3.65017 2.37359 1.87418 1.81059 1.92968 1.70791 0.240188 1.80916 0.342224 1.46773 0.27603 1.39498 0.232606 0.196286 0.146045 1.46694 1.16237 0.132301 0.876249 0.736168 0.0998092
internal_count=1490 688 100 87 79 71 61 50 41 588 576 802 557 71 763 131 486 114 467 77 84 63 632 390 57 294 247 43
is_linear=0
shrinkage=0.1


Tree=53
num_leaves=24
num_cat=0
split_feature=1 5 0 10 6 6 6 9 8 10 9 8 10 8 6 8 3 0 6 0 6 9 4
split_gain=1.99013 1.47091 0.206825 0.553239 1.0234 0.338628 0.138064 4.8518e-07 4.16145e-07 6.94075e-08 4.32004e-08 8.69818e-08 4.24476e-08 1.08569e-07 3.66471e-08 6.14502e-09 9.8977e-10 3.43706e-09 2.93451e-10 2.02918e-12 6.66134e-16 2.22045e-16 9.71445e-17
threshold=0.59363852755082325 -0.97869810788732337 -0.32051169630885118 -0.95521108067783855 -0.88909865096672325 -0.73972635318147228 1.1497248122710515 0.96386279310271961 1.1961109159599725 1.1653323397998825 0.9031359892804024 -0.93812670035210843 -0.97811009787650127 -0.9306016576558197 1.1738447007639563 -0.95136465811308213 -1.0736213562734147 1.1124920891150913 -0.94111791937593259 -0.87525226672488843 1.1457219814889175 -1.121157565395398 -0.9086218584194693
decision_type=2 2 2 2 2 2 2 2 2 2 2 2 2 2 2 2 2 2 2 2 2 2 2
left_child=1 7 -3 -4 -5 -6 -7 8 10 12 14 -12 13 15 16 18 -1 -18 19 22 21 -14 -2
right_child=9 2 3 4 5 6 -8 -9 -10 -11 11 -13 20 -15 -16 -17 17 -19 -20 -21 -22 -23 -24
leaf_value=-0.10027121856048832 0.10021095417727849 0.022155365203852861 0.039722993858786471 -0.071537239978377049 0.043420898750056426 -0.040955085764577549 0.013088465210408129 -0.10059074980664383 -0.10050087995864006 0.10030111412861459 -0.10024804305937192 -0.10037678303178606 0.10021095207774938 0.10037295764865949 -0.10034899317136022 0.10024767668044648 -0.10027121856048743 -0.10030046463416592 0.10022000373242435 0.10021011461750058 0.10021094397808172 0.10021095453344456 0.10021096019100383
leaf_weight=1.05204177321866 0.04831556836143136 2.9942085370421401 1.8259596452116955 2.5474060028791419 1.7145579233765593 1.0969883985817439 0.83064427599310886 0.057567459531128296 0.092956182546913513 0.10907878330908705 0.088541386649012566 0.12885976815596212 0.063019498949869024 0.0599166869651514 0.065848462982103118 0.072173860622569919 0.15645749447867308 0.054071266204118729 0.045469148317351937 0.041845100000500679 0.042011705925688259 1.2225914415903418 0.042014547390863299
leaf_count=390 23 24 11 13 12 21 19 12 19 39 36 35 30 17 19 30 58 19 21 20 20 582 20
internal_value=0.000132183 -0.0136253 -0.000269922 -0.00864688 -0.0229162 0.0110901 -0.017667 -0.100305 -0.100295 0.100224 -0.100283 -0.100324 0.100219 0.100252 -0.100276 0.100223 -0.100272 -0.100279 0.100213 0.100211 0.100211 0.100211 0.100211
internal_weight=14.4525 12.7061 11.0098 8.01556 6.1896 3.64219 1.92763 1.69634 1.63878 1.74644 1.54582 0.217401 1.63736 0.309735 1.32842 0.249818 1.26257 0.210529 0.177644 0.132175 1.32762 1.28561 0.0903301
internal_count=1490 688 100 76 65 52 40 588 576 802 557 71 763 131 486 114 467 77 84 63 632 612 43
is_linear=0
shrinkage=0.1


Tree=54
num_leaves=30
num_cat=0
split_feature=1 11 7 6 3 8 9 7 10 11 0 8 5 0 4 8 10 10 8 6 8 8 6 0 8 0 1 4 0
split_gain=1.7833 1.38487 3.54206 1.29554 1.20095 1.44201 1.88778 0.606064 0.387956 1.8833 0.139767 0.0961919 0.00889833 0.00026139 0.000165523 2.61378e-07 5.14014e-08 3.14298e-08 8.03752e-08 1.4016e-08 1.18266e-08 4.54967e-09 2.17284e-10 1.50449e-12 6.66134e-16 1.11022e-16 5.55112e-17 5.55112e-17 2.77556e-17
threshold=0.59363852755082325 -1.1756300404140523 -1.1727944710263534 -0.94445187545742149 -0.26676424775270113 -0.93812670035210843 0.9031359892804024 0.9094091297013378 1.0485407922005925 -1.0555799919121913 -1.0000000180025095e-35 -0.96096281895822233 -0.97869810788732337 1.0192209382984803 0.97869810788732081 1.1961109159599725 1.1653323397998825 -0.97811009787650127 -0.9306016576558197 1.1722056083826213 1.1864060684359889 -0.95136465811308213 -0.94111791937593259 -0.87525226672488843 1.1443289576211944 1.1399781752853515 -1.1212039359766777 -0.9086218584194693 1.1107873544268487
decision_type=2 2 2 2 2 2 2 2 2 2 2 2 2 2 2 2 2 2 2 2 2 2 2 2 2 2 2 2 2
left_child=1 10 -3 -4 5 11 8 -8 12 14 -1 -5 26 -12 -10 19 17 18 21 -15 25 22 23 27 -19 28 -7 -2 -16
right_child=16 2 3 4 -6 6 7 -9 9 -11 13 -13 -14 15 20 -17 -18 24 -20 -21 -22 -23 -24 -25 -26 -27 -28 -29 -30
leaf_value=-0.18797060538929053 0.10019083926836886 0.34726394100807978 0.11496927133619861 -0.18719898354983849 0.015202381316368856 -0.10024533907882296 0.11860214436029858 -0.0011445856793923981 -0.10287375962273765 0.20409495294772961 -0.10391127581472626 -0.12748735550876278 -0.11883851971465953 -0.10024533879595077 -0.10024533928317043 -0.10047443999195656 0.100272393653314 0.10019083828650724 0.1003373540468082 -0.10030037426496335 -0.10029727799963727 0.10022405347376058 0.10019902431128276 0.10019007906153998 0.10019083217124113 -0.10024533907681964 -0.10024533866411321 0.10019084406570125 -0.10024533612592107
leaf_weight=0.24897612631320953 0.043726065079681575 0.28245660057291289 0.75727265933528265 0.52141631557606161 4.9427286870777616 0.25146752945147444 0.79895427497103788 0.89739960059523582 0.42951471358537319 0.25440804660320615 0.41417794674635 0.55904085841029505 1.1169199077412497 0.26367416861467063 0.075684510404244065 0.065374060068279505 0.098725399235263356 1.1596881314180807 0.054233118891714782 0.0561236587818712 0.048071455443277955 0.065320219262503088 0.041150363045744598 0.037870198953896761 0.041823389357887319 0.37353914044797421 0.083008457906544209 0.038023579283617437 0.048827636521309614
leaf_count=1 23 8 13 14 35 103 19 24 17 2 13 32 11 108 31 14 39 610 17 19 17 30 21 20 22 153 34 20 20
internal_value=0.000126311 -0.0125389 -0.00245888 -0.0113117 -0.0205059 -0.0528416 -0.0273068 0.0552541 -0.079537 -0.038219 -0.122546 -0.156304 -0.114554 -0.102167 -0.101405 -0.100292 0.100203 0.100198 0.100228 -0.100255 -0.10025 0.100202 0.100193 0.100191 0.100191 -0.100245 -0.100245 0.100191 -0.100245
